FANN_FLO_2.1
num_layers=8
learning_rate=0.700000
connection_rate=1.000000
network_type=0
learning_momentum=0.000000
training_algorithm=2
train_error_function=1
train_stop_function=0
cascade_output_change_fraction=0.010000
quickprop_decay=-0.000100
quickprop_mu=1.750000
rprop_increase_factor=1.200000
rprop_decrease_factor=0.500000
rprop_delta_min=0.000000
rprop_delta_max=50.000000
rprop_delta_zero=0.100000
cascade_output_stagnation_epochs=12
cascade_candidate_change_fraction=0.010000
cascade_candidate_stagnation_epochs=12
cascade_max_out_epochs=150
cascade_max_cand_epochs=150
cascade_num_candidate_groups=2
bit_fail_limit=3.49999999999999977796e-01
cascade_candidate_limit=1.00000000000000000000e+03
cascade_weight_multiplier=4.00000000000000022204e-01
cascade_activation_functions_count=10
cascade_activation_functions=3 5 7 8 10 11 14 15 16 17 
cascade_activation_steepnesses_count=4
cascade_activation_steepnesses=2.50000000000000000000e-01 5.00000000000000000000e-01 7.50000000000000000000e-01 1.00000000000000000000e+00 
layer_sizes=19 1 1 1 1 1 1 7 
scale_included=0
neurons (num_inputs, activation_function, activation_steepness)=(0, 0, 0.00000000000000000000e+00) (0, 0, 0.00000000000000000000e+00) (0, 0, 0.00000000000000000000e+00) (0, 0, 0.00000000000000000000e+00) (0, 0, 0.00000000000000000000e+00) (0, 0, 0.00000000000000000000e+00) (0, 0, 0.00000000000000000000e+00) (0, 0, 0.00000000000000000000e+00) (0, 0, 0.00000000000000000000e+00) (0, 0, 0.00000000000000000000e+00) (0, 0, 0.00000000000000000000e+00) (0, 0, 0.00000000000000000000e+00) (0, 0, 0.00000000000000000000e+00) (0, 0, 0.00000000000000000000e+00) (0, 0, 0.00000000000000000000e+00) (0, 0, 0.00000000000000000000e+00) (0, 0, 0.00000000000000000000e+00) (0, 0, 0.00000000000000000000e+00) (0, 0, 0.00000000000000000000e+00) (19, 17, 7.50000000000000000000e-01) (20, 3, 5.00000000000000000000e-01) (21, 11, 2.50000000000000000000e-01) (22, 5, 5.00000000000000000000e-01) (23, 5, 7.50000000000000000000e-01) (24, 3, 1.00000000000000000000e+00) (25, 5, 5.00000000000000000000e-01) (25, 5, 5.00000000000000000000e-01) (25, 5, 5.00000000000000000000e-01) (25, 5, 5.00000000000000000000e-01) (25, 5, 5.00000000000000000000e-01) (25, 5, 5.00000000000000000000e-01) (6, 5, 0.00000000000000000000e+00) 
connections (connected_to_neuron, weight)=(0, 1.05888836114006812394e+00) (1, -6.72382270730137676651e-01) (2, 9.42148632974125488371e-02) (3, 6.17436671190850661084e-01) (4, -2.96299224108739267525e-01) (5, 3.74048381612567371057e-01) (6, 5.94156801775184484349e-01) (7, 3.42837527466718416935e-01) (8, 1.33680518069963366612e-01) (9, -2.46828772826597236945e-01) (10, -2.75844630157447645580e-01) (11, 7.59992894949183761533e-01) (12, 1.90756509720470895930e-01) (13, 1.06928045190798171049e+00) (14, -6.35625486901362796860e-03) (15, -1.50319092470672710515e-01) (16, 3.72376962629441587982e-01) (17, 9.64010691388848123262e-03) (18, -6.11900543856490064520e-01) (0, -1.27574303278954153029e+03) (1, 1.50000000000000000000e+03) (2, -1.46646141548700984458e+03) (3, 1.50000000000000000000e+03) (4, 1.50000000000000000000e+03) (5, 1.50000000000000000000e+03) (6, 5.51800127323880928998e+00) (7, -1.39325681108196977220e+03) (8, -9.36851217004029876989e+02) (9, 2.91095337534232143639e+01) (10, 1.50000000000000000000e+03) (11, 3.36854411501906838566e+02) (12, 1.50000000000000000000e+03) (13, 1.50000000000000000000e+03) (14, -6.87694891585822233537e+02) (15, 1.50000000000000000000e+03) (16, 1.50000000000000000000e+03) (17, 1.82709766380382170325e+01) (18, 4.50115059732688660432e+00) (19, -1.50000000000000000000e+03) (0, -1.01760469433023775787e-01) (1, 8.25623543828262196342e-02) (2, 5.48619533813078041895e-01) (3, -1.35658230827385178907e-01) (4, -3.51509890683870784844e-01) (5, 1.66224815645154566646e-01) (6, -2.73324644248801318369e-01) (7, 2.74108707737565626683e-01) (8, 5.39464936480040013755e-01) (9, 7.58357098230758464724e-03) (10, -8.08888404006510158828e-02) (11, 3.04599268122795252545e-01) (12, 8.08704875866232825166e-02) (13, 2.92612475848769704179e-01) (14, 5.45108707427215843921e-01) (15, 2.59783984550714719397e-01) (16, 4.91937869517782622175e-01) (17, 3.27195838831901786303e-01) (18, 1.63971058342088464588e-02) (19, 8.21074200721293556704e-01) (20, -7.00304689164343407981e-01) (0, -8.68467130707859857885e-01) (1, 1.19903979107979941077e+00) (2, 5.25300233835059082743e-01) (3, 2.40269308910458345707e+00) (4, 4.29413461229375847950e+00) (5, 1.76269282091747148122e+00) (6, 6.09497989027324549305e-01) (7, 2.00506929058309957270e+00) (8, 1.13605097787942632692e+00) (9, 2.84770195152330840571e+00) (10, 3.01643229522051470326e-01) (11, 9.08700065173846716071e-01) (12, 2.55195058878390279578e-01) (13, 2.00892990095093715297e+00) (14, -6.52146116717269436203e-02) (15, 7.83095635216584429195e-01) (16, 2.15443935545932285791e+00) (17, 1.73801317506050545525e+00) (18, 6.27602851333709410575e-01) (19, 3.54412078953894793543e+00) (20, 1.03121323710709145161e+01) (21, 2.09659894360620091547e+00) (0, -1.03957317301693619171e+00) (1, -1.06976404428542615221e+00) (2, -1.71776487100333663527e-01) (3, -2.87870434420761101002e-01) (4, -1.11243327252527590687e+00) (5, -1.94437527396533726964e+00) (6, -1.63557087685400071031e+00) (7, -1.18453893233904783422e+00) (8, -2.18457018832206251169e-01) (9, -1.46469587331019202026e+00) (10, -3.51175259253873850440e+00) (11, -1.93617903500324683996e+00) (12, -4.73108370808331013535e-01) (13, -3.39714222686636868609e-01) (14, -2.85322530456193934612e+00) (15, -3.33406030627966609714e+00) (16, -3.49265088426592651416e-01) (17, -1.53753470655993724342e-02) (18, -2.90654412129810246768e+00) (19, -7.54766916712093571817e+00) (20, 9.68089539259827325246e-01) (21, 1.32710896403317548220e+02) (22, -1.21890979098361913202e+03) (0, 1.74899852579970072064e+00) (1, -1.27752551541037512317e-01) (2, 2.96762292690746720680e-01) (3, 9.67447045892285029112e-01) (4, 8.30289463880118927541e-01) (5, -2.77487388048824723530e-01) (6, 2.69941357217366340038e-01) (7, 9.60397441170708798808e-01) (8, 7.48475670518593427794e-01) (9, -5.20257972761377640580e-01) (10, -1.08639122601372331567e-01) (11, 5.44337767740958544671e-01) (12, 1.19367314560742987517e+00) (13, 1.22832817147953754500e+00) (14, 7.17862376455654094265e-01) (15, 1.13255031863468191844e+00) (16, 6.51984296637074800529e-01) (17, 1.00138889434119332522e-01) (18, 1.64931663815783968730e+00) (19, 1.34889812544040887943e+00) (20, 3.22036259652462408809e+00) (21, 9.26782876155809898222e-01) (22, -1.36747690577122194000e+00) (23, 3.73548748328144020192e+00) (0, 5.70518429701507784557e+02) (1, -1.50000000000000000000e+03) (2, -5.98577213848113046879e+02) (3, -3.63551375160504449013e+02) (4, -1.47839999742507916380e+03) (5, 3.25374081039361271905e+02) (6, -8.56035291423164721891e+02) (7, 1.50000000000000000000e+03) (8, 4.96618626915732136240e+02) (9, 4.96614577277628711727e+02) (10, 4.96617095494221246099e+02) (11, 4.96616906115621475237e+02) (12, 4.96613535718050513879e+02) (13, 4.96613449484103227860e+02) (14, 4.96614016996983025365e+02) (15, 4.96613233927243697963e+02) (16, 2.57734755859068002337e+02) (17, 2.02405196882746851728e+00) (18, 1.97969780544129436706e+00) (19, -5.82187715383654449397e+02) (20, 1.00676392281620690028e+03) (21, -1.06321325253563102819e+02) (22, -5.78685047409722415068e+02) (23, 3.72895574225808729807e+02) (24, 1.50000000000000000000e+03) (0, 9.63215458990601014477e+00) (1, -4.81948179990269025552e+01) (2, -1.50000000000000000000e+03) (3, -1.42613928895888238912e+03) (4, 1.19617283733570843651e+03) (5, 1.49998685787847421125e+03) (6, 9.18969781869781854766e+02) (7, 1.50000000000000000000e+03) (8, 5.17328063892843715621e+02) (9, 5.17326438214488575795e+02) (10, 5.17325960909615901073e+02) (11, 5.17325282007863620493e+02) (12, 5.17326692594941164316e+02) (13, 5.17324893057382382722e+02) (14, 5.17324946839467997961e+02) (15, 5.17325968022200981977e+02) (16, -2.90879764226453971787e+02) (17, 2.36534174060881696278e+02) (18, 2.36496697733067094305e+02) (19, -5.42664394180025396963e+02) (20, 2.85499114647821158997e+02) (21, 2.36373133796450247246e+02) (22, -4.64236615394068621754e+02) (23, 3.12583205947649901191e+02) (24, 1.50000000000000000000e+03) (0, -1.86627158595024781107e+02) (1, -1.45720274559830812677e+02) (2, -1.22648639678163885947e+03) (3, -1.50000000000000000000e+03) (4, 1.08778406842898857576e+03) (5, 1.40875012871146441285e+03) (6, -1.37427587798160743660e+02) (7, 1.50000000000000000000e+03) (8, 2.44447956011007164534e+02) (9, 2.44447834056903190003e+02) (10, 2.44446878414474014107e+02) (11, 2.44445026558058344790e+02) (12, 2.44446858904197512175e+02) (13, 2.44445281384134233349e+02) (14, 2.44447080552540484177e+02) (15, 2.44445553666708661922e+02) (16, 1.70858393937446095379e+02) (17, 1.00337282427053139600e+02) (18, 1.00349046901037638690e+02) (19, -4.10831742838204718282e+02) (20, 3.68239990925132588018e+02) (21, 1.00214507418798703497e+02) (22, -1.82935147426022780337e+02) (23, 4.39592383047937346419e+02) (24, 1.50000000000000000000e+03) (0, -2.08023054874431409189e+02) (1, -9.98799356410712221077e+02) (2, 3.35124943931667871766e+02) (3, 7.08896150304767047601e+02) (4, -1.50000000000000000000e+03) (5, 4.00819462344154146649e+02) (6, -9.08032002942119675026e+02) (7, 1.50000000000000000000e+03) (8, 1.29215681356641141520e+02) (9, 1.29214833446000511685e+02) (10, 1.29215740047803478774e+02) (11, 1.29214102454433486855e+02) (12, 1.29213784798126141595e+02) (13, 1.29212619382672016854e+02) (14, 1.29216032799815479848e+02) (15, 1.29213065835670704473e+02) (16, 2.18800595253927411932e+02) (17, -2.12478747283957773107e+02) (18, -2.12405716955166212756e+02) (19, -3.47385150385786573679e+02) (20, 1.24268969197819885153e+02) (21, -2.12568979878146024021e+02) (22, -1.21963759254939503762e+02) (23, 1.54694447909858723733e+02) (24, 1.50000000000000000000e+03) (0, -2.90247576690240407515e+02) (1, -7.84186093276978226640e+01) (2, 4.78076103522138211588e+01) (3, 1.41224902335399565345e+03) (4, 1.73663448081000808543e+02) (5, -1.50000000000000000000e+03) (6, 1.11289693787251081858e+02) (7, 1.50000000000000000000e+03) (8, 9.43914229512202069827e+01) (9, 9.43909241864623851370e+01) (10, 9.43888031655439050382e+01) (11, 9.43893072158301862373e+01) (12, 9.43901035808219290857e+01) (13, 9.43909180897972674984e+01) (14, 9.43904936566361385530e+01) (15, 9.43896190032858868335e+01) (16, 2.21075926745553402952e+02) (17, -1.00443321394700760152e+02) (18, -1.00415796820419231494e+02) (19, -3.31479827706196715553e+02) (20, 2.46588616425810300825e+02) (21, -1.00611449162479672736e+02) (22, -1.40521657998041746396e+02) (23, 2.33714379131333203077e+02) (24, 1.50000000000000000000e+03) (0, -1.21089192703335712054e+02) (1, 7.08021949599244777573e+01) (2, 5.05560215175283218514e+01) (3, -5.60588271859629045935e+01) (4, -1.02180107984332877891e+02) (5, 1.58975013959954168286e+02) (6, -1.50000000000000000000e+03) (7, 1.50000000000000000000e+03) (8, 2.91975172232763497959e+02) (9, 2.91972963818493894905e+02) (10, 2.91973057724069690266e+02) (11, 2.91973410843863689479e+02) (12, 2.91972471350849446026e+02) (13, 2.91974794129230531325e+02) (14, 2.91972843014529644279e+02) (15, 2.91972892589296975530e+02) (16, 1.15633021256119249642e+02) (17, -9.46908245386809852562e+01) (18, -9.47466101610350364126e+01) (19, -5.12042275670751564576e+02) (20, 1.92410519374757313926e+02) (21, -9.47052763181026051598e+01) (22, -3.11799869632692150390e+02) (23, 2.05814869307950175426e+02) (24, 1.50000000000000000000e+03) (0, 1.50000000000000000000e+03) (1, 1.50000000000000000000e+03) (2, 1.50000000000000000000e+03) (3, 1.50000000000000000000e+03) (4, 1.50000000000000000000e+03) (5, 1.50000000000000000000e+03) 
