FANN_FLO_2.1
num_layers=4
learning_rate=0.700000
connection_rate=1.000000
network_type=0
learning_momentum=0.000000
training_algorithm=2
train_error_function=1
train_stop_function=0
cascade_output_change_fraction=0.010000
quickprop_decay=-0.000100
quickprop_mu=1.750000
rprop_increase_factor=1.200000
rprop_decrease_factor=0.500000
rprop_delta_min=0.000000
rprop_delta_max=50.000000
rprop_delta_zero=0.100000
cascade_output_stagnation_epochs=12
cascade_candidate_change_fraction=0.010000
cascade_candidate_stagnation_epochs=12
cascade_max_out_epochs=150
cascade_max_cand_epochs=150
cascade_num_candidate_groups=2
bit_fail_limit=3.49999999999999977796e-01
cascade_candidate_limit=1.00000000000000000000e+03
cascade_weight_multiplier=4.00000000000000022204e-01
cascade_activation_functions_count=10
cascade_activation_functions=3 5 7 8 10 11 14 15 16 17 
cascade_activation_steepnesses_count=4
cascade_activation_steepnesses=2.50000000000000000000e-01 5.00000000000000000000e-01 7.50000000000000000000e-01 1.00000000000000000000e+00 
layer_sizes=19 301 53 53 
scale_included=0
neurons (num_inputs, activation_function, activation_steepness)=(0, 0, 0.00000000000000000000e+00) (0, 0, 0.00000000000000000000e+00) (0, 0, 0.00000000000000000000e+00) (0, 0, 0.00000000000000000000e+00) (0, 0, 0.00000000000000000000e+00) (0, 0, 0.00000000000000000000e+00) (0, 0, 0.00000000000000000000e+00) (0, 0, 0.00000000000000000000e+00) (0, 0, 0.00000000000000000000e+00) (0, 0, 0.00000000000000000000e+00) (0, 0, 0.00000000000000000000e+00) (0, 0, 0.00000000000000000000e+00) (0, 0, 0.00000000000000000000e+00) (0, 0, 0.00000000000000000000e+00) (0, 0, 0.00000000000000000000e+00) (0, 0, 0.00000000000000000000e+00) (0, 0, 0.00000000000000000000e+00) (0, 0, 0.00000000000000000000e+00) (0, 0, 0.00000000000000000000e+00) (19, 5, 5.00000000000000000000e-01) (19, 5, 5.00000000000000000000e-01) (19, 5, 5.00000000000000000000e-01) (19, 5, 5.00000000000000000000e-01) (19, 5, 5.00000000000000000000e-01) (19, 5, 5.00000000000000000000e-01) (19, 5, 5.00000000000000000000e-01) (19, 5, 5.00000000000000000000e-01) (19, 5, 5.00000000000000000000e-01) (19, 5, 5.00000000000000000000e-01) (19, 5, 5.00000000000000000000e-01) (19, 5, 5.00000000000000000000e-01) (19, 5, 5.00000000000000000000e-01) (19, 5, 5.00000000000000000000e-01) (19, 5, 5.00000000000000000000e-01) (19, 5, 5.00000000000000000000e-01) (19, 5, 5.00000000000000000000e-01) (19, 5, 5.00000000000000000000e-01) (19, 5, 5.00000000000000000000e-01) (19, 5, 5.00000000000000000000e-01) (19, 5, 5.00000000000000000000e-01) (19, 5, 5.00000000000000000000e-01) (19, 5, 5.00000000000000000000e-01) (19, 5, 5.00000000000000000000e-01) (19, 5, 5.00000000000000000000e-01) (19, 5, 5.00000000000000000000e-01) (19, 5, 5.00000000000000000000e-01) (19, 5, 5.00000000000000000000e-01) (19, 5, 5.00000000000000000000e-01) (19, 5, 5.00000000000000000000e-01) (19, 5, 5.00000000000000000000e-01) (19, 5, 5.00000000000000000000e-01) (19, 5, 5.00000000000000000000e-01) (19, 5, 5.00000000000000000000e-01) (19, 5, 5.00000000000000000000e-01) (19, 5, 5.00000000000000000000e-01) (19, 5, 5.00000000000000000000e-01) (19, 5, 5.00000000000000000000e-01) (19, 5, 5.00000000000000000000e-01) (19, 5, 5.00000000000000000000e-01) (19, 5, 5.00000000000000000000e-01) (19, 5, 5.00000000000000000000e-01) (19, 5, 5.00000000000000000000e-01) (19, 5, 5.00000000000000000000e-01) (19, 5, 5.00000000000000000000e-01) (19, 5, 5.00000000000000000000e-01) (19, 5, 5.00000000000000000000e-01) (19, 5, 5.00000000000000000000e-01) (19, 5, 5.00000000000000000000e-01) (19, 5, 5.00000000000000000000e-01) (19, 5, 5.00000000000000000000e-01) (19, 5, 5.00000000000000000000e-01) (19, 5, 5.00000000000000000000e-01) (19, 5, 5.00000000000000000000e-01) (19, 5, 5.00000000000000000000e-01) (19, 5, 5.00000000000000000000e-01) (19, 5, 5.00000000000000000000e-01) (19, 5, 5.00000000000000000000e-01) (19, 5, 5.00000000000000000000e-01) (19, 5, 5.00000000000000000000e-01) (19, 5, 5.00000000000000000000e-01) (19, 5, 5.00000000000000000000e-01) (19, 5, 5.00000000000000000000e-01) (19, 5, 5.00000000000000000000e-01) (19, 5, 5.00000000000000000000e-01) (19, 5, 5.00000000000000000000e-01) (19, 5, 5.00000000000000000000e-01) (19, 5, 5.00000000000000000000e-01) (19, 5, 5.00000000000000000000e-01) (19, 5, 5.00000000000000000000e-01) (19, 5, 5.00000000000000000000e-01) (19, 5, 5.00000000000000000000e-01) (19, 5, 5.00000000000000000000e-01) (19, 5, 5.00000000000000000000e-01) (19, 5, 5.00000000000000000000e-01) (19, 5, 5.00000000000000000000e-01) (19, 5, 5.00000000000000000000e-01) (19, 5, 5.00000000000000000000e-01) (19, 5, 5.00000000000000000000e-01) (19, 5, 5.00000000000000000000e-01) (19, 5, 5.00000000000000000000e-01) (19, 5, 5.00000000000000000000e-01) (19, 5, 5.00000000000000000000e-01) (19, 5, 5.00000000000000000000e-01) (19, 5, 5.00000000000000000000e-01) (19, 5, 5.00000000000000000000e-01) (19, 5, 5.00000000000000000000e-01) (19, 5, 5.00000000000000000000e-01) (19, 5, 5.00000000000000000000e-01) (19, 5, 5.00000000000000000000e-01) (19, 5, 5.00000000000000000000e-01) (19, 5, 5.00000000000000000000e-01) (19, 5, 5.00000000000000000000e-01) (19, 5, 5.00000000000000000000e-01) (19, 5, 5.00000000000000000000e-01) (19, 5, 5.00000000000000000000e-01) (19, 5, 5.00000000000000000000e-01) (19, 5, 5.00000000000000000000e-01) (19, 5, 5.00000000000000000000e-01) (19, 5, 5.00000000000000000000e-01) (19, 5, 5.00000000000000000000e-01) (19, 5, 5.00000000000000000000e-01) (19, 5, 5.00000000000000000000e-01) (19, 5, 5.00000000000000000000e-01) (19, 5, 5.00000000000000000000e-01) (19, 5, 5.00000000000000000000e-01) (19, 5, 5.00000000000000000000e-01) (19, 5, 5.00000000000000000000e-01) (19, 5, 5.00000000000000000000e-01) (19, 5, 5.00000000000000000000e-01) (19, 5, 5.00000000000000000000e-01) (19, 5, 5.00000000000000000000e-01) (19, 5, 5.00000000000000000000e-01) (19, 5, 5.00000000000000000000e-01) (19, 5, 5.00000000000000000000e-01) (19, 5, 5.00000000000000000000e-01) (19, 5, 5.00000000000000000000e-01) (19, 5, 5.00000000000000000000e-01) (19, 5, 5.00000000000000000000e-01) (19, 5, 5.00000000000000000000e-01) (19, 5, 5.00000000000000000000e-01) (19, 5, 5.00000000000000000000e-01) (19, 5, 5.00000000000000000000e-01) (19, 5, 5.00000000000000000000e-01) (19, 5, 5.00000000000000000000e-01) (19, 5, 5.00000000000000000000e-01) (19, 5, 5.00000000000000000000e-01) (19, 5, 5.00000000000000000000e-01) (19, 5, 5.00000000000000000000e-01) (19, 5, 5.00000000000000000000e-01) (19, 5, 5.00000000000000000000e-01) (19, 5, 5.00000000000000000000e-01) (19, 5, 5.00000000000000000000e-01) (19, 5, 5.00000000000000000000e-01) (19, 5, 5.00000000000000000000e-01) (19, 5, 5.00000000000000000000e-01) (19, 5, 5.00000000000000000000e-01) (19, 5, 5.00000000000000000000e-01) (19, 5, 5.00000000000000000000e-01) (19, 5, 5.00000000000000000000e-01) (19, 5, 5.00000000000000000000e-01) (19, 5, 5.00000000000000000000e-01) (19, 5, 5.00000000000000000000e-01) (19, 5, 5.00000000000000000000e-01) (19, 5, 5.00000000000000000000e-01) (19, 5, 5.00000000000000000000e-01) (19, 5, 5.00000000000000000000e-01) (19, 5, 5.00000000000000000000e-01) (19, 5, 5.00000000000000000000e-01) (19, 5, 5.00000000000000000000e-01) (19, 5, 5.00000000000000000000e-01) (19, 5, 5.00000000000000000000e-01) (19, 5, 5.00000000000000000000e-01) (19, 5, 5.00000000000000000000e-01) (19, 5, 5.00000000000000000000e-01) (19, 5, 5.00000000000000000000e-01) (19, 5, 5.00000000000000000000e-01) (19, 5, 5.00000000000000000000e-01) (19, 5, 5.00000000000000000000e-01) (19, 5, 5.00000000000000000000e-01) (19, 5, 5.00000000000000000000e-01) (19, 5, 5.00000000000000000000e-01) (19, 5, 5.00000000000000000000e-01) (19, 5, 5.00000000000000000000e-01) (19, 5, 5.00000000000000000000e-01) (19, 5, 5.00000000000000000000e-01) (19, 5, 5.00000000000000000000e-01) (19, 5, 5.00000000000000000000e-01) (19, 5, 5.00000000000000000000e-01) (19, 5, 5.00000000000000000000e-01) (19, 5, 5.00000000000000000000e-01) (19, 5, 5.00000000000000000000e-01) (19, 5, 5.00000000000000000000e-01) (19, 5, 5.00000000000000000000e-01) (19, 5, 5.00000000000000000000e-01) (19, 5, 5.00000000000000000000e-01) (19, 5, 5.00000000000000000000e-01) (19, 5, 5.00000000000000000000e-01) (19, 5, 5.00000000000000000000e-01) (19, 5, 5.00000000000000000000e-01) (19, 5, 5.00000000000000000000e-01) (19, 5, 5.00000000000000000000e-01) (19, 5, 5.00000000000000000000e-01) (19, 5, 5.00000000000000000000e-01) (19, 5, 5.00000000000000000000e-01) (19, 5, 5.00000000000000000000e-01) (19, 5, 5.00000000000000000000e-01) (19, 5, 5.00000000000000000000e-01) (19, 5, 5.00000000000000000000e-01) (19, 5, 5.00000000000000000000e-01) (19, 5, 5.00000000000000000000e-01) (19, 5, 5.00000000000000000000e-01) (19, 5, 5.00000000000000000000e-01) (19, 5, 5.00000000000000000000e-01) (19, 5, 5.00000000000000000000e-01) (19, 5, 5.00000000000000000000e-01) (19, 5, 5.00000000000000000000e-01) (19, 5, 5.00000000000000000000e-01) (19, 5, 5.00000000000000000000e-01) (19, 5, 5.00000000000000000000e-01) (19, 5, 5.00000000000000000000e-01) (19, 5, 5.00000000000000000000e-01) (19, 5, 5.00000000000000000000e-01) (19, 5, 5.00000000000000000000e-01) (19, 5, 5.00000000000000000000e-01) (19, 5, 5.00000000000000000000e-01) (19, 5, 5.00000000000000000000e-01) (19, 5, 5.00000000000000000000e-01) (19, 5, 5.00000000000000000000e-01) (19, 5, 5.00000000000000000000e-01) (19, 5, 5.00000000000000000000e-01) (19, 5, 5.00000000000000000000e-01) (19, 5, 5.00000000000000000000e-01) (19, 5, 5.00000000000000000000e-01) (19, 5, 5.00000000000000000000e-01) (19, 5, 5.00000000000000000000e-01) (19, 5, 5.00000000000000000000e-01) (19, 5, 5.00000000000000000000e-01) (19, 5, 5.00000000000000000000e-01) (19, 5, 5.00000000000000000000e-01) (19, 5, 5.00000000000000000000e-01) (19, 5, 5.00000000000000000000e-01) (19, 5, 5.00000000000000000000e-01) (19, 5, 5.00000000000000000000e-01) (19, 5, 5.00000000000000000000e-01) (19, 5, 5.00000000000000000000e-01) (19, 5, 5.00000000000000000000e-01) (19, 5, 5.00000000000000000000e-01) (19, 5, 5.00000000000000000000e-01) (19, 5, 5.00000000000000000000e-01) (19, 5, 5.00000000000000000000e-01) (19, 5, 5.00000000000000000000e-01) (19, 5, 5.00000000000000000000e-01) (19, 5, 5.00000000000000000000e-01) (19, 5, 5.00000000000000000000e-01) (19, 5, 5.00000000000000000000e-01) (19, 5, 5.00000000000000000000e-01) (19, 5, 5.00000000000000000000e-01) (19, 5, 5.00000000000000000000e-01) (19, 5, 5.00000000000000000000e-01) (19, 5, 5.00000000000000000000e-01) (19, 5, 5.00000000000000000000e-01) (19, 5, 5.00000000000000000000e-01) (19, 5, 5.00000000000000000000e-01) (19, 5, 5.00000000000000000000e-01) (19, 5, 5.00000000000000000000e-01) (19, 5, 5.00000000000000000000e-01) (19, 5, 5.00000000000000000000e-01) (19, 5, 5.00000000000000000000e-01) (19, 5, 5.00000000000000000000e-01) (19, 5, 5.00000000000000000000e-01) (19, 5, 5.00000000000000000000e-01) (19, 5, 5.00000000000000000000e-01) (19, 5, 5.00000000000000000000e-01) (19, 5, 5.00000000000000000000e-01) (19, 5, 5.00000000000000000000e-01) (19, 5, 5.00000000000000000000e-01) (19, 5, 5.00000000000000000000e-01) (19, 5, 5.00000000000000000000e-01) (19, 5, 5.00000000000000000000e-01) (19, 5, 5.00000000000000000000e-01) (19, 5, 5.00000000000000000000e-01) (19, 5, 5.00000000000000000000e-01) (19, 5, 5.00000000000000000000e-01) (19, 5, 5.00000000000000000000e-01) (19, 5, 5.00000000000000000000e-01) (19, 5, 5.00000000000000000000e-01) (19, 5, 5.00000000000000000000e-01) (19, 5, 5.00000000000000000000e-01) (19, 5, 5.00000000000000000000e-01) (19, 5, 5.00000000000000000000e-01) (19, 5, 5.00000000000000000000e-01) (19, 5, 5.00000000000000000000e-01) (19, 5, 5.00000000000000000000e-01) (19, 5, 5.00000000000000000000e-01) (19, 5, 5.00000000000000000000e-01) (19, 5, 5.00000000000000000000e-01) (19, 5, 5.00000000000000000000e-01) (19, 5, 5.00000000000000000000e-01) (19, 5, 5.00000000000000000000e-01) (19, 5, 5.00000000000000000000e-01) (19, 5, 5.00000000000000000000e-01) (19, 5, 5.00000000000000000000e-01) (19, 5, 5.00000000000000000000e-01) (19, 5, 5.00000000000000000000e-01) (19, 5, 5.00000000000000000000e-01) (19, 5, 5.00000000000000000000e-01) (19, 5, 5.00000000000000000000e-01) (19, 5, 5.00000000000000000000e-01) (19, 5, 5.00000000000000000000e-01) (19, 5, 5.00000000000000000000e-01) (19, 5, 5.00000000000000000000e-01) (19, 5, 5.00000000000000000000e-01) (19, 5, 5.00000000000000000000e-01) (19, 5, 5.00000000000000000000e-01) (19, 5, 5.00000000000000000000e-01) (19, 5, 5.00000000000000000000e-01) (19, 5, 5.00000000000000000000e-01) (19, 5, 5.00000000000000000000e-01) (19, 5, 5.00000000000000000000e-01) (0, 5, 0.00000000000000000000e+00) (301, 5, 5.00000000000000000000e-01) (301, 5, 5.00000000000000000000e-01) (301, 5, 5.00000000000000000000e-01) (301, 5, 5.00000000000000000000e-01) (301, 5, 5.00000000000000000000e-01) (301, 5, 5.00000000000000000000e-01) (301, 5, 5.00000000000000000000e-01) (301, 5, 5.00000000000000000000e-01) (301, 5, 5.00000000000000000000e-01) (301, 5, 5.00000000000000000000e-01) (301, 5, 5.00000000000000000000e-01) (301, 5, 5.00000000000000000000e-01) (301, 5, 5.00000000000000000000e-01) (301, 5, 5.00000000000000000000e-01) (301, 5, 5.00000000000000000000e-01) (301, 5, 5.00000000000000000000e-01) (301, 5, 5.00000000000000000000e-01) (301, 5, 5.00000000000000000000e-01) (301, 5, 5.00000000000000000000e-01) (301, 5, 5.00000000000000000000e-01) (301, 5, 5.00000000000000000000e-01) (301, 5, 5.00000000000000000000e-01) (301, 5, 5.00000000000000000000e-01) (301, 5, 5.00000000000000000000e-01) (301, 5, 5.00000000000000000000e-01) (301, 5, 5.00000000000000000000e-01) (301, 5, 5.00000000000000000000e-01) (301, 5, 5.00000000000000000000e-01) (301, 5, 5.00000000000000000000e-01) (301, 5, 5.00000000000000000000e-01) (301, 5, 5.00000000000000000000e-01) (301, 5, 5.00000000000000000000e-01) (301, 5, 5.00000000000000000000e-01) (301, 5, 5.00000000000000000000e-01) (301, 5, 5.00000000000000000000e-01) (301, 5, 5.00000000000000000000e-01) (301, 5, 5.00000000000000000000e-01) (301, 5, 5.00000000000000000000e-01) (301, 5, 5.00000000000000000000e-01) (301, 5, 5.00000000000000000000e-01) (301, 5, 5.00000000000000000000e-01) (301, 5, 5.00000000000000000000e-01) (301, 5, 5.00000000000000000000e-01) (301, 5, 5.00000000000000000000e-01) (301, 5, 5.00000000000000000000e-01) (301, 5, 5.00000000000000000000e-01) (301, 5, 5.00000000000000000000e-01) (301, 5, 5.00000000000000000000e-01) (301, 5, 5.00000000000000000000e-01) (301, 5, 5.00000000000000000000e-01) (301, 5, 5.00000000000000000000e-01) (301, 5, 5.00000000000000000000e-01) (0, 5, 0.00000000000000000000e+00) (53, 5, 5.00000000000000000000e-01) (53, 5, 5.00000000000000000000e-01) (53, 5, 5.00000000000000000000e-01) (53, 5, 5.00000000000000000000e-01) (53, 5, 5.00000000000000000000e-01) (53, 5, 5.00000000000000000000e-01) (53, 5, 5.00000000000000000000e-01) (53, 5, 5.00000000000000000000e-01) (53, 5, 5.00000000000000000000e-01) (53, 5, 5.00000000000000000000e-01) (53, 5, 5.00000000000000000000e-01) (53, 5, 5.00000000000000000000e-01) (53, 5, 5.00000000000000000000e-01) (53, 5, 5.00000000000000000000e-01) (53, 5, 5.00000000000000000000e-01) (53, 5, 5.00000000000000000000e-01) (53, 5, 5.00000000000000000000e-01) (53, 5, 5.00000000000000000000e-01) (53, 5, 5.00000000000000000000e-01) (53, 5, 5.00000000000000000000e-01) (53, 5, 5.00000000000000000000e-01) (53, 5, 5.00000000000000000000e-01) (53, 5, 5.00000000000000000000e-01) (53, 5, 5.00000000000000000000e-01) (53, 5, 5.00000000000000000000e-01) (53, 5, 5.00000000000000000000e-01) (53, 5, 5.00000000000000000000e-01) (53, 5, 5.00000000000000000000e-01) (53, 5, 5.00000000000000000000e-01) (53, 5, 5.00000000000000000000e-01) (53, 5, 5.00000000000000000000e-01) (53, 5, 5.00000000000000000000e-01) (53, 5, 5.00000000000000000000e-01) (53, 5, 5.00000000000000000000e-01) (53, 5, 5.00000000000000000000e-01) (53, 5, 5.00000000000000000000e-01) (53, 5, 5.00000000000000000000e-01) (53, 5, 5.00000000000000000000e-01) (53, 5, 5.00000000000000000000e-01) (53, 5, 5.00000000000000000000e-01) (53, 5, 5.00000000000000000000e-01) (53, 5, 5.00000000000000000000e-01) (53, 5, 5.00000000000000000000e-01) (53, 5, 5.00000000000000000000e-01) (53, 5, 5.00000000000000000000e-01) (53, 5, 5.00000000000000000000e-01) (53, 5, 5.00000000000000000000e-01) (53, 5, 5.00000000000000000000e-01) (53, 5, 5.00000000000000000000e-01) (53, 5, 5.00000000000000000000e-01) (53, 5, 5.00000000000000000000e-01) (53, 5, 5.00000000000000000000e-01) (0, 5, 0.00000000000000000000e+00) 
connections (connected_to_neuron, weight)=(0, 7.81502871465295001485e+00) (1, -7.30153307929674255661e+00) (2, -4.69691172226086361974e+00) (3, 2.06867080680656334479e+00) (4, 9.54976306375490757716e+00) (5, 2.38550699485164834357e+01) (6, -2.46031969869429989473e+00) (7, -2.34407001237615464362e+00) (8, -1.98984751764013756414e+00) (9, -7.06012457514224678334e+00) (10, 2.65172084887653036755e-01) (11, -7.70504732623411481285e+00) (12, 9.87205722940990781922e+00) (13, -1.83959950331510526667e+01) (14, 1.09400546311558732882e+00) (15, 5.55158247406499549825e-01) (16, -2.56249531878533387541e+00) (17, 3.03087224042951994818e+01) (18, 3.10774824064537658064e-01) (0, -6.05681353240385877967e+00) (1, -8.14623200625798915553e+00) (2, 4.30760225373857108533e-01) (3, -2.78279228504322837523e+01) (4, 1.55712237672884068473e+01) (5, -7.16679794491303479020e+00) (6, -1.19718597040698870870e+01) (7, 1.26486783652587941873e+01) (8, 2.18816764528440579340e+01) (9, -7.20948621039732895355e+00) (10, 2.74465772510988736954e+00) (11, 1.01029873543411099490e+01) (12, -1.10249659145845413377e+00) (13, -4.07689209476797831400e+00) (14, -2.20977808019865828992e-01) (15, -1.14294764430826791823e+01) (16, 9.73410086228212989568e+00) (17, 2.58385609037331462901e+01) (18, 1.10651361950905482989e-01) (0, -1.87435606013949680460e+01) (1, -2.72682295080241949847e+01) (2, -2.12299388991609987443e+01) (3, 3.60584425703351652004e+00) (4, 2.88931573846121558802e+01) (5, 2.56434421683404245584e+01) (6, -1.88384807656332107229e+01) (7, -1.78058310673475439501e+01) (8, 1.58470843250168673677e+01) (9, -8.95197823697886363448e+00) (10, 1.93975941379049423574e+01) (11, -4.19395713264510394680e+00) (12, 2.66485394723000048600e+01) (13, -6.14484693616609511935e+00) (14, 1.23235844545466743938e+00) (15, -2.81399673974140274169e+00) (16, -1.58258211261018875149e+01) (17, 2.55202768695059134529e+01) (18, 5.03707432177178726640e-01) (0, -4.52722627404509747606e+00) (1, -1.62998220937398485830e+01) (2, -2.46308894926729102792e+01) (3, 2.08925762970027619758e+01) (4, -6.05191204848254304949e+00) (5, 2.85177765522426884814e+00) (6, -1.56006408258777540254e+01) (7, 2.76787771589125020100e+00) (8, 6.85861371189427870831e+00) (9, 8.45453605294860643937e+00) (10, 1.45031808317579429257e+01) (11, -4.71256267062777389754e+00) (12, 1.52191481334839640027e+01) (13, 1.21197325025441937640e+01) (14, -8.02118561496931548049e+00) (15, 4.40067080804175780884e+00) (16, 5.61379449812281983156e+00) (17, -1.72465594226562153324e+01) (18, -5.40887716569706467062e-01) (0, 9.97612666457500685269e-01) (1, 2.79605131487351243891e+01) (2, 1.38236649127345625487e+01) (3, -3.50750104609866042438e+00) (4, 7.36837505632745681794e+00) (5, -1.59898247915600979496e+01) (6, -3.81634248868493353157e+00) (7, 1.18068909791839526946e+01) (8, 8.15914732478442061847e+00) (9, -7.05930409527586011365e+00) (10, -2.11424657925469503539e+01) (11, 1.32894735735821498679e+01) (12, 2.79666807321174992751e+00) (13, 3.66205231666135100355e+00) (14, -4.00868365278853566736e+00) (15, -2.82448203562594635230e+01) (16, 2.31842984811254879673e+01) (17, -5.17211288199811480837e+00) (18, 1.59171362544965583341e-01) (0, -1.84134140074967760370e+01) (1, -7.19336701478296181023e+00) (2, 8.61029170532564513962e+00) (3, -2.17317819817523556480e+01) (4, 1.69578094332776281306e+01) (5, -1.04759467110420634306e+00) (6, 3.54987909237584773336e+01) (7, 9.18942214936784829149e+00) (8, -8.13864316497795847738e+00) (9, -2.13528712384259407031e+01) (10, -1.01186884015310418761e+01) (11, -9.37558024601747419524e+00) (12, 2.27254267467445103534e+01) (13, -2.13531755807835494920e+01) (14, 6.88132886906545504502e+00) (15, -7.40441816827218701746e+00) (16, 6.44508204185674049569e+00) (17, -7.01911251564779004042e+00) (18, -7.41229607609136920132e-01) (0, 5.01396775881872525105e+00) (1, 2.89986685075487482521e+00) (2, -2.34343378460868194679e+01) (3, 2.35337421988614126089e-01) (4, -1.45414914945337958585e+01) (5, -1.36926245708563598669e+01) (6, 4.22568202075752541447e+00) (7, 6.16999496949878545315e-01) (8, 1.90330022798625790870e+01) (9, -1.48506653553277629953e+01) (10, 4.05931263340756984803e+01) (11, -1.06967402660548627225e+00) (12, 1.69572758782574766201e+01) (13, -2.99211545977354980153e+01) (14, -4.38588248467229480099e+00) (15, 1.63816107149287759626e+01) (16, -2.28505802790834380289e+01) (17, 7.27239988784404634004e+00) (18, 2.22725562281013034216e-01) (0, 8.62659876447323092918e+00) (1, 2.40246105944787036179e+00) (2, -4.86666032447114105253e+00) (3, 4.75766556320288636073e+00) (4, 1.30211729219483829390e+00) (5, 7.88091840943914512252e+00) (6, -1.69692446661929730034e+00) (7, -6.97339579602393655477e+00) (8, -1.11357863641999639270e+01) (9, 7.19909302535921380439e+00) (10, 9.06698976057225713987e+00) (11, -1.23616904130759692748e+01) (12, -2.08313844949725073263e+01) (13, -2.35705234121840554451e+01) (14, 1.99343671552146197712e+01) (15, 3.66612650942026396805e+00) (16, 1.05357234998689950345e+01) (17, -8.12816953122032259671e+00) (18, 3.34680999300231759447e-03) (0, 1.04063383047738877707e+01) (1, -6.27972519148354280105e+00) (2, -1.87730025783882155110e+01) (3, 1.21002891398764944597e+01) (4, -8.13329027744497223829e-01) (5, 8.25919908091555399210e+00) (6, 1.82566820859147393996e+00) (7, -1.26493469536089992999e+01) (8, -3.71454741494479856456e+00) (9, -6.66237553519686098724e+00) (10, -2.86345163491001342138e+00) (11, 1.72891617737358558315e+01) (12, -2.51240045816397064016e+01) (13, -1.63397417907892084088e+01) (14, -7.73379481147064229418e+00) (15, -1.49825851623122119349e+01) (16, 1.45516640531280891935e+01) (17, -3.18131611484203702389e+01) (18, -2.88638285502302027741e-01) (0, -1.39534544096077990361e+01) (1, 7.09252884198753985601e+00) (2, -1.81738660042094721803e+01) (3, 1.15224687037437156789e+01) (4, -4.76748183669815439600e+00) (5, 9.00930960455207241466e+00) (6, 9.56772440178179373049e+00) (7, -1.18806586945724212967e+01) (8, -1.72406810335050619809e-01) (9, -8.91691126724488647426e+00) (10, -2.86374757428336002008e+00) (11, 6.24102477311458958553e+00) (12, -5.28799591470599317233e+00) (13, 2.88471479655066742609e+00) (14, 4.34593346139218716928e+00) (15, 1.60675720136935851201e+01) (16, -4.67513870402001874282e+00) (17, 5.97768748090859514122e+00) (18, 7.21329426767948977961e-01) (0, -1.94296560710881962564e+01) (1, 1.43261052475470562761e+00) (2, 4.33463165582151503941e+01) (3, -3.83464886645122626785e-01) (4, -4.13087619203300437931e+00) (5, -9.66941716227636050007e+00) (6, 1.95935341933061337727e+01) (7, -5.49361835825183852933e+00) (8, -1.44500493055306034051e+01) (9, 9.04568185246222356000e+00) (10, -7.35947966510217210789e-01) (11, -8.97149904159674882465e+00) (12, 8.01219719992263534891e+00) (13, -1.58973378728814740413e+01) (14, -1.33491870705358746108e+01) (15, -1.27685546313084152814e+01) (16, 6.33279481769532548441e+00) (17, -4.94860749216866508959e+01) (18, -1.18983658282974316678e-01) (0, 1.07204656954036146033e+01) (1, 1.66131777604810864091e+01) (2, 1.18080336576008395610e+01) (3, 1.04995472673586434098e+01) (4, -1.51217976579718147434e+01) (5, -2.04197006161856648987e+01) (6, -1.39092056725620842883e+01) (7, 1.41708869116216735762e+01) (8, 6.51003602096940081623e+00) (9, -2.27373626818352825296e+01) (10, -8.96826994236202779121e+00) (11, -2.30718742335412336786e+01) (12, -4.80117755560269188209e+00) (13, -3.12138167086746287637e+00) (14, -3.43098929325505830334e+00) (15, -1.34113071868592239611e+01) (16, -3.03310664234312943321e+00) (17, 1.30494255500477205345e+01) (18, 5.35720165599267428291e+00) (0, 1.56324997350004912811e+00) (1, 2.32458956177499143081e+00) (2, -7.57120651276004874575e+00) (3, -1.12385930450005311343e+01) (4, 1.46110481585028360030e+01) (5, 8.18536173274133993516e+00) (6, 2.01394750848644470409e+01) (7, -3.05114728045718521798e+01) (8, -1.49162731863870590132e+01) (9, -9.77941955524938144606e+00) (10, -1.46027725737162015207e+01) (11, 7.60124619437198312255e+00) (12, -1.21623533740969467232e+01) (13, -1.43945932668612339711e+01) (14, 1.98886223129881827276e+01) (15, 1.61758195444901318183e+01) (16, -9.31708590818153048474e-01) (17, -1.99702870283405742313e+00) (18, -7.30608243529473733169e-01) (0, 1.77994296060717793750e+01) (1, 1.01626983874402618824e+01) (2, 1.31713391165271040961e+01) (3, -2.12506068458935324372e+01) (4, -3.61762917770556313712e+00) (5, -6.05622742859975105034e+00) (6, 5.25340329690170193544e+00) (7, -3.41756597213644131017e+00) (8, -1.07260064618179695728e+00) (9, 2.08750765224442513812e+00) (10, -4.69054220611859751244e+00) (11, 1.44185434862725561089e+01) (12, 2.38574854024965654631e+00) (13, -3.88644195296826655550e+00) (14, -6.07646949559145710396e+00) (15, 6.89892880493598248393e+00) (16, 1.96477905080072834387e+00) (17, -1.38687051383651951397e+01) (18, 4.21668775543141416406e-01) (0, -9.33693823911470310861e+00) (1, -5.53939761098827521124e+00) (2, -4.92178108297790795067e-01) (3, 7.02195403842615384349e+00) (4, -5.89516725968285992820e+00) (5, 9.95223217613579080876e+00) (6, 5.97014524193734907875e-01) (7, 5.86893888895391846461e+00) (8, -1.07834546021377359892e+01) (9, 5.51532033828411716314e+00) (10, 3.11166889157200099447e+00) (11, -2.04828531296053810706e+01) (12, 4.15585555454250421548e+00) (13, 3.49715890101935222845e+00) (14, 1.12705099931233301835e-01) (15, 4.36438348897885752820e+00) (16, 1.56523151631260812877e+01) (17, 9.03381836785867520234e+00) (18, 2.20854565694481808080e+00) (0, 1.01625967992074439650e+01) (1, 2.02592475296770757609e+01) (2, -1.47023414885235226279e+01) (3, 5.95830639360094505008e-01) (4, 8.77641554457727579575e+00) (5, 1.88133331181041931757e+01) (6, -1.49840088239953850291e+00) (7, 3.91720467152380980025e+00) (8, 9.79864439361363182002e+00) (9, -1.77468549846828125283e+01) (10, -1.43466230718725196169e+01) (11, 2.93880338604533868363e+01) (12, 1.43926593792247068393e+01) (13, -9.53687459964611150554e+00) (14, 9.99929337191482048297e+00) (15, -6.40630519945649956615e-02) (16, 7.97731029525251944534e+00) (17, 7.47408900764693129304e+00) (18, -3.85105532587917909204e-01) (0, 7.08112215404559908194e+00) (1, 1.08817219740057491428e+00) (2, -1.00979637003673481388e+01) (3, -1.03337899882547290531e+01) (4, 5.60859379848580363870e+00) (5, -1.89859145981727337471e+01) (6, -7.85021391673549029377e+00) (7, 1.95135731286327196443e+00) (8, 6.58328845794012984527e+00) (9, 1.13455244565368946752e+01) (10, 7.44448547848527919513e+00) (11, 1.47378330168059399341e+01) (12, 4.12362448768296996349e+00) (13, -5.11832167612963129244e+00) (14, -8.97681004310960339865e+00) (15, -1.36456680944601380645e+01) (16, 1.84315006645245063055e+01) (17, -4.16500125834912360290e+00) (18, 3.91734567456470117452e-01) (0, -2.81538401201509191907e+00) (1, 1.93451356035823920365e+01) (2, 4.93753328986078354745e+00) (3, 2.96548017697232140222e+01) (4, -8.07662648636646451905e+00) (5, -3.52317505165828226410e+00) (6, -6.98160711356644014813e+00) (7, -3.16976447598275212769e+00) (8, -8.11848112476664418580e+00) (9, -1.55483730609948640478e+01) (10, -3.22324471363150788505e+00) (11, 8.79031119264665150581e+00) (12, -6.35696319452347413659e+00) (13, 2.09737507633678248453e+01) (14, 1.87441763955494806737e+01) (15, -7.66884686432851570004e+00) (16, -6.69884020792045298265e+00) (17, 1.32814974920088317845e+01) (18, 8.45827826487414613510e-01) (0, 5.71710933523389197575e+00) (1, -2.47051682014532900666e+01) (2, -2.55061575281945351890e+01) (3, 4.01972155154542143407e+00) (4, 1.12310708208558862609e+00) (5, -1.37238625436298313787e+01) (6, 2.94447447071783630079e+00) (7, 7.55246886489235791373e+00) (8, -9.02534220848521684388e+00) (9, -2.26665591690250884938e+01) (10, -1.21584263245032575540e+00) (11, -4.05736512581188293325e+01) (12, 1.74148210872559161544e+01) (13, -1.54352382935339456083e+01) (14, 6.26559785990117656951e+00) (15, 1.22283903164770872962e+01) (16, -1.60761486649935037008e+01) (17, -2.37141528364472407020e+01) (18, -3.14527449367070222053e-01) (0, -1.79198308488286457418e+01) (1, -1.30977128383041137027e+01) (2, 2.16489162660268164018e+00) (3, -2.95156022630907983739e+01) (4, 3.63484158872382723260e+00) (5, -1.90896865084733349249e+01) (6, -4.11048118885788071886e-01) (7, -1.41271909886897226727e+01) (8, -4.54311499573257293605e+01) (9, 7.18384396763839827571e+00) (10, -3.58328713197164958615e+01) (11, 5.09344468266252370370e+00) (12, -2.27668629416690144751e+01) (13, -4.12894430022161174065e+01) (14, 7.30869451048495877288e-01) (15, -4.22109854801936101865e+00) (16, 9.89064198614092227047e+00) (17, -5.65485171707734668445e+00) (18, -2.70331640003658967009e-02) (0, 2.27604524655544926404e+00) (1, -1.93053051190274072013e+00) (2, -2.08930069756987002449e+00) (3, 1.67389920471492104070e+00) (4, 1.23611875321982349618e+01) (5, 5.87362136736129070158e+00) (6, 1.91996860133270992321e+01) (7, -1.15187228319427710233e+01) (8, -2.97351076980537509797e+00) (9, 1.66194496199156516170e+00) (10, -3.89648521064494204325e+01) (11, 1.95391233985579653165e+01) (12, -2.25060546022511438480e+01) (13, -5.31863856382461097638e+00) (14, -2.78012374637656378695e+01) (15, -5.94192993140526848350e+00) (16, 2.38302908289462216374e+01) (17, -1.20428861638665041234e+00) (18, -4.47119649261895124592e-01) (0, -5.90235458349651853638e+00) (1, 3.20873178941571968181e+00) (2, 1.76603700576724733651e+01) (3, 5.75276479189410139270e+00) (4, 1.35128945950366983197e+01) (5, -7.85568498321835750886e+00) (6, -1.23568536738284127097e+01) (7, -4.06288508738674192244e+00) (8, 2.06464976956379686612e+01) (9, -5.80904888416840070597e-01) (10, 3.20952923772329290486e+00) (11, -9.92439834496420836274e+00) (12, -3.11047706773095100630e+00) (13, -3.73062022595363806943e+00) (14, -8.37309747855888097945e+00) (15, -3.89316679926616648899e+00) (16, -2.21007986973420571530e+01) (17, 1.92161442658905414760e+01) (18, 7.62583022732998133675e-02) (0, 1.59310767340266123959e+00) (1, 4.14135099624563363108e+00) (2, 1.93592251934835921645e+01) (3, 8.04451641845659093377e-01) (4, -9.58980118649300727895e+00) (5, 2.04261276877976989397e+01) (6, 1.64168313221240254052e+01) (7, -4.82376356303262365799e+00) (8, -1.50784125093285066299e+01) (9, -2.09429180135613073332e+01) (10, 3.49221500760038283673e+00) (11, -2.24084370203865645976e+01) (12, 1.03149662176625387389e+01) (13, -1.54633738515087983956e+01) (14, -3.30198421330066826940e+00) (15, 2.30437906719747296336e+01) (16, 8.55358263759827330830e+00) (17, 1.49357922365183082292e+01) (18, 1.14799211756024432951e+00) (0, 1.51596627435175292931e+01) (1, 4.75715119965103461208e-01) (2, 1.38456001284777241445e+00) (3, 1.17567189273284355977e+01) (4, -3.97015105479119778664e+00) (5, 1.12463007650109556579e+01) (6, -6.04205960184852219896e+00) (7, 9.55351636202101062167e+00) (8, -2.29985427206148749235e+01) (9, 9.34080930941587084249e+00) (10, -2.00512244482517196786e+01) (11, -4.38984000650318950676e+00) (12, -2.82077579170068259984e+00) (13, -2.05355821823258199998e+00) (14, 4.12558010450552792303e-01) (15, -2.68519335259833846763e+00) (16, 2.58197422079167679954e+01) (17, -1.72437135786621702493e+01) (18, 4.52375374869576612341e-03) (0, -1.21255923050202056857e+01) (1, 3.35235952697945105427e+00) (2, 1.04761499747067610144e+00) (3, -2.31204806048134781093e+00) (4, -7.93408650228967005091e+00) (5, 1.27177936309622090505e+01) (6, 9.59230590636586999409e-01) (7, -9.59620830286297099576e+00) (8, -7.56241859502614843791e+00) (9, 2.23178014524819268161e+01) (10, -1.37317134964933611485e+01) (11, -8.31948478622630638313e+00) (12, -2.46226051266352286007e+01) (13, 1.53120512016409531242e+01) (14, 4.25130171710744353408e-01) (15, 2.71939883335336816117e+01) (16, -5.70727882608460479474e+00) (17, 1.69596577945592450476e+01) (18, 4.54926207248168124053e-01) (0, -5.24322114770554392749e+00) (1, 1.60324310411227877182e+00) (2, 3.98448099834092817062e+00) (3, 1.85707331639447552618e+01) (4, -3.17323282605445777804e+00) (5, 5.83938343286288796818e-01) (6, -1.47741518364427353305e+01) (7, 3.15721147529863310766e+00) (8, 1.25764827077884646656e+01) (9, -8.58453799129265604506e+00) (10, 1.83965040105306911755e+01) (11, 7.24705496741017807238e+00) (12, -1.56015496623590781411e+01) (13, -1.15705408630906063649e+01) (14, 1.54379713248928194247e+01) (15, -1.01041062709740412373e+01) (16, -6.57114667278612429868e+00) (17, -7.45959757155624236802e-02) (18, -5.54955780549718169503e-01) (0, 1.29752053376152183262e+01) (1, 1.29649813945591638742e+01) (2, -3.36285684000384987868e+00) (3, 3.30948249225683177599e+00) (4, 4.69353096523262536266e+00) (5, -6.06953375053938426475e+00) (6, -8.91287625669905025916e+00) (7, 8.71529927453666353188e+00) (8, -2.73288714736060223132e+00) (9, 1.64037284451793112794e+01) (10, -9.75917755715825485652e+00) (11, -1.33210348956129625009e+01) (12, -6.23255476743165393039e-01) (13, 6.22921943337563011056e+00) (14, -3.51405829201731689793e-01) (15, -1.52387960455876001475e+01) (16, 1.63583613218357477592e+01) (17, -1.91220745226480204337e+01) (18, 1.70770539220408579251e-01) (0, 2.53160616816977466215e+01) (1, 8.12756437052883562444e+00) (2, 1.20333745328467180968e+01) (3, 2.10685447567678139080e+01) (4, 8.29207274589879439475e+00) (5, 9.95773700357001345651e+00) (6, -1.70955904114738999056e+01) (7, -1.16746695156626980605e+01) (8, 4.89682238453592244554e+00) (9, -3.27801037819274698748e+00) (10, -1.51390816489015183066e+01) (11, 1.70986757237507589480e+01) (12, 2.16491364645430328650e+00) (13, 2.41591833841665915017e+00) (14, -2.70507958354872748430e+01) (15, -2.75214965632264352280e+01) (16, 1.77057658113045874870e+01) (17, 3.22220949477950302509e+00) (18, -8.66888800380012231050e-02) (0, 1.24318626868262249729e+01) (1, -1.18978443968611653503e+01) (2, 6.19849007053620937313e+00) (3, 1.27856427498171552060e+01) (4, -3.26370447371200356201e+00) (5, -1.62349936868080675367e+01) (6, -8.00687603300281836027e+00) (7, -3.88392835137248226829e+01) (8, 2.75712535781564795911e+01) (9, -9.21149067455815995231e+00) (10, 4.26951009274184585252e+01) (11, 4.24821107757014804207e+00) (12, -2.67074059465335302832e+01) (13, 8.50147974745868317825e+00) (14, -7.28210262634067095888e+00) (15, 3.54151438683426889042e+01) (16, -1.81193581114986486114e+01) (17, -1.22085544253201110365e+01) (18, 2.18939954282442866829e-01) (0, -1.99686845009123672412e+01) (1, -1.59407190281673614152e+01) (2, -9.52879806845765742196e+00) (3, 1.20465269815408024812e+01) (4, 1.54845326780962544433e+01) (5, 1.25237178168903700026e+01) (6, 3.07062817607072595649e+01) (7, -2.18563445586452651526e+01) (8, -1.54186899033553750371e+01) (9, -1.09330939168432017539e+00) (10, 2.40547998179461730572e+00) (11, -1.55060506439655245714e+01) (12, 7.41889206300169679054e+00) (13, 1.97587162548568358034e+01) (14, 1.14600168541433067304e+01) (15, -1.96990564270569024075e+00) (16, -7.80314383627125174314e+00) (17, -3.04524478455187583847e+01) (18, -3.97273509007970870854e-01) (0, -1.92849610745450448235e+01) (1, -9.18496160352489177114e+00) (2, 2.82671284787545396000e+00) (3, 2.86561435980715089045e+01) (4, 4.58133091869459274648e+00) (5, -3.38325831810760879748e+00) (6, -5.17643204658182742861e+00) (7, 8.87725922340912099173e+00) (8, 8.81987474923847081243e+00) (9, 2.07960862325664948003e+01) (10, -9.02538660197027020615e+00) (11, 1.55812155685723165988e+01) (12, -3.46376539040073367914e+01) (13, -8.10499840845631758235e-01) (14, -1.05805784039221473236e+00) (15, -8.62353586290231710620e+00) (16, 1.96246470619630919430e+01) (17, -1.27514138388713926808e+00) (18, 2.11906095311811881743e+00) (0, 1.43417932403122936336e+01) (1, 6.03217001694114252075e+00) (2, -2.16567784944157466498e+01) (3, 4.49074866056438981587e+00) (4, -1.29639997042963326379e+01) (5, -6.16802492904104582294e+00) (6, 1.80359541487075034638e+01) (7, -6.11913983876216516222e+00) (8, -9.14180036527492845266e+00) (9, 9.11348346728818192730e+00) (10, 2.16944308093797495474e+01) (11, -1.55723088840316741255e+01) (12, 3.19375038802805066851e+00) (13, -9.98843953601829603883e+00) (14, 2.64382709154361217330e+00) (15, 4.77602927310940827965e+00) (16, -8.80168577987239508786e+00) (17, 1.03905234678507927271e+01) (18, 2.13964991878657723179e-01) (0, -1.98862160712599078671e+00) (1, -1.36485934635496590772e+01) (2, -1.02152559065365462487e+01) (3, -1.07869677477620573569e+01) (4, 9.07451244488041552927e+00) (5, 1.59421315075073639633e+01) (6, -9.14841027934391171073e+00) (7, -7.42383944916389282298e+00) (8, 2.17024795258122393804e+00) (9, -2.24652822176893618433e+00) (10, 8.84864068800669123505e+00) (11, 2.52762464476388828416e+01) (12, 4.08291416797137429739e+00) (13, 1.53656617964465116444e+01) (14, 1.78691739685471445709e-01) (15, 5.55375343194441573047e+00) (16, -8.92857024104490903937e+00) (17, 7.56747652159139416739e+00) (18, -2.36648640046215941179e-01) (0, 1.67915950124797319631e+01) (1, 8.79496392151306705109e-01) (2, -8.23499254259847113246e+00) (3, 1.19581753011251059604e+01) (4, -1.02484984820407163397e+01) (5, 2.93914261245911978548e+00) (6, -1.84777510873930879143e+01) (7, -1.75594367704675100583e+01) (8, -1.46214025595798293722e+01) (9, 8.00796911178654369223e+00) (10, 8.16804535428809330710e+00) (11, 5.14928785272747813195e+00) (12, -1.11284242575895628846e+01) (13, 5.58749332928692887812e-01) (14, 6.80256254064620691224e+00) (15, -9.60854572273744267363e+00) (16, -5.31192255466770557604e+00) (17, -2.97251552722210554691e+01) (18, 3.86047884431076959721e-01) (0, 1.64974136622813176700e+01) (1, -2.14431965336216272533e+01) (2, -1.12176118315153843241e+01) (3, -1.84877565658838136642e+01) (4, -1.32949197946374972901e+01) (5, 2.84195634375431964713e+01) (6, -2.46457488444018180118e+00) (7, -4.32461660933038327670e+00) (8, -1.35303706530749390247e+00) (9, 8.72249382462834965679e+00) (10, 6.24617164533917623714e+00) (11, -1.69649585456417248963e+01) (12, 8.06981821127943277361e+00) (13, 7.05722132423239045806e+00) (14, -8.44837235548394538398e+00) (15, 1.22163068617219057188e+01) (16, 5.63526380914391644694e+00) (17, -2.85457637538119683995e+01) (18, -7.90204721584788161159e-01) (0, 2.92790174822088289375e+01) (1, 1.28744097416158158609e+01) (2, 1.23276487250720307998e+01) (3, -1.53490175507579742487e+01) (4, -1.33685838273004602428e+01) (5, -2.03060469229304736416e+01) (6, -2.24543004861788375592e+01) (7, 1.64279719379833970549e+01) (8, 1.18052192851753967595e+00) (9, 2.13775910245014060251e+01) (10, 8.46926707042555371174e+00) (11, 2.08247675969316539124e+01) (12, -2.52453552571032915353e+01) (13, 1.08641423652823831958e+01) (14, 1.18009649635073259333e+01) (15, -1.66474853404547964431e+01) (16, -1.93041997298733747357e+00) (17, 2.71495672103478080661e-01) (18, 2.15638839259395281855e-01) (0, -1.36426791470799031458e+01) (1, -9.46618202307865885814e+00) (2, 1.08525053813554865911e+01) (3, 7.99561179510546171656e-01) (4, 2.71549479804085924783e+00) (5, 2.29392532080795739091e+01) (6, 1.68111726363214053492e+01) (7, 1.05004489601792876385e+01) (8, 5.98576161964963215922e+00) (9, 1.22951138544302751576e+00) (10, 4.92178608434904063529e+00) (11, 7.25969344000691574337e+00) (12, 2.72497503783649497322e+00) (13, -1.12010716175038211873e+01) (14, 1.05958918630623113444e+01) (15, 1.47871392847767246792e+01) (16, -6.93092530101733839132e+00) (17, 9.21871440278268927671e+00) (18, 5.20111586250138757670e-01) (0, -2.85898990732115176883e+00) (1, -5.05644343296586584735e-01) (2, 9.88755873975764743022e+00) (3, -1.54037116433349847711e+01) (4, -1.31715367548162998190e+00) (5, -2.00156957131168766750e+00) (6, -1.34682280023052705076e+01) (7, -1.18946503252579596221e+01) (8, -9.69077645486284033893e+00) (9, 1.19781148718284899957e+01) (10, -5.39094060337261282712e+00) (11, 8.80401225719101532263e+00) (12, -9.39238274672857009762e+00) (13, 1.47813339285504312670e+01) (14, 8.79507982839910162909e+00) (15, -2.75702664141658138064e+00) (16, 9.01152616134913131418e+00) (17, 3.13436300004791501550e+00) (18, 4.89273785090337365311e-01) (0, 5.73825966695167988263e+00) (1, -4.84637400863384470995e+00) (2, 1.62838890310461827937e+01) (3, -2.64482820665718278974e+01) (4, 1.44552354127079443202e+01) (5, 5.17681518490681469302e+00) (6, 1.17785844500194034623e+01) (7, -2.46720641514152987384e+01) (8, -1.30318409969827406769e+01) (9, 1.58180767204319518981e+01) (10, -1.65229465174110927705e+01) (11, -1.25854904305960069166e+00) (12, -2.57178075143643845024e+01) (13, -7.74670844863786012269e+00) (14, -6.86395906842073433296e+00) (15, -1.05036880247565296287e+01) (16, 4.35345169858973779498e+00) (17, 1.17723373096468044707e+01) (18, -5.85421266013462449074e-01) (0, -5.77853696671808345076e-02) (1, 8.55786764838923907917e+00) (2, -6.55640189732694445013e-01) (3, 1.51103951369608306976e+01) (4, 1.97514694288556924562e+00) (5, -4.49272967666217581950e+00) (6, 1.38599320523791771365e+01) (7, -6.05545314032882586730e+00) (8, -8.55801879520027419801e+00) (9, 3.48343872303221369080e+00) (10, -1.24108289347928284485e+01) (11, 8.28460659497151929997e+00) (12, -1.50934616326087933658e+01) (13, 3.24395657852027197166e+00) (14, -2.04780618070934172792e+00) (15, 6.02949073167037585819e+00) (16, 3.92013558255916372275e+00) (17, 7.09441005478513808669e+00) (18, -2.01816779657180811469e-01) (0, -9.76717382121302990505e-01) (1, -6.34793588802782160485e+00) (2, -3.93561467217550298159e+00) (3, -6.54721909082646025269e+00) (4, 6.64534408875727766741e+00) (5, -8.31935206721536602004e+00) (6, -6.35237954163123341722e-01) (7, 3.68178693726200600977e+00) (8, 8.88858961402217317982e+00) (9, 2.51475770313191269167e+01) (10, -2.07418778091979283396e-01) (11, 7.37119831702281480545e+00) (12, -3.08209868672877362883e+01) (13, -1.11477864873436640636e+01) (14, -4.51772737323290662914e+00) (15, -1.37968150205619668469e+01) (16, 1.79921402905262155514e+01) (17, -1.73433564746819826041e+01) (18, -9.06446662556017135337e-01) (0, -4.73914233031829734699e+00) (1, -5.86261861309191356639e+00) (2, 1.29174632674780354158e+00) (3, 3.23820456099886833101e+00) (4, 6.30806467397246350970e+00) (5, 5.93050617633581023114e-01) (6, 5.16974110831421018730e+00) (7, -7.59066553960444978522e-01) (8, 3.80805631175592562698e+00) (9, -2.21584490974568693034e+00) (10, 1.58754296208146072900e+00) (11, 6.08521951570003061249e+00) (12, -2.11183502785577168481e+01) (13, 4.42476416829884389159e+00) (14, 7.30112181369947244036e+00) (15, -1.10451386734296459480e+01) (16, 2.17162256267303316326e-01) (17, 1.07033495223826431442e+01) (18, 1.08074076945662733706e+00) (0, 9.27657369386670005440e+00) (1, 1.18653275755518610168e+01) (2, -1.04682229777325925824e+01) (3, 6.45489100018663286562e+00) (4, -6.97356059107047698831e+00) (5, 1.55135721784007287738e+01) (6, 1.23684444910783830629e+00) (7, -1.39236761715620556146e+01) (8, -2.17104813549905202308e+01) (9, 4.11407467582648944671e+00) (10, -2.09915696735800629824e+01) (11, 2.19234457162620977044e+01) (12, -1.17598115924964172763e+01) (13, 6.67513111469514441865e+00) (14, -7.75413576530537973497e+00) (15, -1.48181300841384242517e+01) (16, 3.63776346892850028780e+01) (17, 6.42985021904670261961e+00) (18, -3.19962451834076566648e-01) (0, -3.34748112392063146281e-01) (1, 9.35766382808354890699e+00) (2, 8.41299872220254485455e+00) (3, 3.49050900147462828116e+00) (4, 1.03714914405456415381e+00) (5, -3.20910052575616049353e+01) (6, 9.83677572945922307213e+00) (7, 1.39568057373815097577e+01) (8, -7.00559239542595069139e+00) (9, 1.54209906674680841121e+01) (10, 4.59665093854886563918e+00) (11, 5.11447240631642596753e+00) (12, -1.32784041579857277071e+01) (13, -2.72337406374592667646e+01) (14, 3.33871890322750530800e+00) (15, -1.87773999450608819473e+00) (16, 1.46500328788989691020e+01) (17, -1.33747025016020977262e+01) (18, 4.57568629486756750513e-01) (0, 1.68964031337652631493e+00) (1, 5.17635065911604641542e+00) (2, 1.18767219710795899346e+01) (3, 6.14735881390707472605e+00) (4, -1.63119793862349524716e+01) (5, 6.14326240314733329484e+00) (6, -4.87218538759115560310e+00) (7, 9.73521008502809337415e+00) (8, -1.92886743244389258223e+01) (9, 9.87814968176164143188e+00) (10, 4.38738700358204702923e+00) (11, -4.05859186085205507766e+01) (12, -1.16832571126569351172e+00) (13, 5.90238188624857151865e+00) (14, 1.79521796535784616822e+01) (15, 6.42808247857559589278e+00) (16, 1.48195656081004774052e+01) (17, -4.24815593023654347604e+00) (18, 9.43774672423452920533e-01) (0, -1.20657495451910463657e+01) (1, -1.87961444494489704482e+01) (2, 7.54012966879602597459e+00) (3, 1.44438582345378865313e+01) (4, 1.08641406215982634365e+01) (5, -1.49389816037275267036e+01) (6, 8.86850522744360603156e+00) (7, -7.12033794291367616580e+00) (8, 7.48883918007318616361e+00) (9, 1.66210436743499094803e+01) (10, 1.47824570783039508370e+01) (11, 1.81612386911544487766e+00) (12, 2.18811212443546843076e+01) (13, -1.18820220267042557794e+01) (14, -3.69164557935051789173e+01) (15, -2.01351249060836288152e+01) (16, -2.12545329493947257049e+01) (17, -8.73622965349025548676e+00) (18, -3.05331770022836774744e-03) (0, 1.28371464533779047201e+01) (1, 6.94298500490782277694e+00) (2, -3.95274582200078894445e+00) (3, 1.39837190364996146741e+01) (4, -1.00720445574061621130e+01) (5, 2.18186147058270520915e+01) (6, -1.02641960509591623207e+01) (7, -3.10966707905649775157e+00) (8, -5.07169849409428330489e+00) (9, -5.70043099160861022057e+00) (10, 1.83766842223879756091e+01) (11, 6.78890964145338227098e+00) (12, -9.05946056891166762171e+00) (13, -1.67271027177209283821e+01) (14, 1.50783150550041575855e+01) (15, -2.55967900040275821993e+01) (16, 1.59244495794042766335e+01) (17, 9.02808590382548992181e+00) (18, -2.06749686381670016999e-01) (0, 1.48879154716699826366e+01) (1, 5.98066718496977767217e+00) (2, 7.52382183694079564873e+00) (3, -2.54374527909356951128e+00) (4, 4.58458671946497808847e+00) (5, -9.12343582250994344918e+00) (6, 2.82084654636204987810e+01) (7, 5.79303043872994649632e+00) (8, -2.89508513720317992579e+01) (9, 1.77221004469544602955e+01) (10, -1.17486403654418936071e+01) (11, 2.11054090098447204582e+01) (12, -2.35336257296480013679e+01) (13, 1.03418640888388040366e+01) (14, 1.60834969485411143353e+01) (15, -6.13412223349318619370e+00) (16, 1.23040383379093096750e+01) (17, -2.60886224130043018476e+01) (18, -1.39311381074583695572e+00) (0, 1.76687902533286447238e+01) (1, 3.76967912050517073297e+00) (2, -2.00753388459507959851e+01) (3, 1.01184340833331205545e+01) (4, -1.18494592579755178008e+01) (5, 6.26348913714058141977e+00) (6, 5.98092851133703184985e+00) (7, 8.90246226764471693116e+00) (8, -6.57563518582018602388e+00) (9, -1.22399909847825973941e+01) (10, -5.79431688082356277647e+00) (11, 3.16472579876120434506e+01) (12, -3.85282737588519879068e+01) (13, -9.39991611989466013810e-01) (14, 1.55456390234990582400e+01) (15, 1.31659305459998265952e+00) (16, 2.42982307625464564182e+01) (17, 3.51626084055117704708e+00) (18, -4.00048795588323236050e-01) (0, -1.11488759528034009350e+00) (1, 9.92244951156416199467e+00) (2, 1.82280493866594568431e+01) (3, 1.63140446178496478780e+00) (4, 8.72535087204312276299e+00) (5, -4.61748454201443436773e+00) (6, -5.26396661442263535946e+00) (7, 8.29972813292741484759e+00) (8, 2.02966514274583893496e+01) (9, -2.34772170691851300717e+00) (10, -1.92601396056204454688e+00) (11, 6.16666811951404625347e+00) (12, -2.19075291072210873722e+01) (13, -1.10801935605977881494e+01) (14, 7.02104366833117765623e+00) (15, 8.51287936913509568626e+00) (16, 9.06511958145139828957e+00) (17, -3.27796572831209118704e+01) (18, 5.11578565350130798350e-01) (0, -1.49371274145451700122e+01) (1, -3.16775374807467109406e+01) (2, -6.97160557747392495287e+00) (3, 3.51664637245218347772e+00) (4, -9.24813345072396408852e+00) (5, 2.13332890107495387610e+01) (6, -7.76728746454825191847e+00) (7, -3.99526779037629680147e+01) (8, 1.50861877557982140274e+01) (9, -2.48170456568739616898e+00) (10, 3.15145800347078406389e+01) (11, -2.84432182568526954469e+01) (12, 1.73221363557506364828e+01) (13, 1.31575675431066283494e+01) (14, -1.97798100325857610926e+01) (15, 3.87516178452375967822e+01) (16, -8.08732580682525714622e+00) (17, 2.28777297453255421544e+01) (18, 6.51526926743736384262e-02) (0, -7.03750402899431204418e+00) (1, -1.00867768861918722934e+01) (2, 6.02495992311376049599e+00) (3, -4.43450301863619333886e+00) (4, 5.30792171017930147769e+00) (5, 1.30146513088827138205e+01) (6, -4.40370054995913022822e+01) (7, -1.93093511191384585857e+01) (8, 2.45882884816596956057e+01) (9, -1.07644977259970548999e+01) (10, 2.45577379723854498650e+01) (11, 4.41305355140839150607e+00) (12, 3.16290114918777689468e+01) (13, 2.83571980972922865760e+01) (14, -7.46090094691470806509e+00) (15, -8.79276040945427261875e+00) (16, -2.35445142942712166700e+01) (17, 3.51620830014448486622e+01) (18, 2.77394866045212573624e-01) (0, -2.08835539974588285661e-01) (1, 1.30334470016466870135e+01) (2, 3.93654641117547887674e+00) (3, 5.52268499937130652455e+00) (4, 7.35558704506460347972e+00) (5, -1.93864220121255792506e+00) (6, -3.78775622919132137767e+00) (7, 1.39165810627212476192e+01) (8, -1.95791486298937620347e+01) (9, 1.30165016855809732021e+01) (10, -1.71947970567338330738e+01) (11, 1.49105093736416520755e+01) (12, -2.10823889824425485529e+01) (13, 1.10737745297832645974e+00) (14, 2.76055712976467013675e+01) (15, -2.16624467984266964038e+01) (16, 1.48751202205210617535e+01) (17, 4.33106464730372398009e+00) (18, -5.92797397606550577343e-02) (0, -1.72828454910071127593e+00) (1, 7.97927644725098428324e+00) (2, 2.22634461487698009918e+00) (3, -1.02070948226972717521e+01) (4, -3.16285980527221566305e+00) (5, -5.91340986302963611543e-01) (6, -9.88118721151834655814e+00) (7, 2.89067540523857857693e+00) (8, 2.70733337948979553289e+01) (9, -1.36173769013713008569e+00) (10, -1.71950040728334982987e+01) (11, 3.38754619016396318898e+01) (12, -1.89443719292969170453e+01) (13, 1.31303715429674170423e+01) (14, -2.49536357603494458601e+01) (15, -6.19278853655301997350e+00) (16, 7.57671300157467442205e+00) (17, 2.26249983578635394110e+01) (18, 1.74543107478453446424e-01) (0, 1.25670379323035472652e+01) (1, 1.42455562247910769713e+01) (2, 2.37862108671301477614e+01) (3, 3.03185795091528254019e+00) (4, 6.32754890027448002598e+00) (5, -2.21032819909567912475e+01) (6, -7.33661031128537555190e+00) (7, -1.01886976020431916368e+01) (8, 2.28361277356176728404e+01) (9, -3.37704325527919380079e+00) (10, -3.93033899687045584770e+00) (11, 1.88317963621677080255e+01) (12, -2.13521443524942391434e+01) (13, 2.27322540836366364658e+01) (14, -2.50019594756990031215e+01) (15, -1.37353717444899210420e+01) (16, -2.08561256764974736200e+01) (17, 6.74964406120524618160e+00) (18, -2.04647679812352684126e-01) (0, -9.76947431211007888407e+00) (1, 2.74754867216568499089e+00) (2, -3.18387647570657961182e+00) (3, 2.62162243081088419672e+01) (4, -3.70894032875147727779e+00) (5, -2.09281894518919431292e+00) (6, 1.20677842577667693291e+01) (7, -1.56871217211521791768e+01) (8, 9.72335691805490398565e+00) (9, 2.24018825152248757249e+00) (10, -6.83003924862608635671e-01) (11, -5.91516702951768280627e+00) (12, -1.02609799588845662655e+00) (13, 5.84189792598821799885e+00) (14, -1.23613252043665688973e+01) (15, 2.37928213844443092739e+01) (16, -8.68968207899096256597e+00) (17, -5.37291070802372505710e+00) (18, -3.17318439984200284520e-01) (0, -3.72264517145478546212e+00) (1, -3.67155303114936604203e+00) (2, 2.14599596635786298293e+01) (3, -9.57948753433027633264e+00) (4, 2.47215582330280092549e+01) (5, 1.57125908351040717292e+01) (6, 1.40350609896173494917e+01) (7, 2.45384198883173105799e+01) (8, 5.10795766959145969288e-01) (9, 1.01430007103675450253e+01) (10, -1.89862083171113980029e+01) (11, -1.40512628363970719647e+01) (12, 6.39726709186949875630e+01) (13, 1.01977385446544541736e+01) (14, -1.95523002604065041510e+01) (15, 3.92369704704961297370e-01) (16, -2.02256164411237264744e+01) (17, 1.64427094734068504067e+01) (18, 7.77673724493523899071e-01) (0, 2.12209557524885794599e-01) (1, 1.24404428256488905902e+01) (2, -3.81766220990917615197e-01) (3, -1.14243110234588680640e+01) (4, 7.97966571415589465133e-01) (5, -2.53246319411951787970e+01) (6, -3.34935410716261028341e+00) (7, -6.93448700387835570424e-01) (8, 7.27653104717573917526e+00) (9, -9.08793328647304754497e+00) (10, -1.19305066141446509675e+01) (11, 9.92895999624590430699e+00) (12, 7.00157175017592070532e+00) (13, -1.71068038975772438448e+01) (14, -3.48506141620227349875e+00) (15, 4.04774885154826780109e+00) (16, 1.73536065077651180388e+01) (17, 8.03773215969849097462e+00) (18, -3.41233517537340380610e-01) (0, -1.96148090825973682172e+01) (1, -8.13971258822099485997e+00) (2, 8.56759968142553773873e+00) (3, 1.76674567398101665106e+01) (4, -1.86711834713405666619e+00) (5, -3.81292358615622850593e+00) (6, -1.60846654323847282342e+01) (7, -1.86772205795000658668e+01) (8, 3.94699560453230935408e+00) (9, 4.95752352976653920535e+00) (10, 1.25651844687324416583e+01) (11, -3.09044641397955510698e+00) (12, 1.18993471681856473054e+01) (13, 1.60817279435266193843e+01) (14, 2.25639888605700420499e+01) (15, 1.20812129423502820913e+01) (16, -1.81136900320403739784e+01) (17, -4.09463718537071699188e+01) (18, 3.93363076963196278690e-01) (0, 6.84359091171372213580e+00) (1, 1.57291407524344730717e+01) (2, 1.55503693857171398918e+01) (3, -7.19082133626208186428e+00) (4, -5.54160331563744090744e+00) (5, -1.02726233383473957161e+01) (6, 1.22270772201288053793e+01) (7, 4.30750103071290624257e+00) (8, -1.38541784364796924933e+01) (9, 5.13577328121163616953e-03) (10, -7.04845572310509282943e+00) (11, -1.54099067005178760326e+01) (12, 9.97578692638832187356e+00) (13, 1.07439337367479605945e+01) (14, 5.84897670411327652573e+00) (15, -2.71691095556885775508e+00) (16, -1.21889701522005093892e+01) (17, -1.05109357802347815891e+01) (18, 1.13437722517064076833e-01) (0, -3.11443831554353200985e+00) (1, -1.62923546872417759346e+01) (2, -1.95353975289805887883e+01) (3, -1.21694681407740361578e+01) (4, -8.51103487262708680028e-01) (5, 9.13459222908452161960e+00) (6, 3.00489330657792574897e+00) (7, 1.47779093779571901734e+01) (8, 2.08486091475555346264e+00) (9, 4.95491266061010016131e+00) (10, -3.67065930815849128521e+00) (11, 3.32068557878186965127e+01) (12, 2.38235982801377277340e+00) (13, -1.58041700236950113378e+01) (14, -1.47193843435807476538e+01) (15, -4.71747715340034279308e+00) (16, 1.13913038849494552274e+00) (17, 1.28547600039258980154e+00) (18, -3.63591012229854293469e-01) (0, 4.27278728474685198790e+00) (1, -1.37567258734820851984e+00) (2, -2.60374866965418183540e+00) (3, 2.99829868063818985036e+01) (4, -5.95565146547414148159e+00) (5, -8.65498677335121158194e+00) (6, 1.86400285836655719152e+01) (7, 2.61459997906846552951e+01) (8, -1.15511825524316869007e+01) (9, 5.43341130073979106108e-01) (10, -2.35803147730161768436e+01) (11, -9.88028906755888591817e+00) (12, 5.15966752161735531246e+00) (13, 1.36283438517527670797e+01) (14, -2.04502247598634099290e+01) (15, 2.15100320128721334001e+00) (16, -2.24691576369401282420e+01) (17, -1.34948611084027199070e+01) (18, 5.92930067192506515816e-01) (0, 9.26821641473217283647e+00) (1, -2.53306543877284395805e+00) (2, 2.33899372261622273683e-01) (3, 1.61184741316242323705e+01) (4, -2.15390181303945489333e+01) (5, -1.13942096548513767118e+01) (6, 2.51534541452130744332e+00) (7, -7.21941036300528260483e+00) (8, -1.20111371331722267541e+01) (9, -1.18883887619955395110e+01) (10, 2.51308250944024713647e+01) (11, -1.77172537416375397434e+00) (12, -2.32062400152176024903e+01) (13, -5.06295005699717304282e-01) (14, 1.30026066004098588280e+01) (15, -7.36138614372578636846e+00) (16, 1.82845474950145747695e-01) (17, -5.46219338422499145480e+00) (18, 1.01339597442680257045e-01) (0, 8.88120731443340138966e-01) (1, -2.61861766056388400870e+00) (2, 1.04418889020233933707e+01) (3, -3.94126557655111087186e+00) (4, -5.90068069215302504205e+00) (5, 1.95331037695086067174e+01) (6, -1.61718901865005904028e+01) (7, -3.09127085680927660150e+00) (8, 9.36787131728281985410e-01) (9, 2.05704856176971695447e+01) (10, -1.15595407313913440817e+01) (11, -6.02142220504650538260e+00) (12, -1.75325120358730224268e+01) (13, 2.38060408875278284313e+01) (14, -1.47410422284544164739e+01) (15, -1.23125323560581563243e+01) (16, 1.76274797511433867214e+01) (17, 9.85753299990087938909e+00) (18, 2.97093272499639182715e-01) (0, -2.02692538393070016411e+01) (1, 2.34705392168173965217e+00) (2, -5.51197986291465458208e+00) (3, -2.60929183048864707928e+01) (4, 2.45058904496828589004e+01) (5, 1.84837003561830250931e+01) (6, 2.47723119961125100019e+01) (7, 2.52488980376256089144e+00) (8, -3.24551090411092779675e+00) (9, 2.55950578571333124955e+01) (10, -1.16135285861022943266e+01) (11, 1.36357744402447522702e+01) (12, 4.15145919923140471752e+00) (13, -5.79684350983947105362e+00) (14, 2.23115646964986353851e+01) (15, 6.49167493489480573743e+00) (16, 2.07161508086535022244e+01) (17, 5.15234686522362306249e+00) (18, 5.69945461026661881476e-01) (0, -1.73471636811498761688e+01) (1, -5.74470814622398684435e+00) (2, -1.65267705544151644048e+00) (3, -5.19862941478463191913e+00) (4, 6.19377699560843275606e+00) (5, -4.41437345521931057135e+00) (6, -5.30304853432227929488e+00) (7, 1.17505546507961717850e+01) (8, 1.44362026716481555155e+01) (9, -7.24435051861997791889e+00) (10, 6.65440426898726755667e+00) (11, 1.94308045623178102801e+01) (12, -6.46657053517389623920e+00) (13, -1.72051553285196412446e+01) (14, -5.01014831923108430733e-02) (15, 4.78162262585700492679e+00) (16, -6.32608784745390256843e-02) (17, 7.81993387975238185561e+00) (18, -1.29910410682684742539e-02) (0, -2.57681412420631268390e+01) (1, -5.73512794895236766024e+00) (2, 7.08113760010639925468e+00) (3, -5.34255543606015237401e-01) (4, -1.16857774453071189269e-02) (5, -1.68130190247230415501e+00) (6, 1.56670438582065081334e+01) (7, 2.24272321308901361192e+01) (8, -2.71762834160105937187e+00) (9, 6.35170688105076219898e+00) (10, -7.81284474711633425414e+00) (11, 2.11360051822188488302e+00) (12, 2.34908788143235236490e+00) (13, -8.71396734739164102734e+00) (14, 7.28116757159094785123e+00) (15, 1.71695508017129228051e+01) (16, 8.54606622282374495114e+00) (17, 1.29762065840495566249e+00) (18, 6.31570150496567395138e-01) (0, -1.25105533877828745126e-01) (1, -1.13955034994474146970e+01) (2, -1.12356463302087039580e+01) (3, 1.69386984938911133725e+01) (4, 6.56199111458110362349e+00) (5, -4.23682744094694641035e+00) (6, -1.24729495361998701242e+01) (7, 2.60991015814338993550e+01) (8, 3.35092301206251477197e+01) (9, -1.12226201148111854877e+01) (10, 8.67427438254757099401e+00) (11, 9.27494541285737561509e+00) (12, -6.78771258878329586395e+00) (13, 8.01892968353264556924e+00) (14, -2.63872351923729064893e+00) (15, -5.71688737526133028410e+00) (16, 8.89213162346142005354e-01) (17, -1.12160366115414333876e+01) (18, 3.64573887268019536378e-01) (0, -1.23272133183786003485e+01) (1, 5.48631369633180224210e-02) (2, 4.24668414979565511658e+00) (3, 3.70113539881928543807e+00) (4, 1.35122556437356458048e+01) (5, -1.29142332209385131137e+01) (6, 7.73789643005347294036e+00) (7, 4.27025960555780148553e+00) (8, -5.85791300257623426262e+00) (9, 7.35199503852389923964e+00) (10, -1.30604180922812744825e+01) (11, -1.89380309411947123088e+00) (12, -9.49702509071355449599e-01) (13, -4.81683987935735746788e+00) (14, 4.60927799652159109201e+00) (15, 5.55421685454838076623e+00) (16, 9.27726060652286044217e+00) (17, -3.33879063783733354143e+00) (18, 3.37020938013682214152e-01) (0, -1.65780348388467047016e+01) (1, -7.97326315818126563073e+00) (2, 6.90569786451495648549e+00) (3, 8.63177030066586326029e+00) (4, 7.09189752437080045411e-01) (5, -1.43270071303352963810e+01) (6, -4.68163787384680674108e+00) (7, 4.07826493054164895824e+00) (8, 1.41565554786670944054e+01) (9, -8.74891877247325666644e+00) (10, 2.15520909375250404594e+01) (11, -1.46377829071284493168e+00) (12, 4.70956141494506042022e+00) (13, 1.96094332772330881554e+00) (14, 3.64736897141126004129e+00) (15, 6.70105304442230753637e+00) (16, -3.13206191767644170909e+01) (17, 6.52155450678755599370e+00) (18, 2.03660432089115578380e-01) (0, -1.12444964117414460958e+01) (1, 9.75324670245818758918e-02) (2, 1.46002816725368926853e+01) (3, -2.14181285370727358952e+01) (4, 5.57087413637120487664e+00) (5, 1.45873076452751693211e+00) (6, -8.01358441223283146648e-01) (7, 2.30066584623477154992e+01) (8, 5.99554896649651247742e+00) (9, 9.07804433042845637658e+00) (10, 1.01387015147256160930e+01) (11, -1.19076192771646542923e+01) (12, 1.23652947490265958663e+01) (13, -1.05413492331160227877e+01) (14, 3.80488567322753326039e+01) (15, 1.55590850691949071916e+01) (16, 2.66879529047950860843e+01) (17, -2.39824815073020118916e+01) (18, 9.27634832901966466245e-01) (0, -3.77508519040884138462e+00) (1, -5.10176798688326105236e+00) (2, -4.74959018811394617643e+00) (3, 9.88127493879263241183e+00) (4, 8.74432624049523044008e-01) (5, 1.39352265722490624711e+01) (6, -5.88136746196388227048e+00) (7, -8.85295014804940016973e+00) (8, 9.87091612574039345418e+00) (9, -1.86849668936483387371e-01) (10, 1.87947395075119274566e+01) (11, -2.58350248687371646383e+01) (12, 2.89371437869851853009e+01) (13, 2.75189393720865318471e+01) (14, -1.05203008153004553549e+01) (15, -1.66237645082435925303e+01) (16, -8.48080563457181924036e+00) (17, 1.77436916784921763224e+01) (18, -2.22350647485434538275e-01) (0, 1.24905506957948819746e+01) (1, -4.47286028824770109935e+00) (2, 5.66025568821912461459e+00) (3, 3.49301241792214223203e-01) (4, 2.80733348245533989029e+01) (5, 7.68250192860805558581e+00) (6, -1.38084412949461423636e+01) (7, -1.01811625291017318062e+01) (8, 1.35961257290492487648e+00) (9, 2.59112595358203967599e-01) (10, -8.44771661265403395191e+00) (11, -1.26685168864671098277e+01) (12, -3.46659703427621668226e+00) (13, -5.07260951059374498584e+00) (14, 7.31278014632289163899e+00) (15, -2.75984303969350222019e+01) (16, 1.53106943620414082119e+01) (17, -2.40966718113006822533e-01) (18, 2.49411417225844284085e-01) (0, 1.76717748823829907678e+01) (1, 2.45069853628521947542e+01) (2, 1.77923593950744916015e+01) (3, 4.47964418212660664409e+00) (4, -1.94136506127655067422e-01) (5, -5.34893626488121931573e+00) (6, -6.99508912958298356699e+00) (7, 1.14596450437619132856e+01) (8, 1.71972833687909276712e-01) (9, 2.33954028103390818671e+01) (10, -3.57828905406170205694e+00) (11, 2.99842274982276570938e+01) (12, 3.90200439106787611010e+00) (13, 7.21882708117139504367e+00) (14, 1.00877236120039448508e+01) (15, 5.59605250459563552390e-01) (16, 4.36563563018441769259e+01) (17, 8.53302042528381221587e+00) (18, 5.34511618155122270046e-01) (0, 4.46792416714664319954e+00) (1, -3.19782078461921681622e+00) (2, -5.99721923522295607967e+00) (3, 2.21915680606848972900e+01) (4, 2.97448732228816981049e+00) (5, 8.96077782519797416683e+00) (6, -2.54354347001725642485e+01) (7, 1.13161421246265021523e+01) (8, 1.94673961671156341424e+01) (9, -3.72533086278065050934e+00) (10, 9.89128605736462418463e+00) (11, -1.04541366986660233529e+00) (12, -1.73650556714722128504e+01) (13, 2.82690305306741684888e+00) (14, 3.51905811049721295447e+00) (15, -1.38752804227983155272e+01) (16, 2.14723064563012133732e+00) (17, -2.37178481744188793812e+01) (18, -2.01562230831038996515e-01) (0, -2.18018682090639508431e+01) (1, -9.75029581091742514332e+00) (2, -8.84928754958997032531e+00) (3, 1.58717881613277036479e+01) (4, -1.45352869426404152087e+00) (5, -1.24811211254591114539e+01) (6, -7.41360488506007087040e+00) (7, 7.43704464667104403475e+00) (8, 1.80210294672712763031e+01) (9, 7.90123150975222010572e+00) (10, 3.03104825463193483515e+00) (11, -9.51710161244525565394e+00) (12, 3.76621391386850756788e+00) (13, 5.91543165835868833824e+00) (14, -2.40686015876447605422e+01) (15, 1.55869151270480035265e+01) (16, -2.45803710798098080659e+01) (17, 5.89887218281919478713e-01) (18, 1.74067630763425906792e+00) (0, -1.63050937069406987057e+00) (1, 8.14191782993985846417e+00) (2, -3.81425677675052376969e+00) (3, -1.33325400342221733752e+01) (4, 1.28511081724700666484e+01) (5, 9.72298412733425543308e+00) (6, 6.25981178190341402967e+00) (7, 4.76440160569128057233e+00) (8, 1.28818068034977812886e+01) (9, 2.77998539999958449442e+00) (10, -3.72471638512344771499e+00) (11, -5.04122583443196692343e+00) (12, 3.04596674840386993921e+00) (13, 1.07223937880601083439e-01) (14, 5.84272250987987984416e+00) (15, -2.71555363151604431948e+01) (16, 4.09601773602247298811e+00) (17, 5.97767363609562529803e+00) (18, 3.31750513179082218151e-01) (0, -7.02286451053129834321e+00) (1, 4.03839364732511862943e-01) (2, -3.18009762497942505277e+00) (3, -6.13344260107220051736e+00) (4, 2.47104455307818113852e+01) (5, -2.44154705125013258282e+01) (6, -1.70092951376055303570e+01) (7, 1.49469435637177063825e+01) (8, 9.35823704123038346836e+00) (9, -2.50427260015247270530e+01) (10, 2.44499593232494527584e+00) (11, 1.78546498201379968407e+01) (12, 8.15632255890743351756e+00) (13, -2.55335664948918896755e+01) (14, 3.20439423666228364596e+01) (15, -2.01586192696503019306e+01) (16, 1.64255821796008838476e+01) (17, 2.71683762294270252369e+01) (18, 2.03126446980326835767e-01) (0, -1.30546307785091464382e+01) (1, 1.24037696670864977522e-01) (2, 1.97288884595760585228e+01) (3, -5.33256107134559798055e+01) (4, 8.38596771711431365759e+00) (5, -3.62866079461869395217e+00) (6, 3.24656529536142741676e+01) (7, -2.61192816169506381030e+00) (8, -5.52190548811798933571e+01) (9, 1.68970683472203297981e+01) (10, -1.06585315991309776962e+01) (11, 2.30626497940951367127e+01) (12, 9.73060271377141283722e+00) (13, 7.01599292757768555617e+00) (14, 3.67689408157383255116e+01) (15, -1.21989728215872865746e+01) (16, 2.24814894488132743788e+01) (17, -1.55538331683674808659e+01) (18, 1.15747296363217760939e-01) (0, -9.29356884775289593392e+00) (1, 8.05390078047866531108e+00) (2, -1.71528277438511480568e+01) (3, -1.12087416096501861773e+01) (4, -3.77766265407357204609e+00) (5, 1.70812956851880457521e+01) (6, 6.31154684709048652280e+00) (7, -4.05892214205284052042e+00) (8, 2.43773682102821176443e+00) (9, 3.34283600005752887796e+01) (10, 2.02058762957040762842e+01) (11, 1.62744157823022774778e+01) (12, 2.23844805811619274039e+01) (13, 1.73146025008126862588e+01) (14, 1.55995095847251192822e+01) (15, 9.67538083555269490255e-01) (16, -3.50111399241795995252e+00) (17, 1.33352112662084572037e+01) (18, 2.81106827317850194170e-01) (0, -3.40330109015124371297e+00) (1, 1.38953144390714342649e+01) (2, 1.06397688476621734566e+01) (3, 1.24550297864207966114e+01) (4, 1.03566452200835481534e+01) (5, -9.77901461739119959304e+00) (6, 1.09831692986670841350e+01) (7, -1.39815478480634460823e+01) (8, -1.29525372063643953169e+01) (9, -5.21336482027029290975e+00) (10, -1.55185544567706710239e+01) (11, -3.47648328277146223542e+00) (12, 9.35571585403235062017e+00) (13, 8.49306360453551789647e+00) (14, -9.90548247904522405349e+00) (15, 6.90945676974571654227e-01) (16, -5.63940011227893567280e+00) (17, 2.84374290182434315000e+01) (18, -1.51919352282385594632e-01) (0, 2.32222150153273680928e+01) (1, 1.24364172768949181602e+01) (2, 6.85573337116979253381e+00) (3, 3.54846421638007525345e+00) (4, -1.13423667475834988316e-01) (5, -1.60182663132158573660e+01) (6, -2.05225182378492867485e+01) (7, -5.83566274639631110688e+00) (8, 7.03914491211332293830e+00) (9, 2.52157963793249439988e+00) (10, 8.56788898356682082635e+00) (11, 4.83543132791450780417e+00) (12, -2.18165554372399768113e+01) (13, 1.13340274561252201124e+01) (14, 7.60740425895564609249e+00) (15, 2.51897413462350305835e+00) (16, -3.56121480454680794381e+00) (17, -1.43901581607383395323e+01) (18, 1.52475332236352290050e-01) (0, 7.30141793457193610806e+00) (1, -3.96582667758630069699e+00) (2, 6.38984202725258398914e+00) (3, 1.68085593736763208028e+01) (4, -3.65064460772209153916e+00) (5, 1.09733024002509282901e+00) (6, 8.58239695028329130366e+00) (7, 3.16202245982325074181e+01) (8, 9.37501675903173925519e+00) (9, 3.73878516054584686401e+00) (10, -1.25561408855816347696e-01) (11, 1.61610669075315129817e+01) (12, -2.92174757715904895861e+01) (13, -2.14317904209893184131e+00) (14, -1.10447930130125158144e+01) (15, -1.88207733104678602842e+01) (16, 3.27433473771998162505e+00) (17, -7.61239348625049938590e+00) (18, 3.25107584106250624423e-01) (0, -2.37159689422179589258e+01) (1, 3.06398698102909916585e+00) (2, 9.42518345736058371642e+00) (3, -3.37139169051627334284e+01) (4, 2.10013819092514602005e+01) (5, 1.03301261094386376271e+01) (6, -3.21348029586856327455e+01) (7, -2.49056623392548104334e+01) (8, 9.76448194423178073009e+00) (9, -1.00711982791588603448e+01) (10, 1.61057136461968468666e+01) (11, -8.42351375847724348489e+00) (12, 1.37099660181660798486e+01) (13, 3.78836542970614473802e+01) (14, 5.30064774383712915551e+01) (15, -2.49707471493162325160e+00) (16, -3.09568603478792496730e+01) (17, -1.83802895750133679087e+01) (18, -5.00511383127635767210e-01) (0, 1.24015003440482267649e+01) (1, -9.97399816132974059713e+00) (2, -5.84200953223466612485e+00) (3, -1.22700123711479172073e+01) (4, -1.52349249660941516993e+01) (5, 1.08584030031768055125e+01) (6, 4.11349066042090605322e+00) (7, -9.92842717884036041198e+00) (8, -2.72451779759386276680e+01) (9, 1.33242516566080606566e+01) (10, 2.94144019351440277887e+01) (11, -1.91739704910695607509e+01) (12, -5.78421059131716930324e-01) (13, 1.22238481210546545697e+01) (14, 3.16654508149535729444e+01) (15, 2.22589760470838484707e+01) (16, -6.29577555999656812702e+00) (17, -4.23675646645371362098e+00) (18, -4.59937095801203121859e-01) (0, 2.42824745969237021370e+01) (1, -2.12811965728426848443e+01) (2, -9.47530014818674715116e+00) (3, 1.29606459360650507762e+01) (4, 1.71152204851009370756e+00) (5, 1.25208582105788792660e+01) (6, -2.49670883629911735113e+01) (7, 3.66406414145668879456e+00) (8, 1.43785402005741751452e+01) (9, -8.10611256405590197005e+00) (10, 4.04973337345793709119e+01) (11, 1.62760369624355867302e+01) (12, 4.73123084783535716724e+01) (13, 2.42588434220844888500e+01) (14, -2.05651499163675630655e+01) (15, -1.88781264725660484771e+01) (16, -1.62437271035083163895e+01) (17, 7.79047911994287106685e-02) (18, -1.88702643778641127037e-02) (0, -8.39958530390067537041e+00) (1, 3.82019733662118099460e+00) (2, -1.67995664672869473577e+01) (3, -2.43708654803732072125e+00) (4, 5.04282762017694707879e+00) (5, 1.53656589878765217350e+01) (6, 1.99308557570460642694e+00) (7, 8.85288186888591677182e-01) (8, -2.79751976493542002800e+01) (9, -8.03730010451390519677e+00) (10, -1.19346213192576371398e+01) (11, 9.89466172878278094061e+00) (12, 1.78996550064252986090e+01) (13, -4.52400739643500315879e+00) (14, 2.31707237226337738889e+01) (15, -1.74203876714144207938e+01) (16, 2.52011925913907255392e+01) (17, 1.83832477608718569684e-02) (18, -2.14258304191215209755e+00) (0, -2.61397729653197563593e+00) (1, 2.12691256755249185062e+01) (2, 1.03691057169142553107e+01) (3, 1.26607107737270236925e+01) (4, 2.54591987341376713161e+00) (5, -1.87877910787738180431e+01) (6, 4.70978868305946747341e+01) (7, -8.93926620218477552271e+00) (8, -9.15638423825882874496e+00) (9, 2.49404157026757911098e+00) (10, -1.03801866892024534650e+01) (11, -1.58555475515530250874e+01) (12, -1.48617301537218455820e+01) (13, -7.76103856736722774734e-01) (14, 1.07201171310595366748e+01) (15, 4.42157095384675535854e+00) (16, 9.95956262851663787217e+00) (17, -3.56077497983943214166e+00) (18, -5.22346754082569364463e-02) (0, -3.68087947425402788326e+01) (1, -2.18851871723593092156e+01) (2, 5.97788586070985594745e+00) (3, -1.56809849005249404286e+01) (4, -2.96149322792413123295e+01) (5, 3.10526135652704695644e+01) (6, 6.65774543355252923504e+00) (7, -1.92002963915093038949e+00) (8, -7.49701420156204800804e+00) (9, -6.33229104569253742341e-01) (10, 1.10030272450163213449e+01) (11, 1.63810202896789078864e+01) (12, 4.64009708385771002526e+00) (13, 1.66699157020974908505e+01) (14, -5.06236482999624470835e+00) (15, 2.23239096200833131434e+01) (16, -1.74499923938442371707e+01) (17, -8.06988896770666563896e+00) (18, -3.93758064395958562454e-01) (0, 1.90573663508722503934e+01) (1, -5.31176790506940221803e+00) (2, -5.80454731614807606377e+00) (3, 1.98281653513876854333e+01) (4, 2.36153672934242475634e+00) (5, -1.61131564826898348031e+01) (6, -1.48936168174768148731e+01) (7, 3.12718108340381473198e+00) (8, -1.92951042309900988592e+00) (9, 5.99422534565737752388e+00) (10, -4.74409981871487751448e+00) (11, 7.51052807483158346713e+00) (12, -3.70093748252853016467e+00) (13, 1.59719968143472179634e+01) (14, -7.53778552388691291952e+00) (15, -1.27309960168211446785e+01) (16, 7.19160764923392559211e+00) (17, -1.21137949900001267167e+01) (18, 9.80463395955730288023e-01) (0, -1.17188994830911639156e+01) (1, -7.76100823671784301183e+00) (2, -1.31796459324815220526e+01) (3, -1.34501327411188675853e+01) (4, 4.98067648202689783332e-01) (5, -4.44638969955019724978e+00) (6, -6.24123816314971691099e+00) (7, 4.85283382413452901716e+00) (8, 1.18599298927785348212e+01) (9, 9.54240900058010055318e+00) (10, 2.09546294538865254253e+01) (11, 2.93154798561138107971e+00) (12, 7.41088595933481997236e+00) (13, 7.92280186818640697055e+00) (14, 1.94429874744703461431e+01) (15, 1.37579743288611133778e+01) (16, -3.62335973353489437798e+00) (17, -6.83463784676142971364e+00) (18, 7.11467502434067200490e-01) (0, 6.19215355291982572083e+00) (1, 3.92893666862730395195e+00) (2, 9.92882580162299577253e-01) (3, -6.16875504200142099620e+00) (4, 3.92112910433121619747e+00) (5, 1.53013690854501627214e+00) (6, 6.84984875811089244380e-01) (7, -4.95063761701644633462e+00) (8, 2.87794830897752174081e+00) (9, -4.14511716017252140887e+00) (10, -3.61697439585144664420e+00) (11, -4.19258046326001743154e+00) (12, 1.08039272819923262148e+01) (13, 1.27298064933075369964e+01) (14, -8.81519247698085273157e+00) (15, 6.46099529476922729287e-01) (16, 1.23823320718900509174e-01) (17, 1.34748955475947944649e+01) (18, 9.92123208201898143521e-01) (0, -8.65346320877876529210e+00) (1, -9.81352281338385346032e+00) (2, 7.53849332792229631650e+00) (3, -2.40531455941381793195e+01) (4, 1.18432906416567274022e+01) (5, 7.33329722076153434074e+00) (6, -2.31554195962238473783e+00) (7, 1.54695902696327127757e+01) (8, 3.91149125358735139102e+00) (9, 1.61152922876453210677e+01) (10, -2.49574375263872880737e+01) (11, -6.01303576431573461036e+00) (12, -3.58760467888266063596e+01) (13, -1.73934703055530484050e+01) (14, 1.63051188293338640278e+01) (15, 1.90011077674434947227e+00) (16, 2.14991523180672281512e+01) (17, -1.58095824077709412592e+01) (18, 1.27995229345638589225e-01) (0, 2.66932236244451637219e+00) (1, -2.47391965722103490677e+00) (2, -1.09344719906396559139e+01) (3, -1.75631026036178781169e+01) (4, 4.77942625209398652686e+00) (5, -1.36347035732197880975e+01) (6, -1.53697274652610760270e+00) (7, 1.09933966980571611316e+01) (8, 8.14026516514848097472e+00) (9, -6.94746267842344789045e+00) (10, 2.91547704187312861634e+00) (11, -1.51184546489232785049e+00) (12, 2.48265668296897388245e+01) (13, 1.46233246252790816122e+00) (14, 1.43690671757490129323e+01) (15, 1.05131047205599212901e+01) (16, -1.36492298739805617558e+00) (17, -3.11928831409399016650e+01) (18, 1.78584424038073036334e-01) (0, 4.41438812525604440395e+00) (1, 1.99612263473116047230e+00) (2, -3.64105890727956378328e+01) (3, 9.61786367331285951821e+00) (4, -9.10430185191634144815e+00) (5, 1.90035353786054415082e+01) (6, -2.55067749898722517798e+00) (7, -8.04033744874812911219e-02) (8, 5.57310474966902447136e-01) (9, 5.61330565093595090786e+00) (10, -7.01990650838224716779e+00) (11, 2.79292252020477382857e+00) (12, 3.13242424930086071910e+00) (13, -8.15363304266647381802e-01) (14, -1.58070014383142805059e+01) (15, 9.11514289771744934399e+00) (16, 5.07442247588519546042e+00) (17, 2.60033592465835283747e+01) (18, -5.77242476224989697897e-01) (0, -2.70213401286265186840e+00) (1, 8.41124385277728947585e+00) (2, 1.35222255093890115774e+01) (3, 1.63996440627807089641e+01) (4, 1.31587529218272791809e+01) (5, -1.95566662756814508839e+01) (6, 3.71244707642665083824e+00) (7, -6.11150118884671478270e+00) (8, 1.26501939575236521662e+00) (9, -1.52036194236203203722e+00) (10, 4.75329191587731292312e-01) (11, 3.42491502056081831284e+00) (12, -6.62882216300732274306e+00) (13, 7.28519385356472159998e+00) (14, -4.60704273097967842432e+00) (15, -1.68527949520467572597e+01) (16, -8.49672418342667518099e-02) (17, -8.07907734875983862821e+00) (18, 2.84775158029355379696e-01) (0, 3.51353721217517467323e+00) (1, -3.87334829424842297385e+00) (2, 1.74226190768897239991e+01) (3, -2.97385447573924182052e+01) (4, 2.71253899523469783617e+01) (5, 1.41659820856665508160e+00) (6, 8.03876568325220830502e+00) (7, 1.73978796085964937390e+01) (8, 8.20306230959170434858e+00) (9, -1.64147633644234218764e+01) (10, -2.76998460776986128451e+01) (11, 2.16707717113180358126e+01) (12, 8.99907450936890107585e+00) (13, -8.67085696827367335970e+00) (14, 8.50613213478672136603e+00) (15, 1.21623019602931448091e+00) (16, -6.92322441762506013418e+00) (17, 1.45401892094337981121e+01) (18, -9.50697710788176303387e-02) (0, -1.38559400540171715477e+01) (1, 9.84664637354682881210e+00) (2, 7.97457844816001415467e+00) (3, 1.12247537117625242331e+01) (4, 9.95435420255848768534e+00) (5, -2.85990164099639398998e+00) (6, -3.29379384893574211901e+00) (7, 1.32494952379131518683e+01) (8, 1.43273388443503346679e+01) (9, -1.90631729091117847474e+01) (10, -2.53449757566279991750e+01) (11, 7.99574217748974191977e+00) (12, 5.48955111154788166772e+00) (13, -1.60612855205756090982e+01) (14, -5.55896054264659245092e+00) (15, -1.66507880688800824487e+01) (16, 9.95580117807374520567e+00) (17, 7.42078120798498019894e+00) (18, -2.66712820641762327067e-01) (0, 2.53431733235873828392e+01) (1, -4.35769930738527516700e-02) (2, 2.80288856196080515826e-01) (3, 1.52398515335089701495e+01) (4, 1.09444141226613407269e+01) (5, 2.01544861897321503363e+00) (6, -2.70431309931561703053e+00) (7, -2.00743208296592321460e+01) (8, -9.00324221654874001786e+00) (9, 2.33468384530625683304e-01) (10, 8.59813953725841528808e+00) (11, -3.55642247363672652227e+01) (12, 2.67370656944295070900e+01) (13, 8.40836226021598798219e-01) (14, -4.51153500522836292674e+00) (15, 6.89228622187285733247e+00) (16, -1.25458128419213466032e+01) (17, 1.35669648554421833353e+01) (18, -3.65472686126838974818e-02) (0, -6.44274465047935152029e+00) (1, -1.83773287366756328254e+01) (2, -1.19808686303641653836e+00) (3, -2.99442763234950994899e+01) (4, 2.49242473228172667365e-01) (5, 1.28705184800288052749e+00) (6, -2.46581333208568942439e+00) (7, 1.14843334071516380845e+01) (8, 2.11693324034051606475e+01) (9, 1.29713775288106454298e+01) (10, 1.16334249929867734608e+01) (11, 3.04733143812850126864e+00) (12, 2.20110006212243991541e+00) (13, 3.78485619341075230082e+00) (14, -9.95526297281961625174e+00) (15, 1.80707434013096701619e+01) (16, -1.80535332585506935743e+01) (17, 2.68602797079600499330e+01) (18, 8.91762688654456903148e-02) (0, 5.13728285813598706255e+00) (1, 1.25318245491090536348e+01) (2, -6.98875830340739767621e+00) (3, 2.05827475246926177022e+01) (4, -2.10799893813819565480e+01) (5, -6.74671394964992199306e+00) (6, 7.48778399497571989230e+00) (7, -1.10160343598804661980e+01) (8, -7.06099977039841686377e+00) (9, 5.47627841205724230633e+00) (10, 2.32653991599685525671e+01) (11, 4.92476282043963209389e+00) (12, -1.36213493248140125047e+01) (13, -1.17813074362608478651e+01) (14, -3.63100235883994448827e+00) (15, 6.66625131446554597403e+00) (16, -5.18008733747096616895e+00) (17, -6.60193445123625544113e+00) (18, 1.22413576822482633721e-01) (0, 5.40297612482376066190e-01) (1, -1.50806019361599030759e+01) (2, -8.00655081123369072316e+00) (3, -1.78992319481505539613e+01) (4, -9.54411824380797035872e+00) (5, -1.16929738473642643726e+01) (6, -1.11772422508961000176e+01) (7, 3.11129234140764019401e+01) (8, 7.99717361326419240442e+00) (9, 3.61042824757128588686e+00) (10, 3.11183801225574612204e+01) (11, 1.07492902335291606875e+01) (12, 9.59377880440967700792e+00) (13, -6.08749192701656660631e+00) (14, 9.58518427262606742545e+00) (15, 1.25874074407858884683e+01) (16, -1.25890438030292450833e+01) (17, 3.87393618491327451636e+00) (18, 4.57530908960003757091e-01) (0, -2.25581524816079941331e+01) (1, 6.82679861184251368655e+00) (2, 7.46935689601755797851e-02) (3, -4.51028462420946052447e+00) (4, 3.03245268085025765359e+00) (5, 6.80239870003158575429e+00) (6, 1.13269930052185170410e+01) (7, -5.82237449122778083499e-01) (8, 8.95893341806601206656e+00) (9, 1.12049664144953853295e+00) (10, -1.43492266102932894967e+01) (11, -2.20700682752554744326e+00) (12, 1.01225425733675482576e+01) (13, 1.29922222027354337115e+01) (14, -3.34829853540882016461e+00) (15, 6.67829842931902017966e+00) (16, -1.36407915509008539345e+01) (17, 4.24712431979395965698e+00) (18, 7.73453301900968948068e-01) (0, 2.88252294787245446628e+01) (1, -1.50300702252350202315e+01) (2, 6.06398149885818327220e+00) (3, 2.24037033192970511664e+01) (4, -1.63852602548057326715e+01) (5, 1.33866450827192196016e+00) (6, -2.09287551130694415846e+00) (7, 2.55369439962260997845e+01) (8, 1.80524139919529638121e+01) (9, 2.01313658648920217331e+01) (10, 1.15643058797258575510e+01) (11, -1.56909348519163183155e+00) (12, -3.40928763266968957169e+01) (13, 2.30171872540138267027e+00) (14, -3.21735583493835832769e+01) (15, -7.57327416620601323594e-01) (16, 7.39202161977916660796e-01) (17, -1.90702390121470877205e+01) (18, 3.25776955095466169698e-01) (0, -2.49365366479422778667e+00) (1, -8.95887148309689251846e+00) (2, 2.09327799193618702134e+00) (3, 1.05425201198371567557e+01) (4, -1.34588409958903092445e+01) (5, -8.71849164602512272104e-01) (6, -2.02022896635702160495e+01) (7, 1.80499442848146536278e+01) (8, 3.40580083709429288774e+01) (9, 4.03333784186227450874e+00) (10, 2.03741259366582028179e+01) (11, -1.06764225873010545342e+01) (12, -1.48851810422338748374e+00) (13, 6.57716060683221037664e+00) (14, -1.38214494737127093771e+01) (15, 1.82139514878971624512e+01) (16, -3.06350404129249653806e+00) (17, 1.65781225372878804336e+00) (18, 1.78542809308203237473e-01) (0, 8.05973052170767118030e-02) (1, -1.06812158721926273586e+01) (2, -2.40089270002726973274e+00) (3, -1.16921524718206004678e+00) (4, -1.18549775360358333742e+00) (5, 1.85145527757084238374e+00) (6, 7.29122888836402704982e+00) (7, -6.89192177571899744493e+00) (8, 1.69110498285424415421e+00) (9, -7.17645210498506536112e+00) (10, 1.37725610597468612895e+01) (11, -8.98030723148321463611e+00) (12, 3.62761322340006842069e+01) (13, 1.14292377011053005731e+01) (14, -1.42742733279748001962e+01) (15, 1.52276713850957943208e+01) (16, -2.89988421706979906389e+01) (17, 1.27480363391467470535e+01) (18, 6.85225413700780494608e-01) (0, 2.03027465296347777723e+01) (1, 1.82807035070188348413e+01) (2, 7.57052994207115226288e+00) (3, -3.32676092652396038218e+00) (4, 8.38851267724937876835e+00) (5, -4.15013333266549366840e+00) (6, -2.97617592934591979059e+00) (7, -3.58322815268072680794e+00) (8, -1.50944611990847192828e+01) (9, 1.07246741804849978763e+01) (10, -7.19341188327560754345e+00) (11, 8.74009221207358599770e+00) (12, -1.37464904862983576805e+01) (13, -1.42266130353597852753e+00) (14, 3.11826616199406103647e+01) (15, -1.82818429422456780742e+01) (16, 3.95037670878494608928e+01) (17, -2.51527697157561185293e+01) (18, -9.51872783030815045047e-02) (0, 1.86866940322730279433e+01) (1, -8.45455742408371513363e+00) (2, 2.46180067295754589907e+01) (3, -1.36720636302600500045e+01) (4, -3.21982776325120978456e+00) (5, 1.85864150600662974000e+01) (6, -2.48223555777596693872e+00) (7, 1.58982996419778999098e+01) (8, -2.46091940741242822810e+01) (9, 1.35117710014384542205e+01) (10, 6.74991061239145739847e+00) (11, -1.03688540814502463405e+01) (12, 6.13665719103548035207e+00) (13, -1.69740095592880599895e+01) (14, 2.79462908138162440252e+01) (15, 2.67617062257998661323e+01) (16, 5.84208692803614795253e+01) (17, -1.25385010036787480914e+01) (18, 8.80864867176858745701e-01) (0, -7.54794469896385322727e+00) (1, -4.60539436278301739236e+00) (2, 1.19342019514078732101e+01) (3, -7.46074810771868213166e-01) (4, -1.33629255002867850521e+01) (5, 4.99924660246338914416e-01) (6, -4.81862297699600539147e+00) (7, 1.87401610760902812558e+01) (8, -2.35771333004175964732e+00) (9, -6.83029943751714085920e+00) (10, -4.52007718608377651037e+00) (11, -2.00992511100677546665e+01) (12, 2.79870737396942921293e+01) (13, 1.97591601230111280074e+00) (14, -5.90410427195950671120e+00) (15, 5.16235432943436034492e+00) (16, -9.65952853809455014300e+00) (17, -2.03918517583089702327e+01) (18, 6.34975649933613106590e-01) (0, -1.74942622567235979147e+01) (1, -7.42447265552628099528e+00) (2, 1.35800361413114800690e+00) (3, 1.95499390303700764093e+01) (4, 8.80651950009213990711e+00) (5, 5.59089319357126779408e+00) (6, 7.78378341373253945790e+00) (7, -5.94279110233156426801e+00) (8, 2.33256099367577185433e+01) (9, -5.93184819378676664314e+00) (10, 1.55461955766500938836e+01) (11, -1.63199675633629155413e+01) (12, 1.21989953637259129771e+00) (13, 7.14921407375625150848e+00) (14, 5.88144800584703109081e+00) (15, 1.33210776506601611402e+01) (16, -2.37882872286461513056e+01) (17, 5.32051148982157684486e+00) (18, 6.12664850702946406358e-01) (0, 9.30508107863879629917e+00) (1, 1.29783308107265522580e+01) (2, -2.10450815528529844300e+00) (3, -7.52788708558679342531e+00) (4, -2.19513668071693812678e+00) (5, 1.44203189457222471503e+01) (6, 9.30393225884462538033e+00) (7, -1.30671972731044636618e+01) (8, -2.79075208135268617582e+01) (9, 2.61690064122789891599e+01) (10, -2.95373194875991451624e+01) (11, 6.76625609570891217714e+00) (12, -2.06906738091750916908e+01) (13, -7.45335775002286737845e+00) (14, -4.43865274967094070036e+00) (15, -4.54987453428487054197e+00) (16, 3.09662420375496765246e+01) (17, -5.71364693843603532741e+00) (18, -3.95452536688669309406e-01) (0, -9.03402869266136576698e+00) (1, -1.07857082312962262449e+01) (2, -1.27267356574809582526e+01) (3, 1.57154254597869886823e+01) (4, 1.04019352300221434859e+00) (5, -3.28521986493323510103e+01) (6, 1.14759641144475965646e+00) (7, 4.28926428608646759244e+00) (8, -1.31927741060680769891e+01) (9, -6.92977713929068617205e+00) (10, 1.47020680773591738699e+01) (11, 5.19395655614453666260e+00) (12, 3.94237270786060456373e+00) (13, -8.92578878833652744618e+00) (14, 1.94259277623878361396e+01) (15, 2.02128394277252851907e+01) (16, 5.18847003953089735973e+00) (17, 1.39952065023687541867e+01) (18, 4.80326719127303070067e-01) (0, 3.11865083569647572048e+00) (1, 8.01472330588263126572e+00) (2, 1.08937925854320294405e+01) (3, 9.49727393272947750802e+00) (4, 1.50235753120888038126e+00) (5, -2.67810436585684357169e+01) (6, -2.65276677991999250139e+01) (7, 1.07361604607726057736e+01) (8, 7.73525115305595445392e+00) (9, -3.31712798819198839695e+00) (10, -2.28678420009148304359e+01) (11, 9.31596142090868717389e+00) (12, -1.37940436993559760737e+01) (13, 9.20970806067546376994e+00) (14, -9.45107254332928192753e+00) (15, 1.68708267890743224271e+00) (16, -1.11999467414131448351e+00) (17, 2.14412341553515766179e+01) (18, 1.19623277206975342501e+00) (0, -3.49969056880021289757e+00) (1, 7.38957616349549795132e+00) (2, 3.02481735165377818575e+00) (3, -2.87680933590764809082e+01) (4, 1.29578233444656305551e+01) (5, -6.97359021867781869730e-01) (6, -9.43720984819406538691e+00) (7, 4.78927860582242370668e+00) (8, 7.05354107613386815956e+00) (9, 1.58917100268838917820e+00) (10, -4.61350731053252527403e+00) (11, 1.31171063272166126268e+01) (12, 1.26225581187000521766e+01) (13, -7.96730388988857463062e+00) (14, 5.02089899873977962841e+00) (15, -1.38425715027703670756e+01) (16, 1.88344168702185541520e+01) (17, 6.40637791680209645051e+00) (18, -1.19854052319321072173e-01) (0, 1.01548165627460615923e+01) (1, -3.08006224261296379652e+00) (2, -3.70734124208513282639e+00) (3, -7.03005979548967108173e+00) (4, 6.57454809931656036781e+00) (5, 8.21374170870622322127e+00) (6, -1.96101188950273765954e+01) (7, -1.31338654264397808324e-01) (8, 1.09496938476196392642e+00) (9, -3.05944630891843871723e+01) (10, -4.16637896615817571178e-01) (11, -1.98019868151454119243e+01) (12, 2.27276842373133582953e+01) (13, -6.47367897082637977491e+00) (14, 1.31145146219123116538e+01) (15, -9.33238324123789553255e+00) (16, 1.65523797621174750816e+01) (17, 2.56177608231178552955e+01) (18, 6.67700068713064420756e-01) (0, -8.47879990655595250360e+00) (1, -4.99479909001709643235e+00) (2, 5.60104033637109832711e+00) (3, 2.28636786035253933846e+01) (4, -8.49994835870193732319e+00) (5, -9.67359856725184030779e+00) (6, -1.19343168194206725730e+01) (7, -8.13520549148261551409e+00) (8, 6.82422961885137713267e+00) (9, 2.37511979100067698312e+01) (10, 2.16051584526053481738e+01) (11, 2.00660871490827403818e+01) (12, -2.32153675970636541592e+01) (13, 9.13762154444928853536e+00) (14, 1.85953382052274163172e+00) (15, -5.36136866725177441140e+00) (16, -6.09076215516202257305e+00) (17, 2.00145108480163802511e+00) (18, -4.10794715975204283165e-01) (0, -2.19463811979161995680e+01) (1, 2.99164502210590965703e+00) (2, -8.47014218391764472926e+00) (3, -1.00311818293170986749e+01) (4, 1.94260404222675013841e+01) (5, 9.83749742835495588622e+00) (6, -6.27339361464518852074e+00) (7, -4.07910080560621413071e+00) (8, 3.41174861538538181094e+01) (9, -2.13458337764106431678e+01) (10, -1.11507929064021880095e+01) (11, 1.14973288317965121053e+01) (12, 3.29308475833519906928e+01) (13, 8.84423498258526841198e-01) (14, -9.91040553247046140939e+00) (15, -1.99701193291723688716e+00) (16, -4.00572604841293795630e+01) (17, 2.64749862845042915893e+00) (18, 4.01454638441471611809e-01) (0, 8.31241735040745588492e+00) (1, -1.76823618849126518171e+00) (2, 7.03300766709140656729e+00) (3, 3.60941941590287385111e+01) (4, -1.51352349605599485471e+01) (5, 6.73037956690321159670e+00) (6, -1.65044096984310328935e+01) (7, -4.72409668504334590011e+00) (8, 6.16489516761308364856e-01) (9, 9.61794680379777489065e+00) (10, 1.16365929091174891141e+01) (11, 1.03993298659545949647e+01) (12, 5.12049450961777097291e+00) (13, 1.64367735023926577753e+01) (14, -1.28305327434803242426e+01) (15, 2.23505037446567698112e+01) (16, -9.89052143025319274727e+00) (17, 1.82527407452325398651e+01) (18, 7.11726739284923359818e-01) (0, 4.01636613272553677501e-01) (1, 2.68619632836133170883e+01) (2, 2.02288789210300521404e+01) (3, -1.48169122154125911806e+01) (4, 9.88877803049535764046e+00) (5, -1.51344131430602910626e+01) (6, 2.32773922401935529081e+01) (7, -7.40387583901969481559e+00) (8, -2.89174772398919088801e+00) (9, -1.74370233146088402520e+01) (10, -4.88064344684142454867e+01) (11, 3.09647243492727284320e+01) (12, 7.69233663824139402010e+00) (13, 1.70061456918798759030e-01) (14, -1.76100426676011494465e+01) (15, 4.06795063132653567095e+00) (16, 1.44480006729765353413e+00) (17, 5.36426647763952413328e+00) (18, 1.12676157167713897334e-01) (0, -3.94449467619626226167e+00) (1, 1.86643437673418155498e+01) (2, 1.28849812740379636722e+01) (3, 1.81175076207496621450e+00) (4, -1.85972190330994968654e+00) (5, -6.72387994340256067716e+00) (6, 1.38189884584037638859e+01) (7, -8.79450972637211592087e+00) (8, -1.05882960082917794153e+01) (9, -4.51065889333756153690e+00) (10, -1.24621351021543258497e+01) (11, 1.64605499018481182816e+01) (12, -1.12370824987689665875e+01) (13, 1.74597122121989087873e+01) (14, 7.41949306548774067949e+00) (15, 2.65952252222463658704e-01) (16, 1.24823389959173542962e+01) (17, -1.26820689740637480014e+01) (18, 5.81007538384523347652e-01) (0, 4.90215404227540929583e+00) (1, 1.30423954260258739835e-01) (2, 5.76964791657159548066e+00) (3, -2.33036096305980677812e+00) (4, 1.72415911175936731325e+00) (5, 4.32441487981467798107e+00) (6, -2.83514939815250919253e+01) (7, 1.06450243099300401184e+00) (8, -1.19980342080425650408e+00) (9, -1.06138670895855309340e+01) (10, 8.84532240257076907142e+00) (11, 1.03416850945161726827e+01) (12, 9.19971015475531750383e+00) (13, 3.30895279708137657337e+00) (14, 2.53508229029093108409e+01) (15, -4.87652516768749144660e+00) (16, 7.39472352131336396752e+00) (17, 2.27140586502164865124e+01) (18, 4.13348580621624772657e-01) (0, -1.06156163845369384546e+01) (1, -4.67447190250899424768e+00) (2, -5.72391182887602045781e-01) (3, -3.99141583801037613810e+00) (4, -9.38347583603938950603e+00) (5, 1.09832968202652470069e+01) (6, 3.12700216495173393128e+01) (7, -1.02177118162164362047e+01) (8, -2.65472605543191413346e+01) (9, -8.72710961774722626672e+00) (10, 1.81082899076113328363e+01) (11, 5.61963989201195435186e+00) (12, 1.83719206144267594993e+01) (13, 9.92297864228008741350e+00) (14, 1.06088436073381782165e+01) (15, -1.32611099780656993552e+00) (16, -3.54668924934613416511e+00) (17, 6.58070867901581646464e+00) (18, -3.04702422824128793533e-01) (0, -1.32155612801849873250e+01) (1, -3.01600161600117688820e+00) (2, -5.52644704742830672473e+00) (3, -4.97018330103674021991e-01) (4, 1.14507563203232525240e+01) (5, -2.03642279139986861480e+01) (6, -9.71247829252580174852e+00) (7, 6.77115010454645105398e+00) (8, -3.72644903221675818372e+01) (9, 1.34930869604696845876e+00) (10, 6.14762054908933097686e-01) (11, -1.47704500175585978772e-01) (12, 4.10686364600806896874e+01) (13, 2.21943555433277994737e+00) (14, 3.76140426678503132507e+01) (15, -1.07325625803143385184e+01) (16, 2.24400802012867508495e+01) (17, -5.65161364548869782354e-01) (18, -3.12558371340983631725e-01) (0, 6.91166312983350827892e+00) (1, -3.08727831738515634541e+00) (2, -1.69712123145109217148e+01) (3, -8.10121000271939273318e+00) (4, 5.07052942875766454733e+00) (5, -1.00228268767396020422e+01) (6, -2.42640025505944443296e+01) (7, 8.45606342711710290416e+00) (8, -6.94470355971792674410e+00) (9, -4.90976505365717397211e+00) (10, -2.95264988634043357152e+00) (11, -4.03826499238237630607e+01) (12, 3.87461328394959414467e+00) (13, -1.70112691036754881679e+01) (14, 2.24733853983501390417e+01) (15, 7.94865539918562635791e+00) (16, 1.49754689891135606139e+00) (17, 1.02959374320039254158e+00) (18, 2.43403884259921365896e+00) (0, 1.21718438504563364333e+00) (1, -1.19303052624779599711e+01) (2, -1.47277359173291189087e+00) (3, -9.90581224447647556985e+00) (4, -1.46295100303888467863e+01) (5, -2.67292037089268941230e+00) (6, 8.66684487058978270113e+00) (7, 1.68377659285118888022e+01) (8, -1.90079173343851373090e+01) (9, 5.51261137849447280246e+00) (10, 8.93647566472317578246e+00) (11, 2.04632577625463207838e+00) (12, 9.83811731906504505218e+00) (13, 9.02500755090762218913e+00) (14, 1.43165972708881064079e+01) (15, 2.04646101323196454302e+01) (16, -1.49209343408205139525e+01) (17, -6.02939422245218814567e+00) (18, 6.27678303209939114637e-01) (0, 1.52779577944540534418e+01) (1, 1.41537995854601152956e+01) (2, -1.83988713613312881989e+01) (3, 3.30161136256794165433e+01) (4, -1.55196288836875009309e+01) (5, -4.98235404706992301982e+00) (6, -8.04751200467428340346e+00) (7, 4.37712616104524787630e+00) (8, -1.30798847790468428798e+01) (9, -5.35070175346220455737e+00) (10, 6.22693256003185346970e+00) (11, -3.28177171959874103280e+00) (12, -4.79017119780604794244e+00) (13, 3.73522538469049392162e+00) (14, 5.41704310669288613411e+00) (15, -4.68541054801192036194e+00) (16, 1.26712335999501046757e+01) (17, -9.08922816086409035563e+00) (18, -1.08593815384569664095e-01) (0, -2.11516932216252477872e+01) (1, -5.50845440486670412383e+00) (2, 3.29959942549391804789e+00) (3, -3.48433338767748850273e+01) (4, 1.21839526688708481572e+01) (5, 1.11293064108991064387e+01) (6, 3.03032814753291734888e+00) (7, 1.50935033978983508263e+01) (8, 5.64368788943671439995e+00) (9, 1.11671251839573901776e+01) (10, 5.78200641407648685544e+00) (11, 1.89367079051128044398e+01) (12, 7.44538743503892774811e+00) (13, 2.06478841146057625622e+01) (14, 2.68256799238433032428e+01) (15, 3.57083956958407533477e+00) (16, 9.56123216786394891642e+00) (17, -1.03454726941081531777e+01) (18, 9.64138591894561636231e-01) (0, 4.58252286378700190994e+01) (1, 3.05028660583479265256e+01) (2, 9.75123638313290364010e+00) (3, -3.70493046695981664840e+00) (4, -4.51059288277804970591e+00) (5, 4.31567980265096462489e+00) (6, -1.20683793578165001747e+01) (7, -2.27777808140741289122e+00) (8, -1.26322587991675305830e+01) (9, 2.81186366207509541582e+00) (10, -3.73324845062085142189e+00) (11, -4.72393668547109868427e+00) (12, -1.83373330648993224656e+01) (13, 2.30246511985379171961e+01) (14, 9.29444208487074519098e+00) (15, -2.83176498131595053565e+01) (16, 1.25951964632346395945e+01) (17, -1.23521717171678382385e+01) (18, 2.07574383957207397877e-01) (0, -1.95030281585643407993e+01) (1, -3.73530739542224523575e+01) (2, -3.69351645448519860793e+01) (3, -1.31456881907653819752e+01) (4, 1.56697339770695780459e+01) (5, 1.19982940931958292907e+01) (6, -1.62650196506331177204e+01) (7, 1.65895867391385181122e+01) (8, 2.58656786176362141205e+00) (9, -2.89794353784539850949e+01) (10, 2.37464066517785088450e+00) (11, 2.99855918090511330831e+01) (12, 3.28621577548319478979e+01) (13, -2.08633980262908913517e+01) (14, 1.95929135946506747246e+01) (15, 5.42438714978547942280e+00) (16, -2.37602993597617917487e+00) (17, 7.21524393966452137761e+00) (18, 1.42809204014175961106e-01) (0, 5.75330142714153325301e+00) (1, -4.27339152749716877366e+00) (2, -2.58076337542932172653e+01) (3, 1.35638429529011865782e+01) (4, -1.24181557715867132430e+01) (5, -3.00662330854219916887e+00) (6, -1.10498379193784170837e+01) (7, -2.11555906701946394577e+00) (8, -5.49271889445565708598e+00) (9, 4.68597579601589675491e+00) (10, 2.25720225621001411298e+01) (11, -1.35954640186002428948e+01) (12, 2.14951654309661464026e+01) (13, 1.06091163542484334670e+01) (14, 6.64136199951975214617e+00) (15, 1.78844371380788302872e+01) (16, -2.82024478445519743985e+00) (17, -1.28974897150248715150e+01) (18, 1.31290638969452894136e-01) (0, -2.53167076269429500712e+01) (1, -8.59901689488698295349e+00) (2, -1.35680928992276026435e+01) (3, -3.05536936725257390890e+01) (4, -1.85799159182645929889e+01) (5, 7.19914017825535790251e+00) (6, -9.91373910305752659156e+00) (7, 3.97330061923687649639e+00) (8, -1.09350951650561327710e+01) (9, -5.81923572961778434731e-01) (10, -2.96414186384682665221e+01) (11, -2.67943283004168115724e+01) (12, 5.50302538025367660168e+00) (13, 3.20024023167278457436e+01) (14, -1.98285941683010200620e+01) (15, -5.60921627273050216189e+00) (16, -4.82871293228859777003e+00) (17, 6.22690529454182239988e+00) (18, 4.04478416338751922687e-01) (0, -1.83629215535669949588e+01) (1, -1.22347621073459649210e+01) (2, -1.23719170832412679317e+01) (3, 3.55997144327455075086e+01) (4, -1.08728307171382159169e+01) (5, -1.57548259087935793588e+00) (6, -7.00615163365138648999e+00) (7, -8.64334164701615281778e-01) (8, -1.97139674057318927680e+01) (9, 6.69954446447351426031e+00) (10, 1.02298019137006530599e+01) (11, 3.83480642344252142806e+00) (12, 8.96264296767679091715e+00) (13, 2.08368710953296076838e+00) (14, 1.38409525958521477662e+01) (15, -1.90094406902090518052e+00) (16, -2.09075136310847931043e+00) (17, -2.04498184596472292185e+01) (18, -4.30799795834692134111e-01) (0, 1.20826187153964781373e+01) (1, -1.91574791950537970386e+00) (2, -1.33854898484710709283e+01) (3, -1.26731430839645309305e+00) (4, -9.85614900668059945588e+00) (5, 1.04286286432574524241e+01) (6, -1.33072593708545774405e+01) (7, 2.96935663233233659852e+00) (8, 6.93932763501734761746e+00) (9, -1.26923408234760657365e+01) (10, -1.66586976947905829327e+00) (11, -4.03659138417065310733e+00) (12, 2.10171718958034574598e+01) (13, -4.41557473975349967787e+00) (14, -2.25259212082405184674e+01) (15, 5.02420032971800178956e+00) (16, -1.20886034674612439233e+01) (17, 2.64318208781946459851e+01) (18, -2.93874622616064652691e-02) (0, 1.41925864862339086159e+01) (1, -2.75732694493996133289e+00) (2, 1.12485688647418804464e+01) (3, 7.91441482241377602946e+00) (4, 1.15585876190554848186e+00) (5, 