FANN_FLO_2.1
num_layers=4
learning_rate=0.700000
connection_rate=1.000000
network_type=0
learning_momentum=0.000000
training_algorithm=2
train_error_function=1
train_stop_function=0
cascade_output_change_fraction=0.010000
quickprop_decay=-0.000100
quickprop_mu=1.750000
rprop_increase_factor=1.200000
rprop_decrease_factor=0.500000
rprop_delta_min=0.000000
rprop_delta_max=50.000000
rprop_delta_zero=0.100000
cascade_output_stagnation_epochs=12
cascade_candidate_change_fraction=0.010000
cascade_candidate_stagnation_epochs=12
cascade_max_out_epochs=150
cascade_max_cand_epochs=150
cascade_num_candidate_groups=2
bit_fail_limit=3.49999999999999977796e-01
cascade_candidate_limit=1.00000000000000000000e+03
cascade_weight_multiplier=4.00000000000000022204e-01
cascade_activation_functions_count=10
cascade_activation_functions=3 5 7 8 10 11 14 15 16 17 
cascade_activation_steepnesses_count=4
cascade_activation_steepnesses=2.50000000000000000000e-01 5.00000000000000000000e-01 7.50000000000000000000e-01 1.00000000000000000000e+00 
layer_sizes=19 65 65 7 
scale_included=0
neurons (num_inputs, activation_function, activation_steepness)=(0, 0, 0.00000000000000000000e+00) (0, 0, 0.00000000000000000000e+00) (0, 0, 0.00000000000000000000e+00) (0, 0, 0.00000000000000000000e+00) (0, 0, 0.00000000000000000000e+00) (0, 0, 0.00000000000000000000e+00) (0, 0, 0.00000000000000000000e+00) (0, 0, 0.00000000000000000000e+00) (0, 0, 0.00000000000000000000e+00) (0, 0, 0.00000000000000000000e+00) (0, 0, 0.00000000000000000000e+00) (0, 0, 0.00000000000000000000e+00) (0, 0, 0.00000000000000000000e+00) (0, 0, 0.00000000000000000000e+00) (0, 0, 0.00000000000000000000e+00) (0, 0, 0.00000000000000000000e+00) (0, 0, 0.00000000000000000000e+00) (0, 0, 0.00000000000000000000e+00) (0, 0, 0.00000000000000000000e+00) (19, 5, 5.00000000000000000000e-01) (19, 5, 5.00000000000000000000e-01) (19, 5, 5.00000000000000000000e-01) (19, 5, 5.00000000000000000000e-01) (19, 5, 5.00000000000000000000e-01) (19, 5, 5.00000000000000000000e-01) (19, 5, 5.00000000000000000000e-01) (19, 5, 5.00000000000000000000e-01) (19, 5, 5.00000000000000000000e-01) (19, 5, 5.00000000000000000000e-01) (19, 5, 5.00000000000000000000e-01) (19, 5, 5.00000000000000000000e-01) (19, 5, 5.00000000000000000000e-01) (19, 5, 5.00000000000000000000e-01) (19, 5, 5.00000000000000000000e-01) (19, 5, 5.00000000000000000000e-01) (19, 5, 5.00000000000000000000e-01) (19, 5, 5.00000000000000000000e-01) (19, 5, 5.00000000000000000000e-01) (19, 5, 5.00000000000000000000e-01) (19, 5, 5.00000000000000000000e-01) (19, 5, 5.00000000000000000000e-01) (19, 5, 5.00000000000000000000e-01) (19, 5, 5.00000000000000000000e-01) (19, 5, 5.00000000000000000000e-01) (19, 5, 5.00000000000000000000e-01) (19, 5, 5.00000000000000000000e-01) (19, 5, 5.00000000000000000000e-01) (19, 5, 5.00000000000000000000e-01) (19, 5, 5.00000000000000000000e-01) (19, 5, 5.00000000000000000000e-01) (19, 5, 5.00000000000000000000e-01) (19, 5, 5.00000000000000000000e-01) (19, 5, 5.00000000000000000000e-01) (19, 5, 5.00000000000000000000e-01) (19, 5, 5.00000000000000000000e-01) (19, 5, 5.00000000000000000000e-01) (19, 5, 5.00000000000000000000e-01) (19, 5, 5.00000000000000000000e-01) (19, 5, 5.00000000000000000000e-01) (19, 5, 5.00000000000000000000e-01) (19, 5, 5.00000000000000000000e-01) (19, 5, 5.00000000000000000000e-01) (19, 5, 5.00000000000000000000e-01) (19, 5, 5.00000000000000000000e-01) (19, 5, 5.00000000000000000000e-01) (19, 5, 5.00000000000000000000e-01) (19, 5, 5.00000000000000000000e-01) (19, 5, 5.00000000000000000000e-01) (19, 5, 5.00000000000000000000e-01) (19, 5, 5.00000000000000000000e-01) (19, 5, 5.00000000000000000000e-01) (19, 5, 5.00000000000000000000e-01) (19, 5, 5.00000000000000000000e-01) (19, 5, 5.00000000000000000000e-01) (19, 5, 5.00000000000000000000e-01) (19, 5, 5.00000000000000000000e-01) (19, 5, 5.00000000000000000000e-01) (19, 5, 5.00000000000000000000e-01) (19, 5, 5.00000000000000000000e-01) (19, 5, 5.00000000000000000000e-01) (19, 5, 5.00000000000000000000e-01) (19, 5, 5.00000000000000000000e-01) (19, 5, 5.00000000000000000000e-01) (0, 5, 0.00000000000000000000e+00) (65, 5, 5.00000000000000000000e-01) (65, 5, 5.00000000000000000000e-01) (65, 5, 5.00000000000000000000e-01) (65, 5, 5.00000000000000000000e-01) (65, 5, 5.00000000000000000000e-01) (65, 5, 5.00000000000000000000e-01) (65, 5, 5.00000000000000000000e-01) (65, 5, 5.00000000000000000000e-01) (65, 5, 5.00000000000000000000e-01) (65, 5, 5.00000000000000000000e-01) (65, 5, 5.00000000000000000000e-01) (65, 5, 5.00000000000000000000e-01) (65, 5, 5.00000000000000000000e-01) (65, 5, 5.00000000000000000000e-01) (65, 5, 5.00000000000000000000e-01) (65, 5, 5.00000000000000000000e-01) (65, 5, 5.00000000000000000000e-01) (65, 5, 5.00000000000000000000e-01) (65, 5, 5.00000000000000000000e-01) (65, 5, 5.00000000000000000000e-01) (65, 5, 5.00000000000000000000e-01) (65, 5, 5.00000000000000000000e-01) (65, 5, 5.00000000000000000000e-01) (65, 5, 5.00000000000000000000e-01) (65, 5, 5.00000000000000000000e-01) (65, 5, 5.00000000000000000000e-01) (65, 5, 5.00000000000000000000e-01) (65, 5, 5.00000000000000000000e-01) (65, 5, 5.00000000000000000000e-01) (65, 5, 5.00000000000000000000e-01) (65, 5, 5.00000000000000000000e-01) (65, 5, 5.00000000000000000000e-01) (65, 5, 5.00000000000000000000e-01) (65, 5, 5.00000000000000000000e-01) (65, 5, 5.00000000000000000000e-01) (65, 5, 5.00000000000000000000e-01) (65, 5, 5.00000000000000000000e-01) (65, 5, 5.00000000000000000000e-01) (65, 5, 5.00000000000000000000e-01) (65, 5, 5.00000000000000000000e-01) (65, 5, 5.00000000000000000000e-01) (65, 5, 5.00000000000000000000e-01) (65, 5, 5.00000000000000000000e-01) (65, 5, 5.00000000000000000000e-01) (65, 5, 5.00000000000000000000e-01) (65, 5, 5.00000000000000000000e-01) (65, 5, 5.00000000000000000000e-01) (65, 5, 5.00000000000000000000e-01) (65, 5, 5.00000000000000000000e-01) (65, 5, 5.00000000000000000000e-01) (65, 5, 5.00000000000000000000e-01) (65, 5, 5.00000000000000000000e-01) (65, 5, 5.00000000000000000000e-01) (65, 5, 5.00000000000000000000e-01) (65, 5, 5.00000000000000000000e-01) (65, 5, 5.00000000000000000000e-01) (65, 5, 5.00000000000000000000e-01) (65, 5, 5.00000000000000000000e-01) (65, 5, 5.00000000000000000000e-01) (65, 5, 5.00000000000000000000e-01) (65, 5, 5.00000000000000000000e-01) (65, 5, 5.00000000000000000000e-01) (65, 5, 5.00000000000000000000e-01) (65, 5, 5.00000000000000000000e-01) (0, 5, 0.00000000000000000000e+00) (65, 5, 5.00000000000000000000e-01) (65, 5, 5.00000000000000000000e-01) (65, 5, 5.00000000000000000000e-01) (65, 5, 5.00000000000000000000e-01) (65, 5, 5.00000000000000000000e-01) (65, 5, 5.00000000000000000000e-01) (0, 5, 0.00000000000000000000e+00) 
connections (connected_to_neuron, weight)=(0, 5.89660362866396448034e-01) (1, -1.27266214616545275673e-01) (2, -1.21280011244371918600e-01) (3, -2.11134778954435747833e-01) (4, -1.19286499175839111331e-01) (5, 8.44965222530259407741e-01) (6, -1.69059056016924003085e-01) (7, -1.01065944014111397387e-01) (8, -2.58974834755563099176e-01) (9, -1.64382709102436561088e-02) (10, -4.31290920898889443280e-02) (11, -1.06031874153956873208e+00) (12, -1.52805342825900331016e-01) (13, -1.82256472390619289614e-01) (14, -3.37184984824785982660e-01) (15, -1.83451466652148897918e-01) (16, -5.30177819607417610825e+00) (17, 4.62075710577973530757e-01) (18, -2.05246800303558185607e-01) (0, 3.07578076730686766904e-01) (1, -6.49700706592169358045e-02) (2, -2.10941817369619588618e-01) (3, -8.65510474926739908907e-02) (4, -1.88985381581896122460e-01) (5, 7.00101882415161691497e-01) (6, -1.81554306563488671022e-01) (7, -1.25637325800819127375e-01) (8, 1.86198205691900826875e-02) (9, -1.40425970875806799265e-01) (10, -1.01352897527120525134e-01) (11, -8.61670358370581063179e-02) (12, -1.94684996655198311322e-01) (13, -2.09460963028073710035e-01) (14, -2.92361227949883839550e-01) (15, -1.07224074841463207219e-01) (16, -1.39710833201827974021e-02) (17, 4.12701800463466994540e-01) (18, -7.51951144431620283060e-02) (0, 5.66796220696967889552e-01) (1, -3.61348400292977739445e-02) (2, -1.11214535122178270754e-01) (3, -1.07467592284918270207e-01) (4, -6.41474904199910989089e-02) (5, 9.58576096576333025467e-01) (6, -1.45371679328610808879e-01) (7, 2.76560432801806033165e-01) (8, -6.79851635340358445569e-02) (9, -1.69492710865188772607e-01) (10, 8.80469893981515316916e-02) (11, -9.91467655474690068296e-01) (12, -2.06853242313501439753e-01) (13, -2.51604124150703156726e-01) (14, -4.04668515972621545274e-01) (15, -3.19179362409078182239e-01) (16, -2.77922204541624440211e+00) (17, 4.74118850008910686089e-01) (18, -1.97247553033831041214e-01) (0, 5.22442949776364296000e-01) (1, -3.99947399043334775315e-02) (2, -6.21429907386166421879e-02) (3, -1.71294680012457928298e-01) (4, -2.29342128421073765399e-01) (5, 7.87727730654403046628e-01) (6, -2.45801635901965985498e-02) (7, -3.26440782272614526960e-02) (8, -6.27629234262979118775e-02) (9, -1.07156141010367661481e-01) (10, 1.71482845399493183391e-01) (11, -4.06238824739780957085e-01) (12, -1.25364351638612758766e-01) (13, -4.52570328343314606800e-02) (14, -8.75268550746449935929e-01) (15, -1.23487642857972290678e+00) (16, 4.07675554473544733691e-03) (17, 2.33262312797002407949e-01) (18, -1.02821229794715710004e-01) (0, -7.82318855223661957510e-01) (1, -7.64039489169295205073e-01) (2, -8.12771210346223904608e-01) (3, -1.03754222631508505326e-02) (4, -1.58810855464172673290e-01) (5, -7.29838413295399047326e-03) (6, -6.69197159677420438939e-01) (7, -7.95989030896656180047e-01) (8, 9.14459833324228303642e-03) (9, -1.42489680939371646673e+03) (10, -9.43639280672068707645e+01) (11, -5.77218286471604429266e+01) (12, -4.68731920444889760269e-01) (13, -2.75154366288627882930e-01) (14, -1.16812092459730787475e-01) (15, -6.11369493541644715151e-01) (16, -7.85648312637711954132e-01) (17, -6.01693046036688272693e-01) (18, -2.98873821658004190649e-02) (0, 4.06133140901706879422e-02) (1, 2.47797546853987214754e-02) (2, 1.07754396646159281148e-01) (3, -8.87697513749024919028e-02) (4, 1.56295281726823685753e-02) (5, 6.90510324459424063015e-02) (6, -1.26799106176518322497e-01) (7, -8.81530848134803590721e-02) (8, -8.52045538959955717218e-02) (9, 5.18025941124701128082e-01) (10, 2.83457169912428100234e-02) (11, 4.19568580011200273350e-02) (12, 6.63936189605294629912e-02) (13, -1.03913423986032427138e-01) (14, -2.77582443456536147319e-02) (15, 1.00970066214417342199e-01) (16, 9.20125869665657236673e-02) (17, 5.97361096382135331462e-02) (18, 1.15585398155883881111e-02) (0, 2.17299937705889456563e-01) (1, 6.88117955781525902914e-01) (2, 6.25224648650459652321e-02) (3, 9.33198220648022991330e-02) (4, 3.48385934364612015468e-02) (5, 4.86284021617945927396e-01) (6, 1.51544329273668038072e-01) (7, -3.30263824987521714682e-01) (8, -8.69315857356124654931e-02) (9, -7.17143831298125838947e-02) (10, -1.55045065055064462678e-01) (11, 8.89604317535447504384e-03) (12, -1.00080403107952506381e-01) (13, -3.99914054524862394580e-01) (14, -5.40108412588844247204e-02) (15, 5.94336026610389894786e-02) (16, 1.65267599594302760924e-01) (17, -3.88770230659349458335e-01) (18, 5.48011949438230727694e-02) (0, 3.00262659257280439817e+00) (1, 5.62666673258543026392e-01) (2, 4.18604543957061536741e-01) (3, 1.12579766643524536995e+00) (4, 1.16862425917425793997e+00) (5, -6.60236205911861929962e+02) (6, 6.38398008830554863913e-01) (7, -1.37740308231442725173e+01) (8, 4.11215606184010040725e-01) (9, 1.18272367474900488560e+03) (10, 1.49975708251762421241e+03) (11, 1.15351026071312290355e+00) (12, 1.69555466207968796866e+00) (13, 4.91338484275998965689e-01) (14, 5.65667967152829853639e-01) (15, -2.33962819427637469971e+02) (16, 1.27472701711889158105e+00) (17, 2.46010370781582166089e+00) (18, 1.05510977688382623363e+00) (0, 1.32252130031362457885e+03) (1, 6.73966296816459253805e-01) (2, 5.61110365628414542449e-01) (3, 5.33745935830369000463e-01) (4, 5.91885768967114089811e-01) (5, -2.32359525370707373781e+01) (6, 7.88647053089603367049e-01) (7, -2.57504497316018143849e+00) (8, 1.98327205637333053856e-01) (9, 5.92546895778240600983e-01) (10, 1.94293487064129237751e+01) (11, 5.53849349538313218133e-01) (12, 5.68685349821359209521e-01) (13, -1.01927277074282729430e+00) (14, 5.93268327671462758488e-01) (15, -8.77805773492561502991e-01) (16, -4.37544623260812500121e+02) (17, 6.15401741252395950710e+00) (18, 5.60956755961218189732e-01) (0, 1.49999873237386805158e+03) (1, 4.42106693896324898230e-01) (2, 3.60688100950927348354e-01) (3, 5.16780056676564680807e-01) (4, 5.24620757665295658900e-02) (5, 3.94068921700890362203e-01) (6, 4.58392548572410252206e+00) (7, -9.18126927980549401020e-01) (8, -1.50375320112237915282e+02) (9, 1.17112258283843029272e-01) (10, 5.47794938275757092860e-01) (11, -9.17562060886356056777e-02) (12, 5.92994480853769379003e-01) (13, 4.38585256965261571782e-01) (14, 6.63046010108256811399e-01) (15, 4.63628382897701418752e-01) (16, 3.54391506574409320685e-01) (17, 1.30795609918677024908e+00) (18, 4.59518311903189091705e-01) (0, 3.08009619272236190302e-01) (1, -1.10144482954857958479e-01) (2, -7.45242484393507098606e-02) (3, -6.27416148928254535644e-02) (4, 3.13787866619303079663e-02) (5, 3.52920645894164788925e-02) (6, -3.28557384330050231136e-02) (7, -9.15209733940491043658e-02) (8, -9.67140045524983171799e-02) (9, -6.59471198985206175092e-02) (10, -3.18238675319353070403e-03) (11, -2.03248187908268124202e-01) (12, -1.38219206729027127567e-01) (13, -1.13144609841903420744e+00) (14, -3.70735122563661589901e-01) (15, -1.27533782372372429814e-02) (16, 1.56965432114637537531e-01) (17, 2.81363727997558932259e-01) (18, 3.11162032010590325348e-02) (0, 8.83355389277403313386e-01) (1, -4.48681678772914552256e-02) (2, -1.40298742822288047272e-01) (3, -2.02359948904030112482e-01) (4, -1.04248845519942845428e-01) (5, 1.49089454166209639530e-01) (6, -5.59211729793574197078e-02) (7, -1.33005166741639813122e-01) (8, -1.35677657609793667071e-01) (9, -1.83912127049598750350e-01) (10, -1.02674004982485883586e-01) (11, -9.98746646985081087955e-01) (12, -2.88627135927741862442e-01) (13, -2.27884439731765003900e-01) (14, -4.09480683986527371765e-01) (15, -1.40596169343067428636e-01) (16, -1.26707623770566157884e-01) (17, 7.43705239936898743203e-01) (18, -6.06201394770707543969e-02) (0, 1.39088974075447380230e+00) (1, 2.68662843396607287083e-01) (2, 1.97908490504849904346e-01) (3, 3.23928764844891192709e-01) (4, 2.33521973412866040709e-01) (5, 8.87965471547872864377e-01) (6, 4.62407486360610242571e-01) (7, 2.00067717251551174806e-01) (8, 3.13262793851710019677e-01) (9, 1.95089208457132623487e-01) (10, 1.68102022115666382973e+00) (11, -3.94414864335663306605e+00) (12, 1.52635836935731572517e-01) (13, 2.12799416696204557464e-01) (14, 2.02562048977654833581e-02) (15, 2.37951094258683826244e-01) (16, 2.76193174998823010036e-01) (17, 1.39970199242799964168e+00) (18, 1.68533866455655934047e-01) (0, 1.35645831190764831753e+00) (1, 3.67889187738302370079e-01) (2, 2.24365520037019372523e-01) (3, 1.43371414088864279623e-01) (4, 2.25740742242716313504e-01) (5, 2.00062078419742217505e+00) (6, 1.42342620308207368218e+00) (7, 1.32692701203488333528e-01) (8, 2.57774650071930788719e-01) (9, 1.81525672918364877617e+00) (10, 1.16141551269570504701e+03) (11, -4.12395847228448708677e+00) (12, 1.78473530242812900015e-01) (13, 1.26660937750221996856e-01) (14, 1.99221212232064237568e-01) (15, -3.69833481610544634322e-01) (16, 2.81592092461639187384e-01) (17, 1.30514175866094062073e+00) (18, 2.37886829870435939638e-01) (0, 6.91934765085056135980e-01) (1, -1.73038706315619267295e-01) (2, -1.34815126278580305064e-01) (3, -2.50867232493691860729e-01) (4, -7.58374352080077029914e-02) (5, 1.00557856539649503880e+00) (6, -4.48129710281963411500e-02) (7, -2.38499634558444528754e-01) (8, -1.88612718118305933146e-01) (9, -1.98711374240258226154e-01) (10, -5.94550345766517301938e-02) (11, -7.16897828088665645119e-01) (12, -2.67992740239084481502e-01) (13, -2.10103146765260900830e-01) (14, -3.03914009772388415964e-01) (15, -2.18513927397108981276e-01) (16, -1.11845063289059876155e+00) (17, 4.95451541460535271888e-01) (18, -1.58135965555805002580e-01) (0, 7.68826158321941344198e-01) (1, -2.78225856023531920025e-02) (2, -2.53072768587003060770e-01) (3, -6.81633538898366170278e-02) (4, -1.91891447555984417939e-01) (5, 9.56257733492406947207e-01) (6, -1.69350445423990886296e-01) (7, -1.81476827361606224409e-01) (8, -7.13698414928862101547e-01) (9, -1.06770807085256047575e-01) (10, -9.75772406869066522006e-02) (11, -1.02306701817229628304e+00) (12, -1.84191807402658530579e-01) (13, -2.47868770637019952829e-01) (14, -3.37724114750882487002e-01) (15, -1.76012778472000724905e-01) (16, -3.05559196338333616261e-01) (17, 4.92969645215639185043e-01) (18, -2.19917936738979746814e-01) (0, -5.48736665888133190450e-02) (1, 5.54147177222535022856e-02) (2, -8.49467222187025305935e-03) (3, 6.05421950625808086288e-02) (4, 9.45760788010730074626e-02) (5, -1.01022912038918361022e-01) (6, 4.31285289954344147612e-02) (7, 1.42898551212918764608e-02) (8, -1.02706013318280095503e-01) (9, -1.57656387399373112967e-02) (10, -5.03234377870692140000e-02) (11, 7.53337732544678839730e-02) (12, -8.11588855224238021890e-03) (13, 1.11742693324397596166e-01) (14, 1.97060056057456849110e-02) (15, -6.66215741662897625863e-02) (16, -1.01531654084479033839e-01) (17, 9.93655993124649278281e-02) (18, -3.48022882752235321324e-02) (0, 5.70113635966570608815e-01) (1, 3.35953713536627618375e-01) (2, 4.85005597812863398222e-01) (3, 4.56506627024029942863e-01) (4, 2.52754545850865208756e-01) (5, -7.07622992767948488790e-01) (6, 5.15964966587678319776e-01) (7, -1.77670387281371344734e+00) (8, 4.13830427880483464609e-01) (9, -1.88227189063820479764e-02) (10, 1.73020894067610453426e-01) (11, -1.74199196258937916149e+00) (12, 3.04115582438320819492e-01) (13, 2.18687284120263836229e-01) (14, 2.33168440007851973661e+00) (15, 4.89983256926017740618e-01) (16, 2.02970044117145101414e-02) (17, 4.46352952830211202606e-01) (18, 4.60165626735710986406e-01) (0, 4.40443082349750270055e-01) (1, -9.50685927764444993482e-02) (2, -1.78056383930339789945e-01) (3, -2.41306450437455216607e-01) (4, -7.75667959332580897458e-02) (5, 1.33747466131365588815e+00) (6, -2.03217806812105328262e-01) (7, -1.66523930596866959197e-01) (8, -4.75679451135868069933e-02) (9, -1.58694058650496405694e-01) (10, -5.13111525490347331058e-02) (11, -1.05642788566881296042e+00) (12, -1.60244532405626444183e-01) (13, -1.31588019030925068575e-01) (14, -4.23420377133932046565e-01) (15, -2.02284644379740558007e-01) (16, -2.96584985765470099395e-02) (17, 4.60542336104739491454e-01) (18, -2.30975172172428161455e-01) (0, 1.49999769640594945486e+03) (1, 6.37304396872847234157e-01) (2, 3.87659112077642309391e-01) (3, 5.05454986872227896022e-01) (4, 4.27149671447787315781e-01) (5, 4.72810006643880065269e-02) (6, 4.26358833066419151692e+01) (7, -4.84602033333162651729e+00) (8, -1.22038807731059217865e+00) (9, 5.88772801098632836414e-01) (10, 8.69090121428633437972e+02) (11, 3.35370358608162555392e-01) (12, 5.18456316997904509414e-01) (13, 3.00006488319979169876e-01) (14, 1.80173096870025872818e+00) (15, 4.83513682207193318252e-01) (16, 4.84932853342826764020e-01) (17, 1.11493499543251672890e+00) (18, 5.51395155769880740415e-01) (0, 8.07263077221429203867e-01) (1, 2.89773143755905460139e-01) (2, 2.54929450224269105174e-01) (3, 2.27675328858628317485e-01) (4, 1.12217527539080111354e-01) (5, 1.49547135727297700214e+03) (6, 2.30376788097253093479e-01) (7, 1.63568979690255772441e-01) (8, 2.66485101287719905461e-01) (9, -8.32441239743233585280e-01) (10, 2.33156783409433077114e-01) (11, 1.56828616137498433325e-01) (12, 1.16967905655717949176e-01) (13, 1.77177578493066256726e-01) (14, 2.13401299129255761500e-01) (15, 2.99793810123345383367e-01) (16, 2.52508936622568236352e-01) (17, 4.47184088885378527856e-01) (18, 1.52767471719713915368e-01) (0, 6.57739501140695548287e+00) (1, 2.95985081712442532620e-01) (2, 1.29917860148372477092e-01) (3, -7.01980477906431699076e-01) (4, 3.39187557290220209616e-01) (5, 1.39154074415697186851e+03) (6, 2.93237724473526695235e-01) (7, 1.50000000000000000000e+03) (8, 6.50177357731333560587e-02) (9, 1.49423825497307780097e+03) (10, 1.50000000000000000000e+03) (11, 2.43728085311503556154e-01) (12, 4.58795522675843392424e-01) (13, 1.46999584787011056131e-01) (14, -1.45964573897967597738e+00) (15, -4.79845034495689048981e+01) (16, 5.28951799373503006585e-01) (17, 2.07890886090263542485e+01) (18, 2.66574933408232794818e-01) (0, 2.72896434975830999292e+01) (1, 2.06987437942147023406e+00) (2, -3.80702804798447758117e-01) (3, 6.29101824835352596565e-01) (4, 6.22377124934998415817e-01) (5, 1.49016936363310560409e+03) (6, 4.27655848784986913902e-01) (7, 6.52939636524472843959e-01) (8, 4.89293656805206145233e-01) (9, 1.49728404513419013711e+03) (10, 1.49984365792540620532e+03) (11, 4.57615447484033266434e-01) (12, 3.68246381986569346623e+01) (13, 2.81210540551070919957e-01) (14, 2.50116771098613466240e-01) (15, -1.31761003805827527913e+01) (16, 6.40310975674818094738e-01) (17, 7.35144723543185740766e+00) (18, 4.08001044905879906022e-01) (0, 3.15962001750922871768e-01) (1, -9.02981936072146523786e-02) (2, -7.32231482141816047982e-02) (3, -5.45839087952303750328e-02) (4, -4.56040271646981215659e-02) (5, 6.68749266633883454602e-01) (6, -9.96835438794016065467e-02) (7, -1.67518319869414317180e-01) (8, -1.44802577974521479165e-01) (9, 4.28899635222381309108e-02) (10, 1.01162512537478460617e-01) (11, -7.68849394249570106119e-01) (12, -2.31523194747273591831e-02) (13, -2.18260364932393841064e-01) (14, -3.41756679910509453268e-01) (15, -1.77611601853768341641e-01) (16, -1.12055472225180988155e-01) (17, 1.75505257318422425161e-01) (18, -7.10981395156180546319e-03) (0, 4.53078085341104568329e+01) (1, 1.20436237229818776662e+00) (2, 1.00754632164095947466e+00) (3, 1.19512774675428690152e+00) (4, -1.65873980311940649734e+00) (5, 5.46325552343480467243e+01) (6, 1.14365075820763495429e+00) (7, 1.04261945736932859496e+00) (8, -5.03690129704910560804e-01) (9, 1.49488577668571687163e+00) (10, 1.49583448732244983148e+03) (11, 1.15542770508572423260e+00) (12, 1.28182974685031347839e+00) (13, -3.40182909332491600907e+00) (14, 1.04945643740139216149e+00) (15, -3.42129767907268487193e+01) (16, 1.12137358693873645521e+00) (17, 1.18548414715471395198e+01) (18, 1.07755322838776801397e+00) (0, 3.97290305824508471755e-01) (1, 3.69343580916616898158e-01) (2, 2.43902005803315419241e-01) (3, 3.49555320774607936052e-01) (4, 2.72004859637250850923e-01) (5, 1.81547820042360613657e-01) (6, 2.65891933775441569043e-01) (7, 1.90424613520440655368e-01) (8, 2.91531904865284963169e-01) (9, 1.47678086950249726206e-01) (10, 1.85803806466444870749e-01) (11, -1.73851584411145165809e+00) (12, 1.48023239011960794365e-01) (13, 2.14619951186215018879e-01) (14, -3.17559099708476011426e-01) (15, 3.58155371853322246345e-01) (16, 2.28120236899238798545e-01) (17, 3.81606267054942105421e-01) (18, 3.60879433908130320408e-01) (0, 4.24408836420111401644e-01) (1, 6.25712929263168904370e-01) (2, 3.70765483504204629295e-01) (3, 4.94245978875439473388e-01) (4, 3.08495418864229098421e-01) (5, 5.36934062633975139889e-01) (6, 5.16555643632225613970e-01) (7, -5.70076726839480962816e-01) (8, 3.05985460995841951348e-01) (9, 2.57426185081900016360e-01) (10, -1.26604751047958541399e+00) (11, -4.37661215702286221507e-01) (12, 1.71702066725352681109e-01) (13, 1.97870795378358305117e-01) (14, 3.22462641723671061822e-01) (15, 2.02804595856403002685e+00) (16, 4.46723983173503924604e-01) (17, -1.86471673367898005402e+00) (18, 3.12169921533540617453e-01) (0, 5.13059309022117826515e-01) (1, -1.33797204744524854403e-02) (2, -1.58957465330733654918e-01) (3, -1.41687829443936763596e-01) (4, -2.27754197810443315131e-01) (5, 7.04178488065124730255e-01) (6, -8.11397901221382750192e-02) (7, -1.86498470303810726101e-01) (8, -2.15193533509728529562e-01) (9, -1.21520266123677764258e-01) (10, 2.90859270283227201725e-02) (11, -7.00782572487777200010e-01) (12, -1.70633179228744713551e-01) (13, -1.77382240391641993194e-01) (14, -3.68510212912730561463e-01) (15, -9.20749970340409978897e-02) (16, -1.01629107203979926477e-01) (17, 3.51642522452918326881e-01) (18, -1.00528440908223784533e-01) (0, -1.21591560369379604600e-02) (1, 1.11679261352759351400e-01) (2, -1.19928610966889018230e-01) (3, 1.47579925331962513724e-01) (4, -1.41696561737506332435e-01) (5, -2.32272765139119236055e-01) (6, -1.42494459194005607117e-01) (7, -4.43302862778669837240e+00) (8, -1.52514181640630464010e-01) (9, 2.60915236855098875424e-01) (10, 7.59876352040966384499e-03) (11, -2.11278493781326126566e+00) (12, -3.54888404373592328267e-02) (13, -1.06373890146358104913e-01) (14, 1.01107137129736648212e-02) (15, 5.60575750703929731600e-01) (16, 8.22330147568623576193e-02) (17, 1.13188273953352014356e-01) (18, -1.67936539336119516896e-01) (0, 9.36836012830534609064e-02) (1, 8.30699820565987345766e-01) (2, 2.05169866749601609301e-01) (3, 2.44331098205972452320e+00) (4, 1.54696656462114060654e-02) (5, 1.46627294930418955454e-01) (6, -1.17434263406150485309e-01) (7, 8.67823818352822656808e-02) (8, -8.08052707684118742826e-02) (9, -1.23604824636472571120e-01) (10, -1.14704396571629585466e+00) (11, -1.95671486796225851251e-03) (12, 1.19399734605142360255e-01) (13, 1.81174217126877368234e-01) (14, 2.76022156461741607902e-01) (15, 1.05512603498832113758e+00) (16, 1.34217182996733408462e-01) (17, -8.20230219080646638652e-01) (18, 1.78733013229168985481e-01) (0, 9.62097142359057078131e-01) (1, 5.80651025996046343813e-01) (2, -3.02606500174494363886e-01) (3, -1.13615612010580596669e-01) (4, 1.28834923201817802552e-01) (5, 1.50000000000000000000e+03) (6, 1.31443843703961810165e-01) (7, 1.50000000000000000000e+03) (8, 3.92837764882101481145e-01) (9, 7.12171892950689766622e+01) (10, 1.49908164739207654748e+03) (11, 2.22738026602581157265e-01) (12, 8.44873387725253027769e-02) (13, 3.50998138395993253269e-01) (14, -1.47822075619641624122e+00) (15, -7.81597700870125589034e-01) (16, 2.29904199111896273555e-01) (17, 1.29479639598616524943e+00) (18, 6.68598280548293039116e-02) (0, 2.27137029017621401294e+01) (1, 8.14357140424087466712e-01) (2, 5.03909563030834672936e-01) (3, 4.92233952390997153703e-01) (4, 4.79187414394013688757e-01) (5, 2.34381089277177823149e+00) (6, 4.86043953227204117429e-01) (7, 3.62759972155218879397e-01) (8, 5.12803467855533101627e-01) (9, 1.49901672024541448991e+03) (10, 1.49898274162502548279e+03) (11, 4.76045373069411470457e-01) (12, 1.47458793141299482343e+00) (13, -7.15238222052690053587e-01) (14, 5.97145541668571255833e-01) (15, -6.54627519670270032748e+01) (16, 5.53679205376422789442e-01) (17, 1.72942322711176998951e+01) (18, 5.52797277313160639878e-01) (0, 6.02805005716616326694e-01) (1, -6.89241279468538661085e-03) (2, -2.22366541068412831850e-01) (3, -1.67465673378054652476e-01) (4, -9.31917821140512830924e-02) (5, 5.35828016129238804410e-01) (6, -1.97204805341948674613e-02) (7, -1.18695872537194213603e-01) (8, -3.08911999599294051499e-01) (9, -1.21319346412483777820e-01) (10, -9.69677044061941773023e-02) (11, -4.64079640324596920387e-01) (12, -2.87704849445177102130e-01) (13, -1.76819526849295777238e-01) (14, -4.94711348760935920588e-01) (15, -1.41368454359283052257e-01) (16, -2.50875259019235130609e-01) (17, 3.97122690730928096237e-01) (18, -1.13763663815714538563e-01) (0, 1.45448997740536256629e+01) (1, 8.78193435756588480778e-02) (2, 1.63583460424991583571e-01) (3, -1.28164071876724627863e-01) (4, 1.35162683844417541579e-01) (5, 1.41833328208158150119e+03) (6, 4.16723726861490950668e-01) (7, 5.79548153115929594037e+01) (8, 1.90940318745783599308e-01) (9, 1.48588154425401489789e+03) (10, 1.49999542118347790165e+03) (11, -6.74046618544043713017e-02) (12, 3.22781879267445892534e-01) (13, -1.71271707544653428723e-01) (14, -1.32248538935826243090e+00) (15, -4.77456716306009596451e+01) (16, 7.38209719004264353082e-01) (17, 1.18078512596056111050e+01) (18, 5.77635332273386398194e-02) (0, 6.80938078308118921456e-01) (1, 2.12124352786624281730e-02) (2, 1.23426608518120858871e-01) (3, -2.24081524829503581087e-01) (4, 3.37406846727155096399e-01) (5, -1.92731682271395060591e-01) (6, -7.74368052123503361472e-03) (7, -2.52582604695696544272e-01) (8, -1.37415089968924181152e-01) (9, -9.14880144988389210070e-02) (10, -9.80418372269776933203e-02) (11, -1.21515011989154264604e+00) (12, -2.58087349950101463403e-01) (13, -2.65101119153084263669e-01) (14, -3.05152456250636250346e-01) (15, -1.77447848322168005852e-01) (16, -9.22079797749594809453e-02) (17, 6.61138669060344907891e-01) (18, -7.14179171785534055994e-02) (0, 6.01792561038138718033e-01) (1, 7.00631622692024086385e-02) (2, -1.45100626239008601015e-01) (3, 6.09522998402420648767e-03) (4, -1.07163076701379006428e-01) (5, 1.25350015488258659246e+00) (6, -1.66359962150799817193e-01) (7, -1.37723366022148158150e-02) (8, -5.24779249800457092689e-01) (9, -1.26116046957333083345e-01) (10, -6.12505683285223673229e-02) (11, -2.13390895652511281000e+00) (12, -2.11268946125212353504e-01) (13, -1.16805843574802642459e-01) (14, -5.05522018889577040568e-01) (15, -1.41122270727987886296e-01) (16, -1.23508359016787500062e-01) (17, 4.47159839793457636326e-01) (18, -1.64229323747677014023e-01) (0, 5.05962414418372863345e-01) (1, -3.45351273392999549849e-02) (2, -2.22758810267846329989e-01) (3, -1.93717946749327796230e-01) (4, -1.49816860471828655621e-01) (5, 5.33641603104740736008e-01) (6, -1.07157128168644824595e-01) (7, -6.90844135894400773745e-02) (8, -6.03054013127915511383e-01) (9, -6.27833489614224166120e-02) (10, -9.37799771291015077379e-02) (11, -3.90443014158299572802e-01) (12, -2.07554375532708001995e-01) (13, -1.60458590648718119054e-01) (14, -4.14443549718634673962e-01) (15, -5.22555113168398088774e-02) (16, -2.36281635423345293123e-01) (17, 5.58520945957053260855e-01) (18, -4.61918388247114578005e-02) (0, 1.95235492717059949674e-01) (1, -1.26795390960645182332e-01) (2, -1.16670788856082285889e-01) (3, -1.91200472175284130749e-01) (4, -9.05720112483743428067e-02) (5, 2.22368699916902667901e-01) (6, -1.28063602996095260433e-01) (7, -1.07276526359925711285e-01) (8, 1.83715273069378626225e-02) (9, -4.25955979567678166831e-02) (10, 3.06433607814216801835e-01) (11, 1.94123271470911823444e-01) (12, -4.37282324380353082383e-02) (13, -2.06285816440291452922e-01) (14, -4.21415670136329745254e-01) (15, 3.33802822860452194642e-02) (16, -1.49839304917614574153e-02) (17, 4.95463366429690008075e-02) (18, -1.14516223610562156709e-01) (0, 1.33569215555971654297e+00) (1, 3.97959930753652213475e-01) (2, 1.85895531917346368278e-01) (3, 2.50678816883891375511e-01) (4, 2.49941429793123726100e-01) (5, 1.12082538833500375830e+01) (6, 6.52726650687169396292e-01) (7, 1.48868689753664212860e-01) (8, 1.67052800888290220449e-01) (9, 5.79915175883550237934e-01) (10, 1.21264209559932879756e+02) (11, -3.60069709675035332097e+00) (12, 1.67432522041386561140e-01) (13, 5.73188199301239362238e-02) (14, 9.37704130174514538520e-02) (15, 1.72642607595359376393e-01) (16, 2.74647208883988414030e-01) (17, 1.52072747374403527409e+00) (18, 2.38529968894938770863e-01) (0, 4.26154348151985662430e-01) (1, 3.16543613957932179481e-01) (2, 1.90457322402926676475e-01) (3, -8.44929411104083510908e-02) (4, 1.63884616409014187421e-03) (5, 2.04053237578218862325e+01) (6, 8.92331184487381023906e-02) (7, -1.07571631599074249430e-01) (8, 7.28987871949122179238e-02) (9, -7.62664312493477147825e+00) (10, -4.15607499016589498897e-01) (11, -3.43958188037175094376e-01) (12, -2.90139414450294730319e-01) (13, -8.67884221102139530313e-02) (14, -3.22707375421547246197e-02) (15, 3.10813433640187597451e-01) (16, 7.93901354375142265241e+00) (17, 2.14106743823740230948e-01) (18, 1.16452999988307007162e-01) (0, 9.39185371885469244546e+00) (1, 1.03199270226543876605e-01) (2, 9.76128685161767595257e-02) (3, -1.57637489738570168996e-01) (4, 2.17056191549438759480e+00) (5, 1.49996896439524425659e+03) (6, 1.62132032593575697854e-01) (7, 7.58045495639385933373e+01) (8, 8.33636544402701490375e-02) (9, 1.25482244468074372890e+03) (10, 1.49988638177039570110e+03) (11, 5.97999365266209337300e-01) (12, 2.63276849054787986937e-01) (13, 9.12543917610674992780e-01) (14, -4.73829827372310857792e-02) (15, -1.72667385958147256986e+01) (16, 2.30406623162276280592e-01) (17, 1.29517956996207487919e+02) (18, 1.32472027962754479447e-01) (0, 5.63408605455473776580e-01) (1, -4.10978314672576922062e-02) (2, -7.58551315449845775518e-02) (3, -2.14364322386659367226e-01) (4, -2.20225066524815188407e-01) (5, 6.40758520246694884825e-01) (6, -1.74674551024736168792e-01) (7, -1.15297190830782464444e-01) (8, -8.81165183737773083372e-01) (9, -2.04824148504944764104e-01) (10, 5.11029222742542393876e-02) (11, -8.24589121837998595410e-01) (12, -1.83841930698354444340e-01) (13, -1.21041717643974935936e-01) (14, -4.02909977730461610346e-01) (15, -3.17816744671321829707e-02) (16, -1.15711378013335614012e-01) (17, 4.53012853900876311108e-01) (18, -1.44142688608049629462e-01) (0, 1.90308475006766120163e-01) (1, 1.28898642930946882856e-01) (2, -9.32429926312892259910e-02) (3, -5.30086176769305056355e-02) (4, -1.56843546592097371484e-01) (5, -4.89400196775269386018e-02) (6, -8.69470172909959093666e-02) (7, -2.64542079239050653694e-01) (8, -7.27818342074992991053e-02) (9, -1.37050938397781169442e+03) (10, -4.77513473104086649812e+00) (11, -3.28310033943095636033e+00) (12, -2.79154842532648606035e-01) (13, -3.44459015699750736861e-01) (14, -1.54510355523569870018e-01) (15, 1.42519093506698529827e-01) (16, -7.05068459160884258852e-02) (17, 4.39170273192494419606e-03) (18, -1.25327161497971656390e-01) (0, 6.61296235504199980682e+00) (1, 2.10242672984388118129e-01) (2, 2.21775575531514224092e-01) (3, -5.19464205470686612998e-01) (4, 2.44627551380583257989e-01) (5, 1.40814453367619239543e+03) (6, 2.94704585485358938612e-01) (7, 1.82176629268461951483e+01) (8, 1.47027528056297124293e-01) (9, 3.49709075478028523776e+02) (10, 1.49992415047007898465e+03) (11, 2.75272025821382493316e-01) (12, 3.04018593947093462848e-01) (13, 6.63007869344033897406e-04) (14, -9.15885833655937897646e-01) (15, -6.11011509018443462082e+02) (16, 4.93075322273709759635e-01) (17, 2.69054637687154034609e+01) (18, 2.53432838449539510339e-01) (0, 5.30710362792544798616e-01) (1, 6.87867703441545796927e-01) (2, 4.75509229818714906912e-01) (3, 5.09277868325085036894e-01) (4, 4.25920580939414539223e-01) (5, 2.73880763768469204233e-01) (6, 4.10076891804928733709e-01) (7, -5.28421056951798195911e-01) (8, 3.86558470471004445024e-01) (9, 1.48420140460775895619e-01) (10, -2.22141381011316108030e+00) (11, -3.16035197030097525506e-01) (12, 2.12307206387473912379e-01) (13, 1.68210234853851031689e-01) (14, 4.60625990128435802706e-01) (15, 6.61197536584320566533e-01) (16, 4.10917400975110314043e-01) (17, -7.50813557379039542283e-01) (18, 4.18970074386384339071e-01) (0, 4.08471795259018488622e+00) (1, 2.40290558489275635212e-01) (2, 1.50646342026535845493e-01) (3, -6.37634952716816805207e-02) (4, 3.65661115881128984118e-01) (5, 1.50000000000000000000e+03) (6, 1.66321228190563219496e-01) (7, 1.46746980560034572250e+01) (8, 5.72075938008874268492e-02) (9, 1.49976884721486794660e+03) (10, 1.49999524011551102376e+03) (11, 6.44068404783650794165e-01) (12, 5.58162029853067509499e-01) (13, 1.05371622844103035588e-01) (14, -7.31824250121825059523e-01) (15, -3.52530021227078336210e+01) (16, 1.12426307597301600172e-01) (17, 9.00688622731030079649e+01) (18, 1.79759085478274793779e-01) (0, -4.53789731060734280454e-01) (1, -6.79553766984986151733e-01) (2, 3.31707747036547317965e-02) (3, -8.89119924193583210936e-01) (4, -7.10440439287038372207e-02) (5, -6.71189990681732434608e-02) (6, 6.22213538175492020255e-02) (7, -2.34311555475905031187e+00) (8, -7.78959242990715949873e-01) (9, -1.49128381189586912114e+03) (10, -1.77472919995715194830e+01) (11, -4.51348150862386177096e+01) (12, -1.22643179200667118423e+00) (13, -9.10027697806904956046e-01) (14, -1.61172788528486821136e-01) (15, 1.29877905850406649702e-01) (16, -1.83888713103168011109e-02) (17, -2.77257721680337493320e-02) (18, 1.19606663947561349046e-03) (0, 1.60274698121383785132e-01) (1, 9.60632780967867194732e-01) (2, 2.52579887386350787626e-01) (3, 1.65311274614673903161e-01) (4, 1.71183386395695302795e-01) (5, 1.95936863630533975034e-01) (6, 2.04584944484635739004e-01) (7, -5.01645236318599696546e-01) (8, 2.71129250807406685375e-01) (9, 1.55874136062832679972e-01) (10, 1.36872873635731667763e-01) (11, -2.98348540221615617096e-02) (12, -8.38962695796025836881e-02) (13, -6.01261881503590389642e-01) (14, 5.76509828529570347855e-02) (15, 2.30294314616161510667e-01) (16, 2.60800645974001321648e-01) (17, -1.07356736737224212064e+00) (18, 1.36864255480260599285e-01) (0, 1.13100893176919226057e+00) (1, 1.54903215946770123068e+00) (2, 1.10080161791563369000e+00) (3, 1.05854728785917040490e+00) (4, 1.14844257370740909785e+00) (5, 1.20914323082929442421e+00) (6, 1.02654375513437901013e+00) (7, -1.26111795602557752449e-01) (8, 1.18247507594341061399e+00) (9, 3.99488041444819586001e-01) (10, -6.16031099053369413099e+00) (11, -3.66967522150127400948e+00) (12, 1.08217185376247648776e+00) (13, 9.24657390339990725714e-01) (14, 8.56461245837026985406e-01) (15, 3.96965509448845788043e+00) (16, 1.13090070755459315421e+00) (17, 1.67288288657696959660e-01) (18, 1.05481800519208768208e+00) (0, 3.32995631655217894096e-01) (1, 6.01609157021659290976e-01) (2, 2.24615979823561046080e-01) (3, 6.59800580783605622459e-02) (4, 6.97087964166251926323e-03) (5, 8.61214743083779232791e+00) (6, 1.54127586318670517507e-01) (7, -1.39192195195100509864e-01) (8, 8.07735955652879727973e-02) (9, -1.60739417712275345362e-01) (10, -1.55642093561176220184e+00) (11, -3.26558302161854241419e+00) (12, -2.23210713965543462722e-02) (13, -6.97030009023765328990e-01) (14, -2.65989348650331192125e-01) (15, 2.00564688191108553283e+00) (16, 9.10726384006580147457e+00) (17, 1.51065909502313799884e-01) (18, 9.26970071881271784342e-02) (0, 4.32218202580671451152e-01) (1, -2.27869489199445697525e-02) (2, -1.15924719718768748367e-01) (3, -1.59141143897712611377e-01) (4, -3.45774018843541364188e-01) (5, 1.66740307187437397651e+00) (6, -7.18104934534822963998e-02) (7, -3.23385551402375681640e-01) (8, -2.63351193786486137416e-01) (9, -1.55337592847695799003e-01) (10, -7.98901858879545317960e-02) (11, -4.43745664212858104136e-01) (12, -5.49536403115858940183e-02) (13, -5.00020214027734666296e-01) (14, -3.85585941271146870335e-01) (15, -2.63854307652544750606e-01) (16, -7.99867164947342806913e-02) (17, 4.15570358876680007176e-02) (18, -8.74860754371859644651e-02) (0, 1.61679973018625355863e-01) (1, 1.41910218128581122610e-01) (2, -1.06390445711972370102e-01) (3, -1.94428962695058604737e-01) (4, -3.52485829574211637083e-02) (5, 1.02376668050059427273e+00) (6, 6.61352220005168803946e-03) (7, 4.36614241837992078654e-01) (8, -1.31125050638157825134e-01) (9, 5.37556261577672236940e-02) (10, -2.82587704879637205413e-02) (11, -4.05410831508829339054e-01) (12, -7.57710224115166197656e-02) (13, -5.25190960366148318350e-01) (14, -5.91517022036350481606e-01) (15, -1.86021577916777181017e+00) (16, -1.90584850804042083006e-01) (17, 2.07857267007706902895e-01) (18, -9.35718505871868666546e-03) (0, 1.48447849126284722843e+03) (1, 2.46752355215160745772e+00) (2, 2.01032119312750815268e-03) (3, 1.07704422821920564601e+00) (4, 2.63925202660447888459e-01) (5, -7.38884948343655523217e+00) (6, 1.31666598260196665571e+00) (7, -1.14177257092664558513e+03) (8, 2.41160126921817929979e-01) (9, 4.22792947163835322044e+02) (10, 7.45957208248847223331e+02) (11, 1.16504764708928210126e+00) (12, 1.01241714856727924143e+03) (13, -2.82157986985333764096e+02) (14, 1.18190182447447500458e+00) (15, -4.04243946751965268049e+02) (16, -3.01800332816686189830e+00) (17, 9.56143193547838905033e+02) (18, 1.19047769001061221061e+00) (0, 3.46782689176902803041e-01) (1, 4.91044228455544562451e+00) (2, 2.96538823834881615227e-01) (3, -6.91163944243322891925e-02) (4, -1.68150094830968148407e-02) (5, 2.10605576162982650601e+01) (6, 7.50404788339405076636e-02) (7, 3.38807522507334724082e+00) (8, 4.51485961569212224109e-01) (9, -1.74294259203172363648e+00) (10, -9.46959574958234107100e+00) (11, 2.34009382706020820086e-03) (12, -2.10707615261970376830e-01) (13, 2.56657516356194638496e-02) (14, 3.09702177408649192980e-02) (15, 6.28190141231519305620e+00) (16, 1.34332976994324369002e+01) (17, -7.34863103934878525436e-02) (18, 1.33283454109043658642e-01) (0, 6.46775131478247056194e-01) (1, 5.00051973301370078495e-01) (2, 4.97394504315417429474e-01) (3, 5.38025957731712911603e-01) (4, 3.75084838855615998465e-01) (5, -4.89948817169914674352e-01) (6, 3.57132260907451704046e-01) (7, -1.68187050323050202305e-01) (8, 4.06575429558184764378e-01) (9, -3.84369357872411526733e-02) (10, -8.31442136568710910005e-01) (11, -6.30881114378377572116e-01) (12, 8.74999200075784744346e-02) (13, 2.05877872592124200324e-01) (14, 7.78234971372382067223e-01) (15, 3.92156066765597177692e+00) (16, 5.02202159187453145428e-01) (17, -2.34636970614681716896e+00) (18, 3.36914440820907157281e-01) (0, 1.92191064166292022719e+01) (1, 3.37226212219918441981e-01) (2, 2.82210709129185721711e-01) (3, 5.31368710817273659508e-01) (4, 7.02014308711341517011e-01) (5, 1.50000000000000000000e+03) (6, 5.06646837488977652697e-01) (7, 1.50000000000000000000e+03) (8, 3.11387653652081985989e-01) (9, 1.49982209172506327377e+03) (10, 1.49999589776636366878e+03) (11, 2.98363111250872226066e-01) (12, 4.34896381423601319227e-01) (13, 2.43946968054219670563e-01) (14, -2.22743784866578735659e+01) (15, -8.28369054036136809316e+00) (16, 2.20601755180483571905e+00) (17, 4.29574108698593590816e+01) (18, 3.13447608346056172390e-01) (0, 3.13239583326920700834e-01) (1, 6.40285662494657570321e-01) (2, 3.81369500667811736627e-02) (3, -3.45629433039952149026e-03) (4, -2.53133175476203918508e-02) (5, 1.47840303967579989042e+00) (6, 1.90971405993230841647e-01) (7, -3.81493923535477175157e-01) (8, 1.43190986266575476238e-01) (9, -6.94656723913668200376e-02) (10, -2.29940013685350885808e-01) (11, -1.36710999340162042692e+00) (12, -4.80739572458966576973e-02) (13, -1.94551902015010463876e-01) (14, -5.98394251372150534629e-02) (15, 3.14666163840944590468e-01) (16, 2.91590403506060313887e+00) (17, 1.36490563423601246607e-01) (18, 1.82258940785529240103e-02) (0, 1.12778980076398993582e+00) (1, 3.79096396091835652342e-01) (2, 2.14585212269620545511e-01) (3, 1.16817875743802854216e-01) (4, 2.04808217096203670771e-01) (5, 5.62590773215124357876e+01) (6, 9.06593819432194636398e-01) (7, 1.28383145636520173971e-01) (8, 1.73311734928931648891e-01) (9, 1.83148544255567369277e+00) (10, 1.19072500305964967815e+00) (11, -3.65363292155434127295e+00) (12, 2.49866529720294577865e-01) (13, 1.04285644385969392123e-01) (14, 2.77302058155253702831e-02) (15, 2.91738393392389494529e-01) (16, 3.12287900463082024327e-01) (17, 1.41238848681741724356e+00) (18, 3.18204918631200261991e-01) (0, 2.04127770294312504973e-01) (1, 1.04389712430787470754e-01) (2, 6.93249167423441586822e-02) (3, -1.45347787361867791800e-01) (4, -1.23742509481777868130e-01) (5, 2.25594763636587404554e-02) (6, 3.16770618834428419053e-01) (7, -1.27690132782989063109e+00) (8, -3.08607415677193165637e-02) (9, -1.49753108284207451106e+03) (10, -1.85192524237814488686e+01) (11, -4.31970888367218321946e+01) (12, -2.46890161778529959591e-01) (13, -1.92030622102325992939e-01) (14, -1.35516822255907176675e+00) (15, -8.38885138146198278131e-02) (16, 1.52336500901301130639e+00) (17, 8.87130309036133629652e-02) (18, 1.97161004427428426800e-04) (0, 1.88915370535184506950e-01) (1, 2.55699485680233706830e-01) (2, -5.66833783300974211605e-02) (3, 1.42480979529126361438e-01) (4, 5.87095146401241628487e-03) (5, 1.05860804776347663392e+02) (6, 4.25154688768703409307e-02) (7, 1.22115823119368971383e-01) (8, 4.96775129902726070297e-02) (9, -1.63060580269499921791e+00) (10, -1.87701141591582548740e-01) (11, -8.30706689714714452411e-02) (12, 3.76056982477805806786e-02) (13, -5.78191623401991122710e-02) (14, 1.22742381264848945954e-01) (15, 1.90002875022434236651e-01) (16, 5.95093743016457898953e-01) (17, 3.25481848014453123419e-01) (18, 3.33234693601852094424e-02) (0, 5.65661754084232915041e-01) (1, 2.50844009725806067479e+01) (2, 1.44345659721040547874e-01) (3, -3.87741041095774618963e-01) (4, 1.48956830415418489677e-01) (5, 1.49053624087380262608e+03) (6, 7.81389695980546500342e-02) (7, 1.17314953718288461459e+03) (8, 5.28507845863981584600e-01) (9, 1.71899524652080748499e-01) (10, 6.14374152712364063333e-01) (11, 2.67882226541026391420e-01) (12, 5.71006549621165607200e-02) (13, 8.67683010025694784195e-02) (14, -1.52779106656250884821e-01) (15, 6.76867455665297879097e-02) (16, 5.47181089191225364377e-02) (17, 2.09163548450016367752e+00) (18, 2.13773520979195948144e-02) (0, 3.90729982085082305776e-01) (1, 4.27557819179462850201e+00) (2, 1.52353246175389089867e-01) (3, -1.29271746937005787004e+01) (4, 1.36300185608066254384e-01) (5, 1.49973233649149551638e+03) (6, 7.96431601561527341415e-02) (7, 5.22539767373402241901e-01) (8, 5.58433187264898989177e-01) (9, -6.21843884571595117983e-01) (10, 7.63211262224078174077e-02) (11, -1.22655195554481455389e+00) (12, -1.33233123463487590499e+01) (13, -1.63779907177405731344e-01) (14, -3.75051304594476511700e-02) (15, 2.08443548636930098272e-01) (16, 2.28669631349221047500e+00) (17, 3.04975319187790250286e-01) (18, 6.79792604839973401559e-03) (0, 5.86655521298316773304e-01) (1, -9.18886158603286484770e-02) (2, -5.19033514092307191046e-02) (3, -9.85024691104703364886e-02) (4, -8.40593373371058827370e-02) (5, 8.66196519656225016881e-01) (6, -1.24486155624997388291e-01) (7, -1.81749580904105756396e-01) (8, -5.33012686028558127505e-02) (9, -6.69157928794595124877e-01) (10, -4.13156982605909078865e-02) (11, -3.94525627415916513296e-01) (12, -6.19563752766855713183e-01) (13, -2.54663329811054051088e-01) (14, -4.51124294886875443211e-01) (15, -1.02724314461225499362e-01) (16, -1.62314137431083471697e-01) (17, 5.91428092512983782925e-01) (18, -1.15291840763333042208e-01) (0, 1.49857830937112612446e+03) (1, -6.24521813402902470358e+00) (2, -7.62018966983480483535e-01) (3, 5.16789140444594674584e-01) (4, -1.58310338624099433691e-01) (5, -7.26843278640683791991e+01) (6, 2.25220224479139430329e+00) (7, -1.22047600380713333834e+03) (8, -1.03090150947442199536e-01) (9, 6.58669113581203613528e-01) (10, 1.49696415991443200255e+03) (11, 4.70333987581856460825e-01) (12, 6.21825559411949502220e-01) (13, -4.37911602586897004130e+01) (14, 5.18791698323123773307e-01) (15, -3.65819973227380490499e+00) (16, -2.92858105846741478828e+00) (17, 6.38969434112290599614e+01) (18, 4.74672194478118147920e-01) (19, 7.29764443403454921011e-01) (20, 7.96143492238990280185e-01) (21, 7.99565202144666087314e-01) (22, -9.41356663772489887787e-03) (23, 3.57679720272162660066e-01) (24, 3.61968986450031771085e+00) (25, 7.81757650744253185238e-01) (26, -1.80681400990604701384e-01) (27, -1.51074226638872100015e-01) (28, -8.56527565937970428167e-03) (29, -6.91599312433536228539e-02) (30, 8.65967140039859528677e-01) (31, -5.50168241434250915312e-01) (32, -5.95439091015078969527e-01) (33, 8.19172835052855874416e-01) (34, 6.92346912670591674299e-01) (35, 7.18805090121193579478e+00) (36, -7.04827483376385260927e-02) (37, 8.80306992910668051344e-01) (38, -2.31158951624247266388e-01) (39, 4.83213894244690300717e-01) (40, 9.10132553638709207444e-02) (41, 2.42458147169041210445e-01) (42, -1.33034728639491034441e-01) (43, -1.49366737382739894757e-01) (44, -6.59784996149202385141e-01) (45, -1.61093630543825194756e-01) (46, 7.65013550599027425392e-01) (47, 3.99441704035742445322e-02) (48, 8.50583865173330844200e-01) (49, 7.06594506834578139909e-01) (50, -1.80701767414466168971e-01) (51, 7.95580803047336693190e-01) (52, 9.78801317815208155038e-02) (53, 7.08404000578929493592e-01) (54, 7.75211142448259171722e-01) (55, 6.97823059409212520521e-01) (56, -3.50745812634850606671e-02) (57, -5.51865699207651050351e-01) (58, 2.93894601288886503365e-01) (59, 4.78015782223331853196e-01) (60, 7.53962892515161575702e-01) (61, 7.62211431627648150489e-01) (62, -3.91457877357654360218e-02) (63, 2.08746523547829916645e-02) (64, 3.23349422896844762576e-01) (65, 3.22145907845628243216e-01) (66, 1.05165541634957407369e-01) (67, -4.67830297463131469793e-02) (68, 3.17263704420835124242e-01) (69, 8.02231819840013571365e-01) (70, -1.10634041091883707914e-02) (71, -7.09922920803361667819e-02) (72, 6.64725763641638156543e-01) (73, -2.20070721738145291813e-01) (74, 5.02673654184478291285e-01) (75, 3.87053030665510500175e-01) (76, -6.16372835358951820517e-01) (77, -3.50832045206835585471e-02) (78, 4.30812907172386627686e-01) (79, 2.85873521672707908703e-01) (80, 2.56077676189523761874e-01) (81, 8.66996365549118297444e-01) (82, -2.46451092665967125273e-01) (83, -1.34941278967507904962e-01) (19, 4.42962494001712281388e-01) (20, 5.21016532090378792219e-01) (21, 5.49968702043999169149e-01) (22, 4.39671670502335298902e-01) (23, 4.04382723115115472190e-01) (24, -1.71920532495327293976e-01) (25, -1.64621912656124830265e-01) (26, -9.37643974214149300561e-02) (27, -1.36382242250208812751e-01) (28, 5.32694258133978193470e-01) (29, 3.56845413651747711548e-01) (30, 5.18673677021986190283e-01) (31, 4.72958149674976846555e-01) (32, 5.35682399897241534603e-01) (33, 5.36130837689778316779e-01) (34, 4.96263085981641982602e-01) (35, -9.65590385496473224691e+00) (36, -1.45781246477292680819e-01) (37, 5.14137354896742393429e-01) (38, -5.97108337616058040820e-02) (39, -1.28040829593614961107e-02) (40, 4.76825610868075233650e-01) (41, -8.48160035511760918014e-02) (42, 5.51705330642374924821e-01) (43, -1.81372701285720944187e-01) (44, 3.47935545796889122983e-01) (45, -1.43533702728406653559e-01) (46, 5.35115505522840595454e-01) (47, 2.40656425881159430347e-02) (48, -8.58257309859521561046e-02) (49, -2.25479913528905562270e-01) (50, 3.47449545275070881267e-01) (51, 6.21341566766651309806e-01) (52, 3.53732387958456462318e-01) (53, 1.13361632682621160662e+00) (54, 4.79664788690910559588e-01) (55, 5.79868924118093875819e-01) (56, 4.70080734960890866958e-01) (57, 5.27716437855123343681e-01) (58, -1.58119043942510389966e-01) (59, -1.04735507394357871269e-01) (60, 5.30308584708779173766e-01) (61, 5.95072608540522574039e-01) (62, 2.81977831722729888053e-01) (63, -1.30052895838726978450e-01) (64, -1.56528748549404489454e-01) (65, 4.68975497824321907459e-01) (66, 3.57965004088523497394e-01) (67, -6.53793253289282394469e-01) (68, -5.89357105028053690488e-02) (69, 5.46763427150271374977e-01) (70, 4.14751889532939455041e-01) (71, -1.65410778774180255990e-01) (72, -2.30075830934621999857e-01) (73, -1.95063969233443407214e-01) (74, -2.00510506294029888785e-01) (75, -2.19207290771908397398e-01) (76, 4.50718792236392384876e-01) (77, 3.73377942261802819868e-01) (78, -9.80771545840446873354e-02) (79, -1.44591828245633248484e-02) (80, -1.93704482268096306319e-01) (81, 4.39873986806321448650e-01) (82, -4.87825633181520751380e-02) (83, -7.14383897775676540709e-02) (19, -1.15210932512812544437e-01) (20, -1.68924382302151732116e-01) (21, -1.08444124006460598797e-01) (22, 1.32322385212895943241e+00) (23, -2.44480575084758816606e-01) (24, 4.47665565722584424257e-01) (25, 5.24161306818596711699e-02) (26, 5.16876074359870707475e-01) (27, 4.81955289024326993808e-01) (28, 8.45953141614636250356e-02) (29, -8.26482295727167110000e-02) (30, -4.46650297303427257223e-02) (31, 9.33138970953531488028e-02) (32, 1.48698322461727344690e-01) (33, -6.85266631740039100507e-02) (34, -1.08981612749740330859e-01) (35, 7.71040992078906040064e+00) (36, 5.82718988604968624045e-01) (37, 7.90557546092238022650e-02) (38, 5.44857916062107983102e-01) (39, 3.29491338143956924434e-01) (40, -2.67721525967764932552e-02) (41, 6.47020119048619779534e-01) (42, 2.31304338910549717179e-02) (43, 4.60167563202169838110e-01) (44, 1.28670806930014619551e-01) (45, 5.14297590991120712189e-01) (46, -1.29396558443771764191e-01) (47, 3.15367687178414179971e-01) (48, 3.64923574109435988611e-01) (49, 2.29068863991006149705e-01) (50, 4.77088691973193701479e-01) (51, -6.31534174623309407792e-02) (52, 3.50575259802231864459e-01) (53, -4.51532951489727940597e-01) (54, -3.93351745170569741528e-02) (55, -1.23968160833113336117e-01) (56, -5.05088047986625501840e-02) (57, 5.27606095745287023702e-02) (58, 2.53074795270714747453e-01) (59, 4.06984691369148610107e-01) (60, -8.74927153291894244003e-02) (61, -1.50460876087938292406e-02) (62, -2.66913053054046185003e-03) (63, 6.96591384033026228551e-01) (64, 4.54551884543021977869e-01) (65, -1.39840894797674780703e-01) (66, 5.35172101955132983875e-01) (67, 4.99348517936961722175e-01) (68, 2.98189970316680985629e-01) (69, -2.80741456441498116181e-01) (70, 4.21705015259101895220e-02) (71, 5.44553624017106496780e-01) (72, 3.61926920911338212417e-01) (73, 4.50044856832295836480e-01) (74, -3.33346865463162167487e-01) (75, 3.39060166940675589142e-01) (76, 1.20614151310822939611e-01) (77, -5.76711017551405011328e-03) (78, 4.45499767704892857267e-01) (79, 4.36527561176866418791e-01) (80, 3.47048978733792312656e-01) (81, -2.02144033598431943632e-01) (82, 3.82926256191408187490e-01) (83, 4.54715836300612852305e-01) (19, -4.50604141633958454882e-02) (20, 3.00464619669436744376e-02) (21, 5.81817842390580985956e-01) (22, 5.95998469941238173675e-01) (23, 4.45965638175627565598e-01) (24, -9.50321853290382878576e-02) (25, -3.00226986847749977017e+00) (26, -2.24230183882356215452e-01) (27, -1.16519560307307812330e-01) (28, 4.38291493937370435496e-01) (29, 5.12469359932415269299e-01) (30, 5.18850829355329334902e-01) (31, 3.74450484115871118362e-01) (32, 5.24571367176045688652e-01) (33, 4.37994096546618194576e-01) (34, 5.71724327311060043222e-01) (35, 1.50381347682611687944e+00) (36, 4.69030665053440376511e-01) (37, 6.41494727925346119868e-01) (38, 4.97269939016171669266e-01) (39, 6.69328280842739764545e-01) (40, 3.03310918713441735051e-01) (41, -6.63202451641262957782e-02) (42, 5.30856294223936320265e-01) (43, -4.75447453653880039437e-02) (44, -1.95753155915687204747e-01) (45, -2.04472015210068330804e-01) (46, 5.45487069163801741034e-01) (47, 4.65384668234920750862e-01) (48, -1.38137255637507783135e-01) (49, 5.24254368316658836413e-01) (50, -6.79750542502226828834e-02) (51, 4.76515915159906267018e-01) (52, 3.20786268057387524699e-01) (53, 5.87775018316291752996e-01) (54, 5.67892333627278755870e-01) (55, 4.95233983801301680394e-01) (56, 4.07469257201885481923e-01) (57, 4.81771386936843515336e-01) (58, -2.20416188175794142134e-01) (59, 3.75067568012771301866e-02) (60, 5.21952024042414253202e-01) (61, 5.17537023746553082049e-01) (62, 2.12362963299309093212e-01) (63, -1.42175332003592752583e-01) (64, -4.04017890676937607708e-02) (65, 4.91574777761258741027e-01) (66, 3.69314607434335140379e-01) (67, -3.06259824388479706680e-01) (68, -2.11201005850201045666e-01) (69, 4.50640091992189184555e-01) (70, 3.84657884454035148281e-01) (71, -1.19460023437526707824e-01) (72, -1.13883894703214041955e-01) (73, -7.70171876827322188230e-02) (74, 3.86133412114512797331e-01) (75, 6.35361533531695332755e-01) (76, 5.17180021319979865702e-01) (77, -2.58657126918009350192e-01) (78, -1.08924199531570273236e-01) (79, -4.69925211286293040280e-02) (80, 9.51286264908727946521e-02) (81, 6.13761957832381854772e-01) (82, 3.68769814962975395201e-01) (83, -1.50963568375398593524e-01) (19, -4.64789868349634247013e-02) (20, 1.64450183828167111055e-02) (21, -4.39907499235439036767e-02) (22, 2.28630204445029433513e-01) (23, -9.50096097573044778839e-02) (24, 3.31025004511355580572e-01) (25, -6.49709553069033107775e-01) (26, 3.95652459861860039680e-01) (27, 3.42747800585768813697e-01) (28, 5.10650961517521650990e-01) (29, 2.63263279763018553936e-02) (30, -8.74464366446485313888e-02) (31, 5.77303733855238487144e-03) (32, 1.02245872502982004804e-01) (33, -6.74860089439513893828e-02) (34, -8.10841922234088879895e-02) (35, 2.07861915226769156106e+00) (36, 4.88013158411892800093e-01) (37, -1.12196767344176190351e-01) (38, 5.17232215000896111690e-01) (39, 3.48403854279867863930e-01) (40, -8.74765917699460915022e-04) (41, 5.72243254343792084882e-01) (42, -1.84803948967327512365e-02) (43, 4.85244455239578209582e-01) (44, 6.19261455931937876418e-02) (45, 4.52614328986209901728e-01) (46, -9.67931861931025649959e-02) (47, 3.78574980200777344574e-01) (48, 3.81324621498276838949e-01) (49, 3.37348735584935333076e-01) (50, 4.13066329713893176656e-01) (51, -3.36683629051555272094e-02) (52, 2.81732889988875745413e-01) (53, -1.84499346783680351347e-01) (54, -8.77106767738648207544e-02) (55, -1.38280768478917820419e-01) (56, 5.73761039479218290515e-02) (57, 5.40204931752122571864e-02) (58, 2.69133273922742333184e-01) (59, 3.83930505208225913982e-01) (60, -1.46601910147641983917e-01) (61, -1.92457753849351147213e-02) (62, 7.75040700050991793191e-02) (63, 3.99683480813887714866e-01) (64, 3.55898899680950009383e-01) (65, -1.53490987712553234035e-01) (66, 4.43925183889104957302e-01) (67, 4.93230139814528734110e-01) (68, 2.91619775642885992184e-01) (69, -4.48180667745602875907e-02) (70, -1.45349906631818208934e-03) (71, 3.83929587722302623209e-01) (72, 2.55141306108606691350e-01) (73, 4.86682569098977058086e-01) (74, 4.09421932678735001065e-01) (75, 1.88820989476171069432e-01) (76, 1.24176482667807855376e-01) (77, -5.55353209759543928192e-02) (78, 4.03020705522005640020e-01) (79, 3.44098527534883291690e-01) (80, 3.77628881137357541586e-01) (81, -1.42662814692060373190e-02) (82, 4.38964597118538357723e-01) (83, 4.56355003540031445297e-01) (19, 2.85902507251409032651e-02) (20, 3.41585943507510744754e-02) (21, -3.18245826131055911667e-02) (22, -1.66306758395424192365e+00) (23, 3.45329408461171813438e-02) (24, 5.46628767669937398743e-01) (25, 2.04284772386142038370e-01) (26, 4.78769456856584563198e-01) (27, 4.14343132504888966849e-01) (28, 4.32012234062243538624e-01) (29, -8.47699146914175361012e-02) (30, -1.38629100976225411168e-01) (31, -9.55090693409618024523e-02) (32, -4.37866008433272224654e-02) (33, -1.33548977794708784161e-01) (34, -1.21327703476617046463e-01) (35, 2.49323077493715317132e+00) (36, -1.39423414988799648784e-01) (37, -5.35918729495167389665e-01) (38, 3.80943687718729884217e-01) (39, 4.87584613873690064789e-01) (40, -1.72345300380510213500e-01) (41, 3.60764881898401557070e-01) (42, -2.48439250504603692526e-01) (43, 5.27042151549790949261e-01) (44, -3.90943554917570351703e-02) (45, 4.85933258782400734344e-01) (46, 1.27784266222651845396e-02) (47, 6.09873986853832428245e-01) (48, 4.69897472559523632363e-01) (49, 4.17751848032967942892e-01) (50, 4.84090040663943677046e-01) (51, -1.17681608806800591660e-01) (52, -1.60759507774397958357e-01) (53, -9.24957000000629636638e-01) (54, -6.10818003467469968978e-04) (55, 2.28311913740683776475e-02) (56, -1.08876095033452413574e-01) (57, -1.13596525760549252326e-01) (58, 5.24369410614636044521e-01) (59, 4.92414393399235039706e-01) (60, -7.34174145193148414146e-02) (61, 1.45142302869763605705e-02) (62, -2.03089574727226995776e-01) (63, 4.08607380140069142982e-01) (64, 4.83313722989277383402e-01) (65, 1.05761221360271565062e-01) (66, 2.96426166171616378708e-01) (67, 4.70802152652783190145e-01) (68, 4.17115801997642365873e-01) (69, -3.67579984426627981442e-01) (70, -1.48300260540429079681e-01) (71, 3.56968057382391124044e-01) (72, 5.11082452191602754077e-01) (73, 4.48912839984502043400e-01) (74, 3.03445852961644335632e-01) (75, 5.07761519030831776078e-01) (76, -1.61581772666577250241e-01) (77, -6.30955997625963910247e-02) (78, 5.88411998719252760104e-01) (79, 5.07021012554460637212e-01) (80, 4.39541040590850529135e-01) (81, -9.99003621082197590386e-02) (82, 1.16861056902657842183e-01) (83, 3.82105087685378097540e-01) (19, 1.68568548215166703376e-03) (20, -2.72327814355413887204e-02) (21, -1.30672269214811842541e-01) (22, -1.35547251950823455235e-01) (23, -3.50331001345847922734e-02) (24, 5.45553782616750027046e-01) (25, -1.64197184949045782432e+00) (26, 4.73120990525293549922e-01) (27, 4.54950623307374402149e-01) (28, 4.39953897050009090641e-01) (29, -2.29379339252634317781e-01) (30, -8.34214592257622768179e-03) (31, -1.36607624477155298326e-01) (32, -1.60827574287320390622e-01) (33, -1.07279052621816195501e-01) (34, -2.71396680054893681133e-02) (35, -6.00921612917962644218e-01) (36, 5.06997566240170671747e-01) (37, 6.23823056634462223130e-04) (38, 4.56285970963069387185e-01) (39, 5.68698810304059776399e-01) (40, -1.64812598785616881703e-01) (41, 3.68509538637729394672e-01) (42, -1.01378825748136253138e-01) (43, 5.16083900150147822927e-01) (44, -4.71906107414424014213e-02) (45, 4.21395383553790747744e-01) (46, -1.30674826645732905517e-01) (47, 4.84056662756441491435e-01) (48, 4.76607653513588913619e-01) (49, 4.47067780685583060496e-01) (50, 3.49662842435321863377e-01) (51, 2.12121019060149962332e-02) (52, -2.26118247415068501782e-01) (53, -1.78889869744515178640e-01) (54, -1.25881694779641645221e-01) (55, -6.59591370301073204319e-02) (56, -1.84457329846885759173e-01) (57, -4.24117687348116376156e-02) (58, 4.51503884777749275869e-01) (59, 4.84287147626222491681e-01) (60, -1.53593048155461125992e-01) (61, -1.49702207970610928767e-01) (62, -2.66110296459460271556e-01) (63, 4.19720063921426134179e-01) (64, 5.59138868683531908843e-01) (65, -5.45992061048206633878e-02) (66, 3.23135279648879059078e-01) (67, 3.39691627836287701747e-01) (68, 5.72136286402378790861e-01) (69, -3.67156592110291724040e-01) (70, -1.27335589503585505655e-01) (71, 5.19639708852790427329e-01) (72, 3.86798080431611290830e-01) (73, 4.28888883442203550089e-01) (74, 4.49862098150473843639e-01) (75, 3.74344146058681326306e-01) (76, -5.31908204260123848583e-02) (77, -6.43257625523659809508e-02) (78, 5.40005876611381774310e-01) (79, 4.17400988025834973616e-01) (80, 4.71490770008134385538e-01) (81, -9.60399485049725637476e-02) (82, 3.17749805561214571092e-01) (83, 3.43974922812097128055e-01) (19, 2.64127670058696521760e-02) (20, 6.74908594513213971888e-02) (21, 1.14211464782346117097e-01) (22, 1.04796154187639309341e-02) (23, -1.52588139626421009920e-01) (24, 5.17157531314033525049e-01) (25, 5.06393962373706374436e-01) (26, 2.56002114109984191259e-01) (27, 1.75058518983913002920e-01) (28, 2.15965477292063195991e-01) (29, 3.54710353634162464664e-02) (30, 6.67387028494807466039e-02) (31, -2.11018634844755359481e-01) (32, -8.19811085857798382825e-02) (33, 1.10247267003283744291e-01) (34, 5.82886582536476099969e-02) (35, -4.62048780613392118255e+00) (36, 2.35918325403157241871e-01) (37, 5.72358758536646514137e-02) (38, 3.84225969886276719212e-01) (39, 6.35589567455425386022e-01) (40, -1.53714645206117273002e-01) (41, 5.54262038270051160538e-01) (42, -1.48146624918098755198e-03) (43, 3.91761453872944753751e-01) (44, -2.06452135316202212145e-01) (45, 3.32752535682875050238e-01) (46, 8.46989824854847001001e-02) (47, 5.66703901864328840610e-01) (48, 6.00111909032569501576e-01) (49, 4.68882619969744396382e-01) (50, 3.45725600717453229738e-01) (51, 2.17940451091807284312e-02) (52, -1.56293872706961656238e-01) (53, 1.57129535633013378559e-01) (54, 6.82790136120179913526e-02) (55, 1.62729719563238756086e-01) (56, 6.81951244068757789218e-02) (57, -1.45277141094894340911e-01) (58, 5.61210820901324791699e-01) (59, 3.94014223161259280470e-01) (60, 7.61910844068062059753e-02) (61, 1.99520519461010764628e-01) (62, -2.82743739642004554558e-01) (63, 2.71747291974643367940e-01) (64, 4.86218967879553765066e-01) (65, -9.48841578699429477606e-02) (66, 3.38179590357129744582e-01) (67, -1.94922683660615457535e-02) (68, 5.40069435145578702340e-01) (69, 1.77544970517788447406e-01) (70, -4.60245507470834896990e-02) (71, 3.32779136310061895987e-01) (72, 5.74470304255590868969e-01) (73, 3.61117633491872314089e-01) (74, 6.71511943458011573149e-01) (75, 4.40340690504231468960e-01) (76, -1.72344437815458523255e-01) (77, -1.00363411020721063349e-01) (78, 6.89734889512215398888e-01) (79, 4.35021501003237720528e-01) (80, 5.00174085070225649119e-01) (81, 1.36127865665788577720e-01) (82, 3.85388366926828929149e-01) (83, 2.80954174121386568430e-01) (19, 1.10836004599248513780e-01) (20, 4.50829441725839261124e-02) (21, -4.62581251558626740938e-02) (22, -9.71439197592527912961e-03) (23, -1.07151288160380664394e-01) (24, 4.43724510414436945638e-01) (25, 5.55413523714457624259e-01) (26, 4.07385128674344121347e-01) (27, 4.23272015219034625222e-01) (28, 3.33601024203654339395e-01) (29, -1.47686835573650424719e-02) (30, -1.99735424743883206722e-02) (31, -3.80968561653331760919e-02) (32, 1.02942228086062102094e-02) (33, 1.07332845951634434090e-01) (34, -2.74976747581496888066e-04) (35, -6.83177539217242824066e+00) (36, 3.38254030850153097898e-01) (37, -5.64986574226221047179e-02) (38, 4.72741131498765343455e-01) (39, 4.01157478685659985018e-01) (40, -1.52225487324906566533e-01) (41, 3.64867199989152624084e-01) (42, -8.73119828410662268681e-02) (43, 4.37443883391611443301e-01) (44, -1.55723693171162830273e-01) (45, 4.48175852662049012398e-01) (46, -4.38693288080538243423e-02) (47, 5.07782719582127839431e-01) (48, 3.53382731294045848713e-01) (49, 3.87679126728400491597e-01) (50, 4.31205855170957497169e-01) (51, 7.03630189565508379346e-02) (52, -1.37183178848453907195e-01) (53, 4.11989400865105381833e-02) (54, -7.81170534716915665463e-02) (55, 4.90757192998244745619e-02) (56, -9.59923168023289058448e-02) (57, -5.20729914384553821405e-02) (58, 3.92386436934224702711e-01) (59, 4.17519750992139448975e-01) (60, 2.62324743807442369026e-02) (61, 7.47852926955650670893e-02) (62, -1.97793335827954136485e-01) (63, 3.93570938490888533323e-01) (64, 4.21626434896171631284e-01) (65, 1.16269483297836602465e-02) (66, 1.71186697476976323884e+00) (67, -4.98521898307411684415e-02) (68, 4.69435597249466041170e-01) (69, -2.46464373738102850153e-02) (70, -1.89111093718499073679e-01) (71, 4.21103624989379254906e-01) (72, 3.73794157864107634559e-01) (73, 4.05810890376814059621e-01) (74, -1.65250133812357591356e-01) (75, 3.98500689494611592956e-01) (76, -1.03336741260155767774e-01) (77, -7.36121555721859499588e-02) (78, 4.72923232543686067331e-01) (79, 3.94665964584639539225e-01) (80, 3.36151181112596564304e-01) (81, -5.67513920527673507155e-02) (82, 1.95108264599203717893e-01) (83, 2.91487518712180093683e-01) (19, -4.65088350866462649225e-02) (20, -1.30893756630896779258e-01) (21, -5.93743426738100044115e-02) (22, -1.19941344940815292075e-02) (23, -6.53148433553132068408e-02) (24, 2.26275098823887216293e-01) (25, -1.52488497994140659308e-01) (26, 2.88134678608627549379e-02) (27, 5.39835119368252680516e-01) (28, 2.78761314279730131049e-02) (29, -8.58700380624622533476e-02) (30, -6.07008509579564092817e-02) (31, -6.41812754003321175866e-03) (32, 2.72688615948693847957e-02) (33, -5.87297855071597305066e-02) (34, -1.46868798345151402307e-01) (35, 5.54019537699958375399e-01) (36, 5.28465336595928092400e-01) (37, -4.66377851574427317732e-03) (38, 1.71555361435652871382e-02) (39, 3.64695337152585341567e-01) (40, -3.60361538506472137144e-02) (41, -2.07758532689490738044e-01) (42, 5.98320750250624158739e-02) (43, 1.23600158070775456576e-01) (44, 3.60634743059005322130e-02) (45, 4.21936459528354901316e-01) (46, -1.64215928128423088728e-01) (47, 3.96954748619773145624e-01) (48, 3.41470115635953419542e-01) (49, 2.15627327908390065137e-01) (50, 1.02809276995212035832e-02) (51, -3.36594848587275577434e-02) (52, 3.71004477777094388014e-01) (53, 3.88236344723474013918e-01) (54, -4.47619354618075948604e-02) (55, -1.90474708356107691465e-01) (56, -4.04506951518378565780e-02) (57, -1.11648688265562866240e-02) (58, 4.18021632046087054935e-01) (59, 3.21586013612116528027e-01) (60, -1.41171635051814070572e-01) (61, -5.93064886913397676382e-02) (62, -1.12219505334172041378e-02) (63, 5.31386503324634218437e-01) (64, 3.75357919455611421800e-01) (65, 5.14468482637261304014e-01) (66, 5.70683513322104540855e-01) (67, 3.77175068523127487996e-01) (68, 3.10511288655400785608e-01) (69, -4.00326661930431246250e-02) (70, 3.90432034174940153365e-03) (71, 5.59233043712714428253e-01) (72, 1.87491715657721991217e-01) (73, 4.02653763570794354099e-01) (74, -1.94507233315441091515e-01) (75, 2.87000596330487023344e-01) (76, 4.68372011489108595189e-03) (77, 1.14824739796319852392e-01) (78, 3.35212059269453910293e-01) (79, 3.75145133246530537718e-01) (80, 2.39962662545896321387e-01) (81, -8.75476711376882293925e-02) (82, 4.95276139294650308287e-01) (83, 3.84786325596820799610e-01) (19, -1.88615064357057563016e-02) (20, 2.47428467258801222661e-02) (21, -4.87405109845266137913e-02) (22, -3.33929745844167152891e-03) (23, -8.12072004192760793506e-02) (24, 5.23572823658386421464e-01) (25, 6.50383511864365604360e-01) (26, 5.04751723224304171822e-01) (27, 4.54038790623003229996e-01) (28, -7.49125588610380227506e-02) (29, -4.14817244434068019276e-02) (30, -2.94151236974629567977e-02) (31, -1.50350736480665270189e-01) (32, -1.01877616174909951807e-01) (33, -1.96900005796163679594e-02) (34, 5.85841923164846581362e-02) (35, -1.62664989318771630034e-01) (36, -3.10920779570192581942e-02) (37, -1.28621636590309229575e-02) (38, 3.75752042180502066060e-01) (39, 6.54146034331575809695e-01) (40, -3.45345032374669791420e-01) (41, 5.97298615424776024874e-01) (42, -1.53807675592521592156e-01) (43, 3.73508019379072742083e-01) (44, -1.43927154485788272309e-01) (45, 4.99511831982795473373e-01) (46, 3.56056523631252605511e-02) (47, 5.00897014733943657383e-01) (48, 3.97304476250966542850e-01) (49, 4.52704242842827175863e-01) (50, 4.67444313978490955108e-01) (51, 1.41652176538329732658e-01) (52, -7.00104782327878039094e-02) (53, -1.29636025815999431643e+01) (54, 7.40921381510065979459e-02) (55, 5.68886972531872855963e-02) (56, -6.58545599286153443552e-02) (57, -2.71276510241094045983e-02) (58, 5.66031035397828286015e-01) (59, 7.39978577363976319781e-01) (60, 6.98588616185330177344e-03) (61, 1.70783998313219463616e-02) (62, 6.29012613860669977939e-02) (63, 4.34773801276716498343e-01) (64, 6.20158782714751333209e-01) (65, -1.09407812032230891686e-01) (66, -5.97979800492503543730e-01) (67, 5.27122559649271904547e-01) (68, 5.47829119578982282057e-01) (69, -3.81499837595571864024e-02) (70, 1.19994478210158957848e-02) (71, 3.78881136134902707369e-01) (72, 4.86175634034457682109e-01) (73, 3.15515837519278696810e-01) (74, 8.50983757048899391862e-01) (75, 5.01318923034136831873e-01) (76, 3.23024857792871544770e-02) (77, -1.52870573791582087253e-01) (78, 6.77959030389234773573e-01) (79, 6.09885569994696896678e-01) (80, 6.68535088874982030838e-01) (81, 2.12451435199580394853e-02) (82, 4.04181882665623271045e-01) (83, 3.38477933170489464487e-01) (19, 2.67037504437865301499e-02) (20, 6.49444867771695882874e-02) (21, 1.61188458140442997246e-01) (22, 2.31084317651782493452e-02) (23, -2.03048715238250236659e-02) (24, 5.98940593048338798532e-01) (25, 4.13718424681019991684e-01) (26, 1.99809928766259331523e-01) (27, -1.20285044678634558957e-01) (28, 2.79308660547545717368e-01) (29, 5.96951950442368220462e-02) (30, 2.03325760288390167130e-01) (31, -2.73786050422864302156e-01) (32, -1.57916622075363610733e-01) (33, 4.63316542312492973821e-02) (34, 3.37323412500410632631e-02) (35, -3.53353291181466411253e-01) (36, 1.98106582505395367733e-01) (37, 1.07639934880620971591e-01) (38, 3.50174858454032400523e-01) (39, 5.02815438904535616516e-01) (40, -3.62693226066087615056e-01) (41, 5.17618528014120338199e-01) (42, 1.07816328512842868337e-01) (43, 2.06931025482217978428e-01) (44, -1.76016655703180313619e-01) (45, 2.88595530888829554517e-01) (46, 1.58982530612046701890e-01) (47, 6.44625533363004654674e-01) (48, 4.39432902300527561401e-01) (49, 5.33909952356450223654e-01) (50, 3.72499308076282731328e-01) (51, 6.63816661181043238260e-02) (52, -2.62911697767806151749e-01) (53, 8.33996588777287939376e-02) (54, 3.08165427715593326363e-02) (55, 1.21549629724291646804e-01) (56, -9.30656311039575467881e-02) (57, -2.38720876270442555755e-01) (58, 5.80908112005042331916e-01) (59, 6.06656096471620109867e-01) (60, 2.17861117550955135647e-01) (61, 1.81564040356147093913e-01) (62, -2.37120003317327215919e-01) (63, 3.12446919058048944162e-01) (64, 6.76002112194610260687e-01) (65, -5.21507252898173526146e-02) (66, 2.19837526531202365199e-01) (67, 2.10877866499315030913e-01) (68, 3.96929142033492998731e-01) (69, 7.04911823512779141948e-03) (70, -8.45933935466781500301e-02) (71, 1.99602265028475833741e-01) (72, 3.87936505244848739427e-01) (73, 1.89722101978423846047e-01) (74, 5.62075864253143375748e-01) (75, 4.92668807663149077580e-01) (76, -1.77152288469316687713e-01) (77, 8.01121584474929482322e-02) (78, 5.94706931873197452987e-01) (79, 4.82301504322557583748e-01) (80, 5.31449227097963272648e-01) (81, 1.10621127420787015994e-01) (82, 2.97051739520048430077e-01) (83, 2.21767588780123925396e-01) (19, 8.15705545192119019227e-01) (20, 7.92383315535979293465e-01) (21, 7.55075914851786822446e-01) (22, 1.24689860000368996085e-01) (23, 7.13355226889324067763e-01) (24, 1.40648190185516996920e+00) (25, -7.48500584008091607302e-01) (26, -3.11514772373880644007e-01) (27, -2.32563336942803983165e-01) (28, 4.64193534546164687793e-01) (29, 2.61976210143881893533e-01) (30, 6.70831108873122028413e-01) (31, 7.47985889615261689833e-01) (32, 1.59212998222481666444e-01) (33, 6.65022411039630223506e-01) (34, 8.13868978910255447268e-01) (35, 1.24742388822156371475e+01) (36, -2.54373338829557427143e-01) (37, 6.07415848818289694222e-01) (38, -2.45073529743280976723e-01) (39, 1.03367698594805573764e-01) (40, 4.61992973932716599617e-01) (41, -1.83895412703807131782e-01) (42, 2.83778419461823361303e-01) (43, -3.05294013958604615322e-01) (44, 2.88225920772037513817e-01) (45, -2.50584210649978877949e-01) (46, 7.66068043883238236624e-01) (47, 3.84517957992708669934e+00) (48, 2.60598710533014588098e-01) (49, 5.68552872778258611142e-01) (50, -1.36532326512047469391e-01) (51, 8.08965845437408570540e-01) (52, 5.37266241489039120260e-01) (53, 8.19866379080090634801e-01) (54, 8.18083673726517246472e-01) (55, 6.43847960784825534830e-01) (56, 8.47295663986842417792e-01) (57, 1.55430781986006322226e-01) (58, 4.66033381299546634047e-01) (59, 2.16163883578598642332e-01) (60, 7.53098519772262386951e-01) (61, 7.62430261933502717575e-01) (62, 5.69443787479688046105e-01) (63, -1.83635691654528754313e-01) (64, 2.39220179995064480272e-01) (65, 8.44174251587298751787e-01) (66, -1.32036548383692470265e-01) (67, -2.52557268139730228818e-01) (68, 4.65968568610466427060e-01) (69, 6.88005199283977186830e-01) (70, 2.14598325965993624864e-01) (71, -1.29941885409213198077e-01) (72, 4.44904104344740591870e-01) (73, -2.73266102906146501894e-01) (74, 5.72230807142154462852e-01) (75, 5.54092740767827218740e-01) (76, 2.62113072240957756254e-01) (77, 2.72845445929121521722e-01) (78, 1.94621328815750088692e-01) (79, 3.80518083628860248613e-01) (80, 4.59981426198139808914e-01) (81, 7.44068146678900310675e-01) (82, 4.97606750796871152853e-02) (83, -2.73810340464538726213e-01) (19, 3.91467104526791953578e-01) (20, 4.44941391006555886367e-01) (21, 3.44585768512368884053e-01) (22, 2.15598885602882095469e-01) (23, 4.86695977983888306007e-01) (24, 8.96670366217816594556e-02) (25, 9.69828083859071016226e-02) (26, -1.71522975286082859925e-02) (27, 4.94514447618587815736e-02) (28, 9.41830412839582825635e-02) (29, 1.86957299690775624601e-01) (30, 3.70587500687352577877e-01) (31, 4.99771401818991933830e-01) (32, 6.14564961515054464236e-01) (33, 4.01642320951778764027e-01) (34, 3.08368823426064642135e-01) (35, 1.91526638268648269348e-01) (36, -3.43970889767574103391e-02) (37, 2.99305225612607250785e-01) (38, 7.60771192720812450272e-02) (39, 1.75100465988344486390e-02) (40, 3.02270565990415351898e-01) (41, -2.65452131909191049730e-02) (42, 3.58034220694186500200e-01) (43, 1.16229322510124466472e-01) (44, 4.48275723644065093865e-01) (45, 5.48555084906749007567e-02) (46, 3.69730627987318927197e-01) (47, -1.02879932434300283561e-02) (48, -2.37464492596275167369e-01) (49, 3.47324926540002257291e-02) (50, 1.52835171103228913830e-02) (51, 4.27447344488923242078e-01) (52, 2.87045258492656052418e-01) (53, 3.70243142519933121637e-01) (54, 3.50730555016314338168e-01) (55, 4.39074914244262370921e-01) (56, 2.57334920241764797399e-01) (57, 5.54770273460084673012e-01) (58, 7.05048802179668865353e-02) (59, 4.03885964120387144782e-02) (60, 4.14114118225516192329e-01) (61, 4.27904135407148222825e-01) (62, 4.03352022451488267940e-01) (63, 8.45165999150262747808e-02) (64, 3.67242508388916019668e-02) (65, 5.08544459644199031700e-01) (66, -1.21756078291027569627e+00) (67, -1.80587611384588789080e-03) (68, 1.66952137603696176837e-01) (69, 3.74117228224721154461e-01) (70, 3.33975425088910871096e-01) (71, 1.37311846010039040333e-01) (72, -5.57492070939585512845e-02) (73, 6.78146902282458219346e-02) (74, 2.37535402300394979380e-02) (75, -2.40774054792568387162e-02) (76, 4.40219423385479813327e-01) (77, 2.32167866319257260033e-01) (78, 1.88397117749227321903e-01) (79, 9.19042130954899824657e-03) (80, 1.41558912916238677226e-01) (81, 3.23304400197806485195e-01) (82, 1.35627315101840839606e-01) (83, 1.36412071974230969529e-01) (19, 7.17503818814268612414e-01) (20, 6.43812488885673439576e-01) (21, 7.23469220940451518409e-01) (22, 1.04824561033703606006e-01) (23, 6.70513284224612648998e-01) (24, 3.08170744830378262602e-01) (25, 1.66141615479507787079e+00) (26, -1.21352792351856517139e-01) (27, 1.21666114291423443916e+00) (28, -1.65025519815579713168e+00) (29, 1.55824329112731391200e-01) (30, 6.26058483344175020768e-01) (31, 3.37197609610095927479e-01) (32, 2.89924327121050262601e-01) (33, 7.04313158724440779856e-01) (34, 6.78950631907734414305e-01) (35, 9.47789438281103890915e+00) (36, -1.89719922831806830921e-01) (37, 6.81253185907673586286e-01) (38, -2.44969805163681969562e-01) (39, 2.87203416257562460512e-01) (40, 5.17510914068310956537e-01) (41, -2.71533948878201314425e-01) (42, 9.82275364488545826847e-02) (43, -1.76134010981773725391e-01) (44, 2.31561309642648954776e-01) (45, -2.05982353107992566255e-01) (46, 6.43761321359672566977e-01) (47, 2.11383830478621380367e-02) (48, 1.78086567127490352780e-01) (49, 3.19301579818290492963e-01) (50, -2.38027173942229330894e-01) (51, 7.13997257846695654315e-01) (52, 4.77756108600217554994e-01) (53, 5.68811022418613698726e-01) (54, 7.24701756285428655424e-01) (55, 5.89078244355139557520e-01) (56, -1.07348167912256808876e+00) (57, 3.00734018526638335889e-01) (58, -1.52184770370842570308e+00) (59, 2.12529784009463290628e-01) (60, 7.63535916992085561539e-01) (61, 5.92470508466364287337e-01) (62, 4.93313912157572365125e-01) (63, 3.46003507193923087737e-01) (64, 2.40446788988373488793e-01) (65, 8.19279703683991611385e-01) (66, 6.22561946096932161687e-01) (67, -3.99050536419133017318e+00) (68, 4.55742252929506763692e-01) (69, 6.81045199015861801861e-01) (70, 9.71425999940531970100e-02) (71, -1.70038360378216402147e-01) (72, 5.82729368789474455603e-01) (73, -2.29667892162143533197e-01) (74, 7.94329141193600762882e-01) (75, 5.75757793712184495760e-01) (76, 3.05352732744949395549e-01) (77, 1.32247650304272157396e-01) (78, 9.87773804850366060615e-02) (79, 4.20498943768830346635e-01) (80, 4.79104407724238456900e-01) (81, 6.72141780985166970019e-01) (82, -2.04351952706985848240e-02) (83, -1.55420092296398304477e-01) (19, 5.15693782430921343618e-01) (20, 4.11493767989207337443e-01) (21, 4.78705642337726555713e-01) (22, 2.86748453490020471790e+00) (23, 5.95675411444658076121e-01) (24, -7.16240256498209826308e-02) (25, -6.99599722019287728614e+00) (26, -3.85859296517677072269e-02) (27, -6.12783881184047612978e-02) (28, 3.66193278565940028013e-01) (29, 2.75987587225584363182e-01) (30, 4.17105583520838041345e-01) (31, 3.22760429491650902012e-01) (32, 3.89031302151992774974e-01) (33, 4.47108723386636486286e-01) (34, 4.33838926958269144318e-01) (35, 4.35661650624023233380e-01) (36, -6.36814865697920146070e-02) (37, 5.31231256386882400022e-01) (38, -2.14050989275486915064e-02) (39, 1.03652000007120631553e-01) (40, 3.37931723695986119260e-01) (41, -9.21424576986255017275e-02) (42, 3.10895975951126557479e-01) (43, -1.71853469845410750105e-01) (44, 3.12289380138214112126e-01) (45, -1.68030513400298536775e-01) (46, 4.65424792998037850644e-01) (47, 4.94762312803027123204e-03) (48, -1.36048076725092388466e-03) (49, -1.74749979940647975907e-01) (50, -1.04834387079100865847e-01) (51, 5.19466613264009779982e-01) (52, 3.24798667969799947919e-01) (53, -2.44319651462917813989e-01) (54, 4.71336296497110895931e-01) (55, 3.96354712046137369619e-01) (56, 4.30385920252909781603e-01) (57, 3.50876715943698958000e-01) (58, 2.24022283457637159942e-02) (59, 4.04762271595467959528e-02) (60, 4.25569964378850917885e-01) (61, 3.79215067056175303417e-01) (62, 2.49718118554106194296e-01) (63, 1.11017101115009255569e-02) (64, 7.21288461652800638735e-02) (65, 5.78944105868075764576e-01) (66, -3.93479508522617316135e-01) (67, -1.77871908703330861012e-01) (68, -5.45264713341408677194e-02) (69, 4.38365525965118074669e-01) (70, 4.39322674773781951529e-01) (71, -1.14177865828398103498e-01) (72, -1.16847517769846254154e-01) (73, -1.67926986524571303372e-01) (74, 2.73840546935179007804e-01) (75, -9.36870571125798246026e-02) (76, 3.05768869696256662127e-01) (77, 4.39992859493963439643e-01) (78, 1.48286347801838164218e-01) (79, 1.27708743954682485411e-01) (80, 4.15828390085753799021e-02) (81, 4.14928096868645845952e-01) (82, -2.15914709199554577523e-01) (83, -4.75595849415638913249e-02) (19, -7.31973429283614140939e-02) (20, -9.14253363819572534288e-02) (21, 7.57460040741053941549e-02) (22, 4.54196737248939719223e-01) (23, -1.08929548551485372299e-01) (24, 5.00249778836230563073e-01) (25, 2.65735717426741091529e+00) (26, 4.32815810148418356196e-01) (27, 4.53545587197861921336e-01) (28, 3.95401030813359644078e-01) (29, -1.51195591001646229001e-01) (30, -3.41923274172039742824e-02) (31, -1.27140920518383326865e-01) (32, -1.01158983489096410135e-01) (33, -1.32586717129062788001e-02) (34, 3.67374116099478398301e-02) (35, -3.95194817365208450610e+00) (36, 3.44750618248258478005e-01) (37, 1.02304039492346551810e-01) (38, 3.48823890076901621526e-01) (39, 1.68036563418871798259e-01) (40, -3.42842654493062670706e-01) (41, -1.02545936986779204214e-01) (42, -1.44103092813983590936e-01) (43, 3.23868164035171490767e-01) (44, -4.52896139963981578247e-02) (45, 4.84675603596363302472e-01) (46, -8.00910976536495095024e-02) (47, 5.11924556077558379208e-01) (48, 2.84462023764166960227e-01) (49, 4.18368447344939942134e-01) (50, 4.88172926488828318181e-01) (51, -2.46632662999466539810e-02) (52, -2.90268968641016533727e-01) (53, 5.24754933626164099536e-01) (54, 3.40620444249428097616e-02) (55, -6.44925114512172326098e-02) (56, -4.56358928650088709056e-03) (57, -1.12142816528969263556e-01) (58, 4.10122667709659383117e-01) (59, 3.60460942077171275777e-01) (60, 6.14120461474159523574e-02) (61, -6.24485165214827830926e-02) (62, -2.74388232862614322993e-01) (63, 3.21874027506440008040e-01) (64, 3.91321602017125846906e-01) (65, 4.57378412102688092222e-01) (66, -4.73179802126151238806e-01) (67, -4.00900829138897771969e-03) (68, 2.43399832549273442694e-01) (69, -3.54233171103197491680e-02) (70, -1.02597381176508257311e-02) (71, 3.59792065211980316430e-01) (72, 4.46137746959608449959e-01) (73, 3.54952033687381207638e-01) (74, 4.71212082454710745605e-01) (75, 3.71074559963696593012e-01) (76, -1.32201292173316969913e-01) (77, -1.11363535862520568465e-01) (78, 1.75672452362482744981e-01) (79, 3.39127112039631917195e-01) (80, 2.66849032037739963830e-01) (81, -4.99506103158203484949e-02) (82, 3.92771997549114626480e-01) (83, 4.34289306545066200460e-01) (19, -7.55898688693780046455e-02) (20, 5.13812320471947192591e-03) (21, 6.92829862200009388706e-02) (22, -1.95620729039387597492e-01) (23, -2.06839474540501250255e-02) (24, 4.22244089692297208671e-01) (25, 4.29597424598862631662e-01) (26, 3.90269603711966839299e-01) (27, 4.48265902575890162751e-01) (28, 5.26604034132380043054e-03) (29, -9.67343238120595833029e-02) (30, -2.47550424364983666370e-02) (31, 1.95963392004872144492e-02) (32, -5.79916213534207372615e-02) (33, -8.09587806105886848007e-02) (34, -8.86541814385419096878e-02) (35, -5.81941595412527323816e+00) (36, -1.69559425630959131892e-01) (37, -2.44452331997638307171e-02) (38, 4.33969825920859642032e-01) (39, 4.54056475750938659530e-01) (40, -1.47374045747939802498e-01) (41, 3.57718339534479012887e-01) (42, -1.10998345947527166100e-01) (43, 3.28972677854143080722e-01) (44, -9.43468953622347700216e-02) (45, 4.87729267969407020988e-01) (46, -2.76505534618132105262e-02) (47, 4.80781319669027706887e-01) (48, 4.97615178420905801548e-01) (49, 4.69333268252019986111e-01) (50, 4.31439955536973118733e-01) (51, -3.59812831897181190088e-02) (52, -1.33633610952464260135e-01) (53, 5.82260856797502668325e-02) (54, -9.05583041175172936965e-02) (55, -4.32297199382169951981e-03) (56, -1.88295968222647491785e-01) (57, -7.38479310039562297785e-02) (58, 3.41861679044023814011e-01) (59, 3.00813478913576959339e-01) (60, -7.61509372710286042141e-02) (61, 1.83231966820387587314e-02) (62, -7.72174356804949946209e-02) (63, 4.22109873770797894288e-01) (64, 3.98979579880779589018e-01) (65, 3.04567992234786588668e-02) (66, 1.70523618939536825145e+00) (67, -1.01562092856786898021e-01) (68, 3.48780571884800327798e-01) (69, -6.84419154947320806937e-02) (70, -2.54414100917011894165e-02) (71, 2.95527861109147693686e-01) (72, 3.28651716021383877298e-01) (73, 3.64719403663479047051e-01) (74, -2.06875264655489748966e-01) (75, 4.09086307481925703922e-01) (76, -1.09308688840492676531e-01) (77, -1.06915875601157145391e-01) (78, 4.55714541672126993710e-01) (79, 3.25751496787609451378e-01) (80, 3.91925552664550758131e-01) (81, 1.03693741646419299030e-01) (82, 2.39166494850584915310e-02) (83, 3.43233293754460155878e-01) (19, 4.65475274395847515851e-01) (20, 4.10622692306330527856e-01) (21, 4.61572654600754306298e-01) (22, 1.24496310795639999469e+01) (23, 5.92523588514610399791e-01) (24, 7.79166999736474654575e-03) (25, -3.62106875320401577767e+00) (26, 4.17922199005060640564e-02) (27, -7.58706860731371834916e-02) (28, 1.47065789266452567191e-02) (29, 3.71427126095133564032e-01) (30, 3.31493321509034488681e-01) (31, 4.77323570805145480644e-01) (32, 3.42324842056768219312e-01) (33, 4.54859301901275547841e-01) (34, 3.44793611416398748659e-01) (35, -5.22434843855425073977e-02) (36, 4.28149944980613150758e-01) (37, 4.36785629832245891890e-01) (38, -3.19747053284457766198e-02) (39, 1.89268119707467208368e-01) (40, 3.59752036381656148389e-01) (41, -1.54772657515477363166e-01) (42, 2.79414635824471568881e-01) (43, 8.00607077010744298991e-04) (44, 4.38338891144991305016e-01) (45, -8.05095919207213517321e-02) (46, 3.67338498357487330814e-01) (47, -3.83605675098587506344e-02) (48, 2.55181780270174775327e-02) (49, -9.60571621788701840439e-02) (50, -1.04042618418406326852e-01) (51, 3.55589058957772208291e-01) (52, 3.20046153368134134176e-01) (53, 2.90835316350766259763e-01) (54, 3.34946404928579688498e-01) (55, 3.28393429078784160335e-01) (56, 4.00099294468832245020e-01) (57, 3.26304471551751740233e-01) (58, -5.96895361484737763114e-02) (59, -3.03083114285622326825e-03) (60, 4.56530338695411097572e-01) (61, 4.22595666564877681104e-01) (62, 4.13449781481412315109e-01) (63, 3.41106779694503245426e-02) (64, -1.14615136985588852991e-01) (65, 5.22740731647403755744e-01) (66, 2.31727472663975447853e-01) (67, -1.92756245587786340101e-01) (68, -3.94611228735641597631e-02) (69, 4.35732148268558494575e-01) (70, -1.20495648265943236521e-01) (71, 3.35744893435004562732e-02) (72, -1.19635221748488878440e-02) (73, -3.02688824477907779745e-03) (74, -5.23725273563373575070e-02) (75, -9.68504990598942350211e-02) (76, 3.31100829561692955316e-01) (77, 4.06214806817633278246e-01) (78, 2.05422596575895149984e-01) (79, -1.10302470627450708803e-04) (80, -1.01290068398118257575e-01) (81, 3.61798091567220536646e-01) (82, 2.33143345775939543618e-02) (83, -6.96647514815160739943e-02) (19, 4.59355046346774320565e-01) (20, 6.06614208734341353590e-01) (21, 4.95109458466228669060e-01) (22, 4.17109267254342497289e-01) (23, 5.33363979280110145353e-01) (24, -8.86134458286012421935e-02) (25, -1.33545755153581313657e+00) (26, -8.76911711498704338208e-02) (27, -1.64005232789894178635e-01) (28, 4.05104553092814123616e-01) (29, 4.33332801131924572058e-01) (30, 4.93360904105512587670e-01) (31, 5.13757568925574781282e-01) (32, 4.47622385013642543061e-01) (33, 4.31397957523052155704e-01) (34, 5.01668099784291166010e-01) (35, -3.95472499702015201084e-01) (36, -9.29545471120774846607e-02) (37, 4.75024421746937319799e-01) (38, 5.51089112934017411050e-01) (39, -6.21649298811244137297e-03) (40, 4.47809289238171759351e-01) (41, -6.79174152469109032593e-02) (42, 4.27477407434510570106e-01) (43, 5.13454598101006687294e-01) (44, 4.34128911169873898945e-01) (45, -1.82962284654577755916e-01) (46, 4.32806253262800089132e-01) (47, -9.62705487615088117970e-02) (48, 4.15507199327251108834e-01) (49, -1.72929124187758659348e-01) (50, -5.96066673245383010782e-02) (51, 4.25825737315715324716e-01) (52, 4.26135436151136193228e-01) (53, -2.34999791296648430361e+00) (54, 4.24111167823892742934e-01) (55, 5.55251155386044303874e-01) (56, 4.67797872659623359404e-01) (57, 4.92645185972185706280e-01) (58, -2.26078853820498637539e-01) (59, 9.33232750489343260147e-02) (60, 4.40511547941706771425e-01) (61, 5.02992708353504736074e-01) (62, 3.88896547814368109819e-01) (63, -7.20497215148722530698e-02) (64, 3.10209348572972991309e-02) (65, 3.34503857033672524768e-01) (66, -1.09327061633977495880e+00) (67, -2.15472735495832110053e-02) (68, -1.84823985172536370269e-01) (69, 5.29532177623658006915e-01) (70, 4.40685892364497677764e-01) (71, -1.55119094088496417561e-01) (72, -2.45654250584690703185e-01) (73, -6.01200286496605326714e-02) (74, 3.60835529627203888126e-01) (75, -1.59469121471431884984e-01) (76, 5.33636614654326657536e-01) (77, 3.90550195735909433381e-01) (78, -5.49580955876080440303e-02) (79, -4.51768404794292144366e-02) (80, -1.13093844974052684660e-01) (81, 5.84573207359268764982e-01) (82, -5.89409376000636586745e-01) (83, -1.15563138472768611731e-01) (19, 3.69393758125857105123e-02) (20, -8.99901458420123007143e-02) (21, -6.35838513170418617726e-02) (22, 6.08766135993748847000e+00) (23, -2.41157191980401822140e-02) (24, 3.46731522593272001309e-01) (25, -3.52175116330872561843e-01) (26, 4.78624853204632494386e-01) (27, 3.05167405940194924607e-01) (28, 4.27156780448881112644e-01) (29, -1.22108629644256644342e-01) (30, -8.67606277360234295903e-02) (31, -3.09085666331055559930e-02) (32, -1.25314309629040915306e-01) (33, -6.05083574510523886092e-02) (34, 1.00473662353097376032e-01) (35, -3.70025007736542843606e-01) (36, 4.25887743653953987355e-01) (37, -3.55166894554206566403e-02) (38, 3.07967996509236729974e-01) (39, 4.74788183517449724480e-01) (40, -2.06386908009385111606e-01) (41, 4.48158201289639734899e-01) (42, -1.60915697622398184974e-01) (43, 4.15441796486297809654e-01) (44, -3.82402348501805905423e-02) (45, 3.52859937753933483595e-01) (46, -6.36270175574413787700e-02) (47, 4.02582402525812177441e-01) (48, 3.95036152343024304923e-01) (49, 4.17898040236996448638e-01) (50, 3.26121329139831273025e-01) (51, -3.78518236511870415084e-02) (52, -1.12371567032739358427e-01) (53, -4.45626330304862705578e-01) (54, -8.93663824638110809717e-02) (55, -9.28482047129562115817e-02) (56, -1.30954752746491487336e-01) (57, 2.57345584237138880201e-02) (58, 5.14197672237887370983e-01) (59, 4.27289668399558342227e-01) (60, -1.72741240907106560765e-02) (61, 4.86340295661443627884e-02) (62, -1.00913223357097805999e-01) (63, 4.62355312492391812285e-01) (64, 5.89863659930296546641e-01) (65, -1.95146798576776372980e-02) (66, 4.15319258087942400071e-01) (67, 4.03489857385432582060e-01) (68, 3.12547469532383437318e-01) (69, -2.73565506246158281212e-02) (70, -3.55256411684776660098e-02) (71, 3.94559397446844595247e-01) (72, 2.85112931057571905580e-01) (73, 3.31511756024876258486e-01) (74, -3.47132893064386674475e-02) (75, 4.10054818346946015062e-01) (76, -9.17225530369517733087e-02) (77, -1.75913235250428179324e-01) (78, 4.14342400074508676600e-01) (79, 5.70823442899693334063e-01) (80, 4.79498948219859444375e-01) (81, -6.78154484211382080350e-02) (82, 2.79627687084292975150e-01) (83, 4.45114665198885040009e-01) (19, 5.22772889147638086804e-01) (20, 6.08249523887826937241e-01) (21, 5.61533137699456674774e-01) (22, 4.24103798633936435181e+00) (23, 5.14846207362999130908e-01) (24, -1.92554543868451749633e-01) (25, -7.32831195702187132568e-01) (26, -1.64042742737504437800e-01) (27, -9.32748624546613558373e-01) (28, 5.16870912868426457543e-01) (29, 5.31974786312168990143e-01) (30, 4.12745195745150283972e-01) (31, 4.81986539895647492227e-01) (32, 4.42145168449548930933e-01) (33, 5.25116990582793596865e-01) (34, 5.60702210018414137771e-01) (35, -1.71131226585322954170e-01) (36, -1.31691257821769824865e-01) (37, 4.58789481481634786597e-01) (38, 3.54187862736865477498e-01) (39, 3.00642283094978528257e-02) (40, 2.78059520382790470450e-01) (41, -2.70481123205627144168e-02) (42, 5.33188357932009027174e-01) (43, 4.19036420631520967195e-01) (44, 4.91428139797264851296e-01) (45, -1.12459013075407163185e-01) (46, 4.53511803197494234308e-01) (47, -4.16236516974408179981e-02) (48, -1.29858584507559104981e-01) (49, -9.83790479168720477521e-02) (50, -1.41833819537805105870e-01) (51, 4.90171447747961286368e-01) (52, 3.67519049651674090118e-01) (53, -1.02387942949582622099e+00) (54, 4.70007064151219566828e-01) (55, 6.09215122631014849297e-01) (56, 4.29329627034341188008e-01) (57, 4.73582368461922975644e-01) (58, -2.17208064962651825613e-01) (59, -1.71132105520426826273e-02) (60, 5.25632582727966313207e-01) (61, 4.32018621910545630449e-01) (62, 4.49049738525859498672e-01) (63, -1.94901794820485030346e-01) (64, 4.52136866604765236266e-02) (65, 4.67127445256278417407e-01) (66, -5.56923656666303501517e-01) (67, -1.24851723980834702910e-01) (68, -8.44256101019057736412e-02) (69, 5.91080293006679968748e-01) (70, 4.70225882227687574932e-01) (71, -1.70024822125101199299e-02) (72, -1.52971383290745555072e-01) (73, -1.24365210946734236486e-01) (74, 3.97817229404363703615e-01) (75, -2.13397573836763804200e-01) (76, 5.40184732706033288174e-01) (77, 4.56636803962296389248e-01) (78, -4.81126935301698574476e-02) (79, -5.38170750632469899188e-02) (80, -1.64794976727100528358e-01) (81, 5.18401103908481819538e-01) (82, -3.37013190950154362113e-01) (83, -1.74447368878724654029e-02) (19, 7.42098607179585090243e-01) (20, 8.56032531806634189309e-01) (21, 7.62470442603171427720e-01) (22, -2.15705871685323469222e+00) (23, 7.76289054025865898900e-01) (24, 1.76769113090792173715e+00) (25, -3.97779840128159944967e+00) (26, -3.84450466747811081536e-01) (27, -2.65624108615189979954e-01) (28, 3.79612309017804350209e-01) (29, 1.63919581703910216541e-01) (30, 7.17723369812880540586e-01) (31, 2.10394973009609104198e-01) (32, 2.26804137120854787391e-01) (33, 7.13350970298894715427e-01) (34, 5.76914598436954584315e-01) (35, 2.00772029398660034616e+00) (36, -2.26729560450641243197e-01) (37, -1.83832381028854419114e+00) (38, -1.18555902904708451717e-01) (39, 2.72673278886671532906e-01) (40, 4.07251846380511262069e-01) (41, -3.16985128266488003224e-01) (42, 4.27838966538153342434e-01) (43, -1.05428186730318743103e-01) (44, 2.23324586662810992133e-01) (45, -7.61918217673606679163e-02) (46, 6.13586814623496734633e-01) (47, 3.46955572748301244168e-01) (48, 5.35210284574106354150e-01) (49, 5.83016185172958389948e-01) (50, 3.08825882147293340196e-01) (51, 7.09566271406973703151e-01) (52, 3.68195923357348131599e-01) (53, 7.74703291720455156089e-01) (54, 6.27422558265096186325e-01) (55, 5.97234639629811936423e-01) (56, 3.47998178861009477281e-01) (57, 2.84017804822246200391e-01) (58, -1.86279053206326028480e+00) (59, 3.13656538988992150685e-01) (60, 6.92158766335800423875e-01) (61, 7.46460298355396290049e-01) (62, 3.83202064055695013067e-01) (63, -1.79412257462623819793e-01) (64, 4.12087448884587204123e-01) (65, 6.77290214632625064972e-01) (66, -3.67853755130274207019e+00) (67, -1.32626668593521457318e-01) (68, 5.70726430644580506879e-01) (69, 6.82310794002712661666e-01) (70, 1.77457926448992941992e-01) (71, -1.85731265923918503757e-01) (72, 6.82690808037033747269e-01) (73, -2.43147089109754910297e-01) (74, 1.14577688995527782190e+00) (75, 7.11131450028633205207e-01) (76, 2.21553164564405963288e-01) (77, 1.68258473223621474180e-01) (78, 2.52478796248065906482e-01) (79, 5.14749894885984549120e-01) (80, 4.75117780551852331161e-01) (81, 6.02567315751146304059e-01) (82, -2.89040336431958755359e-01) (83, -1.20018287146712421265e-01) (19, 3.98266477020266240761e-01) (20, 3.63191724199007304197e-01) (21, 3.78641678886887100841e-01) (22, 7.40446874368506091635e-01) (23, 2.69427680942791902829e-01) (24, -4.61862242960382807233e-01) (25, -1.05019544259361818916e+00) (26, 2.55044457342075592265e-01) (27, 2.51419829446926146321e-01) (28, 1.78793810081953524760e-01) (29, 7.78321091263335818056e-01) (30, 2.96274357184081238437e-01) (31, 6.37123366436662119661e-01) (32, 6.28708149945921390689e-01) (33, 2.65117677043641308821e-01) (34, 3.12598509251239997653e-01) (35, 5.38411535289138987181e-01) (36, 7.16479101460737011209e-01) (37, 4.00313768601339881048e-01) (38, 2.44420540884681736227e-01) (39, 2.78046990327531547832e-03) (40, 3.78160354805339771200e-01) (41, 5.37394499095098301944e-02) (42, 6.94120071060998378165e-01) (43, 2.36763000367268994228e-01) (44, 5.86955791492385525743e-01) (45, 2.88982300259600477510e-01) (46, 2.58158771425614330663e-01) (47, -2.04548541158173613486e-01) (48, -2.47380818268519764302e-01) (49, -4.75410471790531474756e-01) (50, 1.62521391065975961965e-01) (51, 2.42156445100995126873e-01) (52, 5.13754393814748522296e-01) (53, 2.66589606205752172041e-01) (54, 2.81360898813219684200e-01) (55, 3.92016684407245796784e-01) (56, 8.13649247495684124765e-01) (57, 5.89330543781841353912e-01) (58, -2.29117265705381184526e-01) (59, -1.47039280991625387340e-01) (60, 3.46234615226700737090e-01) (61, 2.72895991753727584772e-01) (62, 4.69855219912808319549e-01) (63, 1.35328812906630763235e-01) (64, -6.11629244848854586314e-02) (65, 2.63258091241949432337e-01) (66, -1.08006824369288004228e-01) (67, 1.39619064955218724622e-01) (68, -3.98781931970521419384e-01) (69, 3.19920299594723123171e-01) (70, 7.56003919789211997760e-01) (71, 1.75256881570411970905e-01) (72, -4.15022549595142176138e-01) (73, 2.02859437364802358550e-01) (74, -4.58782657653051983981e-01) (75, -3.82175400594793712727e-01) (76, 6.26687795264187386124e-01) (77, 7.24812745651849499318e-01) (78, -2.93460723836948857157e-02) (79, -7.40243724424704124809e-02) (80, -3.65864965398371877470e-01) (81, 2.17724911649891994525e-01) (82, 2.72731758866068652036e-01) (83, 1.32765164231972987441e-01) (19, 4.30768876981106774160e-01) (20, 3.65733368292910809849e-01) (21, 3.05426505568108797029e-01) (22, 3.20470049967995718188e-01) (23, 4.85044264704484251460e-01) (24, 6.31693142171218013914e+00) (25, 2.75382651516099585809e-01) (26, -1.02849584323387952672e-02) (27, -1.30040465291182183449e+00) (28, 9.63955513422755233544e-02) (29, 2.67618648176382756265e-01) (30, 4.73325128304750097907e-01) (31, 6.00878033622782803391e-01) (32, 5.75281871988973625420e-01) (33, 3.57315461353278407408e-01) (34, 4.34556938756941013580e-01) (35, 2.06680875663183188928e-01) (36, 1.61499790087399452965e-01) (37, 3.02480708972503120613e-01) (38, 1.27736750705966600750e-01) (39, 3.98290971716155739468e-01) (40, 4.05521933460254002668e-01) (41, -3.45342651954645973866e-02) (42, 3.15294851067420223156e-01) (43, 6.94595595471773352703e-02) (44, 6.49813613041832049966e-01) (45, 8.66915298049655974610e-02) (46, 3.90371948150707748226e-01) (47, 2.06959505346395317149e-02) (48, -8.49058891579302504882e-03) (49, 4.92841934460429453857e-01) (50, 1.31310379087958645217e-01) (51, 4.19534938421456282676e-01) (52, 3.34762184110902083489e-01) (53, 3.19287931112801848244e-01) (54, 