FANN_FLO_2.1
num_layers=3
learning_rate=0.700000
connection_rate=1.000000
network_type=0
learning_momentum=0.000000
training_algorithm=2
train_error_function=1
train_stop_function=0
cascade_output_change_fraction=0.010000
quickprop_decay=-0.000100
quickprop_mu=1.750000
rprop_increase_factor=1.200000
rprop_decrease_factor=0.500000
rprop_delta_min=0.000000
rprop_delta_max=50.000000
rprop_delta_zero=0.100000
cascade_output_stagnation_epochs=12
cascade_candidate_change_fraction=0.010000
cascade_candidate_stagnation_epochs=12
cascade_max_out_epochs=150
cascade_max_cand_epochs=150
cascade_num_candidate_groups=2
bit_fail_limit=3.49999999999999977796e-01
cascade_candidate_limit=1.00000000000000000000e+03
cascade_weight_multiplier=4.00000000000000022204e-01
cascade_activation_functions_count=10
cascade_activation_functions=3 5 7 8 10 11 14 15 16 17 
cascade_activation_steepnesses_count=4
cascade_activation_steepnesses=2.50000000000000000000e-01 5.00000000000000000000e-01 7.50000000000000000000e-01 1.00000000000000000000e+00 
layer_sizes=261 111 53 
scale_included=0
neurons (num_inputs, activation_function, activation_steepness)=(0, 0, 0.00000000000000000000e+00) (0, 0, 0.00000000000000000000e+00) (0, 0, 0.00000000000000000000e+00) (0, 0, 0.00000000000000000000e+00) (0, 0, 0.00000000000000000000e+00) (0, 0, 0.00000000000000000000e+00) (0, 0, 0.00000000000000000000e+00) (0, 0, 0.00000000000000000000e+00) (0, 0, 0.00000000000000000000e+00) (0, 0, 0.00000000000000000000e+00) (0, 0, 0.00000000000000000000e+00) (0, 0, 0.00000000000000000000e+00) (0, 0, 0.00000000000000000000e+00) (0, 0, 0.00000000000000000000e+00) (0, 0, 0.00000000000000000000e+00) (0, 0, 0.00000000000000000000e+00) (0, 0, 0.00000000000000000000e+00) (0, 0, 0.00000000000000000000e+00) (0, 0, 0.00000000000000000000e+00) (0, 0, 0.00000000000000000000e+00) (0, 0, 0.00000000000000000000e+00) (0, 0, 0.00000000000000000000e+00) (0, 0, 0.00000000000000000000e+00) (0, 0, 0.00000000000000000000e+00) (0, 0, 0.00000000000000000000e+00) (0, 0, 0.00000000000000000000e+00) (0, 0, 0.00000000000000000000e+00) (0, 0, 0.00000000000000000000e+00) (0, 0, 0.00000000000000000000e+00) (0, 0, 0.00000000000000000000e+00) (0, 0, 0.00000000000000000000e+00) (0, 0, 0.00000000000000000000e+00) (0, 0, 0.00000000000000000000e+00) (0, 0, 0.00000000000000000000e+00) (0, 0, 0.00000000000000000000e+00) (0, 0, 0.00000000000000000000e+00) (0, 0, 0.00000000000000000000e+00) (0, 0, 0.00000000000000000000e+00) (0, 0, 0.00000000000000000000e+00) (0, 0, 0.00000000000000000000e+00) (0, 0, 0.00000000000000000000e+00) (0, 0, 0.00000000000000000000e+00) (0, 0, 0.00000000000000000000e+00) (0, 0, 0.00000000000000000000e+00) (0, 0, 0.00000000000000000000e+00) (0, 0, 0.00000000000000000000e+00) (0, 0, 0.00000000000000000000e+00) (0, 0, 0.00000000000000000000e+00) (0, 0, 0.00000000000000000000e+00) (0, 0, 0.00000000000000000000e+00) (0, 0, 0.00000000000000000000e+00) (0, 0, 0.00000000000000000000e+00) (0, 0, 0.00000000000000000000e+00) (0, 0, 0.00000000000000000000e+00) (0, 0, 0.00000000000000000000e+00) (0, 0, 0.00000000000000000000e+00) (0, 0, 0.00000000000000000000e+00) (0, 0, 0.00000000000000000000e+00) (0, 0, 0.00000000000000000000e+00) (0, 0, 0.00000000000000000000e+00) (0, 0, 0.00000000000000000000e+00) (0, 0, 0.00000000000000000000e+00) (0, 0, 0.00000000000000000000e+00) (0, 0, 0.00000000000000000000e+00) (0, 0, 0.00000000000000000000e+00) (0, 0, 0.00000000000000000000e+00) (0, 0, 0.00000000000000000000e+00) (0, 0, 0.00000000000000000000e+00) (0, 0, 0.00000000000000000000e+00) (0, 0, 0.00000000000000000000e+00) (0, 0, 0.00000000000000000000e+00) (0, 0, 0.00000000000000000000e+00) (0, 0, 0.00000000000000000000e+00) (0, 0, 0.00000000000000000000e+00) (0, 0, 0.00000000000000000000e+00) (0, 0, 0.00000000000000000000e+00) (0, 0, 0.00000000000000000000e+00) (0, 0, 0.00000000000000000000e+00) (0, 0, 0.00000000000000000000e+00) (0, 0, 0.00000000000000000000e+00) (0, 0, 0.00000000000000000000e+00) (0, 0, 0.00000000000000000000e+00) (0, 0, 0.00000000000000000000e+00) (0, 0, 0.00000000000000000000e+00) (0, 0, 0.00000000000000000000e+00) (0, 0, 0.00000000000000000000e+00) (0, 0, 0.00000000000000000000e+00) (0, 0, 0.00000000000000000000e+00) (0, 0, 0.00000000000000000000e+00) (0, 0, 0.00000000000000000000e+00) (0, 0, 0.00000000000000000000e+00) (0, 0, 0.00000000000000000000e+00) (0, 0, 0.00000000000000000000e+00) (0, 0, 0.00000000000000000000e+00) (0, 0, 0.00000000000000000000e+00) (0, 0, 0.00000000000000000000e+00) (0, 0, 0.00000000000000000000e+00) (0, 0, 0.00000000000000000000e+00) (0, 0, 0.00000000000000000000e+00) (0, 0, 0.00000000000000000000e+00) (0, 0, 0.00000000000000000000e+00) (0, 0, 0.00000000000000000000e+00) (0, 0, 0.00000000000000000000e+00) (0, 0, 0.00000000000000000000e+00) (0, 0, 0.00000000000000000000e+00) (0, 0, 0.00000000000000000000e+00) (0, 0, 0.00000000000000000000e+00) (0, 0, 0.00000000000000000000e+00) (0, 0, 0.00000000000000000000e+00) (0, 0, 0.00000000000000000000e+00) (0, 0, 0.00000000000000000000e+00) (0, 0, 0.00000000000000000000e+00) (0, 0, 0.00000000000000000000e+00) (0, 0, 0.00000000000000000000e+00) (0, 0, 0.00000000000000000000e+00) (0, 0, 0.00000000000000000000e+00) (0, 0, 0.00000000000000000000e+00) (0, 0, 0.00000000000000000000e+00) (0, 0, 0.00000000000000000000e+00) (0, 0, 0.00000000000000000000e+00) (0, 0, 0.00000000000000000000e+00) (0, 0, 0.00000000000000000000e+00) (0, 0, 0.00000000000000000000e+00) (0, 0, 0.00000000000000000000e+00) (0, 0, 0.00000000000000000000e+00) (0, 0, 0.00000000000000000000e+00) (0, 0, 0.00000000000000000000e+00) (0, 0, 0.00000000000000000000e+00) (0, 0, 0.00000000000000000000e+00) (0, 0, 0.00000000000000000000e+00) (0, 0, 0.00000000000000000000e+00) (0, 0, 0.00000000000000000000e+00) (0, 0, 0.00000000000000000000e+00) (0, 0, 0.00000000000000000000e+00) (0, 0, 0.00000000000000000000e+00) (0, 0, 0.00000000000000000000e+00) (0, 0, 0.00000000000000000000e+00) (0, 0, 0.00000000000000000000e+00) (0, 0, 0.00000000000000000000e+00) (0, 0, 0.00000000000000000000e+00) (0, 0, 0.00000000000000000000e+00) (0, 0, 0.00000000000000000000e+00) (0, 0, 0.00000000000000000000e+00) (0, 0, 0.00000000000000000000e+00) (0, 0, 0.00000000000000000000e+00) (0, 0, 0.00000000000000000000e+00) (0, 0, 0.00000000000000000000e+00) (0, 0, 0.00000000000000000000e+00) (0, 0, 0.00000000000000000000e+00) (0, 0, 0.00000000000000000000e+00) (0, 0, 0.00000000000000000000e+00) (0, 0, 0.00000000000000000000e+00) (0, 0, 0.00000000000000000000e+00) (0, 0, 0.00000000000000000000e+00) (0, 0, 0.00000000000000000000e+00) (0, 0, 0.00000000000000000000e+00) (0, 0, 0.00000000000000000000e+00) (0, 0, 0.00000000000000000000e+00) (0, 0, 0.00000000000000000000e+00) (0, 0, 0.00000000000000000000e+00) (0, 0, 0.00000000000000000000e+00) (0, 0, 0.00000000000000000000e+00) (0, 0, 0.00000000000000000000e+00) (0, 0, 0.00000000000000000000e+00) (0, 0, 0.00000000000000000000e+00) (0, 0, 0.00000000000000000000e+00) (0, 0, 0.00000000000000000000e+00) (0, 0, 0.00000000000000000000e+00) (0, 0, 0.00000000000000000000e+00) (0, 0, 0.00000000000000000000e+00) (0, 0, 0.00000000000000000000e+00) (0, 0, 0.00000000000000000000e+00) (0, 0, 0.00000000000000000000e+00) (0, 0, 0.00000000000000000000e+00) (0, 0, 0.00000000000000000000e+00) (0, 0, 0.00000000000000000000e+00) (0, 0, 0.00000000000000000000e+00) (0, 0, 0.00000000000000000000e+00) (0, 0, 0.00000000000000000000e+00) (0, 0, 0.00000000000000000000e+00) (0, 0, 0.00000000000000000000e+00) (0, 0, 0.00000000000000000000e+00) (0, 0, 0.00000000000000000000e+00) (0, 0, 0.00000000000000000000e+00) (0, 0, 0.00000000000000000000e+00) (0, 0, 0.00000000000000000000e+00) (0, 0, 0.00000000000000000000e+00) (0, 0, 0.00000000000000000000e+00) (0, 0, 0.00000000000000000000e+00) (0, 0, 0.00000000000000000000e+00) (0, 0, 0.00000000000000000000e+00) (0, 0, 0.00000000000000000000e+00) (0, 0, 0.00000000000000000000e+00) (0, 0, 0.00000000000000000000e+00) (0, 0, 0.00000000000000000000e+00) (0, 0, 0.00000000000000000000e+00) (0, 0, 0.00000000000000000000e+00) (0, 0, 0.00000000000000000000e+00) (0, 0, 0.00000000000000000000e+00) (0, 0, 0.00000000000000000000e+00) (0, 0, 0.00000000000000000000e+00) (0, 0, 0.00000000000000000000e+00) (0, 0, 0.00000000000000000000e+00) (0, 0, 0.00000000000000000000e+00) (0, 0, 0.00000000000000000000e+00) (0, 0, 0.00000000000000000000e+00) (0, 0, 0.00000000000000000000e+00) (0, 0, 0.00000000000000000000e+00) (0, 0, 0.00000000000000000000e+00) (0, 0, 0.00000000000000000000e+00) (0, 0, 0.00000000000000000000e+00) (0, 0, 0.00000000000000000000e+00) (0, 0, 0.00000000000000000000e+00) (0, 0, 0.00000000000000000000e+00) (0, 0, 0.00000000000000000000e+00) (0, 0, 0.00000000000000000000e+00) (0, 0, 0.00000000000000000000e+00) (0, 0, 0.00000000000000000000e+00) (0, 0, 0.00000000000000000000e+00) (0, 0, 0.00000000000000000000e+00) (0, 0, 0.00000000000000000000e+00) (0, 0, 0.00000000000000000000e+00) (0, 0, 0.00000000000000000000e+00) (0, 0, 0.00000000000000000000e+00) (0, 0, 0.00000000000000000000e+00) (0, 0, 0.00000000000000000000e+00) (0, 0, 0.00000000000000000000e+00) (0, 0, 0.00000000000000000000e+00) (0, 0, 0.00000000000000000000e+00) (0, 0, 0.00000000000000000000e+00) (0, 0, 0.00000000000000000000e+00) (0, 0, 0.00000000000000000000e+00) (0, 0, 0.00000000000000000000e+00) (0, 0, 0.00000000000000000000e+00) (0, 0, 0.00000000000000000000e+00) (0, 0, 0.00000000000000000000e+00) (0, 0, 0.00000000000000000000e+00) (0, 0, 0.00000000000000000000e+00) (0, 0, 0.00000000000000000000e+00) (0, 0, 0.00000000000000000000e+00) (0, 0, 0.00000000000000000000e+00) (0, 0, 0.00000000000000000000e+00) (0, 0, 0.00000000000000000000e+00) (0, 0, 0.00000000000000000000e+00) (0, 0, 0.00000000000000000000e+00) (0, 0, 0.00000000000000000000e+00) (0, 0, 0.00000000000000000000e+00) (0, 0, 0.00000000000000000000e+00) (0, 0, 0.00000000000000000000e+00) (0, 0, 0.00000000000000000000e+00) (0, 0, 0.00000000000000000000e+00) (0, 0, 0.00000000000000000000e+00) (0, 0, 0.00000000000000000000e+00) (0, 0, 0.00000000000000000000e+00) (0, 0, 0.00000000000000000000e+00) (0, 0, 0.00000000000000000000e+00) (0, 0, 0.00000000000000000000e+00) (0, 0, 0.00000000000000000000e+00) (0, 0, 0.00000000000000000000e+00) (0, 0, 0.00000000000000000000e+00) (0, 0, 0.00000000000000000000e+00) (261, 12, 5.00000000000000000000e-01) (261, 12, 5.00000000000000000000e-01) (261, 12, 5.00000000000000000000e-01) (261, 12, 5.00000000000000000000e-01) (261, 12, 5.00000000000000000000e-01) (261, 12, 5.00000000000000000000e-01) (261, 12, 5.00000000000000000000e-01) (261, 12, 5.00000000000000000000e-01) (261, 12, 5.00000000000000000000e-01) (261, 12, 5.00000000000000000000e-01) (261, 12, 5.00000000000000000000e-01) (261, 12, 5.00000000000000000000e-01) (261, 12, 5.00000000000000000000e-01) (261, 12, 5.00000000000000000000e-01) (261, 12, 5.00000000000000000000e-01) (261, 12, 5.00000000000000000000e-01) (261, 12, 5.00000000000000000000e-01) (261, 12, 5.00000000000000000000e-01) (261, 12, 5.00000000000000000000e-01) (261, 12, 5.00000000000000000000e-01) (261, 12, 5.00000000000000000000e-01) (261, 12, 5.00000000000000000000e-01) (261, 12, 5.00000000000000000000e-01) (261, 12, 5.00000000000000000000e-01) (261, 12, 5.00000000000000000000e-01) (261, 12, 5.00000000000000000000e-01) (261, 12, 5.00000000000000000000e-01) (261, 12, 5.00000000000000000000e-01) (261, 12, 5.00000000000000000000e-01) (261, 12, 5.00000000000000000000e-01) (261, 12, 5.00000000000000000000e-01) (261, 12, 5.00000000000000000000e-01) (261, 12, 5.00000000000000000000e-01) (261, 12, 5.00000000000000000000e-01) (261, 12, 5.00000000000000000000e-01) (261, 12, 5.00000000000000000000e-01) (261, 12, 5.00000000000000000000e-01) (261, 12, 5.00000000000000000000e-01) (261, 12, 5.00000000000000000000e-01) (261, 12, 5.00000000000000000000e-01) (261, 12, 5.00000000000000000000e-01) (261, 12, 5.00000000000000000000e-01) (261, 12, 5.00000000000000000000e-01) (261, 12, 5.00000000000000000000e-01) (261, 12, 5.00000000000000000000e-01) (261, 12, 5.00000000000000000000e-01) (261, 12, 5.00000000000000000000e-01) (261, 12, 5.00000000000000000000e-01) (261, 12, 5.00000000000000000000e-01) (261, 12, 5.00000000000000000000e-01) (261, 12, 5.00000000000000000000e-01) (261, 12, 5.00000000000000000000e-01) (261, 12, 5.00000000000000000000e-01) (261, 12, 5.00000000000000000000e-01) (261, 12, 5.00000000000000000000e-01) (261, 12, 5.00000000000000000000e-01) (261, 12, 5.00000000000000000000e-01) (261, 12, 5.00000000000000000000e-01) (261, 12, 5.00000000000000000000e-01) (261, 12, 5.00000000000000000000e-01) (261, 12, 5.00000000000000000000e-01) (261, 12, 5.00000000000000000000e-01) (261, 12, 5.00000000000000000000e-01) (261, 12, 5.00000000000000000000e-01) (261, 12, 5.00000000000000000000e-01) (261, 12, 5.00000000000000000000e-01) (261, 12, 5.00000000000000000000e-01) (261, 12, 5.00000000000000000000e-01) (261, 12, 5.00000000000000000000e-01) (261, 12, 5.00000000000000000000e-01) (261, 12, 5.00000000000000000000e-01) (261, 12, 5.00000000000000000000e-01) (261, 12, 5.00000000000000000000e-01) (261, 12, 5.00000000000000000000e-01) (261, 12, 5.00000000000000000000e-01) (261, 12, 5.00000000000000000000e-01) (261, 12, 5.00000000000000000000e-01) (261, 12, 5.00000000000000000000e-01) (261, 12, 5.00000000000000000000e-01) (261, 12, 5.00000000000000000000e-01) (261, 12, 5.00000000000000000000e-01) (261, 12, 5.00000000000000000000e-01) (261, 12, 5.00000000000000000000e-01) (261, 12, 5.00000000000000000000e-01) (261, 12, 5.00000000000000000000e-01) (261, 12, 5.00000000000000000000e-01) (261, 12, 5.00000000000000000000e-01) (261, 12, 5.00000000000000000000e-01) (261, 12, 5.00000000000000000000e-01) (261, 12, 5.00000000000000000000e-01) (261, 12, 5.00000000000000000000e-01) (261, 12, 5.00000000000000000000e-01) (261, 12, 5.00000000000000000000e-01) (261, 12, 5.00000000000000000000e-01) (261, 12, 5.00000000000000000000e-01) (261, 12, 5.00000000000000000000e-01) (261, 12, 5.00000000000000000000e-01) (261, 12, 5.00000000000000000000e-01) (261, 12, 5.00000000000000000000e-01) (261, 12, 5.00000000000000000000e-01) (261, 12, 5.00000000000000000000e-01) (261, 12, 5.00000000000000000000e-01) (261, 12, 5.00000000000000000000e-01) (261, 12, 5.00000000000000000000e-01) (261, 12, 5.00000000000000000000e-01) (261, 12, 5.00000000000000000000e-01) (261, 12, 5.00000000000000000000e-01) (261, 12, 5.00000000000000000000e-01) (261, 12, 5.00000000000000000000e-01) (261, 12, 5.00000000000000000000e-01) (0, 12, 0.00000000000000000000e+00) (111, 12, 5.00000000000000000000e-01) (111, 12, 5.00000000000000000000e-01) (111, 12, 5.00000000000000000000e-01) (111, 12, 5.00000000000000000000e-01) (111, 12, 5.00000000000000000000e-01) (111, 12, 5.00000000000000000000e-01) (111, 12, 5.00000000000000000000e-01) (111, 12, 5.00000000000000000000e-01) (111, 12, 5.00000000000000000000e-01) (111, 12, 5.00000000000000000000e-01) (111, 12, 5.00000000000000000000e-01) (111, 12, 5.00000000000000000000e-01) (111, 12, 5.00000000000000000000e-01) (111, 12, 5.00000000000000000000e-01) (111, 12, 5.00000000000000000000e-01) (111, 12, 5.00000000000000000000e-01) (111, 12, 5.00000000000000000000e-01) (111, 12, 5.00000000000000000000e-01) (111, 12, 5.00000000000000000000e-01) (111, 12, 5.00000000000000000000e-01) (111, 12, 5.00000000000000000000e-01) (111, 12, 5.00000000000000000000e-01) (111, 12, 5.00000000000000000000e-01) (111, 12, 5.00000000000000000000e-01) (111, 12, 5.00000000000000000000e-01) (111, 12, 5.00000000000000000000e-01) (111, 12, 5.00000000000000000000e-01) (111, 12, 5.00000000000000000000e-01) (111, 12, 5.00000000000000000000e-01) (111, 12, 5.00000000000000000000e-01) (111, 12, 5.00000000000000000000e-01) (111, 12, 5.00000000000000000000e-01) (111, 12, 5.00000000000000000000e-01) (111, 12, 5.00000000000000000000e-01) (111, 12, 5.00000000000000000000e-01) (111, 12, 5.00000000000000000000e-01) (111, 12, 5.00000000000000000000e-01) (111, 12, 5.00000000000000000000e-01) (111, 12, 5.00000000000000000000e-01) (111, 12, 5.00000000000000000000e-01) (111, 12, 5.00000000000000000000e-01) (111, 12, 5.00000000000000000000e-01) (111, 12, 5.00000000000000000000e-01) (111, 12, 5.00000000000000000000e-01) (111, 12, 5.00000000000000000000e-01) (111, 12, 5.00000000000000000000e-01) (111, 12, 5.00000000000000000000e-01) (111, 12, 5.00000000000000000000e-01) (111, 12, 5.00000000000000000000e-01) (111, 12, 5.00000000000000000000e-01) (111, 12, 5.00000000000000000000e-01) (111, 12, 5.00000000000000000000e-01) (0, 12, 0.00000000000000000000e+00) 
connections (connected_to_neuron, weight)=(0, -4.39969476829685106622e+02) (1, -6.95136473284559633612e+03) (2, 1.50000000000000000000e+03) (3, -5.74913455210674601403e+03) (4, 1.50000000000000000000e+03) (5, 1.50000000000000000000e+03) (6, -7.38391816518214454845e+03) (7, -6.49865139766840911761e+03) (8, -1.36438197810220426618e+04) (9, -3.61235221756137525517e+03) (10, -4.55020458089080148056e+03) (11, -1.02841425534356385469e+04) (12, -4.81894992482593715977e+03) (13, -2.47081335569015664078e+03) (14, -1.20491064852881413572e+03) (15, 1.50000000000000000000e+03) (16, -2.50375960957555889763e+03) (17, -1.33448901396153196401e+04) (18, -9.99611077124770304181e+02) (19, 1.50000000000000000000e+03) (20, 1.50000000000000000000e+03) (21, 1.50000000000000000000e+03) (22, 1.50000000000000000000e+03) (23, 1.50000000000000000000e+03) (24, -2.32633170976582096046e+03) (25, -1.74240190690169328036e+02) (26, -3.14464967089707101877e+02) (27, -8.84617157600932296191e+03) (28, 1.50000000000000000000e+03) (29, 1.50000000000000000000e+03) (30, 1.50000000000000000000e+03) (31, 1.50000000000000000000e+03) (32, -1.59266475037199015787e+04) (33, 1.34319262969747524039e+03) (34, -2.47949202475898482589e+03) (35, -1.71631331422214134363e+03) (36, -4.42685864614165711828e+03) (37, 1.50000000000000000000e+03) (38, 1.50000000000000000000e+03) (39, 1.50000000000000000000e+03) (40, -1.21303178780421640113e+04) (41, -1.20011969694392955716e+04) (42, 1.50000000000000000000e+03) (43, -4.41176903174693325127e+03) (44, -5.60426758607275496615e+03) (45, 1.50000000000000000000e+03) (46, 1.50000000000000000000e+03) (47, -8.61320574407375352166e+03) (48, -5.64198657027507397288e+03) (49, -2.21118678398898191517e+04) (50, 1.31704717304293649249e+03) (51, 1.50000000000000000000e+03) (52, -1.03062542184609792457e+04) (53, -8.01184567776462517941e+03) (54, 1.50000000000000000000e+03) (55, -9.86239101877341568070e+02) (56, 1.50000000000000000000e+03) (57, -4.96828312422540238913e+03) (58, 1.50000000000000000000e+03) (59, 1.50000000000000000000e+03) (60, -9.04616154625270246470e+03) (61, 1.50000000000000000000e+03) (62, -5.00292805890063209517e+03) (63, -8.43295526678399255616e+03) (64, 1.04804493959487194843e+03) (65, -7.41678919335878345009e+03) (66, -6.28550358540406614338e+03) (67, -1.22831547831026146014e+04) (68, 1.50000000000000000000e+03) (69, 1.50000000000000000000e+03) (70, -7.29328549335872708070e+02) (71, 1.50000000000000000000e+03) (72, -1.05924911536802341061e+02) (73, -1.10572242064448892052e+03) (74, -7.83992365858169068815e+03) (75, -2.88131014931304116544e+03) (76, -1.85684333870790578658e+03) (77, 1.50000000000000000000e+03) (78, 1.50000000000000000000e+03) (79, -7.18437741074457517243e+03) (80, -3.00112594117333173926e+03) (81, -3.25870233618950733216e+04) (82, 1.50000000000000000000e+03) (83, -5.49335923490570621652e+03) (84, -5.21497586400990167022e+03) (85, -5.51398152023235525121e+03) (86, -4.16726901235627883580e+03) (87, -1.34578251583622532053e+04) (88, -1.57777866151020698453e+04) (89, 1.50000000000000000000e+03) (90, 1.50000000000000000000e+03) (91, 1.50000000000000000000e+03) (92, 1.50000000000000000000e+03) (93, -1.50633407789272168884e+04) (94, -7.17877114423331022408e+03) (95, 5.00132525953556125842e+02) (96, 1.50000000000000000000e+03) (97, -1.80763026691872283891e+02) (98, 1.50000000000000000000e+03) (99, -1.34268248281313590269e+04) (100, -1.41742864942778105615e+04) (101, -1.43881955389723680128e+04) (102, -1.54208605993975288584e+03) (103, 1.50000000000000000000e+03) (104, -8.37542570662359321432e+03) (105, -2.74170709080391134194e+03) (106, -6.78669335943590431270e+03) (107, 1.50000000000000000000e+03) (108, -8.56838385004882002249e+03) (109, -1.43055039079798189050e+03) (110, -7.80484720380927410588e+03) (111, 5.86225681071158874147e+02) (112, -9.03611629715994968137e+03) (113, 1.12226819493748121204e+03) (114, -1.40378789727755446393e+02) (115, -7.49245023345863387476e+02) (116, -1.04461419702231501105e+03) (117, 1.50000000000000000000e+03) (118, 1.50000000000000000000e+03) (119, 4.95341771056524962091e+01) (120, 1.50000000000000000000e+03) (121, -1.88781203029094576777e+04) (122, -8.30283489674678776282e+02) (123, -6.31966766073540838988e+03) (124, -2.64638135955913776343e+03) (125, 1.50000000000000000000e+03) (126, 1.50000000000000000000e+03) (127, 1.50000000000000000000e+03) (128, 1.50000000000000000000e+03) (129, -1.28672460990751346799e+03) (130, -6.64146399864744398656e+03) (131, -6.23300245924231967365e+03) (132, 1.50000000000000000000e+03) (133, 1.50000000000000000000e+03) (134, -4.73686015318717818445e+03) (135, -3.95205152877148157131e+03) (136, -5.04206734074606538343e+03) (137, -3.62226435441673811511e+03) (138, -9.18810495886508761032e+03) (139, -3.15580159479902067687e+03) (140, 1.50000000000000000000e+03) (141, -6.71272156446132248675e+03) (142, 1.50000000000000000000e+03) (143, -4.53965526182250141574e+03) (144, 1.50000000000000000000e+03) (145, -1.45902529532204334828e+04) (146, -9.13972828010343982896e+03) (147, 1.50000000000000000000e+03) (148, -6.62888396398653185315e+03) (149, -1.03169328775893027341e+04) (150, -4.49635658906578373717e+03) (151, -5.65822086800097167725e+03) (152, 1.50000000000000000000e+03) (153, -6.71739256496162761323e+03) (154, -6.13224915337607853871e+03) (155, 4.16080083716842068497e+02) (156, -2.11647135137158193174e+03) (157, -2.02569688160053124193e+03) (158, 1.50000000000000000000e+03) (159, 1.50000000000000000000e+03) (160, 1.05559230828401837243e+03) (161, -1.42823973256069602940e+04) (162, -1.09805879152119705395e+04) (163, 1.50000000000000000000e+03) (164, -3.20247484471027291875e+02) (165, -7.79520479761903334293e+03) (166, -7.76165908725089934705e+02) (167, -3.88304920808082260919e+03) (168, -6.24764011164343264682e+03) (169, -2.62058329769208603466e+03) (170, 1.50000000000000000000e+03) (171, -5.79746732496844288107e+03) (172, 2.14287754775445932864e+02) (173, -1.04044709707112524484e+04) (174, 1.12503444488690252001e+03) (175, 1.43069737144232703940e+03) (176, 1.06543008998843038171e+03) (177, -5.02122457967308946536e+03) (178, 1.50000000000000000000e+03) (179, -1.10773705460214387131e+04) (180, -1.51171673912248775196e+03) (181, 1.50000000000000000000e+03) (182, 7.30708105723388712249e+00) (183, -3.16508845487754160786e+03) (184, 1.50000000000000000000e+03) (185, -6.37475942488760574633e+03) (186, -6.18752987854430102743e+03) (187, -7.95073028554298252857e+03) (188, -3.65490107341292969068e+03) (189, 1.50000000000000000000e+03) (190, -1.11229647840342258860e+04) (191, -6.71324622259055649920e+03) (192, 1.50000000000000000000e+03) (193, -3.09980318970136352164e+02) (194, -2.11929474295196405365e+03) (195, -1.67238786200748336341e+03) (196, 1.50000000000000000000e+03) (197, -1.45261795060099284456e+04) (198, 1.50000000000000000000e+03) (199, 1.50000000000000000000e+03) (200, -8.72761565369410709536e+03) (201, -1.75207956197903467910e+03) (202, -5.29925725130003047525e+03) (203, -2.54998684159669683140e+04) (204, -1.82094220108689842164e+04) (205, 5.72722721830791329012e+02) (206, 1.50000000000000000000e+03) (207, 1.50000000000000000000e+03) (208, -2.43447989086974439488e+03) (209, -1.79490465724666535152e+02) (210, 1.50000000000000000000e+03) (211, -1.68002423692973497964e+04) (212, -4.11174881431066012283e+02) (213, 1.50000000000000000000e+03) (214, 1.26804325572010202450e+03) (215, 8.80414187376386053074e+02) (216, 1.50000000000000000000e+03) (217, 1.50000000000000000000e+03) (218, -1.15864730153150903789e+04) (219, -1.09786463177854493551e+04) (220, -5.02126610226151933603e+03) (221, 1.50000000000000000000e+03) (222, 1.50000000000000000000e+03) (223, -3.49871290113746510997e+02) (224, -3.65814363436548092068e+03) (225, -2.81985658295935390925e+04) (226, 2.16414985886157666073e+02) (227, -1.24721762054674327374e+04) (228, -5.92121224723740851914e+03) (229, -8.92269102246442230353e+02) (230, 2.09991186311030418210e+02) (231, -3.32360467812689694256e+03) (232, -5.85152561435581810656e+03) (233, -1.54546501618877227884e+04) (234, -7.35643169231192950974e+03) (235, -7.46315008591032255936e+03) (236, 1.50000000000000000000e+03) (237, 1.50000000000000000000e+03) (238, -5.90091972200494819845e+03) (239, 1.50000000000000000000e+03) (240, 1.50000000000000000000e+03) (241, 3.82233886561093015644e+02) (242, 1.50000000000000000000e+03) (243, 1.50000000000000000000e+03) (244, -7.84600213322344552580e+03) (245, -3.84973722178859998166e+03) (246, 1.50000000000000000000e+03) (247, 2.97663537129946803361e+02) (248, -1.02942130900601987378e+04) (249, 6.15681903763768474391e+01) (250, -6.83958837313199092023e+03) (251, 1.50000000000000000000e+03) (252, 1.50000000000000000000e+03) (253, 1.50000000000000000000e+03) (254, -5.24146614316494196828e+03) (255, 1.43481583521160587225e+03) (256, 1.50000000000000000000e+03) (257, -1.77164333288491325220e+04) (258, 1.50000000000000000000e+03) (259, -8.10487550024550546368e+03) (260, -1.60869845278743141535e+04) (0, -6.56229592425513055787e+03) (1, 1.50000000000000000000e+03) (2, 1.50000000000000000000e+03) (3, -3.02601456595660692983e+03) (4, 1.50000000000000000000e+03) (5, -1.84772725950513290627e+02) (6, 1.50000000000000000000e+03) (7, -1.47609224524045057478e+04) (8, -1.45709156845680699917e+04) (9, 1.50000000000000000000e+03) (10, -8.65606747791476664133e+03) (11, 1.50000000000000000000e+03) (12, 1.50000000000000000000e+03) (13, 1.50000000000000000000e+03) (14, -2.17967715502888540868e+03) (15, -1.56372263959677752609e+03) (16, 1.30820401893879488853e+03) (17, 1.50000000000000000000e+03) (18, -2.34385971360929033835e+04) (19, -5.51851650000166728205e+02) (20, -2.76466279721995442742e+03) (21, -3.03478885732326216385e+03) (22, -2.24870117890478195477e+03) (23, -3.64435860018511448288e+03) (24, -4.08384774898852310798e+03) (25, -1.39613829323772279167e+04) (26, 1.50000000000000000000e+03) (27, -9.48608859746523739886e+03) (28, 1.93394212507027191350e+02) (29, -2.37191818563249726139e+04) (30, 1.50000000000000000000e+03) (31, 1.50000000000000000000e+03) (32, 1.50000000000000000000e+03) (33, 1.50000000000000000000e+03) (34, -7.38789912655667467334e+03) (35, -1.15742121236148286698e+04) (36, -3.74548082972096835874e+03) (37, -2.96226431452264887412e+03) (38, 1.50000000000000000000e+03) (39, -5.55546771596671624138e+03) (40, 1.50000000000000000000e+03) (41, -1.55522210720915390993e+04) (42, -1.00289280436305871262e+04) (43, 1.50000000000000000000e+03) (44, 1.50000000000000000000e+03) (45, -1.72952753996810643002e+04) (46, -1.00356947903267628135e+04) (47, -1.80870464075324548503e+03) (48, -6.77263947579849354952e+03) (49, -1.73425437655903510858e+03) (50, 1.50000000000000000000e+03) (51, 7.93245103710793955543e+02) (52, -7.14596477243813296809e+03) (53, -1.65749063236248343856e+03) (54, 1.50000000000000000000e+03) (55, -7.81151493990568724257e+03) (56, -3.67088341455871432117e+03) (57, -6.90002153129782618635e+03) (58, 1.50000000000000000000e+03) (59, -8.73585819588200865837e+03) (60, -4.33206211754626656329e+03) (61, -1.33902798595176445815e+04) (62, 1.50000000000000000000e+03) (63, -4.32128899128285411280e+03) (64, 6.86324302528971202264e+02) (65, 1.50000000000000000000e+03) (66, -8.43380321658149114228e+03) (67, 1.50000000000000000000e+03) (68, -9.67864037014777386503e+03) (69, -1.68097797425773751456e+04) (70, -2.79963999055532894999e+03) (71, -9.34441386641076678643e+03) (72, 1.50000000000000000000e+03) (73, 1.50000000000000000000e+03) (74, 1.50000000000000000000e+03) (75, -6.44399219644173081178e+03) (76, -2.54601627782435070912e+03) (77, -7.94929260224646259303e+03) (78, 1.50000000000000000000e+03) (79, -1.23043645927225534251e+04) (80, 1.50000000000000000000e+03) (81, 1.99965585662836775604e+00) (82, -2.35459901398227702884e+04) (83, -7.05996505111482383654e+03) (84, 1.50000000000000000000e+03) (85, 1.50000000000000000000e+03) (86, -1.26487367940508811444e+04) (87, 7.71243070615904343867e+02) (88, -1.19475366616543851706e+04) (89, -6.27384413251913701970e+03) (90, 1.50000000000000000000e+03) (91, 1.50000000000000000000e+03) (92, 1.50000000000000000000e+03) (93, 1.50000000000000000000e+03) (94, -7.10960526547433801170e+03) (95, -8.50558614690428498761e+02) (96, -1.17794300172238054074e+04) (97, -1.05343287153765722906e+04) (98, -2.83052242073159914071e+03) (99, -1.12624963821590827138e+04) (100, 1.26078285335489931640e+03) (101, -4.29818958002143608610e+03) (102, 1.50000000000000000000e+03) (103, -7.21098275366875259351e+03) (104, 1.50000000000000000000e+03) (105, -7.60578319633382125176e+03) (106, -1.65963210590765629604e+03) (107, -6.22996002308831521077e+03) (108, -8.37912545101409159543e+03) (109, 1.50000000000000000000e+03) (110, -1.81916839952046689177e+03) (111, 1.50000000000000000000e+03) (112, 1.50000000000000000000e+03) (113, 1.50000000000000000000e+03) (114, -1.01652469258115470438e+04) (115, -4.44720485991961868422e+03) (116, -1.79687836113465091330e+04) (117, -1.13184013973152887047e+04) (118, -8.73394350339824995899e+02) (119, -1.61512209089125946093e+02) (120, -8.12227520351766179374e+03) (121, -8.60954395114984254178e+03) (122, 1.50000000000000000000e+03) (123, -1.09451358812668786413e+04) (124, -4.42951498564813118719e+03) (125, 1.50000000000000000000e+03) (126, -5.43846450256124080624e+03) (127, 1.46496585317339651056e+02) (128, -2.98859788123620137412e+03) (129, -4.53318042932206208206e+03) (130, -3.16447488654495100491e+03) (131, -1.86463134868638604758e+01) (132, -1.66398463913223099553e+03) (133, -1.18248023153024787462e+04) (134, -3.68774904129306742107e+03) (135, -2.89848286751510931936e+03) (136, -1.04508689169950542919e+02) (137, -1.83455124741066683782e+04) (138, -1.85275029659514484592e+03) (139, 1.50000000000000000000e+03) (140, 1.50000000000000000000e+03) (141, 1.50000000000000000000e+03) (142, -4.96025827879287407995e+03) (143, -1.07294026605368926539e+04) (144, -7.49956510005836571509e+03) (145, -1.01331002860653297830e+04) (146, 1.50000000000000000000e+03) (147, -3.73751360457339114873e+03) (148, -2.91191095157538939020e+03) (149, -1.56237734530445277414e+03) (150, -8.03875916817069992248e+03) (151, -2.69481694423638191438e+03) (152, -1.38992999541305634921e+04) (153, 1.50000000000000000000e+03) (154, 1.50000000000000000000e+03) (155, 1.50000000000000000000e+03) (156, 1.50000000000000000000e+03) (157, 1.50000000000000000000e+03) (158, -9.58544867458959743090e+03) (159, 1.50000000000000000000e+03) (160, -1.44366276939477393171e+04) (161, 1.50000000000000000000e+03) (162, -4.37020403600555800949e+03) (163, -6.36728398580121120176e+03) (164, -1.41212197950380505063e+04) (165, -2.62427668166342868972e+01) (166, -9.86641011178777989699e+03) (167, 1.50000000000000000000e+03) (168, -2.62342713667609450567e+03) (169, -4.80693394859049203660e+03) (170, -6.01011535054154683166e+03) (171, 1.50000000000000000000e+03) (172, -2.32070136348578344041e+04) (173, -8.41083499121279055544e+03) (174, -1.63915690889234538190e+04) (175, 1.50000000000000000000e+03) (176, 1.50000000000000000000e+03) (177, -1.63344667078936549842e+03) (178, -7.38804553882077016169e+03) (179, -6.98842377988218595419e+03) (180, -6.89408883126683349474e+02) (181, -1.53858548857198675250e+04) (182, 1.50000000000000000000e+03) (183, -4.12171227041326517337e+02) (184, -1.02085586417152062495e+04) (185, -4.83900455656193116738e+03) (186, -8.09796765057995344250e+03) (187, -3.47439583470964180378e+03) (188, 1.50000000000000000000e+03) (189, -5.77611362485158679192e+03) (190, 1.50000000000000000000e+03) (191, -1.06596449541624315316e+04) (192, -7.60125963304413926380e+03) (193, 1.50000000000000000000e+03) (194, -3.07808614617089097010e+03) (195, -3.79690066760397212420e+03) (196, -1.03081500858942927152e+04) (197, 1.50000000000000000000e+03) (198, 9.75599910708150446226e+02) (199, -4.99600516632545065931e+02) (200, 1.50000000000000000000e+03) (201, -2.00175189325847736654e+03) (202, -1.00665139409930034162e+04) (203, -9.73690395614537737856e+03) (204, 1.50000000000000000000e+03) (205, -1.72595321596312987822e+03) (206, 1.50000000000000000000e+03) (207, 1.50000000000000000000e+03) (208, -7.98626111743038291024e+03) (209, 1.36925784010649664424e+02) (210, -7.22959839412767632894e+03) (211, 1.50000000000000000000e+03) (212, 1.50000000000000000000e+03) (213, -3.64378677446904293902e+03) (214, -1.32561161948189146642e+04) (215, 9.83920298189667960287e+02) (216, 1.50000000000000000000e+03) (217, -5.73159682005767876944e+02) (218, 1.50000000000000000000e+03) (219, -5.02176000963802289334e+03) (220, 1.50000000000000000000e+03) (221, -4.74104162161482781812e+03) (222, 1.50000000000000000000e+03) (223, 1.50000000000000000000e+03) (224, 1.50000000000000000000e+03) (225, 1.50000000000000000000e+03) (226, -4.93291430647721313107e+02) (227, 1.50000000000000000000e+03) (228, 1.50000000000000000000e+03) (229, -8.60845848505725189170e+03) (230, -8.75217373959876749723e+03) (231, -1.48606821552248061380e+03) (232, 2.89461468815059845383e+02) (233, -2.68616160908971687604e+03) (234, -4.94687936866525888036e+03) (235, -1.14384369780612928480e+03) (236, 1.50000000000000000000e+03) (237, -1.42782598346706636221e+04) (238, -1.40651016764017731475e+03) (239, -7.27448494397273771028e+03) (240, -1.10134244953942106804e+04) (241, -1.10747464112039438078e+03) (242, 1.50000000000000000000e+03) (243, -3.65925089492017468729e+03) (244, -1.05394229757689317921e+04) (245, -4.07621047572578561358e+02) (246, 1.50000000000000000000e+03) (247, -2.03096007879579974542e+03) (248, -5.57336084439686783298e+03) (249, -8.06569193758210985834e+03) (250, -1.83171698704990262740e+03) (251, -9.96041755130213277880e+03) (252, 1.50000000000000000000e+03) (253, 1.03526311710857021353e+03) (254, 1.50000000000000000000e+03) (255, 1.50000000000000000000e+03) (256, -1.66088598722760507371e+04) (257, -1.99309347777411858260e+02) (258, -8.18756558121601392486e+03) (259, -1.80783798686341688153e+04) (260, -1.77723317170773698308e+04) (0, 1.50000000000000000000e+03) (1, -5.21368938847115896351e+03) (2, 1.50000000000000000000e+03) (3, -1.64218285920375128626e+04) (4, -6.75181022051125296457e+02) (5, 1.50000000000000000000e+03) (6, 1.16923255127180993895e+02) (7, -4.14230960540458363539e+03) (8, -1.69327202880884624392e+03) (9, -2.09251125752752659537e+03) (10, 1.50000000000000000000e+03) (11, 1.50000000000000000000e+03) (12, -9.16643590106377996563e+03) (13, -1.15360973077379203460e+04) (14, -1.67394177798046803218e+03) (15, 1.50000000000000000000e+03) (16, 1.50000000000000000000e+03) (17, -1.92582857316466033808e+04) (18, 1.50000000000000000000e+03) (19, -4.10202369395126788731e+03) (20, -1.06819264219722954294e+04) (21, -1.27632359797936696850e+04) (22, -8.58501969736694991298e+03) (23, 1.50000000000000000000e+03) (24, -1.49369015184190834589e+03) (25, 1.50000000000000000000e+03) (26, -1.25526538849007047247e+04) (27, -1.10904527792124172265e+04) (28, -5.84424471512440777587e+03) (29, 9.14741702498668374233e+00) (30, -5.85111094179797237302e+03) (31, -2.07997542949095532094e+02) (32, 1.50000000000000000000e+03) (33, -1.57258285301235755469e+04) (34, -1.55980851409989827516e+04) (35, -1.92294318223843620217e+04) (36, 1.50000000000000000000e+03) (37, 1.50000000000000000000e+03) (38, 1.50000000000000000000e+03) (39, -2.00174662547163534327e+04) (40, -9.33040525705315667437e+03) (41, -1.64145840215631574210e+03) (42, -1.26365035267463954369e+04) (43, -1.37402707215839632227e+03) (44, -1.95500609076048640418e+04) (45, 1.50000000000000000000e+03) (46, 1.47464088918538527651e+03) (47, 1.50000000000000000000e+03) (48, -1.10971385153400187846e+04) (49, -1.11774224768611270520e+03) (50, 1.50000000000000000000e+03) (51, -9.12259061859325993282e+03) (52, 1.50000000000000000000e+03) (53, 1.50000000000000000000e+03) (54, -1.55872270403901839018e+04) (55, 1.50000000000000000000e+03) (56, -6.41745349358208613921e+02) (57, -1.07527473319399741740e+04) (58, 1.50000000000000000000e+03) (59, 1.61515728831338577720e+02) (60, 4.22156813793027254178e+02) (61, -1.13274008063027413300e+04) (62, 1.50000000000000000000e+03) (63, -1.92445534733716704068e+04) (64, -1.42276256134842078609e+04) (65, 1.50000000000000000000e+03) (66, -8.45626864941629901296e+03) (67, 1.50000000000000000000e+03) (68, -2.29272423166700427828e+04) (69, -3.80156724678689570283e+04) (70, 1.36626959082027724435e+03) (71, -1.17019471109007881751e+04) (72, -6.24823878276073173765e+03) (73, -7.49445528060018841643e+03) (74, 1.08023252070772082334e+03) (75, -1.60624309511692499655e+04) (76, 9.26716898909549172458e+02) (77, -1.06671986348160407942e+04) (78, -7.43989031781467383553e+03) (79, 1.50000000000000000000e+03) (80, -7.24090746222664620291e+03) (81, 1.50000000000000000000e+03) (82, -1.84402821080594658270e+04) (83, -4.93285042932431679219e+03) (84, 1.50000000000000000000e+03) (85, 1.50000000000000000000e+03) (86, -3.23497372393993714468e+02) (87, 1.50000000000000000000e+03) (88, 1.50000000000000000000e+03) (89, 1.50000000000000000000e+03) (90, -7.88383059814745479343e+00) (91, 1.50000000000000000000e+03) (92, -9.01906101468863016635e+03) (93, 1.50000000000000000000e+03) (94, -6.51725128256574225816e+03) (95, 1.50000000000000000000e+03) (96, -7.90193753231599293940e+03) (97, -4.53127451940090850258e+02) (98, -5.74436709924841615305e+00) (99, 1.50000000000000000000e+03) (100, 1.50000000000000000000e+03) (101, -1.12893184036900292995e+04) (102, -6.63259144659383423459e+02) (103, 5.62573137819462886000e+02) (104, 1.50000000000000000000e+03) (105, -9.13571439642613950127e+03) (106, -1.30193923954748224787e+04) (107, -5.35003582250931867748e+03) (108, 1.50000000000000000000e+03) (109, -4.90262194188558260066e+03) (110, -9.46409465230142450309e+03) (111, 1.50000000000000000000e+03) (112, 6.26162565382233424316e+02) (113, 1.50000000000000000000e+03) (114, 1.50000000000000000000e+03) (115, -2.26118302351819475007e+04) (116, 1.12853722871162659658e+02) (117, -1.54915098444538853073e+03) (118, 6.86514309679728739866e+02) (119, -3.32968540877840041503e+03) (120, 4.57343103563372551434e+02) (121, 1.50000000000000000000e+03) (122, 6.17175911371101278746e+02) (123, 1.50000000000000000000e+03) (124, -2.74737287871457419897e+03) (125, -1.83060084351286568563e+04) (126, 1.50000000000000000000e+03) (127, 2.43572124129978647034e+02) (128, -1.48170654844193340978e+04) (129, 1.50000000000000000000e+03) (130, -2.70321680077898126910e+04) (131, 1.50000000000000000000e+03) (132, -8.53811142653560455074e+03) (133, -2.66407788146378989040e+04) (134, -3.31100880354225182600e+03) (135, -8.71632049269398885372e+03) (136, -3.19463895609947803678e+03) (137, 1.50000000000000000000e+03) (138, 1.50000000000000000000e+03) (139, 1.00355618687481324969e+02) (140, -7.63886566593469888176e+03) (141, -1.24557041553401541023e+03) (142, 1.50000000000000000000e+03) (143, -4.08461934791342173412e+03) (144, -4.84436378546409287082e+03) (145, 1.50000000000000000000e+03) (146, 1.50000000000000000000e+03) (147, 1.89977529583827845272e+02) (148, 1.00261674083537434399e+03) (149, -7.25400134835666358413e+03) (150, -1.04216946230477788049e+04) (151, 1.50000000000000000000e+03) (152, 1.50000000000000000000e+03) (153, -8.40744527411701528763e+03) (154, -1.32918966685178238549e+04) (155, -1.08473006203371151059e+04) (156, 1.50000000000000000000e+03) (157, 1.50000000000000000000e+03) (158, -8.93662676351987647649e+03) (159, 1.50000000000000000000e+03) (160, -1.26518830779224281287e+04) (161, 2.61234769229621804243e+02) (162, 1.50000000000000000000e+03) (163, -1.58204320817107709445e+04) (164, 1.50000000000000000000e+03) (165, -1.06882821878281774843e+04) (166, -8.77597325508824542339e+03) (167, -7.80921706186194478505e+03) (168, -1.83850387826481528464e+03) (169, 1.50000000000000000000e+03) (170, 1.50000000000000000000e+03) (171, -1.71627796475379764161e+04) (172, 1.50000000000000000000e+03) (173, 1.50000000000000000000e+03) (174, -1.48833565627800198854e+04) (175, 1.50000000000000000000e+03) (176, -1.94632757935809277114e+04) (177, -7.62901548031995025667e+03) (178, 1.50000000000000000000e+03) (179, 1.50000000000000000000e+03) (180, 1.50000000000000000000e+03) (181, 2.48254778250065697875e+02) (182, -1.68534688196390488883e+04) (183, 1.50000000000000000000e+03) (184, 1.50000000000000000000e+03) (185, 1.50000000000000000000e+03) (186, -3.39113961587508083539e+03) (187, 1.50000000000000000000e+03) (188, -1.09532437107945479511e+04) (189, -2.15332321583871926123e+04) (190, 1.50000000000000000000e+03) (191, 1.50000000000000000000e+03) (192, -4.26416296958315069787e+03) (193, 5.09500191087644680010e+02) (194, -1.02653778320772016741e+04) (195, -1.73277385695740622396e+03) (196, -2.87824170028667576844e+04) (197, -1.27505213550853022753e+03) (198, -1.53764978541299460630e+04) (199, -1.94488810490613104776e+04) (200, -1.55588250363320930774e+04) (201, 1.50000000000000000000e+03) (202, 1.50000000000000000000e+03) (203, -1.57965902505267195011e+03) (204, 1.50000000000000000000e+03) (205, 3.02906521703434350457e+02) (206, -9.28151601868548277707e+03) (207, -3.49641609789790527429e+03) (208, -8.59104274792264186544e+03) (209, 1.23321415588018271592e+03) (210, -4.30393758606392384536e+03) (211, -5.94762578557792585343e+03) (212, 1.50000000000000000000e+03) (213, -8.75822464732379194174e+03) (214, 1.50000000000000000000e+03) (215, -1.44341265094213922566e+04) (216, -1.47174041567813092115e+04) (217, 1.50000000000000000000e+03) (218, 1.50000000000000000000e+03) (219, -1.70765005893610723433e+04) (220, 1.50000000000000000000e+03) (221, -1.29488373608003257687e+04) (222, -3.28180495112913285993e+03) (223, 1.50000000000000000000e+03) (224, 1.50000000000000000000e+03) (225, 1.50000000000000000000e+03) (226, -3.92539505618697887712e+02) (227, 1.92456842157791157888e+02) (228, 1.50000000000000000000e+03) (229, 1.50000000000000000000e+03) (230, 1.50000000000000000000e+03) (231, -1.23727300797226644136e+03) (232, 1.50000000000000000000e+03) (233, -2.97247292900164893581e+03) (234, -4.29849880228662823356e+03) (235, 1.50000000000000000000e+03) (236, -1.63869848210031741473e+04) (237, -2.84445167893495499811e+03) (238, -2.77504984797585393608e+03) (239, -1.75405302543294851603e+03) (240, -1.66304123877351921692e+04) (241, -5.80640195207359010965e+03) (242, 1.50000000000000000000e+03) (243, 1.50000000000000000000e+03) (244, -6.03014282529773390706e+03) (245, -5.58011505187150942220e+03) (246, -2.55161411689816941362e+03) (247, -1.00673898940081471665e+04) (248, 1.50000000000000000000e+03) (249, -2.46481733021668951551e+04) (250, 1.50000000000000000000e+03) (251, -1.68003621060034811308e+03) (252, 1.50000000000000000000e+03) (253, -4.11064672135847285972e+03) (254, -2.21878790020953283602e+03) (255, 1.50000000000000000000e+03) (256, -9.35199496294925302209e+03) (257, -3.09373853752499417169e+03) (258, -1.11315689941604669002e+04) (259, -8.93599334843032920617e+03) (260, -2.04609621144750017265e+04) (0, -5.84813325107216132892e+03) (1, -1.46350174227763909585e+03) (2, -3.51266398598849582413e+03) (3, -8.98346122075917446637e+03) (4, 1.50000000000000000000e+03) (5, 1.50000000000000000000e+03) (6, 1.50000000000000000000e+03) (7, 1.50000000000000000000e+03) (8, -7.16710810736289386114e+03) (9, -6.46079375840295597300e+02) (10, -1.11043539550268669700e+04) (11, -6.94682907844700912392e+03) (12, 1.50000000000000000000e+03) (13, -6.26961525561579605892e+02) (14, -6.57174095081044106337e+03) (15, -9.65889504929044051096e+02) (16, 1.50000000000000000000e+03) (17, -6.00926054430359636171e+03) (18, -6.34162856826372353680e+03) (19, 1.50000000000000000000e+03) (20, 1.48965381598289923204e+03) (21, -4.90554406221849239955e+03) (22, -6.63354494729628459027e+03) (23, -1.39388172396650452356e+03) (24, -9.67804707192712157848e+03) (25, 1.50000000000000000000e+03) (26, -6.83560256719424432958e+03) (27, -1.95195729721720363159e+03) (28, 1.50000000000000000000e+03) (29, -2.80913295375125335340e+03) (30, 1.50000000000000000000e+03) (31, 1.50000000000000000000e+03) (32, -7.02952494321277845302e+03) (33, -1.04789104313458883553e+04) (34, -6.28381700265590097843e+03) (35, 1.50000000000000000000e+03) (36, -4.26554560475609014247e+03) (37, 1.50000000000000000000e+03) (38, 1.50000000000000000000e+03) (39, -7.07569098451572699560e+03) (40, -2.61028120428107456519e+02) (41, -1.45970749965387640259e+04) (42, -7.54996219772102904244e+03) (43, 7.63257100522352175176e+02) (44, -1.92232088471131010010e+03) (45, 1.50000000000000000000e+03) (46, -1.27770789230341392795e+03) (47, -1.77687993176101076642e+03) (48, -7.31433435275025021838e+03) (49, -1.00527269257040479715e+04) (50, -8.53513368481431098189e+03) (51, 1.50000000000000000000e+03) (52, 6.67136081196444365560e+02) (53, 1.50000000000000000000e+03) (54, 1.50000000000000000000e+03) (55, -1.74629470778824526178e+02) (56, 1.50000000000000000000e+03) (57, -1.58465886127927069538e+03) (58, 1.50000000000000000000e+03) (59, -1.45027609783064872317e+03) (60, 1.50000000000000000000e+03) (61, -2.70666624444378976477e+03) (62, 1.50000000000000000000e+03) (63, -1.09166734404141570849e+04) (64, 1.50000000000000000000e+03) (65, -4.04209930592636374058e+03) (66, -4.51079065339298813342e+03) (67, 8.48079316833971574852e+02) (68, -5.37353455033766931592e+03) (69, -1.12552893611755334859e+04) (70, 1.50000000000000000000e+03) (71, -5.43244667857471995376e+02) (72, -1.86273681078964250446e+03) (73, 7.55254247805296017759e+02) (74, -1.21778444563681041473e+04) (75, -9.10718048539468691160e+03) (76, -4.56335209905641931982e+03) (77, -4.61857717987086016365e+03) (78, -4.85110326817801887955e+03) (79, -1.48810601200939981936e+04) (80, -4.18322964192606832512e+03) (81, -1.85202087224319839152e+04) (82, 6.20175993865527814819e+01) (83, -1.91069157921309465564e+03) (84, 1.50000000000000000000e+03) (85, -6.47059364063443990744e+03) (86, -4.69127409073002218065e+03) (87, -6.91019825528073033638e+03) (88, 1.50000000000000000000e+03) (89, 1.50000000000000000000e+03) (90, 1.50000000000000000000e+03) (91, 1.50000000000000000000e+03) (92, -3.89557753398522982025e+03) (93, -1.44431327261208061827e+04) (94, -2.17558543399113113992e+03) (95, 1.50000000000000000000e+03) (96, -3.98217926268292512759e+03) (97, -5.43119407566409608989e+03) (98, 1.50000000000000000000e+03) (99, -1.53965563547297351761e+04) (100, 1.50000000000000000000e+03) (101, -4.07429403082226781407e+03) (102, -1.35917641444250961058e+02) (103, 1.50000000000000000000e+03) (104, -4.40546021783225205581e+03) (105, -9.10814101370818775649e+02) (106, -4.29658543634448142257e+03) (107, -1.53993200966043859808e+04) (108, -6.82193120670176358544e+03) (109, -3.30740810727612370101e+02) (110, -3.68800103396280110246e+03) (111, 1.50000000000000000000e+03) (112, -6.54010679297428305290e+03) (113, -1.08686146542389487877e+04) (114, -3.25284553100372249901e+03) (115, 8.23480017397926076228e+02) (116, -7.20371506350136769470e+03) (117, 1.50000000000000000000e+03) (118, -3.77407308903913963150e+03) (119, 1.50000000000000000000e+03) (120, 1.50000000000000000000e+03) (121, -8.33702752818784210831e+03) (122, -4.56521372276956753922e+02) (123, -6.77038058010333656966e+02) (124, 1.24951289628852941860e+03) (125, -4.19909054272295998089e+03) (126, 1.32175683284496517444e+03) (127, -7.05761553024002932943e+03) (128, 1.50000000000000000000e+03) (129, -3.53460521584260686723e+03) (130, -1.09026805010238058458e+04) (131, 1.04374719573129254968e+03) (132, -3.79152554413901816588e+03) (133, -7.25053209959394280304e+03) (134, -2.83456850566609182351e+03) (135, 1.50000000000000000000e+03) (136, -1.62498285588060616647e+03) (137, 1.50000000000000000000e+03) (138, -1.18806719547867833171e+04) (139, 7.69172062391095550993e+02) (140, 1.50000000000000000000e+03) (141, -4.02154309277676020429e+03) (142, 1.50000000000000000000e+03) (143, 1.50000000000000000000e+03) (144, 1.50000000000000000000e+03) (145, 1.50000000000000000000e+03) (146, -7.21453290370137074206e+03) (147, 6.10324175141923660703e+02) (148, 1.50000000000000000000e+03) (149, 6.68421586220334802420e+02) (150, -7.07751967405953746493e+03) (151, 1.50000000000000000000e+03) (152, -8.33603400231435807655e+03) (153, -5.62341664105571999244e+03) (154, 1.50000000000000000000e+03) (155, -4.47928584015523665585e+03) (156, 1.50000000000000000000e+03) (157, 1.50000000000000000000e+03) (158, -5.69672958967610247782e+03) (159, 1.50000000000000000000e+03) (160, -8.77899044486431648693e+02) (161, 1.50000000000000000000e+03) (162, 1.50000000000000000000e+03) (163, 1.50000000000000000000e+03) (164, -8.93250353972387529211e+03) (165, -6.93117217182543481613e+03) (166, -9.81188588627621902560e+03) (167, -7.67711217459246199724e+02) (168, -6.80538360921606999909e+03) (169, -7.20483402333657159033e+03) (170, 1.50000000000000000000e+03) (171, 6.36390168479461635798e+02) (172, -5.26737857957310825441e+03) (173, -7.09121994990533676173e+03) (174, 1.50000000000000000000e+03) (175, 1.50000000000000000000e+03) (176, 1.50000000000000000000e+03) (177, -1.04533198405167713645e+04) (178, -2.45063560976107373790e+03) (179, -9.42605541113748040516e+03) (180, -4.40246582593887251278e+03) (181, -7.79100341488552840019e+03) (182, -1.49370358887956608669e+04) (183, -1.16899220704083882083e+03) (184, -4.25043117298442666652e+03) (185, -6.94846907914114922278e+02) (186, -5.56002207352068489854e+03) (187, 1.50000000000000000000e+03) (188, 1.50000000000000000000e+03) (189, -1.33421389707261841977e+04) (190, 1.50000000000000000000e+03) (191, 1.50000000000000000000e+03) (192, 1.50000000000000000000e+03) (193, -1.31640885357637171182e+03) (194, -1.22385983818590375449e+02) (195, 1.50000000000000000000e+03) (196, -9.60067975570501403126e+03) (197, -1.16534142678805601463e+04) (198, 1.50000000000000000000e+03) (199, -1.09488267368354481732e+04) (200, -1.42392628968437275034e+04) (201, -1.97340759593640564162e+03) (202, 1.50000000000000000000e+03) (203, -4.48914192797347095620e+03) (204, 5.42440797913786738604e+01) (205, -1.62061388853746689165e+03) (206, -2.70535165676766473553e+03) (207, -1.69697673889500219957e+04) (208, 2.23147743561438659299e+02) (209, 1.50000000000000000000e+03) (210, 3.82711534173439133610e+02) (211, 4.00503976664921481188e+02) (212, -1.34085409839314106648e+04) (213, -1.19367432090148327006e+02) (214, 1.50000000000000000000e+03) (215, -3.14571161221471982117e+02) (216, 1.50000000000000000000e+03) (217, 1.50000000000000000000e+03) (218, -3.44332898888189174613e+03) (219, -2.87683079469495669400e+03) (220, -1.73088774543248800910e+04) (221, -6.52450107226092040946e+03) (222, 1.50000000000000000000e+03) (223, -1.15007100353458135942e+04) (224, 1.50000000000000000000e+03) (225, -4.25996265670790307922e+03) (226, -1.87159498119981981290e+03) (227, 1.50000000000000000000e+03) (228, 1.29831940274078283437e+03) (229, -5.85327427436363632296e+03) (230, -8.86342809740252414485e+03) (231, -3.28281861596474163889e+03) (232, -6.08138938973240874475e+03) (233, -6.97663841995410621166e+03) (234, -2.15023391020319331801e+03) (235, -9.73860063930089563655e+03) (236, -1.11702739549734701541e+03) (237, -1.03449309429638105939e+03) (238, 1.50000000000000000000e+03) (239, 1.50000000000000000000e+03) (240, 1.50000000000000000000e+03) (241, -8.26352676180522212235e+03) (242, 1.50000000000000000000e+03) (243, -1.81039872445072205664e+02) (244, 1.22722374242277192025e+03) (245, -1.66401007384604527033e+04) (246, 1.50000000000000000000e+03) (247, -9.66392991533394524595e+03) (248, -1.21887415227016899735e+04) (249, 1.50000000000000000000e+03) (250, -6.17093180348875011987e+03) (251, -4.92179697663839942834e+03) (252, 1.50000000000000000000e+03) (253, -5.34689247585751763836e+03) (254, 1.50000000000000000000e+03) (255, -2.53462456547057536227e+03) (256, 1.50000000000000000000e+03) (257, -9.89304022380192873243e+03) (258, -3.81373531959249874035e+02) (259, -2.19027493364855445179e+03) (260, -1.37367125247637050052e+04) (0, -1.08808759509678511677e+04) (1, 1.50000000000000000000e+03) (2, 1.50000000000000000000e+03) (3, 1.50000000000000000000e+03) (4, -2.57634799043154771425e+03) (5, -2.74919068815475657175e+03) (6, 1.50000000000000000000e+03) (7, -2.81106889422999347516e+03) (8, 1.50000000000000000000e+03) (9, 1.50000000000000000000e+03) (10, -1.22568585829158964771e+04) (11, -2.67262904979821323650e+04) (12, 1.05157569436819608200e+03) (13, 1.50000000000000000000e+03) (14, 1.50000000000000000000e+03) (15, -1.01165620381194949005e+04) (16, 1.50000000000000000000e+03) (17, 1.50000000000000000000e+03) (18, 1.50000000000000000000e+03) (19, 1.50000000000000000000e+03) (20, 1.50000000000000000000e+03) (21, -1.45490457523164677696e+04) (22, 1.50000000000000000000e+03) (23, 1.50000000000000000000e+03) (24, -1.41036157979835079459e+04) (25, -3.90099667137140704654e+03) (26, -2.78009757846857974073e+04) (27, 1.50000000000000000000e+03) (28, -1.37362003593931403884e+04) (29, -2.16219839002169283049e+04) (30, -6.88002660164936969522e+03) (31, 1.50000000000000000000e+03) (32, -1.40123423532868673647e+04) (33, -1.09900175898111228889e+04) (34, -1.39140851542996861099e+04) (35, 1.50000000000000000000e+03) (36, -7.64000171215110640333e+02) (37, 1.50000000000000000000e+03) (38, -1.37638424379301959561e+04) (39, -1.85602084116011319566e+04) (40, -7.03226085144289118034e+03) (41, -6.73115179078108667454e+03) (42, -2.56507005847177060787e+03) (43, -1.91312584181751153665e+04) (44, -3.59240878402783846468e+03) (45, 1.79630617034791583819e+02) (46, -2.32968952041900365657e+01) (47, -9.66473618806863851205e+03) (48, -3.15383503873768131598e+03) (49, -5.01386272425171046052e+03) (50, -1.18019411237468430045e+04) (51, 1.50000000000000000000e+03) (52, -1.41032182089945272310e+04) (53, -4.28736049431855735747e+03) (54, 1.50000000000000000000e+03) (55, -1.24319988995081403118e+04) (56, 1.50000000000000000000e+03) (57, 1.50000000000000000000e+03) (58, -2.59663068942428344599e+03) (59, -1.73040702716550076730e+04) (60, -4.36723374551610049821e+03) (61, -1.49053335932021473127e+04) (62, -1.13921178256830285136e+03) (63, 1.50000000000000000000e+03) (64, 1.50000000000000000000e+03) (65, 1.50000000000000000000e+03) (66, -9.85136398490975989262e+03) (67, -9.52015108767915262433e+03) (68, 1.50000000000000000000e+03) (69, 1.50000000000000000000e+03) (70, -2.74174546227444943725e+03) (71, -9.58648231509063407429e+02) (72, -1.56104016135075835336e+04) (73, 1.50000000000000000000e+03) (74, -1.15959891952562702500e+04) (75, 2.40234921708732827028e+02) (76, -4.04980460112599848799e+03) (77, 6.94634576792244047283e+02) (78, -1.14638958082427120644e+03) (79, -1.77152001349960592052e+04) (80, -1.86639456527572365303e+04) (81, -2.97703292878138236119e+04) (82, -3.61957503691903320941e+03) (83, 1.50000000000000000000e+03) (84, -1.71153214347174107388e+04) (85, -7.26524056017473139946e+03) (86, 1.50000000000000000000e+03) (87, 1.50000000000000000000e+03) (88, -9.58744415535628832004e+03) (89, 1.75957990760851828327e+02) (90, -3.23511458398050672258e+03) (91, -1.27074585022134542669e+04) (92, -8.92623552038204434211e+03) (93, -8.93962526639902353054e+03) (94, -1.07244604809290794947e+04) (95, -1.82395406337307667854e+03) (96, 1.50000000000000000000e+03) (97, -8.76896267612609881326e+03) (98, 1.50000000000000000000e+03) (99, 1.50000000000000000000e+03) (100, 1.50000000000000000000e+03) (101, -1.95614847826878576598e+04) (102, 1.50000000000000000000e+03) (103, -1.47962476175476840581e+04) (104, -9.12296244196645056945e+03) (105, 1.50000000000000000000e+03) (106, 1.50000000000000000000e+03) (107, -3.01558105759929230771e+03) (108, -1.62307470628220926301e+04) (109, 1.50000000000000000000e+03) (110, -6.21501940522370568942e+03) (111, 1.50000000000000000000e+03) (112, -6.90700038252887043200e+03) (113, 1.50000000000000000000e+03) (114, -7.16565048869453494262e+03) (115, -9.29363866161859368731e+03) (116, -1.09687163852272660733e+04) (117, 1.50000000000000000000e+03) (118, 1.50000000000000000000e+03) (119, -3.94142766006431702408e+03) (120, -3.26224588152653086581e+03) (121, -8.64832468821078145993e+03) (122, -8.39263149870696565813e+02) (123, -1.77557713144408262451e+04) (124, 1.50000000000000000000e+03) (125, 7.69636017825338058174e+02) (126, 1.50000000000000000000e+03) (127, 1.50000000000000000000e+03) (128, 1.50000000000000000000e+03) (129, 1.50000000000000000000e+03) (130, 1.50000000000000000000e+03) (131, -5.38398115122226954554e+03) (132, 1.50000000000000000000e+03) (133, 1.50000000000000000000e+03) (134, 1.50000000000000000000e+03) (135, 1.50000000000000000000e+03) (136, 1.50000000000000000000e+03) (137, 1.50000000000000000000e+03) (138, -1.63382348674866789224e+04) (139, -8.72136467465081295813e+03) (140, -7.70606856848794359394e+03) (141, -1.94422897125246527139e+04) (142, -2.18849924669043939502e+04) (143, -7.10688913185819455975e+03) (144, 1.50000000000000000000e+03) (145, -9.60175699513096151350e+03) (146, -1.06658787201356335572e+03) (147, -1.82759322172422325821e+04) (148, -1.52239317253215540404e+03) (149, -1.53723724086136917322e+04) (150, -1.18540392932001686859e+04) (151, -7.55574705139170873736e+03) (152, -5.76608869978649818222e+03) (153, 1.50000000000000000000e+03) (154, 1.50000000000000000000e+03) (155, -2.96963642019237304339e+04) (156, 1.50000000000000000000e+03) (157, -9.84903206922319077421e+03) (158, 1.50000000000000000000e+03) (159, 1.50000000000000000000e+03) (160, -6.86205268195598000602e+03) (161, 3.21140597719770426011e+02) (162, 1.50000000000000000000e+03) (163, -1.50779747058814950833e+03) (164, -1.00662384660040370363e+04) (165, 1.50000000000000000000e+03) (166, -5.93818264219006960047e+03) (167, 1.50000000000000000000e+03) (168, -1.25959763962939759949e+04) (169, -1.62936354960299959203e+04) (170, -2.05038820735076551500e+04) (171, -1.18379804850235905178e+04) (172, -5.05914032832567136211e+03) (173, -7.09511756711421003274e+03) (174, -3.47299658850038895253e+02) (175, -1.18320011069072079408e+04) (176, 1.50000000000000000000e+03) (177, 1.50000000000000000000e+03) (178, 1.50000000000000000000e+03) (179, 8.16709924732227364075e+02) (180, 1.50000000000000000000e+03) (181, -2.54463749683715577703e+04) (182, -1.76525804607894278888e+04) (183, -1.35136041415752770263e+04) (184, -1.49186148460690892534e+04) (185, 1.50000000000000000000e+03) (186, -6.89663683068879890925e+03) (187, 6.00956914973965808713e+02) (188, -5.65203658894652107847e+02) (189, -5.12495295436343258189e+03) (190, -7.34504536841920162260e+03) (191, 1.50000000000000000000e+03) (192, 1.50000000000000000000e+03) (193, 1.50000000000000000000e+03) (194, -8.97136630277718359139e+03) (195, -5.20299618914570601191e+03) (196, -4.81830119316049422196e+03) (197, -3.77010444436854811556e+02) (198, 1.32773712350533128301e+03) (199, -1.03351112564514409087e+02) (200, 1.50000000000000000000e+03) (201, -4.14296767021201412717e+03) (202, -5.21750761463272465335e+03) (203, 1.50000000000000000000e+03) (204, -8.86989896358919577324e+03) (205, 1.50000000000000000000e+03) (206, -5.25966108331987379643e+03) (207, -2.36731180122147316069e+03) (208, -8.67178450805319516803e+03) (209, 1.50000000000000000000e+03) (210, -9.42074387602386741492e+03) (211, 1.15912801399387217316e+03) (212, -3.61321735242585918968e+03) (213, -1.23746492346122304298e+04) (214, 1.50000000000000000000e+03) (215, 3.00922981434707651260e+02) (216, 1.50000000000000000000e+03) (217, -3.57606071304174474790e+03) (218, -6.49806521929468908638e+03) (219, -3.36203369163227180252e+04) (220, 1.50000000000000000000e+03) (221, 1.50000000000000000000e+03) (222, 1.50000000000000000000e+03) (223, -4.88023078036100378085e+03) (224, -4.68333650755443159142e+03) (225, 1.50000000000000000000e+03) (226, -1.10841936899502957203e+03) (227, -1.59061870607266064326e+04) (228, -3.72119858236454092548e+03) (229, -1.14659936571325961268e+04) (230, -2.21251144577301056415e+04) (231, -8.09591275693015359138e+03) (232, -5.41827643490870377718e+03) (233, -5.58272143176025747380e+03) (234, -1.69538197966483267010e+03) (235, -1.09933744051901630883e+04) (236, -2.77522262141223836807e+03) (237, -9.37925600393246895692e+03) (238, 1.50000000000000000000e+03) (239, -8.20237955685595261457e+03) (240, 1.50000000000000000000e+03) (241, 1.50000000000000000000e+03) (242, 1.50000000000000000000e+03) (243, 1.50000000000000000000e+03) (244, 5.89980367715054285327e+02) (245, -1.11249637160362399300e+04) (246, 1.36581145094585326660e+03) (247, -2.18102691445724158257e+04) (248, 1.50000000000000000000e+03) (249, 1.50000000000000000000e+03) (250, 1.50000000000000000000e+03) (251, -1.09380483637028573867e+04) (252, -1.52584284553236066131e+04) (253, 3.52503220784215443473e+02) (254, -7.05939037298116272723e+03) (255, -1.96722648051484156895e+03) (256, 1.50000000000000000000e+03) (257, 1.50000000000000000000e+03) (258, -1.11848884584311726940e+04) (259, -1.60584765535613933025e+04) (260, -2.19326110623679051059e+04) (0, -9.93506763271164709295e+03) (1, -5.25462071755227771064e+03) (2, 1.50000000000000000000e+03) (3, 4.34176704567389663225e+02) (4, 1.50000000000000000000e+03) (5, -1.04707403217125392985e+04) (6, 1.50000000000000000000e+03) (7, 1.50000000000000000000e+03) (8, -8.13821442921377911262e+03) (9, 1.50000000000000000000e+03) (10, 1.30958154716585545430e+03) (11, -4.24480511634375579888e+03) (12, -1.81057244415592977020e+04) (13, 7.92881986763017607700e+02) (14, 8.55580430397330587766e+02) (15, 1.50000000000000000000e+03) (16, 1.50000000000000000000e+03) (17, -1.21255870363993921046e+02) (18, -1.02296471662793337600e+04) (19, 1.50000000000000000000e+03) (20, -1.67774326203927648749e+03) (21, 1.50000000000000000000e+03) (22, -9.66793008986427776108e+03) (23, 3.28627100334754459254e+02) (24, -1.05464520221991551807e+04) (25, -4.23415093116954631114e+03) (26, -2.70669723166071526066e+03) (27, -3.15139825597203480356e+03) (28, 1.50000000000000000000e+03) (29, -3.04945831880615196496e+03) (30, -7.08823389281218624092e+03) (31, 1.50000000000000000000e+03) (32, -4.72626757434654155077e+03) (33, -5.98299436369666182145e+03) (34, -8.10465357164900069620e+03) (35, 2.00089355170779924720e+02) (36, 1.50000000000000000000e+03) (37, -8.28570403917058320076e+03) (38, 1.50000000000000000000e+03) (39, -2.25626761919739692530e+03) (40, -1.08167123028879341291e+04) (41, 1.50000000000000000000e+03) (42, 6.64672115672787242602e+01) (43, 2.23270151966644220920e+02) (44, -1.19186462236112311075e+04) (45, -4.56296953324613605218e+03) (46, 1.50000000000000000000e+03) (47, 1.50000000000000000000e+03) (48, -1.64679565626200223960e+03) (49, -1.43705736556036754337e+04) (50, 1.50000000000000000000e+03) (51, -5.66314572937777484185e+03) (52, -1.85731688692421698761e+03) (53, -6.52579152491546210513e+03) (54, -2.86286433794380764084e+03) (55, 4.90675783476567289654e+02) (56, -1.35348064420925993545e+03) (57, -9.09796374431219737744e+03) (58, -6.65729064804205427208e+03) (59, 1.50000000000000000000e+03) (60, 1.50000000000000000000e+03) (61, -1.17145152524920613359e+04) (62, -1.07828382516759211285e+04) (63, -1.45616550988310282264e+04) (64, 1.50000000000000000000e+03) (65, 1.50000000000000000000e+03) (66, -1.38357883870495552401e+04) (67, 8.36551514181830157213e+02) (68, -2.59262357956096002454e+03) (69, -9.44408463521733756352e+03) (70, -7.72779135415518339869e+03) (71, -2.01587630199374984841e+03) (72, -1.90828537486437312509e+03) (73, 3.10523778611539796657e+02) (74, 1.50000000000000000000e+03) (75, -7.67760446769698410208e+03) (76, -9.00372197058404708514e+03) (77, -1.41947401033569349238e+04) (78, 1.50000000000000000000e+03) (79, -1.35905960730571314343e+04) (80, 1.29943577981168459701e+03) (81, -3.99055944978338573037e+02) (82, -7.52688429976637507934e+03) (83, 1.50000000000000000000e+03) (84, 1.50000000000000000000e+03) (85, 7.65476250913298144951e+02) (86, 1.50000000000000000000e+03) (87, 1.50000000000000000000e+03) (88, 1.50000000000000000000e+03) (89, 1.26824434918545853179e+03) (90, 1.50000000000000000000e+03) (91, 1.50000000000000000000e+03) (92, 1.50000000000000000000e+03) (93, 1.50000000000000000000e+03) (94, -8.82928091468180900847e+03) (95, -1.33686618580957328959e+04) (96, -7.83841856241053756094e+03) (97, -1.52466021632931642671e+03) (98, -5.22084546692593266926e+03) (99, 1.50000000000000000000e+03) (100, 1.50000000000000000000e+03) (101, -9.82004772765152301872e+03) (102, 1.50000000000000000000e+03) (103, -4.74840812931580967415e+03) (104, 1.50000000000000000000e+03) (105, 4.52071413646849237011e+02) (106, 1.50000000000000000000e+03) (107, -1.91574224403887274093e+04) (108, -2.61487881731587731338e+03) (109, -1.22791692342150399782e+04) (110, -1.16188385261774728860e+04) (111, -1.12642139011711628882e+03) (112, -3.60642130173168743568e+03) (113, 1.50000000000000000000e+03) (114, 6.45319795835950571927e+02) (115, -2.08657901929769650451e+04) (116, 1.50000000000000000000e+03) (117, -1.14893211692859513278e+04) (118, 1.50000000000000000000e+03) (119, 1.50000000000000000000e+03) (120, -2.57024307102438399397e+02) (121, 1.50000000000000000000e+03) (122, 1.01016413859535975917e+03) (123, -5.69296120145070744911e+03) (124, -3.04262984917859785128e+03) (125, -2.22716268439898158249e+03) (126, 1.50000000000000000000e+03) (127, -9.95186544515553805468e+02) (128, -2.75377849275337484869e+03) (129, 1.50000000000000000000e+03) (130, -1.70787708251583717356e+04) (131, -2.67090554271386224627e+02) (132, -6.32093095980314319604e+03) (133, 1.50000000000000000000e+03) (134, -8.03739747334433195647e+03) (135, -6.44333153804743801629e+02) (136, -1.13480181756253341518e+03) (137, 1.50000000000000000000e+03) (138, 1.50000000000000000000e+03) (139, -1.16362626917067882459e+04) (140, 1.50000000000000000000e+03) (141, -9.99202635556254972471e+03) (142, -5.00270283623038994847e+03) (143, -3.35477634375030811498e+03) (144, -4.31504847429833807837e+03) (145, 1.50000000000000000000e+03) (146, -1.52362572860996147028e+03) (147, -3.48929607337617608209e+03) (148, -1.49615671978161321931e+03) (149, -6.67451815054842427344e+03) (150, -6.30648272305371028779e+03) (151, 1.50000000000000000000e+03) (152, 1.50000000000000000000e+03) (153, 1.50000000000000000000e+03) (154, 3.02676521811091220115e+02) (155, 1.50000000000000000000e+03) (156, 7.96125757196024437690e+02) (157, 1.50000000000000000000e+03) (158, -2.71039834336238027390e+03) (159, 1.50000000000000000000e+03) (160, -3.77276038520767997397e+02) (161, 1.50000000000000000000e+03) (162, 3.30687416685594996579e+02) (163, -6.34606982947620872437e+03) (164, 1.07046609457393515186e+03) (165, 6.20119441117386372753e+02) (166, 1.50000000000000000000e+03) (167, -3.33637812268555717310e+03) (168, -1.43160718046913589205e+04) (169, -1.04559949145783666609e+04) (170, 1.50000000000000000000e+03) (171, -4.78340982518828514003e+03) (172, -4.21420901230414926886e+02) (173, -8.17919548105437570484e+03) (174, 1.50000000000000000000e+03) (175, 1.50000000000000000000e+03) (176, 1.50000000000000000000e+03) (177, -4.40439186166558192781e+03) (178, 1.50000000000000000000e+03) (179, -8.01196206050948057964e+03) (180, 1.50000000000000000000e+03) (181, -1.00782068324619776831e+04) (182, -1.75124664872545617982e+04) (183, 1.50000000000000000000e+03) (184, -7.27325013979607319925e+03) (185, 1.50000000000000000000e+03) (186, -5.52512017608350788578e+02) (187, 1.50000000000000000000e+03) (188, -4.01685934722518777562e+03) (189, -7.61291316165838270535e+03) (190, 1.50000000000000000000e+03) (191, -9.24802918135243635334e+03) (192, 9.46662429627705591884e+02) (193, 1.50000000000000000000e+03) (194, -2.64883437823951135215e+03) (195, -2.05561248023244297656e+04) (196, -1.17674593968022800254e+04) (197, 1.50000000000000000000e+03) (198, -6.72066139119824492809e+03) (199, -5.19953126219579644385e+03) (200, -1.32975459115491194098e+04) (201, 1.50000000000000000000e+03) (202, -5.84545482177825033432e+03) (203, 1.39062916167964021952e+03) (204, -2.25089210834318691923e+03) (205, -1.86701753502056249090e+03) (206, -1.35919965254681801525e+03) (207, 1.39438263726413168797e+02) (208, -3.72162548375900632891e+03) (209, -3.96533502096293432260e+03) (210, -1.95428697924326047541e+03) (211, -6.13564823865069229214e+03) (212, -1.07028719114156247088e+04) (213, -8.62881366290652476891e+03) (214, -2.34089532764855857749e+03) (215, 1.50000000000000000000e+03) (216, -1.88796415833667833795e+03) (217, -1.43077945653463098097e+03) (218, 1.50000000000000000000e+03) (219, -3.24829099765543833200e+03) (220, -8.12485990149917051895e+03) (221, 1.50000000000000000000e+03) (222, -2.32956451537202383406e+02) (223, -1.73478102152280780501e+03) (224, -6.91186391903190997255e+03) (225, -2.57613377469519537044e+03) (226, 1.50000000000000000000e+03) (227, -1.79785112744281104824e+03) (228, -4.72625096120995124238e+02) (229, 1.50000000000000000000e+03) (230, 3.95525186219313297897e+02) (231, -8.80975156338650594989e+03) (232, 1.46976305727592466610e+03) (233, 1.50000000000000000000e+03) (234, -4.86025449214131003828e+03) (235, -3.45541162460337045559e+03) (236, -1.15330901322253830585e+04) (237, -4.96417574635974142438e+03) (238, 1.50000000000000000000e+03) (239, 1.50000000000000000000e+03) (240, -3.70233134133360454143e+03) (241, 1.50000000000000000000e+03) (242, 1.50000000000000000000e+03) (243, -3.99727061251204816017e+02) (244, -2.56722742262589736129e+03) (245, -1.60655633849044306771e+03) (246, -5.10828815338471304131e+03) (247, -1.47975781296903249995e+02) (248, 1.46477747748334422795e+03) (249, -1.09656353019777761801e+04) (250, -1.24354493182868395706e+03) (251, 2.94942407697730118343e+02) (252, 8.52314218588449421077e+02) (253, -1.89642454608844127506e+03) (254, -9.56082087982531265880e+03) (255, 1.50000000000000000000e+03) (256, 1.50000000000000000000e+03) (257, -6.71858972043657286122e+03) (258, -1.32739040547353433794e+04) (259, -1.98618842045281780884e+03) (260, -1.41312191566357105330e+04) (0, 1.50000000000000000000e+03) (1, -4.10395758362305286937e+02) (2, -9.17007604051169619197e+03) (3, -8.62092245952383382246e+03) (4, -3.70580873167265872326e+03) (5, 1.50000000000000000000e+03) (6, 1.50000000000000000000e+03) (7, -9.83601048665345274458e+02) (8, -8.88070599611013494723e+03) (9, -9.37037932705784078280e+03) (10, 1.50000000000000000000e+03) (11, -5.58843580361697604530e+03) (12, -7.92058239062044503953e+03) (13, -4.05264989261213304417e+03) (14, 1.50000000000000000000e+03) (15, 1.50000000000000000000e+03) (16, -2.64010429820449553517e+03) (17, 1.50000000000000000000e+03) (18, 1.43771313851960621832e+03) (19, -5.41641213664877068368e+03) (20, 1.50000000000000000000e+03) (21, -9.06392389658460729152e+02) (22, -8.62719658719239851052e+03) (23, 1.50000000000000000000e+03) (24, -3.16639885037621888841e+03) (25, -2.09460856124292404274e+04) (26, 1.50000000000000000000e+03) (27, -1.99382776371899926744e+04) (28, -1.33550299514815901603e+03) (29, 1.42657589593909665382e+03) (30, -1.65166801939346842119e+04) (31, -8.20968904441057929944e+03) (32, -1.07496320721535812481e+04) (33, 1.50000000000000000000e+03) (34, 1.50000000000000000000e+03) (35, -3.55639227047901067635e+03) (36, 1.50000000000000000000e+03) (37, -2.37203812879303313821e+03) (38, 1.50000000000000000000e+03) (39, -7.17133957563669582669e+02) (40, -1.05483148022130844765e+04) (41, -2.26662751333480809990e+03) (42, 1.50000000000000000000e+03) (43, -5.10665765479779281577e+02) (44, -9.34131681925874181616e+03) (45, -4.66619234777079100240e+02) (46, -5.97103852677069335186e+03) (47, -2.44604423129053020602e+03) (48, -2.56005319448745967748e+03) (49, -3.14932955197846013107e+03) (50, 1.50000000000000000000e+03) (51, -1.88076067224488997454e+03) (52, -5.04012039075137818145e+03) (53, -1.23549584900751124223e+04) (54, -1.09524507390885955829e+04) (55, -4.01273631369883014486e+03) (56, 1.50000000000000000000e+03) (57, -2.74899984070802474889e+03) (58, -2.54416494836192396178e+04) (59, 1.12009427601934453378e+03) (60, 1.50000000000000000000e+03) (61, 1.50000000000000000000e+03) (62, -2.93566964363418151152e+02) (63, -1.41744634081300337130e+04) (64, 1.50000000000000000000e+03) (65, 1.50000000000000000000e+03) (66, -6.57358009909414886351e+03) (67, -2.69220095193846009352e+03) (68, 1.50000000000000000000e+03) (69, 6.63828707105191710980e+02) (70, 1.50000000000000000000e+03) (71, -1.45161678257476955878e+03) (72, -1.13574794890381926962e+04) (73, 1.43779957559201807271e+03) (74, -1.61032434736062477896e+04) (75, 1.50000000000000000000e+03) (76, 2.85326902935661678384e+02) (77, 1.50000000000000000000e+03) (78, -7.11223695363814272241e+02) (79, -7.18920479502893522294e+03) (80, -1.16227734686664243782e+04) (81, -1.00142328947047826659e+03) (82, -9.53926388263524495414e+03) (83, -3.31427923363402953782e+02) (84, -1.91939119855612589163e+04) (85, 1.50000000000000000000e+03) (86, 1.40990528939306750544e+03) (87, -1.72108399766926886514e+04) (88, 1.50000000000000000000e+03) (89, 1.50000000000000000000e+03) (90, 7.87406215258909440990e+01) (91, -1.65867942951331424410e+04) (92, -1.75936197297037824683e+03) (93, 1.50000000000000000000e+03) (94, -2.16207429763977852417e+04) (95, 1.50000000000000000000e+03) (96, 1.50000000000000000000e+03) (97, 1.50000000000000000000e+03) (98, 1.50000000000000000000e+03) (99, 1.11183287064784235554e+03) (100, -6.90403305287354578468e+03) (101, 1.50000000000000000000e+03) (102, 1.50000000000000000000e+03) (103, -8.45990522943137079892e+02) (104, -5.85115578970554997795e+03) (105, -4.28344823363493651414e+03) (106, -3.26651080273874913473e+03) (107, -1.00323158193414128618e+04) (108, -1.04779051485509826307e+04) (109, -4.38539446734349712642e+03) (110, -8.15439106637839086034e+03) (111, 1.50000000000000000000e+03) (112, -1.44336636847526206111e+04) (113, 1.50000000000000000000e+03) (114, -7.23072492434803734795e+03) (115, -9.32195157859836217540e+03) (116, 6.67566880838287715960e+02) (117, -1.23946017739276339853e+04) (118, -1.12110026821047563317e+03) (119, -1.80068502775357810606e+04) (120, -1.06520197157092952693e+04) (121, 5.87974971561376150930e+02) (122, 1.50000000000000000000e+03) (123, 9.91535111097546177916e+02) (124, -5.75808280542720581252e+02) (125, -1.31799879088418238098e+04) (126, -2.97526267285235962845e+03) (127, 1.50000000000000000000e+03) (128, -6.23460229315284166773e+01) (129, 1.50000000000000000000e+03) (130, 1.50000000000000000000e+03) (131, 1.50000000000000000000e+03) (132, 1.50000000000000000000e+03) (133, 1.50000000000000000000e+03) (134, -1.14772467749672650825e+04) (135, -4.83256704012474870069e+02) (136, -6.75276286489174526650e+03) (137, -4.29448472891656274442e+03) (138, 1.50000000000000000000e+03) (139, -1.40056046252457190349e+03) (140, -4.76284702756050762673e+02) (141, 1.50000000000000000000e+03) (142, -8.66525076584170892602e+03) (143, -4.51543170788426141371e+03) (144, 1.50000000000000000000e+03) (145, -1.59358820246571413008e+04) (146, -1.48122516322613537341e+04) (147, 1.50000000000000000000e+03) (148, -9.18967474181780403342e+02) (149, -4.69004705831242790737e+03) (150, 1.50000000000000000000e+03) (151, -3.45686777277566670818e+03) (152, 1.50000000000000000000e+03) (153, 1.50000000000000000000e+03) (154, -9.43173511111932612039e+02) (155, 1.50000000000000000000e+03) (156, -1.08891417968595123966e+04) (157, -4.64437653464607228671e+03) (158, 1.50000000000000000000e+03) (159, -1.06151510605130647491e+03) (160, 1.50000000000000000000e+03) (161, 1.50000000000000000000e+03) (162, -7.56851943896180728188e+03) (163, 1.50000000000000000000e+03) (164, -1.03587807126474490360e+04) (165, 1.50000000000000000000e+03) (166, -2.03220135896509032136e+03) (167, -1.47786076418429274781e+04) (168, 1.50000000000000000000e+03) (169, 1.50000000000000000000e+03) (170, -1.28175573058944682998e+04) (171, -8.49061068644141960249e+03) (172, 1.50000000000000000000e+03) (173, -8.99981337331689428538e+03) (174, -3.77581034926729898871e+03) (175, -2.52773931717319555901e+03) (176, -1.44056019860764372424e+04) (177, -6.25010553587290269206e+03) (178, -1.26239550479801837355e+04) (179, 1.50000000000000000000e+03) (180, 5.81064518414233020849e+02) (181, 1.50000000000000000000e+03) (182, -6.13843410035724355112e+03) (183, 1.20696995353642296323e+03) (184, -7.10167799183608053681e+02) (185, -5.58154836235156290059e+03) (186, -1.22741319424769335455e+04) (187, -3.73979558741662594912e+03) (188, 1.50000000000000000000e+03) (189, -9.36838944949685537722e+03) (190, 1.50000000000000000000e+03) (191, -6.93811879578149546433e+03) (192, -3.74657361563634458435e+03) (193, -8.71767261891879570612e+03) (194, -3.08567345240634358561e+03) (195, 1.50000000000000000000e+03) (196, -1.76811959245259254203e+03) (197, 1.50000000000000000000e+03) (198, -2.06487970645451932796e+04) (199, 1.50000000000000000000e+03) (200, 1.50000000000000000000e+03) (201, 1.50000000000000000000e+03) (202, -3.31491443455451189948e+03) (203, -3.13708296674946450366e+03) (204, -7.11265266837466060679e+03) (205, -2.21895523419397359248e+04) (206, 1.50000000000000000000e+03) (207, -2.46807831941710810497e+03) (208, 1.50000000000000000000e+03) (209, 1.50000000000000000000e+03) (210, -6.53645771796340341098e+03) (211, -1.04384794121233044280e+04) (212, -1.25520766684012905898e+04) (213, -1.36385312469431810314e+04) (214, -1.15280947302239710552e+04) (215, 1.50000000000000000000e+03) (216, -1.13908144384850347706e+04) (217, -1.29282321577271759452e+04) (218, 1.50000000000000000000e+03) (219, 1.50000000000000000000e+03) (220, 1.50000000000000000000e+03) (221, -4.78896416993363436632e+03) (222, -2.32121332711151844705e+04) (223, 1.50000000000000000000e+03) (224, -9.86568695076030167002e+02) (225, -6.46780418421229478554e+03) (226, 1.50000000000000000000e+03) (227, 1.50000000000000000000e+03) (228, -1.59226749061121063278e+04) (229, 1.50000000000000000000e+03) (230, 1.50000000000000000000e+03) (231, -7.38628921261620234873e+03) (232, -8.96994212921003963856e+02) (233, 1.50000000000000000000e+03) (234, -1.17498693564986797355e+03) (235, 1.50000000000000000000e+03) (236, -7.18191988833748291654e+03) (237, -8.51686171566532379984e+02) (238, 1.50000000000000000000e+03) (239, 1.50000000000000000000e+03) (240, 7.38717839219854909061e+02) (241, 1.50000000000000000000e+03) (242, -5.60681681592542008730e+03) (243, 1.45769321906530677779e+02) (244, 4.09093596072035609268e+02) (245, 8.77564528647530210037e+02) (246, -2.34564863824293070138e+03) (247, -5.13921372914755647798e+03) (248, 1.50000000000000000000e+03) (249, 1.50000000000000000000e+03) (250, -1.92713277843710202433e+04) (251, 1.50000000000000000000e+03) (252, 1.50000000000000000000e+03) (253, 1.50000000000000000000e+03) (254, -9.31984094817159189006e+02) (255, 1.50000000000000000000e+03) (256, -2.29103346309876760643e+04) (257, 1.50000000000000000000e+03) (258, -6.44519861337052589079e+03) (259, -2.66061721706237331091e+04) (260, -1.69594345372213610972e+04) (0, -8.35865613643427786883e+03) (1, -6.35275812375018540479e+03) (2, -1.32837030400914845814e+04) (3, -1.26183260832116811798e+04) (4, 1.50000000000000000000e+03) (5, -8.11012412635076907463e+03) (6, -1.60938489049506042647e+04) (7, -8.47456239942288561906e+02) (8, -1.03275912383235936431e+04) (9, -2.99880995860135089970e+03) (10, -1.09107849147378328780e+04) (11, 1.50000000000000000000e+03) (12, -9.09573286077892043977e+03) (13, 3.64325278625249779907e+02) (14, 1.50000000000000000000e+03) (15, 1.50000000000000000000e+03) (16, 1.50000000000000000000e+03) (17, 1.55388332642245103443e+02) (18, -1.08042933499836999545e+04) (19, 1.50000000000000000000e+03) (20, -5.89555677946641662857e+03) (21, -1.22459286700096413369e+03) (22, -6.09281988646064564819e+03) (23, 1.50000000000000000000e+03) (24, -9.67089298756627067633e+03) (25, 1.50000000000000000000e+03) (26, -9.57200080200268985209e+02) (27, 1.50000000000000000000e+03) (28, -5.02669908674483485811e+03) (29, -1.24376664860730634246e+04) (30, -7.22631469833275332348e+03) (31, 1.50000000000000000000e+03) (32, -1.12981421188196163712e+04) (33, 1.50000000000000000000e+03) (34, -1.12836603341463396646e+04) (35, 1.50000000000000000000e+03) (36, 1.50000000000000000000e+03) (37, 1.50000000000000000000e+03) (38, 1.50000000000000000000e+03) (39, 1.50000000000000000000e+03) (40, -1.28997322028565340588e+04) (41, -1.83157689904366670817e+04) (42, -3.07977708853735521188e+03) (43, -5.59361597122381044755e+03) (44, -1.45751159272049535502e+04) (45, 1.50000000000000000000e+03) (46, 1.50000000000000000000e+03) (47, -4.17461597647407597833e+03) (48, -5.54173836119214684004e+03) (49, -1.54739954181716029780e+03) (50, 7.66780993107841368328e+02) (51, 1.50000000000000000000e+03) (52, 1.50000000000000000000e+03) (53, 1.50000000000000000000e+03) (54, -1.51118502372276943788e+04) (55, -4.72027606080807527178e+03) (56, 1.50000000000000000000e+03) (57, -2.15629858767233918115e+03) (58, -2.00202680625765697187e+03) (59, 1.47054084535215292817e+03) (60, -6.04427610443470939572e+02) (61, 2.09938931808048749872e+01) (62, 1.50000000000000000000e+03) (63, -1.72287731817479216261e+04) (64, 3.17484754893198783066e+02) (65, -4.66656637751983271301e+03) (66, -6.96745718927279722266e+03) (67, -1.41530360408357628330e+04) (68, -5.16835751762459403835e+03) (69, 1.50000000000000000000e+03) (70, 1.50000000000000000000e+03) (71, 1.50000000000000000000e+03) (72, 1.50000000000000000000e+03) (73, 1.50000000000000000000e+03) (74, -1.87269272004207668942e+04) (75, -1.07547850446505963191e+04) (76, 1.50000000000000000000e+03) (77, -3.32264718650390341281e+03) (78, 1.50000000000000000000e+03) (79, 1.50000000000000000000e+03) (80, -4.20642931767616391880e+03) (81, -1.13442488448332587723e+04) (82, 1.50000000000000000000e+03) (83, 1.50000000000000000000e+03) (84, 1.50000000000000000000e+03) (85, -8.58654295434067080350e+02) (86, -1.81425318310122179355e+02) (87, -5.63311547028663608216e+03) (88, -3.88243721762755831151e+03) (89, -9.00831104619176767301e+03) (90, -8.22892147559190448192e+02) (91, 1.50000000000000000000e+03) (92, -1.36975079841425977065e+04) (93, -1.28871098631992008450e+04) (94, -1.37351299160396447405e+04) (95, -5.66467701336518075550e+03) (96, -2.02050221949196497917e+03) (97, -3.84353351576151317204e+03) (98, -5.21407789824951669289e+03) (99, -1.29448869692761072656e+04) (100, 1.50000000000000000000e+03) (101, -3.84386569782587548616e+03) (102, -2.19346927886533512719e+03) (103, -9.69016464283754248754e+03) (104, -1.27955182571235491196e+03) (105, 1.50000000000000000000e+03) (106, -2.81995749036300367152e+03) (107, 1.50000000000000000000e+03) (108, -1.39181876340503822576e+04) (109, 1.50000000000000000000e+03) (110, -8.24697967621237694402e+03) (111, -1.52384144812401200397e+03) (112, 1.50000000000000000000e+03) (113, -1.39424755395260285695e+03) (114, -6.03635584435493638011e+03) (115, -1.55265418877508400328e+04) (116, -5.04545877380803904089e+03) (117, 1.33981304463992614728e+03) (118, 1.50000000000000000000e+03) (119, 1.50000000000000000000e+03) (120, 1.50000000000000000000e+03) (121, -2.12962554377859014494e+04) (122, 8.45587626649885578445e+02) (123, 1.50000000000000000000e+03) (124, 1.50000000000000000000e+03) (125, -7.63852430694994200167e+03) (126, 1.50000000000000000000e+03) (127, -4.03562415938256117443e+03) (128, -6.20211237072241419810e+03) (129, -1.17110245770313249523e+04) (130, -1.12396875907252870093e+04) (131, -1.98157979098121395509e+04) (132, -1.40383951562614674913e+04) (133, -4.95891547375610514337e+02) (134, 1.50000000000000000000e+03) (135, 1.50000000000000000000e+03) (136, 1.50000000000000000000e+03) (137, 5.01484838586520766057e+02) (138, -1.31922231855180089042e+04) (139, -1.18801540910306011938e+04) (140, 1.06066195122185763466e+03) (141, -7.03838462612695457210e+03) (142, -4.11264636145484837471e+03) (143, 9.90925272211228616470e+02) (144, 1.50000000000000000000e+03) (145, 1.50000000000000000000e+03) (146, 1.50000000000000000000e+03) (147, -1.20872052802964321927e+03) (148, 1.50000000000000000000e+03) (149, -1.19027015377936404548e+04) (150, -1.63067752201970120041e+03) (151, -6.64808940351309411199e+03) (152, -1.10921140504354048062e+03) (153, 1.50000000000000000000e+03) (154, -5.70071719669185858947e+03) (155, 1.50000000000000000000e+03) (156, 1.50000000000000000000e+03) (157, 1.50000000000000000000e+03) (158, -6.79746887092992528778e+03) (159, 1.50000000000000000000e+03) (160, -1.65950006160383782117e+03) (161, 1.50000000000000000000e+03) (162, 1.50000000000000000000e+03) (163, -5.98086417567535499984e+03) (164, 1.50000000000000000000e+03) (165, -1.13592450821701950190e+04) (166, -1.87447682679925310367e+04) (167, -1.46356771874272344576e+04) (168, -1.28457785709230411157e+04) (169, 1.50000000000000000000e+03) (170, -6.42343166193859997293e+03) (171, -1.02409974605458064616e+04) (172, -2.32150587777153232310e+04) (173, -1.82015702878844276711e+04) (174, 1.50000000000000000000e+03) (175, 1.50000000000000000000e+03) (176, 1.50000000000000000000e+03) (177, -9.99877889609123121772e+03) (178, 1.50000000000000000000e+03) (179, -7.50050104789464603527e+03) (180, -5.35931098513288270624e+03) (181, -5.97670653330546610960e+03) (182, -1.39685315289951086015e+04) (183, -1.85837500754772554501e+03) (184, -3.67433293273224126096e+03) (185, -2.71348833909934910480e+03) (186, -6.80423217383434621297e+03) (187, 1.50000000000000000000e+03) (188, 1.50000000000000000000e+03) (189, 1.50000000000000000000e+03) (190, 1.50000000000000000000e+03) (191, 1.50000000000000000000e+03) (192, 1.50000000000000000000e+03) (193, 1.50000000000000000000e+03) (194, 1.50000000000000000000e+03) (195, -8.36590021471761610883e+03) (196, -7.57095599403318556142e+03) (197, -5.57472741444172606862e+03) (198, 1.50000000000000000000e+03) (199, -1.22710248316507613708e+03) (200, 1.50000000000000000000e+03) (201, 2.55696697081284952446e+02) (202, -3.84845795105348815923e+03) (203, -1.42124279207285471784e+04) (204, 1.50000000000000000000e+03) (205, -4.04967527374621886338e+03) (206, -1.08024643164199678722e+04) (207, 1.50000000000000000000e+03) (208, 1.50000000000000000000e+03) (209, -3.80769581706472717997e+03) (210, -2.17695297530520510918e+04) (211, -5.35115453108453857567e+03) (212, -1.91924058220563056238e+04) (213, -1.59394861405037354416e+04) (214, 1.50000000000000000000e+03) (215, 1.50000000000000000000e+03) (216, 1.50000000000000000000e+03) (217, -1.31512029847126245841e+03) (218, -5.23749258601518158684e+03) (219, 1.01543777639379834454e+03) (220, -2.54403149328744530067e+03) (221, 1.50000000000000000000e+03) (222, -5.97797301946270636108e+03) (223, 1.50000000000000000000e+03) (224, -4.22727296959115028585e+03) (225, 3.21926606583273780871e+02) (226, 1.50000000000000000000e+03) (227, -1.91729421297580574901e+03) (228, 1.50000000000000000000e+03) (229, 1.50000000000000000000e+03) (230, -1.34142963645851850742e+04) (231, -1.74931730485949492504e+03) (232, -4.51786220580486769904e+03) (233, -1.13611013130519622791e+04) (234, -7.62867934062946801532e+02) (235, -6.37445228509556636709e+03) (236, 1.50000000000000000000e+03) (237, 1.93362654967705651643e+01) (238, 7.63023449440932495236e+02) (239, 1.50000000000000000000e+03) (240, 1.50000000000000000000e+03) (241, -4.96569160749559705437e+03) (242, 1.50000000000000000000e+03) (243, -4.47113331604117865936e+03) (244, -4.64653222306812025977e+01) (245, -1.65941982861832148046e+04) (246, -1.76997400005517338286e+04) (247, 1.50000000000000000000e+03) (248, -6.18007475572390194429e+03) (249, 1.50000000000000000000e+03) (250, -7.01567138310572318005e+03) (251, 1.50000000000000000000e+03) (252, -6.72710472235012616693e+02) (253, -1.58674682956706578807e+03) (254, 1.50000000000000000000e+03) (255, -3.00727186387074971208e+03) (256, -1.44843056015779484369e+03) (257, -1.24362292203686483845e+04) (258, -1.25583836840682415641e+04) (259, -1.69560111345814038941e+04) (260, -1.78015516422122564109e+04) (0, 7.15251270743445275002e+02) (1, -9.66086014958341729653e+03) (2, -6.13892249261377673974e+03) (3, 1.50000000000000000000e+03) (4, 1.50000000000000000000e+03) (5, -3.07450713007375853181e+01) (6, -1.85152365254856795218e+03) (7, 3.60726237340328339087e+02) (8, -3.67987517244297578145e+03) (9, 1.50000000000000000000e+03) (10, -1.31041894017768263438e+04) (11, 1.50000000000000000000e+03) (12, -2.11114862304529378889e+04) (13, 1.50000000000000000000e+03) (14, 1.50000000000000000000e+03) (15, 1.50000000000000000000e+03) (16, -4.84587250971255616605e+03) (17, 1.50000000000000000000e+03) (18, -8.33366332450886693550e+03) (19, -1.78287894280969135252e+03) (20, -5.32178573925174441683e+03) (21, -7.09088888401450185484e+03) (22, 1.06892094622592026099e+03) (23, 1.50000000000000000000e+03) (24, 9.31207335568304870321e+02) (25, -1.21593791130904101010e+04) (26, -6.25162224071540458681e+03) (27, 1.50000000000000000000e+03) (28, 8.10097066910585340338e+02) (29, -5.72290360019832314720e+03) (30, 1.50000000000000000000e+03) (31, 1.28277331129124195286e+03) (32, -3.15536197627251112863e+03) (33, -5.01810148928317994432e+03) (34, -2.11798047998801848735e+04) (35, -2.38632065481356148666e+04) (36, 1.34474072943224314258e+03) (37, -6.44342003208760525013e+03) (38, -5.90394803539215354249e+03) (39, -9.27285221992778497224e+03) (40, -7.35332137249953234459e+02) (41, -1.24329849318123469857e+04) (42, -8.37424338861705473391e+03) (43, -2.12534773566145986479e+03) (44, -1.90127238049812112877e+04) (45, -2.92761319265253132471e+03) (46, -2.26679870070870811105e+03) (47, 1.50000000000000000000e+03) (48, 1.50000000000000000000e+03) (49, -1.03647964098871398164e+04) (50, 1.50000000000000000000e+03) (51, -1.62580844142486398596e+02) (52, -1.26474750493063966132e+04) (53, -1.09717677984832812399e+03) (54, -1.48015451027409053495e+04) (55, 1.29249401621987601629e+02) (56, -1.06482572616826246303e+02) (57, -9.80146203629200863361e+03) (58, -1.19164812724842686293e+04) (59, 1.50000000000000000000e+03) (60, -1.57503772922141456547e+03) (61, -8.95897958623063641426e+03) (62, -5.02982013942105459137e+03) (63, -8.56675283797217525716e+03) (64, 1.50000000000000000000e+03) (65, 1.50000000000000000000e+03) (66, -1.16932225803733381326e+04) (67, -1.12915548657211220416e+04) (68, -8.42034239655089913867e+03) (69, -3.32720547662036824477e+03) (70, -1.63224475876712203899e+04) (71, -9.61746625253187448834e+03) (72, -8.81885024413749306404e+03) (73, 1.50000000000000000000e+03) (74, 1.50000000000000000000e+03) (75, -4.52154173481544034985e+02) (76, 1.50000000000000000000e+03) (77, -1.15313683032881381223e+04) (78, -3.63207029322227117518e+03) (79, -1.67102681567547188024e+04) (80, 5.52134678841605591515e+02) (81, -9.76147121471132959414e+03) (82, 1.50000000000000000000e+03) (83, 1.50000000000000000000e+03) (84, 1.50000000000000000000e+03) (85, 1.50000000000000000000e+03) (86, 1.50000000000000000000e+03) (87, 1.50000000000000000000e+03) (88, -3.37280691855818804470e+03) (89, -3.58517513122075388310e+03) (90, 1.50000000000000000000e+03) (91, 1.50000000000000000000e+03) (92, 1.50000000000000000000e+03) (93, 1.50000000000000000000e+03) (94, 1.01053757661071517759e+03) (95, -2.66088584163253253791e+04) (96, 1.50000000000000000000e+03) (97, 9.35025153854713551027e+01) (98, -1.70225941379004725604e+04) (99, 1.50000000000000000000e+03) (100, 1.50000000000000000000e+03) (101, -1.83031471667770892964e+04) (102, -1.58526962333325650434e+03) (103, -2.65627830041784682180e+03) (104, 1.50000000000000000000e+03) (105, 1.50000000000000000000e+03) (106, -3.07400575280911516529e+03) (107, -5.40161366332140732993e+03) (108, -4.99205326347222671757e+03) (109, -5.02576598059886055125e+03) (110, -1.53205803621798877430e+04) (111, -7.66119646946431930701e+03) (112, 1.50000000000000000000e+03) (113, 1.19037673215194831755e+03) (114, -2.91377023891826820545e+03) (115, -1.58534038405521387176e+04) (116, -4.05551144386619489524e+03) (117, -6.28952290724380145548e+03) (118, 1.50000000000000000000e+03) (119, 1.50000000000000000000e+03) (120, 1.50000000000000000000e+03) (121, 1.50000000000000000000e+03) (122, 1.50000000000000000000e+03) (123, -8.12291420152814339417e+02) (124, -8.33959241817612019076e+03) (125, 1.50000000000000000000e+03) (126, 1.50000000000000000000e+03) (127, 1.50000000000000000000e+03) (128, -2.70012857300554469475e+03) (129, 1.50000000000000000000e+03) (130, 1.50000000000000000000e+03) (131, -2.81848080370009529361e+03) (132, -1.13671849789554853487e+04) (133, -1.10127701044094446843e+04) (134, -1.43738553739735270938e+04) (135, -6.74278003801217255386e+03) (136, -1.14844746011341976555e+04) (137, -5.89163169665504301520e+03) (138, -1.18614146153495803446e+04) (139, 1.50000000000000000000e+03) (140, -5.06213844193265413196e+03) (141, -2.98394454739320781300e+03) (142, -1.27534354117537641287e+04) (143, -1.16466153772787492926e+04) (144, -1.52107810458926614956e+04) (145, 1.50000000000000000000e+03) (146, 1.50000000000000000000e+03) (147, 1.50000000000000000000e+03) (148, 1.50000000000000000000e+03) (149, -6.08413866874155246478e+03) (150, -8.78227839034515818639e+03) (151, 1.50000000000000000000e+03) (152, 1.50000000000000000000e+03) (153, 1.50000000000000000000e+03) (154, -2.11660960263369379390e+04) (155, -1.29863713135026064265e+04) (156, -1.77872692129303941329e+04) (157, 1.50000000000000000000e+03) (158, -1.21799413520673024323e+04) (159, 1.50000000000000000000e+03) (160, -7.90964445652535414411e+03) (161, -8.96273589820096640324e+03) (162, 1.50000000000000000000e+03) (163, -7.96869667168657997536e+02) (164, 1.50000000000000000000e+03) (165, 1.50000000000000000000e+03) (166, -1.31175575636580797436e+04) (167, -6.12725771948489636998e+03) (168, -1.92372177274339846917e+04) (169, -6.13804245058598007745e+03) (170, 1.50000000000000000000e+03) (171, -8.33902046077678278380e+03) (172, -2.35083084999284574224e+03) (173, 5.75977204618060838470e+01) (174, -2.80738086958295662043e+03) (175, 1.50000000000000000000e+03) (176, -2.02273351482295333881e+03) (177, -6.91859778630790788156e+03) (178, 1.50000000000000000000e+03) (179, 1.50000000000000000000e+03) (180, 1.50000000000000000000e+03) (181, -9.86669384199402884406e+03) (182, -1.57250692980706644448e+04) (183, -4.19985264390194060979e+03) (184, 1.50000000000000000000e+03) (185, -2.89298476981925614382e+03) (186, -1.19874372681881300196e+03) (187, -9.14723087444399243395e+03) (188, -7.29664282591210940154e+03) (189, -6.92253243005390686449e+03) (190, -1.37528027624394871964e+03) (191, -1.06909431191358526121e+04) (192, 6.65718153028963456563e+02) (193, 1.50000000000000000000e+03) (194, 1.50000000000000000000e+03) (195, -9.32344877351151262701e+03) (196, -6.64054460078546867408e+02) (197, -9.05418507635372952791e+03) (198, -4.00184227160083537456e+03) (199, 1.50000000000000000000e+03) (200, 1.50000000000000000000e+03) (201, 1.50000000000000000000e+03) (202, -7.63014902898151194677e+03) (203, 1.50000000000000000000e+03) (204, -2.38049627521728143620e+03) (205, 1.38532466223423534757e+03) (206, -8.25004855219926866994e+03) (207, -1.09273695247107229989e+03) (208, -3.95646916011199755303e+03) (209, -4.59320401827219654933e+02) (210, -1.00061521579576055956e+04) (211, -1.36204888183503717300e+04) (212, -8.38989005975335749099e+03) (213, 1.50000000000000000000e+03) (214, 1.50000000000000000000e+03) (215, 1.50000000000000000000e+03) (216, 1.50000000000000000000e+03) (217, 3.42851985901820114577e+02) (218, 2.83589183350851442356e+02) (219, -6.98430274671704228240e+03) (220, 1.50000000000000000000e+03) (221, 1.50000000000000000000e+03) (222, -7.75306262333805716480e+03) (223, 1.50000000000000000000e+03) (224, -1.39497882509018509154e+04) (225, 1.50000000000000000000e+03) (226, 1.50000000000000000000e+03) (227, -1.35500100113949538354e+04) (228, 1.50000000000000000000e+03) (229, 1.50000000000000000000e+03) (230, -7.80491648109309062420e+03) (231, -5.31659629064922410180e+03) (232, 1.50000000000000000000e+03) (233, 1.50000000000000000000e+03) (234, -1.23011860626041107025e+04) (235, -5.19602589913400152000e+03) (236, -5.65411419976970955759e+03) (237, -6.49698784199476449430e+03) (238, 1.50000000000000000000e+03) (239, -7.72839824225585198292e+03) (240, -1.44037600992021270940e+04) (241, 1.50000000000000000000e+03) (242, 1.50000000000000000000e+03) (243, -2.30242685243975665799e+03) (244, -1.82745550038951228089e+03) (245, -6.31849154527357677580e+03) (246, -1.77241322447000820830e+04) (247, -7.57519998708697767142e+03) (248, -1.78538198142300188920e+02) (249, -1.64320176794689359667e+03) (250, 1.50000000000000000000e+03) (251, -1.84597370294394772827e+03) (252, 1.50000000000000000000e+03) (253, 1.50000000000000000000e+03) (254, -1.55206185286618765531e+04) (255, 1.50000000000000000000e+03) (256, 1.50000000000000000000e+03) (257, -3.06494399798007680147e+03) (258, -2.90504359413706297346e+04) (259, 1.43875909370084031025e+02) (260, -1.85286098946040801820e+04) (0, 1.50000000000000000000e+03) (1, 1.50000000000000000000e+03) (2, -7.64088224161753259978e+03) (3, -1.38533617226726619265e+04) (4, 1.50000000000000000000e+03) (5, 1.50000000000000000000e+03) (6, -2.36027279907592082964e+03) (7, -3.47282484408936579712e+03) (8, -1.38537020706798484753e+04) (9, 1.50000000000000000000e+03) (10, -9.16708791154689242831e+03) (11, -1.39253085397886889041e+03) (12, -2.12916149964616761281e+03) (13, 1.50000000000000000000e+03) (14, 1.50000000000000000000e+03) (15, 1.07180540051273646895e+03) (16, 1.50000000000000000000e+03) (17, -3.27773471986581898818e+03) (18, 1.50000000000000000000e+03) (19, -1.93842148400723235682e+04) (20, -7.22071790792656429403e+03) (21, -8.51382303100894205272e+03) (22, 1.50000000000000000000e+03) (23, -2.96645005656709690811e+03) (24, -2.02917071012573092048e+03) (25, -1.15746183010791355628e+04) (26, -1.03279249112256820808e+04) (27, -5.16104679005505295208e+03) (28, 1.50000000000000000000e+03) (29, -7.12551107584847613907e+02) (30, -1.59477138670222193468e+04) (31, 1.35014740971338983400e+03) (32, 4.67278603271289512122e+02) (33, 1.50000000000000000000e+03) (34, 1.50000000000000000000e+03) (35, -1.74861897637142756139e+04) (36, -2.33179990292925776885e+03) (37, -1.23085695350069408960e+03) (38, 1.50000000000000000000e+03) (39, -8.17865614990825542918e+03) (40, -6.92315394166208898241e+03) (41, -1.87372303422412587679e+04) (42, -1.07725989266314536508e+04) (43, -1.65455247480086450196e+03) (44, 1.50000000000000000000e+03) (45, -4.17060495844760498585e+03) (46, 1.50000000000000000000e+03) (47, 1.50000000000000000000e+03) (48, -7.55058090207697023288e+03) (49, -3.22755553367066750070e+03) (50, 1.50000000000000000000e+03) (51, -5.19985308570039615006e+03) (52, -2.81415501670529192779e+03) (53, -5.43064194876681267488e+03) (54, -1.33815704168088959705e+04) (55, -8.35879804625036558718e+03) (56, -5.95415355203485091806e+02) (57, 1.50000000000000000000e+03) (58, -3.78888585361873947477e+03) (59, 1.50000000000000000000e+03) (60, 1.50000000000000000000e+03) (61, 1.50000000000000000000e+03) (62, -1.03944405509845655615e+04) (63, -6.70071408494308980153e+03) (64, 1.50000000000000000000e+03) (65, -1.52020296904916517633e+03) (66, 1.50000000000000000000e+03) (67, 1.50000000000000000000e+03) (68, -7.88323324568287989678e+03) (69, 1.50000000000000000000e+03) (70, 1.50000000000000000000e+03) (71, 1.31577818634328991720e+03) (72, -1.08264915370930120844e+04) (73, 1.50000000000000000000e+03) (74, -2.68614592093367755297e+04) (75, -2.10214763552800513935e+03) (76, -1.79488932360506464647e+03) (77, 8.81569241094083963617e+02) (78, -5.79058138088559098833e+03) (79, -6.13479140504376800891e+02) (80, 9.13538893325336744056e+02) (81, 1.50000000000000000000e+03) (82, -1.40813613821986982657e+04) (83, -1.18795913905670895474e+04) (84, -1.37317238916633432382e+04) (85, -1.36863196700319440424e+03) (86, 2.43067689362135610054e+02) (87, -1.54850476994660834862e+03) (88, 1.50000000000000000000e+03) (89, -5.08518482733210566948e+03) (90, -7.29029413525812969965e+02) (91, -1.14971267603912547202e+04) (92, -5.45144033903678791830e+03) (93, 1.50000000000000000000e+03) (94, 1.50000000000000000000e+03) (95, 