FANN_FLO_2.1
num_layers=3
learning_rate=0.700000
connection_rate=1.000000
network_type=0
learning_momentum=0.000000
training_algorithm=2
train_error_function=1
train_stop_function=0
cascade_output_change_fraction=0.010000
quickprop_decay=-0.000100
quickprop_mu=1.750000
rprop_increase_factor=1.200000
rprop_decrease_factor=0.500000
rprop_delta_min=0.000000
rprop_delta_max=50.000000
rprop_delta_zero=0.100000
cascade_output_stagnation_epochs=12
cascade_candidate_change_fraction=0.010000
cascade_candidate_stagnation_epochs=12
cascade_max_out_epochs=150
cascade_max_cand_epochs=150
cascade_num_candidate_groups=2
bit_fail_limit=3.49999999999999977796e-01
cascade_candidate_limit=1.00000000000000000000e+03
cascade_weight_multiplier=4.00000000000000022204e-01
cascade_activation_functions_count=10
cascade_activation_functions=3 5 7 8 10 11 14 15 16 17 
cascade_activation_steepnesses_count=4
cascade_activation_steepnesses=2.50000000000000000000e-01 5.00000000000000000000e-01 7.50000000000000000000e-01 1.00000000000000000000e+00 
layer_sizes=105 18 53 
scale_included=0
neurons (num_inputs, activation_function, activation_steepness)=(0, 0, 0.00000000000000000000e+00) (0, 0, 0.00000000000000000000e+00) (0, 0, 0.00000000000000000000e+00) (0, 0, 0.00000000000000000000e+00) (0, 0, 0.00000000000000000000e+00) (0, 0, 0.00000000000000000000e+00) (0, 0, 0.00000000000000000000e+00) (0, 0, 0.00000000000000000000e+00) (0, 0, 0.00000000000000000000e+00) (0, 0, 0.00000000000000000000e+00) (0, 0, 0.00000000000000000000e+00) (0, 0, 0.00000000000000000000e+00) (0, 0, 0.00000000000000000000e+00) (0, 0, 0.00000000000000000000e+00) (0, 0, 0.00000000000000000000e+00) (0, 0, 0.00000000000000000000e+00) (0, 0, 0.00000000000000000000e+00) (0, 0, 0.00000000000000000000e+00) (0, 0, 0.00000000000000000000e+00) (0, 0, 0.00000000000000000000e+00) (0, 0, 0.00000000000000000000e+00) (0, 0, 0.00000000000000000000e+00) (0, 0, 0.00000000000000000000e+00) (0, 0, 0.00000000000000000000e+00) (0, 0, 0.00000000000000000000e+00) (0, 0, 0.00000000000000000000e+00) (0, 0, 0.00000000000000000000e+00) (0, 0, 0.00000000000000000000e+00) (0, 0, 0.00000000000000000000e+00) (0, 0, 0.00000000000000000000e+00) (0, 0, 0.00000000000000000000e+00) (0, 0, 0.00000000000000000000e+00) (0, 0, 0.00000000000000000000e+00) (0, 0, 0.00000000000000000000e+00) (0, 0, 0.00000000000000000000e+00) (0, 0, 0.00000000000000000000e+00) (0, 0, 0.00000000000000000000e+00) (0, 0, 0.00000000000000000000e+00) (0, 0, 0.00000000000000000000e+00) (0, 0, 0.00000000000000000000e+00) (0, 0, 0.00000000000000000000e+00) (0, 0, 0.00000000000000000000e+00) (0, 0, 0.00000000000000000000e+00) (0, 0, 0.00000000000000000000e+00) (0, 0, 0.00000000000000000000e+00) (0, 0, 0.00000000000000000000e+00) (0, 0, 0.00000000000000000000e+00) (0, 0, 0.00000000000000000000e+00) (0, 0, 0.00000000000000000000e+00) (0, 0, 0.00000000000000000000e+00) (0, 0, 0.00000000000000000000e+00) (0, 0, 0.00000000000000000000e+00) (0, 0, 0.00000000000000000000e+00) (0, 0, 0.00000000000000000000e+00) (0, 0, 0.00000000000000000000e+00) (0, 0, 0.00000000000000000000e+00) (0, 0, 0.00000000000000000000e+00) (0, 0, 0.00000000000000000000e+00) (0, 0, 0.00000000000000000000e+00) (0, 0, 0.00000000000000000000e+00) (0, 0, 0.00000000000000000000e+00) (0, 0, 0.00000000000000000000e+00) (0, 0, 0.00000000000000000000e+00) (0, 0, 0.00000000000000000000e+00) (0, 0, 0.00000000000000000000e+00) (0, 0, 0.00000000000000000000e+00) (0, 0, 0.00000000000000000000e+00) (0, 0, 0.00000000000000000000e+00) (0, 0, 0.00000000000000000000e+00) (0, 0, 0.00000000000000000000e+00) (0, 0, 0.00000000000000000000e+00) (0, 0, 0.00000000000000000000e+00) (0, 0, 0.00000000000000000000e+00) (0, 0, 0.00000000000000000000e+00) (0, 0, 0.00000000000000000000e+00) (0, 0, 0.00000000000000000000e+00) (0, 0, 0.00000000000000000000e+00) (0, 0, 0.00000000000000000000e+00) (0, 0, 0.00000000000000000000e+00) (0, 0, 0.00000000000000000000e+00) (0, 0, 0.00000000000000000000e+00) (0, 0, 0.00000000000000000000e+00) (0, 0, 0.00000000000000000000e+00) (0, 0, 0.00000000000000000000e+00) (0, 0, 0.00000000000000000000e+00) (0, 0, 0.00000000000000000000e+00) (0, 0, 0.00000000000000000000e+00) (0, 0, 0.00000000000000000000e+00) (0, 0, 0.00000000000000000000e+00) (0, 0, 0.00000000000000000000e+00) (0, 0, 0.00000000000000000000e+00) (0, 0, 0.00000000000000000000e+00) (0, 0, 0.00000000000000000000e+00) (0, 0, 0.00000000000000000000e+00) (0, 0, 0.00000000000000000000e+00) (0, 0, 0.00000000000000000000e+00) (0, 0, 0.00000000000000000000e+00) (0, 0, 0.00000000000000000000e+00) (0, 0, 0.00000000000000000000e+00) (0, 0, 0.00000000000000000000e+00) (0, 0, 0.00000000000000000000e+00) (0, 0, 0.00000000000000000000e+00) (0, 0, 0.00000000000000000000e+00) (0, 0, 0.00000000000000000000e+00) (0, 0, 0.00000000000000000000e+00) (105, 3, 5.00000000000000000000e-01) (105, 3, 5.00000000000000000000e-01) (105, 3, 5.00000000000000000000e-01) (105, 3, 5.00000000000000000000e-01) (105, 3, 5.00000000000000000000e-01) (105, 3, 5.00000000000000000000e-01) (105, 3, 5.00000000000000000000e-01) (105, 3, 5.00000000000000000000e-01) (105, 3, 5.00000000000000000000e-01) (105, 3, 5.00000000000000000000e-01) (105, 3, 5.00000000000000000000e-01) (105, 3, 5.00000000000000000000e-01) (105, 3, 5.00000000000000000000e-01) (105, 3, 5.00000000000000000000e-01) (105, 3, 5.00000000000000000000e-01) (105, 3, 5.00000000000000000000e-01) (105, 3, 5.00000000000000000000e-01) (0, 3, 0.00000000000000000000e+00) (18, 3, 5.00000000000000000000e-01) (18, 3, 5.00000000000000000000e-01) (18, 3, 5.00000000000000000000e-01) (18, 3, 5.00000000000000000000e-01) (18, 3, 5.00000000000000000000e-01) (18, 3, 5.00000000000000000000e-01) (18, 3, 5.00000000000000000000e-01) (18, 3, 5.00000000000000000000e-01) (18, 3, 5.00000000000000000000e-01) (18, 3, 5.00000000000000000000e-01) (18, 3, 5.00000000000000000000e-01) (18, 3, 5.00000000000000000000e-01) (18, 3, 5.00000000000000000000e-01) (18, 3, 5.00000000000000000000e-01) (18, 3, 5.00000000000000000000e-01) (18, 3, 5.00000000000000000000e-01) (18, 3, 5.00000000000000000000e-01) (18, 3, 5.00000000000000000000e-01) (18, 3, 5.00000000000000000000e-01) (18, 3, 5.00000000000000000000e-01) (18, 3, 5.00000000000000000000e-01) (18, 3, 5.00000000000000000000e-01) (18, 3, 5.00000000000000000000e-01) (18, 3, 5.00000000000000000000e-01) (18, 3, 5.00000000000000000000e-01) (18, 3, 5.00000000000000000000e-01) (18, 3, 5.00000000000000000000e-01) (18, 3, 5.00000000000000000000e-01) (18, 3, 5.00000000000000000000e-01) (18, 3, 5.00000000000000000000e-01) (18, 3, 5.00000000000000000000e-01) (18, 3, 5.00000000000000000000e-01) (18, 3, 5.00000000000000000000e-01) (18, 3, 5.00000000000000000000e-01) (18, 3, 5.00000000000000000000e-01) (18, 3, 5.00000000000000000000e-01) (18, 3, 5.00000000000000000000e-01) (18, 3, 5.00000000000000000000e-01) (18, 3, 5.00000000000000000000e-01) (18, 3, 5.00000000000000000000e-01) (18, 3, 5.00000000000000000000e-01) (18, 3, 5.00000000000000000000e-01) (18, 3, 5.00000000000000000000e-01) (18, 3, 5.00000000000000000000e-01) (18, 3, 5.00000000000000000000e-01) (18, 3, 5.00000000000000000000e-01) (18, 3, 5.00000000000000000000e-01) (18, 3, 5.00000000000000000000e-01) (18, 3, 5.00000000000000000000e-01) (18, 3, 5.00000000000000000000e-01) (18, 3, 5.00000000000000000000e-01) (18, 3, 5.00000000000000000000e-01) (0, 3, 0.00000000000000000000e+00) 
connections (connected_to_neuron, weight)=(0, 5.57196137669333424469e+00) (1, -5.92824430577111649576e-01) (2, 3.07883671969527661361e+00) (3, -1.39120104623455409509e+00) (4, -8.35483623470757663654e-01) (5, -3.30844807289803588546e+00) (6, 1.01921052387767030467e+01) (7, 2.66150570056138846553e+00) (8, 1.86571262640017754286e+00) (9, -8.90301889355370512646e+00) (10, -3.60248492649247653574e+00) (11, -1.59131319260050485553e+01) (12, 5.22656122189227412278e-01) (13, 3.21197363055824913758e+00) (14, -2.37686133411304290064e+00) (15, 7.78851381076585802532e+00) (16, -1.98322020174943669524e+00) (17, -4.86314898312269416891e+00) (18, 5.16032089240025459986e+00) (19, 1.53168937004618599396e+00) (20, 2.42128606478135299795e+00) (21, -1.49474771868624078941e+00) (22, 5.58814534624588876710e+00) (23, -4.42707825555651801608e+00) (24, -5.85403240486288023448e+00) (25, -6.35252405756761273636e+00) (26, -8.84583561096394888068e+00) (27, -1.22745169868334991214e+00) (28, -2.90804944842740731303e+00) (29, -5.34407742722884115949e+00) (30, 2.43646351971085195487e-01) (31, 7.40009037423575666281e+00) (32, 1.95210157319346477856e+00) (33, -5.86527251048632791708e+00) (34, 3.39755479246318703446e+00) (35, -3.69657075821341862820e+00) (36, 3.20904032231472768899e+00) (37, 4.69071676974508644520e+00) (38, -3.11344606157876535590e+00) (39, 4.31911708797769910984e-01) (40, -2.45855244130529282387e+00) (41, -5.18185213867569416379e+00) (42, 8.83601852638714824195e-01) (43, -8.69715463928860010867e+00) (44, 1.65974698780704166268e+00) (45, 1.81349688432013489425e+00) (46, 4.83832517432666442403e+00) (47, 2.17613379937585227353e+00) (48, 6.04011979116573005655e-01) (49, -3.31237372679593322644e+00) (50, 2.01616834883874718187e+00) (51, 5.10932728165207361570e+00) (52, -1.34496644023295219839e+00) (53, 3.21265588218097031259e+00) (54, -1.28143008290730868737e+01) (55, -4.60333788933780851949e+00) (56, -4.06938707800271881609e+00) (57, -1.65249727367062737571e+00) (58, -4.67850742523699647535e+00) (59, 2.79567914737028067051e+00) (60, 4.29963305308768717339e+00) (61, -7.68617017837944782599e-01) (62, 7.18116779389704174008e+00) (63, -7.57021717653177161900e-01) (64, 3.47586969311571269969e+00) (65, -7.77080914104658182495e-01) (66, -3.54795359326453008109e+00) (67, 1.05723981211520134949e+00) (68, 5.66291353565405275461e-01) (69, 6.29455969146953098203e+00) (70, 3.96334033977849120589e+00) (71, -7.88051632281428382498e+00) (72, 8.37961795040359369580e+00) (73, 1.83325091984207366735e+00) (74, 9.21259133334329516352e-01) (75, 4.68310738555144911999e+00) (76, 2.82718463899037319997e-01) (77, -5.88971598437739096710e+00) (78, -1.61087261232834255686e+00) (79, 9.00487188864534182642e+00) (80, -1.58353928103873609068e+00) (81, -9.27233649110595337106e+00) (82, -1.51437771040032198577e+00) (83, -9.24248118165298038207e+00) (84, 1.21001131304502251851e+00) (85, 3.48852434259172916597e+00) (86, 8.26726008757649388770e+00) (87, -2.68666549704441193214e+00) (88, 3.23044578445005248213e+00) (89, -5.05904982985057305456e+00) (90, -5.96182655471640998712e+00) (91, 2.93336417447381592183e+00) (92, -4.76859854645601011214e+00) (93, -1.27736769146982376277e+00) (94, -6.72400422991471624634e-01) (95, 3.57688877598211263376e+00) (96, -4.36718100722265045732e+00) (97, -1.48754452408974047195e+00) (98, 3.51560819655604817058e-01) (99, 5.11211369744995369757e+00) (100, 9.31563575286574407919e-01) (101, -4.16317280111817389354e+00) (102, 5.03340383797254362075e-02) (103, 3.97515730271212508473e-01) (104, -1.12623795129390313896e+00) (0, 1.06121563246139682946e+00) (1, -3.08003406091389075883e+00) (2, -2.00076472692133888742e+00) (3, -6.94052383035622222351e-01) (4, 3.03366341031854169774e-01) (5, 2.92307110105577994119e+00) (6, 7.94155912392625479290e-02) (7, -5.08243474367810765813e+00) (8, -4.51080032735737113114e+00) (9, -7.44936682054275234321e+00) (10, 9.10979310526505514645e+00) (11, -1.47398537482114977415e+00) (12, 8.84306472962552825301e-01) (13, -4.50967605027225015846e+00) (14, -1.63325186264274613279e+00) (15, -2.23713748010905444374e+00) (16, 5.00033471664498385678e+00) (17, -5.57553748402270898943e-01) (18, -3.15486027482694941781e+00) (19, -4.81248379972236772772e+00) (20, 1.27036680156518988483e+00) (21, -1.36312641951306012800e+00) (22, 4.53418154959806862792e+00) (23, 3.47647389491477865064e+00) (24, 5.32373056602458039066e+00) (25, -1.00344354324899427411e+01) (26, 6.35181771948070927891e+00) (27, 6.80717081616938468613e+00) (28, 3.83051601686150089421e+00) (29, -3.12658765895623469433e-01) (30, 6.52033526175475675046e+00) (31, -6.50251408335245861814e-01) (32, -4.98473497426231926255e+00) (33, -3.98509519771107489916e+00) (34, -9.64687660857058837394e+00) (35, 1.46750861085975681242e+00) (36, 8.43271956104828035450e+00) (37, -1.88986260831057961695e-01) (38, -1.34215235843192504106e+00) (39, -3.48511024469884578281e-01) (40, -1.35424233417461548079e+00) (41, 9.23549797270310279806e-01) (42, 6.84469515562266095365e-01) (43, 7.88702851230586343689e+00) (44, 6.21279517007297865661e+00) (45, -7.41315234196030559133e+00) (46, -4.23448327559401693776e+00) (47, -3.54441041552858315811e+00) (48, -7.68584881043916201548e+00) (49, 3.91230387660124145910e+00) (50, 3.04282246192682448438e+00) (51, -1.93403986911808845051e+00) (52, -9.74790215905015067221e+00) (53, 7.87813039504135725899e-01) (54, -2.14620341757537325122e+00) (55, -4.44362058022830286319e+00) (56, 5.74952668620002160793e+00) (57, -7.54141553131891684281e-01) (58, 2.98862264182676895530e+00) (59, -1.10627140929639953271e+01) (60, -1.44154155599522120212e+01) (61, -7.55594839826895103840e+00) (62, 2.27055780783138760892e-01) (63, 4.48384748688441892028e+00) (64, 4.08672400364965060504e+00) (65, -3.18238266951070292166e+00) (66, 2.53492082257730588779e+00) (67, -8.98320727869141855138e+00) (68, -1.54369822456093402918e-02) (69, -5.10255602371242922288e+00) (70, -1.64899801441072901831e+00) (71, 2.07834036015487688687e+00) (72, 3.64522936904963223981e+00) (73, 2.34745468523017003504e-02) (74, 7.74528791978302866283e+00) (75, 2.45671994985818198387e+00) (76, 3.25468623634563991587e+00) (77, 5.64825597369286391825e+00) (78, -4.48653227244282959418e+00) (79, -8.09267557352429633966e+00) (80, -3.48115527306554206621e-01) (81, 3.26668858083828039796e+00) (82, -8.58845437983359971668e+00) (83, 4.00426110428088577464e+00) (84, -1.45658498858053375713e+00) (85, -2.08058005128857370636e+00) (86, 3.17260589424184713536e+00) (87, 1.00472760047475295764e+00) (88, -1.13036216228394152949e+01) (89, 4.18468683447501454964e+00) (90, -2.33013930582357264853e+00) (91, 4.47724922473572295445e+00) (92, 7.92236918115684041197e+00) (93, -7.46559252730409350640e-01) (94, 5.86080298494775053797e+00) (95, 1.10955940700328561377e+01) (96, -5.02869760396254195101e-01) (97, 1.66408605156640621026e+00) (98, -5.07069303125011749955e+00) (99, 8.29916014267716509178e-03) (100, 3.74358896477847391537e+00) (101, 2.38588350579472674440e+00) (102, 5.00881398313668935174e+00) (103, -3.04487269498564350201e+00) (104, -6.03978728270841536130e-01) (0, 6.29820870474189486998e+00) (1, -2.27651091014672735113e+00) (2, -9.37860638101902388541e+00) (3, -2.67345150543082721306e-01) (4, -9.20375488960548437944e+00) (5, -2.82093741692653132702e+00) (6, 2.27305736097927635342e+00) (7, -3.21464768981919091217e+00) (8, -3.06077434200924436425e+00) (9, 1.14299911646282481570e+01) (10, -1.28515963089303886235e+00) (11, -4.48458770531203576581e+00) (12, -1.89807082060518683697e+00) (13, 3.62527879046707379729e+00) (14, -8.43063772620170759353e+00) (15, 3.49380512484439531562e+00) (16, -1.81758911857091760567e+01) (17, 4.60667610594063692275e+00) (18, 3.74918696973704301811e+00) (19, -1.04567098123797386222e+00) (20, 8.97241778143523482925e+00) (21, 4.00920257417502340358e-02) (22, 6.65355168305085253877e+00) (23, -4.67188266166310128824e+00) (24, -4.43872149208871746850e-01) (25, 3.57065443014659544829e+00) (26, 9.93949916951954648425e+00) (27, -3.22912146828037016633e+00) (28, -2.26014596564425129799e+00) (29, -1.21177925692465926488e+00) (30, -7.01392066246227940951e+00) (31, -2.41624689158138616918e+00) (32, -3.18219130190249410717e+00) (33, 3.46974793188828067869e+00) (34, -7.96900146178341262093e-01) (35, -9.90627444538060508705e-01) (36, -5.22958684861396250199e+00) (37, -2.35215802112031502347e+00) (38, 7.23933946940606087850e+00) (39, -6.47544079445915876647e+00) (40, 7.45872589119797790858e+00) (41, 3.65482148198819301044e-01) (42, -1.22806262779440267252e+01) (43, 5.01796712976161796149e-01) (44, 3.50899196112519495827e+00) (45, 3.36044360308916933988e+00) (46, -4.56043542963052828121e-01) (47, -5.44441602275782798870e+00) (48, 5.92664719555931451822e+00) (49, 3.20859935101427762305e+00) (50, -5.43313813731560735221e-01) (51, 1.11497654413659863515e+00) (52, -8.19055155402968748657e-02) (53, -1.58466341731719162489e+00) (54, -3.17209975424401546817e+00) (55, -5.01156409903806565609e+00) (56, -2.16664467026311709230e-02) (57, -7.06023984240724811201e+00) (58, -5.08414511909390220978e+00) (59, -9.85762519634421963133e-01) (60, -4.11003714399665653900e+00) (61, 3.24646842550671133054e+00) (62, -8.62288758124855725384e+00) (63, -1.95996292830214891012e+00) (64, -6.28884412481010812712e+00) (65, -6.84655217909999080916e+00) (66, -7.43085040711426891846e+00) (67, 4.88371616025492727431e+00) (68, -6.58220248475326563664e+00) (69, -1.40214452258656963046e+00) (70, -4.92823250187166017611e+00) (71, 5.71220494369946507618e+00) (72, 2.01121329971158457894e+00) (73, 4.56303020877662568466e+00) (74, -1.89559273547465445553e+00) (75, 3.47321891779947744539e+00) (76, 3.23739621453999726342e+00) (77, 1.86063506188541755160e-01) (78, 1.69193693199044453701e-01) (79, -1.45972892602302528609e+00) (80, 2.83253812405068883251e+00) (81, -3.92129849785574469134e-01) (82, 2.43183231419164469500e+00) (83, 1.92425571426338670733e+00) (84, -5.78553844480167089870e+00) (85, -2.14532399139365859142e+00) (86, 2.69971444260802595494e+00) (87, -3.73910255766852639425e+00) (88, 2.45112096602151918745e+00) (89, 2.10585996316076284884e+00) (90, 3.39951141046659754963e+00) (91, 7.32361642868341183865e-02) (92, -3.66401541520078266601e+00) (93, -2.18336728638465288332e-01) (94, -2.53854634459114603118e+00) (95, 4.97503570131082906158e+00) (96, 3.05514419026928729650e+00) (97, 4.49321597558892715796e+00) (98, 5.23614609013306608887e+00) (99, 3.87616506623872414394e+00) (100, -3.58653170681106114870e+00) (101, 6.28921826073745027230e+00) (102, 7.91333690633759800903e+00) (103, -4.81555756793710654229e-01) (104, -2.61025348860651407179e+00) (0, 1.02744308115365146072e+00) (1, -1.35612855276480570588e+00) (2, -2.07232671755059483232e+00) (3, 5.77934020727236053006e+00) (4, 7.06085612747607793693e+00) (5, 8.82138099135681841290e+00) (6, -1.43250761491212896814e+00) (7, -7.74570322831919400031e-01) (8, -1.80530028459478186775e+00) (9, 3.12634907458824606863e+00) (10, 3.68211988306619719680e-01) (11, -8.00577395002665603840e+00) (12, 6.79094887093909260756e+00) (13, -5.14161379321155287414e+00) (14, 2.22076032543937751385e+00) (15, 4.12477034804882602970e+00) (16, -1.31037757591858312622e+01) (17, -3.24374795560166129249e+00) (18, 4.29960549140020464876e+00) (19, 4.13945670628031336946e+00) (20, 5.67621280612041889668e+00) (21, -8.14245119317068599685e+00) (22, -2.23238267528615841329e+00) (23, -6.68069383626201163118e-01) (24, 2.84267908792676093910e+00) (25, -4.31275517499348914896e+00) (26, -4.19033756649235211711e+00) (27, -3.84638792846743127196e-01) (28, -5.64161680721844227548e+00) (29, -3.68807761907283682135e+00) (30, 8.08764666263010312264e+00) (31, -3.17643364921923376798e+00) (32, -2.49085006870263825363e+00) (33, -3.34263714603960870875e+00) (34, -1.53104722283853278419e+00) (35, -6.94696992182981865049e-01) (36, -2.65730609060258871068e+00) (37, 6.19841347581149948454e-01) (38, -8.22932749711266731119e-01) (39, -4.38999844881792089524e+00) (40, 2.31086287876072482561e+00) (41, -7.11831357033883116436e-01) (42, -2.28917938433411993771e+00) (43, -4.11258804405148925554e+00) (44, -4.79111962144736924785e+00) (45, 2.67900769905972646612e+00) (46, 1.99693199917819197431e+00) (47, -2.22131401822120100320e+00) (48, 5.15975341487233563065e-01) (49, 3.82693827016201137958e-01) (50, 3.47541113301708159966e+00) (51, -4.81645675446874602099e-02) (52, 1.50699691572790883676e+00) (53, 7.90603937544231794021e+00) (54, 4.81845137870218831466e+00) (55, 2.23803454840490090305e+00) (56, 3.99111234167356998537e-01) (57, -3.32461694387045161858e-02) (58, 8.15243013659664583770e+00) (59, 6.56238929902552836637e+00) (60, -1.55454783333435053727e+00) (61, -2.18784195519692303833e+00) (62, -1.77911575850187086978e+00) (63, 1.68072716690523993321e+00) (64, -3.98264278989833098166e+00) (65, -7.43858071989085889442e+00) (66, -2.07871801096384160701e+02) (67, -7.81096737167431554028e-01) (68, -3.74912113620639875222e+00) (69, -2.44954953653935847413e+00) (70, -1.97035273944467848040e+00) (71, -5.55601984827009598433e+00) (72, 1.49957501124827485839e+00) (73, 1.98930282682282633111e+00) (74, 6.73885751481851036360e-01) (75, -1.54439507438109147053e+00) (76, -1.00616024822250538229e+00) (77, 1.02301250910966090579e+00) (78, 6.68876770448324808882e+00) (79, -1.70566631121453760045e+00) (80, -1.88606158728736561514e+00) (81, -6.10810316529650076944e+00) (82, 7.23075777552696918882e-01) (83, -2.60966388278246830268e+00) (84, 7.65944478854343291374e+00) (85, -8.72805792148627901383e+00) (86, 2.50699346227026609313e+00) (87, -1.21638199370969113389e+00) (88, 2.05053046276403261317e+00) (89, -1.38949104440311987929e+00) (90, 9.78950399518461966686e-01) (91, -2.37259737520753422046e+00) (92, -1.02888894026604504894e+00) (93, 6.58478444379066774061e-01) (94, 6.99027320631120563377e+00) (95, -5.29942375921036301634e+00) (96, 2.30062810727788669141e+00) (97, 3.51810277071540833393e-01) (98, -9.52069325347767403400e+00) (99, 1.53950559174859913369e+00) (100, -2.55230049841248307629e+00) (101, -1.03607324253673525050e+01) (102, 5.70350015962213330312e+00) (103, -1.53597028182830230847e+00) (104, -1.92317413302667250541e+00) (0, 6.63240403105360609715e+00) (1, -6.11506625379422019684e-01) (2, -6.25346095510992494582e+00) (3, -3.30299971299141326142e+00) (4, 7.25243592217838850544e-01) (5, 1.16919441049665628896e+00) (6, -6.33179955271118144466e-01) (7, 6.90443583474377287068e-01) (8, -2.56816446816441201761e+00) (9, 4.07462207221296424109e+00) (10, 8.02218604074754892963e+00) (11, 2.92154052697228916458e+00) (12, -4.00264932838286657812e+00) (13, 1.75418521473090760487e+00) (14, -2.03403865088533564176e+00) (15, 1.04539246578908482377e+01) (16, -2.49959628400458999664e+00) (17, 1.53318310137791558034e+00) (18, 1.00303174606997447249e+00) (19, -2.50713368479353082563e+00) (20, -5.46442898020395695369e+00) (21, 1.14974270390113528229e-01) (22, -7.58574341263609897013e-01) (23, -1.42577342692518205247e+00) (24, 2.81270731910324423009e-01) (25, 8.19110315460962135070e-01) (26, 4.02397239899932213092e+00) (27, -5.22471007424280386999e+00) (28, 5.35993334541637445056e-01) (29, -1.54878567695571867091e+00) (30, 5.54224620576265314398e-01) (31, 1.90873499654530442982e+00) (32, 2.34396393289309923347e+00) (33, 6.94616429377141564316e+00) (34, 1.00396597262068532075e+01) (35, -7.60607825971297035750e+00) (36, 2.34372327647503597703e+00) (37, -4.62796639793869957202e+00) (38, -1.15358059621033710584e+01) (39, -2.80439124195879418977e+00) (40, -3.98338312775498382123e+00) (41, 8.96140520961654551968e+00) (42, -4.80326124302185242243e+00) (43, -3.72624760936456800309e+00) (44, -4.66688260155057932366e+00) (45, 2.04342830391903956810e-01) (46, 2.53754248710070751116e+00) (47, 3.05556862848219878970e+00) (48, -7.75338373694176685724e-01) (49, -8.37405389382417730815e+00) (50, -7.04697278828791962013e+00) (51, 5.36099991847807211265e-01) (52, 1.81291916745077319462e+00) (53, -1.77395274472890274176e-01) (54, 8.74535921018817852257e+00) (55, 3.18503472820537036903e-01) (56, -4.31952253075450176567e+00) (57, -5.39169092647671632790e+00) (58, 5.96694891709135255553e-01) (59, -7.47007427193373008123e+00) (60, -6.28891746132199669361e-02) (61, -3.21877015459792881202e+00) (62, -1.48561703910866160783e+00) (63, -2.33071475398212646368e+00) (64, -7.43502609132858482965e-01) (65, 5.44750958776776261772e+00) (66, -3.51689603504565628800e-01) (67, 2.74172044259169434000e+00) (68, -2.67522749194328879341e+00) (69, -8.92568351254732128552e+00) (70, 1.51350448213460220259e-01) (71, -3.14521245397984428038e+00) (72, 6.45699721731967635208e+00) (73, -5.00572322627740717849e+00) (74, 5.31023160975485630786e+00) (75, 5.63606466017596652307e+00) (76, 5.04692345006255482787e+00) (77, 1.07459919869147002558e+00) (78, -3.93023912885661230732e+00) (79, -3.96730822639251279327e+00) (80, 2.69690125343394093704e+00) (81, 8.31053294956201615840e-01) (82, -3.12433148879443756130e+00) (83, 1.05812168620237678773e+00) (84, -9.29986549664080897060e+00) (85, 5.24829080148407722817e+00) (86, -7.99184067135820463967e-01) (87, -4.66469619999852280756e+00) (88, -3.51359150989564161804e+00) (89, 5.62377931465917080267e-01) (90, 4.55189054719912977731e+00) (91, -3.40323208792988385341e+00) (92, -2.54765233572375349169e+00) (93, 2.37384424957007666990e+00) (94, -1.78394838365184349449e+00) (95, -3.57570622445461960837e+00) (96, 7.12338725377829806718e+00) (97, 6.68243333820646245869e+00) (98, -3.11278908928716990800e+00) (99, -2.67990969413608315364e+00) (100, 6.77178973476374790330e-01) (101, 1.34747466423320294560e+00) (102, 3.43301379654765836946e+00) (103, -4.75388512089667347738e+00) (104, -1.96063819851744103318e+00) (0, 3.45517276707483445009e+00) (1, -6.23529673772937886866e+00) (2, -4.15713821938252348076e+00) (3, -3.18888649065978313502e+00) (4, -1.42293109900947145618e+00) (5, -1.50410804248695306740e+00) (6, 9.99411207090536324316e-01) (7, 6.03589440091242313002e+00) (8, 1.16179320834951793628e+00) (9, 2.95357429878148902702e+00) (10, 2.05577085188619568257e+00) (11, 8.36440263242120884968e+00) (12, -1.45445706153234755043e+00) (13, 1.63074204999877880873e+00) (14, -6.80382697955148718627e-01) (15, -5.09937184654859976263e+00) (16, -2.52402863751273764947e+00) (17, -3.04671026246315612696e+00) (18, 4.82338650007347613524e+00) (19, -1.65574723068757062583e-01) (20, -1.92271490781134146708e+00) (21, 1.23807662767168791262e+00) (22, 1.62841861913780716620e+00) (23, 1.39052257724700734087e+01) (24, 3.20605667096403212923e+00) (25, -2.44323286858524157950e+00) (26, 1.41347648413955595537e+00) (27, -5.46571749619195856873e-01) (28, -5.11937629282416262200e-01) (29, 2.07819731809026375657e+00) (30, -5.19432794507438533316e+00) (31, 5.96014082825960245238e-01) (32, -1.26503064419331373580e-01) (33, -1.17452190049445737152e+00) (34, -7.44091976006259780974e+00) (35, 6.95537315871126082811e+00) (36, 5.50434246803211024712e+00) (37, 3.80381263802485403147e+00) (38, 5.33338616386728059382e+00) (39, -3.44867932719215852799e+00) (40, -5.63738108276110150285e+00) (41, -3.76922978288166177219e-01) (42, -1.52274587305896891287e+00) (43, -4.19436117633499883084e+00) (44, 5.75986493666109833356e+00) (45, -7.37319653524213336482e+00) (46, 4.64846612077709320232e+00) (47, -1.76934056884404777854e+00) (48, -8.42259960530308937621e+00) (49, -2.69295874516167188517e+00) (50, -7.35836300788317743127e+00) (51, -5.96448275912134917576e+00) (52, 3.38254047039383376472e+00) (53, 3.12775863569340151216e+00) (54, -4.40610932415527134509e+00) (55, 2.75464497683602571598e+00) (56, -5.88141066260664047149e+00) (57, -3.37151961482719908503e+00) (58, 8.30584962358670297888e-01) (59, 3.95418018533656345781e+00) (60, 5.37178833655242815581e+00) (61, -2.72915454539716662019e-01) (62, -7.35443936307272583264e+00) (63, 1.21133070019313193733e+00) (64, -2.96426739431961072668e+00) (65, 5.07228106400510903029e+00) (66, 3.27667017218227010766e-02) (67, 5.08569929866364311977e+00) (68, -3.71303370908788465954e+00) (69, -6.86251202290440037723e-02) (70, 3.20591541417373404599e+00) (71, 1.20313734149876494506e+00) (72, 3.31237421852200775163e+00) (73, 7.36998435131961571187e+00) (74, -1.07267978502054859291e+01) (75, -6.77034971997259038545e+00) (76, 4.61318402828434226404e-01) (77, -3.24837773502749094234e+00) (78, -3.17772253271806981445e+00) (79, 3.30495807181412271092e+00) (80, -1.31326529990084739374e+00) (81, 2.75629876269673035338e+00) (82, -4.27610101020578614595e-01) (83, 5.56190302785857015877e-01) (84, -6.64852564345450680605e+00) (85, 1.46272474282976960858e+00) (86, -2.04530963783139041468e+00) (87, 4.07480617007113909978e+00) (88, 5.75517938065419265570e+00) (89, -1.56522448333240515872e+00) (90, -3.11660199263054682461e+00) (91, -1.09365378234826486903e+01) (92, 5.98336883049299661508e+00) (93, -2.00934888011700518717e+00) (94, -2.07510935596456125296e+00) (95, -4.56413547234706040712e+00) (96, -6.33729010953969496001e+00) (97, -1.09517852676811999757e+00) (98, 4.34095710542044344038e+00) (99, -1.42484239690755742913e+00) (100, 6.97907948675315581433e-01) (101, 4.25754334232980635733e+00) (102, -3.24908023536046774993e+00) (103, -3.40149455792948085531e+00) (104, -2.65579121982670474100e-01) (0, -6.13939929506514214808e+00) (1, -4.87782715576688463699e+00) (2, 4.51324135507468060524e+00) (3, 1.21184187707230717201e-01) (4, 1.83749540722994542108e+00) (5, 4.01592526468013844010e+00) (6, -2.52516956293513450404e+00) (7, 4.68288909915218098945e+00) (8, -4.74410507319891028288e+00) (9, 1.35826034350047262222e+01) (10, 6.70859486668847271318e+00) (11, 2.44452157751407783692e+00) (12, 3.19336003651177513518e+00) (13, 1.99252757678003211694e+00) (14, 1.95269613181175771821e+00) (15, 2.91723460901838960169e+00) (16, 4.40483198854140578504e+00) (17, 5.36324931874345534055e+00) (18, 2.82055214548927546403e+00) (19, -9.20031444422673772010e+00) (20, -1.52054581233152541486e+00) (21, -2.88272415703617568283e+00) (22, 9.41978862966279306690e-01) (23, -3.80332123665721200112e+00) (24, 3.56327906700979468724e+00) (25, 3.96231499773412565446e+00) (26, -1.29823627113869513039e+01) (27, -4.51723281454246805566e+00) (28, 7.30114940469823903157e+00) (29, 4.81202015611490363511e+00) (30, 6.70251191467608475882e-01) (31, -7.35925184459550796312e-01) (32, 1.98979570731703514497e+00) (33, 3.95391455944806491374e+00) (34, -4.20592252865629490088e+00) (35, -4.27077231630770537407e+00) (36, -1.38163160422435793429e+00) (37, -5.81965181237733553132e+00) (38, -3.49612799768119597577e-01) (39, 3.30432107015710130327e+00) (40, -9.18199170917233331579e+00) (41, -6.38715631401903749520e+00) (42, -4.10330367130488049554e+00) (43, 1.94832459442918937143e+00) (44, -3.03711491485671647439e+00) (45, -3.35257768976386794080e+00) (46, 5.28244644967221699261e+00) (47, -2.67836283945803499407e+00) (48, -6.33658898098986966829e+00) (49, 7.68084158044567200108e+00) (50, -1.09622695107653234103e+00) (51, -5.53290816052728295915e+00) (52, 9.89155458188637659589e+00) (53, -1.46540151402377238909e+00) (54, 2.58509962207623988917e+00) (55, -6.22272818488883938670e+00) (56, -4.47456410845794216868e+00) (57, -5.15776574957829758716e+00) (58, 5.68200162393890995105e+00) (59, -6.13997789272590122067e+00) (60, 1.24814398282313323563e+01) (61, 2.48434077700000610633e+00) (62, 4.14251520723862753925e+00) (63, 7.70585788749171118894e+00) (64, -5.78999186241324181879e+00) (65, -3.30081268873221089777e+00) (66, 1.15932397936531628169e+00) (67, -3.60621275522654549661e+00) (68, 2.40783783793313865829e+00) (69, 5.26373172393486843390e+00) (70, -3.95650539617191387975e+00) (71, 3.25857329646742632789e+00) (72, 4.08005950866109490249e+00) (73, 1.26456150176557469145e+00) (74, -3.25238886935833537706e+00) (75, 3.39910291962677435507e+00) (76, -3.66675667117046222288e+00) (77, -1.59847365002108676713e+00) (78, 4.23248437305576352685e+00) (79, 1.55372586369328113953e+00) (80, -7.18288083994602644111e+00) (81, 6.27733158130454693691e+00) (82, -7.35268829522597844317e+00) (83, 4.21284816729566458093e+00) (84, 6.89665478222562411403e-01) (85, -6.23900044890097937866e+00) (86, 1.29856000664800474986e+00) (87, 5.43987098975452809668e+00) (88, -9.05010386366530639179e+00) (89, 1.10527953791095470137e+01) (90, -3.35951630125925770898e+00) (91, 7.53339843236054074183e-01) (92, -9.99442366733122966593e+00) (93, -2.76527524056141249531e+00) (94, -9.79231521301631602228e-01) (95, -3.34588703008290133667e+00) (96, -5.81609066115406636577e-01) (97, -1.36568282801280238559e+00) (98, 6.53688656703078940780e+00) (99, -3.08216637762020440050e+00) (100, 1.81361821993717375889e+00) (101, -7.28585017782402832864e+00) (102, 3.72373455064265224124e+00) (103, -8.41675792170500791656e+00) (104, -2.11853659609226330218e+00) (0, -9.95268104629928207494e-01) (1, 2.26351182357821612001e+00) (2, 3.31780867799121370609e+00) (3, -6.09383023021622527438e+00) (4, -2.25649521929514174090e+00) (5, -4.54676319682452234616e+00) (6, -1.98447012762881014325e+00) (7, 6.88786901178375821075e-01) (8, -1.35706563629809928706e+00) (9, 7.20354986289597043481e+00) (10, -1.77792691175164541129e+00) (11, 5.82557893836437856727e-01) (12, 3.01626468839103267783e+00) (13, -2.71869421880648065581e+00) (14, -1.63028939363680702712e+00) (15, 2.28026767958957110594e+00) (16, 2.91277198718975594005e+00) (17, 1.64591424088291371497e+00) (18, 9.37647002097879767035e-01) (19, 1.38572021808193474035e-01) (20, -2.68284474425430374822e+00) (21, 5.12890015989534209240e+00) (22, -1.52647030045712184254e+00) (23, 1.31560862103481990282e+00) (24, 3.01788630112537914485e+00) (25, 1.62426545705833702549e+00) (26, -3.00423605164560481029e+00) (27, 2.66580227772629951843e+00) (28, 5.18578025167477907331e+00) (29, -2.77615800092145370570e+00) (30, -1.01838258922501534443e+00) (31, 2.94812087082542095828e+00) (32, 7.49057426413899118955e+00) (33, -8.98353274955385394662e+00) (34, 1.08652268023005298403e+01) (35, -3.79302114540392443232e+00) (36, -1.56061215817299299147e+01) (37, -2.39353752950256026821e+00) (38, -4.33168420470186177340e+00) (39, -2.48030258383912194375e+00) (40, -4.86390044155864043063e+00) (41, -1.43387174747750094639e+01) (42, 8.95558094950832739300e+00) (43, -1.16004270689947190931e+01) (44, -6.60110635780611243462e+00) (45, 2.21453813053888071138e+00) (46, 4.64927855725084704375e+00) (47, 2.04912428446199790244e+00) (48, 4.80884804150119737898e+00) (49, 5.87191392752947916023e+00) (50, -5.78887107826296887225e+00) (51, -1.92858133107533546990e+00) (52, 7.63294762990331498997e+00) (53, -1.47100765328615312733e+00) (54, 8.84486788280107738558e-01) (55, -4.33739533830110435275e+00) (56, 9.42592027834109202900e+00) (57, -2.93693752133635443968e+00) (58, 3.09283125093619970514e+00) (59, -6.13266967836477583376e+00) (60, -8.32364984117541162334e+00) (61, -4.72059058962785785263e-02) (62, -9.82927383047766412005e+00) (63, -7.01453684638786612027e+00) (64, -5.87267405658084040709e+00) (65, -2.46147913031757648028e+00) (66, -2.41290365623720370891e+00) (67, -7.79483335953090783477e+00) (68, 2.37676869244155875016e-01) (69, -1.31603868398689396457e+01) (70, -5.85241494166359021989e+00) (71, 7.52404857097045098868e+00) (72, 1.79684345874353934569e+00) (73, -5.19571879496075972327e+00) (74, 5.76771231355148561448e+00) (75, -2.10044488319033595403e+00) (76, 3.33820860759197213241e+00) (77, 7.23167040751791390107e+00) (78, -4.65384842474870552564e+00) (79, 1.00995271292900135052e+01) (80, 4.43906143966681554502e+00) (81, -2.87360224891916793410e+00) (82, 8.67553755608819088252e+00) (83, 6.62800223620313566641e+00) (84, -4.59138385176102037377e+00) (85, 3.08546330914359945297e+00) (86, -5.35117731608971913815e-01) (87, 4.87178194438795397758e+00) (88, -4.86331058766800872206e+00) (89, -3.04282387758704375713e+00) (90, 3.31266006901105480864e+00) (91, -2.05729597465970248660e-01) (92, -2.85903647847226682899e+00) (93, -3.61681330260824518419e+00) (94, 6.64106258687092410042e+00) (95, -6.59910464096984750171e+00) (96, -1.96229376186926218750e+00) (97, 4.39132506725596005737e+00) (98, -8.98044066026628939881e+00) (99, -6.52375509362205541208e+00) (100, 5.99814619633702084123e-01) (101, 5.96494239263173930965e+00) (102, 2.94450085524808713444e+00) (103, -2.66695650754226099011e+00) (104, -2.34549413545438900641e+00) (0, -4.65936227987882478629e+00) (1, 9.39763255469522107433e+00) (2, 1.52909289479820048596e-01) (3, 3.61672814516226193149e+00) (4, -5.01286128069309167010e-01) (5, 6.18988765904646154326e+00) (6, 4.40850629617257894211e+00) (7, 6.40275370835134793879e+00) (8, -1.44029047537326460038e+00) (9, -2.48772736853029963200e+00) (10, -1.26806384979887916131e+01) (11, -5.12797890723631866194e+00) (12, -1.37849334700151526789e+00) (13, -5.93806780843297854489e+00) (14, -2.60514152684884381372e+00) (15, -7.27455826344875955414e+00) (16, 2.19192640746372857663e+00) (17, 1.16549150821510871801e+00) (18, -2.39273212686285319251e+00) (19, 2.31139630920521477186e-01) (20, -4.16443820555990606991e-02) (21, -9.12209195995421495695e+00) (22, -7.72758155084907194521e+00) (23, 8.59301661277165784725e+00) (24, -4.79515185303272417627e+00) (25, 3.85962609072878315430e+00) (26, -1.07134544680975163367e+00) (27, 4.09315927679816127238e+00) (28, 2.63011642753424945695e+00) (29, 3.24819189017026621613e+00) (30, 2.60773676585608127354e+00) (31, -1.35334572290471051303e+01) (32, 1.98428984048044498856e+00) (33, -1.02178841806488343025e+01) (34, 3.81018450386899543147e+00) (35, 3.29776036749626788591e+00) (36, -6.38806665872247148030e+00) (37, -1.17407571180567305014e+00) (38, -6.09941150145374688663e+00) (39, 6.41163382170561746420e+00) (40, 3.86086428795291602967e+00) (41, 6.37596736040763278908e+00) (42, -5.01979936436724916149e+00) (43, 4.41250830057486975733e+00) (44, -2.50719637130646155754e+00) (45, -1.77067984586866145058e+00) (46, 1.70574542707135279329e+00) (47, -1.40549230599215535520e+00) (48, 8.76995445369317039308e+00) (49, 5.29743124900271844524e+00) (50, -9.73992090491654138873e+00) (51, 1.37647034048245253679e+00) (52, 5.32977839221669125180e+00) (53, 1.95307447576419690449e+00) (54, 3.60867269843425786391e+00) (55, -1.68211840739541251821e+00) (56, 4.09317839645755832123e+00) (57, -8.69629006203222587601e+00) (58, -5.56402657547014761752e-02) (59, -4.58670961588330783343e+00) (60, 6.87054034789096057523e+00) (61, 1.26598139192591552238e-01) (62, -9.36177858962005338128e-01) (63, -2.37458644390299156157e+00) (64, 1.79913772811439298671e+00) (65, 5.15171184352652655747e+00) (66, 5.82662654771250387853e+00) (67, -1.61394193862892376679e+00) (68, 1.45804850821727871590e+00) (69, 1.27623093599920367502e+00) (70, -1.00933998416153358768e+00) (71, 1.90005411276220570471e+00) (72, -1.54530666907686207168e+01) (73, -2.68324912666843395925e+00) (74, 3.15064074178494513134e+00) (75, -1.10662835211272234659e+01) (76, -7.86016213420692722025e+00) (77, -2.60619118573773311809e+00) (78, -3.07124092587109975838e+00) (79, 3.32180819523284265316e+00) (80, 3.69326649704070086866e-01) (81, -1.12072381034835344416e+00) (82, 1.87447355261386183756e+00) (83, 1.12312254106835829326e+00) (84, -5.14867330810365242399e+00) (85, -7.61821756389831628020e-01) (86, -1.29750233415612759025e+00) (87, -4.79922206503208215178e-01) (88, 5.59170532672763176407e-01) (89, -5.06575906089782757036e-01) (90, -2.14458026207391538875e+00) (91, 1.38309040041204767135e+00) (92, -9.87228346802181966346e-01) (93, 4.39871073959462943748e+00) (94, 1.98168413002729426609e+00) (95, 7.64591685407490384563e+00) (96, -2.63857950696514009792e+00) (97, 1.88250187769884713695e+00) (98, -1.51838306836936864919e+00) (99, 2.61117022413502608558e+00) (100, -1.03309064457056383191e+01) (101, 3.90439969424857369340e-01) (102, -1.40690863324766934905e-01) (103, -3.39807205270460155333e+00) (104, -7.98427414999109852367e-01) (0, -6.96301765409027151321e+00) (1, -5.44535790114666884421e+00) (2, 5.61479938538451683883e+00) (3, 7.88920290004373647719e+00) (4, 5.28282700075178524024e-01) (5, -2.48027342382875071181e+00) (6, -7.87586765990329951137e+00) (7, -1.90819404933143577097e+00) (8, -9.27600634751100550091e+00) (9, 2.96891439767670251015e+00) (10, -5.43785218201306541630e+00) (11, -9.79791491798394864610e-01) (12, 4.41081235231785218076e+00) (13, -2.57338125128525563312e+00) (14, 6.02130382403946007308e-01) (15, -5.86782517130021830098e+00) (16, -5.73039821783943903455e+00) (17, -4.25805698274017085936e+00) (18, -2.24980417253680498035e+00) (19, -3.60204037423374501259e+00) (20, -9.01796759903621958365e-01) (21, 7.25871783926390268249e+00) (22, 6.27918865713229834569e+00) (23, 1.57503236929035450586e+00) (24, 2.58513903196873151558e+00) (25, -1.00603172106174838518e+01) (26, 2.59102941068571279715e+00) (27, 6.91821535734686299257e-01) (28, 4.97062620434786150980e+00) (29, 2.89758165021982705412e+00) (30, -2.82514221502545082032e+00) (31, -9.95809207532704854238e-01) (32, 5.94153865780967738175e-01) (33, -7.28435205662402740501e+00) (34, -3.07522497273417139141e+00) (35, 8.46124720531462926054e-01) (36, 5.37335159559936403895e+00) (37, -2.83514815811848670535e+01) (38, -1.32791919805219418294e+01) (39, 1.37372544433768251082e+00) (40, -2.43324492008486048533e+00) (41, 5.52868539272841630350e-01) (42, 4.94000436875019044436e+00) (43, 3.08702863998025378578e+00) (44, 5.08442699096753614185e+00) (45, 5.41036341323348590748e+00) (46, 5.71992107359505386199e+00) (47, 6.71247039081240726155e-01) (48, 6.87421351781981115892e+00) (49, 2.16077286317879613264e+00) (50, -8.25017943402468745262e+00) (51, -1.10366598223375889098e+00) (52, -1.85523340667925973335e+00) (53, 8.31843334097118192183e-01) (54, 2.51131277678261666253e+00) (55, 1.64543137011782159007e+00) (56, -2.31231942666201728542e+00) (57, -1.43858915297802952837e-01) (58, -1.07424234347400631151e+01) (59, -3.95602200470846865343e+00) (60, -1.68274234845546666328e+00) (61, 1.30875112645321447502e+01) (62, -1.87241964965227403184e+00) (63, 2.50961166902478094443e+00) (64, -5.68162596784198736799e+00) (65, 3.57559964113879935610e+00) (66, 9.45343799239784488009e+00) (67, -2.05016445086469722980e+00) (68, 2.74409214456707362118e+00) (69, 5.71033561243991863443e-02) (70, -4.76488562596190945442e+00) (71, 1.35947108090389656709e+00) (72, -1.32252625276018243028e+00) (73, 1.75347191356371157056e+00) (74, -1.79052133603821439500e+00) (75, -6.61290513280747660474e+00) (76, 2.24465537703308370965e+00) (77, 2.35082204376950443248e+00) (78, -1.01253652118895520751e+00) (79, -1.56205737201680028292e+00) (80, 2.00111928819920592559e+00) (81, -1.85567424652197304757e-01) (82, 1.03915979594624179327e+01) (83, -1.30237523216608241938e+00) (84, -1.37479301353480298786e+00) (85, -1.17922320023051696580e+00) (86, 7.37186099031351904642e+00) (87, -1.41088601776979452040e+01) (88, -1.33716132000741394492e+00) (89, 6.45390770928500501213e+00) (90, 3.25789345036371535969e+00) (91, -1.34468191940995556166e+01) (92, -5.09551422769930351109e+00) (93, -6.36276229178442620515e-01) (94, -4.17264531212849731912e-01) (95, -3.08334728921465517359e+00) (96, 1.47001638196350326027e+00) (97, 1.80529313248489908794e+00) (98, 3.90689540600284113125e+00) (99, -6.78704119225086888179e+00) (100, -4.19176813178022467099e+00) (101, -8.58992243563782409410e+00) (102, -3.33815317859467031170e+00) (103, -6.90941829093776593851e+00) (104, -2.82503069718080412898e+00) (0, -3.39643081635094334914e+00) (1, 4.49438334559467733698e+00) (2, 3.57190329205194889717e-01) (3, -5.62315949700869288641e-01) (4, 5.25832655271186943935e+00) (5, -2.15379738126095920947e+00) (6, 8.18916914263381423567e-01) (7, 2.24152306163668146866e+00) (8, -6.50850164271102915592e+00) (9, 6.45135498239833182765e+00) (10, 2.69976048695699111235e+00) (11, -3.26473151766254421347e+00) (12, -1.77930449757602704430e+00) (13, 1.13094105261891524350e+01) (14, 4.35491479211994381160e+00) (15, -1.19551100609102611827e+01) (16, 4.12892391554295112854e+00) (17, -5.58029777093588919001e-01) (18, -3.27788496957397423870e-01) (19, -6.39466095574729020967e+00) (20, -7.69889615350723843790e+00) (21, -6.88606861162911876306e+00) (22, -5.89253756495641489721e+00) (23, 7.74170530386694277780e+00) (24, 1.33245299696783403576e+00) (25, -2.12755909874570559026e+00) (26, -9.42001294092188423690e+00) (27, 1.67455903335783773400e+00) (28, 5.42932529063476021491e+00) (29, -8.18562518028869945397e+00) (30, -4.53057898383059765024e+00) (31, -8.43711403409321047953e-01) (32, 6.58531185744080449496e+00) (33, -9.88362441615181630539e+00) (34, -2.00310455226116701510e+00) (35, -3.36980479479258265840e+00) (36, -2.94231907817712468045e+00) (37, 6.26581493658526444968e-01) (38, 3.79930047214464927663e+00) (39, 1.46009240656278427295e+00) (40, 7.28115974740359384043e-01) (41, 8.54087882745603188539e+00) (42, -2.75638698526103187447e+00) (43, 1.21040810600973376410e+01) (44, 1.68506309353868921619e+00) (45, -4.75444966660952506032e+00) (46, -6.24628239641049542996e+00) (47, -2.08883015930802218296e-01) (48, 6.10483917628083738727e-01) (49, -1.53001818848104642612e+00) (50, 6.23566554535945183346e+00) (51, 3.41225750818055217906e+00) (52, -4.32459843204053751009e+00) (53, -1.17765339848938421774e+00) (54, 2.04706216341336411091e+00) (55, -2.07827898041064607071e+00) (56, 5.28896399289099816698e-01) (57, 6.26637623760594397737e+00) (58, -2.25747260954496464791e+00) (59, -3.60650302162024383179e+00) (60, -9.73351685036524116867e+00) (61, -7.29804667895163383662e+00) (62, 3.07760350606846921906e+00) (63, -3.41474330640508405565e+00) (64, 2.43262038265255764458e+00) (65, -2.09350125544391785226e+00) (66, 3.65722721812211437609e+00) (67, 1.75133645146418270855e+00) (68, 9.34352810721915716385e+00) (69, 1.45295803844170157149e+00) (70, -3.03301048860095623372e-01) (71, 2.40133281895477956880e+00) (72, -6.40366612945271995727e+00) (73, 6.23669810999766660586e+00) (74, 9.40559335471802704376e+00) (75, 2.64449065120512294413e+00) (76, 6.05919127270852975187e+00) (77, 6.35631460943170534250e+00) (78, -3.69046536196982044586e+00) (79, 7.33359600961476054692e+00) (80, -1.35958690488839835098e+01) (81, -5.78731049697341326521e+00) (82, 4.36074958780709920347e+00) (83, -4.61302798961321514071e+00) (84, 3.32131614313279865947e-01) (85, -1.87677445970958856059e+00) (86, -1.86568349213514150797e+00) (87, -1.38588666898578227737e+00) (88, -1.11637566516767416935e+00) (89, -2.07245434400575323508e+00) (90, 4.85101892449686999953e+00) (91, -3.40014392611417770595e+00) (92, 6.87782617178306354688e-01) (93, -4.36799794325613666146e-01) (94, 7.31983357335176387792e-01) (95, -8.28565990995619783277e-01) (96, -6.47227251878529230567e+00) (97, -5.60800715103793478988e+00) (98, 3.64740911553024282910e+00) (99, -1.84218106874282350205e+00) (100, -3.21619781981799679471e+00) (101, 1.43843338937883160611e+01) (102, -6.49544385360233178517e+00) (103, 2.14434567266765974125e+00) (104, -1.74551998292578780525e-01) (0, 7.58590685339465164994e-01) (1, -3.54566900413816377124e+00) (2, 3.63157828615833233599e+00) (3, -1.03204982931177333683e+01) (4, 2.05591435973063463294e+00) (5, 4.67541341102186969181e+00) (6, -2.87202756190719243889e+00) (7, -7.02821758343205438280e+00) (8, -4.13865970836152374801e+00) (9, 3.96787119425437317943e+00) (10, 2.65678079918192056041e+00) (11, -1.32841352279612023857e+00) (12, 5.28459918004061712793e+00) (13, 4.51805674068493878792e+00) (14, -3.69042214185447159380e+00) (15, -1.51453954723198735977e+00) (16, 1.13738980000661893399e+00) (17, -2.51221536810569290310e+00) (18, 6.10462777044328763765e+00) (19, -4.15291317136112514419e+00) (20, -2.61026001164059939796e-01) (21, -6.31799567043168774916e+00) (22, -1.68056112644483013341e+00) (23, -3.69720754017747488263e+00) (24, -7.33771674314427979624e+00) (25, 4.14343307300460939047e+00) (26, 1.64207194859183291946e+00) (27, -1.44260969835176009468e+01) (28, -1.09549286187742520582e+01) (29, 9.05904267662318463117e-01) (30, -8.48847693908350575676e-01) (31, 6.92596283471342566429e+00) (32, 1.06629150517301312107e+01) (33, -4.08248456064893572304e-01) (34, -6.38888219065053508672e+00) (35, -3.40848325211606928420e+00) (36, 1.40071066281688749733e+00) (37, -2.16327255357870074093e+00) (38, -6.74826452123387809934e+00) (39, 3.92444554563033010108e-01) (40, 1.17459957392879683624e+01) (41, 9.40209975163882050175e-01) (42, -3.44563789123515240576e+00) (43, 1.92430536454510225930e+00) (44, -4.54341799119006495289e+00) (45, 9.41612516872900151554e+00) (46, 3.07522384480528954143e+00) (47, -1.32292619111621645445e+00) (48, -6.08637454129059740637e+00) (49, 2.72309172969332902170e+00) (50, 3.09727617975048907795e+00) (51, -2.10227734165628321605e+00) (52, 6.01455457468557508349e+00) (53, 5.86498014280800994413e+00) (54, 7.45804867584546449244e-01) (55, 2.93751976284710680787e+00) (56, -6.41371279174295483294e-01) (57, -3.07936907895280764791e+00) (58, -2.81897713701728802604e+00) (59, -1.00468242757092629525e+00) (60, -7.15419664370056462843e+00) (61, 5.38141772558188424824e+00) (62, -5.36759863955660065926e+00) (63, 5.62341671619582328390e+00) (64, -8.96902795564492016922e+00) (65, -9.60792760050033889385e-01) (66, 9.46925157560572827720e-01) (67, 6.62205410274278372107e-01) (68, 3.23901918049504466968e-01) (69, 8.85112021337872284521e-02) (70, -2.23235384724120855537e+00) (71, -7.41171368943876274216e+00) (72, -2.15713219294138891513e+00) (73, 2.89572505946620228912e+00) (74, -1.96108528652160996053e+00) (75, 4.43265485313407392454e+00) (76, -3.48226119465146899401e+00) (77, -7.27761602994475786943e+00) (78, -2.21153329565051715022e+00) (79, 9.78505544186355535885e+00) (80, -3.26537797887921277251e+00) (81, 7.85272041024740463655e+00) (82, -3.03602203253098279490e+00) (83, 4.76727798576039063505e+00) (84, 3.65556521345250162724e+00) (85, 7.36143664461447411185e-01) (86, 1.33185644833131866527e+00) (87, -1.82143718144112054524e+00) (88, 4.72009480233407519023e+00) (89, -1.59776434007663170611e+00) (90, -4.34788024143761298035e+00) (91, 8.71874537731371290761e+00) (92, -2.65157752012182834633e+00) (93, -3.00398962455560060436e-02) (94, -7.74036216765222384595e+00) (95, 2.41294054812084990402e+00) (96, -1.48626677582791955068e+00) (97, -4.54322923679703105648e+00) (98, -4.71395820327829562224e-02) (99, 1.66697555762650551081e+00) (100, 4.45740212671440705350e+00) (101, 7.14560550765163809972e-02) (102, -4.66846838810796693764e+00) (103, -3.62421015665815948736e+00) (104, -1.03040075544055342860e+00) (0, 7.99301118510753738633e+00) (1, -8.35647198173961047729e-03) (2, -3.59851643269686549687e+00) (3, -5.06147634116694877804e+00) (4, -1.07985721057337591411e+00) (5, -6.27890613579626499785e+00) (6, -1.53104783746522654653e+00) (7, -2.06263284496138732393e+00) (8, -2.19793754259066709267e+00) (9, -1.05209449257042635395e+01) (10, 3.29572319964896109923e+00) (11, 3.06411603830397094583e+00) (12, 5.16662982895905642522e+00) (13, 4.45202982230273924813e+00) (14, 4.05072033273996456870e+00) (15, -4.42796059520493301420e+00) (16, 1.21983457021719532420e+00) (17, -2.52269102690753310725e+00) (18, -7.16284923540753659665e+00) (19, 1.55221940186624500768e+01) (20, -2.03660634701902321098e+00) (21, -1.58699966787247781497e+00) (22, 5.41103240547073927047e-01) (23, 4.82051048861833830728e+00) (24, -1.04156350441522893568e+00) (25, 4.43763035414396345146e+00) (26, 1.14498313081256086754e+00) (27, -3.17048455953415075914e-01) (28, 1.02860963825627926838e+00) (29, 8.72583744274872952218e-01) (30, -8.44381599550540329346e+00) (31, -1.13033487112424624321e+00) (32, 2.72421641674569814384e+00) (33, 1.52964797028062160500e+00) (34, 1.23475959364365550641e+00) (35, 5.97017291190107535215e+00) (36, -3.14629723803921468317e+00) (37, 5.52849766403233688905e-01) (38, -1.91831730164166769370e+00) (39, 1.01830040221519868560e+00) (40, -1.42138150846386661641e+01) (41, 1.37979897023440778447e+00) (42, -2.59507148425423750382e+00) (43, -3.22493432818949354868e+00) (44, 4.70202060436415258948e+00) (45, 3.22648842779445721440e-01) (46, -2.95395029471642667218e+00) (47, 1.15162860489826268662e+00) (48, -2.28268381678785603484e+00) (49, -5.12472194290225591118e+00) (50, 4.63997861680369183546e+00) (51, -4.45111182488602974416e+00) (52, -7.73307031183660953388e+00) (53, 7.16492932506896362810e+00) (54, 4.50465737780975228333e+00) (55, -5.71424422325045888726e+00) (56, 3.61634160771363033504e+00) (57, 7.31715292675973305592e+00) (58, -3.19964864207499477544e+00) (59, -1.27927125351968551392e+00) (60, -2.26507791166666017091e+00) (61, 1.81864486313532114359e+00) (62, -4.55317573943230513578e+00) (63, 3.87698365155542035154e+00) (64, 3.76306069980227819727e+00) (65, -3.86663486545151169338e+00) (66, 1.50472153898100396985e-01) (67, 3.68487514792937442820e+00) (68, 2.27471173786221747548e+00) (69, -2.25616238361859311468e+00) (70, 9.67786511553906159122e-01) (71, -8.48057000097443336450e-01) (72, 1.63668900944116146867e+00) (73, 3.74906793084832123952e+00) (74, -6.58400127071007457147e+00) (75, 3.35270300776222018868e+00) (76, -2.01702069055549593202e+01) (77, 2.06920017551295298830e+00) (78, 4.32838068855285307279e+00) (79, -4.32822951042305614777e+00) (80, -7.35996669269050496354e+00) (81, -3.70009670370783982918e+00) (82, -7.93157538368156256325e+00) (83, 2.56146225801883842266e-01) (84, 2.13409206054030864408e+00) (85, 9.25687480372381688021e-01) (86, -2.34733888716733662960e+00) (87, -5.76323520895128282859e+00) (88, 2.93972350535551729678e+00) (89, -3.85069018569131893415e+00) (90, -3.50650613786231346580e+00) (91, -1.27211342233357593834e+00) (92, 4.24638633646099350472e+00) (93, -1.52259615720876251288e+01) (94, -1.91220163511845653304e+00) (95, 4.41040463423446116309e+00) (96, 2.33352569374710183681e+00) (97, 7.44918553888160062115e+00) (98, -4.01201313045434204696e+00) (99, -6.19620227238660703506e+00) (100, 3.86074335677164848235e+00) (101, -1.90362070474535260978e+00) (102, -5.51973495395249091899e+00) (103, 5.37278776615714903642e+00) (104, -3.83220509234472594962e-01) (0, 1.15818319576884776190e+00) (1, -7.62537283814534228021e-01) (2, -6.62702134330309089449e+00) (3, 4.26578188620288512034e-01) (4, -3.54697550193195398904e+00) (5, 7.86047023407182177124e+00) (6, 8.48792019493889993154e-02) (7, -7.57262437702462953837e+00) (8, -1.16023534466208944060e+00) (9, -3.93118328266576222418e+00) (10, -3.12389012316636538458e+00) (11, 1.34295687370909999636e+00) (12, -8.05896076673175620897e+00) (13, 1.97635299927113261553e+00) (14, 4.16465082632144500963e+00) (15, -1.08394990067664731548e+00) (16, -1.35360268872404376772e-01) (17, -2.35246816000108571743e+00) (18, 9.21366536479902542567e+00) (19, -7.99396399869160045881e+00) (20, 1.99507334088250121162e+00) (21, 8.61178860257177980486e+00) (22, 5.92729431203418033469e-01) (23, 5.31167097323085002358e+00) (24, -2.42494332383821280530e+01) (25, 2.80365869788225374748e+00) (26, -3.38153908107325884558e+00) (27, 1.19056574738880165398e+01) (28, -2.98058824008655776083e+00) (29, -6.88556680337032211980e+00) (30, -3.13360733962669668617e-01) (31, 5.23567309938418823378e+00) (32, 1.20582462841761484107e+00) (33, -1.06247040102773171455e+00) (34, 6.49627875255404152455e+00) (35, -3.94820657627404258960e+00) (36, 9.23667222443082813754e+00) (37, 1.39666813335149364583e+00) (38, 3.27830705861279358970e+00) (39, -2.07167600361688686306e+00) (40, -8.21067289547711531839e+00) (41, 1.72625057832073269815e+00) (42, 1.02722610728444987416e+01) (43, -8.00209564285082919355e+00) (44, -4.15509307722779031025e+00) (45, -9.43821729657268981839e+00) (46, -8.60296066197970255018e+00) (47, -5.56210862482700019171e+00) (48, 4.22375559782643339446e+00) (49, -2.39199206750101200925e+00) (50, 2.01810855928578414265e+00) (51, 6.57014319421837300617e-01) (52, -3.24619476024306319317e+00) (53, -2.74027631662487092257e+00) (54, -1.03246711816501779424e+01) (55, -1.65659906593938499597e+00) (56, 3.71607814444138639942e+00) (57, -3.78381172660725617618e+00) (58, 2.21367092788975527995e+00) (59, -2.24296308439300651205e-01) (60, 1.37245559001724504178e+00) (61, 3.31977546939054324326e+00) (62, -5.75346490553350076169e+00) (63, -1.70745417279499944740e+00) (64, 6.07604508311735003190e+00) (65, -6.72034554665942707175e+00) (66, -1.96494963451951254463e+00) (67, -6.91000774786124960514e+00) (68, 6.84608170908703783653e+00) (69, -2.52367883208863652555e+00) (70, -6.95587585138774056048e+00) (71, -4.11496278432010242909e+00) (72, 6.79803726631499571909e+00) (73, -1.93409077759988434764e+00) (74, -3.19497776177165793143e+00) (75, -2.27984079920412779918e-01) (76, -5.60056542381821298449e+00) (77, -9.04751732220052562461e-01) (78, 3.74370406819408030330e+00) (79, -1.49707839340481352330e+00) (80, -6.62152024440214148626e-01) (81, -1.63626110122363410682e+00) (82, -6.93428192683684585518e+00) (83, 2.23827115258679487653e+00) (84, 7.15032909720096387929e+00) (85, 1.51355579291351305393e+00) (86, 1.10237213930830879605e+01) (87, -6.31785992040436839012e-01) (88, -2.65559613974194697050e+00) (89, 1.60332968444666335017e+00) (90, 3.76517751644478426698e+00) (91, 8.61570798129393189413e+00) (92, -1.96512132846227083327e+00) (93, -3.40708443608235933553e-01) (94, -2.87379040412890329748e+00) (95, -2.26731458403100027965e+00) (96, 4.26848492511444987940e+00) (97, -5.99423984061301506898e+00) (98, 1.37596702944589255324e+00) (99, 9.40534553324259370299e+00) (100, -1.00792726191647541434e+00) (101, -2.85649665256437890193e+00) (102, -4.41758345966100662849e+00) (103, -6.55426927276899884411e-01) (104, -2.15692824368638236265e+00) (0, -9.55648724494626899961e-01) (1, 8.20673879221720525834e+00) (2, -6.12822864359597652140e-01) (3, 3.32860717815566875544e+00) (4, 3.71790879718252920139e-01) (5, -1.04184967785205739865e+00) (6, -1.58655619829758554040e+00) (7, 1.05664514562916722618e+00) (8, -6.25604775249822075978e+00) (9, -4.98902659476907484049e+00) (10, 7.12682311090415065991e+00) (11, -1.19514856752049003497e+00) (12, -1.34936177072771101848e+00) (13, -2.10382158950794950769e+00) (14, 1.72254316661826578638e+00) (15, 4.02317921909842002304e-01) (16, 9.24917431695906122613e-01) (17, -2.31223384803463716253e+00) (18, 2.75988639321840034668e+00) (19, -1.35167825231794291874e+00) (20, 2.36217346599872701773e+00) (21, -5.36359664691232929101e+00) (22, 1.17925786052538161819e+00) (23, -4.34062276848005978991e+00) (24, -9.24611078677849307361e-01) (25, 1.40544718384231370756e+00) (26, -2.64952012452667329256e+00) (27, -1.62275480701028151920e+00) (28, -9.11941678345531769878e+00) (29, 2.82287629298480524653e+00) (30, -1.00405046514378426536e+01) (31, -5.60231899762315865843e+00) (32, 1.85685482622312281187e+00) (33, 1.55089032692324035878e+00) (34, 4.10705301515806731061e+00) (35, 2.78890576214051577608e+00) (36, -1.11756656751965377516e+00) (37, -2.68114098411513657183e+00) (38, 2.58736852053507204729e+00) (39, 9.29090240189277688510e-02) (40, -3.77263616849349014970e+00) (41, -3.17770350184143923755e+00) (42, 8.63028655349505235961e+00) (43, -4.97133042292560656250e+00) (44, -3.90781627813377197000e+00) (45, -1.72048634108860776237e+00) (46, 5.34277825458489896704e+00) (47, -1.08114385124956191575e+00) (48, -2.40924857121852564745e+00) (49, -9.97056977667440280655e-01) (50, 6.11896602883837203990e+00) (51, 7.28400076221845993452e-01) (52, 1.72735143134720536828e+00) (53, 5.50018514835792871054e+00) (54, -1.36389561730843544840e-01) (55, 3.34505950307762089935e+00) (56, -1.53463007413185370531e+00) (57, -1.81959224091457691386e-02) (58, 5.62100571594101605655e+00) (59, 7.87258049862024522625e-01) (60, -2.38094288592076885891e+00) (61, -5.91323720416319353888e+00) (62, -3.17517006488553343857e+00) (63, 6.57007096842445648122e+00) (64, -1.72111129454429234720e+00) (65, 1.17739832415517731157e+00) (66, -5.71571030416885839109e-01) (67, -9.11541554263625997123e+00) (68, 4.97437649650559166048e+00) (69, -1.95523527510149541797e+00) (70, 6.52797384086692855654e-01) (71, 6.72985481415368891334e+00) (72, -2.67204840358213591145e+00) (73, -2.99965391975967632376e+00) (74, 9.28246334881390522398e-01) (75, -5.73466823153248572709e+00) (76, -1.48133759555053666190e+03) (77, -7.40364215316215368290e+00) (78, -4.71825921660297620264e+00) (79, -3.17805916095992824211e+00) (80, -4.92012655723454628287e+00) (81, 2.70179336153685012434e+00) (82, -5.64204251809145684859e+00) (83, -6.75850547199493417727e-02) (84, -3.28407600644566244341e+00) (85, 7.58381732384145190728e-01) (86, -7.85732361099065013121e+00) (87, 4.28416529215596475488e-01) (88, 4.15108538177262609281e+00) (89, -1.88473011758894926082e+00) (90, 5.70782325273270974009e+00) (91, 1.23636380996015091682e+01) (92, -1.06701980833509257884e+00) (93, -5.61430354654297247841e-01) (94, -2.17870166380166949693e+01) (95, 4.35736514743753744483e+00) (96, 6.90037872172534250126e+00) (97, 3.42157649520968432100e+00) (98, 3.21027228348476523223e+00) (99, -3.89210316071934503412e+00) (100, -2.39825647453711182644e-01) (101, -7.31234454028969960149e+00) (102, 4.30588416936180051753e-01) (103, 6.96749577498221395189e+00) (104, -8.62359259254890653246e-01) (0, -4.73279115169284914089e+00) (1, 4.09883535690280531583e+00) (2, 3.26210624827391315605e+00) (3, -2.48466298965413212585e+00) (4, 2.80667118292972705973e+00) (5, -6.98050746966306157049e+00) (6, -3.03372993558619574728e+00) (7, -3.28604703900300210151e+00) (8, -4.48179212291564788018e+00) (9, -1.99426458622053459635e+00) (10, -1.01106582351452822799e+00) (11, -1.92275438790714714443e+00) (12, -7.33939864917923490140e+00) (13, 3.43013580157032471618e+00) (14, -4.34446054453910157633e+00) (15, -4.96728127505103600470e+00) (16, -6.30208401757327418835e+00) (17, -6.98498757430633965271e+00) (18, -1.48715223797383444548e+00) (19, 9.80219389003264107707e-01) (20, 5.39845321599869976126e+00) (21, 1.55685771451540455601e+00) (22, 3.29508749409531942476e+00) (23, -2.54419372094730977807e-01) (24, 6.67989195088067688744e+00) (25, -1.98154953615613838025e+00) (26, -8.78767707275268072920e+00) (27, 4.95561067858196979685e-01) (28, 4.86115402237740834579e+00) (29, 2.19183807700818533704e+00) (30, 7.03488358204357222547e+00) (31, -1.42717697393375164694e+00) (32, -1.09920857041682253907e+01) (33, 9.35973003379365664500e+00) (34, -1.33971474292014924856e+01) (35, 1.21600534369705215454e+00) (36, -3.14697981936817150483e+00) (37, 2.20366188566493192980e+00) (38, -9.54863129769788820944e-01) (39, 1.45056188498647831153e+00) (40, -6.99442910960939112641e+00) (41, 9.11121054241443495414e+00) (42, -2.03072730867219553019e+00) (43, 6.36551225946079823892e-01) (44, 9.45849517878358270195e+00) (45, 7.09497313280603680852e+00) (46, 3.06351398075995229320e+00) (47, 6.33551764214984114432e+00) (48, 7.45818680510766385261e-01) (49, 1.31297444769749249716e+00) (50, -4.89107612002230673909e+00) (51, -4.87144248392248735424e-01) (52, -6.48924874795268902261e+00) (53, -2.57614887383581248059e+00) (54, -3.08900838425814772137e+00) (55, 2.14941159428878481030e-01) (56, 2.06193077706232319457e+00) (57, -4.07470619433379876995e+00) (58, -1.29612193957963028890e-01) (59, 3.99022044273117160174e+00) (60, 1.81191518746300395115e+00) (61, -5.21304041378262628115e+00) (62, -1.10034910420428211353e+01) (63, -3.95805270979772849671e+00) (64, 4.29212115897261270447e+00) (65, -7.17302002576660074906e-02) (66, -1.70232235917025853666e+00) (67, 3.02782220856809702880e+00) (68, 1.52284142756217533154e+00) (69, -1.00843072590695221891e+01) (70, 1.03338851368893642757e+01) (71, 1.12939280903087957419e+00) (72, -5.22117039295005103128e+00) (73, -8.72361934705742414486e-01) (74, 6.00560859550650327776e+00) (75, 5.60899664390961838478e+00) (76, -1.60426101192322789757e+00) (77, -9.04084864695467338436e+00) (78, -3.95831429391550848607e+00) (79, -1.01637613766569390172e+00) (80, -4.48907721491384403834e+00) (81, 3.56033171637451184566e+00) (82, -1.72025032498735330755e+00) (83, -1.08971328473735784570e+00) (84, 6.39633242201672391758e+00) (85, -7.16592696096621306623e+00) (86, 3.65880494790180144093e+00) (87, -4.44108038122070958309e+00) (88, -3.97304409856589346717e+00) (89, 1.15425945956020536975e+00) (90, 3.01770111111192518294e+00) (91, 3.79752322426039379266e+00) (92, -2.81686940945455965846e+00) (93, -8.25493178015814521586e+00) (94, 1.42116586550663903665e+01) (95, 2.78045401312125850524e+00) (96, 2.74029529959492812452e+00) (97, -8.23740643259967697531e+00) (98, -3.89660015806844128861e+00) (99, 4.20143869967031591273e+00) (100, -7.83353684881462508649e-01) (101, -1.09152710176897738137e+01) (102, 4.18628155509837274195e+00) (103, 3.03187024428456819436e+00) (104, -2.63275888928080714635e+00) (0, -2.94335886200581064998e+00) (1, 6.84770238200465097833e+00) (2, -5.74815794083844711082e+00) (3, 3.34595335018354855805e+00) (4, -6.03079907397287229287e+00) (5, -3.60677273548088539457e+00) (6, 5.19234446568896323981e+00) (7, -7.41506054574372175381e+00) (8, 5.50004000902731782219e+00) (9, 3.43228987140750296803e+00) (10, -5.67458542399155252411e+00) (11, -1.75420056210791819318e+00) (12, 4.85712735928441574629e+00) (13, 4.54631702572168538978e+00) (14, -1.55056299582073120469e+00) (15, -3.79485321492906457763e+00) (16, -1.42623029808139456520e+00) (17, 9.20822474618267217128e-02) (18, -2.90637315198433476837e+00) (19, 2.49320218681188032761e+00) (20, -6.90295451857306008314e-01) (21, 5.33351672132691856376e+00) (22, -3.53122365154384851849e+01) (23, 1.84828535012216432776e+00) (24, -6.27384698991113065603e+00) (25, -2.17123749667886256631e+00) (26, -9.83379190495826804863e+00) (27, -1.79961813108081258861e+00) (28, -1.06016816607148154361e+01) (29, 2.79611837664775653156e-01) (30, 4.55565962255415790594e+00) (31, -7.71620562406912391396e+00) (32, -4.34849481858285480396e-01) (33, -2.42747350303972053709e+00) (34, -5.35028131602721046534e+00) (35, 2.40522721029179331609e+00) (36, -7.72631947060082424628e+00) (37, 4.03730982452495668067e-01) (38, -1.36468845778826142201e+00) (39, 1.45216687323980728763e+01) (40, -1.96206234762916942316e+00) (41, 3.35692221017961323071e+00) (42, 3.69241203250019456306e+00) (43, -4.28116984963099955763e+00) (44, -2.05137037198622973477e+00) (45, -5.51944519488375551219e+00) (46, -7.35144180187315199326e-01) (47, 6.57019552224955738495e+00) (48, 6.29259640151092192184e+00) (49, 5.66681396945282944699e+00) (50, -3.76691518305940165057e-01) (51, 3.63898924159881076434e+00) (52, -1.21533286375326632367e+01) (53, -5.13866836540749449824e+00) (54, 3.52353922979852063335e+00) (55, 7.07904777493885806194e+00) (56, -5.18098068054973381891e+00) (57, -2.14430433205632953175e+00) (58, 3.73283197779216235901e+00) (59, -6.03242697260960980543e+00) (60, -5.11110101419218576524e+00) (61, -2.13899460379870554050e+00) (62, 3.23358646837571006571e+00) (63, 2.37319302676134702423e+00) (64, 8.45263197745292238494e+00) (65, -4.56473721394581311017e+00) (66, 4.16720913532071879359e+00) (67, 7.25328205711163853664e+00) (68, -4.53945305372026819413e+00) (69, -2.02288272583208517119e+00) (70, -2.76703792145227911448e+00) (71, -2.83221916853911270806e+00) (72, 4.41661575009625639865e+00) (73, -1.62410781176638319145e+00) (74, -2.52030810356333523359e+00) (75, 4.94446474163667770707e-01) (76, 7.89751199505594758676e+00) (77, 5.51227698392033271801e+00) (78, 3.88363118787846017810e+00) (79, -1.46229114676637950154e+00) (80, 1.67561814705638245648e+00) (81, -1.82952748623886907176e+00) (82, -3.96470219687059977076e+00) (83, -7.94638034226793177339e+00) (84, 6.30332073168183626422e-01) (85, -1.00456089264146020135e+00) (86, 9.81126871484196705353e+00) (87, 4.18854385352306834989e+00) (88, 2.70282560875667732248e+00) (89, -1.50957893341636033568e+01) (90, -3.25288328794162273638e+00) (91, 5.01138251719076599500e+00) (92, -3.04180047224879546164e+00) (93, -7.71738495984651695636e+00) (94, 9.27015411989088278233e+00) (95, -1.70868552118713767918e+00) (96, -3.22205376863433423651e+00) (97, 9.66359658411820310331e-02) (98, -4.27473929678948749711e+00) (99, 6.74182799758149209346e-01) (100, -4.64707878451624978311e+00) (101, -2.81260942229218491306e-01) (102, 3.44294916586609600628e+00) (103, -3.49943271466913341516e-01) (104, -1.40954287174613557276e+00) (105, -6.63661320260139131477e-01) (106, 2.22375299779485544605e+01) (107, -4.52508201775301799330e+01) (108, 6.15847409773659393295e+00) (109, -3.31666752422474653272e+00) (110, -8.61459365403165833186e+01) (111, -1.98650843044666380877e+01) (112, 7.63467517407731843804e+00) (113, 4.93516520455300433667e+00) (114, -7.79146910695151451165e+00) (115, 1.77995724859150747932e+01) (116, -3.12734118646153866905e+01) (117, -3.00489977772538061629e+01) (118, -6.23442548654356798465e+00) (119, 8.95213544307572384184e+00) (120, 2.07195090240241412971e+01) (121, 5.32028431388871414498e+00) (122, -9.93489021527118865151e+00) (105, -8.28118855131561559801e+00) (106, 2.00620266679504730689e+01) (107, 1.72461126485139075726e+01) (108, -8.10173008030974273197e+00) (109, 1.43112704712533789220e+00) (110, 4.35907058167280414551e+00) (111, 9.61172097589413354513e+00) (112, -2.04324187655876770009e+01) (113, 1.77584221474258114881e+01) (114, 1.66228692683487686566e+01) (115, 1.02816591107805290761e+01) (116, -2.01522192887592446198e+01) (117, -2.40870569564487695402e+01) (118, -2.08166518178767532277e+01) (119, -2.97273806295817983880e+01) (120, -2.39533628559305183936e-01) (121, -6.67371377211124272577e+00) (122, -2.34989680466802859371e+01) (105, -4.58387210197187258132e+01) (106, -1.47027984458456391081e+01) (107, -4.15219329454858332440e+00) (108, -8.51974221828602162887e-01) (109, 3.27403816064123489582e+01) (110, 3.32342812091807449093e+00) (111, 1.56573577072999903237e+01) (112, 1.08961474012384691434e+01) (113, 1.03536910991051538389e+01) (114, 1.35467440520570594487e+01) (115, 1.48918146039064005492e+01) (116, -1.38532401240829479150e+01) (117, -2.67439871884835724813e+01) (118, -3.36788952980665385439e+02) (119, -5.58472941783085730094e+02) (120, 8.33204071824607694907e+00) (121, -1.48000103720925881845e+01) (122, -3.73726140778200432990e+00) (105, -1.41296887679627616308e+01) (106, -1.78456322944587775226e+01) (107, 1.90386362653127676481e+01) (108, -4.27109432424008161888e+01) (109, -6.51792044919114310630e+00) (110, 6.60527409130920589719e-02) (111, -1.49452900170722582374e+01) (112, 3.90561100222842227936e+00) (113, -2.30475188980489740231e+01) (114, 3.87529983477486581478e+01) (115, -2.14849943596073948981e+01) (116, 4.60019456781207658480e+00) (117, -1.53401285647296052872e+01) (118, 4.69396498873401402108e+00) (119, 8.68594870778903249686e+00) (120, 1.18266574352429589823e+01) (121, -1.08822208160390285769e+01) (122, -7.38241124970314555043e+00) (105, -3.61436388371164184719e+02) (106, -7.13591949360389499191e+00) (107, -1.38130506319980241869e+01) (108, -8.76663253060096892000e+00) (109, -2.81087584802461023514e+01) (110, -2.47820741538504911716e+01) (111, 1.59046811766694364820e+01) (112, 6.74282524289129892026e+00) (113, -2.50855124440361487714e+00) (114, 1.72308457091965792074e+01) (115, 8.08878457840771325493e+00) (116, 5.87459619994229331752e+00) (117, 5.72116287091558017863e+00) (118, 2.95941533816606785479e+01) (119, 1.05199549943804928631e+01) (120, -1.49818664027666077487e+01) (121, -6.90711139204551738402e+00) (122, -1.71374257687574917952e+01) (105, -3.38862711687853774833e+01) (106, 1.71187824705758839805e+00) (107, -2.78761355624845741374e+01) (108, -8.61938978895914642564e-01) (109, -5.48316327289187732674e+00) (110, 3.10556136707223906512e+00) (111, -2.31103853599557211851e+01) (112, 2.25491374501335106739e-01) (113, 2.49529791730137624484e+01) (114, 1.15848099499669743295e+01) (115, -1.11676011969736843632e+00) (116, -4.59886413662469006880e+00) (117, -8.09384961383637424603e+00) (118, 8.95240846742773399569e+00) (119, -3.02023573537493739138e+01) (120, 3.52207910688895964313e+01) (121, -1.68879534900288952315e+01) (122, -1.16713483083121065675e+01) (105, -1.24533715251989690387e+02) (106, -1.55569395042165581344e+01) (107, -1.11102904705339451397e+01) (108, -1.77327455647464837796e+01) (109, 2.70783081667081937383e+01) (110, -3.29559627912628798185e+02) (111, -1.12496242629668175006e+00) (112, -1.32030856290904612393e+01) (113, 1.69401903011615999617e+01) (114, -3.02256282811683663070e+00) (115, 7.27611638117243941792e+00) (116, 6.90192785940453124027e+00) (117, 3.24627431170322156007e+00) (118, -8.90691610257062471590e+00) (119, 1.65505702795741775901e+01) (120, -3.91733653078378285528e+00) (121, 1.38790200766954434641e+01) (122, -1.57291047979461833251e+01) (105, -1.31377960493982936896e+03) (106, -1.38556881392856490187e-01) (107, -4.59877872192820369435e+00) (108, -4.92112738002952880834e+01) (109, 3.27001103778572641545e+01) (110, 1.09397793966820700007e+01) (111, 2.23158268366499825675e+01) (112, 5.35377396602772925860e+00) (113, -1.52357995272715029955e+00) (114, -6.32052542583191190317e+00) (115, 6.44300911707656531746e+00) (116, -1.03940446073221863799e+01) (117, -8.15248960011400214398e+00) (118, -4.99937500287951053224e+00) (119, -1.50153870687995691924e+01) (120, -3.03408686822367279490e+00) (121, -1.07866729497105310998e+02) (122, -1.24142129602780624253e+01) (105, 1.28448374480240321560e+01) (106, 5.23514338802604339840e-01) (107, -6.46377692600787412402e+00) (108, -4.50472957552714632357e+01) (109, -4.42046624080353254271e+01) (110, 3.72644136359268962622e-01) (111, -1.13423048998308906299e+00) (112, -5.17382293276575655483e+00) (113, -1.25919606263433414561e+00) (114, -1.07859565455209533980e+01) (115, -1.64712197675991802726e+01) (116, 9.13768181805863477507e+00) (117, -1.66112728295443304205e+02) (118, 4.30246712546948089084e+01) (119, 2.27719328597855934504e+01) (120, 1.54413362519438668308e+00) (121, -6.91661556389880018969e+01) (122, 4.47212355590842225439e+00) (105, 9.51938761396362487233e+00) (106, -1.96070558853472959981e+02) (107, -6.34963313321838462855e+00) (108, 1.03821752643634184210e+01) (109, -1.70304769910143747325e+01) (110, -1.68808934406602806355e+00) (111, 1.55584881166408557363e+01) (112, -9.73101865489835304857e+00) (113, -1.02605973238399332814e+01) (114, -4.77822773221931562659e+00) (115, 1.78991327609523729336e+01) (116, 1.40198920243031945887e+01) (117, -2.98891386348949827934e+00) (118, 1.38840906907852321694e+01) (119, -4.13618218382303766134e+01) (120, 2.02488241351032272064e+01) (121, 1.00837920506307554547e+01) (122, -2.05462939372906205904e+01) (105, -7.57069697022394763053e+01) (106, -2.77050147772281967207e+01) (107, 2.39666927627635056863e-01) (108, 4.89960416491557637642e+01) (109, -1.16481299581960549006e+01) (110, -4.11778669345238679256e+00) (111, -3.20469093314138131490e+00) (112, -4.82209243968644685197e+00) (113, -2.78089435763124726009e-01) (114, 3.51329129249768845611e+00) (115, 5.84885200385314885096e-01) (116, 1.50340141158910967079e+01) (117, 4.55570533985208836469e+00) (118, -1.60052525587214063307e+02) (119, 1.66633757756897082913e+00) (120, -1.55083948634843906689e+01) (121, -2.88802907901701502169e+01) (122, -1.55489455729436709674e+00) (105, 1.25668973914806141323e+01) (106, 1.94153167114683640193e+01) (107, -1.85967991402337808893e+01) (108, -4.06704203844177047955e+00) (109, -5.49236654221058415715e+01) (110, -5.55537475292801552484e+00) (111, -6.04331870685984373637e+00) (112, -2.36768852653687167376e+00) (113, -1.26248818466880807776e+00) (114, 2.38528325945760535376e+01) (115, 2.84938651992509690558e+01) (116, -8.69658311881316059555e+00) (117, 1.46024507948929542778e+01) (118, -9.07899337085269131364e+00) (119, -2.18862460281475250667e+01) (120, -8.54531041125009593884e+00) (121, -2.43535916037957811398e+00) (122, -1.57784334757619415512e+01) (105, -5.06286599531746475122e+01) (106, 1.92664036231839119750e+01) (107, -7.39313108943784680349e+00) (108, 3.58473247440749576143e+00) (109, -1.89242809418997914861e+01) (110, -3.36825852636582183663e+01) (111, 2.19681078097714603814e+01) (112, -1.56281818405721850240e+02) (113, -1.06440546539713967178e+01) (114, 1.62443987841481813916e+01) (115, -1.58354715654183948459e+01) (116, 8.83762443652677376349e+00) (117, -1.51102033087487228613e+01) (118, 3.47628442075028454283e+00) (119, 2.19417915271701318147e+01) (120, -3.71481578363761810735e+00) (121, 8.40249027894799521698e-02) (122, -3.64807102068164024189e+00) (105, 2.81303303823930272998e+00) (106, -1.00689613508160942246e+01) (107, 1.04260199228214229805e+01) (108, -2.78466052571938007532e+01) (109, 2.82831770191059490571e+01) (110, -4.66230849220018406243e+00) (111, 2.11294001445652801507e+00) (112, 2.28287659639704969550e+01) (113, -9.36255894685151979218e+00) (114, -2.30279830738192963224e+01) (115, -1.15660815247461421507e+01) (116, -3.08676766624025589181e+01) (117, -8.51210294287188062867e+00) (118, 6.74215935611400229988e+00) (119, -2.88317910270522688165e+01) (120, 6.00370653346375338089e+00) (121, -6.92031092926039832491e+01) (122, -6.10667763703118637864e+00) (105, 1.31063160467126333941e+01) (106, 8.89375789793806781347e+00) (107, -1.13453471776748919808e+01) (108, -6.72894743907947012751e-01) (109, 1.55880045007728433859e+01) (110, -1.57363065649515720956e+00) (111, -1.72740289078917719223e+01) (112, 4.44736277187902384611e+00) (113, -1.51616695438620382674e+02) (114, -2.19121021789105696609e-01) (115, 1.12830458548357839277e+01) (116, 3.08389572593789154098e+01) (117, -2.00732208010276274024e+01) (118, -1.78632837602530514243e-01) (119, 1.49440094685055893109e+01) (120, -4.70987102307322480499e+00) (121, 2.16105539075170094421e+00) (122, -2.40803337536763990556e+01) (105, 1.65646422036130083200e+01) (106, 2.76533309910739655280e+00) (107, 5.48775515178640294067e+00) (108, 1.01309654923906506951e+01) (109, -2.67125312285133524881e+01) (110, 2.73911503747841411638e+00) (111, 4.79144103207036131664e+00) (112, -2.59029980839244577950e+00) (113, 2.03243242961246757261e+01) (114, -1.17755772721906168954e+03) (115, 9.84423507796600993913e+00) (116, -1.81043597093190520297e+01) (117, -1.83976969373323084866e+00) (118, -9.79483519607361685644e+00) (119, 9.79814874471066055150e+00) (120, 2.43768066963615375187e+01) (121, 1.24408501511511389026e+01) (122, -2.55823736517515811784e+01) (105, 7.27316836215365558616e+00) (106, -7.25486740028609045083e+00) (107, -1.57430569966575312213e-01) (108, -1.73306364276807087776e+01) (109, -1.81153150761527825807e+00) (110, -6.44402011835253762939e+00) (111, 2.46524156127974976016e+01) (112, 2.16983775611603988409e+01) (113, -9.77616755603426312859e+00) (114, -2.90134037199626213521e+01) (115, -6.68882285263776221740e+00) (116, 1.28938232840861850548e+01) (117, -7.28604574517822012325e+00) (118, 1.33215833808762038615e+01) (119, 7.32033074831673680194e-01) (120, -1.84592217250918544380e+01) (121, 4.74440510325618358678e+00) (122, -2.39143580332413492329e+01) (105, 8.16558345577005439964e+00) (106, 1.56895128446225413654e+01) (107, -2.88753389866038894240e+01) (108, -2.17594712376905619067e+01) (109, -7.99070942248529281215e+00) (110, 3.72117309758309104950e+01) (111, -1.28116465162505210884e+00) (112, -1.58181113297316926491e+01) (113, -1.74834937693809337134e+02) (114, -8.89120281489776864703e+00) (115, -3.21529525411352068431e+01) (116, -5.54804748744601816668e+00) (117, -6.10159181196746569498e+00) (118, 2.89277412842935603976e+01) (119, -2.24770693123407703240e+01) (120, 4.62374944596580128575e+00) (121, -9.83887212673093003446e+00) (122, -1.31843427960660051212e+01) (105, -2.48865070407201436353e+01) (106, 1.27982422106520310479e+01) (107, -2.62263481324032028397e+01) (108, -8.57726796818542469580e-01) (109, -9.50233373484842935852e-01) (110, -5.72954423431662789312e+01) (111, 2.09656198819280419343e+01) (112, -1.70900633010149505253e+01) (113, -1.44775812350517831817e+01) (114, -2.06528808673387551664e+01) (115, 8.89408193974099958723e+00) (116, 2.12266073922503650806e+00) (117, 1.88854019329856148701e+00) (118, 2.18064941840652402050e+01) (119, 3.39396168026481692692e+00) (120, -1.97737157974141175565e+00) (121, -6.78462064401480944298e+01) (122, -9.12964985296662812075e-01) (105, -4.79626857317318300300e-01) (106, -9.00789175731043639805e-02) (107, 1.37353352915051409866e+01) (108, 2.79641551401084420547e+01) (109, -1.73317015471512725355e+00) (110, -3.49989765483027639448e+01) (111, 4.25486772883915431720e+00) (112, 2.37041951838149849152e+01) (113, -4.09860980191998010014e+01) (114, 8.09657789386771220563e+00) (115, -3.20629127721298701204e+01) (116, 4.54644933090897307437e+00) (117, -8.02697359043276392754e+00) (118, 1.15486323428807615699e+01) (119, 6.24791244683923263636e+00) (120, -1.56258214676633802043e+01) (121, -1.40565227820073257448e+01) (122, -1.86765526551214797735e+01) (105, -3.41666826833455861134e+00) (106, -2.46946710123351955701e+01) (107, 2.60938570421109936603e+01) (108, 1.31760713318172117958e+00) (109, 7.96245193398542561170e+00) (110, 2.43686750441707680181e+01) (111, 8.14174530731665591077e+00) (112, 1.10259394141879951690e+01) (113, -7.17523950557115739457e+01) (114, -5.91258021066732020188e+00) (115, -2.26825905995655219272e+01) (116, 6.75102326926534068718e+00) (117, -2.28257103227894674546e+02) (118, -2.79351703734081766584e+01) (119, 4.60687904829460048717e+00) (120, 1.77986491312214778482e-01) (121, 2.38593479180310055199e+01) (122, -1.25849560127440938118e+01) (105, -1.05784631345599002827e+01) (106, 5.76883741213607414977e-01) (107, 2.52039022264929677419e+01) (108, -4.87802513929670933379e+00) (109, -5.33974675470085369255e+00) (110, -1.68367940964944466486e+02) (111, 3.46047940824310202856e+01) (112, 8.64443521815088766758e-01) (113, -4.74633712193817416392e+01) (114, -1.55533202249123991834e+01) (115, -2.51952431498059770121e+00) (116, 1.79220498442400995032e+01) (117, 1.78314230651720677656e+01) (118, -5.81146547990858977073e+01) (119, -3.88306176445677451170e+01) (120, 2.51041417345543642625e+01) (121, -1.11631420040298621643e+02) (122, -6.60183803432661608923e+00) (105, -1.20046642777221101994e+01) (106, 3.61979971325852556419e+00) (107, -2.35153430724033141175e+00) (108, -1.28645872264837546339e+01) (109, -1.87706040614326710170e+01) (110, 3.70981027316524158977e-01) (111, -1.73642341639001926978e+01) (112, 3.36513135768595361696e+01) (113, 3.89118382531461870499e+00) (114, 2.98977433699825496660e+01) (115, 3.70554382009155176547e+01) (116, -3.31968810196656107792e+01) (117, 2.56963973369596487828e+00) (118, -1.17246919388944348839e+02) (119, -6.42708814637795899927e+00) (120, -1.04313644699180429143e+02) (121, -1.53581818955130586346e+02) (122, -8.40629339393677454950e+00) (105, 1.22070096413698827575e+01) (106, 6.42269444708302295055e+00) (107, -2.85459954510535425243e+01) (108, 2.15211122115268942423e+01) (109, -4.25515768158311544767e+01) (110, 1.07120322332053099501e+01) (111, 1.35629558141522039705e+01) (112, -1.50000000000000000000e+03) (113, 7.86840148517504633929e+00) (114, -3.36481446227667575499e+01) (115, 1.72879348857353569713e+01) (116, -8.17566631131391297060e+00) (117, 6.00543240948212875274e-01) (118, -1.09725589107743939365e+01) (119, 1.32616992028623261746e+01) (120, -5.68231353518749884302e+01) (121, -5.84052450228197539417e+00) (122, 4.34474912761728848665e+00) (105, 1.34363299366123829515e+01) (106, -6.95162624610889565702e+01) (107, 1.29951445801074427777e+01) (108, 7.45322950006097695308e+00) (109, -6.69012844921432137113e+00) (110, -4.37314146105233536588e+00) (111, -4.52107144191977070591e+01) (112, -3.07186101519471819188e+01) (113, -4.61171465978522920892e+00) (114, 3.55726905534174964174e+00) (115, 1.75431528272577597072e+00) (116, -3.09453988555731598353e+02) (117, 2.07673232422821829601e+00) (118, 7.69789048379338769479e+00) (119, 3.63905394993054986941e+00) (120, 2.42835542338325893752e+01) (121, 3.12204290373007928849e+01) (122, -1.25467471287356744369e+01) (105, -1.03398452369677595897e+01) (106, 1.19613435497121773921e+01) (107, 2.40415901827703457627e+01) (108, 2.35137532002650839758e+00) (109, -5.08748004268476705647e+00) (110, 3.24553599228867861726e+00) (111, 2.97602542401953620299e+01) (112, -5.99713930510904180693e+00) (113, 2.15855444179043445274e+01) (114, -2.76284212452896298373e+01) (115, -3.81712156012016450291e+01) (116, -5.61182820585966624094e+01) (117, -5.16853169586007084035e+01) (118, -1.39302965355092922550e+01) (119, 1.58526687826635033218e+01) (120, -9.36435022151815665836e+00) (121, -2.78893199236095945537e+01) (122, -4.27229776361255453310e+00) (105, -2.23575689394699406165e+00) (106, 1.52676808298152089094e+01) (107, 3.16396719700369430939e+01) (108, 6.53898880885807098906e+00) (109, -4.63807916773411150757e+01) (110, 5.04429346477542139837e+00) (111, -6.07404443038970214275e+01) (112, -1.10969663190153156052e+01) (113, -3.82532195404445332088e+01) (114, 1.17082795768427434524e+01) (115, -1.63124665939072400533e+02) (116, -6.13160848767999596021e+02) (117, -2.44882928493500662270e+00) (118, 4.29817998524308393371e+01) (119, -2.57693497963005810902e+01) (120, -1.01314490529848285405e+02) (121, 3.46964482637655748931e+01) (122, 3.65582360262677941165e+00) (105, 2.19546059945717964013e+01) (106, 3.38791405432511938400e+00) (107, 3.78333971368870862761e+01) (108, -3.38836247965686752082e+01) (109, 5.66236514102729948661e+00) (110, -1.19204769473618874542e+01) (111, -2.26550517486984617221e+01) (112, 5.04643327179574630037e+00) (113, -2.78729981574681069389e+01) (114, -3.03777715121487652539e+01) (115, 3.17110483076504827693e+01) (116, -3.21957592881457372869e+01) (117, -8.59102823136902316037e+00) (118, 1.40684323929976806689e+00) (119, -1.31050024436942291750e+00) (120, -1.55535581904901825112e+01) (121, 4.39235432731266950412e+00) (122, -8.51746528335066521720e+00) (105, 1.53535316846885763198e+01) (106, 1.53036191112165838035e+01) (107, 1.54654204912441173292e+01) (108, 1.53964961626817853357e+01) (109, 1.51033757051433497054e+01) (110, 1.52147001773890409027e+01) (111, 1.55706267834321536725e+01) (112, 1.52528538738311851830e+01) (113, 1.55047584766293553571e+01) (114, 1.54790985289558662430e+01) (115, 1.55625973456188617661e+01) (116, 1.53276519879946917513e+01) (117, 1.54523100680765637094e+01) (118, 1.53674182415889788444e+01) (119, 1.55124289753706179340e+01) (120, 1.57514866220360971738e+01) (121, 1.53043966818181118583e+01) (122, 1.18167759087204089496e+01) (105, -3.66459954441295110428e+00) (106, 9.54771421260447006318e+00) (107, 7.80845510422264155181e+00) (108, -1.89065651848394082890e+01) (109, 8.43438252089837625647e+00) (110, 7.08437501946388992202e-01) (111, -3.19227694190106561223e+01) (112, 3.04620550170995798567e+01) (113, 1.88717452177113216294e+01) (114, -9.88941622269498843423e+00) (115, -1.52026651377614161476e+01) (116, -2.74655223121696039357e+01) (117, 1.21951284541423277119e+00) (118, -8.11680123843928953420e+01) (119, 1.15351699578818038816e+01) (120, -3.52555453860921446108e+01) (121, -1.11267880452833658467e+01) (122, -5.13922582698006724655e+00) (105, -1.36622629117121956455e+01) (106, 9.66671161999875749871e+00) (107, -2.75955719963448338206e+01) (108, -2.25597243488620655683e+01) (109, -3.53133638732243948510e+00) (110, -1.79012825402224322602e+01) (111, 2.87175622241680716940e+00) (112, 1.85356397941433104215e+00) (113, 1.38524953601310318874e+01) (114, 2.75894883303264357721e+01) (115, -1.29510939985601627455e+01) (116, -1.18849120459070221045e+01) (117, -5.50109556576111646820e+00) (118, -1.77617799871347958884e+00) (119, 1.54624413172172801012e+01) (120, 1.76687171637521522882e+01) (121, 8.43042659407696959306e+00) (122, -2.43016353413204839740e+01) (105, -2.74308218783367729898e+00) (106, -1.85622786122894126493e+02) (107, -1.50000000000000000000e+03) (108, 5.82636815043125588787e-01) (109, -1.74859685237690172244e+01) (110, -8.48922252746673500212e+00) (111, 4.02214930689137233344e+01) (112, 4.73111030791244360216e+01) (113, -2.71265408179921685417e+00) (114, -9.51311051574369486161e+01) (115, 4.25641486944715818908e+00) (116, -2.28162496278092454816e+01) (117, 2.02963088595204652620e+01) (118, -1.48076246774913130366e+02) (119, 1.11649938249169569104e+01) (120, 2.52857806465717205313e+00) (121, -1.58705732405924862860e+02) (122, -3.49907188573306449086e+00) (105, 7.83501235783466487561e+00) (106, 7.27658997985126010377e+00) (107, 2.10673523767396773110e+01) (108, 1.86643390576677745685e+01) (109, -5.04247407089551114012e+00) (110, -2.66079731526692953025e+01) (111, -1.24517120605299467684e+02) (112, -1.12349250053295645557e+03) (113, -5.28792571551730627988e+00) (114, -5.34918862932276617528e+00) (115, -2.06332430534819657453e+01) (116, 7.60144747413887689191e+00) (117, -3.87962229413983861193e+00) (118, 2.32870674985570218496e+01) (119, 2.64125735036718722881e+00) (120, 7.72101017964595737197e+00) (121, 3.36775500245420009171e-02) (122, -1.65745042049384743166e+01) (105, -1.28791362926358371466e-01) (106, 1.40089998603441152625e+01) (107, -3.05863319411160290429e+01) (108, 1.60313512849706762964e+00) (109, -1.13780687396633588548e+01) (110, -1.22256367834250454507e+01) (111, 6.71691527586567027619e-01) (112, 2.26186269512470561338e+00) (113, 2.65311370544464963928e+00) (114, -8.17170589742119268806e+00) (115, -1.16821223258460680228e+01) (116, 1.23117108778958712634e+01) (117, 2.46142505280980543603e+01) (118, -2.09312644312757676346e+01) (119, 2.68487952355878860544e+01) (120, -1.29187331991461533676e+01) (121, -2.62310830772011938095e+00) (122, -2.01168913681865042520e+01) (105, -2.29652726929803291389e-01) (106, 8.99045788046798399762e+00) (107, -1.00464801039878395272e+01) (108, -8.36338297345847223596e+01) (109, -3.45586812807168755057e+01) (110, 1.61104633236466661117e+01) (111, 2.12989366671930113739e+01) (112, -4.42700842980088964396e+01) (113, -4.12042154911624969316e+00) (114, 5.79988876363834116034e+00) (115, 2.62036864006517760117e+01) (116, 6.94641097511561333988e+00) (117, -9.99076158995677943153e+00) (118, -6.81109448756977400308e+01) (119, 8.76653577328104738342e+00) (120, 1.06485097530627239593e+01) (121, -3.54305599713082557400e+01) (122, -9.43418644677691453637e+00) (105, -5.98407376352935500563e+01) (106, -4.06308077571578323273e+01) (107, 1.08574722197375383992e+00) (108, -6.63989358815387049617e+01) (109, -1.82011526121187685590e+01) (110, 2.05463348848376874400e+01) (111, -2.69003328584045284799e+01) (112, -2.89656767896792075589e+01) (113, 2.89031032483457694937e+00) (114, 1.59158247140175728163e+01) (115, 3.97501690484011902527e+01) (116, 1.56614837272228069054e+01) (117, -2.15173922545909377391e+01) (118, 4.57484303556628724152e+00) (119, -7.38096841831264338651e+00) (120, -1.22683304923298450717e+01) (121, 2.42194438846436793655e-01) (122, 1.90716299639849995451e+00) (105, 3.86631469810127015307e+00) (106, -9.50204230788014037046e+00) (107, -3.27582776657080714244e+01) (108, 3.54764593479308221191e+00) (109, 5.24137772248098876560e+00) (110, -9.77683770192337675553e+01) (111, -5.17982888601890749669e+02) (112, -3.71972038164692051510e+01) (113, -2.21266223634601573167e+01) (114, -4.85499423637950844324e+00) (115, -1.90082644079299889484e+01) (116, 2.84252714642975981008e+01) (117, 1.74239075821114433040e+01) (118, -1.27526973789887030364e+01) (119, 1.81575147141998272105e+00) (120, 2.05505715240360942175e+01) (121, -1.32019542734993233779e+01) (122, 1.38411528107710299906e+01) (105, 3.22893839960116224574e-01) (106, -2.69730883809012063068e+01) (107, 1.99400969815069224467e+01) (108, 2.19042556400388797044e+01) (109, 9.97830120693276789723e+00) (110, -1.70126264691128561424e+01) (111, 5.19512300600846099741e+00) (112, -5.48705594626227025401e+02) (113, -7.53991450137301200130e+01) (114, -4.56476403149475913779e+02) (115, -2.53618391837549594925e+01) (116, 3.82134283844456916768e+01) (117, 1.45607472183010635547e+01) (118, 2.85930206507026518636e+01) (119, 5.71072886403107382591e+00) (120, -9.67095677345413236026e+01) (121, -5.49897968961313026171e+01) (122, -5.31108407065929721824e+00) (105, 1.15295502642987446329e+00) (106, -4.38881298000093806877e+01) (107, -1.75374206723924601192e+02) (108, 4.10594795619562979994e+00) (109, -1.39474005802494378514e+01) (110, 1.88207543645315915626e+01) (111, 1.81654060322669366201e+01) (112, 1.73799914257879386525e+01) (113, -1.28358726513916359124e+01) (114, -3.48857950726064132141e+01) (115, 6.21575649725483181385e+00) (116, 2.43219325958189447334e+00) (117, 2.30843334641488837633e+01) (118, 2.27877239894059613334e+01) (119, -5.58295077804787069908e+01) (120, -1.42133756832849257989e+02) (121, 3.02403886789940301583e+01) (122, -7.19316925232309944960e+00) (105, 3.15770170459455670198e+01) (106, -5.49212753082353287937e+02) (107, -2.29993226923525035943e+01) (108, 3.26939620971184297105e+01) (109, 2.96707805749936381901e+00) (110, 9.82811994264512378550e+00) (111, 3.28755286049905004475e+00) (112, -7.77228744085774447825e+00) (113, -2.55259741834724849241e+01) (114, 5.79333206946674295068e+01) (115, -1.88020790242362090261e+00) (116, 1.17851092690482719405e+01) (117, -7.51881501872905317896e+01) (118, -2.40525558414641906779e+01) (119, 2.19976198589395988137e+00) (120, -2.69553662966115865629e+01) (121, -1.35933414949077899792e+02) (122, -1.30763084458655196585e+01) (105, -1.55026016918838848824e+02) (106, -1.43456378821597532180e+01) (107, -2.73437266443284094919e+01) (108, -3.42433768977542518641e+00) (109, -1.08133280590277469635e+00) (110, 7.96328684347139326150e-01) (111, 2.34898639813789245068e+01) (112, -1.98036632468114461858e+01) (113, 1.82553311638385196147e+01) (114, -3.47802259282659642636e+00) (115, 4.26439113318621387805e+00) (116, -2.27002809993554848234e+01) (117, -2.25128104836003721800e+01) (118, -3.55575739202739384837e+01) (119, -1.23172707616635523920e+01) (120, 1.00341503718495896891e+01) (121, 2.19264529062651050140e+01) (122, 1.77848016975324307865e+00) (105, -1.47492879947346029468e+01) (106, -9.69099676833721623836e+00) (107, -3.95717107612905127922e-01) (108, -1.06719689373892183681e+01) (109, -1.78788182274377334124e+01) (110, 7.30355709561065413737e+00) (111, -1.83107940487934648388e+01) (112, 3.34992945006870046498e+00) (113, 5.06152661514961792477e+01) (114, -2.51948895918833741803e+01) (115, -4.33965715435660204236e+00) (116, 1.64107225833807000015e+01) (117, -2.77061015363341169859e+01) (118, -1.37123938340622579801e+01) (119, -1.08145024925535544469e+01) (120, -4.52378908651442870337e+01) (121, 2.40127717994452858363e+01) (122, -5.50969810895559763964e+00) (105, 6.89148235412377285769e+00) (106, 4.02210537364084643741e+01) (107, 2.60879797126650032624e+01) (108, 1.33584315383789373755e+01) (109, 1.33839379317401552250e+00) (110, -5.88959108404721177976e+02) (111, -4.48542325900673475303e+01) (112, 1.30442650856365638390e+01) (113, -4.37448695418772448562e+00) (114, -2.01609772398961020201e+01) (115, 3.19571880571002182592e+01) (116, 4.11213392754180251387e+00) (117, -1.81686287757635831497e+01) (118, 1.97014439532166605318e+01) (119, -3.90762487484607333954e+02) (120, -6.26763051498086340985e+01) (121, 4.62274976876094356726e+00) (122, -1.54562792833464381914e+01) (105, -5.32419994001650849214e+01) (106, 3.57917109602635719057e+01) (107, -2.56046339315424482663e+01) (108, -1.18895824208298628299e+00) (109, 1.99182907071380088659e+00) (110, -6.28047371155235722995e+00) (111, -3.21912211125733875861e+01) (112, -7.41152845321574638149e+00) (113, -1.15290939935713467435e+02) (114, -1.69484537534049684027e+00) (115, 6.01850368416679870620e+00) (116, -1.13752585826895842303e+01) (117, 3.66981067515223458031e+01) (118, -2.40932563546965283763e+00) (119, -4.14064672520861165594e+01) (120, 6.43701345869030916447e+00) (121, 6.77748341649694729938e+00) (122, -1.07962629207612952342e+01) (105, 4.85178420301277402160e+00) (106, 1.19231098957004082450e+01) (107, 1.63936535174920230418e+01) (108, -1.54915413956966805387e+01) (109, -4.79602837833389139544e-01) (110, 2.16474290628277259430e+01) (111, 4.14348614557894379118e+00) (112, 5.46336045403789505315e+00) (113, -3.74157517654513824823e+01) (114, 4.99900444972318869219e+00) (115, -3.19515234758977193508e+01) (116, 6.74171629880714640137e+00) (117, 1.72858586327113208370e+01) (118, -1.38968438372841006867e+02) (119, 1.17175835410815731841e+00) (120, 1.72948158964287657113e+01) (121, -3.65613956726392475005e+00) (122, -2.87103087685715401278e+01) (105, 2.80807654750102742014e+01) (106, -2.59289245192111366123e+02) (107, -1.02844066827427642608e+01) (108, -3.31243228049865408025e+01) (109, -6.71355925891346938528e+00) (110, -4.36924528677905676943e+00) (111, 1.15676694716010253217e+00) (112, -5.03915427636642321296e-01) (113, -1.26533814869836422901e+01) (114, -1.30680481325952086991e+01) (115, -1.45761227477684172982e+02) (116, 1.39275326773920031798e+01) (117, 4.80803824049275050356e+01) (118, -6.15258756853879518189e+00) (119, -1.22221584528814730675e+00) (120, 8.76962791370888172793e-01) (121, -1.00162699821361318442e+01) (122, 5.76664583319817070084e-01) (105, 5.19984305257950119028e+00) (106, -1.91772442331791417303e+01) (107, -5.21098616195391795003e+00) (108, 2.41827946876296664414e+01) (109, 1.98826894715849427087e+01) (110, 1.80137675087987370048e+00) (111, -1.99935824929176355624e+01) (112, -1.30364492129057296665e+00) (113, 1.50440964728490715885e+01) (114, 8.69982926557938962553e-01) (115, -2.43017292109457692106e+01) (116, -1.75887383715204559387e+00) (117, -8.63112576439645629023e+00) (118, 1.72374784096231863373e+01) (119, 1.84235675822055000594e+01) (120, -1.54614995941345263475e+01) (121, -3.07622125264356895968e+01) (122, -2.62942972014697815553e+01) (105, 4.44088647290183686778e+01) (106, -7.27966767349366872253e+00) (107, -2.99495647313452941773e+01) (108, -5.15522798824643473381e+01) (109, -2.37116599240428342910e+01) (110, 3.31268133907032265029e+01) (111, 2.59911621488434096960e+00) (112, -1.88532692134285140284e+00) (113, -3.30573624750263306282e+00) (114, -1.66157271137409665585e+01) (115, 1.33438898997045782835e+01) (116, -1.50000000000000000000e+03) (117, 9.49804630852004017072e+00) (118, 2.81869082167459872323e+01) (119, -2.11383335523263866662e+01) (120, 1.08250577678598136622e+00) (121, 9.83785138055040420113e+00) (122, -5.42358735622392895692e+00) (105, -2.26236432017004922557e+01) (106, -9.16667264120842162356e+00) (107, 8.64806962585700489399e+00) (108, 7.22452986305773947606e+00) (109, 5.29248232801066098574e+00) (110, -3.69160112343560342651e+00) (111, -1.52674896596295450735e+01) (112, -2.14708370976870988045e+00) (113, -1.24136620642377533130e+01) (114, -3.65319845296798604295e+01) (115, 6.14000667948457201639e-01) (116, -1.47425346370703582721e+01) (117, -9.48539626594623896949e+00) (118, -4.04906577291576030841e-01) (119, 2.45493639340050151532e+01) (120, 4.48363396484420704269e+01) (121, -1.87914616547130677304e+01) (122, -2.03822875053172509752e+01) (105, -7.94265697444101714808e+00) (106, -3.55881037486651186086e+00) (107, 1.90041754070987209957e+01) (108, -4.59400821638390688406e+00) (109, -7.42038274133801767363e+00) (110, 3.74760010081577945584e+01) (111, -6.50330768588805430142e+00) (112, -3.18418453251982676022e+01) (113, -1.27121429185288548069e+01) (114, 1.75304656913707823662e+01) (115, -2.45088169015695847008e+01) (116, 4.61247063459957296061e+00) (117, 2.31841542779501956772e+01) (118, 9.82910722402813519238e+00) (119, -1.83522534596030709508e+02) (120, -2.44022706616365212540e+01) (121, 6.28470910474715527272e+00) (122, -1.80537566841998362577e+01) (105, -1.48111488733757190595e+00) (106, -1.22286686624438516446e+02) (107, -3.17532425177910084813e+01) (108, -1.36516416623697391941e+01) (109, -8.10362169616171024167e-01) (110, 9.22307874827498785919e+00) (111, -6.91862503162059550021e+00) (112, -1.50689190720352552688e+01) (113, 4.10416741318102040736e+00) (114, 2.45665248204037212076e+01) (115, -3.07044580302044352038e+01) (116, 2.21617278115984639442e+01) (117, 2.06482383558346995756e+01) (118, -5.00227366833579338845e+01) (119, 1.96132031394363615107e+01) (120, 7.81250265679201216784e+00) (121, 1.57881189373018333555e+01) (122, -9.86183145934585603243e+00) (105, 2.49089963653529666843e+00) (106, 7.54844396192377597998e+00) (107, -3.97730525171768789505e+01) (108, 1.64276048709798558889e+01) (109, 6.39490778244708124589e+00) (110, -1.38045827700286372064e+00) (111, -1.06691343970857506207e+01) (112, 6.89400579725704076850e+00) (113, -1.62096460431144144820e+01) (114, -5.77830836841773560764e+01) (115, 1.26848588364002914375e+01) (116, -2.85329272239753919393e+01) (117, -2.66739761194573210545e+00) (118, 1.55466703881988319580e+01) (119, -3.09301601934447347730e+01) (120, 3.97051461756080215082e+01) (121, 2.17806777322242659523e+01) (122, -3.06177185674062251053e+01) 
