FANN_FLO_2.1
num_layers=4
learning_rate=0.700000
connection_rate=1.000000
network_type=0
learning_momentum=0.000000
training_algorithm=2
train_error_function=1
train_stop_function=0
cascade_output_change_fraction=0.010000
quickprop_decay=-0.000100
quickprop_mu=1.750000
rprop_increase_factor=1.200000
rprop_decrease_factor=0.500000
rprop_delta_min=0.000000
rprop_delta_max=50.000000
rprop_delta_zero=0.100000
cascade_output_stagnation_epochs=12
cascade_candidate_change_fraction=0.010000
cascade_candidate_stagnation_epochs=12
cascade_max_out_epochs=150
cascade_max_cand_epochs=150
cascade_num_candidate_groups=2
bit_fail_limit=3.49999999999999977796e-01
cascade_candidate_limit=1.00000000000000000000e+03
cascade_weight_multiplier=4.00000000000000022204e-01
cascade_activation_functions_count=10
cascade_activation_functions=3 5 7 8 10 11 14 15 16 17 
cascade_activation_steepnesses_count=4
cascade_activation_steepnesses=2.50000000000000000000e-01 5.00000000000000000000e-01 7.50000000000000000000e-01 1.00000000000000000000e+00 
layer_sizes=19 65 65 53 
scale_included=0
neurons (num_inputs, activation_function, activation_steepness)=(0, 0, 0.00000000000000000000e+00) (0, 0, 0.00000000000000000000e+00) (0, 0, 0.00000000000000000000e+00) (0, 0, 0.00000000000000000000e+00) (0, 0, 0.00000000000000000000e+00) (0, 0, 0.00000000000000000000e+00) (0, 0, 0.00000000000000000000e+00) (0, 0, 0.00000000000000000000e+00) (0, 0, 0.00000000000000000000e+00) (0, 0, 0.00000000000000000000e+00) (0, 0, 0.00000000000000000000e+00) (0, 0, 0.00000000000000000000e+00) (0, 0, 0.00000000000000000000e+00) (0, 0, 0.00000000000000000000e+00) (0, 0, 0.00000000000000000000e+00) (0, 0, 0.00000000000000000000e+00) (0, 0, 0.00000000000000000000e+00) (0, 0, 0.00000000000000000000e+00) (0, 0, 0.00000000000000000000e+00) (19, 5, 5.00000000000000000000e-01) (19, 5, 5.00000000000000000000e-01) (19, 5, 5.00000000000000000000e-01) (19, 5, 5.00000000000000000000e-01) (19, 5, 5.00000000000000000000e-01) (19, 5, 5.00000000000000000000e-01) (19, 5, 5.00000000000000000000e-01) (19, 5, 5.00000000000000000000e-01) (19, 5, 5.00000000000000000000e-01) (19, 5, 5.00000000000000000000e-01) (19, 5, 5.00000000000000000000e-01) (19, 5, 5.00000000000000000000e-01) (19, 5, 5.00000000000000000000e-01) (19, 5, 5.00000000000000000000e-01) (19, 5, 5.00000000000000000000e-01) (19, 5, 5.00000000000000000000e-01) (19, 5, 5.00000000000000000000e-01) (19, 5, 5.00000000000000000000e-01) (19, 5, 5.00000000000000000000e-01) (19, 5, 5.00000000000000000000e-01) (19, 5, 5.00000000000000000000e-01) (19, 5, 5.00000000000000000000e-01) (19, 5, 5.00000000000000000000e-01) (19, 5, 5.00000000000000000000e-01) (19, 5, 5.00000000000000000000e-01) (19, 5, 5.00000000000000000000e-01) (19, 5, 5.00000000000000000000e-01) (19, 5, 5.00000000000000000000e-01) (19, 5, 5.00000000000000000000e-01) (19, 5, 5.00000000000000000000e-01) (19, 5, 5.00000000000000000000e-01) (19, 5, 5.00000000000000000000e-01) (19, 5, 5.00000000000000000000e-01) (19, 5, 5.00000000000000000000e-01) (19, 5, 5.00000000000000000000e-01) (19, 5, 5.00000000000000000000e-01) (19, 5, 5.00000000000000000000e-01) (19, 5, 5.00000000000000000000e-01) (19, 5, 5.00000000000000000000e-01) (19, 5, 5.00000000000000000000e-01) (19, 5, 5.00000000000000000000e-01) (19, 5, 5.00000000000000000000e-01) (19, 5, 5.00000000000000000000e-01) (19, 5, 5.00000000000000000000e-01) (19, 5, 5.00000000000000000000e-01) (19, 5, 5.00000000000000000000e-01) (19, 5, 5.00000000000000000000e-01) (19, 5, 5.00000000000000000000e-01) (19, 5, 5.00000000000000000000e-01) (19, 5, 5.00000000000000000000e-01) (19, 5, 5.00000000000000000000e-01) (19, 5, 5.00000000000000000000e-01) (19, 5, 5.00000000000000000000e-01) (19, 5, 5.00000000000000000000e-01) (19, 5, 5.00000000000000000000e-01) (19, 5, 5.00000000000000000000e-01) (19, 5, 5.00000000000000000000e-01) (19, 5, 5.00000000000000000000e-01) (19, 5, 5.00000000000000000000e-01) (19, 5, 5.00000000000000000000e-01) (19, 5, 5.00000000000000000000e-01) (19, 5, 5.00000000000000000000e-01) (19, 5, 5.00000000000000000000e-01) (19, 5, 5.00000000000000000000e-01) (0, 5, 0.00000000000000000000e+00) (65, 5, 5.00000000000000000000e-01) (65, 5, 5.00000000000000000000e-01) (65, 5, 5.00000000000000000000e-01) (65, 5, 5.00000000000000000000e-01) (65, 5, 5.00000000000000000000e-01) (65, 5, 5.00000000000000000000e-01) (65, 5, 5.00000000000000000000e-01) (65, 5, 5.00000000000000000000e-01) (65, 5, 5.00000000000000000000e-01) (65, 5, 5.00000000000000000000e-01) (65, 5, 5.00000000000000000000e-01) (65, 5, 5.00000000000000000000e-01) (65, 5, 5.00000000000000000000e-01) (65, 5, 5.00000000000000000000e-01) (65, 5, 5.00000000000000000000e-01) (65, 5, 5.00000000000000000000e-01) (65, 5, 5.00000000000000000000e-01) (65, 5, 5.00000000000000000000e-01) (65, 5, 5.00000000000000000000e-01) (65, 5, 5.00000000000000000000e-01) (65, 5, 5.00000000000000000000e-01) (65, 5, 5.00000000000000000000e-01) (65, 5, 5.00000000000000000000e-01) (65, 5, 5.00000000000000000000e-01) (65, 5, 5.00000000000000000000e-01) (65, 5, 5.00000000000000000000e-01) (65, 5, 5.00000000000000000000e-01) (65, 5, 5.00000000000000000000e-01) (65, 5, 5.00000000000000000000e-01) (65, 5, 5.00000000000000000000e-01) (65, 5, 5.00000000000000000000e-01) (65, 5, 5.00000000000000000000e-01) (65, 5, 5.00000000000000000000e-01) (65, 5, 5.00000000000000000000e-01) (65, 5, 5.00000000000000000000e-01) (65, 5, 5.00000000000000000000e-01) (65, 5, 5.00000000000000000000e-01) (65, 5, 5.00000000000000000000e-01) (65, 5, 5.00000000000000000000e-01) (65, 5, 5.00000000000000000000e-01) (65, 5, 5.00000000000000000000e-01) (65, 5, 5.00000000000000000000e-01) (65, 5, 5.00000000000000000000e-01) (65, 5, 5.00000000000000000000e-01) (65, 5, 5.00000000000000000000e-01) (65, 5, 5.00000000000000000000e-01) (65, 5, 5.00000000000000000000e-01) (65, 5, 5.00000000000000000000e-01) (65, 5, 5.00000000000000000000e-01) (65, 5, 5.00000000000000000000e-01) (65, 5, 5.00000000000000000000e-01) (65, 5, 5.00000000000000000000e-01) (65, 5, 5.00000000000000000000e-01) (65, 5, 5.00000000000000000000e-01) (65, 5, 5.00000000000000000000e-01) (65, 5, 5.00000000000000000000e-01) (65, 5, 5.00000000000000000000e-01) (65, 5, 5.00000000000000000000e-01) (65, 5, 5.00000000000000000000e-01) (65, 5, 5.00000000000000000000e-01) (65, 5, 5.00000000000000000000e-01) (65, 5, 5.00000000000000000000e-01) (65, 5, 5.00000000000000000000e-01) (65, 5, 5.00000000000000000000e-01) (0, 5, 0.00000000000000000000e+00) (65, 5, 5.00000000000000000000e-01) (65, 5, 5.00000000000000000000e-01) (65, 5, 5.00000000000000000000e-01) (65, 5, 5.00000000000000000000e-01) (65, 5, 5.00000000000000000000e-01) (65, 5, 5.00000000000000000000e-01) (65, 5, 5.00000000000000000000e-01) (65, 5, 5.00000000000000000000e-01) (65, 5, 5.00000000000000000000e-01) (65, 5, 5.00000000000000000000e-01) (65, 5, 5.00000000000000000000e-01) (65, 5, 5.00000000000000000000e-01) (65, 5, 5.00000000000000000000e-01) (65, 5, 5.00000000000000000000e-01) (65, 5, 5.00000000000000000000e-01) (65, 5, 5.00000000000000000000e-01) (65, 5, 5.00000000000000000000e-01) (65, 5, 5.00000000000000000000e-01) (65, 5, 5.00000000000000000000e-01) (65, 5, 5.00000000000000000000e-01) (65, 5, 5.00000000000000000000e-01) (65, 5, 5.00000000000000000000e-01) (65, 5, 5.00000000000000000000e-01) (65, 5, 5.00000000000000000000e-01) (65, 5, 5.00000000000000000000e-01) (65, 5, 5.00000000000000000000e-01) (65, 5, 5.00000000000000000000e-01) (65, 5, 5.00000000000000000000e-01) (65, 5, 5.00000000000000000000e-01) (65, 5, 5.00000000000000000000e-01) (65, 5, 5.00000000000000000000e-01) (65, 5, 5.00000000000000000000e-01) (65, 5, 5.00000000000000000000e-01) (65, 5, 5.00000000000000000000e-01) (65, 5, 5.00000000000000000000e-01) (65, 5, 5.00000000000000000000e-01) (65, 5, 5.00000000000000000000e-01) (65, 5, 5.00000000000000000000e-01) (65, 5, 5.00000000000000000000e-01) (65, 5, 5.00000000000000000000e-01) (65, 5, 5.00000000000000000000e-01) (65, 5, 5.00000000000000000000e-01) (65, 5, 5.00000000000000000000e-01) (65, 5, 5.00000000000000000000e-01) (65, 5, 5.00000000000000000000e-01) (65, 5, 5.00000000000000000000e-01) (65, 5, 5.00000000000000000000e-01) (65, 5, 5.00000000000000000000e-01) (65, 5, 5.00000000000000000000e-01) (65, 5, 5.00000000000000000000e-01) (65, 5, 5.00000000000000000000e-01) (65, 5, 5.00000000000000000000e-01) (0, 5, 0.00000000000000000000e+00) 
connections (connected_to_neuron, weight)=(0, 2.47646605035592237698e+01) (1, -7.76229511701759236075e+01) (2, 9.10856468931394758215e+00) (3, -3.24622877733466737027e+01) (4, -3.40842139544404076901e+01) (5, -4.76653369364578072265e+00) (6, 1.14936002107232425828e+02) (7, -3.78111378049742938856e+01) (8, -1.62712008524495956863e+01) (9, 2.93430602970270939522e+01) (10, 1.19585867974450739126e+01) (11, -6.24633238584762153778e+01) (12, 1.26627632417309654578e+00) (13, 3.07935085886594084315e+00) (14, 5.45242025302572699275e+01) (15, 4.28609291760715223063e+01) (16, 9.63938169665122046581e+00) (17, 8.33609681907501567366e+01) (18, 3.37683811209862838609e+00) (0, 4.52580973584328418724e+01) (1, -1.02891060472332526388e+02) (2, 6.84214404482067664048e+01) (3, -2.41300454842992095905e+01) (4, 9.59810143123419301503e+00) (5, -8.12847309294232900356e+01) (6, 3.61309310576144966376e+01) (7, 1.70686443397630647212e+01) (8, -2.33923669775374527546e+01) (9, 2.89523368765211088771e+01) (10, 6.48844529862294336908e+01) (11, 4.26203604051213389425e+01) (12, 3.89123296711077770738e+01) (13, 7.14447666208536791288e+00) (14, 3.28966793000002510894e+01) (15, -6.19764050306432601189e+00) (16, -1.90119969002130275726e+01) (17, -6.13963233371642047587e+01) (18, 2.74866221586102454921e+00) (0, -1.11657297197879245232e+02) (1, -2.15739621784370108060e+01) (2, -4.14543489071542055058e+01) (3, 2.09496094741723766219e+01) (4, 5.35620167999831480188e+01) (5, -7.50710699016914873027e+01) (6, -6.26118491601942679381e+01) (7, 1.26707415952289998984e+01) (8, 1.10541288349087309939e+02) (9, -5.35333955843942366215e+00) (10, 2.28608317283917372720e+00) (11, 6.00115009384677406956e+01) (12, 5.42615511741812284185e+00) (13, -8.11234961179470559500e+01) (14, 1.38784647005039317946e+02) (15, -2.12836890245959615697e+01) (16, 1.26682681630351879676e+02) (17, -2.16141022084101983580e+01) (18, 4.38864398071377337374e+00) (0, -3.60011400307818831834e+01) (1, 3.42189468098508058347e+01) (2, -7.65350789397133524083e-01) (3, 7.58763479498592801065e+01) (4, 1.77571952464063649302e+01) (5, -5.49985205452529015702e+01) (6, -6.05158725044429957052e+00) (7, 2.94470333037281335464e+01) (8, 5.32708537765868186398e+01) (9, 5.65742856995945189169e+01) (10, -8.84766564403877140421e+01) (11, 5.87052271266123781857e+01) (12, -2.84366212001052289793e+01) (13, -4.23618177968582685367e+01) (14, 3.77701121315806034318e+01) (15, -8.87453365004957674955e+01) (16, -3.51734367879413909463e+01) (17, 2.56670399435406757505e+01) (18, 4.97511673992980441028e+00) (0, 5.65078207866193782394e+00) (1, 7.61342892462462543790e+01) (2, -4.24736613431139033992e+01) (3, 2.35914061463233046823e+01) (4, 4.77939691619032771541e+01) (5, -5.05288575212489821098e-01) (6, 1.76954848119970892251e-01) (7, -6.01886232358870376657e+00) (8, 4.61696513119767431022e+01) (9, 1.01994925711215191910e+01) (10, -2.52941559362846879466e+00) (11, 1.34056075361815718594e+01) (12, -1.27782531446611677950e+01) (13, -4.15396639279649093623e+01) (14, 7.70937313184615220507e+01) (15, -5.56170827119095534385e+01) (16, -9.92634510507213008168e+00) (17, 3.92720033768177823053e-01) (18, 2.25558874087706917599e-01) (0, -8.08575412967228324135e+00) (1, 3.45672378955295789282e-01) (2, 1.76116394569146109461e+02) (3, -6.23359730320796217029e+01) (4, 4.89990276623297091874e+01) (5, 1.38624660433446535990e+01) (6, 1.71966393691458776516e+01) (7, 2.99082518908048591300e+01) (8, 4.41174576163008396179e+01) (9, -1.08955193254108024803e+01) (10, -4.80114078456491242264e+01) (11, 9.54455402270388653108e+00) (12, 2.63103008667085020988e+01) (13, -4.06766452201818538015e+01) (14, 3.25110763608500406008e+01) (15, -4.63772980479008793964e+01) (16, -7.88881350491514439227e+01) (17, -1.09035256288998088081e+01) (18, -3.48157566148594899147e+00) (0, 4.38052123086692546394e+01) (1, -2.30874766535823852109e+01) (2, -3.83440828814935075197e-01) (3, 5.53643298027044181708e+01) (4, -1.41752787090452656571e+01) (5, 8.41792712007156929133e+00) (6, 1.15153961888872533592e+01) (7, -6.46575106956803864477e+01) (8, -5.28984130652636963532e+01) (9, 7.68874099643818027516e+01) (10, 2.05660005699584175209e-01) (11, -6.30404307415007707505e+01) (12, 8.83118601803434870590e+01) (13, 2.64667481325114550827e+01) (14, -4.45828543848555511886e+01) (15, -4.90718241642397501323e+01) (16, 8.04759824994331438575e+01) (17, -2.64494145972864167504e+01) (18, -6.08223535226082567817e+00) (0, -8.08436097756395710690e+00) (1, 1.27581856787693283195e+02) (2, 1.03674207759963351805e+02) (3, 7.62823313165467737917e+01) (4, 2.64804406595803740743e+01) (5, -9.49431987523749540969e+01) (6, 5.59399048949014172649e+01) (7, -3.44765225098511436386e+01) (8, 9.87952630337939829985e+00) (9, -8.78371061921255318339e+01) (10, 1.23278254871737686926e+01) (11, 3.02374151802320234594e+01) (12, -1.20721545645740633290e+02) (13, -1.07757137058804559615e+02) (14, 3.07771571680918007985e+01) (15, 1.69006920857668596625e+01) (16, -3.76810269082206446001e+01) (17, 7.25557834017715777009e+01) (18, -9.12255624555284683197e+00) (0, 5.05080716435158905142e+01) (1, -6.59770538659602010512e+01) (2, 8.72158581386778450906e+01) (3, -1.07692105148470425036e+01) (4, 2.73206109695955134953e+00) (5, -1.15638250537610112190e+01) (6, -4.78446763576093729853e+01) (7, 4.90511134249607110291e+01) (8, -4.42943252550655230948e+01) (9, -2.75754169722496511596e+00) (10, -3.56603573865972194312e+01) (11, 7.74251605690247970415e+01) (12, 4.40109836035492705264e+01) (13, -1.40411240831474888324e+01) (14, 7.63966639272317991072e+01) (15, -4.38621344471329805970e+01) (16, -3.04753349165835274448e+01) (17, -7.45825994900370830010e+01) (18, 2.67996897229050246025e+00) (0, -4.24239078124028949901e+01) (1, 3.53733027684687115766e+01) (2, -4.52668237883164863433e+01) (3, 7.22211746727072636531e+01) (4, 6.75845407850096222546e+01) (5, -1.19668407841299444527e+01) (6, 2.04688211362932293014e+01) (7, -6.73665266930583044314e+01) (8, -2.37407010293672797729e+01) (9, 1.52646460012400297046e+02) (10, -1.06702022807951777850e+02) (11, -1.02140250904763565387e+01) (12, -4.01114772540974087178e+01) (13, 4.07457733548600131712e+01) (14, -4.54792926264047423501e+01) (15, 2.41183014272453384308e+01) (16, 1.28925883026867523995e+02) (17, -2.93927544028677019128e+01) (18, -1.49574237421218225741e+00) (0, -5.96820278746566970085e+01) (1, 1.57179137210852530870e+02) (2, -8.63480638899963537369e+01) (3, 8.30333096917870818743e+01) (4, -1.45783934442572977730e+01) (5, -6.38551741301999840061e+01) (6, 2.06398022556370044356e+01) (7, 2.27541889838913036215e+01) (8, 2.50436682337356550931e+01) (9, 3.31760608500681968280e+01) (10, 2.63198164638664522386e+01) (11, 1.42293639757110526034e+01) (12, -1.49041795617648507033e+01) (13, -5.60083752247279704761e+01) (14, -1.11922176649858382547e+01) (15, 5.18532731221648077735e+01) (16, -2.31235187175325549447e+01) (17, -3.49793867449698225869e+01) (18, -9.58241232397646691687e-01) (0, -2.70953786425219291800e+01) (1, -6.32627360579473361213e+01) (2, 1.48205154765616153867e+01) (3, -1.51713011680935117020e+00) (4, 3.40796342473401097095e+01) (5, 1.41163909345901945613e+01) (6, -1.57648519460670470949e+01) (7, 4.34401805479376506014e+01) (8, 2.37005616914498737913e+01) (9, 4.73084941711754396465e+01) (10, -8.28029962611511933801e+01) (11, -1.99658090303187520931e+01) (12, -3.29121191216966391124e+00) (13, 3.75350581005776433585e+01) (14, -2.39889146271323596693e+01) (15, -1.77099274056693865020e+01) (16, -8.92991562734798982603e+00) (17, -1.04613219326414252919e+01) (18, -1.89838631785772138372e+00) (0, -1.12445928673042075729e+02) (1, -6.75244879379828262245e+01) (2, -3.89233596997214803537e+01) (3, 7.88370982692945609926e+00) (4, 9.26305703224182508393e+00) (5, 4.34946555927120925844e+01) (6, 7.57716816680569280607e+01) (7, 5.95206549960236088737e+01) (8, -3.30603864591000942141e+01) (9, 4.37588173054708633458e+01) (10, -2.01566301070639077864e+01) (11, -6.81569066927479241258e+01) (12, 7.36930528044523214248e+01) (13, 4.77442325969383816187e+01) (14, 5.17866520792307483134e+00) (15, -5.74034091956842615900e+01) (16, 4.50207276921642502998e+01) (17, 5.62455497741625407571e+01) (18, 5.19249694665744865318e+00) (0, -3.69256914853724609316e+01) (1, -2.52602677027769573215e+01) (2, -7.84041563532386476254e+01) (3, 3.83154807318127552662e+01) (4, 5.58525192948812509997e+00) (5, 4.77984440437826929582e+00) (6, -3.10242863866705320675e+01) (7, -2.53674151681620543286e+01) (8, 5.26705994684645517623e-01) (9, -1.03023936771253077360e+00) (10, 1.25182841563068780744e+00) (11, 1.93162848710138774777e+01) (12, 9.87513852222740524667e+01) (13, -3.97205489844390058352e+01) (14, 2.06031822084084765834e+01) (15, -1.69175936526551389250e+01) (16, 8.00856721176106178817e-01) (17, 7.16193153882941135890e-01) (18, -2.95455916560306031116e+00) (0, -1.24740678394291109043e+01) (1, -4.29213913508340354497e+01) (2, -4.46357292652605437411e+01) (3, 4.43216122344281870937e+01) (4, 2.31633152692601278488e+01) (5, -1.11501602072291859713e+02) (6, 7.05476954052122096073e+01) (7, -1.62044093275765561657e+02) (8, -8.08579744874048316206e+01) (9, 6.27758891643993592879e+01) (10, 9.94977544713495092310e+01) (11, -6.75099241321121326109e+01) (12, 1.13377801664489936684e+01) (13, -1.86820324260958763318e+01) (14, -4.17981990003262424693e+01) (15, 9.67986770366793791709e+01) (16, 1.50402772037196399424e+02) (17, -6.91676651337867980374e+01) (18, -4.23251874701046659766e+00) (0, -4.38136189051331399469e+01) (1, -6.97040919031553301011e+01) (2, -4.82200863066403258017e+01) (3, -2.03126002865531098962e+01) (4, 4.71720248036510341194e+01) (5, 5.38268458665203652913e+01) (6, -6.64420794062208415198e+01) (7, 8.15495741778298963709e+01) (8, 2.29243104370278167892e+01) (9, -3.16678595622234624329e+01) (10, -4.81616911655978228168e+01) (11, -6.86094790133558234402e+01) (12, 1.67397289376505895575e+01) (13, 5.41719314324513447900e+01) (14, 3.22788723162212463080e+01) (15, -7.06415443637841491409e+01) (16, 7.86232245599080954435e+01) (17, 5.71414965840971333932e+01) (18, -4.56081912891235141672e+00) (0, -6.28555073902152106058e+00) (1, -6.98826761035727006544e+00) (2, -3.01209925524521899831e+01) (3, 1.73934064321878487647e+01) (4, 1.24404009277365251718e-01) (5, -7.49719939108568951269e+01) (6, 7.91950889230657111284e+01) (7, 6.68003657752806958570e+01) (8, -6.34910762894145648261e+01) (9, 2.60869599147203352629e+01) (10, -2.23563224569242677831e+01) (11, 5.42948727179367125473e+01) (12, -1.96650751788717741420e+01) (13, -2.37690289325884194227e+01) (14, -9.99685591658900420953e+01) (15, 5.84298747835975760268e+01) (16, 3.89172076942262634702e+01) (17, 1.21215375528174824638e+01) (18, 5.10935912565474570357e+00) (0, 9.93782791783159424881e+00) (1, 8.41719007679491681984e+01) (2, 7.82916001450315093280e+01) (3, 3.60312463676354113318e+01) (4, -8.31544237551158005317e+01) (5, -3.69785285096913440839e+01) (6, -2.27623989251849785376e+01) (7, 1.20448767129143618604e+02) (8, 7.15795455504301347815e+00) (9, 4.58556545128833192848e+01) (10, 1.70184181152963560635e+01) (11, -5.19696032705909445326e+01) (12, 2.80503687359094868725e+01) (13, -1.83380519848257179660e+01) (14, -8.59998689385990786604e+01) (15, -8.15599527710293017435e+01) (16, 1.21202115785556880923e+01) (17, -1.90173812492380243100e+01) (18, -1.50955106533089322696e+00) (0, -6.94334085816896333654e+01) (1, 9.43686662203706738694e+00) (2, -4.37098885185417742605e+01) (3, 5.75667705119880395159e+01) (4, -1.06897274839688840586e+01) (5, -2.63660248420463787511e+01) (6, 1.60885500925556357288e+01) (7, 4.08129653267152576746e+01) (8, 4.58843227226986130063e+01) (9, -2.41503727690833649433e+01) (10, -5.21149542901205897749e+00) (11, 9.31385234743120093981e+01) (12, -4.28374457819969691741e+01) (13, 3.23131379975891803724e+01) (14, -1.97834309807745079013e+00) (15, 3.51492343202285510984e+01) (16, 9.90983688069797921116e+01) (17, -7.17394587513119148525e+01) (18, 2.57738759914096071668e+00) (0, 5.91105773552148363592e+01) (1, 2.17913049099778177720e+01) (2, -2.49476122082525932910e+01) (3, -1.64560772469074478863e+01) (4, -9.98797421936156695210e+01) (5, -7.86607078735132176917e+01) (6, -3.02597870458612625555e+01) (7, 1.37602606979599840997e+02) (8, -7.11102438353346713029e+01) (9, 3.70181888607572844307e+01) (10, -3.90548338054061616731e+01) (11, -1.13127815539143963264e+01) (12, -4.47690052316536082344e+01) (13, 1.92201248220258552601e-01) (14, 1.22850057674669855601e+02) (15, 5.55361917977080210562e+01) (16, 2.79724080419108602769e+01) (17, -3.67663100640247080264e+01) (18, 4.95995270109846586593e+00) (0, 5.49698559141950227058e+01) (1, 9.86806010871212180291e+01) (2, -1.27951406702335248156e+02) (3, 3.32592062902442862082e+01) (4, -1.14018677928733325189e+01) (5, -5.02765958736603622015e+01) (6, 2.89719509648855719774e+01) (7, 4.14574262461909714972e+00) (8, 2.09025404481392982348e+01) (9, 4.94627098010662678007e+01) (10, 5.08559004878162284058e+01) (11, 1.07330255786921764383e+01) (12, -1.37490246217585479371e+02) (13, 4.83124475988952539751e+01) (14, -1.21306386665706771311e+01) (15, 7.89345910848870744303e+01) (16, 3.82496487094356851788e-01) (17, -6.85840710759466105628e+01) (18, -3.90691142136037994348e+00) (0, 4.50157643004880370086e+01) (1, 8.58352249710788051118e+00) (2, -1.00877951828513943155e+02) (3, 2.47746866850151477024e+01) (4, 1.63993581645833756966e+01) (5, -1.00088710781692302731e+01) (6, -6.16394261547706179272e+00) (7, 5.65207470184217584119e+01) (8, 2.87939803007544128377e+01) (9, 7.03452670881616910492e+01) (10, 9.77934181713779082656e+00) (11, -4.58287643355483353957e+01) (12, 1.92121970885513100313e+01) (13, -8.74608950994385594413e+01) (14, -8.86375775220038804036e+01) (15, 2.16580436490636607516e+01) (16, 6.01245141462239232055e+01) (17, 3.10665067612942209507e+01) (18, 5.26022404938533139074e+00) (0, -1.14596751851062830241e+01) (1, -8.02065475612738936206e+01) (2, 1.95158320896566905844e+00) (3, 7.78328696995397990577e+01) (4, -5.12505206230928322952e+01) (5, 3.50849675026823319968e+01) (6, -5.32226545426101225189e+01) (7, -3.82382381438255904982e+01) (8, 4.56779329890581120566e+00) (9, -2.81880333234492184147e+01) (10, 5.01568427714294955422e+01) (11, -9.38541110616722562554e+01) (12, 4.33873466820114543907e+01) (13, 4.56963881075582705193e+01) (14, 1.41691499624873216590e+02) (15, 1.30565917334715226872e+01) (16, -4.32080522505578841219e+01) (17, -2.70812883407460809337e+01) (18, 5.64848398769838144773e+00) (0, -2.26875568469146031703e+01) (1, -4.54189866333461296222e+01) (2, -6.54212263495459325213e+01) (3, 2.43628117504120211834e+01) (4, -7.03001951190202873931e+01) (5, 5.46822661805001928315e+01) (6, -1.12920834388780718882e+02) (7, 5.59583007445928615198e+01) (8, -5.64598767437080439890e+01) (9, 6.17195578491562528711e+01) (10, 1.16109521211059288248e+02) (11, -7.46109873944627111086e+01) (12, -3.49572586497828297070e+01) (13, 1.47656865880736432928e+02) (14, -3.71409268831730221549e+00) (15, 3.89135228712983050059e+01) (16, -3.82335062431116554649e+01) (17, -2.01947301849931477591e+01) (18, 7.35394336336481924121e+00) (0, -3.23820593958339131291e+01) (1, 5.55789249345202165387e+01) (2, -1.86013138269129019164e+00) (3, -1.89522352890213809928e+01) (4, 1.30729818255160381568e+01) (5, 6.39042479930699656165e+01) (6, 6.80359046126690572009e+01) (7, 5.95318823826676535305e+00) (8, 7.32045774110011109315e+01) (9, -2.37174046549989796517e+01) (10, -1.08217738419334196465e+02) (11, -2.39299353264095557847e+01) (12, 1.12948044587836676556e+02) (13, 3.69343348281400523092e+01) (14, -6.22944645260417857457e+01) (15, -9.46703366280776492658e+01) (16, 9.05400646190072535546e+01) (17, 6.43280293429332203914e+01) (18, 4.05989765854908979392e-01) (0, -2.59582219505893476708e+01) (1, 5.25767907267254841486e+01) (2, 5.93163364735078602052e+00) (3, 2.38349772428997610518e+01) (4, 1.25121099740015697677e+01) (5, 2.12384045397029019853e+01) (6, 4.05152527623251970113e+01) (7, 4.30370838015654584296e+01) (8, -3.61026583112712629031e+01) (9, -2.76866834309705893702e+01) (10, -1.70747894217680169504e+01) (11, -3.83209442116683192125e+01) (12, 2.82374535983188437172e+01) (13, 2.46796544926826264543e+01) (14, 4.05886639929735970611e+00) (15, -6.48762588563243980389e+01) (16, -1.61225956390632880755e+01) (17, 7.97846624031395776910e+01) (18, -2.16867134275187822823e+00) (0, -6.46033444337014017833e+00) (1, -4.56210376563933728278e+00) (2, 1.88767910744037550330e+01) (3, 2.39608311790670427399e+01) (4, -2.77845040602476913705e+01) (5, 1.04416051889989525137e+01) (6, -1.61893531082180519576e+00) (7, 5.08585305973624883791e+01) (8, 7.99547658471324211860e+01) (9, -3.68951428441110849121e+01) (10, 3.08023577540954391907e+01) (11, 5.69663884405836613151e-03) (12, 2.38207797737430837515e+01) (13, -2.54627883145900604234e+01) (14, 3.60255157624622057710e+01) (15, 4.37224351334542546965e+01) (16, -1.20580983341308045631e+00) (17, -9.06315087608426779298e+01) (18, 1.77161781347823898969e+00) (0, -2.02747691432683607715e+00) (1, 1.45009479222958873379e+02) (2, -1.24173867462944713225e+02) (3, 1.23587075429878723298e+00) (4, 7.83589390326300190281e+01) (5, 2.57012050287282143302e+01) (6, -1.83853365546311842138e+01) (7, 2.47856742412056654246e+01) (8, -1.93482209167465910582e+01) (9, 6.17173192275402371365e+01) (10, -4.43047776717904255861e+01) (11, -5.82793950511901357459e+01) (12, -4.52323800102170459070e+00) (13, 2.24103877525075745325e+00) (14, -5.61963534380287725867e+01) (15, -2.04725119547022726962e+00) (16, 2.59566464649457984137e+01) (17, -1.97310325461829556559e+01) (18, 4.32415163616178155337e-01) (0, -2.39282663744128001326e+01) (1, -3.63606611608565728488e+01) (2, 1.17843203965378684472e+00) (3, -1.74926808845885517485e+00) (4, 5.07115220604540084537e+01) (5, -3.00093384086793513177e+01) (6, -1.02196868100548297065e+01) (7, 2.81525741639601285726e+01) (8, 9.97110678494435944685e+01) (9, 2.64178269572323571879e+01) (10, 7.57861704496776145135e+00) (11, 2.89451569275237368117e+01) (12, 3.20584061694796895736e+00) (13, 2.16813829094713241830e+01) (14, -6.74530668475741634893e+01) (15, 2.61405543693758488644e+01) (16, -1.89998971993733292152e+01) (17, 8.16100410517220353768e+00) (18, 6.93349475663007108750e+00) (0, 1.21061160524809441341e+01) (1, -3.40844183021288982260e+00) (2, 1.32611781857452530886e+01) (3, -5.90549757831917077056e+00) (4, -2.31315412656073515763e+00) (5, 5.91533542031149721652e+01) (6, 1.27501122502055736163e+02) (7, 6.57281655871720715822e+01) (8, -1.32620531849194520646e+02) (9, -8.99492599450647247750e+01) (10, -1.61614807466987642215e+01) (11, -9.30168063096009412050e+00) (12, 3.93305047061391093166e+01) (13, 6.10996337634285850982e+01) (14, -1.13451700800890122878e+02) (15, 4.53697354924145130894e+01) (16, 1.35062398145996507282e+01) (17, -8.12591912219619061375e+00) (18, 3.20178573681965961129e+00) (0, 3.41819125068657214683e+01) (1, 1.37081444775268920466e+02) (2, -5.03376218392925345313e+00) (3, -2.01918515879113549261e+01) (4, -3.61544164619312624609e+01) (5, -6.70302588758179922479e+01) (6, 5.63288007006716497926e+01) (7, -2.71474636204857162625e+01) (8, 1.64845995859643501547e+01) (9, -4.67172236576967776500e+01) (10, -1.18893686146862904707e+02) (11, 6.94562110035208775116e+01) (12, 5.34694334838271601029e+01) (13, -7.06018768500264854993e+01) (14, 4.11476245654296235443e+00) (15, -3.68790298395826994238e+01) (16, 3.70314899153240304486e+01) (17, 6.36020794420299750982e+01) (18, 2.00931405056060530256e+00) (0, 1.26062457587476330900e+02) (1, -6.54602599616867308896e+01) (2, 2.01485321502035894525e+01) (3, 1.98975581310469564755e+01) (4, -5.14069195035344783662e+00) (5, 3.21592025371472516326e+01) (6, 4.37782469453484992528e+01) (7, -4.27200184449129167774e+01) (8, 5.21825117612575866133e+01) (9, -8.61074786828049987264e+00) (10, -3.53746865967415544674e+01) (11, 2.63708982527583195576e+01) (12, -6.30816103554585723145e+01) (13, -5.97779642342160766333e+00) (14, 3.39123629731611986315e+00) (15, -2.19673588945773410330e+01) (16, 3.75491513465779647163e+01) (17, -2.35324497821547602427e+01) (18, -1.82606755837751411065e+00) (0, 4.56619341674024781241e+01) (1, 4.79937266127764132762e+01) (2, -7.65085183784029254639e+01) (3, 6.84231550149616509771e+01) (4, -3.64723258749749490448e+01) (5, -7.14374255836058722480e+01) (6, 3.91711388033639806849e+01) (7, -2.82046107982321885288e+01) (8, 2.30635557252996221678e+01) (9, 2.28667993389128696435e+01) (10, -5.19075943595440403300e+00) (11, 5.23631941005496770458e+01) (12, 3.28218241065398075307e+01) (13, -5.69351475442194256971e+01) (14, 2.36546506703121082182e+01) (15, -1.89886948107352395709e+01) (16, -5.91709655151612992086e+01) (17, -3.43825254710994414609e+01) (18, -9.98332585046888931757e-01) (0, 8.12514538398737329317e+00) (1, 6.23799361432430004015e+01) (2, -2.90190232476132941031e+01) (3, 8.37422792276410454804e+00) (4, -1.13079206320867100999e+02) (5, -9.90307468610698649059e+00) (6, 1.50595721628955043769e+01) (7, -1.35541399298642843974e+01) (8, 1.83784114813064469729e+01) (9, -5.19165559675480210444e+01) (10, -8.96953021051297039179e-01) (11, -2.11266198198370114270e+00) (12, 3.48673442088247966808e+01) (13, 8.75348754809029259150e+01) (14, 2.30625815684338242306e+01) (15, 7.57674595633024523522e+01) (16, -7.56499480804930044542e+01) (17, 8.23752299694769440919e+00) (18, -2.08342869066405617096e-01) (0, -2.42738152143138670169e+01) (1, 1.90126903118676260362e+01) (2, -1.08936792481182123993e+02) (3, -8.41995108048933502687e+01) (4, 4.49777677837062910271e+01) (5, -2.38290856926805538762e+01) (6, -1.70925833619226352766e+01) (7, -5.35900955200275106449e+01) (8, 7.01283006738980816408e+01) (9, -1.66556114014944895985e+01) (10, 1.46245362589040212242e+02) (11, -1.17571793870587164577e+01) (12, 2.24483662822134739656e+01) (13, 4.54057156869749007910e+01) (14, 1.55618137675614622850e+01) (15, 1.12707475677717994245e+02) (16, -1.29279020018792152769e+02) (17, -3.39759087536242532224e+01) (18, 5.68047622244149508219e-01) (0, 8.14554614232656426509e+00) (1, -1.91258017257230754637e+01) (2, -9.60958523725898317025e+01) (3, -2.66321869924261172002e+01) (4, 3.79861234533848559636e+01) (5, 5.15761165714599023602e+00) (6, -3.54580524186281280663e+01) (7, -4.68321577565972280155e+00) (8, -3.14888711655072306428e+01) (9, -4.08586363972118817856e+01) (10, 1.34620295448493237700e+02) (11, 7.59942820331562671754e+01) (12, -7.86996350265221877862e+01) (13, -6.55068767094897310699e+01) (14, 8.18242972471989133965e+01) (15, 1.62038619728223380889e+01) (16, -4.16878992738653622041e+01) (17, 4.08442463172076912770e+01) (18, 3.73876480477877048969e+00) (0, -3.71432810987927481960e+01) (1, 4.26473626826863494443e+01) (2, -3.36493491106391999779e+01) (3, -1.63746243604048591358e+00) (4, 4.43019752035810370216e+01) (5, -8.87626927375647767349e+01) (6, 5.98184868584002842340e+01) (7, 7.99225505370487070422e+01) (8, 2.82922904100139405159e+01) (9, -5.60170320624934987563e+01) (10, -2.44854775369793067341e+01) (11, -1.57601683065045854448e+01) (12, 3.15760067397971297964e+01) (13, -4.86435177365337594324e+01) (14, -4.02842662717183728205e+01) (15, -3.92168032107300774669e+01) (16, 1.47102821120655509191e+01) (17, -5.24615040372638645749e+01) (18, 1.53748223006393414103e+00) (0, 2.37328047537713260340e+01) (1, 2.05738217673148220399e+01) (2, 4.04341149850688719170e+00) (3, 2.54494255964959457117e+01) (4, 8.78384793758499249350e+00) (5, 5.77531822526864075940e+01) (6, 5.56819957512218710605e+00) (7, -2.34888872749345658519e+01) (8, 4.00629681829991710629e+01) (9, -6.26215627818443252295e+01) (10, -4.20263557607213442679e+01) (11, -1.54329813314639974209e+01) (12, -3.51188019003108635729e+01) (13, -1.29840624836247808815e+01) (14, -6.45537505380351603890e+01) (15, 8.18253013093300829439e+00) (16, -4.08391682521145753526e+01) (17, 6.57347761505679102356e+01) (18, -4.31814247978273346718e+00) (0, -3.62966516289398839490e+01) (1, 2.62587149505873931332e+01) (2, 1.10520565072640462034e+01) (3, -1.45124782074227383077e+01) (4, -1.93485187612065097085e+01) (5, 3.57512899274047057929e+01) (6, -6.37751367661009496146e+01) (7, 2.22687100837117268881e+00) (8, -1.70494364142010169871e+02) (9, 2.69279926664684232662e+01) (10, 8.24529828522069863084e+01) (11, 4.11389864950684582823e+01) (12, -8.78025515154662059558e+01) (13, 3.69325042191449739448e+01) (14, 5.62358550938107342176e+01) (15, 7.97864883604396482042e+01) (16, 4.22206628446455241033e+01) (17, 6.27984451581297520306e+00) (18, 5.13584693974438621922e+00) (0, 1.64760059880507334640e+01) (1, -3.78780789259156236426e+01) (2, -5.05223512195380450862e+01) (3, 1.29543476692002286654e+02) (4, -2.57425649574427239941e+01) (5, -3.02637260895253703552e+01) (6, -3.04771022664669324342e+01) (7, 1.75523795845359877887e+01) (8, 6.51277095651720827618e+01) (9, 1.80277754550046935833e+01) (10, -6.17928591342703903422e+00) (11, 4.26943383413356301048e+01) (12, -3.47135968416933238245e+01) (13, 2.25232059281482825952e+01) (14, 4.05239336317115430575e+01) (15, -1.86800356368158944065e+01) (16, -5.62718218434079346935e+01) (17, -1.69504954365921811643e+01) (18, 1.89967315077330556328e+00) (0, -5.95416970828127389836e+00) (1, 6.46428115995879579714e+01) (2, 1.34844391682991115999e+00) (3, -2.36488718332622376295e+01) (4, 3.62908511944179679176e+01) (5, -1.56519534428475903809e+01) (6, 5.50277699571450114036e+01) (7, -1.34859273369972981982e+02) (8, -1.48704186962824600471e+01) (9, -3.27885919160549050844e+01) (10, 8.83251571428111326156e+00) (11, -1.18282607934795045423e+01) (12, -2.13777672694853499991e+01) (13, -4.37329096095281641965e+01) (14, -2.29790033293019924088e+01) (15, 7.56219810505147194135e+01) (16, 4.33893324894794503166e+01) (17, -9.53415144736261410685e+00) (18, 1.23430564221120819823e+00) (0, -6.53103228377494389179e+01) (1, -5.85080766762687165539e+00) (2, -3.46086450189338847849e+01) (3, -1.20211610038986307814e+02) (4, 4.38001969888996924851e+01) (5, 2.17622090874629599000e+01) (6, 6.71169027688162600498e+01) (7, 5.81226477785350255090e+01) (8, -6.36230727506505147062e+01) (9, -7.42907317931427968460e+01) (10, -9.74382836891094505916e+00) (11, -1.33437039633758978141e+01) (12, -3.36598310340531980955e+00) (13, -1.44295888854848204375e+01) (14, -1.97043192872772223723e+01) (15, -3.31080988051415658902e+01) (16, 6.99438297884839101926e+01) (17, 2.41636959837620217684e+01) (18, -5.44282550772056894495e-01) (0, -2.16705814330175101645e+01) (1, -1.23261528576885783792e+01) (2, -3.47561499115740062393e+01) (3, -1.53855729138615487273e+02) (4, 1.91033681291390888823e+00) (5, 4.65760671515807231913e+01) (6, -8.35850505487752144518e+01) (7, 1.15505485395603901821e+01) (8, -8.65754659467203140366e+01) (9, -6.05422765453652544920e+01) (10, 1.26649074001313877602e+02) (11, -2.18266975681211405913e+00) (12, 9.14351391468716059308e+01) (13, 3.70955488812973825929e+01) (14, 2.48930512642384513811e+01) (15, 9.86623122852359131230e+01) (16, 3.76526874712739356710e+01) (17, -3.17416431910212466505e+01) (18, 5.84980534209567970549e+00) (0, 5.50132739546162525812e+01) (1, -2.42747529144428852987e+01) (2, -6.25516883589912993102e+01) (3, 5.57674746164409462779e+00) (4, -5.15554297522843540946e+01) (5, -3.67913959508727685943e+01) (6, 6.74421085177978056890e+01) (7, -8.51465704819704001238e+01) (8, 3.53131007928865727763e+01) (9, -2.00668418190073438723e+01) (10, 4.54299731290493866709e+01) (11, -4.56874892055931454138e+01) (12, -7.89823318448447952989e+00) (13, 9.74756006359847901876e+01) (14, -2.74710219287673540478e+00) (15, 3.92103945980503141300e+01) (16, 7.73931704796079245057e+00) (17, -3.18019196627692899426e+01) (18, 1.89704975571886635954e+00) (0, -6.39312189032916080578e+01) (1, -1.45115768293920144316e+01) (2, 1.68117720876081122583e+01) (3, -2.33340876393826341939e+01) (4, 1.61213616288798391452e+01) (5, 7.12030372788941789963e+00) (6, 3.75781891170836175320e+01) (7, 1.42569408611542307597e+01) (8, -9.20440126348033658132e+01) (9, -1.09614161645815570978e+01) (10, -1.44556700325797056195e+01) (11, -7.36876756165602131432e+01) (12, 8.35830667729904774887e+01) (13, 1.72796027835584524723e+01) (14, 4.23841098922415611128e+01) (15, 5.55932270140514077639e+01) (16, 1.81378806008929487348e+01) (17, 2.45536741513067369169e+00) (18, 1.67893246391119377314e+00) (0, 1.65795671031072402002e+02) (1, -2.55824206891960450605e+01) (2, 6.41139201148312025680e+01) (3, -1.23688353765524450267e+01) (4, -1.01174679313465460950e+02) (5, -3.66156863127578873218e+01) (6, -3.45784082253668856310e+01) (7, 4.12860179151129571551e+01) (8, 4.32272617837526951234e+01) (9, 1.51945573614819640085e+00) (10, 1.08133401275025136101e+02) (11, 1.88429176565134319787e+01) (12, -9.64972816549330190128e+01) (13, -3.27455255247512155847e+01) (14, 2.01384436130661121922e+01) (15, -6.11245958416535906110e+00) (16, 1.50072225017960825255e+01) (17, -4.12616671848481715301e+01) (18, 9.74612587200535007703e-01) (0, -5.50304200265117984259e+01) (1, 4.12714717698431172721e+01) (2, 6.15140099364223758016e+00) (3, -1.41720699255742079714e+01) (4, -4.73237594661525449169e+01) (5, -6.85283984975099613735e+00) (6, -3.33444103934026969682e+01) (7, 7.18198597298885772489e+01) (8, -4.05650912089256507898e+01) (9, 1.89765237988062835939e+01) (10, -3.89445273721297979819e+01) (11, -3.78879015674622294796e+01) (12, -4.51255316853398724675e+01) (13, 1.64828596052419413809e+01) (14, -1.10492670328547660574e+02) (15, 5.51730095007470353607e+01) (16, 5.46274209022064525243e+01) (17, 3.71653047939241858444e+01) (18, -6.31398446519491840512e-01) (0, 7.60344472340425596713e+01) (1, 4.30747589423220844651e+01) (2, 4.31252664975932447078e+01) (3, 2.27856404593970367500e+01) (4, -4.48645540050060702697e+01) (5, -4.27756068680891488043e+01) (6, -5.99882301993469368995e+00) (7, -7.39507763629886767376e+01) (8, 4.74455338525259617821e-01) (9, -6.91451102825386243467e+01) (10, 5.73571093433771395098e+01) (11, 5.30310166523814814354e+01) (12, 2.01842340340401378285e+01) (13, -8.43651232413426583889e+01) (14, -4.70686486457684409856e+01) (15, -1.52704018419968221565e+01) (16, -3.32919031612464593195e+01) (17, 2.97746743577480543763e+01) (18, -2.73186209292595405529e+00) (0, 3.45467943122202640893e+01) (1, -2.28663282971454009385e+01) (2, -3.77117026992398720608e+01) (3, 1.84840115534940494513e+01) (4, 6.33605460354056049255e+01) (5, -2.60419506026573870372e+01) (6, 3.40049810312649967159e+01) (7, -2.22286277860015815122e+01) (8, 2.25581398229846499248e+01) (9, -8.28364703467517315971e+00) (10, -3.18251984856773795229e+01) (11, 8.75415763290781399064e+01) (12, -6.67931119654416693976e+00) (13, -5.93736794013098645451e+01) (14, -6.38455987498379329281e+01) (15, -3.90501918255983255790e+01) (16, 2.19265537623440884829e+01) (17, -1.01058886123290214698e+01) (18, -2.24911644964857426743e+00) (0, 1.00802335377673717431e+01) (1, 8.05771892061963512788e+01) (2, -7.26318849725609823054e+01) (3, 6.37637900486119022503e+01) (4, 1.21649313332086688177e+01) (5, -3.67854071054592495216e+01) (6, -1.95892183712726470901e+01) (7, -5.17837619654946692549e+01) (8, 3.40984859893748009085e+01) (9, 4.18394408161227744358e+01) (10, -3.93999322560469664722e+01) (11, -1.65076895440189304054e+01) (12, 5.24052751007213757362e+00) (13, 6.93690090872983233794e+01) (14, -1.84156351799069852859e+01) (15, 1.42195999504064403141e+01) (16, 5.35916738577312230518e+01) (17, -6.10986609474432142974e+01) (18, 6.40821181819500296228e+00) (0, -5.34309657527537851252e+01) (1, -3.03282613810802548215e+00) (2, -3.49917652168176616101e+01) (3, 3.26656610174111534661e+01) (4, 9.74641308948444340388e+00) (5, 1.23058295390456766683e+01) (6, -8.93973493768157156936e-01) (7, -8.90670635516204924897e+01) (8, -5.27058346598144069617e+01) (9, -2.16051565503333726781e+01) (10, 1.31212403705555900046e+01) (11, 3.69268697699030639114e+01) (12, -1.52055023192189242565e+01) (13, 3.93564791996609386615e+01) (14, 7.30373359610796200059e+01) (15, 3.53973389625763772415e+01) (16, 9.61175414975414277308e+00) (17, -1.02693554534805677747e+01) (18, 4.87455905285767077117e+00) (0, 3.27897798610411044251e+01) (1, 5.74081620231817950639e+01) (2, 5.94706993092126481315e+01) (3, 4.41077502714936358075e+01) (4, -3.74412956568415040692e+01) (5, -5.83628452840016933578e+01) (6, 1.60006563549082613918e+02) (7, -5.68729034710887120241e+01) (8, -2.76639446240029904800e+01) (9, -1.01429886581304842252e+02) (10, -3.55151028024501442815e+01) (11, 1.92610694029305626884e+01) (12, 2.12910601899649066127e+02) (13, -1.73793947266156067144e+02) (14, -6.09231945128426772840e+01) (15, -5.13312380682178286406e+01) (16, 4.74472386664099019526e+01) (17, -1.07649614401125361951e+01) (18, -6.30992183652399862837e+00) (0, 4.44055465168322260894e+00) (1, 9.50417902738507365257e+01) (2, -1.06375359127796098591e+01) (3, 2.43622271170245312533e+01) (4, -3.16146057754770808401e+01) (5, -1.89364664715053940824e+01) (6, 5.25065334861093191421e+01) (7, -2.86497551349621417671e+01) (8, -4.05228265945148677929e+01) (9, -4.96859644334422654310e+01) (10, 1.80579216387706971148e+01) (11, -3.81172640677225231798e+01) (12, 2.91341911512676396967e+01) (13, 1.14567190330269745857e+01) (14, -1.04769132943867091967e+02) (15, 1.25781955703964570148e+02) (16, -2.55311042230475138126e+01) (17, -4.35334163045967557082e+01) (18, 2.55251760658033655105e+00) (0, 4.82381834234986897059e+01) (1, 7.52491545377617967461e+01) (2, -4.32603579190175793201e+01) (3, -1.67657485796933940492e+01) (4, 1.20596912696941025445e+01) (5, -3.93812854185261640438e+00) (6, 6.22527178640961054157e+00) (7, 5.20807388188413469265e+01) (8, 6.46265547072912838189e+00) (9, 3.91932322405027946388e+01) (10, 6.45717758773102019632e+01) (11, 4.67617220258739223482e+01) (12, -3.08575946712573916386e+01) (13, -1.78923125966987086599e+01) (14, -7.27994311275841710085e+01) (15, -1.00077461651585473135e+01) (16, 4.86055761629305109750e+01) (17, -4.56783491763763080939e+01) (18, 6.78738262955322024794e+00) (0, 2.27615537342552265443e+01) (1, -3.61223934372544803750e+01) (2, 5.91790422148887884646e+01) (3, -9.82938105656255345366e+01) (4, -1.32906869546672314897e+01) (5, 1.36001871452798983597e+01) (6, -3.23662192189848809676e+01) (7, 4.65303232865748483960e+01) (8, 3.73976467252215769577e+01) (9, -6.40589402491228270264e+01) (10, -2.67423588704363446311e+01) (11, -2.68201656385847897468e+01) (12, -3.69114450060976153623e+01) (13, 4.83320655683978159800e+01) (14, -2.34945038531455274722e+01) (15, 5.22907061881842949447e+01) (16, 7.26082905009240953120e+00) (17, 9.41445353187744444767e+01) (18, -4.42151413650618341222e+00) (0, -7.09078354130281667267e+01) (1, -8.18758055244686033802e+01) (2, -1.41447535895469087563e+02) (3, -4.57807547730082831094e+01) (4, 1.40317767084969432290e+02) (5, 2.77635065260348063987e+01) (6, -1.89808996361655204055e+02) (7, -2.29764272538935232504e+00) (8, -2.70481554392795757735e+01) (9, -9.94247967006793373912e+01) (10, 1.24590137745835050964e+02) (11, -5.64513480946584564890e+01) (12, 3.12251558966957922792e+01) (13, 7.64016684560300376461e+01) (14, -1.63400861370655263727e+01) (15, 1.98369750367075226904e+02) (16, -4.02721982578839430289e+01) (17, 8.77118875575272909373e+01) (18, 5.99721677551503251635e+00) (0, 6.15042459411325026508e+01) (1, 1.20177010453951467639e+02) (2, -8.15149242026914180315e+01) (3, 9.84676500992672885104e+01) (4, -9.35289918167039644459e+01) (5, -6.01539411374139589839e+01) (6, 8.64525476215558938975e+01) (7, -9.19342221387596758575e+00) (8, -3.72167114390009388103e+01) (9, -3.47826902024071813457e+01) (10, -9.25296736430267685591e+00) (11, 1.30147649569280776660e+01) (12, -3.67836513145933210467e+01) (13, -3.55522892915860850849e+01) (14, -5.80263356766306941381e+01) (15, 9.43661772379318932735e+01) (16, 2.60235619712683003968e+01) (17, -8.56528661623106160050e+01) (18, -4.13742898625466715146e+00) (0, 2.77585791797713845597e+01) (1, 7.73782442525804441402e+01) (2, 4.36247284479633563592e+01) (3, 6.84003224343583724476e+01) (4, -5.22454692443420327663e+01) (5, 5.35282273688012182333e+01) (6, -1.81690305135497460753e+01) (7, 1.24164923448799608963e+01) (8, 7.02018340693084486048e+00) (9, -8.80223654922878750995e+01) (10, 2.37770949423577917514e+01) (11, 1.48997938569719803326e+01) (12, -3.39468785284368745891e+00) (13, 3.97709843128862559070e+01) (14, -2.57141214974927017067e+01) (15, -1.82849872206759727078e+01) (16, -2.63114161964073680622e+01) (17, -4.45103014742438318763e+01) (18, -1.29857266238712454332e+00) (0, 8.25894108964243542914e+01) (1, -1.22659458167868145040e+01) (2, -7.37694007893144743093e+01) (3, 2.01681391298644818733e+01) (4, -1.00397037621065230439e+01) (5, -4.76276346026823915736e+01) (6, -3.02626418225084208302e+01) (7, 7.90233796492401694422e+01) (8, 3.72379015306761762538e-01) (9, 9.42409326201627663977e+01) (10, 9.36502726068736102150e+00) (11, -5.67121260649091780692e+01) (12, -8.75360053772672301875e+01) (13, 5.29583729715734907728e+00) (14, -6.38724259532605476153e+00) (15, 9.16200577423964261925e+01) (16, 1.55530826840293148194e+01) (17, 3.51970332481944137015e+00) (18, 5.28839598376909858501e+00) (0, 2.12522879568241123138e+01) (1, -7.74050355192241710256e+01) (2, 1.91948878092967500919e+00) (3, -8.02136936736273895576e+01) (4, -2.89144602650496445051e+01) (5, 1.63321572240156427824e+02) (6, -3.84110285268460387442e+01) (7, 9.64326929085919033469e+01) (8, 2.85799724832359309801e+01) (9, -1.75045397430845781628e+01) (10, -9.83497011481689398238e+00) (11, 3.97433910940931767186e+01) (12, 8.12627964403497884405e+01) (13, -3.15867573409920439076e+01) (14, 9.25433665419902808935e+01) (15, -3.22743970939691422473e+01) (16, -6.83421495542279160418e+01) (17, 9.40751897814666619979e+01) (18, 4.91836180372866971222e-01) (0, -2.68401654802292721769e+00) (1, -3.63949786397441377161e+00) (2, 4.43844937632471427946e+01) (3, -5.18524305100430851212e+01) (4, -3.42526451726776883788e+01) (5, 9.65002177703171213352e+01) (6, -5.22020924043192806607e+01) (7, -8.66583454770395889000e+01) (8, 6.54288368750384989880e+01) (9, -5.19780245354001877445e+01) (10, 4.22737624332219397161e+01) (11, 3.39299790982912625736e+01) (12, 4.29279833847747838149e+01) (13, -1.96963968923952918999e+01) (14, 1.13564326295738041495e+02) (15, -6.53086432116063164699e+00) (16, 1.93544249228588538525e-01) (17, -6.04479994899629389238e+01) (18, -6.62453866983373540478e+00) (0, -7.54595791585190198703e+01) (1, -5.06650624636615702912e+01) (2, 8.96420778390008763381e+01) (3, -3.68261184406622632537e+01) (4, -2.53975338336891027780e+01) (5, 2.51916090591821140166e+00) (6, 1.91356180871922525455e+01) (7, -4.46350702617537251626e+01) (8, 1.21367838595016386272e+00) (9, -1.78786377738279256278e+01) (10, 1.86305589677338936383e+01) (11, -4.97429952665890127150e+01) (12, -2.04897887810152958821e+01) (13, 4.34689075644254785402e+01) (14, 7.78953379906486560458e+01) (15, -5.78512864995412101621e+01) (16, -2.49143037559934192871e+01) (17, 7.88596468662847627229e+01) (18, 2.87325930859609161849e-02) (0, 6.17712807123211593563e+00) (1, -7.14608481756251165962e+01) (2, 2.78469998113498107273e+01) (3, -2.00449208827045799453e+00) (4, -3.00602656239534837823e+01) (5, -1.06054821942307277993e+01) (6, 7.54135872789277215134e+01) (7, -2.70173607972555593904e+01) (8, 2.60602724430825389845e+01) (9, -8.38399171680633088499e+01) (10, 1.57667316022608972048e+00) (11, -7.69045670704731918477e+01) (12, -7.67566332143055376491e+01) (13, -3.84238199775197628583e+01) (14, -3.87609188364081447276e+01) (15, -5.60073812191892912438e+01) (16, -1.12977748733437238116e+02) (17, 8.27339043403473795024e+01) (18, 1.31955182723200770134e+00) (0, -7.03486960026957603986e+01) (1, 3.94110713300518185065e+01) (2, -3.82627908460929475609e+01) (3, 3.86490257789724935833e+01) (4, -1.02896663073797256516e+02) (5, 1.77206912564104790420e+01) (6, -4.63232335086586033412e+00) (7, -7.85812608205443581255e+01) (8, -4.35934995142784131872e+01) (9, 9.53475105582889725930e-01) (10, -6.57070910660789593294e+01) (11, -7.15720704922856043595e+01) (12, 5.48054221378116324104e+01) (13, -2.01396835453679940997e+01) (14, 2.78490023139866380575e+01) (15, -9.08586516756597006861e+00) (16, 6.69388835752561739412e+00) (17, -1.04150444813669817989e+01) (18, -1.86227097147505626928e+00) (19, -5.71405431091997506599e+00) (20, -9.53502916442887205051e-01) (21, 2.78014706655121779377e+00) (22, 2.81186116341393432805e+00) (23, 1.53395796296237407752e+00) (24, 4.28736810923918076899e-01) (25, -3.11338174614172524812e+00) (26, 4.88250026665240977053e+00) (27, -2.29023707928022313141e+00) (28, -6.19072982460840659513e+00) (29, 3.47708127375730269293e+00) (30, 1.22143187905144956495e+00) (31, -3.85806714663203420557e+00) (32, 2.87359969348100507958e+00) (33, 1.79537889137163975128e+00) (34, 2.84854935003754183853e+00) (35, 9.50502378019742882875e-02) (36, 1.32010779811579803678e+00) (37, 2.28663380919271297387e+00) (38, -2.27224877126654467574e+00) (39, -1.62407464414742253034e+00) (40, 5.65652556192038358240e-01) (41, -1.38521435122663350015e+00) (42, 2.90009680751995801984e+00) (43, 4.00355491621736614416e-01) (44, 1.15292290964796428909e+00) (45, 1.61215711139205764013e+00) (46, -5.75624751566572532419e-03) (47, 8.45626387391853140407e-01) (48, -2.27272978053037144619e+00) (49, 5.07685493372804685919e+00) (50, -1.53332764372981400491e+00) (51, -1.33872218363743233915e+00) (52, 3.47259658995829623152e+00) (53, 2.66017608768204105729e+00) (54, -1.42858615815134815108e+00) (55, 6.93431703353722994621e+00) (56, -2.66698565587508307217e+00) (57, -1.58562303760785283657e+00) (58, 1.58554792860961346612e+00) (59, 3.40539357731292424702e+00) (60, 5.98309771154973901730e+00) (61, 5.45229704131163650516e+00) (62, -1.06044171464510550429e+00) (63, -7.50908588475880267588e-01) (64, -6.33518411867349473532e-01) (65, -3.77542281079160790824e+00) (66, 2.37915184084447395296e-01) (67, 9.13475583243777311537e-01) (68, -8.18904890705105081850e-01) (69, 1.12120156138305659965e+00) (70, -7.06520095546313009471e-01) (71, 2.53649070172030688397e+00) (72, 3.85153543221801708540e+00) (73, 2.46197299011530246204e+00) (74, 3.47078379006892978609e-01) (75, -9.21962476350196569186e-02) (76, 4.45704916976264886586e+00) (77, -5.49638816987207512454e+00) (78, 4.56066115363145740957e+00) (79, 2.78359739218183355192e+00) (80, -9.80227723806216033609e-01) (81, 2.04304745372879326126e+00) (82, 5.72330927082704721265e-01) (83, 2.13943217647950094384e-02) (19, -5.17074800222332697786e+00) (20, -9.77219060654144905387e-02) (21, -5.84587601314344418313e+00) (22, 8.30793598004431477211e-02) (23, 3.40509797810750081126e+00) (24, 4.68549684349802131322e+00) (25, 2.96685706845261520925e+00) (26, 1.98644420864667137216e+00) (27, -8.76742576443170551492e-01) (28, -1.63735204557351421428e+00) (29, -6.92930199689980685918e+00) (30, 3.08988224378302289708e+00) (31, -4.90022673003360609290e-01) (32, -5.29871997933519134349e-01) (33, -8.47170586430448935289e+00) (34, 5.71947116684926637475e+00) (35, -3.74999898432054523667e+00) (36, -8.95511845870757605681e-01) (37, -1.25761451006567925859e+00) (38, -6.56027590967322549176e+00) (39, 2.12863507753002119405e-02) (40, 2.47249624512854637715e+00) (41, -2.45956880452311094087e-01) (42, 4.88056730722159226588e+00) (43, -2.99381892163533658291e+00) (44, 5.32724978652113279054e+00) (45, -3.05730614713439674546e+00) (46, -2.76311240568688276653e+00) (47, 3.30603558533839381184e+00) (48, 2.21819222506472346623e+00) (49, 4.91203931612059374601e+00) (50, 1.89547930276094733770e+00) (51, 1.22140124112901782283e+00) (52, 3.98505910957824505125e-01) (53, -1.66652280409373787506e+00) (54, 1.37596569862484585656e-01) (55, 3.00144014918693757821e+00) (56, 1.86289610604972399877e+00) (57, 1.56741939581811395854e+00) (58, -1.79365096200910056901e+00) (59, -2.57060611078260015105e+00) (60, -2.31687356259412530202e-01) (61, 1.11794667396165903206e+00) (62, -2.44318573954216855526e+00) (63, -2.90606523162487562217e+00) (64, -3.73446577741427365726e-01) (65, 2.40825812239062875264e+00) (66, 6.29413312984762374214e+00) (67, 1.31917262642741861534e+00) (68, 3.26261804479605554974e+00) (69, 2.44023040796250034745e+00) (70, 4.17846285675645923163e+00) (71, -9.62278385428152249759e-01) (72, -1.11986890093122681833e+00) (73, -6.21651936429593598987e-01) (74, 2.75566421540997863460e+00) (75, -2.00027884130166855314e+00) (76, -8.79270239882832371769e-01) (77, -2.61212605585364920913e+00) (78, 4.09306156254469577505e+00) (79, 6.26789064958352182266e-01) (80, -2.37861999682928593192e-01) (81, -2.50010829509159471229e+00) (82, 6.82019340206689306250e-01) (83, -5.27232589400444773275e+00) (19, 1.40397741605763437533e+00) (20, 4.58242068070495545129e+00) (21, -9.31019050373912970819e-01) (22, 2.73141218769337479344e+00) (23, 5.58240111778853798086e-01) (24, 4.08848618156862197992e+00) (25, 9.64590968164067752433e-01) (26, -6.39245217659325337678e+00) (27, 9.19723716466703700156e-01) (28, 5.99722628576543126400e+00) (29, -2.00382564506603660925e-01) (30, 4.24322710930819413377e-01) (31, 8.56953374573810044978e-01) (32, 2.76365084959007933918e+00) (33, 4.14538535738534985597e+00) (34, -2.11017425636905153752e+00) (35, -3.09558902741647035128e+00) (36, 6.30076997978574304682e-01) (37, -6.66965382439353682287e+00) (38, 2.62355169937129906188e+00) (39, -3.19739562150783029892e+00) (40, -3.75217020805533785222e+00) (41, 5.10017310183608252316e+00) (42, 1.06847360505511512763e+00) (43, -1.57211558530592676597e+00) (44, -2.18078235281226850972e+00) (45, -1.86875554596962345499e+00) (46, 2.16885044061846432584e+00) (47, -5.17895937420361440751e-01) (48, -3.72788228514513697576e+00) (49, -1.67480487186417059675e+00) (50, 9.08296909522547490923e-01) (51, -3.54982791810633946383e+00) (52, -5.70504675446578168874e+00) (53, -1.56031335231822532172e+00) (54, 3.67923856655840531005e+00) (55, 2.19648082895986096474e+00) (56, 8.49880944481690298042e-02) (57, 2.74437198972945095576e+00) (58, -6.82657043088081505466e-01) (59, 2.02903593457485476037e+00) (60, -5.28350262177113361162e+00) (61, 8.23914008736900460583e-01) (62, 2.39785819992379939380e-01) (63, 1.67015355242411045467e+00) (64, 8.72417691491258473491e+00) (65, -8.34931955864680941382e-01) (66, 2.35756738482455174832e+00) (67, -3.64628377533682046518e-01) (68, 1.82045405714735930580e+00) (69, 4.76455342259704373031e-01) (70, -7.13007798644666213050e+00) (71, -5.93557906048293926204e+00) (72, -8.08246686805462299930e-01) (73, 8.65911231770935874152e-01) (74, 2.96986455879783139977e+00) (75, 4.11681972845930777005e-01) (76, -5.96714660460536672204e-02) (77, -2.91012808352749852148e+00) (78, -4.23778348689346096023e+00) (79, 1.52182545524059720243e+00) (80, 2.46727381765057529606e+00) (81, 1.82422497562520324887e-01) (82, -7.81764454379003437268e-01) (83, -1.86420043962703840812e+00) (19, -9.98651787979470295653e-01) (20, 4.09920612421014407545e+00) (21, 6.61467248613613101327e+00) (22, 8.66806213609102371720e-01) (23, -1.95647785173848309803e+00) (24, -2.12153879347232043884e+00) (25, 2.80111753892790105169e+00) (26, 3.81648046517115169252e+00) (27, 1.64569002221225141325e-01) (28, 4.43940097240442543836e+00) (29, -5.23856650640220022908e-01) (30, 2.32445235762897883802e+00) (31, -8.64861568891658105684e-01) (32, -1.62735622845056004948e+00) (33, -5.29804809859821901341e+00) (34, -6.65595727706587592110e+00) (35, 4.42173907576944369424e+00) (36, -1.11731164958452300340e+00) (37, 7.59487861647034967483e-01) (38, -1.52257789361296658193e+00) (39, 4.03900719177665568083e-01) (40, 1.02846439792086052911e+00) (41, 3.34193417044745810784e+00) (42, 9.61979784957972983150e-01) (43, -1.05010984347448238507e-01) (44, -2.61685744607813353113e+00) (45, 2.12967751299966012724e+00) (46, 3.78579480682224067678e+00) (47, 4.91455093650766006164e+00) (48, 2.10731316977636265464e-02) (49, 5.80056172356600807660e+00) (50, -2.11429433921226328508e+00) (51, 5.73205693724312492776e+00) (52, -1.22733169613965431566e+00) (53, 7.20988026636645962242e+00) (54, -4.15881527964098918204e+00) (55, -8.44333334053882667014e-01) (56, 2.13705171075288058447e+00) (57, 3.52887085571572312048e+00) (58, -4.38820242241754587820e-01) (59, 5.21348903961222642778e+00) (60, -2.94546116338262375933e+00) (61, 2.55959392763173276819e+00) (62, 1.83955873449694373711e+00) (63, 4.54146024864766406637e+00) (64, 4.06035057414454003677e-01) (65, 2.78081520763741574243e+00) (66, 2.14918715263253057302e+00) (67, 1.86871494239337798682e+00) (68, 7.41936881632381428631e+00) (69, 3.40535592563477318429e-01) (70, 3.26392902269455520425e+00) (71, 3.91559024167456026788e+00) (72, -2.12965637260188955793e+00) (73, 8.90378189902256478305e-01) (74, -2.92624920461818494033e+00) (75, -6.12616827816867015599e+00) (76, 5.24978928239904885089e-01) (77, 2.08934664986632601114e+00) (78, -5.24459271971125629008e-01) (79, -5.07983079306976481604e+00) (80, 2.01742594600889368905e+00) (81, -1.21111454928025175093e+00) (82, -3.68104997092212871124e+00) (83, 2.04259846272637268783e+00) (19, -3.58866594404676897412e+00) (20, -6.04892105344943509238e+00) (21, -3.78551323383295468261e+00) (22, 3.77086479320596523745e-01) (23, 7.93535100685068073290e+00) (24, 1.79902449719338641820e+00) (25, 2.32933449361477551420e+00) (26, 1.04855350170703220947e+00) (27, 3.63164890442983834262e+00) (28, -5.17607916544055424168e+00) (29, 5.43765326652328795376e+00) (30, -1.38662718408853602448e+00) (31, -3.17221563285189267489e+00) (32, 1.50079011797958083996e+00) (33, -2.21798501073208953471e+00) (34, 3.32244121413168080892e+00) (35, -3.18111638938130658616e+00) (36, 5.06260006029870179844e+00) (37, -2.84667214493765818872e+00) (38, 8.87822152483732907058e+00) (39, -2.14174159591210111486e+00) (40, 1.48667232372455077050e-01) (41, 3.64628613077162144762e+00) (42, 2.20040295929104301464e+00) (43, -3.06423474518086758067e+00) (44, 3.00786075290461774046e+00) (45, 5.69460767043069804316e-01) (46, 1.76171147580473896888e+00) (47, -5.27221505724557726325e+00) (48, 2.40953630767226290033e+00) (49, 3.50077392086841632235e-01) (50, 1.12136476533629392272e+00) (51, -5.08398184540983996693e-02) (52, -5.16227767837294376774e-02) (53, 3.57427721954896071566e+00) (54, 2.16800378389268466606e+00) (55, 4.93046676228127012109e+00) (56, -1.48184041752095718714e+00) (57, -2.56591858358047408828e+00) (58, -3.55763266523382304385e+00) (59, 2.69862594981258485660e+00) (60, -1.60942419995583230197e+00) (61, -4.06698097061448160527e-01) (62, -1.92073843809345734535e+00) (63, 3.76339129178119158325e+00) (64, -2.78116192145898555310e+00) (65, 3.39337730351244681870e+00) (66, 1.68184912909371958589e-01) (67, -8.15285013525141821766e-01) (68, 1.88319617648777892782e+00) (69, -1.75171799475108480593e+00) (70, -1.77770501964654403793e+00) (71, -2.01741452297727308363e+00) (72, -6.60487289688379886066e-01) (73, -7.11774604457042414651e+00) (74, 4.06112065402365718381e-01) (75, 2.86614931205813894266e+00) (76, 4.04849429336594734963e+00) (77, 9.27346742921456024256e-01) (78, 2.08383339298356728975e+00) (79, -8.64326450275870517004e-01) (80, 7.41283028719350145508e-01) (81, -1.19071977164513098657e+00) (82, 3.88844071564506066352e+00) (83, -3.80570785832941727023e+00) (19, -6.57403099501128895810e+00) (20, 3.95139390456941963503e-01) (21, -3.25523751600072075441e-01) (22, 3.00394405007934572893e+00) (23, 1.60178223465214353283e+00) (24, -2.29454425874665890461e+00) (25, -1.84142618855696826863e+00) (26, 3.71074478059086443338e+00) (27, -2.26317600522894013526e-01) (28, 1.24453203449240801248e+00) (29, 1.03242690373444445662e+00) (30, -7.58978306127863489028e-02) (31, -8.03057718543767617980e-01) (32, 6.70239420152801823605e+00) (33, 3.32843811408877776614e+00) (34, 4.68102088048281217425e+00) (35, -8.09618677801027142316e-01) (36, -9.39912235591863165496e+00) (37, 6.68634067614192195705e-01) (38, -3.12491801203715113822e-01) (39, -4.32170992354497573995e-01) (40, -1.69197150889444508648e-01) (41, -1.86704653555626309824e+00) (42, 2.14571123958985765512e+00) (43, -8.13766807643754974677e-01) (44, 1.70776407717102096662e+00) (45, -2.52436425542230225005e+00) (46, 4.35906861150907687374e+00) (47, 9.11186178974439098255e-01) (48, -1.23933080112245752602e+00) (49, 3.78338895100911720704e+00) (50, 6.85600199086902728496e-01) (51, 1.62099455259682856401e+00) (52, 8.10163352824541860286e+00) (53, 8.97577035092639530234e-01) (54, 5.42580480997796854581e+00) (55, 1.51457013159065767560e+00) (56, 2.92197939111303472970e+00) (57, -5.97750194060456596645e-01) (58, 6.28111755931196835689e+00) (59, 2.42659604832591302426e+00) (60, 4.68152554699123757409e-01) (61, 4.04073592810716952783e+00) (62, -1.18529154875207254349e+00) (63, -3.79809293269297310047e+00) (64, 1.77412695110618434668e+00) (65, -4.04653311650809577316e+00) (66, -1.86268403740947086078e+00) (67, -1.58247272215507966964e-01) (68, 1.30124798385082313112e-01) (69, 2.16576609003524334085e+00) (70, -3.47766664645244505394e+00) (71, 1.60241278495816441563e+00) (72, 1.77107921805139878479e+00) (73, -1.41162102238251624398e-01) (74, -2.74094417523764288802e+00) (75, 5.07890511577765124684e+00) (76, 8.20415962507949902971e-01) (77, 2.99983762682456056581e+00) (78, 7.95164604761667170862e-01) (79, 1.41495849182161004265e+00) (80, -3.00159107776779343624e-01) (81, 1.33410484810833551705e+00) (82, -4.30459210872173425599e+00) (83, -3.80270941551778918210e+00) (19, -2.95932876506835684793e+00) (20, -1.14258611685772559774e+00) (21, -7.72710826973294739872e-01) (22, 3.83834241029861100714e+00) (23, 2.18703807558271368094e+00) (24, 2.43330194722041914801e+00) (25, 1.33790755231461999664e+00) (26, -7.33608688851222656702e-01) (27, -5.87094337878624550342e+00) (28, -6.31245399304363186133e-01) (29, 4.38009258311929894347e+00) (30, 4.24541017803142306519e+00) (31, 2.44342360656832768839e+00) (32, 2.46560933978602481176e+00) (33, -1.70505480610194048996e-01) (34, 3.33452552449274408630e-01) (35, 2.58449770171545578634e+00) (36, 3.20556342692873075251e+00) (37, 1.99779282515735756576e+00) (38, 4.53744204467865230868e-01) (39, -2.17586860124555681040e+00) (40, 2.94364779719521063583e+00) (41, 2.47205957449990565422e+00) (42, 5.68053295766748789219e+00) (43, 2.75253493206446675501e+00) (44, -6.43676518223842375477e+00) (45, 6.94005010246923248474e+00) (46, 2.32580194586305921689e+00) (47, 8.09085472728398968911e+00) (48, 6.66374804517779004837e-03) (49, 1.63122743322667296262e+00) (50, -1.42603744442283697502e+00) (51, -4.36826842650243796218e-01) (52, -6.75212496534668638049e+00) (53, 1.86099171463866119858e+00) (54, -2.82920471638002846149e+00) (55, 1.86342459814568850440e+00) (56, -4.16441398698057874128e+00) (57, 4.54979176760791759193e+00) (58, 2.95978922803861799196e+00) (59, -1.51749045979971719511e+00) (60, -8.64962102928310661021e-01) (61, -4.47387868333060101378e+00) (62, 2.75014730686326203113e+00) (63, -5.30701009986737659574e+00) (64, 1.70395907315976335994e+00) (65, 3.59316085610999758071e-01) (66, 4.33691338110836266395e+00) (67, -2.46675760045157765887e+00) (68, 4.23256373328701318570e+00) (69, -5.13172573339536430836e+00) (70, -1.44917241166105958960e+00) (71, 4.07875707213298266396e+00) (72, 1.12553699288481867669e+00) (73, 1.52732179624954489405e+00) (74, 8.47738367522299501866e-02) (75, 1.03807415163545369019e+00) (76, 5.27003869761219689849e+00) (77, 2.16511588006418653762e+00) (78, -6.85411398988343578687e-01) (79, -1.95422939853149535416e+00) (80, 5.70847255871389691606e+00) (81, 1.36047295998940875883e+00) (82, -3.07632095187572973671e+00) (83, -4.17987303329496351356e-01) (19, -5.30190647526675906676e+00) (20, -7.48567991701129115123e-02) (21, -1.08791069441379484317e+00) (22, 3.97941954403947839580e+00) (23, -3.38902532438633352641e+00) (24, 6.86923741210437466265e+00) (25, 8.88846093100932210795e-01) (26, -8.48930227166903583758e-01) (27, -8.05857253155300656822e-01) (28, 4.70236763775951605027e+00) (29, 1.62378910566767298285e+00) (30, -4.39344667842499148058e-01) (31, 4.31182445024182126048e-01) (32, -2.24308420724010293412e+00) (33, 4.10870702865243320190e+00) (34, 1.88566486827068735543e+00) (35, -5.60890875695736812467e-01) (36, -4.47490253618514688405e-01) (37, -3.03051941469410779373e-01) (38, -3.66576548844353711232e+00) (39, 5.19849586210325753655e+00) (40, 1.59845931825113618530e+00) (41, 8.42880060482924742260e-01) (42, -3.74771914734501487843e+00) (43, 1.20869246017181830588e+00) (44, 6.11567521054901330757e+00) (45, -2.78186637624227295351e-01) (46, 5.77450981477132074815e+00) (47, 1.45030548004095494186e+00) (48, -5.41719396705746092380e-01) (49, -1.79834598456881811224e+00) (50, 5.44148965916522286967e-01) (51, -1.92396457742972448735e+00) (52, 2.78893127844518695646e-01) (53, -3.47788949540968461704e+00) (54, -2.04600921606426089383e+00) (55, 4.48877838597607858873e+00) (56, -6.54698108006377177404e-01) (57, -4.65010787416968618402e+00) (58, -2.97185243505155138877e+00) (59, 2.83660745833154059881e+00) (60, -2.69436974982593668848e-01) (61, -4.34542679803256604032e+00) (62, 2.73903287356431679456e+00) (63, 1.79674461360951376321e+00) (64, -9.97289377708693525193e-01) (65, -5.63946856250677086564e-01) (66, -1.56725095836218653034e+00) (67, 3.38896380478480319098e+00) (68, -9.30115368661564634323e-01) (69, 1.04431528053775246612e+00) (70, 6.15413669571680310710e-01) (71, 2.10745851328355637833e+00) (72, -7.07333858854844788056e-01) (73, -2.26954148941688682584e+00) (74, -5.58537375822939274883e+00) (75, -7.89189216078842559199e+00) (76, -2.89859991059541632907e+00) (77, -4.25874402474577884448e+00) (78, -3.94070279395666789313e+00) (79, 1.29306702634093007021e+00) (80, -1.49366668572950556104e-01) (81, 1.76656695918849426796e+00) (82, -1.77672648475441452565e-01) (83, 1.08619737215592837565e+00) (19, -1.39542937854773918538e+00) (20, 4.52515145567305987484e-01) (21, 4.24732535047512094195e+00) (22, 5.45786515868602495338e-01) (23, 7.49025840171810730617e-01) (24, 2.14027235626199796581e-01) (25, 6.28941497867591348125e-01) (26, 1.51207343694479257046e+00) (27, 3.37662357536532509172e-01) (28, -3.13842105060048882220e-03) (29, 3.64266451118213607785e+00) (30, -1.63038789090270963555e+00) (31, -4.20372818587879404362e+00) (32, -4.51395973888110035865e-01) (33, 7.20731404075398351949e+00) (34, -4.01416925381503908454e+00) (35, -1.63336296204817954525e+00) (36, -1.91261892250380238778e+00) (37, 1.03833990706540291171e+00) (38, 5.00867160848117221050e-01) (39, 2.20752743279030694268e+00) (40, 9.58162432119639895234e+00) (41, 4.65680376863154510403e+00) (42, 6.20916283213904462990e-01) (43, -7.15183500978815556159e-01) (44, 2.43381400762286448369e+00) (45, 1.10841165589350332255e+00) (46, -6.49917661846705518869e-01) (47, 9.46464845588908310070e-01) (48, 2.23472025428538412228e+00) (49, 1.76052582580242944488e+00) (50, -7.16174993976043117172e-01) (51, 4.57613926826363315303e-01) (52, -1.66660158620228293636e+00) (53, -1.78605371469575913146e+00) (54, 5.60589726470874349928e+00) (55, 2.78624414650583585029e+00) (56, -6.92906233434724505571e+00) (57, 4.67739328885459304530e+00) (58, -6.98841745362631217020e-01) (59, 9.24497447461272514602e+00) (60, 1.12936471491198608952e+00) (61, 1.98392136436396282484e+00) (62, 3.27152858704480020702e-01) (63, -4.36648413046083572198e+00) (64, -2.64282301469026226215e+00) (65, 1.09525214532653736299e+00) (66, 2.65450762308648124943e+00) (67, 8.49529720621932660229e-01) (68, -1.11857903492763877118e+00) (69, 1.04180007394845564050e+00) (70, 1.97665319090227420418e+00) (71, 2.72101580550226884725e+00) (72, -3.57280388699230888605e+00) (73, -1.45758235974572425420e+00) (74, 3.34825973960277600838e+00) (75, -2.81611751514673969155e+00) (76, -3.00010878539586789415e+00) (77, -4.24880608110012464307e-02) (78, -2.63751795308319803013e+00) (79, 2.08124774169448273353e-01) (80, -4.42777964985703853529e+00) (81, -4.69929524936428677506e+00) (82, -1.65295538760961702174e+00) (83, 1.36493491377941045251e+00) (19, -1.65068680726333694153e+00) (20, -4.44564650361907087728e+00) (21, 3.62501460382660090076e+00) (22, 7.99300123016263186493e-01) (23, 5.38277807925841944581e+00) (24, 7.03531519567667018578e-01) (25, -3.10021825835274267291e+00) (26, 1.21796606153651398863e+00) (27, 2.41896487547560212761e+00) (28, 2.77566256336759620282e+00) (29, 4.11757875988070409790e+00) (30, 2.38071619773026599276e+00) (31, -1.51093424221116379158e+00) (32, 7.11124290105395684414e-01) (33, 6.41320174194483882957e+00) (34, 2.20600760676984375408e+00) (35, 5.20221654126511001692e-01) (36, 4.80954125016361544454e+00) (37, -2.84367531275999052554e+00) (38, 2.15480209903555897100e+00) (39, -1.22831576219379390302e+00) (40, 2.54401117427363621104e+00) (41, -1.35811021541307586080e-01) (42, -6.26713022961721222259e+00) (43, 1.06169056350565522706e+01) (44, 3.09936117669579580536e+00) (45, 3.89111670090525008092e+00) (46, 2.91882992653248773962e+00) (47, 9.18330709959672364384e-01) (48, 5.90414360307671870487e+00) (49, 5.98513137254267579834e+00) (50, 2.10966271597357568623e+00) (51, -3.46141929417992766371e-01) (52, 4.23943905672356091685e+00) (53, 8.69517730553888035239e-01) (54, 7.47584429829077579122e-01) (55, 1.44484980727619016783e+00) (56, 3.68367592909779606458e+00) (57, 8.37757138904375309174e-01) (58, -3.06044443828352896730e+00) (59, -4.78331149234427932537e-01) (60, 1.10433507280833409503e+00) (61, -2.16631186355485771955e+00) (62, 2.41977923667770866700e+00) (63, 3.31984269867205394888e+00) (64, 2.20453742089843451879e+00) (65, -1.30285066902785878762e-01) (66, 8.46097141957294063275e+00) (67, -3.21183263868032253807e-01) (68, 3.73167084543017812948e+00) (69, -2.81080246219167495525e+00) (70, 7.34378817568567843210e+00) (71, 5.28070240079000097211e+00) (72, 2.42187991566915838959e+00) (73, 8.43275042461412605022e-01) (74, 2.67648859067276922996e-01) (75, -4.78549652810578568518e-02) (76, -3.65305071672405867744e+00) (77, -5.14969682618930502116e-01) (78, 2.43869428178691283193e+00) (79, -4.32895371861544087100e-01) (80, 2.64930471966455094446e+00) (81, -2.79019913361611981983e+00) (82, 1.46318785230583392476e+00) (83, 6.63054560142188975647e+00) (19, 5.81183804310859386533e+00) (20, 3.19532898915349017344e+00) (21, 4.27123681998226345513e+00) (22, 4.92313861967315702373e+00) (23, 5.60284376223432456499e+00) (24, -4.47863596345481007610e-01) (25, -4.10949655054632601026e-01) (26, 6.84646571258563252371e+00) (27, -9.85061137043535817170e-01) (28, 7.00387288327499302198e+00) (29, 1.04451335252146293442e+00) (30, -2.64914276264862724730e+00) (31, -6.86053322196783166298e-01) (32, -6.58697830086279711992e+00) (33, 1.20996893485497403198e+00) (34, -1.64796957872168459147e+00) (35, 2.86184771859912556735e+00) (36, -2.49673800700158698973e+00) (37, -3.69369541307979964984e+00) (38, 8.05589322636149351986e-01) (39, 4.30538258293707887248e+00) (40, -2.74744014590828200539e+00) (41, -2.22580811700970038203e+00) (42, -4.08749685586340927301e+00) (43, 2.74285761219708268399e+00) (44, 5.58037495013306372726e+00) (45, 4.81075046289644259190e-01) (46, 7.79682421632601485584e-01) (47, -2.58583463750912567747e+00) (48, 8.01552763265028467288e+00) (49, -2.13117218490490456517e+00) (50, 7.72970742835957835837e+00) (51, 9.73340739646234465177e-01) (52, -7.66778047249783156758e-01) (53, -1.67781965348913275626e+00) (54, 4.86450619652488391864e+00) (55, -3.65837666266432881557e+00) (56, -1.36165288591550592834e+00) (57, 5.56351588337134272955e-01) (58, 2.05793277139366814765e+00) (59, 7.90002631172615110700e+00) (60, 5.43724658739481458980e+00) (61, 3.85185985581188328197e-01) (62, 1.49836775961327672846e+00) (63, -3.96284433846123329559e+00) (64, 2.97593163482206213288e+00) (65, -6.48107874400395522763e-01) (66, 5.62134701075041820495e-01) (67, 2.63535046959948804357e+00) (68, 9.93808514819478072688e-01) (69, -1.38772049113293682865e+00) (70, -2.49644626128444713231e+00) (71, 1.66283258316059812110e+00) (72, -7.43723301643211404111e-02) (73, -6.77743849858321145696e-01) (74, 4.67822555219131519522e+00) (75, -1.77591966763316388978e+00) (76, 2.58653982967904316759e-01) (77, 7.18507422909684390078e-01) (78, 2.42239157135829508150e+00) (79, -1.78749237274718741908e+00) (80, 6.20597593610570186229e+00) (81, 1.13200396680092363333e+00) (82, -9.50954144608706503083e-02) (83, 1.01614686863378245185e+00) (19, 3.26891133489552832003e+00) (20, -2.20879858731793232707e+00) (21, -1.54085576283719949409e+00) (22, 2.25867042235414849927e+00) (23, -4.99662424037618002615e+00) (24, 1.97380843791543814092e+00) (25, -2.47871732912643327751e+00) (26, 7.12984384976375729082e+00) (27, -3.50848234713419282471e+00) (28, 5.20653580884291034003e-01) (29, 2.68631491759559359878e+00) (30, -1.95442569085916417748e+00) (31, 1.25149693883029211605e+00) (32, -2.98776281340691962640e+00) (33, -3.72062591740982107069e-01) (34, -3.71262178633415329543e+00) (35, 2.27777929714654359117e+00) (36, 5.37977981109764957779e+00) (37, -6.00237719910316824823e-01) (38, 6.16159631048344702542e-01) (39, 4.51428222880326579514e+00) (40, 4.16661909622442561130e+00) (41, -1.98244261784535608095e-01) (42, -4.19863745805909627240e-01) (43, -9.75856072317577094566e-01) (44, 3.10006471414848538970e+00) (45, 6.78743429493251171358e-01) (46, 8.58761382662004746358e-01) (47, -1.95787845366420065751e+00) (48, -1.14938175191155389498e+00) (49, 6.37430376961931943747e-01) (50, 3.37089397172153670823e+00) (51, -1.75124348232406945591e+00) (52, 3.00045451744548197226e+00) (53, -4.14430986104236254164e+00) (54, -6.90429044201422592586e-01) (55, -5.72393096869170925345e+00) (56, -2.35476959173427102812e+00) (57, 5.08524913618155771644e+00) (58, 4.00080397270256593600e+00) (59, 1.34466717893601162004e+00) (60, -4.61190649222034210197e+00) (61, -5.32063311776130198893e-01) (62, 1.14544573723543252619e+00) (63, -3.62266606529065926523e+00) (64, 5.69065135931997456709e+00) (65, 5.00617269687752752816e+00) (66, 3.77333551056737626084e+00) (67, -2.58724458327094808396e+00) (68, 6.56359231224579509067e-01) (69, 2.29368595440762240711e-01) (70, -3.74486425417014601180e+00) (71, 6.08451721077672402771e+00) (72, 1.90201552769173964919e+00) (73, -8.58886111597071510992e-01) (74, -7.00649414942330683864e-01) (75, 3.23174849650268436463e+00) (76, 1.82336646052682627150e-01) (77, -2.20313352337736123587e+00) (78, -3.94960187107970295273e+00) (79, -2.67858502131479481179e+00) (80, 2.77826149833940938549e+00) (81, 6.98522318154494281650e-01) (82, 5.13895554643135188400e-01) (83, -4.52080339962848132274e+00) (19, 2.76257853337559744489e+00) (20, 3.29068540995041292074e-01) (21, 7.24041114584322298420e-01) (22, 2.62377374259847684357e+00) (23, -6.92780487519387366824e-01) (24, 1.44133459799615692987e+00) (25, -3.11371390186548335777e+00) (26, 2.58902270306327819682e+00) (27, 1.25022319775853385515e+00) (28, 1.99849952408795084047e+00) (29, 3.58026515900693143024e+00) (30, -1.86413502407279302320e-01) (31, 2.50088967020306007782e+00) (32, 5.36753410628564253670e+00) (33, 6.42640321450922780144e+00) (34, -1.33146770308851669640e+00) (35, -1.39833158130993773227e+00) (36, -6.48283631833147566681e+00) (37, 2.14082348016717638473e+00) (38, -8.93860295232501544938e-01) (39, 4.50823223081880186669e+00) (40, -9.03025021956240236953e-01) (41, 3.60188777940560989066e+00) (42, 2.44804265289665012872e+00) (43, -3.21544270207188409572e+00) (44, -5.03806287894515758552e+00) (45, -2.29677823951300652539e+00) (46, 1.93159719589883560609e+00) (47, -1.95587757785086702178e+00) (48, -2.48792464748950142850e-01) (49, -2.74227924233487074801e+00) (50, 7.99835044567833830520e-01) (51, 2.56459719822290876934e+00) (52, 1.99041223397645317128e+00) (53, 1.54729334323045253363e+00) (54, 2.00476077341962843903e+00) (55, -8.13847717624556876714e-01) (56, -2.33654740412463457488e+00) (57, 3.25461397365736448961e+00) (58, 2.64833176759720156923e+00) (59, 1.23234239585514226967e+00) (60, 3.77082193514606345275e+00) (61, -7.52996328381059232271e-02) (62, 4.87548119259408530013e+00) (63, -3.36577813936867675793e+00) (64, -3.63987772567550349478e+00) (65, -3.58055987469154768377e+00) (66, 2.61364723966270773303e+00) (67, 4.82314221764399952974e+00) (68, -1.55264463502235816605e+00) (69, 1.94138535382108168292e+00) (70, 2.34169415014803528052e+00) (71, -4.38725052886740574110e-01) (72, 1.01336947801407184500e+00) (73, -3.93672142478915487729e+00) (74, 5.86396988366124549685e+00) (75, 7.62721729437457307554e-01) (76, 5.29124800185678179076e+00) (77, -1.55951830622920062375e+00) (78, -1.91824276888339739777e+00) (79, -5.37552632956131137831e+00) (80, 9.69921219905383602544e-01) (81, -3.51615503247293048616e+00) (82, -2.48826824599915985559e+00) (83, -8.20861538891407227503e-01) (19, 3.55663740170187514522e+00) (20, 5.82427958708669923915e-01) (21, -1.37063580129695150589e+00) (22, 1.00819803506854777098e+00) (23, -3.38304197504793879858e+00) (24, 7.16891933282817750417e-01) (25, -4.97575930280328027067e+00) (26, 5.41203841703800048180e+00) (27, 2.48206279385214134692e+00) (28, 2.52118145823967321206e+00) (29, 2.57072995950374982854e+00) (30, 1.84473948751210437003e+00) (31, -5.20455498052542653298e-01) (32, 4.49682567022329493511e+00) (33, -1.15968137962522832574e+00) (34, 3.76771248823817161977e+00) (35, 2.11218108928856196371e+00) (36, 2.15349301319957131540e+00) (37, -4.26520481769162351782e-01) (38, 4.01851157106979339773e+00) (39, -4.93618493920143741605e+00) (40, 1.91323345474354988838e+00) (41, -2.63118969607024189017e+00) (42, -2.03880755872247920735e+00) (43, -4.59046188053408954488e+00) (44, 4.37917013513744596276e-02) (45, 2.93136114092008792653e+00) (46, -1.93023431777943432763e+00) (47, 2.34908087627677764075e+00) (48, -7.23316241882896560078e-01) (49, 6.13254601956756628667e-01) (50, -5.21508478510038120390e+00) (51, 9.13371904136316858924e-01) (52, -3.36318092266241519539e+00) (53, -1.06585043817778846176e+00) (54, -1.19614367560795775702e+00) (55, -5.30316001315283180872e+00) (56, 7.63161381028825136497e-01) (57, 5.65824723660330652919e-01) (58, -1.60449758627926941656e+00) (59, -4.02454515523770250951e+00) (60, -2.52430417882453417278e+00) (61, -4.95731728498230417301e+00) (62, -1.74097085217291103199e+00) (63, 8.42064432401072759937e-01) (64, -5.85760947650785457341e-01) (65, 5.54248263419084175041e-01) (66, -1.38816023358873485982e+00) (67, -1.54160763872444839251e+00) (68, -1.83068187144105687381e+00) (69, -7.00898850905015913249e-01) (70, 7.64354771419440859326e-01) (71, 2.09022399121158608537e+00) (72, 2.19588467511225493567e+00) (73, -4.36320589740785980126e+00) (74, -1.63605514118127715051e+00) (75, 4.56537672211287226531e+00) (76, 1.24090005953208692979e+00) (77, 2.89543204312436719405e+00) (78, 3.25629475809901336447e+00) (79, -3.46123232991217477661e+00) (80, -4.08843008265420504443e+00) (81, -1.42383862698407570591e+00) (82, 3.30017729453381791771e+00) (83, 2.76159763968446414495e+00) (19, -6.25307303586667373452e+00) (20, -3.00926486359482758814e+00) (21, 6.08150675827248798910e-01) (22, -3.04757539852980219308e+00) (23, 1.90064090040234034973e+00) (24, 2.48952133111679652089e+00) (25, 3.38625772856625584240e+00) (26, -4.09567201103964340092e+00) (27, 9.73803265270175688606e-01) (28, 5.82756274543362984275e+00) (29, -3.96246487897143895296e+00) (30, 3.61063123510101391389e+00) (31, -2.05782123853186194040e+00) (32, -2.99136481627614414514e-01) (33, 1.32648011462142090267e+00) (34, 2.38534835184597460156e+00) (35, 1.26030020071590387332e+00) (36, 2.33635348394857222942e+00) (37, -3.75543664340091432052e+00) (38, -4.83053838490894005275e+00) (39, 7.33332855223439161740e-02) (40, -5.44334170286247065462e+00) (41, -5.19592067331794860152e-01) (42, 2.63259354803435785541e+00) (43, 5.33973937812742249776e+00) (44, 2.12596773096425817329e+00) (45, -2.53931595013296984575e+00) (46, 5.50309344301022562718e+00) (47, 4.05396504069742658061e+00) (48, -6.17807210534882966790e-01) (49, -4.45205595535452025580e-01) (50, 4.44652794970672360364e+00) (51, -9.35105078895783869974e-01) (52, -2.62478125290359587396e+00) (53, -5.77659113314370697978e-01) (54, -9.29200552353345310408e-01) (55, -3.63216256261153969120e+00) (56, -9.47380855400867805116e-01) (57, 1.22980702449187151437e+00) (58, 4.23313407061401125731e+00) (59, 4.28904217235575035971e+00) (60, -3.29396882893515341451e+00) (61, 6.00621623549969951839e-01) (62, 7.17499424078738790023e-01) (63, 7.68881591955775212099e-01) (64, -1.99050601380993419376e+00) (65, 4.79112189275386857190e+00) (66, -3.54046264659157916554e+00) (67, 8.05024438756106075488e-01) (68, 3.16020757212205238851e-01) (69, 3.98169549584410253917e-01) (70, -1.02854333771131738473e+01) (71, 4.58635535969021468361e+00) (72, -3.00653110800226031074e+00) (73, 5.65021692955192200714e+00) (74, 3.16335089574259553657e+00) (75, -2.66845637226163123756e+00) (76, 9.50940450261688385858e-01) (77, 1.05527484217780931353e+00) (78, 2.05290172662137182513e+00) (79, 5.31610653831951718296e-01) (80, -1.82873278609227502001e-01) (81, 3.59075262874335932040e+00) (82, 2.21248435511376451146e+00) (83, -2.19095809552150688759e+00) (19, 3.72841969682330764968e+00) (20, -3.29547009526085954434e+00) (21, -4.83349338835393826930e-01) (22, -1.30930100121875381269e+00) (23, -1.51126128619951360932e+00) (24, 4.59396396002145213089e+00) (25, 3.77573579606472797821e+00) (26, -5.77506849462530436057e+00) (27, 2.46214160456267450172e+00) (28, 2.58309662820651109172e+00) (29, -6.08232956113484268812e-01) (30, 1.40523981515856211111e+00) (31, 1.02179307760859927612e+00) (32, 2.53518409589451820807e+00) (33, 3.05133399105527214346e+00) (34, 1.98709983827242836485e-02) (35, 1.14348525350566121439e+00) (36, 1.25630519867373013909e+00) (37, 8.55111267576884381825e-01) (38, 3.07628469573768281720e+00) (39, -3.60986446070175004408e+00) (40, -2.31459545851873471634e+00) (41, -3.85487308862608601956e+00) (42, -4.92283206042889176501e+00) (43, 9.97732233268919355140e-01) (44, -4.48507695859113486581e-01) (45, 6.77789023236361476421e-01) (46, -3.06165652873370808251e+00) (47, 1.10233072445869617617e+00) (48, 1.46497109577339990061e+00) (49, 8.45174831152263883460e-01) (50, -3.16655256874251067600e+00) (51, 5.27138209470142093949e+00) (52, -1.60821045183012045765e-01) (53, 2.79770436321105597788e-01) (54, -3.43170329392259931822e+00) (55, 3.52624140953024811651e+00) (56, 8.08004465874426425209e-01) (57, -1.36902994368809061143e+00) (58, -2.72693290132593002539e+00) (59, 5.31788835403994664119e+00) (60, -2.43647064069730634461e-01) (61, -4.07891160213310932647e+00) (62, -2.75094235170910872412e+00) (63, 4.02902364589510320059e+00) (64, -7.35447172211509503370e+00) (65, 4.76479544344345651297e+00) (66, 7.01268740117805156054e-01) (67, 7.61323117931442694406e-01) (68, 1.05924593957097901153e+00) (69, -6.45709715238290460348e-01) (70, 9.47367336513866931114e+00) (71, 3.50811283557538100553e+00) (72, -2.61909600187561997231e+00) (73, -1.01266177771802290408e+00) (74, 5.06817305047712896027e+00) (75, 4.85597552789882258573e-01) (76, -2.03051736120439862976e-01) (77, -5.73581429923967989204e-01) (78, -3.91241380136735905637e+00) (79, 3.66022334036489871423e-01) (80, -1.36778783627177857873e+00) (81, -6.73613066297871987409e-01) (82, 8.50860601654782655601e+00) (83, -2.35398777219594856902e+00) (19, 7.04753462993718571283e+00) (20, 4.14621878654494935290e+00) (21, -3.51505441928722639489e+00) (22, -1.01896788812904981469e+00) (23, 1.85019471928310985653e+00) (24, 5.12681101388488080772e+00) (25, -3.76044869688239513650e+00) (26, 2.12330454592546535864e+00) (27, 6.05827516653707598415e-01) (28, -1.01377784076373811395e+00) (29, 1.71302584990105599694e+00) (30, 3.51674417976463260516e+00) (31, -1.31483911608184378395e+00) (32, -4.75995875754036235072e-01) (33, -4.99981706407596337982e+00) (34, -2.89900589807375874685e+00) (35, 5.76985661607989097632e+00) (36, 1.84921752114011711532e-01) (37, -2.71630278072305175741e+00) (38, 4.41300802303791961378e+00) (39, -3.85808141490642297899e-01) (40, -2.48957094777099019467e+00) (41, 3.83959801366712616399e+00) (42, -7.19655943014241850086e-01) (43, -4.15491343423355807829e+00) (44, -5.35769153326733782450e+00) (45, -4.92811295412785721481e+00) (46, -5.70546926048443037160e+00) (47, 1.60254027059334158700e+00) (48, 2.22412749218266897477e-02) (49, 3.56123638695370203777e+00) (50, 5.80169980811989893787e-01) (51, -3.76656792667531004071e+00) (52, -1.72789461051666615177e+00) (53, 4.12562605587651098915e+00) (54, 1.75832527249070302844e+00) (55, -1.55025297197443201469e+00) (56, 6.02788911072660194002e-01) (57, -3.06011419299098719193e+00) (58, 5.80385264470589135044e+00) (59, 1.42604916445617480036e+00) (60, -6.37233101769748899734e-01) (61, 8.77436871122005856982e-01) (62, 3.12404381034429512454e+00) (63, -2.07522757256717937935e+00) (64, 4.51349564541237135984e+00) (65, 5.08679151134133000767e+00) (66, -3.01984079169715924351e-01) (67, 2.88870442130894788946e+00) (68, -4.45523129533231254662e-01) (69, -1.47585515808397178643e-03) (70, 6.97597699530043913185e-01) (71, -1.45351799319624652718e+00) (72, -1.95632724897437015876e+00) (73, 4.97187473152727577030e+00) (74, 1.31524212817689750699e-01) (75, 4.41851480972293153560e-01) (76, -4.04487773642524661710e+00) (77, -1.99797063984025502492e+00) (78, 2.96116725154329429870e+00) (79, 1.62311955812467956228e+00) (80, 8.25275319846654831224e+00) (81, 2.54519575353990790134e+00) (82, -1.45653727815523570399e+00) (83, -4.74670496320555856951e-01) (19, 9.83143497132426524843e+00) (20, -5.57896833082156096140e-01) (21, 4.63408114894178968513e+00) (22, -2.08086624576563838929e+00) (23, 2.45072209869713919517e+00) (24, 2.75806102856327362005e+00) (25, -1.71957027998254230461e+00) (26, 2.67782996821165264478e+00) (27, 2.38641008630403694823e+00) (28, -1.48143101170046476156e+00) (29, 3.41210620864431449228e-02) (30, -1.66892931517649389939e+00) (31, 2.93797132942211769446e-02) (32, -9.41187304833152937888e-01) (33, 2.55990881960962246566e+00) (34, -3.69234151350835482219e+00) (35, -2.74484895071657275523e+00) (36, 1.93832885562754242414e+00) (37, -9.17158050061121277174e-01) (38, 8.07693426333039865561e-01) (39, -3.21613605957317716388e+00) (40, -4.05205752355419601685e+00) (41, -1.52495408484241523617e+00) (42, 3.43383304415027357237e+00) (43, -1.47312951634067368367e+00) (44, 4.23433418928715532559e+00) (45, 6.98908725483814219359e-01) (46, -2.71351793584280187588e+00) (47, -3.33383496818111657589e+00) (48, 2.00772365078509196223e+00) (49, -3.07145936126393470644e+00) (50, 2.74783926059153671417e+00) (51, -3.52125133020728675604e+00) (52, 1.05713220539085828165e+00) (53, 7.33064050543929757175e-01) (54, 1.35963407121713797387e+00) (55, -4.61332821905393153372e+00) (56, 4.32436239339800909676e+00) (57, 3.92600089994374101821e+00) (58, 2.89443621565963749021e+00) (59, 4.70924432044831142719e+00) (60, -4.76951730986415967095e+00) (61, 1.67222831853803988178e-01) (62, -6.25385240006054665685e+00) (63, 4.10134531508816790879e-01) (64, -2.09643473027663462815e+00) (65, 5.50560766757148378758e-01) (66, 5.52484737191398433964e+00) (67, 1.24652797336275078521e+00) (68, -2.89113162436838821989e-01) (69, -3.28236350092515305477e+00) (70, 2.26392690131252027896e+00) (71, 5.48051339384293734192e-01) (72, 5.06995896723943184625e-01) (73, 9.24914013754311703508e-01) (74, -1.02870410757678909519e+00) (75, -1.49769986820838663100e+00) (76, -3.64470868034095962784e+00) (77, 4.70328135563683602527e+00) (78, 1.86488605860097278466e+00) (79, 2.09530671318027106320e-01) (80, 2.85351685063899407346e-01) (81, 5.69064247997743688501e+00) (82, 1.66785965636018351788e+00) (83, 1.96317228544651012356e+00) (19, -4.83579327802854308516e+00) (20, 2.99188821876118860033e+00) (21, -6.70811972707630821411e-01) (22, -9.47815306870239626669e-01) (23, 1.17448435732356681882e+00) (24, 1.45213708104191629999e+00) (25, 7.51293636989134983040e-01) (26, 1.31743612810066679231e+00) (27, 8.13587245632884048518e+00) (28, -3.81702817475639211153e+00) (29, -6.04177467731447048749e+00) (30, -2.14312596414364131547e+00) (31, -2.03555123734809573222e+00) (32, -4.23510616227446179405e-01) (33, -3.66631564775095686315e+00) (34, 3.86961362940184860904e+00) (35, -2.00343418149035601417e+00) (36, -1.54689428635733272621e+00) (37, -1.39384743081663087239e+00) (38, 2.44907469668390076478e+00) (39, 3.00444022070480931674e+00) (40, -3.28932766345387062046e+00) (41, 1.54887070144590310861e+00) (42, -7.68966102425606257142e-01) (43, -2.38788823588918974750e+00) (44, -1.41209993364858482634e-02) (45, 9.29206972591642643700e-01) (46, -4.44730659958919272157e+00) (47, -1.62296495141456920130e+00) (48, 1.43147380038102212119e+00) (49, 6.43333826862876811958e+00) (50, 4.70678635241040854709e+00) (51, -3.50313662793362112780e+00) (52, -3.17455832836558071719e+00) (53, 1.16565318425457187246e+00) (54, 4.18758604729772176967e+00) (55, 1.16399574717639744947e-01) (56, -4.68755356719385396502e+00) (57, 2.62056778817604030252e+00) (58, 1.07820750594709635628e+00) (59, -9.90358693322326066877e-01) (60, 1.40392382313632957391e+00) (61, -2.10124042990326254099e+00) (62, 7.61288316410690946157e-01) (63, -2.89759470247345651828e+00) (64, 3.44521504010689394448e+00) (65, -1.18387630815795952266e+00) (66, 5.14333334647093742831e+00) (67, 6.24918305350044889224e+00) (68, 2.13983463979516885800e+00) (69, -1.48552623129132133073e+00) (70, 2.54525318825651458710e+00) (71, -3.46397361004335069268e+00) (72, -1.62493645807975251039e+00) (73, 3.53987894961317373088e+00) (74, 2.13158425608976215271e-01) (75, -4.36505540165206373793e-01) (76, 1.80504689450339017576e+00) (77, 1.26167649344943555434e+00) (78, 3.22929958672614425552e-01) (79, 5.25180120999227462164e+00) (80, 1.15586227753035641896e+00) (81, 2.88291288088811814561e+00) (82, 1.30310826290057324428e+00) (83, 7.24162399015507052269e-01) (19, -5.02859276043431391301e-01) (20, 1.36686254956206565403e+00) (21, 5.12609057054075223370e-01) (22, -4.03772376239860564251e-01) (23, 5.94191743676518835393e-01) (24, 1.45678090311747165941e+00) (25, -8.03184159604047542835e-01) (26, 4.53046650911129145101e+00) (27, -8.93670534177318121039e-01) (28, -2.33604723870121944174e+00) (29, 5.29004270631251660717e-01) (30, -3.12040906523417937990e+00) (31, -2.89959108194935222258e+00) (32, -2.28972216247115190058e+00) (33, -1.21216804418200396753e+00) (34, -3.05635673575792354839e-01) (35, 3.97142607843816852764e+00) (36, 2.23799102645580472171e+00) (37, -2.81873818660529940061e+00) (38, 1.83150570785129529483e-01) (39, 2.04202844100547009631e+00) (40, -7.61395243493069706631e+00) (41, -6.03303958481190782948e+00) (42, 3.97318854217531602924e-01) (43, -1.18356351784124247395e+00) (44, -1.77720020787754218183e+00) (45, -1.14383125417098208132e+00) (46, -7.30407266208379635231e+00) (47, 3.07618850610202310136e+00) (48, 1.54939347068671673391e+00) (49, -2.44533570775211295256e+00) (50, -2.17460589991040276203e+00) (51, -2.88476648594580553642e-01) (52, 1.41927796072717260500e+00) (53, 9.01032281561188774788e+00) (54, -1.64697828637886645176e+00) (55, 8.12799626059572261072e-02) (56, -1.81479974128996035532e+00) (57, -2.34627784517504034412e+00) (58, -1.08535341738162638414e+00) (59, 4.66548595215205352815e+00) (60, 2.20038241431150893845e+00) (61, 2.41376704852173967764e-01) (62, 4.94772794393770531940e+00) (63, -3.95878166938655251528e+00) (64, -2.02171389214116237198e+00) (65, -1.10155804310821525682e+00) (66, 4.00785463298294697410e+00) (67, -8.60888349973951783056e+00) (68, -1.04908108944963007758e+00) (69, -3.27090811600955699845e+00) (70, -6.53573968112723169277e-01) (71, 6.55638546103682662292e-01) (72, -2.03558415706515255517e-02) (73, 1.68210796361217651551e+00) (74, 4.32285628974721625184e+00) (75, -8.68932355051540761259e-01) (76, 2.17419086961058338758e+00) (77, -5.88392859721558636465e-01) (78, -7.05898937265691284182e+00) (79, 3.91120774398790471693e+00) (80, 4.64676971290374307699e+00) (81, 1.75607758012661419045e+00) (82, -3.88127593503076440129e+00) (83, 1.30478277625197036649e-01) (19, -3.57088640071794882758e+00) (20, 3.35760897127771817949e+00) (21, 1.60444845375353506434e+00) (22, 5.58172434136670503335e+00) (23, -2.62854697746414123216e+00) (24, -8.10694700459671224735e+00) (25, -7.61698177117263452995e-02) (26, -1.16915700357650598207e+00) (27, 5.48190408377623850100e+00) (28, -3.52379150146074016092e+00) (29, -6.81553303581980074455e-01) (30, 2.13134286983940546278e-01) (31, 3.56291776256616365970e+00) (32, 2.21798955431312228015e+00) (33, -3.50955162220592598032e+00) (34, -3.84871576396830158973e-02) (35, -1.10023841897501784004e+00) (36, 3.16609375900637601831e+00) (37, -1.91691089817085669189e+00) (38, -1.26518239141014254834e+00) (39, 4.28070958929553135874e+00) (40, 3.87151636096422180344e+00) (41, 1.64624632038247531440e+00) (42, 8.68039967198060313791e-01) (43, 5.61368939028110691680e-01) (44, 4.42989698168669665534e+00) (45, 7.28506895404336884958e-01) (46, 3.74615017756570667373e+00) (47, -2.25876072838710895141e+00) (48, 3.71490166230572826933e+00) (49, -5.90623844617402693480e-01) (50, -5.08852240353563889386e+00) (51, 5.38280197931698345393e-01) (52, 7.96939248700190838726e-02) (53, -1.26874181144160091961e+00) (54, 6.15194157166762867206e+00) (55, 1.75446900209497352874e-01) (56, -5.20253104208338168490e+00) (57, 1.96347597210882507390e+00) (58, 6.26829804804909596072e+00) (59, -2.68950529276131966583e+00) (60, 2.62156674277853518618e+00) (61, 3.70766597133540232178e+00) (62, -1.03979808693333763969e+00) (63, -1.55349394383386102403e-01) (64, 6.02073653470663217036e-01) (65, 1.42630979749512798449e+00) (66, 9.06516203890013083644e-01) (67, -1.72749204034319897572e-01) (68, -4.93278035994305508183e+00) (69, 1.86125671068556730603e+00) (70, 1.53526896101340915024e+00) (71, 3.23540570799881077590e-01) (72, 6.61201934218261233589e-01) (73, -6.00179740316500121011e-01) (74, 2.69242550309058392699e+00) (75, -7.04934396771592552966e+00) (76, -3.67842098289441832293e+00) (77, -4.17168889695670053186e+00) (78, -4.97747548618999391401e-01) (79, -3.31866987972641602767e+00) (80, 3.94700256165607132885e+00) (81, 2.43506501953408921457e-01) (82, 8.20721234303324775894e-01) (83, -1.36964019005560277975e+00) (19, -4.20962652314747998172e-01) (20, 3.03970214751447098678e+00) (21, 5.79134308254595331356e-01) (22, -4.52939770015980514017e+00) (23, 1.33951142236307974009e+00) (24, 4.60918316493822111113e+00) (25, -2.39411070603805864465e+00) (26, -4.57892414969473993125e+00) (27, 3.32275104510752905540e+00) (28, 6.45816756452897489105e-01) (29, 2.28277837519181714399e+00) (30, -5.09421771850097826473e+00) (31, 6.82497298925147255488e+00) (32, 1.87923515406069197020e+00) (33, -5.85440495071577138297e-01) (34, 2.07637649444349525751e+00) (35, -8.28461377105535690113e-01) (36, -1.89798655073696376228e+00) (37, 6.67826782511120953245e+00) (38, -8.35340315809888434018e-01) (39, -2.20251105520135626037e+00) (40, -8.60008196840914895809e-01) (41, 9.55337332580556419792e-01) (42, 2.23767354072319024638e+00) (43, 5.21922705218490445844e+00) (44, 2.58215766695551085519e+00) (45, 3.23677084402257131401e+00) (46, 6.01528124433332145315e+00) (47, -1.82630608174510422614e+00) (48, -1.00011912703705574401e+00) (49, 4.72268703850712512349e+00) (50, -4.04742835103664322371e-01) (51, 1.46472044847048210592e+00) (52, -3.12345822103516823631e+00) (53, 1.97900082914432218217e+00) (54, 2.12225984856651139765e+00) (55, 3.89108753741119217651e+00) (56, -2.24401680634311695428e+00) (57, 1.95004821894276947347e+00) (58, -3.24500816477272868710e+00) (59, 1.51971323394803392581e+00) (60, 6.16720459385152253162e+00) (61, 6.05832895998343534671e+00) (62, -3.17643943234448888902e+00) (63, 4.63558919731075036452e+00) (64, -1.52776940188410748078e+00) (65, -2.64987453181183552076e+00) (66, -1.40776755137601394807e+00) (67, 2.48384548820721517970e+00) (68, 4.70426873278610546691e+00) (69, -1.64655776974616818720e+00) (70, 1.10160389537735419196e+01) (71, 1.69005865736571370128e+00) (72, 6.03221016347995142581e+00) (73, -4.17933237644954136414e+00) (74, -1.98692593339188849910e+00) (75, 5.82339936906095756441e-01) (76, 9.40507846435950867203e-01) (77, -1.80853351727133897231e-02) (78, 9.25503015822189190054e-01) (79, 4.73493857892443070767e+00) (80, -7.86131046852114323542e-01) (81, -2.77750796349206563463e+00) (82, 1.35882698495379677928e-01) (83, -1.82990932034254250027e+00) (19, 3.03575055761633016971e+00) (20, 1.60852904796365425710e+00) (21, 5.77106917368379868094e+00) (22, 3.08104057274191811544e+00) (23, 1.03155888826051778118e+00) (24, -2.91838728368703448357e-01) (25, 9.50723072794673162988e-01) (26, -6.43156917384092530199e-01) (27, 8.26496742380459714639e+00) (28, -4.48891474164322901164e-01) (29, 4.12571051795331200651e+00) (30, 8.82663202895553000715e-01) (31, 3.15543260300436267940e+00) (32, -2.85897987088763327890e+00) (33, 7.81809577592424798098e+00) (34, -1.79410911704526765398e+00) (35, -6.72852268193275482311e-01) (36, 3.50639262630740144999e+00) (37, 4.89074947516770119904e+00) (38, 5.02074672120711529288e+00) (39, 6.49523016497010896586e+00) (40, 1.28920373278429445385e+00) (41, -3.91879651084322766508e+00) (42, -5.22435471653409422288e-01) (43, -1.90695051300905760172e+00) (44, -1.10259727807125493260e-01) (45, -1.71912440767088492422e+00) (46, -1.52915057373941620789e-01) (47, -4.45121982610333155606e+00) (48, 3.83849521223964895711e+00) (49, -6.88104967797448119349e-01) (50, 8.32554180048369474321e+00) (51, 1.33025909172936968039e-01) (52, -1.05236083423001214321e+00) (53, -2.29547854337781664924e+00) (54, -4.74363743547297733727e+00) (55, 1.89753087916263551982e+00) (56, -1.52746970925424463417e+00) (57, -1.34821095345211872107e+00) (58, 1.86354479293037589294e+00) (59, 4.18096702298231426287e-01) (60, -1.75294014389342467375e+00) (61, 2.48220434098812114954e+00) (62, -2.28720396297095485139e+00) (63, 5.43134953522082675192e+00) (64, -4.05013362425901846109e+00) (65, 2.04261814994601964557e+00) (66, -5.04018284694607743290e+00) (67, 2.79224115554147678253e+00) (68, -2.82220177795689197708e+00) (69, 3.09839949003568704278e-01) (70, 3.79999827498535114323e-01) (71, -1.67206301689613523465e+00) (72, -1.16762462854308157745e+00) (73, 8.11779410139259582913e-01) (74, -1.66555700342059398444e+00) (75, -6.36146074035007225156e-01) (76, -2.02041622029248202352e+00) (77, 1.00467628358376481756e+00) (78, 2.89116140531196164076e+00) (79, -2.31176775734684147867e-01) (80, 1.88662693774111644984e+00) (81, 5.32377022841590807900e+00) (82, -4.55369074153315800402e+00) (83, 6.44827757334035300829e-01) (19, 2.16535174229089610876e+00) (20, 1.10691074144194567808e+00) (21, -3.14945853058919666978e+00) (22, -1.70433619702195926493e+00) (23, -8.87179399972445770217e-01) (24, -1.19551503236707756805e+00) (25, 3.40342801959425722558e+00) (26, 8.46785266247130241624e-01) (27, 4.67923529302673824048e+00) (28, 7.27715293456478296008e+00) (29, -1.25476863217024647845e+00) (30, -1.56942784134562685061e+00) (31, -5.57588696425057261941e-01) (32, -5.96506367538793647043e+00) (33, -2.04881519476086326748e+00) (34, 8.62260574419988823358e-01) (35, -9.07543503123837830282e-02) (36, 3.86873139698347667803e+00) (37, 6.93505699560516275515e-02) (38, 3.31721056235350753028e+00) (39, 3.36176988493075290521e+00) (40, -6.33127192342656130997e-01) (41, -2.97190383873838614992e-01) (42, -7.38412617713488983462e-01) (43, 2.22354609710594930405e+00) (44, 2.79229775258289159012e+00) (45, -1.16501307538361409399e+00) (46, 4.88037950533758735361e+00) (47, -9.46646278901164595077e-01) (48, -1.56474510450212900281e+00) (49, -4.06329255090441154863e+00) (50, 4.23564805554069145899e+00) (51, -4.23072605365573028990e+00) (52, -5.02823293124002645982e+00) (53, 4.77716009851820555543e-01) (54, 2.79984384118945950348e+00) (55, -3.95281221188253928389e+00) (56, 4.66367893412805989417e-02) (57, 2.41960046501846409717e-01) (58, -5.00269118957098912759e-01) (59, -1.86638571450230617010e+00) (60, 6.37683026099019212296e+00) (61, 5.54165769241398908918e+00) (62, 1.36875047410353545274e+00) 