FANN_FLO_2.1
num_layers=3
learning_rate=0.700000
connection_rate=1.000000
network_type=0
learning_momentum=0.000000
training_algorithm=2
train_error_function=1
train_stop_function=0
cascade_output_change_fraction=0.010000
quickprop_decay=-0.000100
quickprop_mu=1.750000
rprop_increase_factor=1.200000
rprop_decrease_factor=0.500000
rprop_delta_min=0.000000
rprop_delta_max=50.000000
rprop_delta_zero=0.100000
cascade_output_stagnation_epochs=12
cascade_candidate_change_fraction=0.010000
cascade_candidate_stagnation_epochs=12
cascade_max_out_epochs=150
cascade_max_cand_epochs=150
cascade_num_candidate_groups=2
bit_fail_limit=3.49999999999999977796e-01
cascade_candidate_limit=1.00000000000000000000e+03
cascade_weight_multiplier=4.00000000000000022204e-01
cascade_activation_functions_count=10
cascade_activation_functions=3 5 7 8 10 11 14 15 16 17 
cascade_activation_steepnesses_count=4
cascade_activation_steepnesses=2.50000000000000000000e-01 5.00000000000000000000e-01 7.50000000000000000000e-01 1.00000000000000000000e+00 
layer_sizes=105 18 53 
scale_included=0
neurons (num_inputs, activation_function, activation_steepness)=(0, 0, 0.00000000000000000000e+00) (0, 0, 0.00000000000000000000e+00) (0, 0, 0.00000000000000000000e+00) (0, 0, 0.00000000000000000000e+00) (0, 0, 0.00000000000000000000e+00) (0, 0, 0.00000000000000000000e+00) (0, 0, 0.00000000000000000000e+00) (0, 0, 0.00000000000000000000e+00) (0, 0, 0.00000000000000000000e+00) (0, 0, 0.00000000000000000000e+00) (0, 0, 0.00000000000000000000e+00) (0, 0, 0.00000000000000000000e+00) (0, 0, 0.00000000000000000000e+00) (0, 0, 0.00000000000000000000e+00) (0, 0, 0.00000000000000000000e+00) (0, 0, 0.00000000000000000000e+00) (0, 0, 0.00000000000000000000e+00) (0, 0, 0.00000000000000000000e+00) (0, 0, 0.00000000000000000000e+00) (0, 0, 0.00000000000000000000e+00) (0, 0, 0.00000000000000000000e+00) (0, 0, 0.00000000000000000000e+00) (0, 0, 0.00000000000000000000e+00) (0, 0, 0.00000000000000000000e+00) (0, 0, 0.00000000000000000000e+00) (0, 0, 0.00000000000000000000e+00) (0, 0, 0.00000000000000000000e+00) (0, 0, 0.00000000000000000000e+00) (0, 0, 0.00000000000000000000e+00) (0, 0, 0.00000000000000000000e+00) (0, 0, 0.00000000000000000000e+00) (0, 0, 0.00000000000000000000e+00) (0, 0, 0.00000000000000000000e+00) (0, 0, 0.00000000000000000000e+00) (0, 0, 0.00000000000000000000e+00) (0, 0, 0.00000000000000000000e+00) (0, 0, 0.00000000000000000000e+00) (0, 0, 0.00000000000000000000e+00) (0, 0, 0.00000000000000000000e+00) (0, 0, 0.00000000000000000000e+00) (0, 0, 0.00000000000000000000e+00) (0, 0, 0.00000000000000000000e+00) (0, 0, 0.00000000000000000000e+00) (0, 0, 0.00000000000000000000e+00) (0, 0, 0.00000000000000000000e+00) (0, 0, 0.00000000000000000000e+00) (0, 0, 0.00000000000000000000e+00) (0, 0, 0.00000000000000000000e+00) (0, 0, 0.00000000000000000000e+00) (0, 0, 0.00000000000000000000e+00) (0, 0, 0.00000000000000000000e+00) (0, 0, 0.00000000000000000000e+00) (0, 0, 0.00000000000000000000e+00) (0, 0, 0.00000000000000000000e+00) (0, 0, 0.00000000000000000000e+00) (0, 0, 0.00000000000000000000e+00) (0, 0, 0.00000000000000000000e+00) (0, 0, 0.00000000000000000000e+00) (0, 0, 0.00000000000000000000e+00) (0, 0, 0.00000000000000000000e+00) (0, 0, 0.00000000000000000000e+00) (0, 0, 0.00000000000000000000e+00) (0, 0, 0.00000000000000000000e+00) (0, 0, 0.00000000000000000000e+00) (0, 0, 0.00000000000000000000e+00) (0, 0, 0.00000000000000000000e+00) (0, 0, 0.00000000000000000000e+00) (0, 0, 0.00000000000000000000e+00) (0, 0, 0.00000000000000000000e+00) (0, 0, 0.00000000000000000000e+00) (0, 0, 0.00000000000000000000e+00) (0, 0, 0.00000000000000000000e+00) (0, 0, 0.00000000000000000000e+00) (0, 0, 0.00000000000000000000e+00) (0, 0, 0.00000000000000000000e+00) (0, 0, 0.00000000000000000000e+00) (0, 0, 0.00000000000000000000e+00) (0, 0, 0.00000000000000000000e+00) (0, 0, 0.00000000000000000000e+00) (0, 0, 0.00000000000000000000e+00) (0, 0, 0.00000000000000000000e+00) (0, 0, 0.00000000000000000000e+00) (0, 0, 0.00000000000000000000e+00) (0, 0, 0.00000000000000000000e+00) (0, 0, 0.00000000000000000000e+00) (0, 0, 0.00000000000000000000e+00) (0, 0, 0.00000000000000000000e+00) (0, 0, 0.00000000000000000000e+00) (0, 0, 0.00000000000000000000e+00) (0, 0, 0.00000000000000000000e+00) (0, 0, 0.00000000000000000000e+00) (0, 0, 0.00000000000000000000e+00) (0, 0, 0.00000000000000000000e+00) (0, 0, 0.00000000000000000000e+00) (0, 0, 0.00000000000000000000e+00) (0, 0, 0.00000000000000000000e+00) (0, 0, 0.00000000000000000000e+00) (0, 0, 0.00000000000000000000e+00) (0, 0, 0.00000000000000000000e+00) (0, 0, 0.00000000000000000000e+00) (0, 0, 0.00000000000000000000e+00) (0, 0, 0.00000000000000000000e+00) (0, 0, 0.00000000000000000000e+00) (0, 0, 0.00000000000000000000e+00) (0, 0, 0.00000000000000000000e+00) (105, 3, 5.00000000000000000000e-01) (105, 3, 5.00000000000000000000e-01) (105, 3, 5.00000000000000000000e-01) (105, 3, 5.00000000000000000000e-01) (105, 3, 5.00000000000000000000e-01) (105, 3, 5.00000000000000000000e-01) (105, 3, 5.00000000000000000000e-01) (105, 3, 5.00000000000000000000e-01) (105, 3, 5.00000000000000000000e-01) (105, 3, 5.00000000000000000000e-01) (105, 3, 5.00000000000000000000e-01) (105, 3, 5.00000000000000000000e-01) (105, 3, 5.00000000000000000000e-01) (105, 3, 5.00000000000000000000e-01) (105, 3, 5.00000000000000000000e-01) (105, 3, 5.00000000000000000000e-01) (105, 3, 5.00000000000000000000e-01) (0, 3, 0.00000000000000000000e+00) (18, 3, 5.00000000000000000000e-01) (18, 3, 5.00000000000000000000e-01) (18, 3, 5.00000000000000000000e-01) (18, 3, 5.00000000000000000000e-01) (18, 3, 5.00000000000000000000e-01) (18, 3, 5.00000000000000000000e-01) (18, 3, 5.00000000000000000000e-01) (18, 3, 5.00000000000000000000e-01) (18, 3, 5.00000000000000000000e-01) (18, 3, 5.00000000000000000000e-01) (18, 3, 5.00000000000000000000e-01) (18, 3, 5.00000000000000000000e-01) (18, 3, 5.00000000000000000000e-01) (18, 3, 5.00000000000000000000e-01) (18, 3, 5.00000000000000000000e-01) (18, 3, 5.00000000000000000000e-01) (18, 3, 5.00000000000000000000e-01) (18, 3, 5.00000000000000000000e-01) (18, 3, 5.00000000000000000000e-01) (18, 3, 5.00000000000000000000e-01) (18, 3, 5.00000000000000000000e-01) (18, 3, 5.00000000000000000000e-01) (18, 3, 5.00000000000000000000e-01) (18, 3, 5.00000000000000000000e-01) (18, 3, 5.00000000000000000000e-01) (18, 3, 5.00000000000000000000e-01) (18, 3, 5.00000000000000000000e-01) (18, 3, 5.00000000000000000000e-01) (18, 3, 5.00000000000000000000e-01) (18, 3, 5.00000000000000000000e-01) (18, 3, 5.00000000000000000000e-01) (18, 3, 5.00000000000000000000e-01) (18, 3, 5.00000000000000000000e-01) (18, 3, 5.00000000000000000000e-01) (18, 3, 5.00000000000000000000e-01) (18, 3, 5.00000000000000000000e-01) (18, 3, 5.00000000000000000000e-01) (18, 3, 5.00000000000000000000e-01) (18, 3, 5.00000000000000000000e-01) (18, 3, 5.00000000000000000000e-01) (18, 3, 5.00000000000000000000e-01) (18, 3, 5.00000000000000000000e-01) (18, 3, 5.00000000000000000000e-01) (18, 3, 5.00000000000000000000e-01) (18, 3, 5.00000000000000000000e-01) (18, 3, 5.00000000000000000000e-01) (18, 3, 5.00000000000000000000e-01) (18, 3, 5.00000000000000000000e-01) (18, 3, 5.00000000000000000000e-01) (18, 3, 5.00000000000000000000e-01) (18, 3, 5.00000000000000000000e-01) (18, 3, 5.00000000000000000000e-01) (0, 3, 0.00000000000000000000e+00) 
connections (connected_to_neuron, weight)=(0, 5.49629886308739479261e+00) (1, -1.01398656694138256107e+00) (2, 3.41662929627801403853e+00) (3, -1.22138619837466055884e+00) (4, -1.76974187265034865746e+00) (5, -3.87955236429393623965e+00) (6, 9.25649673712097253997e+00) (7, 2.24575102972237061749e+00) (8, 1.97887565082914163028e+00) (9, -8.92025755061798264478e+00) (10, -2.48966812739883369687e+00) (11, -7.96645679853784383084e+00) (12, 6.17404721738083694937e-01) (13, 2.98375543172601709330e+00) (14, -1.67378882069731615978e+00) (15, 7.19397985344261758911e+00) (16, -1.02043107340185268406e+00) (17, -1.97615910134682271071e+00) (18, 5.50599251654677512846e+00) (19, 1.73199790243624396346e+00) (20, 2.01350583372623592737e+00) (21, -1.48022196061935762401e+00) (22, 5.61978342239483197318e+00) (23, -3.60371669838128028118e+00) (24, -5.77117785553524953457e+00) (25, -6.18677106403829313308e+00) (26, -8.63111251318261452070e+00) (27, -7.25448381202386638478e-01) (28, -2.42570446338764478256e+00) (29, -4.83935620989316284124e+00) (30, 3.49413925473662234644e-01) (31, 7.44295856589247950552e+00) (32, 4.46202639001051559742e-01) (33, -3.46792827140195925040e+00) (34, 3.47539784623100977967e+00) (35, -3.47085986604166807368e+00) (36, 2.86432271558413109602e+00) (37, 4.30601832985191190772e+00) (38, -2.47658520268402204678e+00) (39, 1.05678939484500866719e+00) (40, -1.65568732540847007861e+00) (41, -5.33137022709844199397e+00) (42, 5.09961507081631792992e-01) (43, -7.99660304215367379044e+00) (44, 1.40703318037949176578e+00) (45, 1.93490945204891495735e+00) (46, 4.67485777727326468067e+00) (47, 2.29640491925194245582e+00) (48, 1.94351541866526589253e+00) (49, -3.98809271214938565464e+00) (50, 1.90829494578940161986e+00) (51, 4.80971779482396488703e+00) (52, -5.22845902916342253341e-01) (53, 2.63744257934748116412e+00) (54, -1.27651404779239747711e+01) (55, -4.06094645532104703278e+00) (56, -4.26592046874352259778e+00) (57, -1.40085948252661163238e+00) (58, -2.32929209848694185325e+00) (59, 2.71220813821667583454e+00) (60, 4.32970481934137740865e+00) (61, -5.92852363578524554910e-01) (62, 6.92911508935598163816e+00) (63, -1.11527845184444673876e+00) (64, 3.26420382600810254914e+00) (65, -3.66129252699611607014e-01) (66, -2.45444915035524191538e+00) (67, 1.73966094008189853248e+00) (68, 1.72427835677545715498e-01) (69, 6.27596390088713729227e+00) (70, 4.53609511483679916921e+00) (71, -6.39643785432860223494e+00) (72, 7.56721048845230459534e+00) (73, 4.19204908015806052002e-02) (74, 1.11431907963229104297e+00) (75, 4.72472130455596950327e+00) (76, -2.90421407945608611723e-01) (77, -5.45606894394716235297e+00) (78, -1.33438001494203817288e+00) (79, 8.43464194712589865333e+00) (80, -1.36720396686086731464e+00) (81, -8.32991631761033346493e+00) (82, -1.61721894705428104189e+00) (83, -8.46543931742241362315e+00) (84, 1.07742845472907311510e+00) (85, 3.29361613005359821216e+00) (86, 7.97257475706780205371e+00) (87, -2.18147048612539551371e+00) (88, 3.08208245521360435504e+00) (89, -3.94432801045384984207e+00) (90, -4.53135516084032197170e+00) (91, 3.24141484170965465950e+00) (92, -4.68493690509908145003e+00) (93, -1.05174480364360856122e+00) (94, -1.76850946807114245418e-01) (95, 3.29229523690287262383e+00) (96, -3.85404372145743190359e+00) (97, -1.83629655866344942972e+00) (98, 6.73422825877819930529e-02) (99, 4.94147116703982103303e+00) (100, 1.82612587769872236620e+00) (101, -4.49153935363040801576e+00) (102, -3.48092502396966152478e-01) (103, 3.55083881892889891008e-02) (104, -1.07307797077944266917e+00) (0, 1.24663551989339382864e+00) (1, -2.59684034801120189329e+00) (2, -1.82464426513218547221e+00) (3, -9.32233116504519898626e-01) (4, -4.83285357081620348119e-01) (5, 2.50797978933521248379e+00) (6, -3.80083023832091526639e-01) (7, -3.84113046728500817650e+00) (8, -4.34722419928767589425e+00) (9, -6.90499259190139902387e+00) (10, 8.94294089106951162194e+00) (11, -1.77235676538278141834e+00) (12, 1.38703712266948531173e+00) (13, -4.65196396797940181500e+00) (14, -1.14032436302306838805e+00) (15, -2.43261352364866922926e+00) (16, 4.67823568129760669621e+00) (17, -6.40413743573440497059e-01) (18, -2.14176903252903771957e+00) (19, -3.88534186571641981800e+00) (20, 1.59905406353278034537e+00) (21, -8.58941096641809287426e-01) (22, 4.26487010706313451891e+00) (23, 2.88460516537526334702e+00) (24, 5.01198936876240530580e+00) (25, -9.58775678604987646736e+00) (26, 6.07876238927055378980e+00) (27, 6.28292805698203338238e+00) (28, 3.62903396994949245524e+00) (29, -2.51961803427191337670e-03) (30, 6.31975239285237933018e+00) (31, -8.01824046271325419077e-01) (32, -4.68853915997915571268e+00) (33, -3.87048328799324004024e+00) (34, -9.33513584759748660247e+00) (35, 1.90274392284074833626e+00) (36, 8.14454224432542694956e+00) (37, -4.12011352818520359964e-01) (38, -9.39352485692809824336e-01) (39, -6.31549398137440931578e-01) (40, -7.53692080202068792616e-01) (41, 1.07545787588778130051e+00) (42, 4.33510565037325823479e-01) (43, 7.60394736198000664729e+00) (44, 5.55709953952831892110e+00) (45, -6.98001227360182774362e+00) (46, -3.06646784841073527517e+00) (47, -2.88844442393653499934e+00) (48, -7.30118535337805862895e+00) (49, 3.91381588144059122669e+00) (50, 3.16141649567065696758e+00) (51, -1.03993384135309741012e+00) (52, -9.48101354712145116821e+00) (53, -2.53730085588926949913e-02) (54, -1.70674533952656748426e+00) (55, -4.02151189738916325922e+00) (56, 5.56756323833492494657e+00) (57, -9.13447900705036675006e-01) (58, 3.59027974996171472810e+00) (59, -9.70138199551742985705e+00) (60, -1.28919678893388489627e+01) (61, -6.18063798253878360356e+00) (62, 4.85682360232464055416e-02) (63, 4.50448626174183264226e+00) (64, 3.94207812036284988011e+00) (65, -2.75629836639329450776e+00) (66, 2.67815306486645487993e+00) (67, -8.96803815751558985880e+00) (68, -6.01312180394624543056e-02) (69, -4.65768798340453304974e+00) (70, -1.77179036508522091964e+00) (71, 1.66391063374868108937e+00) (72, 6.17507816999907532818e+00) (73, -7.88710126683984796836e-02) (74, 7.11794536177723635717e+00) (75, 2.09357668911600969253e+00) (76, 2.90912734436863917864e+00) (77, 5.38034760459171401692e+00) (78, -3.09965041015686137982e+00) (79, -7.15548049610113245933e+00) (80, 1.60419019796057743532e-01) (81, 2.90652517279896382973e+00) (82, -8.11508020835864307685e+00) (83, 3.55934436798998810048e+00) (84, -1.04537846053203908880e+00) (85, -2.00915710116671020202e+00) (86, 3.36873627939970798906e+00) (87, 1.52484125254570690444e+00) (88, -1.06739033392127957711e+01) (89, 3.28088046638376695796e+00) (90, -1.91219422590462762024e+00) (91, 4.41615284221667803166e+00) (92, 7.91366049748369881911e+00) (93, -9.52407540360854953931e-01) (94, 5.75042916403633252997e+00) (95, 1.08791428199532642651e+01) (96, -2.81489912903512495834e-01) (97, 1.55390173324289704304e+00) (98, -4.85106527976110424305e+00) (99, -2.87300866479728911340e-01) (100, 3.99897336221543042711e+00) (101, 2.20663449757977847554e+00) (102, 4.88028166258982665227e+00) (103, -2.31084084655351951199e+00) (104, -8.14506055403871775944e-01) (0, 5.88556771669326739271e+00) (1, -2.29589304608824784637e+00) (2, -3.92931643722162826649e+00) (3, -2.09641014344778497946e-01) (4, -8.83434184695854796132e+00) (5, -1.42797702347165245129e+00) (6, 2.01023592359526359630e+00) (7, -2.35858607260689989715e+00) (8, -2.67427880560993047609e+00) (9, 1.13945464887243232965e+01) (10, 4.06100968456986136101e-02) (11, -4.68186568502953193160e+00) (12, -1.29122456826589915302e+00) (13, 3.36908857281067497524e+00) (14, -8.42797797970993656236e+00) (15, 2.60557572267558779089e+00) (16, -1.76390306328737338504e+01) (17, 4.15872111997195759159e+00) (18, 3.67717597894119752056e+00) (19, -1.88750161798601867602e+00) (20, 8.72792094633639869983e+00) (21, -3.68279045014947500891e-02) (22, 5.83553979467874661680e+00) (23, -3.83825119687816984637e+00) (24, 4.23694001769193556717e-02) (25, 3.41858413843913977459e+00) (26, 9.47265569091311476768e+00) (27, -2.95019476651132439571e+00) (28, -2.15718273356628165160e+00) (29, -1.02062680107969927512e+00) (30, -6.39434285357812637329e+00) (31, -2.73603253014106773122e+00) (32, -2.58931907387451731850e+00) (33, 3.21957329497356115056e+00) (34, -1.45773019242514911831e+00) (35, -1.32883130155499973313e+00) (36, -4.90825381277304373384e+00) (37, 1.90052076840829586857e-01) (38, 7.05078263239989411204e+00) (39, -5.93669588086810939842e+00) (40, 6.18022207501050768741e+00) (41, -4.70344089763615330613e-02) (42, -9.11700593924435587212e+00) (43, 5.07666604705319102209e-01) (44, 3.70858750910119416844e+00) (45, 3.07941756849458947443e+00) (46, 2.61123939046483011239e-01) (47, -4.99631369453537210745e+00) (48, 5.53753418633999672238e+00) (49, 3.42563550585381282332e+00) (50, -1.39453210989397802244e+00) (51, 1.25972251166028681446e+00) (52, -5.26021084236533931211e-01) (53, -7.30867383532694536719e-01) (54, -3.40845244824771809178e+00) (55, -4.76895997590347597850e+00) (56, 7.10427362722696048580e-02) (57, -7.21706495914063683728e+00) (58, -2.45152048843347047935e+00) (59, -1.08520912372785383049e+00) (60, -3.64785395991968908191e+00) (61, 3.04955014262170154282e+00) (62, -8.07614284408957061601e+00) (63, -2.19816361664439741119e+00) (64, -6.10619434050052856122e+00) (65, -6.21806249186269788254e+00) (66, -6.78652771641188845564e+00) (67, 4.72442288342090321862e+00) (68, -5.41318550028129408247e+00) (69, -1.53623659136128543068e+00) (70, -4.53387329252675108648e+00) (71, 5.51743284055750482509e+00) (72, 1.65807601367798618242e+00) (73, 4.43590487372937936073e+00) (74, -1.76593169276626316133e+00) (75, 3.74338336679322702949e+00) (76, 3.03711370713252604148e+00) (77, 3.22272721267268802414e-01) (78, 5.49839230372315482254e-02) (79, -1.17276175007457772459e+00) (80, 2.58013176865157189965e+00) (81, -7.11395213272634552304e-01) (82, 2.01946550323294182760e+00) (83, 1.68885707410608998380e+00) (84, -5.48927663500197926538e+00) (85, -2.98021339673860108377e+00) (86, 2.90003940434701057427e+00) (87, -3.56557228165845341294e+00) (88, 2.28287296988245280716e+00) (89, 1.83871314921363571138e+00) (90, 3.60411972361523202935e+00) (91, -1.21960886250323655156e-01) (92, -2.69621811410654999008e+00) (93, 1.93128045243792845209e-01) (94, -2.20183393622918766042e+00) (95, 5.16397777584853123756e+00) (96, 3.04159486383687927002e+00) (97, 3.71619041002862449119e+00) (98, 5.08463031868369697008e+00) (99, 4.10828516569479695875e+00) (100, -3.96428551171342435921e+00) (101, 5.87405323329468753712e+00) (102, 7.66697683652227279794e+00) (103, -3.28141495732187538081e-01) (104, -2.02249693160975185791e+00) (0, 1.25274650157346134627e+00) (1, -1.55716766803684580900e+00) (2, -1.82704381697266837747e+00) (3, 5.31177664529076398736e+00) (4, 7.15181278267697440043e+00) (5, 8.43394510331608060483e+00) (6, -1.76014266455612089501e+00) (7, -7.69700710790179098986e-01) (8, -1.82658213628797172490e+00) (9, 2.95066159111323011999e+00) (10, 8.05303569792140017114e-01) (11, -7.89481582497413558741e+00) (12, 6.66506850549723672827e+00) (13, -4.36677596708841431195e+00) (14, 2.84057338382942425881e+00) (15, 3.78291546032902425978e+00) (16, -1.07385564476329680161e+01) (17, -2.70307389345051607421e+00) (18, 4.10713453863008304268e+00) (19, 3.98089894504533337027e+00) (20, 5.73628391895184108762e+00) (21, -6.02559431547736590318e+00) (22, -2.29858916936466473047e+00) (23, -4.70490293235512557768e-01) (24, 3.14185573195990075490e+00) (25, -3.40510173181938879949e+00) (26, -3.79000748523928976397e+00) (27, -1.80152380773925008262e-01) (28, -5.28177167007126069365e+00) (29, -3.00262084004278451133e+00) (30, 8.45783924863408032024e+00) (31, -2.76934728326556678368e+00) (32, -2.02842624491562339983e+00) (33, -3.31540931146948336661e+00) (34, -1.25960058369817406998e+00) (35, -8.56637934928494493292e-01) (36, -2.33116969183887690065e+00) (37, 1.04829626524625152406e+00) (38, -6.96797007367715437454e-01) (39, -4.65744472962176736530e+00) (40, 2.05122193096289828773e+00) (41, -9.15724591720346481338e-01) (42, -1.31732988924454152979e+00) (43, -3.78941554930080437558e+00) (44, -3.93631655222141541017e+00) (45, 2.70071787534659346619e+00) (46, 1.94618300595755044924e+00) (47, -1.83877182548365292192e+00) (48, 1.35003184709103640770e+00) (49, 4.30989342573860567676e-01) (50, 3.12799804324462549232e+00) (51, 3.85211979627287592898e-01) (52, 1.77099320534927495707e+00) (53, 7.15007169370364525918e+00) (54, 5.29795203779125500887e+00) (55, 2.01365430344079188174e+00) (56, 1.33927952564469054941e+00) (57, 3.86570863026851563315e-01) (58, 8.04497503708937777844e+00) (59, 6.21019479479520075671e+00) (60, -1.43992764583658816591e+00) (61, -2.08199325740984475530e+00) (62, -1.69875453311531265932e+00) (63, 1.82967235841408593089e+00) (64, -3.61244307850542822891e+00) (65, -7.34930507548075873103e+00) (66, -1.27040704961116723837e+01) (67, -2.29072891454872362704e-01) (68, -1.80052890337847570912e+00) (69, -2.24614289243984455169e+00) (70, -1.20183233871951244964e+00) (71, -5.36022586329567030106e+00) (72, 2.84392476429659213366e+00) (73, 1.51113717812601833224e+00) (74, 1.70022895767019743829e+00) (75, -1.90280321396271423495e+00) (76, -2.12099206630513653637e-01) (77, 4.38521637081600135222e-01) (78, 6.18284507935362270814e+00) (79, -1.50186630766002249260e+00) (80, -1.57770854767430890320e+00) (81, -5.75327320656913343555e+00) (82, 5.03677554110866676496e-01) (83, -2.52945638358682156621e+00) (84, 7.17418359902454216837e+00) (85, -8.82853664487602429745e+00) (86, 2.80422582385260144022e+00) (87, -1.76958740867557717813e+00) (88, 2.20364801710380797672e+00) (89, -1.46090392950570469033e+00) (90, 1.39390020409200476870e+00) (91, -1.02843678005801786313e+00) (92, -5.52367608312268165704e-01) (93, 5.26597935541782691260e-01) (94, 6.34685145736928291171e+00) (95, -5.10283148665332753069e+00) (96, 2.41523723056639560980e+00) (97, 4.03055970958069387233e-01) (98, -9.46479002936401769830e+00) (99, 1.59420416850101065442e+00) (100, -2.66948233819259916899e+00) (101, -1.79927619499525559554e+00) (102, 5.14475319854899293404e+00) (103, -1.30250668667326285899e+00) (104, -1.68528887018773509965e+00) (0, 6.35285296220298612013e+00) (1, -7.72717322313629551012e-01) (2, -5.07901277946854978751e+00) (3, -3.34303100761483529269e+00) (4, 5.09099700507236740954e-01) (5, 8.67538963515473549037e-01) (6, -4.13593985800514762907e-01) (7, 8.41004204821814482784e-01) (8, -2.62237492272198213783e+00) (9, 4.15086765998076412387e+00) (10, 7.75114684344349491596e+00) (11, 2.47440588680720985337e+00) (12, -4.07898086663642800431e+00) (13, 1.47347020433668762784e+00) (14, -1.90473679364140391357e+00) (15, 1.01202336401803325572e+01) (16, -1.87954600840160668263e+00) (17, 1.17787409749536609027e+00) (18, 9.69498564945312835128e-01) (19, -2.15495955352255608162e+00) (20, -4.96246556736493449336e+00) (21, -2.21493219937775459583e-02) (22, -9.96873561715305389619e-01) (23, -1.42952599984627037877e+00) (24, 3.90393976554180288652e-01) (25, 1.05693296427221161693e+00) (26, 4.44987942829695004576e+00) (27, -5.01963424449215089851e+00) (28, 6.07248962284663740263e-01) (29, -1.44944798361970006439e+00) (30, 6.07841418220020468510e-01) (31, 1.62738280072950436406e+00) (32, 2.58193809763990822503e+00) (33, 6.55048028292319806098e+00) (34, 9.80752259718519603382e+00) (35, -6.49580038275227966693e+00) (36, 2.36219740924098653423e+00) (37, -3.10381070394030400550e+00) (38, -1.15047553527437678156e+01) (39, -3.00217040638491949878e+00) (40, -3.70892005244745215364e+00) (41, 8.83315893054445311350e+00) (42, -4.06546378161533628059e+00) (43, -3.47470037094150940860e+00) (44, -4.43640983333609550954e+00) (45, -2.35709807495664613874e-01) (46, 1.97324082853891114020e+00) (47, 2.88094550384013325939e+00) (48, 1.10810194085555077659e-01) (49, -7.89514914404031742379e+00) (50, -6.51755657617587047525e+00) (51, 4.53606606594921246689e-01) (52, 1.60924527068911671357e+00) (53, 4.10755209787237007824e-01) (54, 8.31657683158957716785e+00) (55, 3.29287268559417589664e-01) (56, -3.90043207649536460835e+00) (57, -5.25055143904318022408e+00) (58, 7.08508241183874121205e-01) (59, -7.07998899315589280690e+00) (60, -2.05687626554426739034e-01) (61, -2.95544913926108154811e+00) (62, -1.22115087600817195934e+00) (63, -2.24545215661604169455e+00) (64, -7.25297461688678146707e-01) (65, 4.66254134212168391826e+00) (66, -3.45160949993560894900e-01) (67, 2.49648489242953841583e+00) (68, -2.15247797819161368338e+00) (69, -7.69476922703874777199e+00) (70, -1.32088365077825575788e+00) (71, -2.44999807239037492579e+00) (72, 5.99800643009407874473e+00) (73, -4.72704556701709321942e+00) (74, 5.06921673678908568661e+00) (75, 5.12542203956188924252e+00) (76, 2.37864818640125674776e+00) (77, 9.04689111054980177329e-01) (78, -3.50801508281301366310e+00) (79, -4.32744697943596801082e+00) (80, 2.53799324234311995951e+00) (81, 4.66000949460714575245e-01) (82, -3.32873908661575068635e+00) (83, 3.92109165588015384785e+00) (84, -5.69559913067794898467e+00) (85, 5.40381884024923664356e+00) (86, 2.67681376923598578210e-02) (87, -3.97897905374375282506e+00) (88, -2.72629448471868318649e+00) (89, 7.60710519514341987346e-01) (90, 3.95861670401884246928e+00) (91, -2.81623348325625233457e+00) (92, -2.43634720362071144351e+00) (93, 1.45730647977454563780e+00) (94, -1.39456845277590923970e+00) (95, -3.32176574239187294424e+00) (96, 6.80995067126005793057e+00) (97, 5.92508023511569792419e+00) (98, -3.09514650821382053536e+00) (99, -1.90215109180939512257e+00) (100, 4.33513348082171123821e-01) (101, 1.07305628350617943134e+00) (102, 3.03962425818274928346e+00) (103, -3.75549000834566504281e+00) (104, -1.68217234541556615035e+00) (0, 3.09098583898622125687e+00) (1, -5.75977869293804189965e+00) (2, -3.74276408664952642269e+00) (3, -2.44372577943768209963e+00) (4, -1.18343290299100822871e+00) (5, -1.83520290488837622966e+00) (6, 9.72626803439147202823e-01) (7, 5.64235969256093650159e+00) (8, 5.94276579325647147378e-01) (9, 2.79617360493488487094e+00) (10, 1.80912616094912537257e+00) (11, 8.10076393401419636575e+00) (12, -1.05804402686946308343e+00) (13, 2.08212811530454144915e+00) (14, -6.88601389788602302744e-01) (15, -4.86290787937938340235e+00) (16, -2.59211733509760344774e+00) (17, -2.25636323471442823418e+00) (18, 4.45370157375526609655e+00) (19, -6.32986952465732222173e-01) (20, -1.52622288193616029162e+00) (21, 4.80613667796158106071e-01) (22, 1.27208145327945820746e+00) (23, 1.34226132233038324415e+01) (24, 3.10429335909442416508e+00) (25, -1.41260498092150799110e+00) (26, 1.08141288510052868688e+00) (27, -2.22714866374409570238e-01) (28, -8.03770722193373199360e-01) (29, 2.06241656155936059491e+00) (30, -3.13834686527801354217e+00) (31, 1.22177579876964759187e+00) (32, -1.37999968335300003675e-02) (33, -7.76909963774533474101e-01) (34, -6.77631922101900663336e+00) (35, 6.92770712993187487427e+00) (36, 5.37463738990717043720e+00) (37, 4.32496496906638494551e+00) (38, 5.39790288690159592022e+00) (39, -2.12119617366816903825e+00) (40, -5.16699463653667301344e+00) (41, -1.65331311517164819547e-01) (42, -1.09360052571957777623e+00) (43, -4.33384260015534117372e+00) (44, 5.47329267148623621608e+00) (45, -7.16421211154605419580e+00) (46, 4.21453126731978766628e+00) (47, -1.75453594395198275713e+00) (48, -7.14021245833933804192e+00) (49, -2.46926953895318757048e+00) (50, -7.13935573661639999443e+00) (51, -5.74933645912746893458e+00) (52, 3.33078079767833612479e+00) (53, 2.78820569856829791888e+00) (54, -3.81930458666299488257e+00) (55, 2.70129130900430158846e+00) (56, -5.78435677126942238147e+00) (57, -2.57039341433817236648e+00) (58, 1.23972155065751077352e+00) (59, 3.85290588557852675677e+00) (60, 5.08384634437120652706e+00) (61, -5.36866042508451823956e-01) (62, -7.07582568923665089500e+00) (63, 8.13831703574882436847e-01) (64, -2.60109493924446155688e+00) (65, 4.40441812280549616077e+00) (66, 4.32969976778841969534e-01) (67, 5.12165047971054576692e+00) (68, -2.39483117610150531007e+00) (69, 3.38037802639818640849e-01) (70, 2.54343214127497452282e+00) (71, 1.53387788520003542914e+00) (72, 3.39768183408899693276e+00) (73, 5.01368903878367255800e+00) (74, -9.38142681064401351421e+00) (75, -4.61825106176026434213e+00) (76, 7.36049389137267695560e-01) (77, -2.84273658121270145216e+00) (78, -2.76978210062280805204e+00) (79, 2.77453253354318096768e+00) (80, -9.89952914989573939941e-01) (81, 3.57375680683892538170e+00) (82, 2.44349141752175968989e+00) (83, 2.41950514193855559242e+00) (84, -5.95097940474123898724e+00) (85, 1.09638618095728723745e+00) (86, -2.01637025819666382276e+00) (87, 3.75408660099760549400e+00) (88, 5.61018466258464965080e+00) (89, -1.47552406946748360106e+00) (90, -1.56326003484974807023e+00) (91, -3.47747317017081281065e+00) (92, 5.11383876485123689548e+00) (93, -2.38273296183331995124e+00) (94, -2.00271404419998777513e+00) (95, -4.63136024476967556041e+00) (96, -5.61644229980490106158e+00) (97, -1.14181434900165612589e+00) (98, 4.54536788462169472069e+00) (99, 5.39640526136005660440e-01) (100, 3.46839004100806369557e-01) (101, 4.12225532806099526084e+00) (102, -2.60359950583262822477e+00) (103, -3.44657296882467045762e+00) (104, -4.26068882137553894829e-01) (0, -5.81035777401079389648e+00) (1, -4.89547580524973025007e+00) (2, 4.26322637436607365657e+00) (3, 1.97569803844199060050e-01) (4, 1.51341136242017348934e+00) (5, 3.60850064045013185776e+00) (6, -3.00910036206392206282e+00) (7, 4.80250780128248599965e+00) (8, -4.36729505450178390191e+00) (9, 1.33830258327940292418e+01) (10, 6.30740506401367806433e+00) (11, 2.37525623607159186435e+00) (12, 2.90924477650494806014e+00) (13, 1.64739747385465284957e+00) (14, 1.41381768655549233671e+00) (15, 3.03628058410024515013e+00) (16, 3.30685852648964306866e+00) (17, 5.26644827603317544629e+00) (18, 3.31806182100468616269e+00) (19, -9.29567318413905496755e+00) (20, -1.57695821626934074011e+00) (21, -2.46294083237203009773e+00) (22, 1.34468905209768374576e+00) (23, -3.31504402604584536007e+00) (24, 3.31834634298595032575e+00) (25, 3.96478518031766746788e+00) (26, -1.27108403649838663796e+01) (27, -4.32187332032327198306e+00) (28, 7.19174765029332618838e+00) (29, 4.29425463020385400625e+00) (30, -1.19116117006543564827e-01) (31, -2.50768512165742474274e-01) (32, 1.95015202893234396164e+00) (33, 3.54489645222623828147e+00) (34, -3.28791923425602350406e+00) (35, -3.60915926495103267513e+00) (36, -6.34391204388739859965e-01) (37, -5.31194050903011216747e+00) (38, -9.05882844597526770691e-01) (39, 2.80416105241807800397e+00) (40, -7.33728376664118808748e+00) (41, -6.24136183015008327857e+00) (42, -4.16278429223581802887e+00) (43, 2.01390943380680820241e+00) (44, -2.72536353287603638762e+00) (45, -3.14675522223979875491e+00) (46, 5.04090631568766323056e+00) (47, -2.42399208129649457177e+00) (48, -6.10133235862311718023e+00) (49, 7.58734647853490695724e+00) (50, -9.41424912842869110463e-01) (51, -5.51877394111717833880e+00) (52, 9.46865169221044844505e+00) (53, -1.15144997481664157490e+00) (54, 2.23096481471232932492e+00) (55, -5.95100955327950131846e+00) (56, -4.45860906974103787803e+00) (57, -4.98486544037131817930e+00) (58, 5.06866886035412989031e+00) (59, -5.53144417556774659062e+00) (60, 1.22230663974672300043e+01) (61, 2.34082771040448234245e+00) (62, 4.03443251031043015331e+00) (63, 7.29690005057573110037e+00) (64, -5.38920974999045920839e+00) (65, -3.55143583141672847248e+00) (66, 1.13543267310348716670e+00) (67, -3.43134440122373440829e+00) (68, 2.13807838034937214289e+00) (69, 5.56620408127199173265e+00) (70, -4.25886849762490538041e+00) (71, 3.50149823610849919575e+00) (72, 4.40410126544926594505e+00) (73, 1.89424163076117979543e+00) (74, -3.88234862174992878536e+00) (75, 3.11194483379157915692e+00) (76, -3.51816905681451075338e+00) (77, -2.10675274065710560478e+00) (78, 4.59429357940467042454e+00) (79, 1.32498585435734717031e+00) (80, -6.53959219829277138558e+00) (81, 6.05571192132773727934e+00) (82, -7.12213993502204001373e+00) (83, 3.66350719015875725404e+00) (84, 1.59554055149293633198e-01) (85, -6.18126359029841943027e+00) (86, 1.08919972316001878454e+00) (87, 5.37136953368098968298e+00) (88, -8.62842782506616856608e+00) (89, 1.07367045415668744823e+01) (90, -3.46992602663328275625e+00) (91, 1.03962764140720387296e+00) (92, -8.89605576594462377216e+00) (93, -2.72818598127179257062e+00) (94, -1.05223543978179812086e+00) (95, -2.34972900018470820527e+00) (96, -1.12932005269380719703e+00) (97, -1.61053309095984698018e+00) (98, 6.71081274205009581379e+00) (99, -3.17986599316651163960e+00) (100, 2.40071072230014070925e+00) (101, -6.17764238595469095117e+00) (102, 3.27838569148782577045e+00) (103, -8.27503044646469376744e+00) (104, -8.13861830337491265475e-01) (0, -1.07282113703176240627e+00) (1, 2.61116818688066620879e+00) (2, 3.02056248558014361905e+00) (3, -4.97047369175392184104e+00) (4, -2.61578807410423141988e+00) (5, -4.09061471842232471374e+00) (6, -1.44852861109152675212e+00) (7, 4.19588766813201230477e-01) (8, -1.04904912968843722076e+00) (9, 6.88822048763340344379e+00) (10, -1.08147543756892905442e+00) (11, 8.60434304937262584012e-01) (12, 2.97164421767519248974e+00) (13, -2.38272520537146048625e+00) (14, -1.29627915365924928359e+00) (15, 2.19092934306140385559e+00) (16, 2.14323989525622460306e+00) (17, 1.99056742786034068793e+00) (18, 6.39052085780091649880e-01) (19, 4.49746125610461455757e-01) (20, -2.12482739805635656438e+00) (21, 5.60650169973177892047e+00) (22, -9.17604725114006702924e-01) (23, 7.97710630101079232190e-01) (24, 2.77099180405847445030e+00) (25, 1.89688693148705023184e+00) (26, -2.90879839260377437427e+00) (27, 2.68765344211278511821e+00) (28, 4.69383192443017271955e+00) (29, -2.71864152534134095873e+00) (30, 1.27844232904954641095e-01) (31, 2.78163494877598438393e+00) (32, 6.59902640310901489329e+00) (33, -8.06560287694030009220e+00) (34, 1.03508029669769694436e+01) (35, -3.38707504101746570413e+00) (36, -1.48413631226237114902e+01) (37, -2.50595251196805524074e+00) (38, -3.97458007763297649362e+00) (39, -2.07156171226679086672e+00) (40, -1.33834019409856552763e+00) (41, -1.11483263044861065083e+01) (42, 8.62829214074670858281e+00) (43, -1.14905239821142934886e+01) (44, -6.19057896666476548120e+00) (45, 1.75971866177609759241e+00) (46, 3.25897964057224065471e+00) (47, 1.92762185981344558172e+00) (48, 5.02815319779905500752e+00) (49, 5.99179251836361892458e+00) (50, -5.67571499991859873546e+00) (51, -1.05201486217696560388e+00) (52, 6.92566522867270961683e+00) (53, -2.13805231834089992660e+00) (54, 7.44299664784706438425e-01) (55, -3.63232855872405480113e+00) (56, 9.22502062249721532794e+00) (57, -3.22479445201553138745e+00) (58, 3.01919885933356324514e+00) (59, -5.33862990314238317069e+00) (60, -7.96260182571774688398e+00) (61, 1.22455257304485809478e+00) (62, -8.77013197751372430844e+00) (63, -6.64490855280945247330e+00) (64, -5.50551440971028149818e+00) (65, -2.55474087922126846806e+00) (66, -1.55596069515906276770e+00) (67, -6.23593832835948180815e+00) (68, 5.03853381324368188032e-01) (69, -1.22139203306203025790e+01) (70, -6.61705736402285182862e+00) (71, 6.56628768221397418614e+00) (72, 1.92833461283693274879e+00) (73, -3.90031054837503265986e+00) (74, 5.39878019432162492564e+00) (75, 2.82907384812311146760e+00) (76, 3.08684705093193478831e+00) (77, 6.34311822441523176508e+00) (78, -3.98100339369597122641e+00) (79, 9.32131548792838948714e+00) (80, 4.34036657491384048058e+00) (81, 1.91790070977730722768e-02) (82, 8.54739615228151627946e+00) (83, 7.22193790634598098421e+00) (84, -4.43551406818717541825e+00) (85, 3.09591215037729705628e+00) (86, -6.09530015074665088015e-01) (87, 4.27416102975309897261e+00) (88, -4.55295910354932331643e+00) (89, -2.79368639324400280799e+00) (90, 3.27545213516828459532e+00) (91, 1.90710871020653560670e+00) (92, -2.29817159948023830296e+00) (93, -3.34969159996924048528e+00) (94, 6.44116049204194851541e+00) (95, -5.68260682412831652499e+00) (96, -1.64358527304327139973e+00) (97, 4.58811697033203724772e+00) (98, -7.26386327111048046845e+00) (99, -5.56970463620434763641e+00) (100, 6.82670441654612658589e-01) (101, 5.70587044406684640308e+00) (102, 2.29051440923074700606e+00) (103, -2.53079132708357867898e+00) (104, -1.83804501515697960023e+00) (0, -4.46326936620579406423e+00) (1, 9.45676945447472050432e+00) (2, -3.08952715800169322447e-02) (3, 4.33072962856319509939e+00) (4, 1.36437295088576354685e-01) (5, 6.13417672509151579163e+00) (6, 3.91541514460482087401e+00) (7, 6.33105314653022688276e+00) (8, -2.13469012238779454194e+00) (9, -2.30582666872667729763e+00) (10, -1.21153405014351065461e+01) (11, -4.94152733509159602932e+00) (12, -1.08275652445026748794e+00) (13, -5.29374746940672835649e+00) (14, -3.02191813137358566976e+00) (15, -6.55706556067388035558e+00) (16, 2.01574075724598733572e+00) (17, 1.39409100883272141225e+00) (18, -2.77563969227378315452e+00) (19, 2.57556810912582312412e-01) (20, 2.67461117766583988953e-01) (21, -8.56852754115165993198e+00) (22, -7.42101411345024786215e+00) (23, 8.42246290589645063562e+00) (24, -4.44104973358062693478e+00) (25, 3.56846068612656353025e+00) (26, -6.83926291163588384592e-01) (27, 4.56046006901672118516e+00) (28, 2.46398641178273791752e+00) (29, 3.58450048899547812908e+00) (30, 2.86260212592745988402e+00) (31, -6.51278096435165121392e+00) (32, 2.16006535310549807605e+00) (33, -9.61610261071983352110e+00) (34, 3.70484633476024916021e+00) (35, 2.95921709229787088802e+00) (36, -6.18784349427413005174e+00) (37, -4.70404240609434282083e-02) (38, -5.85640589082347240435e+00) (39, 6.53594135027078593225e+00) (40, 3.91960445207230012699e+00) (41, 6.48219964814352778149e+00) (42, -5.61463231910327209562e+00) (43, 4.68042601273972813658e+00) (44, -2.45995959208624004333e+00) (45, -1.55505352729203760731e+00) (46, 1.88627809113760958049e+00) (47, -1.45005317818340140334e+00) (48, 8.49229533247938306317e+00) (49, 4.97181288741035487533e+00) (50, -9.18166851958349994334e+00) (51, 1.77453495526682369920e+00) (52, 5.04958465608964690574e+00) (53, 1.80604647965568032575e+00) (54, 3.68462009620301778057e+00) (55, -2.01563192866462115305e+00) (56, 3.99971349054551428281e+00) (57, -8.11638118390727036910e+00) (58, -1.07698737207409273031e-01) (59, -1.73157675549045819707e+00) (60, 6.53459144525753377053e+00) (61, 1.18764574815863399593e+00) (62, -9.92225895383755496226e-01) (63, -2.08225910724474339020e+00) (64, 1.42870471284894429154e+00) (65, 5.26751591377786620995e+00) (66, 5.92088832934455577828e+00) (67, -9.64653028917533350572e-01) (68, 1.33068525362928391509e+00) (69, 1.72466353324254284551e+00) (70, -8.84908176261446688393e-01) (71, 2.26363095297355032542e+00) (72, -9.49340055055030873632e+00) (73, -1.91641333105544964255e+00) (74, 2.87780839400286003738e+00) (75, -1.05734493490583858488e+01) (76, -7.31520306362193828420e+00) (77, -2.59396452187008641488e+00) (78, -3.25357125126548174521e+00) (79, 3.43146968264975615881e+00) (80, 4.17676241182068641589e-01) (81, -5.24102357270182617199e-01) (82, 1.98363211037105480194e+00) (83, 1.27594217758342876046e+00) (84, -5.36416743700721809773e+00) (85, -4.68119634842898368898e-01) (86, -8.96466511653450925934e-01) (87, -2.89538498770048891018e-01) (88, 8.25609200464247128259e-01) (89, -3.29492092746799872249e-02) (90, -1.82050668514742097770e+00) (91, 1.78734825065302893599e+00) (92, -9.93957381930146377513e-01) (93, 3.72477783223626524034e+00) (94, 1.92520872225453110183e+00) (95, 6.98145314103869019107e+00) (96, -2.44450059430918775760e+00) (97, 1.65370718114670345322e+00) (98, -1.83700345473304560429e+00) (99, 4.22531799995894541411e+00) (100, -8.07473987216915212173e+00) (101, 8.99255894198345701041e-02) (102, 3.94663017144410321890e-01) (103, -3.75868294566729810313e+00) (104, -1.17627275657971952505e+00) (0, -6.83850639625269796085e+00) (1, -4.38277205666613323132e+00) (2, 5.51754922740479702981e+00) (3, 6.82743924383124856092e+00) (4, 7.08764697381940700360e-01) (5, -2.15368348744779369852e+00) (6, -6.91966473836213502580e+00) (7, -1.12221029776884839713e+00) (8, -8.18007366779123756828e+00) (9, 2.71344775196748422275e+00) (10, -5.39017715869864577627e+00) (11, -3.12531909763994641960e-01) (12, 2.74727150086133642404e+00) (13, -2.85534648806725943615e+00) (14, 1.57543990696895841452e-01) (15, -4.27870970245838577739e+00) (16, -3.98202004354489957905e+00) (17, -4.78475466919335445937e+00) (18, -2.47675032738826939038e+00) (19, -3.28184613836660155073e+00) (20, 6.96101128625943310624e-01) (21, 7.04469900669563386941e+00) (22, 5.91719288362328388331e+00) (23, 1.13156906084555530789e+00) (24, 2.22847835323986576128e+00) (25, -9.68166159903251788421e+00) (26, 2.28820561894658691671e+00) (27, 5.85359210993995016103e-01) (28, 4.09989216901055986142e+00) (29, 2.53278095649637124964e+00) (30, -2.03460809476149506736e+00) (31, -6.33547330038503164751e-01) (32, 4.28491743683832693179e-01) (33, -7.37482132670589685119e+00) (34, -2.57017204827066070294e+00) (35, 5.78137264537810557918e-01) (36, 4.84711048968807567405e+00) (37, -1.42325127456609035193e+00) (38, -9.64864517702305946045e+00) (39, 1.50566372612090004779e+00) (40, -2.18654635727657264965e+00) (41, 5.22745941825865090280e-01) (42, 4.35985227666861252516e+00) (43, 2.47012024532484630868e+00) (44, 4.73259320135752226122e+00) (45, 5.13942282130059346912e+00) (46, 6.25367678133320570311e+00) (47, 2.24033794706816336006e-01) (48, 7.73520069033876644937e+00) (49, 2.62005239088638575140e+00) (50, -7.79844171564477051106e+00) (51, -1.17877495449001123973e+00) (52, -1.40596555706449732881e+00) (53, 9.25119458114443626862e-01) (54, 2.28310836470046130131e+00) (55, 1.42726528514772188494e+00) (56, -2.69306996306177115486e+00) (57, 5.24178994657555241687e-01) (58, -9.17245417891223091544e+00) (59, -3.92201741963358641030e+00) (60, -1.48465235837115394624e+00) (61, 1.27988608716180873870e+01) (62, -1.97647698457962972540e+00) (63, 2.03751051722349885154e+00) (64, -4.47494643641034883785e+00) (65, 3.17658336681652553324e+00) (66, 9.06184714802401103384e+00) (67, -1.82892299500533628276e+00) (68, 2.13841873948349991963e+00) (69, -2.93216698904459116548e-01) (70, -4.17399985417998653503e+00) (71, 9.49201350471090998795e-01) (72, -9.06323801402048379039e-01) (73, 1.08187511085787368970e+00) (74, -1.42803210436653471582e+00) (75, -6.28985704626974406750e+00) (76, 2.17490533674736719050e+00) (77, 2.24009907434026001027e+00) (78, -1.20325826519190792752e+00) (79, -1.59512358074103932637e+00) (80, 1.87295319771069079806e+00) (81, 1.43419793358845443221e-01) (82, 9.85568188265545330751e+00) (83, -4.62558063532848839916e-01) (84, -1.60169679836597023126e+00) (85, -1.19780825237721821885e+00) (86, 6.99970461010674060987e+00) (87, -1.23806235698399316192e+01) (88, -9.40406078394642186424e-01) (89, 6.26052568034870571267e+00) (90, 2.88041892119398035277e+00) (91, -3.41531322320220498412e+00) (92, -4.81939576569860950173e+00) (93, -3.14393866380508479885e-01) (94, -1.31769700777452869467e-01) (95, -6.31608947816804322528e-01) (96, 1.94871365279943353777e+00) (97, 1.64357683568364754123e+00) (98, 3.53025432864110300102e+00) (99, -6.40110587127131580587e+00) (100, -3.52991363604661323450e+00) (101, -3.22982213447985033739e+00) (102, -2.88185064017928116442e+00) (103, -6.75308459117743975497e+00) (104, -2.50341357287388266428e+00) (0, -3.68579021921343930046e+00) (1, 4.32931893656400923476e+00) (2, 9.74564163136272920696e-01) (3, -7.41613800215004448368e-01) (4, 5.08408683743535316779e+00) (5, -1.69229344882679244577e+00) (6, 9.11048491142026128919e-01) (7, 1.84907867754597754484e+00) (8, -6.32182516192475318917e+00) (9, 5.96467170079661634929e+00) (10, 2.85172935617183975765e+00) (11, -2.81087670194714167593e+00) (12, -1.70191579646905299938e+00) (13, 1.11535839437916948214e+01) (14, 3.48917022113844055298e+00) (15, -1.12585492946247711643e+01) (16, 3.49881254435911381862e+00) (17, -7.81358746043084528843e-01) (18, -4.64705896952249231102e-01) (19, -6.31049607410685542419e+00) (20, -7.12420113431303114737e+00) (21, -6.35873880595160034801e+00) (22, -4.70704845074714661735e+00) (23, 9.05226032703946081881e+00) (24, 1.84717423216392950813e+00) (25, -1.55248651231795498084e+00) (26, -9.07069936311544289254e+00) (27, 1.09687178806625951211e+00) (28, 5.55013319007273597805e+00) (29, -7.62003637691745705496e+00) (30, -4.30034037815288350259e+00) (31, -1.22122781687361059433e+00) (32, 6.90782635672199507582e+00) (33, -8.25596288860122307085e+00) (34, -1.48423180352676009619e+00) (35, -3.32341944671706857051e+00) (36, -3.43299470845272569619e+00) (37, 6.27242523585217925941e-01) (38, 3.68242001303989141547e+00) (39, 1.33447744895749176308e+00) (40, 7.45407285022625099025e-01) (41, 8.97226377099885930022e+00) (42, -2.57023184474067267757e+00) (43, 1.11047806862642346459e+01) (44, 1.91227998469780202662e+00) (45, -4.29318623053309345039e+00) (46, -1.33328954257126164329e+00) (47, -2.68893599966478380470e-01) (48, 7.39421636166930351663e-01) (49, -1.06790394960093770749e+00) (50, 5.72670800254347156510e+00) (51, 3.85032526872450553412e+00) (52, -3.46669395434510185794e+00) (53, -1.40843090400334425283e+00) (54, 1.60749367348516702947e+00) (55, -2.22365310340586885829e+00) (56, 4.65354141176747226893e-01) (57, 6.44345345106314315586e+00) (58, -1.19697161325067602533e+00) (59, -3.45552693483652895168e+00) (60, -9.50139815781525420846e+00) (61, -6.97579695638746155595e+00) (62, 7.03022980251513107675e+00) (63, -3.38984393725573118772e+00) (64, 1.96493140990946946189e+00) (65, -1.95795208970832002038e+00) (66, 3.56333095132110955205e+00) (67, 1.92255178583463326447e+00) (68, 8.99411483344667495032e+00) (69, 1.12755401368036922705e+00) (70, -2.00399092698400771440e+00) (71, 2.23509468314109360776e+00) (72, -6.06653089610263052123e+00) (73, 5.32135146727056973504e+00) (74, 9.05930702804427134822e+00) (75, 2.17953176620919553130e+00) (76, 6.57032977838305587426e+00) (77, 6.03914262377417898620e+00) (78, -3.35526466417232160921e+00) (79, 6.74296610080822578226e+00) (80, -1.32038670469430829968e+01) (81, -5.16391012899457901852e+00) (82, 4.14963153994168276739e+00) (83, -4.36084246104581829684e+00) (84, -7.83256258746911182556e-01) (85, -1.90084960092349031235e+00) (86, -1.58203604988254897812e+00) (87, -1.49068696834500058479e+00) (88, -3.39879750815310910372e-01) (89, -1.01105782776304020665e+00) (90, 4.45079682600358683686e+00) (91, -3.00511662481978047978e+00) (92, 4.47057915239919667627e-01) (93, -2.60833824746746711920e-01) (94, 1.12330671454571029422e+00) (95, -1.19619842336535775473e+00) (96, -6.30974036959698914018e+00) (97, -5.40582429224974614357e+00) (98, 3.42787284052165652781e+00) (99, -8.16383899264915946503e-01) (100, -2.91025398549159586281e+00) (101, 1.41700233917682876239e+01) (102, -6.37174639078145244042e+00) (103, 1.36143592176522543191e+00) (104, -2.49895030635730291957e-01) (0, 4.86759146470697401377e-01) (1, -3.00816297443889579810e+00) (2, 5.03384247567873099882e+00) (3, -9.24660888048554951979e+00) (4, 1.27699452032324001216e+00) (5, 4.48626969484125392995e+00) (6, -2.51993162243669832634e+00) (7, 1.74124758759475128933e+00) (8, -3.81666654377564285028e+00) (9, 4.26092783443662082021e+00) (10, 2.82164179167719364472e+00) (11, -1.02006873721335478145e+00) (12, 5.01770197625686620313e+00) (13, 3.87807303140308512468e+00) (14, -3.40776139066019956303e+00) (15, -1.22453355564426513702e+00) (16, 8.46631626368305023611e-01) (17, -2.46544845470586659886e+00) (18, 5.76440179755295201147e+00) (19, -3.34930295780713693787e+00) (20, -4.94054967223470420379e-01) (21, -6.10708868088586775968e+00) (22, -1.17185688994131931295e+00) (23, -2.82505924655986984106e+00) (24, -6.64695740709668836388e+00) (25, 4.05749937539797667085e+00) (26, 3.84732381174314230776e+00) (27, -1.19530593568706571261e+01) (28, -1.03302093697220485069e+01) (29, 1.48402691978110068405e+00) (30, -1.90187532465952791050e+00) (31, 6.31022164538120122756e+00) (32, 1.02162112734718970586e+01) (33, -8.19756489137140498258e-01) (34, -5.12503509332757190009e+00) (35, -3.42066726169933277291e+00) (36, 1.15134587449590330976e+00) (37, -5.43135225269414267935e-01) (38, -6.29023944349766761519e+00) (39, 1.46583406848062325345e+00) (40, 1.15634469041336185313e+01) (41, 9.65117453096347444053e-01) (42, -3.08817490369721925347e+00) (43, 1.95313446343391561300e+00) (44, -4.41776317066090040697e+00) (45, 9.33350796377838953788e+00) (46, 2.61333837147909164855e+00) (47, -1.42169491637714240362e+00) (48, -4.95098299424312404682e+00) (49, 3.03116573799209687579e+00) (50, 2.89721273389468025883e+00) (51, -1.91943366624352806937e+00) (52, 5.52497560311017998913e+00) (53, 4.60485689616353077724e+00) (54, 4.48229523534296181442e-01) (55, 3.13970525577873571521e+00) (56, -3.40647804709265589196e-01) (57, -2.66868321107656392144e+00) (58, -2.69301329089503393988e+00) (59, -7.08515978575961935526e-01) (60, -6.43622289479052156480e+00) (61, 5.49051939650500830936e+00) (62, -5.09972659709792885963e+00) (63, 5.30674884413503100689e+00) (64, -8.56798160167442013346e+00) (65, -5.22813588082912228394e-01) (66, 1.22146677200381459372e+00) (67, 6.97255252623471655227e-01) (68, 5.20878550105250637259e-01) (69, -1.11528515810039169365e-01) (70, -1.86659047696908775293e+00) (71, -6.70887532134128328209e+00) (72, -1.35360337108973238784e+00) (73, 2.35527220084652588739e+00) (74, -1.61423517217979606286e+00) (75, 3.78480365986990641147e+00) (76, -3.39557732106399123850e+00) (77, -6.80491795176341796036e+00) (78, -1.56878233588178761515e+00) (79, 9.46987843757562153257e+00) (80, -2.71147192856203789191e+00) (81, 7.52833332956941614356e+00) (82, -2.76185212805799151781e+00) (83, 4.93993591451093116973e+00) (84, 3.64128046059350296559e+00) (85, 2.48758538173141613425e-01) (86, 1.16799356279863908448e+00) (87, -1.79028042283136512580e+00) (88, 4.00331206138621187307e+00) (89, -1.50972499077140387413e+00) (90, -4.79506742525591356241e+00) (91, 8.19934231906537647205e+00) (92, -2.42644574644978527900e+00) (93, 3.16279987592091138549e-01) (94, -7.46636272855675731108e+00) (95, 2.52098469802471703005e+00) (96, -1.34875579686674895719e+00) (97, -4.39356323853279029379e+00) (98, -5.76917390221728720867e-01) (99, 1.86370852848436108218e+00) (100, 4.78169730062434616968e+00) (101, 4.54165784532730210099e-01) (102, -4.44963796114250786928e+00) (103, -3.81154252949798699746e+00) (104, -1.15394621110893802474e+00) (0, 7.76625401801837877969e+00) (1, -1.94427806342195641509e-01) (2, -3.54002258495814237094e+00) (3, -5.29816257198322659860e+00) (4, -3.87296840834857658553e-01) (5, -6.12738005972157129264e+00) (6, -4.89042397216319146835e-01) (7, -2.26604615796972286290e+00) (8, -1.60460867554588304529e+00) (9, -1.00170450996444060365e+01) (10, 2.58214549668219950362e+00) (11, 3.06339717553077006684e+00) (12, 4.67027826411999047451e+00) (13, 4.93736559516220019361e+00) (14, 3.72957995790543606063e+00) (15, -3.61932994502969185291e+00) (16, 1.60568520430771100038e+00) (17, -1.72540578648277542761e+00) (18, -6.92020895186700712998e+00) (19, 1.51470131717149154582e+01) (20, -1.93272975543818681388e+00) (21, -1.50989126056427847011e+00) (22, 5.96790584572607363256e-01) (23, 4.72934177885727713431e+00) (24, -4.31297301896300999680e-01) (25, 4.48277542263677908352e+00) (26, 7.92124012863679283214e-01) (27, 4.38381443308151486082e-02) (28, 1.07960687153016676731e+00) (29, 1.08721622057936029293e+00) (30, -5.15699488460445110150e+00) (31, -2.15790169877756499162e+00) (32, 2.39538016403643405638e+00) (33, 1.77881373787335350656e+00) (34, 9.80179924604146157741e-01) (35, 5.88847504959117440393e+00) (36, -2.64681828527216422842e+00) (37, -9.84723396303574111110e-02) (38, -1.66223759193734554884e+00) (39, 1.09893932201281097072e+00) (40, -7.63270106658554858825e+00) (41, 1.21429460797713617559e+00) (42, -2.48097439498982952344e+00) (43, -3.43806360494770535396e+00) (44, 4.48385270171514527249e+00) (45, -1.70023807180730901489e-01) (46, -3.05423614530616793772e+00) (47, 1.06104757149595840815e+00) (48, -2.29701448884664483074e+00) (49, -4.36386042352885716866e+00) (50, 4.52851826482689112652e+00) (51, -4.01591071445198544154e+00) (52, -6.58174490171025272645e+00) (53, 6.42753775617642020279e+00) (54, 5.85630886874874878600e+00) (55, -5.71383010728621432150e+00) (56, 3.45782354303258943062e+00) (57, 6.90393661113761680781e+00) (58, -3.86994863440486414063e+00) (59, -6.28005587487452276996e-01) (60, -2.01463805372855997433e+00) (61, 1.58543580532966532637e+00) (62, -3.11062392977103208125e+00) (63, 3.14829161908211618837e+00) (64, 3.45191634860809726248e+00) (65, -3.72499157988486429005e+00) (66, 7.16800731473978269825e-01) (67, 3.76422281604929720444e+00) (68, 2.47444747149447774603e+00) (69, -1.43554721689870512513e+00) (70, 1.38803887332701259005e+00) (71, -7.51421568843928855408e-01) (72, 1.61729762664242437964e+00) (73, 3.61369814438476577578e+00) (74, -1.84540630937518868038e+00) (75, 3.17136128965881169961e+00) (76, -4.41528807410413648427e+00) (77, 1.88042927621819266903e+00) (78, 4.34473179731252834301e+00) (79, -3.85788413943297969766e+00) (80, -7.14911000039735622380e+00) (81, -3.93607698528639149416e+00) (82, -7.06982768952229800874e+00) (83, 7.55360772101052874161e-02) (84, 1.71996070190432859270e+00) (85, 9.67366960613395776569e-01) (86, -1.93237354764074553692e+00) (87, -4.74447527942256996880e+00) (88, 2.90958706551068013724e+00) (89, -2.05255781702151551826e+00) (90, -3.15902350741219573038e+00) (91, -8.00327071788792254736e-01) (92, 4.30977547652187009675e+00) (93, -8.22592084754039376548e+00) (94, -1.76557188347949645113e+00) (95, 4.24555731866708185862e+00) (96, 2.88145894361438070774e+00) (97, 7.15539735922064412676e+00) (98, -3.49748123116310827285e+00) (99, -5.30007938460181637907e+00) (100, 3.83990705232211038123e+00) (101, -1.86761701638286359284e+00) (102, -2.57918748488797477947e+00) (103, 5.24877412155388611836e+00) (104, -7.08727636547235473330e-01) (0, 2.00534884135426016982e+00) (1, -2.37881813638015277013e-01) (2, 4.75647808054927079269e+00) (3, 3.92395981206109745187e-01) (4, -3.45403644313106683583e+00) (5, 6.87794486149657569030e+00) (6, -1.15841633550255590501e-01) (7, -7.34415036304257373700e+00) (8, -1.39216934897944205618e-01) (9, -3.06267655489300061333e+00) (10, -3.32207385630719675973e+00) (11, 1.00272831666965545061e+00) (12, -7.60110868237758108279e+00) (13, 2.09063910413872067195e+00) (14, 3.79915687558298742488e+00) (15, -1.46601544819641027573e+00) (16, -6.65216584345489775343e-02) (17, -1.70739328770352605247e+00) (18, 8.67635674071044427080e+00) (19, -7.41058744326806806413e+00) (20, 1.04668274368218772175e+00) (21, 8.19079628590116648468e+00) (22, 3.18596532453647607319e-01) (23, 4.54168250222507374758e+00) (24, -1.40139007254790826096e+01) (25, 2.32183832171595749827e+00) (26, -3.01895080590465614279e+00) (27, 1.18526767755781854419e+01) (28, -2.33501363873219780487e+00) (29, -6.78266217315413122435e+00) (30, -6.73629560234618618431e-01) (31, 4.93523273375714932598e+00) (32, 3.64854075495687435460e-01) (33, -1.33892508280915301100e+00) (34, 6.00307353547751976208e+00) (35, -3.42475878918949572238e+00) (36, 8.46804896696630038377e+00) (37, 6.13955227851903817538e-01) (38, 3.87719504738686060463e+00) (39, -1.72632208636175832339e+00) (40, -8.59315869833140233425e+00) (41, 1.21970289146259291968e+00) (42, 1.06441251342033194049e+01) (43, -7.45508500514455008101e+00) (44, -3.86504545030164559094e+00) (45, -3.76185756596303244592e+00) (46, -8.19444346432681669512e+00) (47, -4.99565068496333530845e+00) (48, 3.75604381045351587431e+00) (49, -2.29965919902823179299e+00) (50, 1.48003625094527335726e+00) (51, 2.58492972342291238430e-01) (52, -3.02912418904870595071e+00) (53, -1.94148727535152421098e+00) (54, -9.59711509970320086893e+00) (55, -1.71266502878842730162e+00) (56, 5.09162978346568362298e+00) (57, -3.51566493636016597080e+00) (58, 2.92577197953552525789e+00) (59, -3.54017158115396191054e-01) (60, 9.83605106598349432367e-01) (61, 3.93984227884797233443e+00) (62, -6.23601213354995298488e+00) (63, -1.93892807445978299086e+00) (64, 5.73073703968346404025e+00) (65, -6.72766845081356734681e+00) (66, -1.83182568440651150077e+00) (67, -5.89995853919018742317e+00) (68, 6.32214611018940075837e+00) (69, -2.36269971853796567629e+00) (70, -1.46398808444743644408e+00) (71, -3.69755034620364231301e+00) (72, 6.55853556697191653058e+00) (73, -1.74487940182754530660e+00) (74, -3.06091052081910630633e+00) (75, -3.08958958570640720986e-02) (76, -4.86501748983776938218e+00) (77, -7.81648927906212986905e-01) (78, 3.32879872215238092892e+00) (79, -1.65288867039477360699e+00) (80, -4.61725412654528599710e-01) (81, -5.61071755656837756199e-01) (82, -6.52736390681199196706e+00) (83, 1.91785117515343728201e+00) (84, 7.02461022371180110468e+00) (85, 1.16074972824977229457e+00) (86, 1.06347435740947968696e+01) (87, -3.18724436597018268014e-01) (88, -2.94524819483946309617e+00) (89, 1.66636600283696512115e+00) (90, 3.65423012834367000323e+00) (91, 8.14019175619178447789e+00) (92, -2.03017805008775065190e+00) (93, 2.69555109636554657282e-01) (94, -2.69098017426813074238e+00) (95, -2.15372531862452465390e+00) (96, 3.90556024256019229668e+00) (97, -5.91217528139154868683e+00) (98, 1.64005456013614647759e+00) (99, 9.10748083378814143884e+00) (100, -1.16341014653801888556e+00) (101, -2.40543984549447964483e+00) (102, -3.46260380532720324354e+00) (103, -2.07870448241731162198e-02) (104, -1.62977680931401480713e+00) (0, -5.99060348106364215504e-01) (1, 8.94237851803214489621e+00) (2, -9.76576152160661181689e-01) (3, 3.03050166767973783166e+00) (4, 1.37516944916923872233e-01) (5, -1.00508606763925212313e+00) (6, 5.56558428269515848008e-01) (7, 1.83898354217073145556e+00) (8, -3.95345297218379432280e+00) (9, -4.88831287981451989566e+00) (10, 6.81989412312243548087e+00) (11, -1.19101554161081923944e+00) (12, -1.24034145019500408047e+00) (13, -1.99398068685274476586e+00) (14, 1.56271245210398102010e+00) (15, 4.78426860747233673177e-01) (16, 1.33203177754901780361e+00) (17, -1.81035591091569703082e+00) (18, 2.38853405457062084594e+00) (19, -1.44980317464853736276e+00) (20, 2.09742454649514575848e+00) (21, -5.19067920285224904120e+00) (22, 1.40093657849389652270e+00) (23, -4.12432243815838894818e+00) (24, -1.06120540451838785145e+00) (25, 1.51306059928106106938e+00) (26, -2.32541867422698311785e+00) (27, -1.12927611820807549670e+00) (28, -6.40867712284713331172e+00) (29, 2.97245136489272754332e+00) (30, -5.22695427994532835214e+00) (31, -4.94199174525091056154e+00) (32, 2.00548183896130094439e+00) (33, 1.67666106106340850879e+00) (34, 4.21863823302108720270e+00) (35, 2.38320071598920879552e+00) (36, -9.74422707696376844133e-01) (37, -2.60535010757026286310e-01) (38, 2.68939450526368295513e+00) (39, 1.86048699090029273640e-01) (40, -4.44584928736823492557e+00) (41, -3.13884979750447845603e+00) (42, 7.97032520832541546696e+00) (43, -5.28912462251884196718e+00) (44, -3.84534352145296454140e+00) (45, -2.10003594478057964423e+00) (46, 5.40003882187481298871e+00) (47, -1.37049887021943628262e+00) (48, -2.14664421305859542954e+00) (49, -1.01141248663457261614e+00) (50, 5.82778035979913777709e+00) (51, 3.71979126125836334626e-01) (52, 1.81218491158276906461e+00) (53, 5.29794822104850382516e+00) (54, -7.33473718550212844258e-02) (55, 3.02949086056872163297e+00) (56, -1.17754836090100667434e+00) (57, 1.70745820598298875259e-01) (58, 5.47478960056018326696e+00) (59, 4.75824331037938252909e-01) (60, -1.75942186265599587180e+00) (61, -5.66996871317749029373e+00) (62, -3.02620851551709257876e+00) (63, 6.36038859859653893380e+00) (64, -1.06691558382340656586e+00) (65, 9.23960146495954037782e-01) (66, -8.79100809608189037725e-01) (67, -8.20200415848062824864e+00) (68, 4.75035376964744227024e+00) (69, -2.02738569455446748790e+00) (70, 2.94634965931477033063e-01) (71, 6.69960823213744838256e+00) (72, -2.46439507262962198553e+00) (73, -2.39160877384613623775e+00) (74, 1.54050254788232243719e+00) (75, -5.56785685586134349023e+00) (76, -8.17064400759954168052e+00) (77, -7.30500951403988452171e+00) (78, -3.28208126681926692925e+00) (79, -3.09612637380561706024e+00) (80, -4.05411838585949801939e+00) (81, 2.89077559705329889539e+00) (82, -3.14539646759659685671e+00) (83, -2.69833261338452257139e-01) (84, -3.58856075356133841225e+00) (85, 4.21194533526828285286e-01) (86, -7.43748891801862299644e+00) (87, 4.73152780941060169262e-01) (88, 3.56600844865795885141e+00) (89, -1.59989747847932384239e+00) (90, 5.96333901838994862032e+00) (91, 1.16960417438875516893e+01) (92, -8.83401517379240774908e-01) (93, -8.75297596638040187322e-01) (94, -3.97039068395747918316e+00) (95, 3.84530648993302026639e+00) (96, 6.99602557779616063272e+00) (97, 3.50091926881170145691e+00) (98, 3.13295870563795997299e+00) (99, -3.75449063523982928814e+00) (100, -1.24387736074442145640e-01) (101, -7.39956944853423870256e+00) (102, 4.30094407920565635628e-01) (103, 6.33855527359559101086e+00) (104, -1.11085494281664254324e+00) (0, -4.85486714513143180483e+00) (1, 3.95854827419429344815e+00) (2, 3.73551736965420655423e+00) (3, -2.33481611270949418468e+00) (4, 2.50096897780380977849e+00) (5, -6.81237141095435294602e+00) (6, -2.89961911848654185775e+00) (7, -2.78503681608313868878e+00) (8, -4.73409476167536702462e+00) (9, -1.60156893060133143081e+00) (10, -7.85438862949854432749e-01) (11, -1.92580737123778678033e+00) (12, -8.58937876000987010627e+00) (13, 3.25668856537172146659e+00) (14, -4.44517039291649940225e+00) (15, -4.49201936182065431069e+00) (16, -6.11173907092229118376e+00) (17, -5.41748561866115529995e+00) (18, -1.11529454133648919800e+00) (19, 7.35350343973103615092e-01) (20, 5.20860596166657696671e+00) (21, 1.95949311871377074290e+00) (22, 2.96416489595620902264e+00) (23, -6.11651873513751498379e-01) (24, 6.27529886696619421116e+00) (25, -2.16513646650718039055e+00) (26, -8.41712128809366966209e+00) (27, 1.61524020444808691366e+00) (28, 4.70132195226826077317e+00) (29, 1.41339078385584282493e+00) (30, 6.90168716574736684777e+00) (31, -1.06307837523526638179e+00) (32, -1.11168305935992659528e+01) (33, 9.13335917821865450605e+00) (34, -1.10338102307225778276e+01) (35, 1.16391330234709156066e+00) (36, -3.30139279496325244168e+00) (37, 2.52697105646533914936e+00) (38, -6.75313346293445970758e-01) (39, 1.70717235578437964705e+00) (40, -6.44828097272618805391e+00) (41, 8.55149077991500838891e+00) (42, -1.40516544308067503621e+00) (43, 1.74456031726076793431e-01) (44, 9.32157709754460839235e+00) (45, 6.82712775134238647468e+00) (46, 3.07896191222283155398e+00) (47, 6.53724499660927804712e+00) (48, 7.62397449079107225600e-01) (49, 1.24113874611084562538e+00) (50, -4.46681554678761472132e+00) (51, -7.82951194291358176791e-01) (52, -6.16653732932643450226e+00) (53, -2.23016996630049568751e+00) (54, -2.75345737677397117693e+00) (55, 5.59236187205114088083e-02) (56, 1.55395937367720149425e+00) (57, -3.90181846249347152877e+00) (58, -3.86742925938038772937e-01) (59, 3.92059415482404549635e+00) (60, 1.79698529240393001238e+00) (61, -4.63972705461926349102e+00) (62, -1.06093619546322663894e+01) (63, -3.77814737649959830890e+00) (64, 4.23757477329558795986e+00) (65, 2.65997991291118252022e+00) (66, 6.68862225710991165073e+00) (67, 3.10327311409952599774e+00) (68, 1.51550609405221892168e+00) (69, -1.00168595184690261135e+01) (70, 9.89008336400647891651e+00) (71, 7.54890213411452015713e-01) (72, -4.78115532146508748212e+00) (73, -1.18713504040836959064e+00) (74, 6.01327331360019545770e+00) (75, 5.27670263510625048298e+00) (76, -1.38203145976047458987e+00) (77, -9.06383701492399218580e+00) (78, 5.63373078090841250543e+00) (79, -1.15548343881268622546e+00) (80, -4.84275983216821970245e+00) (81, 3.61076804452028543579e+00) (82, -1.74079296145489892389e+00) (83, -1.33537609155677694517e+00) (84, 6.48697295831909670483e+00) (85, -6.66450414983828576254e+00) (86, 3.45419376443237036156e+00) (87, -3.57993528669779337292e+00) (88, -3.84521601954901548481e+00) (89, 1.39905199704535965211e+00) (90, 2.82102728801609670128e+00) (91, 3.47353481743260061876e+00) (92, -2.71316916080645897935e+00) (93, -8.08194900678780392411e+00) (94, 1.36779578435096471623e+01) (95, 2.77896355064375422117e+00) (96, 2.54909411621172976581e+00) (97, -7.72336432886498069905e+00) (98, -4.21703493566883746979e+00) (99, 3.67728209009579165567e+00) (100, -1.31115608974300967837e-01) (101, -1.05706137383315805778e+01) (102, 3.88165268205876312635e+00) (103, 2.86620015155618013125e+00) (104, -2.33457452978442336899e+00) (0, -2.66335974398883168490e+00) (1, 6.32952275427183153056e+00) (2, -5.25802112561683543390e+00) (3, 3.10333203995862039193e+00) (4, -3.33846223849955636709e+00) (5, -3.31930305776859224665e+00) (6, 5.05613785249465941263e+00) (7, -6.64669882275053414133e+00) (8, 5.24630852744951070576e+00) (9, 3.23189107834107902661e+00) (10, -5.10678729354444094213e+00) (11, -2.89943643608036483172e-01) (12, 4.69723114245328865479e+00) (13, 4.80238430500333901563e+00) (14, -1.08627667141671668816e+00) (15, -2.96158799597083222110e+00) (16, -1.67505609856747628150e+00) (17, 8.41115097224358621020e-01) (18, -3.42922448534927593045e+00) (19, 2.74117061406104367549e+00) (20, -4.77133798332164682510e-01) (21, 5.11068422285009127393e+00) (22, -5.32620378201754807179e+00) (23, 1.80868896940275170060e+00) (24, -6.11794838823623887691e+00) (25, -2.04114675525441713333e+00) (26, -8.06768818575339707877e+00) (27, -7.32198340960213744921e-01) (28, -1.06023459541330815625e+01) (29, 4.38853384659864328987e-02) (30, 4.21998806532327996877e+00) (31, -5.97372991040542800079e+00) (32, 1.28511952534639228851e+00) (33, -1.94509917196065762468e+00) (34, -5.38952709143313857254e+00) (35, 2.38579169945032676381e+00) (36, -7.18568567893302834193e+00) (37, 2.01675836857488272047e-01) (38, -1.21003063323636350646e+00) (39, 1.42929260134251840952e+01) (40, -1.86708652117008266913e+00) (41, 2.93451024143141658840e+00) (42, 4.03461344915063602201e+00) (43, -3.64068502376352443051e+00) (44, -1.66878200897720185836e+00) (45, -5.07955716861799011497e+00) (46, -6.21733518486772718248e-01) (47, 6.12574991608111663055e+00) (48, 6.93135597686444526744e+00) (49, 5.66432945383115793447e+00) (50, -1.57306326468706819677e-01) (51, 4.12772197379815963814e+00) (52, -1.10805151372732382242e+01) (53, -4.85695603799982666970e+00) (54, 3.30211178534289517827e+00) (55, 6.64759795905163031193e+00) (56, -4.52858829286745390164e+00) (57, -1.16464585203655235368e+00) (58, 3.73229744794182760614e+00) (59, -6.09787689523157183658e+00) (60, -4.45582263211868578878e+00) (61, -6.07548330580377937693e-01) (62, 2.99328775575732608516e+00) (63, 2.40391495030455848436e+00) (64, 8.25891249815531125478e+00) (65, -4.08164149910430484880e+00) (66, 4.01567480017639866219e+00) (67, 6.87080325957329396402e+00) (68, -4.35335515824200403046e+00) (69, -2.29975657053687942977e+00) (70, -2.90226307911618164326e+00) (71, -2.22167167575422341841e+00) (72, 4.11498952593106093190e+00) (73, -6.44295032812418178025e-01) (74, -2.01268892429510204423e+00) (75, 4.24023543183906947984e-01) (76, 7.25982000513409353459e+00) (77, 5.12057736144109831855e+00) (78, 2.91243347702503996288e+00) (79, -1.72130049376608540435e+00) (80, 1.23306245996534236120e+00) (81, -1.68833092219076275065e+00) (82, -3.79334172737513908302e+00) (83, -7.78922182443015120867e+00) (84, 2.34363628628136588805e-01) (85, -1.29684080781293054052e+00) (86, 9.41287387729705038453e+00) (87, 3.52790399733048198883e+00) (88, 2.94392262788219438718e+00) (89, -1.31362521559646197034e+01) (90, -3.11006472378780784993e+00) (91, 4.52630515077076900354e+00) (92, -1.73224671389826156975e+00) (93, -7.00672566891288894908e+00) (94, 8.91788976090993656953e+00) (95, -1.96865282452688861170e+00) (96, -3.11583626726832108034e+00) (97, 2.66564138064261414718e-02) (98, -3.97032412485532404389e+00) (99, 4.66831695931405921129e+00) (100, -4.01300607820663834957e+00) (101, -2.05429903416871784128e-01) (102, 3.97061166692694822444e+00) (103, -2.77291570013995791744e-01) (104, -1.47783868409205720873e+00) (105, -5.86566845755032817422e-01) (106, 8.49494497484181820823e+00) (107, -1.60883135144255930982e+01) (108, 5.66411158651525958874e+00) (109, -3.80375969013617787340e+00) (110, -1.55276271339881510869e+01) (111, -9.58038655145575646088e+00) (112, 5.13425699014919612040e+00) (113, 3.56456271860768669768e+00) (114, -3.06386180015503084562e+00) (115, 6.14340618592972731449e+00) (116, -7.58983261868773784187e+00) (117, -1.04615557786641684146e+01) (118, -2.14710409083540820774e+00) (119, 6.49487241256111147436e+00) (120, 1.02478137942282483408e+01) (121, 4.38782223776127633386e+00) (122, -9.91714317568467684794e+00) (105, -3.62030394496204310784e+00) (106, 1.21792626324649457814e+01) (107, 1.06036563008162172395e+01) (108, -6.56875211316050044985e+00) (109, 4.38144218435819909896e-01) (110, 8.82596808766981433259e-01) (111, 8.06110073643612956573e+00) (112, -6.44537388320931015073e+00) (113, 9.71349536954474146455e+00) (114, 9.07504715298480313379e+00) (115, 7.06770520693520953870e+00) (116, -9.62487998749305440072e+00) (117, -8.28510377608177250863e+00) (118, -6.54739206523830308271e+00) (119, -1.36787249821026417607e+01) (120, -7.44890896213778685997e-01) (121, -4.98846037345353376935e+00) (122, -1.68141432569391895413e+01) (105, -1.22816398275271474461e+01) (106, -8.77255318835266173494e+00) (107, -2.29930966691189597739e+00) (108, -2.09102790613011535470e+00) (109, 1.50908866067598363969e+01) (110, -1.11323981886788070383e+00) (111, 5.91533677039001171138e-01) (112, 3.09072551398695161140e+00) (113, 5.40164228647381783333e+00) (114, -2.11850251871949279980e-01) (115, 1.97267452060620773757e+00) (116, 4.30545827397808555936e-02) (117, -5.64466296657460286923e+00) (118, -2.02054529412919983145e+01) (119, -1.92967342600346611903e+01) (120, 5.65004091684305098653e+00) (121, -3.40874730935323111414e-01) (122, -4.82128509088280043926e+00) (105, -5.64585906845779383900e+00) (106, -7.13570185393378864092e+00) (107, 1.01980177817956381148e+01) (108, -1.50832137251526017252e+01) (109, -3.03316615503471576076e+00) (110, -2.62323345414836317513e-01) (111, -9.27686087853435026318e+00) (112, -1.37587070738292438499e+00) (113, -4.53443066847538922559e+00) (114, 1.90803116885672743308e+01) (115, -8.29095126381952063355e+00) (116, 3.11510670390730037838e+00) (117, -6.64967160296072989922e+00) (118, 4.07760634559285950473e+00) (119, 3.07191116011148723786e+00) (120, 8.22558620383713012814e+00) (121, -8.43039794615144622014e+00) (122, -6.40585642728365378673e+00) (105, -1.35983192203595102399e+01) (106, -5.71155735720774959674e+00) (107, -4.78824620003376200117e+00) (108, -2.51605408239485406341e+00) (109, -9.94711825318421638542e+00) (110, -4.66309029877362934968e+00) (111, 1.01206032388085613860e+01) (112, 5.72035674475047795084e+00) (113, -8.29876045892043889829e-01) (114, 6.56770257518867683899e+00) (115, 1.82639799464423080444e+00) (116, 4.38931461494026287085e-01) (117, 5.39801261394706521912e+00) (118, 1.54864129893540862781e+01) (119, 8.04478487995094582175e+00) (120, -1.10008609112093314053e+01) (121, -3.21986065269609245121e+00) (122, -1.68689248622564562652e+01) (105, -9.90153819295221815366e+00) (106, 2.40850301321321280668e+00) (107, -1.06942008170650559862e+01) (108, -4.44025507705645083867e-01) (109, -2.80289066767220829135e+00) (110, 2.40928742057549127864e+00) (111, -1.27691893335826414102e+01) (112, 7.74003971881964458746e-01) (113, 1.46381116901162684485e+01) (114, 3.93030447281763128942e+00) (115, 2.31640062670684887536e+00) (116, -3.82079721613428668903e+00) (117, -2.92067191226832045814e+00) (118, 4.59176765493503769022e+00) (119, -9.18056873775482529254e+00) (120, 1.55214945530432686382e+01) (121, -7.09325788799354484127e+00) (122, -9.65784205524878558435e+00) (105, -1.54392909599144676491e+01) (106, -4.38131907807351694828e+00) (107, -5.99862510742585719470e+00) (108, -3.91093416406310678823e+00) (109, 1.39534524110611677372e+01) (110, -1.37561525396290011969e+01) (111, -7.15897144477110947136e-01) (112, -4.50253693929718323830e+00) (113, 1.22919957932900469899e+01) (114, -1.30409278879948442587e+00) (115, 3.96123940581756306401e+00) (116, 1.88561980996411371336e+00) (117, 2.16797759208242046824e+00) (118, -4.02874997889768149406e+00) (119, 7.92000670689519381540e+00) (120, -1.21350164407408223077e+00) (121, 9.51999152162545847489e+00) (122, -1.54749150545949394342e+01) (105, -1.93750893437026086019e+01) (106, 1.37172305415115514116e+00) (107, -2.98203636166598018420e+00) (108, -1.27892670909502896848e+01) (109, 1.67181870712842517435e+01) (110, 6.22557523315560423782e+00) (111, 1.07691812304123857302e+01) (112, 3.56717876265362043853e+00) (113, -1.10398245338143463634e+00) (114, -3.34197084839832436742e+00) (115, 3.00274412293993009371e+00) (116, -3.55966089090928949901e+00) (117, -1.58094241643873956171e+00) (118, -9.67297894688454285017e-01) (119, -4.66032762234462083484e+00) (120, -3.57842459353263109278e+00) (121, -1.91164143045931176346e+01) (122, -1.20545348653216333190e+01) (105, 2.35646180159074569715e+00) (106, -6.27246955214310619731e-02) (107, -3.40681332764764910337e+00) (108, -9.91202063112386966282e+00) (109, -1.22992401610687114299e+01) (110, -1.15885452622224449648e+00) (111, -1.30246861065252694800e+00) (112, -1.68957212674936307906e+00) (113, -1.84650256794112899161e-01) (114, -4.71356479630534241920e+00) (115, -5.48682168303624528960e+00) (116, 4.20597027098869791217e+00) (117, -2.17530174903629607286e+01) (118, 1.40033767139480200825e+01) (119, 7.79227518318338141512e+00) (120, 7.37793017374079429516e-01) (121, -1.66039902709615958543e+01) (122, 2.50591006633306845330e+00) (105, 5.42684638853230350009e+00) (106, -1.46316517433426405148e+01) (107, 3.90546394204150992824e-01) (108, 5.29142914077439208143e+00) (109, -5.43807167966212912091e+00) (110, -2.54304654548459874164e+00) (111, 1.13711836639046737218e+01) (112, -7.35868663453233473604e+00) (113, -2.47014824434080537685e+00) (114, -5.90881628732724806241e+00) (115, 1.47916243913037224189e+01) (116, 5.05049565353121376887e+00) (117, -2.42049779017454769203e+00) (118, 6.89873417912105946215e+00) (119, -1.48572335692648476169e+01) (120, 7.31177235444560214006e+00) (121, 8.09470060913976752204e+00) (122, -1.96210930470019988547e+01) (105, -1.84421883739674434821e+01) (106, -9.37922578268092621556e+00) (107, -6.21639272512083507216e-01) (108, 1.81330003766490577277e+01) (109, -4.47855605545063006900e+00) (110, -4.68933648261384616873e-01) (111, -3.31233733682347919469e+00) (112, -1.98634877916467278425e+00) (113, -5.57365867547606530508e-01) (114, 4.16605371683148639761e+00) (115, 2.29130915192289313920e-01) (116, 6.98723561315854002629e+00) (117, 9.50720149385773871664e-01) (118, -2.00599637049599728300e+01) (119, 2.24898782694021459605e+00) (120, -5.91503856864778665425e+00) (121, -1.01067260308036637184e+01) (122, -1.23749737348913324553e+00) (105, 7.59502927797240001695e+00) (106, 1.17641214911546079236e+01) (107, -6.24514657938640471713e+00) (108, -3.17617831645339476765e+00) (109, -1.54803175946373219318e+01) (110, -1.70324067841563620007e+00) (111, -4.39845476192201989551e-01) (112, -9.09529365321123273169e-01) (113, 3.65796532068353663636e-01) (114, 1.25738736147019327660e+01) (115, 1.50585777435410328451e+01) (116, -6.82986728049602742630e+00) (117, 4.66134377100104391189e+00) (118, -3.68591374118402814730e+00) (119, -1.19084429454363682765e+01) (120, -6.89338087898556040045e+00) (121, -2.91482408486806710002e+00) (122, -1.20713212877640110321e+01) (105, -1.59088209748462841020e+01) (106, 1.04414776291814739295e+01) (107, 5.14804176608065100496e-01) (108, 8.29197053177965992532e-01) (109, -7.94892197992829263598e+00) (110, -1.23882214784065123325e+01) (111, 1.21505249140289333099e+01) (112, -2.20369658600957549766e+01) (113, -4.37090037956104016104e+00) (114, 7.68822187462720396667e+00) (115, -6.92613719958429996382e+00) (116, 3.72850306847186274695e+00) (117, -7.84696622344027083784e+00) (118, 2.76444787416941029079e+00) (119, 5.57391228703549934664e+00) (120, -4.67820610043050422178e+00) (121, 3.37069769369170990636e-01) (122, -3.46231600254447791087e+00) (105, 2.63060809121172933800e+00) (106, -2.60918403478274374407e+00) (107, 5.03046777291424351830e+00) (108, -9.94292934803966765855e+00) (109, 1.79028961306632652395e+01) (110, -5.17806585658037055175e-01) (111, 1.10270511710439178543e+00) (112, 8.72970870464432913138e+00) (113, -6.34409114145731312107e+00) (114, -1.08879206785724136353e+01) (115, -5.56409867422646797763e+00) (116, -7.05186241451780126965e+00) (117, -6.16031176079850428806e+00) (118, 3.38029538745108082409e+00) (119, -1.28930649376929533645e+01) (120, 3.26598741405387293923e+00) (121, -1.74760156744583206034e+01) (122, -5.77811607158038231802e+00) (105, 7.11859808662216142494e+00) (106, 5.81232278712182459657e+00) (107, -4.72143630789076951260e+00) (108, 1.82790293516925528294e+00) (109, 8.99593550819338894087e+00) (110, -4.48670993439205745279e-01) (111, -8.73805293380878111975e+00) (112, 4.50457838275908706294e+00) (113, -1.92093659476706619671e+01) (114, 6.64896046117685157739e-01) (115, 7.54973763259667762782e+00) (116, 1.84606024289363794821e+01) (117, -1.03616623057385233153e+01) (118, 4.91824244524655562749e-01) (119, 5.95085874746577214722e+00) (120, -4.67980265941813922126e+00) (121, 5.76859788910373261217e-01) (122, -1.85500379371532453376e+01) (105, 9.00277301546270081190e+00) (106, 1.00285490521633535721e+00) (107, 5.62815378321909864923e+00) (108, 4.73423697003597609978e+00) (109, -1.26317429936335816620e+01) (110, 2.39205896209531676533e+00) (111, 7.95274789523230940524e-01) (112, 3.10811628826618724375e-01) (113, 1.20282928457844899839e+01) (114, -2.20982686639349630298e+01) (115, 5.59494233229139759089e+00) (116, -1.16258175523720144184e+01) (117, -4.47684708415883314547e-01) (118, -4.70900246220145568543e+00) (119, 7.13809282103696762789e+00) (120, 1.06776401966792580112e+01) (121, 7.25645580367711939829e+00) (122, -2.02314959991053591182e+01) (105, 7.46308487618767468774e+00) (106, -3.40825648293688843182e+00) (107, 2.31059629372302344219e-01) (108, -1.02304726532073164691e+01) (109, -1.73402623924029009039e+00) (110, -2.35576601264504859046e+00) (111, 1.81087005326841357089e+01) (112, 1.41752090264109877893e+01) (113, -5.86891952591896437497e+00) (114, -1.30985714101926298270e+01) (115, -5.00704215666984886468e+00) (116, 8.03724651838039783058e+00) (117, -2.51290354483078859360e+00) (118, 8.33934900925541633399e+00) (119, 2.08273009919645568644e+00) (120, -9.31929979013349552019e+00) (121, 1.87382138586625890397e+00) (122, -2.08779302612679700246e+01) (105, 7.26612875678058944828e+00) (106, 7.72035617178708299946e+00) (107, -7.70392431977315261804e+00) (108, -5.79289883784590386995e+00) (109, -3.87360351249535517226e+00) (110, 1.72490981596859747071e+01) (111, -9.56360704064984079587e-01) (112, -1.02530295372451796254e+01) (113, -1.32724259715943961879e+01) (114, -3.41244989770689111097e+00) (115, -1.32853905158334804071e+01) (116, -4.07967036074397970680e+00) (117, -6.93229737295305792344e-01) (118, 8.83246354483803663982e+00) (119, -8.74103408303653495182e+00) (120, 2.95966127184011718043e+00) (121, -4.87650162590237912230e-01) (122, -1.00149844329379913432e+01) (105, -6.29159488184556447976e+00) (106, 5.33906485852654277835e+00) (107, -1.23094719913760961560e+01) (108, -1.98002645864529935871e+00) (109, -1.35809830534863396068e+00) (110, -1.41085021040265967684e+01) (111, 8.71543815931665477592e+00) (112, -1.09734979865783319752e+01) (113, -4.09280482076719653861e+00) (114, -1.27496522301160410962e+01) (115, 6.71373539151230858124e+00) (116, -8.38473306220748115791e-01) (117, 2.41668543682003766904e+00) (118, 1.43554306021294966200e+01) (119, -1.01804177330310427485e-01) (120, -1.80501349561077217842e+00) (121, -1.42485835100034083922e+01) (122, -2.03818883049945220876e+00) (105, -2.14684549945482983091e+00) (106, -6.46298830633008636326e-02) (107, 4.97915888228585323816e+00) (108, 1.71248356488603015180e+01) (109, 4.03605945748734928902e-01) (110, -1.11213839142430703788e+01) (111, 3.15219669640631128260e+00) (112, 9.33718183120826239474e+00) (113, -1.77515007563344653363e+01) (114, 6.48013420051634803087e+00) (115, -1.40375198189761078993e+01) (116, 1.97112711279976093870e+00) (117, -1.21953010860232091694e+00) (118, 7.55221513922094533910e+00) (119, 5.91870929180931604208e+00) (120, -6.32452716381833024428e+00) (121, -6.38696694662514197205e+00) (122, -1.71854146758351831181e+01) (105, -6.21720409348938352068e-01) (106, -8.58224001882166831479e+00) (107, 2.99062757969762005317e+00) (108, 4.09393272777450345501e+00) (109, 6.37163257423772400045e+00) (110, 9.73075170945123346655e+00) (111, 7.14032647539105891354e+00) (112, 8.54097684917026533924e+00) (113, -1.72265771050888254479e+01) (114, -3.59599631436477462643e+00) (115, -8.46375230112253085224e+00) (116, 5.43198658154124602859e-01) (117, -1.78215556351902506549e+01) (118, -1.11451181529519711688e+01) (119, 1.05333921518219422730e-01) (120, -2.82068864436197178081e-02) (121, 1.28326944052374525285e+01) (122, -1.24136051068237875938e+01) (105, -3.81041909425726998961e+00) (106, 1.92320997548211436445e+00) (107, 7.11216289231901210854e+00) (108, -1.51101448179212449752e+00) (109, -2.11389469260933360317e+00) (110, -2.31140146335150831192e+01) (111, 6.48444128803854802356e+00) (112, 6.94841181659416551319e-01) (113, -7.89754484845612925170e+00) (114, -4.90166908488609198713e+00) (115, -2.40495608034271324271e+00) (116, 8.07342214514223321942e+00) (117, 6.24573676395522348059e+00) (118, -5.11921629017738499812e+00) (119, -1.28362512212883785878e+01) (120, 1.15693167814523025783e+01) (121, -7.87442248003159672720e+00) (122, -6.50302824557783409887e+00) (105, -1.79869510338824878382e+00) (106, 3.16112651128786570354e+00) (107, 3.14791383949365344286e-01) (108, -8.87352359384125222164e+00) (109, -6.12710033479706250858e+00) (110, 2.88807404746832085962e+00) (111, -7.47712647932102303372e+00) (112, 9.16394887502231014764e+00) (113, 6.00228823004790434936e+00) (114, 8.46017628254996090220e+00) (115, 1.05724315591111501789e+01) (116, -7.69022847095224104663e+00) (117, 2.38369801731289499003e+00) (118, -1.05763619951941922892e+01) (119, -2.37066213100087219701e+00) (120, -1.45465646346349686269e+01) (121, -1.53002506190734361979e+01) (122, -7.45459964582832235180e+00) (105, 4.73976451024604461537e+00) (106, 3.50371680098413262883e+00) (107, -1.07027493199766094989e+01) (108, 8.69451829445646673378e+00) (109, -1.77447943216298362756e+01) (110, 3.79470476521038646567e+00) (111, 7.59589776144310047101e+00) (112, -2.38955357823872809320e+01) (113, 1.72659769108785332570e+00) (114, -1.24073406116219882023e+01) (115, 4.78204669781748670232e+00) (116, -3.84322092631833367449e+00) (117, 9.55019541452462594755e-01) (118, -5.99764283484531102175e+00) (119, 6.81558688543400736926e-01) (120, -1.21648708308789395005e+01) (121, -1.52646551743413927404e+00) (122, 1.47156523244353532043e+00) (105, 9.47144737846500639478e+00) (106, -1.81914111831031171107e+01) (107, 4.10455957225856504778e+00) (108, 4.56937323357891500564e+00) (109, 3.50805349211408767918e-01) (110, -4.41770929709455639767e+00) (111, -1.44600105071187030603e+01) (112, -8.47872596145358592423e+00) (113, -1.05120234108926746686e+00) (114, -1.63314965618296253913e-01) (115, -1.67340663833940372918e+00) (116, -1.39556410187801667178e+01) (117, 2.14175377102449182587e+00) (118, 3.52970045323829362260e+00) (119, 2.64329550842352434259e-01) (120, 8.31805085166926438944e+00) (121, 1.62541957690151193106e+01) (122, -1.24789791770029498963e+01) (105, -4.49787607758649965461e+00) (106, 6.50698257074361841035e+00) (107, 5.77415895984343663372e+00) (108, 1.62242846552470432187e+00) (109, -1.38802546937032578178e+00) (110, 3.12525805904033759930e+00) (111, 1.65956615842626078461e+01) (112, -2.78811465315361273198e+00) (113, 9.42222014096787319204e+00) (114, -1.04717968645728447541e+01) (115, -1.15656512532446065222e+01) (116, -1.66506660379885680356e+01) (117, -1.21974593118755443300e+01) (118, -4.74613366561894611806e+00) (119, 4.50233735490746855845e+00) (120, -4.73279741006521170732e+00) (121, -1.19264572977780840546e+01) (122, -4.18204160424663751172e+00) (105, 9.04214317901232966790e-01) (106, 5.25083345870595241678e+00) (107, 6.70630379512200214265e+00) (108, 6.62197415198312100415e-01) (109, -1.68989833027980012048e+01) (110, -1.90386894322102406818e+00) (111, -1.28944340067938956196e+01) (112, -3.72239397363319524104e+00) (113, -4.62180195472834220993e+00) (114, 2.30373114697674719054e+00) (115, -9.16420978847616041207e+00) (116, -1.14116322774110781069e+01) (117, -2.58451787411274791495e+00) (118, 3.02898075923653964381e+00) (119, -5.66081040135291413407e+00) (120, -1.38869309401961729122e+01) (121, 1.25333284715629744710e+01) (122, 2.21161296909890037199e+00) (105, 7.50855830385123468318e+00) (106, 3.61339361103961520527e+00) (107, 1.78812209366359624596e+01) (108, -1.37019904585802638763e+01) (109, 3.71782850925932040198e+00) (110, -6.45280847508001720314e+00) (111, -9.17981442294849614427e+00) (112, 4.20852556217641016190e+00) (113, -7.73277171531903206869e+00) (114, -1.34546619156913624948e+01) (115, 1.51863020101504133663e+01) (116, -9.39549369471332695980e+00) (117, -4.58400872609802600977e+00) (118, 2.35909546707277995026e+00) (119, -1.79251351382139989532e+00) (120, -7.74557165374640099742e+00) (121, 3.85354980987171291673e+00) (122, -8.09765439667297748372e+00) (105, -1.39468109400646134155e+00) (106, -1.44459366747845718848e+00) (107, -1.28279228745091922193e+00) (108, -1.35171661601325054924e+00) (109, -1.64483707355168973230e+00) (110, -1.53351260130599675868e+00) (111, -1.17758599526288576520e+00) (112, -1.49535890486384914766e+00) (113, -1.24345430206568319242e+00) (114, -1.26911424973917030812e+00) (115, -1.18561543307617700549e+00) (116, -1.42056079070034768641e+00) (117, -1.29590271061847617240e+00) (118, -1.38079453710606037120e+00) (119, -1.23578380332442105960e+00) (120, -9.96726156658940820599e-01) (121, -1.44381609687692358257e+00) (122, -4.93143686997463248645e+00) (105, -2.21124011686795407527e+00) (106, 5.51480081207781491770e+00) (107, 6.31451810457048345882e+00) (108, -9.56243076097992528162e+00) (109, 2.97441138662415038851e+00) (110, -3.52145781745575731092e-02) (111, -1.52994260807763335919e+01) (112, 1.55395637389907701476e+01) (113, 8.60637122430326506617e+00) (114, -1.48040154064416218382e+00) (115, -8.63304679189460166810e+00) (116, -1.04271971208254665697e+01) (117, 1.87959661910184316902e+00) (118, -1.69092851879935786030e+01) (119, 5.57789236790273790234e+00) (120, -1.69117206771498409523e+01) (121, -5.68210969274480248714e+00) (122, -4.74356424434954693226e+00) (105, -5.99009530291070912966e+00) (106, 8.12744643046118575569e+00) (107, -1.16527746083275101086e+01) (108, -9.05018332434261019159e+00) (109, -3.36473173969542260764e+00) (110, -1.08897944064248637375e+01) (111, 2.29571424550303682111e+00) (112, 2.19815177793481897339e+00) (113, 7.62108590619196402116e+00) (114, 1.39633868114703716401e+01) (115, -5.12777759760201412575e+00) (116, -5.99491353455926567761e+00) (117, -3.85884806566585014664e+00) (118, -6.18291466781261789265e-01) (119, 7.50033414869047643236e+00) (120, 9.28552737690973195583e+00) (121, 3.07987703566628656660e+00) (122, -1.56569764646138587239e+01) (105, -1.92335236817069848980e-02) (106, -1.48735418815165107986e+01) (107, -1.16789694101138952220e+01) (108, 3.63534451317766027501e+00) (109, -4.03292817549157600610e+00) (110, -5.80594290958271930236e+00) (111, 8.17855867539876513206e+00) (112, 1.18804122250050858689e+00) (113, -7.32239884130137186347e-01) (114, -5.82131615679150193898e+00) (115, 4.06165035993558376504e+00) (116, -3.64312979218700183637e+00) (117, 2.39476056723560759565e+00) (118, -1.18568685421182280493e+01) (119, 4.55574031662271927701e+00) (120, 2.89737529798776316525e+00) (121, -9.37585739904078074858e+00) (122, -2.51545911018080969868e+00) (105, 4.70173547400758362613e+00) (106, 6.79877547195710896233e+00) (107, 1.34369701246410127027e+01) (108, 1.02041920757528377095e+01) (109, -3.70570382758110650201e+00) (110, -1.13088130160928752588e+01) (111, -1.64829600103950859591e+01) (112, -1.53694783909367611585e+01) (113, -3.70498053566853169372e+00) (114, -1.88312700973719815423e+00) (115, -6.60586944837645351214e+00) (116, 5.43305947549399625984e+00) (117, -2.43006645346297700527e+00) (118, 1.25589744775467000437e+01) (119, 5.77225153684299607804e-01) (120, 3.66402427783912321146e+00) (121, -2.18041523272310611148e+00) (122, -1.61532333048567622313e+01) (105, 1.13190081658375274465e+00) (106, 8.61135459008349712917e+00) (107, -1.63494092305214806515e+01) (108, 1.50829705509979716815e+00) (109, -6.11710509177906924805e+00) (110, -5.39339357282181985909e+00) (111, 1.17425207248339602550e+00) (112, 1.01015293915402826208e+00) (113, 1.57532154353700026839e+00) (114, -4.70938923397133368809e+00) (115, -7.80082805083655728140e+00) (116, 4.42888602229633399077e+00) (117, 1.51851378269013572719e+01) (118, -8.47290191883503673864e+00) (119, 1.46033745491991542309e+01) (120, -4.84303025415128640674e+00) (121, -2.60113352880574444370e+00) (122, -1.42584743886749141240e+01) (105, 1.79107730361705796973e+00) (106, 6.31646232162260101717e+00) (107, -6.57129901156802898043e+00) (108, -1.32064243343746277048e+01) (109, -1.16969802944581715565e+01) (110, 5.95143881171699273835e+00) (111, 1.03312212718984426374e+01) (112, -1.32498721062029733986e+01) (113, -2.42124816441582679793e-01) (114, 3.29027312627116685917e+00) (115, 1.16917228538849222730e+01) (116, 4.79093291307064372830e+00) (117, 1.30115272690181926762e+00) (118, -1.52342403142062536858e+01) (119, 6.83250773765080920974e-01) (120, 3.97147055937160464723e+00) (121, -1.11018453528094926952e+01) (122, -9.01896730415247915857e+00) (105, -1.59393943969066604893e+01) (106, -1.29867659344016370682e+01) (107, 5.41005987675123645175e-01) (108, -1.15619682889525758895e+01) (109, -7.78290442511229851874e+00) (110, 9.22532403185244653798e+00) (111, -1.46714177549345485829e+01) (112, -7.78005272215276200143e+00) (113, -1.32553314723939302811e-01) (114, 8.54038085666170410093e+00) (115, 1.52225543958978377646e+01) (116, 1.10650983899552968204e+00) (117, -7.17896821992540346002e+00) (118, 3.09673858223164222281e+00) (119, -3.88480683190474307409e+00) (120, -6.04275339741716255304e+00) (121, 2.16524458238671613231e+00) (122, 1.73744907328694275783e+00) (105, 2.54622150780269596027e+00) (106, -1.41944260837287461463e+00) (107, -1.54522012033048916635e+01) (108, 2.96195633596661433984e+00) (109, -4.20260030780402027428e-01) (110, -1.41443447607341106220e+01) (111, -2.19163167647514214309e+01) (112, -1.28190289656316558364e+01) (113, -7.72274199758917045955e+00) (114, -4.12894292496440051821e+00) (115, -9.05430717799206519203e+00) (116, 9.04722814194475688510e+00) (117, 5.73192723101651147033e+00) (118, -3.82733702703050848726e+00) (119, 1.11745976340573260899e+00) (120, 6.57827528068222289193e+00) (121, -5.44055177977636628128e+00) (122, 8.20882639601025765330e+00) (105, 4.09015844209918488783e-01) (106, -7.60240674014833306416e+00) (107, 6.85351173070233965490e+00) (108, 7.30365545633239188206e-01) (109, 6.80081624769708081857e+00) (110, -4.66792364660701775136e+00) (111, 2.58109476143697058603e+00) (112, -1.14542987695320359620e+01) (113, -1.01148416492766894947e+01) (114, -8.19595646563266555518e+00) (115, -6.48477110184422311789e+00) (116, 6.53401015588519573640e+00) (117, 5.78896090638512017534e+00) (118, 4.05506013166909351497e+00) (119, 1.66175329545859695735e+00) (120, -1.61443737525040447167e+01) (121, -1.08873048925931144026e+01) (122, -5.88606481045623386450e+00) (105, -5.60844588543916611201e-01) (106, -1.18074929460295567907e+01) (107, -1.94091594105042695162e+01) (108, 1.35028392724400259084e+00) (109, -2.46103136560582314019e+00) (110, 1.51289080045764556814e+00) (111, 3.97887900957452966821e+00) (112, 5.27070471845763321994e+00) (113, -9.17082678396288542011e-01) (114, -9.69503705626016376584e+00) (115, 2.74684853232727821393e+00) (116, 2.16008940425664697216e+00) (117, 6.64027279660314473375e+00) (118, 6.22505929028064297626e+00) (119, -1.40481416260716969191e+01) (120, -1.69602042267992310087e+01) (121, 1.15797756922512782296e+01) (122, -7.37457260873232822718e+00) (105, 7.94019239380867425382e+00) (106, -1.29862434744142518639e+01) (107, -2.49354335098523982595e+00) (108, 6.13671511350607534752e+00) (109, 3.64303781841308182976e+00) (110, 5.38227392640672519519e+00) (111, 3.03940857058162094972e+00) (112, -1.78974158367317559559e+00) (113, -7.39615777609723146213e+00) (114, 1.10047337618252676350e+01) (115, -2.81651573438764435409e+00) (116, 7.24586500768818986273e+00) (117, -1.65756083429445872923e+01) (118, -3.38696179285805198944e+00) (119, 7.55924885218774655904e-01) (120, -5.30003762106115861030e+00) (121, -1.17419448871889660069e+01) (122, -1.07869360912984024736e+01) (105, -1.87288856061333390812e+01) (106, -6.89996930035231681444e+00) (107, -1.25572276615444273773e+01) (108, -4.00685556988994395766e+00) (109, -2.71511863998432145806e+00) (110, 7.40841884277060214181e-01) (111, 1.28266690573516619622e+01) (112, -8.95354624296415657625e+00) (113, 1.00147019981629537000e+01) (114, -4.47083093739643810949e+00) (115, 3.23965949114287221633e+00) (116, -7.57577726232888259972e+00) (117, -8.46682476899043301444e+00) (118, -1.70668790008261304081e+01) (119, -5.47884729702827399933e+00) (120, 4.05553452979583628490e+00) (121, 1.10546272141598453942e+01) (122, 1.88731654663961978535e+00) (105, -3.88579153996977089136e+00) (106, -7.77250735168026718469e+00) (107, 1.57824866107868000409e-01) (108, -4.15632978054898671871e+00) (109, -7.53701623198414871752e+00) (110, 4.06074204430398211230e+00) (111, -8.00220557864400916515e+00) (112, 3.92726144470653037999e+00) (113, 2.30666564021213105207e+01) (114, -1.27910029359701322704e+01) (115, -3.88197557541522231261e+00) (116, 7.40323795103424764363e+00) (117, -9.25257990264219820631e+00) (118, -3.57435754994745646940e+00) (119, -4.46478361035450799221e+00) (120, -1.23003523700482144676e+01) (121, 1.24514135882726364457e+01) (122, -5.27559125747464729983e+00) (105, 3.86457874865427220001e+00) (106, 6.60550793773438504886e-01) (107, 1.33639312939884513654e+00) (108, 7.46287811561214020628e+00) (109, 1.59706453857511809780e+00) (110, -1.53672391583365932632e+01) (111, -1.28642727117994244423e+01) (112, 6.87176432375108081629e+00) (113, -9.31385578606618191877e-01) (114, -4.52981696195104799330e+00) (115, 1.03253241880984969470e+01) (116, 3.83308001985906265929e+00) (117, -5.73144000622960714253e+00) (118, 3.73393933311437153932e+00) (119, -1.55872142579747485769e+01) (120, -1.41533113135627015566e+01) (121, 4.54299411903926486644e+00) (122, -1.05311758148050866879e+01) (105, -1.31250653084511803570e+01) (106, 1.64191617980296662438e+01) (107, -6.22355447114242377182e+00) (108, 1.08720714615215174881e+00) (109, 9.92716189748976796103e-01) (110, -3.90424031087821032937e-01) (111, -9.86909233241885353038e+00) (112, -6.09989544376672121473e+00) (113, -1.08120517434207830121e+01) (114, 1.87183042319339421056e+00) (115, -1.06939526645966420659e+00) (116, -7.77750123000226878389e+00) (117, 1.52266559658448290548e+01) (118, -2.58151531976476311669e+00) (119, -1.65993300940767483098e+01) (120, 1.72424609780067106257e+00) (121, 5.16838832643418655266e+00) (122, -8.66589162581468563928e+00) (105, 3.30453464544074426712e+00) (106, 1.05614704053966175223e+01) (107, 7.27686029156964586662e+00) (108, -6.13277157676869855152e+00) (109, -6.94841507426874754882e-02) (110, 1.13091432839062147053e+01) (111, 2.53193537633685306076e+00) (112, 4.82403476369944961277e+00) (113, -1.51316614135741307479e+01) (114, 1.16729719074691740133e+00) (115, -1.39768105720532833658e+01) (116, 1.33345258796852528249e+00) (117, 9.61085324571803489846e+00) (118, -2.03596546987719833055e+01) (119, 2.12141174205252536211e+00) (120, 8.15792790067520101616e+00) (121, -2.16080093023848540668e+00) (122, -2.16402834334961085005e+01) (105, 1.08506397279415054413e+01) (106, -2.42827607349988987551e+01) (107, -7.08825134547605539836e+00) (108, -5.65900127730924484837e+00) (109, -3.68186429304059981149e+00) (110, -1.68513414718455778463e+00) (111, 7.06949406608910257965e-01) (112, -2.24649409226673890672e+00) (113, -6.10379716874728206477e+00) (114, 2.12049561936067165746e+00) (115, -1.83095923717931547969e+01) (116, 4.07605373526002523477e+00) (117, 1.41284169733888322895e+01) (118, -4.69698149979148027455e+00) (119, -1.86780572152260981866e+00) (120, 2.91501993540264292548e+00) (121, -5.81965173679395419981e+00) (122, 5.72549148842316640851e-02) (105, 1.89660249541062375656e+00) (106, -8.38297549465934288548e+00) (107, -2.44697039576440111830e+00) (108, 1.03479328294437866731e+01) (109, 7.86023428369302656904e+00) (110, 2.45261176016562831848e+00) (111, -1.14697239075214270088e+01) (112, 7.35953696988900341047e-01) (113, 4.03106908937352947930e+00) (114, 2.24187281500129964584e+00) (115, -1.32237263795166359870e+01) (116, -1.54972538369569456940e+00) (117, -4.44489620950060615456e+00) (118, 1.10778759966963100680e+01) (119, 1.12415343960282232416e+01) (120, -7.68816598033462295092e+00) (121, -1.47588231004506553745e+01) (122, -1.31481384051044916106e+01) (105, 1.54644009877982213652e+01) (106, -3.06197046074021228534e+00) (107, -9.69579416441968255924e+00) (108, -1.39574323395085642119e+01) (109, -6.14788052732597289918e+00) (110, 9.08447779661521259698e+00) (111, -5.64027841743950042463e-01) (112, 8.41117147030632339444e-01) (113, 8.68312443920715382184e-01) (114, -7.15078666644526084184e+00) (115, 3.27900145110675200755e+00) (116, -2.76386620553245663245e+01) (117, 8.27130685355966477346e+00) (118, 7.99340124556867337446e+00) (119, -7.73098941698202946071e+00) (120, 1.15445345335699989242e+00) (121, 3.24894599344287859921e+00) (122, -5.97162270574616194097e+00) (105, -1.02512386310340630757e+01) (106, -4.02833661966238132379e+00) (107, 4.10213311087405063660e+00) (108, 2.56896694894438004653e+00) (109, 3.49416473831310359088e+00) (110, -1.62987849953270957926e+00) (111, -9.95911763662829407906e+00) (112, -8.69017001117065257532e-01) (113, -8.28619962953282573892e+00) (114, -1.06081636553393092726e+01) (115, 1.09954511861304338183e-01) (116, -4.27237455985043190765e+00) (117, -9.03349319317897081483e-01) (118, 1.91436409006846774972e+00) (119, 1.29288623656243188975e+01) (120, 2.35282675636511946493e+01) (121, -8.73047855032461228575e+00) (122, -1.19124850702808089409e+01) (105, -2.81643361042856188448e+00) (106, -1.60797385831442429804e+00) (107, 1.12959177718608785312e+01) (108, -2.55095169415313094419e+00) (109, 1.44112432778183130466e+00) (110, 1.90528642586332530584e+01) (111, -2.79746460698376742116e+00) (112, -1.03179767490627778415e+01) (113, -5.13630575957051771496e+00) (114, 9.93551302531221303127e+00) (115, -6.71753620555400221548e+00) (116, 1.94577550174821101159e+00) (117, 7.05518907993951582824e+00) (118, 3.60175911414936278376e+00) (119, -1.89600512444673370283e+01) (120, -9.18249169074364068877e+00) (121, 5.01240046618032586423e+00) (122, -1.72071504849858882835e+01) (105, 3.53372634484165198954e-02) (106, -2.08510304656558922431e+01) (107, -1.20057399064320211579e+01) (108, -5.24363610811663960476e+00) (109, 6.08194791197233297630e-01) (110, 4.90859509553907980006e+00) (111, -2.54182109821256396742e+00) (112, -7.42279110248175744147e+00) (113, 2.06954941684604865060e+00) (114, 9.97205290262643551102e+00) (115, -1.33724529941009375733e+01) (116, 1.40498769532076330790e+01) (117, 9.09614946422807157944e+00) (118, -1.30035428653244338193e+01) (119, 7.82132913502805848793e+00) (120, 8.83304847518183944288e-01) (121, 7.05729451289184250840e+00) (122, -9.38493840967580617018e+00) (105, 2.02652057704557098106e+00) (106, 6.11337362378981552524e+00) (107, -1.09205864265270946589e+01) (108, 9.92600151803395291950e+00) (109, 6.10168421014754880360e+00) (110, 1.49473512007163855664e+00) (111, -2.04105248823387458446e-01) (112, 3.74168507787933402042e+00) (113, -7.25462001902617714677e+00) (114, -8.03320491211268716825e+00) (115, 5.01920653659439697236e+00) (116, -6.67624805262557607932e+00) (117, -1.62351868782913300038e+00) (118, 5.48385473687828817191e+00) (119, -7.99466920929221736003e+00) (120, 1.23229775313990810304e+01) (121, 8.43055417349253133352e+00) (122, -2.41960608037105160406e+01) 
