FANN_FLO_2.1
num_layers=3
learning_rate=0.700000
connection_rate=1.000000
network_type=0
learning_momentum=0.000000
training_algorithm=2
train_error_function=1
train_stop_function=0
cascade_output_change_fraction=0.010000
quickprop_decay=-0.000100
quickprop_mu=1.750000
rprop_increase_factor=1.200000
rprop_decrease_factor=0.500000
rprop_delta_min=0.000000
rprop_delta_max=50.000000
rprop_delta_zero=0.100000
cascade_output_stagnation_epochs=12
cascade_candidate_change_fraction=0.010000
cascade_candidate_stagnation_epochs=12
cascade_max_out_epochs=150
cascade_max_cand_epochs=150
cascade_num_candidate_groups=2
bit_fail_limit=3.49999999999999977796e-01
cascade_candidate_limit=1.00000000000000000000e+03
cascade_weight_multiplier=4.00000000000000022204e-01
cascade_activation_functions_count=10
cascade_activation_functions=3 5 7 8 10 11 14 15 16 17 
cascade_activation_steepnesses_count=4
cascade_activation_steepnesses=2.50000000000000000000e-01 5.00000000000000000000e-01 7.50000000000000000000e-01 1.00000000000000000000e+00 
layer_sizes=781 25 53 
scale_included=0
neurons (num_inputs, activation_function, activation_steepness)=(0, 0, 0.00000000000000000000e+00) (0, 0, 0.00000000000000000000e+00) (0, 0, 0.00000000000000000000e+00) (0, 0, 0.00000000000000000000e+00) (0, 0, 0.00000000000000000000e+00) (0, 0, 0.00000000000000000000e+00) (0, 0, 0.00000000000000000000e+00) (0, 0, 0.00000000000000000000e+00) (0, 0, 0.00000000000000000000e+00) (0, 0, 0.00000000000000000000e+00) (0, 0, 0.00000000000000000000e+00) (0, 0, 0.00000000000000000000e+00) (0, 0, 0.00000000000000000000e+00) (0, 0, 0.00000000000000000000e+00) (0, 0, 0.00000000000000000000e+00) (0, 0, 0.00000000000000000000e+00) (0, 0, 0.00000000000000000000e+00) (0, 0, 0.00000000000000000000e+00) (0, 0, 0.00000000000000000000e+00) (0, 0, 0.00000000000000000000e+00) (0, 0, 0.00000000000000000000e+00) (0, 0, 0.00000000000000000000e+00) (0, 0, 0.00000000000000000000e+00) (0, 0, 0.00000000000000000000e+00) (0, 0, 0.00000000000000000000e+00) (0, 0, 0.00000000000000000000e+00) (0, 0, 0.00000000000000000000e+00) (0, 0, 0.00000000000000000000e+00) (0, 0, 0.00000000000000000000e+00) (0, 0, 0.00000000000000000000e+00) (0, 0, 0.00000000000000000000e+00) (0, 0, 0.00000000000000000000e+00) (0, 0, 0.00000000000000000000e+00) (0, 0, 0.00000000000000000000e+00) (0, 0, 0.00000000000000000000e+00) (0, 0, 0.00000000000000000000e+00) (0, 0, 0.00000000000000000000e+00) (0, 0, 0.00000000000000000000e+00) (0, 0, 0.00000000000000000000e+00) (0, 0, 0.00000000000000000000e+00) (0, 0, 0.00000000000000000000e+00) (0, 0, 0.00000000000000000000e+00) (0, 0, 0.00000000000000000000e+00) (0, 0, 0.00000000000000000000e+00) (0, 0, 0.00000000000000000000e+00) (0, 0, 0.00000000000000000000e+00) (0, 0, 0.00000000000000000000e+00) (0, 0, 0.00000000000000000000e+00) (0, 0, 0.00000000000000000000e+00) (0, 0, 0.00000000000000000000e+00) (0, 0, 0.00000000000000000000e+00) (0, 0, 0.00000000000000000000e+00) (0, 0, 0.00000000000000000000e+00) (0, 0, 0.00000000000000000000e+00) (0, 0, 0.00000000000000000000e+00) (0, 0, 0.00000000000000000000e+00) (0, 0, 0.00000000000000000000e+00) (0, 0, 0.00000000000000000000e+00) (0, 0, 0.00000000000000000000e+00) (0, 0, 0.00000000000000000000e+00) (0, 0, 0.00000000000000000000e+00) (0, 0, 0.00000000000000000000e+00) (0, 0, 0.00000000000000000000e+00) (0, 0, 0.00000000000000000000e+00) (0, 0, 0.00000000000000000000e+00) (0, 0, 0.00000000000000000000e+00) (0, 0, 0.00000000000000000000e+00) (0, 0, 0.00000000000000000000e+00) (0, 0, 0.00000000000000000000e+00) (0, 0, 0.00000000000000000000e+00) (0, 0, 0.00000000000000000000e+00) (0, 0, 0.00000000000000000000e+00) (0, 0, 0.00000000000000000000e+00) (0, 0, 0.00000000000000000000e+00) (0, 0, 0.00000000000000000000e+00) (0, 0, 0.00000000000000000000e+00) (0, 0, 0.00000000000000000000e+00) (0, 0, 0.00000000000000000000e+00) (0, 0, 0.00000000000000000000e+00) (0, 0, 0.00000000000000000000e+00) (0, 0, 0.00000000000000000000e+00) (0, 0, 0.00000000000000000000e+00) (0, 0, 0.00000000000000000000e+00) (0, 0, 0.00000000000000000000e+00) (0, 0, 0.00000000000000000000e+00) (0, 0, 0.00000000000000000000e+00) (0, 0, 0.00000000000000000000e+00) (0, 0, 0.00000000000000000000e+00) (0, 0, 0.00000000000000000000e+00) (0, 0, 0.00000000000000000000e+00) (0, 0, 0.00000000000000000000e+00) (0, 0, 0.00000000000000000000e+00) (0, 0, 0.00000000000000000000e+00) (0, 0, 0.00000000000000000000e+00) (0, 0, 0.00000000000000000000e+00) (0, 0, 0.00000000000000000000e+00) (0, 0, 0.00000000000000000000e+00) (0, 0, 0.00000000000000000000e+00) (0, 0, 0.00000000000000000000e+00) (0, 0, 0.00000000000000000000e+00) (0, 0, 0.00000000000000000000e+00) (0, 0, 0.00000000000000000000e+00) (0, 0, 0.00000000000000000000e+00) (0, 0, 0.00000000000000000000e+00) (0, 0, 0.00000000000000000000e+00) (0, 0, 0.00000000000000000000e+00) (0, 0, 0.00000000000000000000e+00) (0, 0, 0.00000000000000000000e+00) (0, 0, 0.00000000000000000000e+00) (0, 0, 0.00000000000000000000e+00) (0, 0, 0.00000000000000000000e+00) (0, 0, 0.00000000000000000000e+00) (0, 0, 0.00000000000000000000e+00) (0, 0, 0.00000000000000000000e+00) (0, 0, 0.00000000000000000000e+00) (0, 0, 0.00000000000000000000e+00) (0, 0, 0.00000000000000000000e+00) (0, 0, 0.00000000000000000000e+00) (0, 0, 0.00000000000000000000e+00) (0, 0, 0.00000000000000000000e+00) (0, 0, 0.00000000000000000000e+00) (0, 0, 0.00000000000000000000e+00) (0, 0, 0.00000000000000000000e+00) (0, 0, 0.00000000000000000000e+00) (0, 0, 0.00000000000000000000e+00) (0, 0, 0.00000000000000000000e+00) (0, 0, 0.00000000000000000000e+00) (0, 0, 0.00000000000000000000e+00) (0, 0, 0.00000000000000000000e+00) (0, 0, 0.00000000000000000000e+00) (0, 0, 0.00000000000000000000e+00) (0, 0, 0.00000000000000000000e+00) (0, 0, 0.00000000000000000000e+00) (0, 0, 0.00000000000000000000e+00) (0, 0, 0.00000000000000000000e+00) (0, 0, 0.00000000000000000000e+00) (0, 0, 0.00000000000000000000e+00) (0, 0, 0.00000000000000000000e+00) (0, 0, 0.00000000000000000000e+00) (0, 0, 0.00000000000000000000e+00) (0, 0, 0.00000000000000000000e+00) (0, 0, 0.00000000000000000000e+00) (0, 0, 0.00000000000000000000e+00) (0, 0, 0.00000000000000000000e+00) (0, 0, 0.00000000000000000000e+00) (0, 0, 0.00000000000000000000e+00) (0, 0, 0.00000000000000000000e+00) (0, 0, 0.00000000000000000000e+00) (0, 0, 0.00000000000000000000e+00) (0, 0, 0.00000000000000000000e+00) (0, 0, 0.00000000000000000000e+00) (0, 0, 0.00000000000000000000e+00) (0, 0, 0.00000000000000000000e+00) (0, 0, 0.00000000000000000000e+00) (0, 0, 0.00000000000000000000e+00) (0, 0, 0.00000000000000000000e+00) (0, 0, 0.00000000000000000000e+00) (0, 0, 0.00000000000000000000e+00) (0, 0, 0.00000000000000000000e+00) (0, 0, 0.00000000000000000000e+00) (0, 0, 0.00000000000000000000e+00) (0, 0, 0.00000000000000000000e+00) (0, 0, 0.00000000000000000000e+00) (0, 0, 0.00000000000000000000e+00) (0, 0, 0.00000000000000000000e+00) (0, 0, 0.00000000000000000000e+00) (0, 0, 0.00000000000000000000e+00) (0, 0, 0.00000000000000000000e+00) (0, 0, 0.00000000000000000000e+00) (0, 0, 0.00000000000000000000e+00) (0, 0, 0.00000000000000000000e+00) (0, 0, 0.00000000000000000000e+00) (0, 0, 0.00000000000000000000e+00) (0, 0, 0.00000000000000000000e+00) (0, 0, 0.00000000000000000000e+00) (0, 0, 0.00000000000000000000e+00) (0, 0, 0.00000000000000000000e+00) (0, 0, 0.00000000000000000000e+00) (0, 0, 0.00000000000000000000e+00) (0, 0, 0.00000000000000000000e+00) (0, 0, 0.00000000000000000000e+00) (0, 0, 0.00000000000000000000e+00) (0, 0, 0.00000000000000000000e+00) (0, 0, 0.00000000000000000000e+00) (0, 0, 0.00000000000000000000e+00) (0, 0, 0.00000000000000000000e+00) (0, 0, 0.00000000000000000000e+00) (0, 0, 0.00000000000000000000e+00) (0, 0, 0.00000000000000000000e+00) (0, 0, 0.00000000000000000000e+00) (0, 0, 0.00000000000000000000e+00) (0, 0, 0.00000000000000000000e+00) (0, 0, 0.00000000000000000000e+00) (0, 0, 0.00000000000000000000e+00) (0, 0, 0.00000000000000000000e+00) (0, 0, 0.00000000000000000000e+00) (0, 0, 0.00000000000000000000e+00) (0, 0, 0.00000000000000000000e+00) (0, 0, 0.00000000000000000000e+00) (0, 0, 0.00000000000000000000e+00) (0, 0, 0.00000000000000000000e+00) (0, 0, 0.00000000000000000000e+00) (0, 0, 0.00000000000000000000e+00) (0, 0, 0.00000000000000000000e+00) (0, 0, 0.00000000000000000000e+00) (0, 0, 0.00000000000000000000e+00) (0, 0, 0.00000000000000000000e+00) (0, 0, 0.00000000000000000000e+00) (0, 0, 0.00000000000000000000e+00) (0, 0, 0.00000000000000000000e+00) (0, 0, 0.00000000000000000000e+00) (0, 0, 0.00000000000000000000e+00) (0, 0, 0.00000000000000000000e+00) (0, 0, 0.00000000000000000000e+00) (0, 0, 0.00000000000000000000e+00) (0, 0, 0.00000000000000000000e+00) (0, 0, 0.00000000000000000000e+00) (0, 0, 0.00000000000000000000e+00) (0, 0, 0.00000000000000000000e+00) (0, 0, 0.00000000000000000000e+00) (0, 0, 0.00000000000000000000e+00) (0, 0, 0.00000000000000000000e+00) (0, 0, 0.00000000000000000000e+00) (0, 0, 0.00000000000000000000e+00) (0, 0, 0.00000000000000000000e+00) (0, 0, 0.00000000000000000000e+00) (0, 0, 0.00000000000000000000e+00) (0, 0, 0.00000000000000000000e+00) (0, 0, 0.00000000000000000000e+00) (0, 0, 0.00000000000000000000e+00) (0, 0, 0.00000000000000000000e+00) (0, 0, 0.00000000000000000000e+00) (0, 0, 0.00000000000000000000e+00) (0, 0, 0.00000000000000000000e+00) (0, 0, 0.00000000000000000000e+00) (0, 0, 0.00000000000000000000e+00) (0, 0, 0.00000000000000000000e+00) (0, 0, 0.00000000000000000000e+00) (0, 0, 0.00000000000000000000e+00) (0, 0, 0.00000000000000000000e+00) (0, 0, 0.00000000000000000000e+00) (0, 0, 0.00000000000000000000e+00) (0, 0, 0.00000000000000000000e+00) (0, 0, 0.00000000000000000000e+00) (0, 0, 0.00000000000000000000e+00) (0, 0, 0.00000000000000000000e+00) (0, 0, 0.00000000000000000000e+00) (0, 0, 0.00000000000000000000e+00) (0, 0, 0.00000000000000000000e+00) (0, 0, 0.00000000000000000000e+00) (0, 0, 0.00000000000000000000e+00) (0, 0, 0.00000000000000000000e+00) (0, 0, 0.00000000000000000000e+00) (0, 0, 0.00000000000000000000e+00) (0, 0, 0.00000000000000000000e+00) (0, 0, 0.00000000000000000000e+00) (0, 0, 0.00000000000000000000e+00) (0, 0, 0.00000000000000000000e+00) (0, 0, 0.00000000000000000000e+00) (0, 0, 0.00000000000000000000e+00) (0, 0, 0.00000000000000000000e+00) (0, 0, 0.00000000000000000000e+00) (0, 0, 0.00000000000000000000e+00) (0, 0, 0.00000000000000000000e+00) (0, 0, 0.00000000000000000000e+00) (0, 0, 0.00000000000000000000e+00) (0, 0, 0.00000000000000000000e+00) (0, 0, 0.00000000000000000000e+00) (0, 0, 0.00000000000000000000e+00) (0, 0, 0.00000000000000000000e+00) (0, 0, 0.00000000000000000000e+00) (0, 0, 0.00000000000000000000e+00) (0, 0, 0.00000000000000000000e+00) (0, 0, 0.00000000000000000000e+00) (0, 0, 0.00000000000000000000e+00) (0, 0, 0.00000000000000000000e+00) (0, 0, 0.00000000000000000000e+00) (0, 0, 0.00000000000000000000e+00) (0, 0, 0.00000000000000000000e+00) (0, 0, 0.00000000000000000000e+00) (0, 0, 0.00000000000000000000e+00) (0, 0, 0.00000000000000000000e+00) (0, 0, 0.00000000000000000000e+00) (0, 0, 0.00000000000000000000e+00) (0, 0, 0.00000000000000000000e+00) (0, 0, 0.00000000000000000000e+00) (0, 0, 0.00000000000000000000e+00) (0, 0, 0.00000000000000000000e+00) (0, 0, 0.00000000000000000000e+00) (0, 0, 0.00000000000000000000e+00) (0, 0, 0.00000000000000000000e+00) (0, 0, 0.00000000000000000000e+00) (0, 0, 0.00000000000000000000e+00) (0, 0, 0.00000000000000000000e+00) (0, 0, 0.00000000000000000000e+00) (0, 0, 0.00000000000000000000e+00) (0, 0, 0.00000000000000000000e+00) (0, 0, 0.00000000000000000000e+00) (0, 0, 0.00000000000000000000e+00) (0, 0, 0.00000000000000000000e+00) (0, 0, 0.00000000000000000000e+00) (0, 0, 0.00000000000000000000e+00) (0, 0, 0.00000000000000000000e+00) (0, 0, 0.00000000000000000000e+00) (0, 0, 0.00000000000000000000e+00) (0, 0, 0.00000000000000000000e+00) (0, 0, 0.00000000000000000000e+00) (0, 0, 0.00000000000000000000e+00) (0, 0, 0.00000000000000000000e+00) (0, 0, 0.00000000000000000000e+00) (0, 0, 0.00000000000000000000e+00) (0, 0, 0.00000000000000000000e+00) (0, 0, 0.00000000000000000000e+00) (0, 0, 0.00000000000000000000e+00) (0, 0, 0.00000000000000000000e+00) (0, 0, 0.00000000000000000000e+00) (0, 0, 0.00000000000000000000e+00) (0, 0, 0.00000000000000000000e+00) (0, 0, 0.00000000000000000000e+00) (0, 0, 0.00000000000000000000e+00) (0, 0, 0.00000000000000000000e+00) (0, 0, 0.00000000000000000000e+00) (0, 0, 0.00000000000000000000e+00) (0, 0, 0.00000000000000000000e+00) (0, 0, 0.00000000000000000000e+00) (0, 0, 0.00000000000000000000e+00) (0, 0, 0.00000000000000000000e+00) (0, 0, 0.00000000000000000000e+00) (0, 0, 0.00000000000000000000e+00) (0, 0, 0.00000000000000000000e+00) (0, 0, 0.00000000000000000000e+00) (0, 0, 0.00000000000000000000e+00) (0, 0, 0.00000000000000000000e+00) (0, 0, 0.00000000000000000000e+00) (0, 0, 0.00000000000000000000e+00) (0, 0, 0.00000000000000000000e+00) (0, 0, 0.00000000000000000000e+00) (0, 0, 0.00000000000000000000e+00) (0, 0, 0.00000000000000000000e+00) (0, 0, 0.00000000000000000000e+00) (0, 0, 0.00000000000000000000e+00) (0, 0, 0.00000000000000000000e+00) (0, 0, 0.00000000000000000000e+00) (0, 0, 0.00000000000000000000e+00) (0, 0, 0.00000000000000000000e+00) (0, 0, 0.00000000000000000000e+00) (0, 0, 0.00000000000000000000e+00) (0, 0, 0.00000000000000000000e+00) (0, 0, 0.00000000000000000000e+00) (0, 0, 0.00000000000000000000e+00) (0, 0, 0.00000000000000000000e+00) (0, 0, 0.00000000000000000000e+00) (0, 0, 0.00000000000000000000e+00) (0, 0, 0.00000000000000000000e+00) (0, 0, 0.00000000000000000000e+00) (0, 0, 0.00000000000000000000e+00) (0, 0, 0.00000000000000000000e+00) (0, 0, 0.00000000000000000000e+00) (0, 0, 0.00000000000000000000e+00) (0, 0, 0.00000000000000000000e+00) (0, 0, 0.00000000000000000000e+00) (0, 0, 0.00000000000000000000e+00) (0, 0, 0.00000000000000000000e+00) (0, 0, 0.00000000000000000000e+00) (0, 0, 0.00000000000000000000e+00) (0, 0, 0.00000000000000000000e+00) (0, 0, 0.00000000000000000000e+00) (0, 0, 0.00000000000000000000e+00) (0, 0, 0.00000000000000000000e+00) (0, 0, 0.00000000000000000000e+00) (0, 0, 0.00000000000000000000e+00) (0, 0, 0.00000000000000000000e+00) (0, 0, 0.00000000000000000000e+00) (0, 0, 0.00000000000000000000e+00) (0, 0, 0.00000000000000000000e+00) (0, 0, 0.00000000000000000000e+00) (0, 0, 0.00000000000000000000e+00) (0, 0, 0.00000000000000000000e+00) (0, 0, 0.00000000000000000000e+00) (0, 0, 0.00000000000000000000e+00) (0, 0, 0.00000000000000000000e+00) (0, 0, 0.00000000000000000000e+00) (0, 0, 0.00000000000000000000e+00) (0, 0, 0.00000000000000000000e+00) (0, 0, 0.00000000000000000000e+00) (0, 0, 0.00000000000000000000e+00) (0, 0, 0.00000000000000000000e+00) (0, 0, 0.00000000000000000000e+00) (0, 0, 0.00000000000000000000e+00) (0, 0, 0.00000000000000000000e+00) (0, 0, 0.00000000000000000000e+00) (0, 0, 0.00000000000000000000e+00) (0, 0, 0.00000000000000000000e+00) (0, 0, 0.00000000000000000000e+00) (0, 0, 0.00000000000000000000e+00) (0, 0, 0.00000000000000000000e+00) (0, 0, 0.00000000000000000000e+00) (0, 0, 0.00000000000000000000e+00) (0, 0, 0.00000000000000000000e+00) (0, 0, 0.00000000000000000000e+00) (0, 0, 0.00000000000000000000e+00) (0, 0, 0.00000000000000000000e+00) (0, 0, 0.00000000000000000000e+00) (0, 0, 0.00000000000000000000e+00) (0, 0, 0.00000000000000000000e+00) (0, 0, 0.00000000000000000000e+00) (0, 0, 0.00000000000000000000e+00) (0, 0, 0.00000000000000000000e+00) (0, 0, 0.00000000000000000000e+00) (0, 0, 0.00000000000000000000e+00) (0, 0, 0.00000000000000000000e+00) (0, 0, 0.00000000000000000000e+00) (0, 0, 0.00000000000000000000e+00) (0, 0, 0.00000000000000000000e+00) (0, 0, 0.00000000000000000000e+00) (0, 0, 0.00000000000000000000e+00) (0, 0, 0.00000000000000000000e+00) (0, 0, 0.00000000000000000000e+00) (0, 0, 0.00000000000000000000e+00) (0, 0, 0.00000000000000000000e+00) (0, 0, 0.00000000000000000000e+00) (0, 0, 0.00000000000000000000e+00) (0, 0, 0.00000000000000000000e+00) (0, 0, 0.00000000000000000000e+00) (0, 0, 0.00000000000000000000e+00) (0, 0, 0.00000000000000000000e+00) (0, 0, 0.00000000000000000000e+00) (0, 0, 0.00000000000000000000e+00) (0, 0, 0.00000000000000000000e+00) (0, 0, 0.00000000000000000000e+00) (0, 0, 0.00000000000000000000e+00) (0, 0, 0.00000000000000000000e+00) (0, 0, 0.00000000000000000000e+00) (0, 0, 0.00000000000000000000e+00) (0, 0, 0.00000000000000000000e+00) (0, 0, 0.00000000000000000000e+00) (0, 0, 0.00000000000000000000e+00) (0, 0, 0.00000000000000000000e+00) (0, 0, 0.00000000000000000000e+00) (0, 0, 0.00000000000000000000e+00) (0, 0, 0.00000000000000000000e+00) (0, 0, 0.00000000000000000000e+00) (0, 0, 0.00000000000000000000e+00) (0, 0, 0.00000000000000000000e+00) (0, 0, 0.00000000000000000000e+00) (0, 0, 0.00000000000000000000e+00) (0, 0, 0.00000000000000000000e+00) (0, 0, 0.00000000000000000000e+00) (0, 0, 0.00000000000000000000e+00) (0, 0, 0.00000000000000000000e+00) (0, 0, 0.00000000000000000000e+00) (0, 0, 0.00000000000000000000e+00) (0, 0, 0.00000000000000000000e+00) (0, 0, 0.00000000000000000000e+00) (0, 0, 0.00000000000000000000e+00) (0, 0, 0.00000000000000000000e+00) (0, 0, 0.00000000000000000000e+00) (0, 0, 0.00000000000000000000e+00) (0, 0, 0.00000000000000000000e+00) (0, 0, 0.00000000000000000000e+00) (0, 0, 0.00000000000000000000e+00) (0, 0, 0.00000000000000000000e+00) (0, 0, 0.00000000000000000000e+00) (0, 0, 0.00000000000000000000e+00) (0, 0, 0.00000000000000000000e+00) (0, 0, 0.00000000000000000000e+00) (0, 0, 0.00000000000000000000e+00) (0, 0, 0.00000000000000000000e+00) (0, 0, 0.00000000000000000000e+00) (0, 0, 0.00000000000000000000e+00) (0, 0, 0.00000000000000000000e+00) (0, 0, 0.00000000000000000000e+00) (0, 0, 0.00000000000000000000e+00) (0, 0, 0.00000000000000000000e+00) (0, 0, 0.00000000000000000000e+00) (0, 0, 0.00000000000000000000e+00) (0, 0, 0.00000000000000000000e+00) (0, 0, 0.00000000000000000000e+00) (0, 0, 0.00000000000000000000e+00) (0, 0, 0.00000000000000000000e+00) (0, 0, 0.00000000000000000000e+00) (0, 0, 0.00000000000000000000e+00) (0, 0, 0.00000000000000000000e+00) (0, 0, 0.00000000000000000000e+00) (0, 0, 0.00000000000000000000e+00) (0, 0, 0.00000000000000000000e+00) (0, 0, 0.00000000000000000000e+00) (0, 0, 0.00000000000000000000e+00) (0, 0, 0.00000000000000000000e+00) (0, 0, 0.00000000000000000000e+00) (0, 0, 0.00000000000000000000e+00) (0, 0, 0.00000000000000000000e+00) (0, 0, 0.00000000000000000000e+00) (0, 0, 0.00000000000000000000e+00) (0, 0, 0.00000000000000000000e+00) (0, 0, 0.00000000000000000000e+00) (0, 0, 0.00000000000000000000e+00) (0, 0, 0.00000000000000000000e+00) (0, 0, 0.00000000000000000000e+00) (0, 0, 0.00000000000000000000e+00) (0, 0, 0.00000000000000000000e+00) (0, 0, 0.00000000000000000000e+00) (0, 0, 0.00000000000000000000e+00) (0, 0, 0.00000000000000000000e+00) (0, 0, 0.00000000000000000000e+00) (0, 0, 0.00000000000000000000e+00) (0, 0, 0.00000000000000000000e+00) (0, 0, 0.00000000000000000000e+00) (0, 0, 0.00000000000000000000e+00) (0, 0, 0.00000000000000000000e+00) (0, 0, 0.00000000000000000000e+00) (0, 0, 0.00000000000000000000e+00) (0, 0, 0.00000000000000000000e+00) (0, 0, 0.00000000000000000000e+00) (0, 0, 0.00000000000000000000e+00) (0, 0, 0.00000000000000000000e+00) (0, 0, 0.00000000000000000000e+00) (0, 0, 0.00000000000000000000e+00) (0, 0, 0.00000000000000000000e+00) (0, 0, 0.00000000000000000000e+00) (0, 0, 0.00000000000000000000e+00) (0, 0, 0.00000000000000000000e+00) (0, 0, 0.00000000000000000000e+00) (0, 0, 0.00000000000000000000e+00) (0, 0, 0.00000000000000000000e+00) (0, 0, 0.00000000000000000000e+00) (0, 0, 0.00000000000000000000e+00) (0, 0, 0.00000000000000000000e+00) (0, 0, 0.00000000000000000000e+00) (0, 0, 0.00000000000000000000e+00) (0, 0, 0.00000000000000000000e+00) (0, 0, 0.00000000000000000000e+00) (0, 0, 0.00000000000000000000e+00) (0, 0, 0.00000000000000000000e+00) (0, 0, 0.00000000000000000000e+00) (0, 0, 0.00000000000000000000e+00) (0, 0, 0.00000000000000000000e+00) (0, 0, 0.00000000000000000000e+00) (0, 0, 0.00000000000000000000e+00) (0, 0, 0.00000000000000000000e+00) (0, 0, 0.00000000000000000000e+00) (0, 0, 0.00000000000000000000e+00) (0, 0, 0.00000000000000000000e+00) (0, 0, 0.00000000000000000000e+00) (0, 0, 0.00000000000000000000e+00) (0, 0, 0.00000000000000000000e+00) (0, 0, 0.00000000000000000000e+00) (0, 0, 0.00000000000000000000e+00) (0, 0, 0.00000000000000000000e+00) (0, 0, 0.00000000000000000000e+00) (0, 0, 0.00000000000000000000e+00) (0, 0, 0.00000000000000000000e+00) (0, 0, 0.00000000000000000000e+00) (0, 0, 0.00000000000000000000e+00) (0, 0, 0.00000000000000000000e+00) (0, 0, 0.00000000000000000000e+00) (0, 0, 0.00000000000000000000e+00) (0, 0, 0.00000000000000000000e+00) (0, 0, 0.00000000000000000000e+00) (0, 0, 0.00000000000000000000e+00) (0, 0, 0.00000000000000000000e+00) (0, 0, 0.00000000000000000000e+00) (0, 0, 0.00000000000000000000e+00) (0, 0, 0.00000000000000000000e+00) (0, 0, 0.00000000000000000000e+00) (0, 0, 0.00000000000000000000e+00) (0, 0, 0.00000000000000000000e+00) (0, 0, 0.00000000000000000000e+00) (0, 0, 0.00000000000000000000e+00) (0, 0, 0.00000000000000000000e+00) (0, 0, 0.00000000000000000000e+00) (0, 0, 0.00000000000000000000e+00) (0, 0, 0.00000000000000000000e+00) (0, 0, 0.00000000000000000000e+00) (0, 0, 0.00000000000000000000e+00) (0, 0, 0.00000000000000000000e+00) (0, 0, 0.00000000000000000000e+00) (0, 0, 0.00000000000000000000e+00) (0, 0, 0.00000000000000000000e+00) (0, 0, 0.00000000000000000000e+00) (0, 0, 0.00000000000000000000e+00) (0, 0, 0.00000000000000000000e+00) (0, 0, 0.00000000000000000000e+00) (0, 0, 0.00000000000000000000e+00) (0, 0, 0.00000000000000000000e+00) (0, 0, 0.00000000000000000000e+00) (0, 0, 0.00000000000000000000e+00) (0, 0, 0.00000000000000000000e+00) (0, 0, 0.00000000000000000000e+00) (0, 0, 0.00000000000000000000e+00) (0, 0, 0.00000000000000000000e+00) (0, 0, 0.00000000000000000000e+00) (0, 0, 0.00000000000000000000e+00) (0, 0, 0.00000000000000000000e+00) (0, 0, 0.00000000000000000000e+00) (0, 0, 0.00000000000000000000e+00) (0, 0, 0.00000000000000000000e+00) (0, 0, 0.00000000000000000000e+00) (0, 0, 0.00000000000000000000e+00) (0, 0, 0.00000000000000000000e+00) (0, 0, 0.00000000000000000000e+00) (0, 0, 0.00000000000000000000e+00) (0, 0, 0.00000000000000000000e+00) (0, 0, 0.00000000000000000000e+00) (0, 0, 0.00000000000000000000e+00) (0, 0, 0.00000000000000000000e+00) (0, 0, 0.00000000000000000000e+00) (0, 0, 0.00000000000000000000e+00) (0, 0, 0.00000000000000000000e+00) (0, 0, 0.00000000000000000000e+00) (0, 0, 0.00000000000000000000e+00) (0, 0, 0.00000000000000000000e+00) (0, 0, 0.00000000000000000000e+00) (0, 0, 0.00000000000000000000e+00) (0, 0, 0.00000000000000000000e+00) (0, 0, 0.00000000000000000000e+00) (0, 0, 0.00000000000000000000e+00) (0, 0, 0.00000000000000000000e+00) (0, 0, 0.00000000000000000000e+00) (0, 0, 0.00000000000000000000e+00) (0, 0, 0.00000000000000000000e+00) (0, 0, 0.00000000000000000000e+00) (0, 0, 0.00000000000000000000e+00) (0, 0, 0.00000000000000000000e+00) (0, 0, 0.00000000000000000000e+00) (0, 0, 0.00000000000000000000e+00) (0, 0, 0.00000000000000000000e+00) (0, 0, 0.00000000000000000000e+00) (0, 0, 0.00000000000000000000e+00) (0, 0, 0.00000000000000000000e+00) (0, 0, 0.00000000000000000000e+00) (0, 0, 0.00000000000000000000e+00) (0, 0, 0.00000000000000000000e+00) (0, 0, 0.00000000000000000000e+00) (0, 0, 0.00000000000000000000e+00) (0, 0, 0.00000000000000000000e+00) (0, 0, 0.00000000000000000000e+00) (0, 0, 0.00000000000000000000e+00) (0, 0, 0.00000000000000000000e+00) (0, 0, 0.00000000000000000000e+00) (0, 0, 0.00000000000000000000e+00) (0, 0, 0.00000000000000000000e+00) (0, 0, 0.00000000000000000000e+00) (0, 0, 0.00000000000000000000e+00) (0, 0, 0.00000000000000000000e+00) (0, 0, 0.00000000000000000000e+00) (0, 0, 0.00000000000000000000e+00) (0, 0, 0.00000000000000000000e+00) (0, 0, 0.00000000000000000000e+00) (0, 0, 0.00000000000000000000e+00) (0, 0, 0.00000000000000000000e+00) (0, 0, 0.00000000000000000000e+00) (0, 0, 0.00000000000000000000e+00) (0, 0, 0.00000000000000000000e+00) (0, 0, 0.00000000000000000000e+00) (0, 0, 0.00000000000000000000e+00) (0, 0, 0.00000000000000000000e+00) (0, 0, 0.00000000000000000000e+00) (0, 0, 0.00000000000000000000e+00) (0, 0, 0.00000000000000000000e+00) (0, 0, 0.00000000000000000000e+00) (0, 0, 0.00000000000000000000e+00) (0, 0, 0.00000000000000000000e+00) (0, 0, 0.00000000000000000000e+00) (0, 0, 0.00000000000000000000e+00) (0, 0, 0.00000000000000000000e+00) (0, 0, 0.00000000000000000000e+00) (0, 0, 0.00000000000000000000e+00) (0, 0, 0.00000000000000000000e+00) (0, 0, 0.00000000000000000000e+00) (0, 0, 0.00000000000000000000e+00) (0, 0, 0.00000000000000000000e+00) (0, 0, 0.00000000000000000000e+00) (0, 0, 0.00000000000000000000e+00) (0, 0, 0.00000000000000000000e+00) (0, 0, 0.00000000000000000000e+00) (0, 0, 0.00000000000000000000e+00) (0, 0, 0.00000000000000000000e+00) (0, 0, 0.00000000000000000000e+00) (0, 0, 0.00000000000000000000e+00) (0, 0, 0.00000000000000000000e+00) (0, 0, 0.00000000000000000000e+00) (0, 0, 0.00000000000000000000e+00) (0, 0, 0.00000000000000000000e+00) (0, 0, 0.00000000000000000000e+00) (0, 0, 0.00000000000000000000e+00) (0, 0, 0.00000000000000000000e+00) (0, 0, 0.00000000000000000000e+00) (0, 0, 0.00000000000000000000e+00) (0, 0, 0.00000000000000000000e+00) (0, 0, 0.00000000000000000000e+00) (0, 0, 0.00000000000000000000e+00) (0, 0, 0.00000000000000000000e+00) (0, 0, 0.00000000000000000000e+00) (0, 0, 0.00000000000000000000e+00) (0, 0, 0.00000000000000000000e+00) (0, 0, 0.00000000000000000000e+00) (0, 0, 0.00000000000000000000e+00) (0, 0, 0.00000000000000000000e+00) (0, 0, 0.00000000000000000000e+00) (0, 0, 0.00000000000000000000e+00) (0, 0, 0.00000000000000000000e+00) (0, 0, 0.00000000000000000000e+00) (0, 0, 0.00000000000000000000e+00) (0, 0, 0.00000000000000000000e+00) (0, 0, 0.00000000000000000000e+00) (0, 0, 0.00000000000000000000e+00) (0, 0, 0.00000000000000000000e+00) (0, 0, 0.00000000000000000000e+00) (0, 0, 0.00000000000000000000e+00) (0, 0, 0.00000000000000000000e+00) (0, 0, 0.00000000000000000000e+00) (0, 0, 0.00000000000000000000e+00) (0, 0, 0.00000000000000000000e+00) (0, 0, 0.00000000000000000000e+00) (0, 0, 0.00000000000000000000e+00) (0, 0, 0.00000000000000000000e+00) (0, 0, 0.00000000000000000000e+00) (0, 0, 0.00000000000000000000e+00) (0, 0, 0.00000000000000000000e+00) (0, 0, 0.00000000000000000000e+00) (0, 0, 0.00000000000000000000e+00) (0, 0, 0.00000000000000000000e+00) (0, 0, 0.00000000000000000000e+00) (0, 0, 0.00000000000000000000e+00) (0, 0, 0.00000000000000000000e+00) (0, 0, 0.00000000000000000000e+00) (0, 0, 0.00000000000000000000e+00) (0, 0, 0.00000000000000000000e+00) (0, 0, 0.00000000000000000000e+00) (0, 0, 0.00000000000000000000e+00) (0, 0, 0.00000000000000000000e+00) (0, 0, 0.00000000000000000000e+00) (0, 0, 0.00000000000000000000e+00) (0, 0, 0.00000000000000000000e+00) (0, 0, 0.00000000000000000000e+00) (0, 0, 0.00000000000000000000e+00) (0, 0, 0.00000000000000000000e+00) (0, 0, 0.00000000000000000000e+00) (0, 0, 0.00000000000000000000e+00) (0, 0, 0.00000000000000000000e+00) (0, 0, 0.00000000000000000000e+00) (0, 0, 0.00000000000000000000e+00) (0, 0, 0.00000000000000000000e+00) (0, 0, 0.00000000000000000000e+00) (0, 0, 0.00000000000000000000e+00) (0, 0, 0.00000000000000000000e+00) (0, 0, 0.00000000000000000000e+00) (0, 0, 0.00000000000000000000e+00) (0, 0, 0.00000000000000000000e+00) (0, 0, 0.00000000000000000000e+00) (0, 0, 0.00000000000000000000e+00) (0, 0, 0.00000000000000000000e+00) (0, 0, 0.00000000000000000000e+00) (0, 0, 0.00000000000000000000e+00) (0, 0, 0.00000000000000000000e+00) (0, 0, 0.00000000000000000000e+00) (0, 0, 0.00000000000000000000e+00) (0, 0, 0.00000000000000000000e+00) (0, 0, 0.00000000000000000000e+00) (0, 0, 0.00000000000000000000e+00) (0, 0, 0.00000000000000000000e+00) (0, 0, 0.00000000000000000000e+00) (0, 0, 0.00000000000000000000e+00) (0, 0, 0.00000000000000000000e+00) (0, 0, 0.00000000000000000000e+00) (0, 0, 0.00000000000000000000e+00) (0, 0, 0.00000000000000000000e+00) (0, 0, 0.00000000000000000000e+00) (0, 0, 0.00000000000000000000e+00) (0, 0, 0.00000000000000000000e+00) (0, 0, 0.00000000000000000000e+00) (0, 0, 0.00000000000000000000e+00) (0, 0, 0.00000000000000000000e+00) (0, 0, 0.00000000000000000000e+00) (0, 0, 0.00000000000000000000e+00) (0, 0, 0.00000000000000000000e+00) (0, 0, 0.00000000000000000000e+00) (0, 0, 0.00000000000000000000e+00) (0, 0, 0.00000000000000000000e+00) (0, 0, 0.00000000000000000000e+00) (781, 3, 5.00000000000000000000e-01) (781, 3, 5.00000000000000000000e-01) (781, 3, 5.00000000000000000000e-01) (781, 3, 5.00000000000000000000e-01) (781, 3, 5.00000000000000000000e-01) (781, 3, 5.00000000000000000000e-01) (781, 3, 5.00000000000000000000e-01) (781, 3, 5.00000000000000000000e-01) (781, 3, 5.00000000000000000000e-01) (781, 3, 5.00000000000000000000e-01) (781, 3, 5.00000000000000000000e-01) (781, 3, 5.00000000000000000000e-01) (781, 3, 5.00000000000000000000e-01) (781, 3, 5.00000000000000000000e-01) (781, 3, 5.00000000000000000000e-01) (781, 3, 5.00000000000000000000e-01) (781, 3, 5.00000000000000000000e-01) (781, 3, 5.00000000000000000000e-01) (781, 3, 5.00000000000000000000e-01) (781, 3, 5.00000000000000000000e-01) (781, 3, 5.00000000000000000000e-01) (781, 3, 5.00000000000000000000e-01) (781, 3, 5.00000000000000000000e-01) (781, 3, 5.00000000000000000000e-01) (0, 3, 0.00000000000000000000e+00) (25, 3, 5.00000000000000000000e-01) (25, 3, 5.00000000000000000000e-01) (25, 3, 5.00000000000000000000e-01) (25, 3, 5.00000000000000000000e-01) (25, 3, 5.00000000000000000000e-01) (25, 3, 5.00000000000000000000e-01) (25, 3, 5.00000000000000000000e-01) (25, 3, 5.00000000000000000000e-01) (25, 3, 5.00000000000000000000e-01) (25, 3, 5.00000000000000000000e-01) (25, 3, 5.00000000000000000000e-01) (25, 3, 5.00000000000000000000e-01) (25, 3, 5.00000000000000000000e-01) (25, 3, 5.00000000000000000000e-01) (25, 3, 5.00000000000000000000e-01) (25, 3, 5.00000000000000000000e-01) (25, 3, 5.00000000000000000000e-01) (25, 3, 5.00000000000000000000e-01) (25, 3, 5.00000000000000000000e-01) (25, 3, 5.00000000000000000000e-01) (25, 3, 5.00000000000000000000e-01) (25, 3, 5.00000000000000000000e-01) (25, 3, 5.00000000000000000000e-01) (25, 3, 5.00000000000000000000e-01) (25, 3, 5.00000000000000000000e-01) (25, 3, 5.00000000000000000000e-01) (25, 3, 5.00000000000000000000e-01) (25, 3, 5.00000000000000000000e-01) (25, 3, 5.00000000000000000000e-01) (25, 3, 5.00000000000000000000e-01) (25, 3, 5.00000000000000000000e-01) (25, 3, 5.00000000000000000000e-01) (25, 3, 5.00000000000000000000e-01) (25, 3, 5.00000000000000000000e-01) (25, 3, 5.00000000000000000000e-01) (25, 3, 5.00000000000000000000e-01) (25, 3, 5.00000000000000000000e-01) (25, 3, 5.00000000000000000000e-01) (25, 3, 5.00000000000000000000e-01) (25, 3, 5.00000000000000000000e-01) (25, 3, 5.00000000000000000000e-01) (25, 3, 5.00000000000000000000e-01) (25, 3, 5.00000000000000000000e-01) (25, 3, 5.00000000000000000000e-01) (25, 3, 5.00000000000000000000e-01) (25, 3, 5.00000000000000000000e-01) (25, 3, 5.00000000000000000000e-01) (25, 3, 5.00000000000000000000e-01) (25, 3, 5.00000000000000000000e-01) (25, 3, 5.00000000000000000000e-01) (25, 3, 5.00000000000000000000e-01) (25, 3, 5.00000000000000000000e-01) (0, 3, 0.00000000000000000000e+00) 
connections (connected_to_neuron, weight)=(0, 5.14862284436202299887e-01) (1, -2.51194825422977885410e-01) (2, -3.74118168427102049112e-01) (3, 3.51975571537197551297e-01) (4, 5.07755259238135248090e-01) (5, -9.63437349922021263326e-02) (6, -3.63122267844724622154e-01) (7, 2.93979871869950837304e-01) (8, 5.00363066681370538547e-01) (9, -2.29908179287021396942e-01) (10, 3.02787326615220730996e-01) (11, -2.39397385986138799829e-01) (12, -8.18241931583612025491e-02) (13, 4.28153836018199118740e-01) (14, -3.86493570642920669655e-01) (15, 2.65724211233338558635e-02) (16, 2.94985076696244019612e-01) (17, -4.38887475560948370212e-01) (18, -3.79276546439329065308e-01) (19, -1.39778335286437210838e-02) (20, 4.25089911790516306045e-01) (21, -5.89272030886747621992e-01) (22, 2.38947443309192562866e-02) (23, -1.60369813500478686219e-01) (24, 1.26495496245246724643e-01) (25, -1.82052246086945118675e-01) (26, -1.37397332025221197149e-01) (27, -9.35075130711097990410e-02) (28, -1.31795695959433606381e-01) (29, -3.33040834685435660489e-01) (30, -1.93804191700145844734e-01) (31, 4.14655245323499010990e-01) (32, 5.47424101977409330311e-02) (33, 5.15359474202560299827e-02) (34, -6.81216149325187675379e-02) (35, 1.63087192913904666103e-01) (36, 2.04586663367427645799e-01) (37, 1.62961060792674250486e-01) (38, 7.77008215561922066517e-02) (39, 2.74575386514623043244e-01) (40, 2.33601303266782467372e-01) (41, 4.44311825581423125442e-01) (42, -1.68830939290388476470e-02) (43, -2.31529308172720743597e-01) (44, -2.09932047455675702130e-01) (45, -1.88020634589751781118e-02) (46, 1.34607062204056604493e-01) (47, -2.39599728688789120890e-01) (48, 2.08188758404997231732e-01) (49, 2.49010405505872944865e-01) (50, 8.43263098297170748952e-03) (51, -7.12229413588084253606e-02) (52, -1.69054861199084610623e-01) (53, 3.64737110398383690413e-01) (54, 3.86532219878850114014e-01) (55, 2.76360644206154137947e-01) (56, -3.15673985008370393615e-03) (57, -3.65638738358597947808e-03) (58, -5.43875444675188113308e-01) (59, 1.09958770264889593715e-01) (60, 3.97517852274612060182e-01) (61, -2.46288498420336010586e-01) (62, -3.35287789491095611361e-01) (63, 1.27693367042176403325e-01) (64, 6.74483017801985329509e-02) (65, 3.31864547796681341740e-01) (66, 6.78155974280103990282e-01) (67, 1.25335849313666144317e-02) (68, -5.64171390644586878693e-01) (69, 1.67112076737511335012e-02) (70, -2.36732704237164470751e-01) (71, -1.06006842069674686591e-01) (72, 1.41886859447869564943e-02) (73, -4.25729092945355269695e-01) (74, -1.87705124659961170019e-01) (75, 3.76056933801606319001e-01) (76, -4.50822781602765287889e-01) (77, 9.49912056747961752734e-01) (78, 3.57060972333862886030e-02) (79, -3.70707372342589214220e-01) (80, 9.42104630284933824980e-02) (81, 1.42494757230685997751e-01) (82, -1.40558433784087721818e-01) (83, 9.55018273694056285539e-02) (84, 4.90991390175989014799e-02) (85, -3.26260997416463818799e-02) (86, 1.55230128394787059154e-01) (87, -1.49788024774229061586e-01) (88, -2.53070520978090629516e-01) (89, 1.70675028755808227965e-01) (90, -2.80665874474015475393e-01) (91, 1.44762382374349629632e-01) (92, -2.73246172977211210231e-01) (93, -7.43064737933737118336e-02) (94, -3.24679636577958341537e-03) (95, 2.45488905743967561479e-01) (96, 5.97503441609434360338e-01) (97, -1.72682767051396540703e-01) (98, -1.29886260889431420784e-01) (99, 1.38639633094887193554e-01) (100, 4.77297167420610568556e-01) (101, 2.30827252389923576192e-01) (102, -3.15304338220923463521e-01) (103, -5.57756613678885071472e-01) (104, -2.31128269028089916581e-01) (105, 6.84007921548793751398e-02) (106, 6.14104049919574068728e-02) (107, -2.53561415804460288381e-01) (108, 1.30769775760386480767e-01) (109, 1.28312126782717181306e-02) (110, 4.34042790822995627753e-01) (111, 3.82396024342352980341e-02) (112, -4.50571151250669515997e-02) (113, 1.69809543140175184250e-01) (114, 7.63065801498987866802e-02) (115, 7.76980156007152228392e-02) (116, -8.15544930332078310542e-02) (117, -7.45083542331979042928e-01) (118, 6.99555921212163395184e-02) (119, -3.18717731440495199990e-01) (120, 1.74558285193393669665e-01) (121, 9.87490250331140607953e-03) (122, 6.63493852125039085266e-01) (123, 4.39298280627546999799e-01) (124, -5.87630649649986541716e-02) (125, 1.87320368760533956243e-01) (126, -4.08980590692056722446e-01) (127, 4.14978147015877818493e-01) (128, 4.43450168828559351808e-02) (129, 5.95391625658461709492e-01) (130, -7.41197609211468599888e-02) (131, 2.87576535189045190410e-01) (132, 1.45856926760097288520e-01) (133, -1.26558359067424880395e-01) (134, 2.02935073262500015323e-01) (135, -2.86275753787918807447e-01) (136, 8.58454959220512903162e-02) (137, -2.13129422497858045382e-01) (138, 2.46575046667856734306e-01) (139, 5.12019956676227003256e-02) (140, -1.31698465348276949616e-01) (141, 1.36187855060989404521e-01) (142, -3.47075896633973035588e-01) (143, -1.81718506426854581326e-01) (144, -1.59023077253090450167e-01) (145, -2.14042198036754088841e-01) (146, 5.21915630764001950426e-02) (147, 1.41246666488303473930e-01) (148, 7.91066516009263587250e-01) (149, 1.39549023846359587786e-01) (150, -1.56569095278490666434e-01) (151, -3.31570542653158328861e-01) (152, -6.75882488262261049705e-01) (153, -1.17292604058235105935e-01) (154, 2.97510908867371359765e-01) (155, -4.41544789494985379097e-01) (156, -1.89083630835452584651e-02) (157, 1.76502608719159674588e-02) (158, -2.68572053995338011489e-01) (159, 9.73711398384799801074e-04) (160, 7.46535341397745466629e-02) (161, -1.51889899214951648587e-02) (162, 3.51928906755049841770e-01) (163, 1.84453930175717234485e-01) (164, -4.28720754036889140082e-01) (165, 2.79432219256744107660e-01) (166, -3.41613896373572922815e-01) (167, 1.13234010419746636278e-01) (168, -3.26676219740924395074e-02) (169, 1.16911140924518902606e-01) (170, -9.36962726036339121904e-01) (171, 6.43797077273946305453e-01) (172, 5.17027230184116115552e-01) (173, -3.29440631331983702079e-01) (174, 1.89787860954162113103e-01) (175, -3.57575786577017662449e-01) (176, 3.01172119785976799555e-01) (177, 2.73705635612964126580e-01) (178, 3.04985255960631695960e-01) (179, -3.43845381589534190847e-02) (180, -4.46243170511065531669e-02) (181, -3.32674854738521430519e-01) (182, -4.66133182363706460860e-02) (183, 3.14298689522773899707e-01) (184, -4.61236848110203045970e-01) (185, 1.09270355283503407817e-02) (186, -1.56064323495727325097e-01) (187, 2.81654025984728328957e-01) (188, 7.48461314454098025628e-02) (189, -2.63240214509810832588e-01) (190, -2.43127663188203335665e-01) (191, 5.06258023879482734614e-03) (192, -5.42540427189400972785e-02) (193, -3.45434271367363654459e-01) (194, 5.81550336137419687788e-01) (195, 1.31283009799094907422e-01) (196, 4.00249883953954721516e-01) (197, 1.94176158178157115541e-01) (198, -2.57694445665097859877e-04) (199, 2.26687581076952832104e-01) (200, -3.07163341514460397352e-01) (201, 4.87438747063081934119e-01) (202, 1.95741832265864806883e-01) (203, 9.04141645089320489248e-01) (204, -6.48518846905431378680e-01) (205, -2.03018109446553574049e-01) (206, -4.02135006906755021472e-01) (207, 6.25385225224479923689e-01) (208, 1.42938375911162873777e-01) (209, -2.47658934780212058868e-01) (210, 2.53246661142156992419e-01) (211, -4.19040851514712320292e-02) (212, -3.86044764574499266185e-01) (213, 9.02760353353028593970e-02) (214, -5.35757583708607043604e-03) (215, -1.59721721968428070904e-01) (216, 6.38361746173081834321e-01) (217, 1.80187631118266244901e-01) (218, 1.16121083049633228024e-01) (219, 4.12336302396748566323e-01) (220, 1.18578445416808349322e-02) (221, 4.85173899600515545760e-01) (222, 3.81890572064315703127e-01) (223, 1.84718058706317106443e-01) (224, 1.04557577065671359479e-02) (225, 8.99043562719460537247e-02) (226, -3.54739111864609713010e-01) (227, -4.52985369032670059930e-01) (228, -3.20610882544464736998e-01) (229, -3.23379180492819884307e-01) (230, 2.22815352255540222171e-01) (231, -1.51178541880820110910e-01) (232, 3.13280788558558898060e-01) (233, -5.80290243537892158621e-01) (234, 7.57847357658257281265e-02) (235, -2.44814889414624203834e-01) (236, 1.05988469474466096010e+00) (237, -2.86570379612260839330e-01) (238, -1.90321745448166490533e-01) (239, 3.21820424103643962233e-02) (240, -8.27920851527464973785e-02) (241, 1.40710708202370304853e-01) (242, -1.10867036197108637108e-01) (243, 1.74757654492725511552e-01) (244, 5.80674396336966578552e-03) (245, 1.97632349575335534986e-02) (246, 1.25686801157258248862e-01) (247, -1.72873296502254525375e-01) (248, 1.72632052696435445149e-01) (249, 2.52530794428645732896e-01) (250, 7.17756502781159988480e-02) (251, 2.46544550234027326496e-01) (252, -1.87721611756205247756e-01) (253, -3.43447738212890818499e-01) (254, -5.83662746818718533581e-02) (255, 3.55733281077831031691e-02) (256, 4.38474643803430597089e-01) (257, -8.53969131472468306887e-02) (258, -4.63544806643025886217e-01) (259, 2.24525266137124590582e-01) (260, -2.90881924551142978519e-01) (261, -3.34746323722647898258e-01) (262, -2.59725410555214863972e-01) (263, -3.76375290608376017465e-02) (264, 6.13235024115914122145e-03) (265, -9.40990851312739212675e-02) (266, -3.85484590032725005226e-02) (267, -4.06957412416036778957e-01) (268, 4.85586183528626424977e-01) (269, 3.00453879216336761093e-01) (270, 8.75024037082710315349e-02) (271, -6.43778516117965299292e-02) (272, 4.26339587063487124308e-01) (273, 8.70217659789708913864e-02) (274, 2.29534150556530675003e-01) (275, 3.29738215956130842343e-01) (276, -9.85634962522248525563e-02) (277, 2.81137045654544337481e-01) (278, 4.76287052087298268255e-01) (279, 5.78387556411506631449e-01) (280, 1.37031026349398038500e-01) (281, -1.65727501877374894246e-01) (282, -1.43433822535697114153e-01) (283, -2.56623999965153282155e-01) (284, 3.52864290506768041311e-02) (285, 2.32712122417465472335e-01) (286, -2.52194929900689812641e-03) (287, 1.27662022488002097065e-01) (288, -4.34231634949999445450e-01) (289, 3.58438490244095853132e-01) (290, 1.63967917785939637509e-01) (291, 1.58229247653973031928e-01) (292, -3.85448652475307088072e-02) (293, -2.05728995576832662806e-01) (294, -1.41837285356356701538e-01) (295, 1.17928762736182121684e-01) (296, -1.38886083491398470979e-01) (297, 5.30500914671797607625e-01) (298, -2.66168583859088092591e-01) (299, 1.55707926461202877944e-01) (300, -1.73352314449350702885e-01) (301, 4.51984597901921469898e-01) (302, -8.35784617227086495950e-02) (303, -5.01254354047798833527e-01) (304, -1.41108499137684501035e-01) (305, 3.92515488304190418578e-01) (306, -7.51518772937636997389e-02) (307, -2.48898241581684553925e-01) (308, 1.08804505996024480918e-01) (309, -1.15741383257846552901e-01) (310, 2.20898247073401471363e-01) (311, -5.30151022586728526420e-01) (312, 3.62877784043662166003e-01) (313, 6.75954453639684649247e-01) (314, 6.91701959514826048014e-01) (315, 1.28649173461894084092e-01) (316, 5.08766092830893024157e-01) (317, -6.24968136660279741101e-02) (318, -6.31203627664106980966e-01) (319, 2.12765217918184174062e-01) (320, 3.18274124464756114072e-01) (321, -3.49303058119188991615e-01) (322, -2.62154574562245668012e-01) (323, -5.25494071579921340209e-01) (324, -4.73201356705346062870e-02) (325, -6.66209060959858379025e-02) (326, -9.61198238370695318133e-02) (327, 2.87314079394940191658e-01) (328, 4.85153338806904699254e-01) (329, -2.56456435413222216813e-01) (330, 3.60854543898435908833e-01) (331, 2.59176448152373894995e-01) (332, -3.39230867243535794131e-01) (333, 2.69801312187449848778e-01) (334, 4.31974271414776248013e-02) (335, 4.74084004132113434604e-01) (336, -4.51057396120881581858e-01) (337, 5.80966257868382074392e-01) (338, 8.61370952596827443859e-02) (339, -2.36004676646726002653e-01) (340, -5.81079174571325518528e-01) (341, -6.07509308928774471870e-02) (342, 3.79410401509885780724e-02) (343, 1.28267873096087586804e-01) (344, 1.73570420385456350432e-02) (345, -2.90263115357995760135e-01) (346, -1.10043256432184238802e-01) (347, 9.91019876696760115831e-02) (348, -2.77799880658998132876e-01) (349, 3.58901077962930567522e-02) (350, 1.47298565675583720269e-01) (351, -1.86401099605069953125e-01) (352, 4.09353009132477994175e-03) (353, -1.79190387429618236403e-01) (354, 4.58157151313977606399e-02) (355, -3.13129992836873663475e-02) (356, -3.57225654623295127421e-02) (357, -3.00157863597310836656e-01) (358, -6.67906241199467121117e-02) (359, 1.05538275457303168392e-01) (360, -2.57368312580839586623e-01) (361, -1.37694651221047913853e-02) (362, 2.59496032978611150185e-03) (363, 2.10562014903835553747e-01) (364, -1.11658722475878324776e-02) (365, 1.97826536179034090379e-01) (366, -3.65775788595428391625e-02) (367, 3.46440506005132264900e-01) (368, -1.24102595496119391671e-01) (369, -1.55464939295723095225e-02) (370, 4.10960176776722641012e-01) (371, 2.57663268337324613544e-01) (372, -4.26710574579057977385e-01) (373, -1.75791448070694134032e-01) (374, 1.29132428833605900076e-01) (375, 3.48492140834395336402e-01) (376, -4.25883355025259702220e-01) (377, 8.41054189428945414564e-02) (378, -7.73323783603909603590e-02) (379, -1.75060343291708497837e-01) (380, -1.83028688016517060433e-01) (381, 1.91157895031224419301e-03) (382, -1.12274458405583574261e-01) (383, -6.79241998753554454549e-02) (384, 3.18396879092388354615e-02) (385, 4.20799514328508539318e-01) (386, 9.61210390696064093108e-02) (387, -4.32944405045495750439e-01) (388, -2.37820983794351827056e-02) (389, 5.78782349765007975151e-01) (390, 8.02387765458043716871e-03) (391, -1.83057665601987828996e-01) (392, 1.81295359974754266563e-01) (393, -2.08014786214558461408e-01) (394, 6.69628063478675678022e-02) (395, 1.82118956917870611356e-01) (396, -6.88958594597258999759e-02) (397, 3.73083700478800461831e-01) (398, 1.36137393026421610331e-01) (399, -2.41099234767355230513e-01) (400, 3.50623757188642748428e-01) (401, -3.12920950947747911197e-01) (402, -5.10068527842618579804e-01) (403, 6.89391473336390669946e-02) (404, -1.15538160959130387084e-01) (405, -7.22694260598333526602e-01) (406, -2.90592411206549508518e-02) (407, 4.24855515698926267110e-01) (408, 3.23418508621640177214e-01) (409, 3.13269795841257747693e-01) (410, -2.18953839209662048937e-01) (411, 9.85106787413781020968e-02) (412, 2.46005398808764735863e-01) (413, -8.51846875316441681791e-02) (414, 1.10472931697998016931e-01) (415, -2.60588591737306252138e-01) (416, 1.49599088426000725871e-01) (417, -7.14902470295434411263e-01) (418, -5.69022193984332957939e-01) (419, -4.20880177612126371578e-01) (420, -2.45677847473472488193e-01) (421, 3.76467473826817694560e-02) (422, 3.63105126262149441319e-02) (423, -8.08113722088765751295e-02) (424, -1.43425157124316776658e-01) (425, -2.84105776996568248904e-01) (426, 3.51684896223875997912e-01) (427, 2.80295807460549495360e-01) (428, -1.59388512694983441875e-01) (429, 2.10884596313282879354e-01) (430, -4.25716666474733052006e-02) (431, -1.14405996362089326657e-01) (432, 7.07634000352450831528e-01) (433, 3.32719814842676930855e-01) (434, -2.91128595587609284578e-01) (435, 1.69586547869795933874e-01) (436, -2.01068384117621290486e-01) (437, -5.72302076654256364208e-01) (438, 3.20108345539256378132e-01) (439, -4.83135059782011822005e-01) (440, 2.07629538230580862335e-01) (441, -3.34594188268041992096e-01) (442, -5.59657267252463980212e-02) (443, 5.92972285855734027038e-01) (444, -3.02372111444749250286e-02) (445, 4.84023663178597463030e-01) (446, 2.31844546394743111772e-01) (447, -1.57287588088540736253e-01) (448, -9.10197530466281129469e-02) (449, 3.01392078972874621901e-01) (450, -1.61268572902076474940e-02) (451, -2.10840085287438916417e-01) (452, -2.90250208592056462009e-02) (453, -7.20741895699580914503e-02) (454, 3.09229557693643852812e-01) (455, -1.63491017089578583033e-01) (456, 2.74858458504190605876e-01) (457, 4.56808023290211140388e-01) (458, -8.64182368691002733563e-02) (459, 2.26824255636190776075e-02) (460, 2.19265715510930242482e-01) (461, -2.07899259523976864816e-01) (462, 1.44316506242595482545e-01) (463, 5.30870308794421652543e-02) (464, 1.23074326572970918492e-01) (465, 1.26470329564527833588e-01) (466, -8.46329182384248646098e-02) (467, 1.97187643997350781078e-01) (468, -1.39291336365336082537e-01) (469, 2.04403550909675463254e-01) (470, 1.69066548203323091526e-02) (471, 3.31240670864244635130e-01) (472, 8.86680233289536268160e-02) (473, 2.48296225418094124171e-02) (474, -1.91349629183095892859e-01) (475, 2.72046608932402164682e-02) (476, 4.73212185462035583861e-01) (477, -1.17047311202970252819e-01) (478, -5.21223727404176995215e-01) (479, -2.44424004511263170958e-01) (480, 1.67176307023620962511e-01) (481, 2.56969259244610670478e-01) (482, 7.22621211984801226080e-01) (483, 3.80108321130866566584e-01) (484, -7.38900452076740932306e-01) (485, 3.12230172568478958617e-01) (486, 2.56142279428092700666e-01) (487, -4.68713630123346436385e-01) (488, -1.91529068802895052759e-01) (489, 6.93998083602497123357e-02) (490, -4.34356257970774206623e-01) (491, 2.84858278255192165496e-01) (492, 6.44938594194311570762e-03) (493, -2.74156535861848182911e-01) (494, -4.04801846925941719024e-02) (495, 1.84039127244266798034e-01) (496, 1.03781127781987136949e+00) (497, 5.46018996816695009744e-02) (498, -3.84107015139743213084e-01) (499, 5.79400826564845164435e-02) (500, 7.45397497831247479727e-02) (501, 1.89535505088865380285e-01) (502, -8.10035681783455654981e-03) (503, 1.40912964244328808849e-01) (504, -2.29757082308962856665e-01) (505, 8.51616549148741658337e-02) (506, -2.56718923252301889359e-01) (507, 2.26454487388917324875e-01) (508, -1.69658219830754519730e-01) (509, 4.72432297015423885433e-01) (510, -3.87738861333412759835e-02) (511, -2.35952859564647399182e-01) (512, -7.26363877643277366936e-01) (513, 4.18367284996319990786e-02) (514, 3.33859135485944702459e-01) (515, -8.56864164479747281167e-02) (516, 1.64439930392103556001e-01) (517, -2.34592395482549120889e-01) (518, -1.42845778437290481244e-02) (519, -1.15115380977841921806e-01) (520, -5.16849540686966202330e-01) (521, 3.65504723884593318850e-01) (522, 4.42188027755021806353e-01) (523, 1.56002716335630675637e-01) (524, 4.06034615544837371170e-02) (525, 8.43529223926800658662e-02) (526, 4.46705641856816215718e-01) (527, -7.00015437214913383013e-02) (528, 3.17486394137189154030e-01) (529, -2.81303226905026904081e-01) (530, -1.76344915262178020265e-01) (531, -1.04340090841108915076e-01) (532, -2.83065654234358365926e-01) (533, 2.64062256893818798897e-02) (534, 1.61765604548209956937e-01) (535, -9.06340803579215870123e-02) (536, -8.21512853989700086998e-01) (537, 3.83745818135764416024e-01) (538, -5.11324201665409247552e-02) (539, 6.07657133295925466765e-02) (540, 1.55003709411272894148e-01) (541, -9.81143555986230403443e-02) (542, -1.57060350297810680242e-01) (543, 5.45321127792582793781e-01) (544, 1.37318032753400681711e-01) (545, 3.16616818397132515628e-01) (546, 9.61056570873507209907e-02) (547, -8.39064430946175054959e-02) (548, -1.84065516412719523687e-02) (549, 1.49104795152848079720e-01) (550, -2.27232021949411389095e-01) (551, -2.91484807768028764130e-01) (552, -6.42907976439713868544e-02) (553, 2.79507569078271400631e-01) (554, -3.53300361244768934554e-01) (555, 3.32236622082480503870e-01) (556, 3.01046231029757194175e-01) (557, 9.45513159941080150173e-02) (558, -3.66950846348774673000e-01) (559, 2.42753825803184941634e-01) (560, -9.58786345232095355007e-02) (561, -1.64536773644971601183e-01) (562, 2.92348207605603385706e-02) (563, -1.87670740478261613426e-02) (564, 2.08640087409008634367e-01) (565, -3.95437362908383563398e-02) (566, 1.40587580239778242586e-01) (567, 4.42474916778579918653e-01) (568, -3.40218801056395014903e-01) (569, -3.36077913787980409044e-01) (570, 6.93138738824033429076e-01) (571, -9.16721046330445793471e-02) (572, -3.43929522260765230257e-02) (573, 5.29176703172695162003e-01) (574, 2.48571610185206515187e-01) (575, 1.06653713951965545270e-01) (576, 2.03702097892316719152e-01) (577, -6.88616668822119581961e-02) (578, 9.64168195785514992036e-02) (579, -8.34104672254380730134e-03) (580, -2.46237174310498740937e-01) (581, -1.66170203214983727702e-02) (582, 6.92575541675396033625e-01) (583, -3.05881824043282346537e-01) (584, -2.74385276418578238911e-01) (585, 2.53800428860829985211e-01) (586, -2.94731325614944583702e-01) (587, -9.61160227439937231431e-02) (588, 2.07837686359419959725e-01) (589, -7.34067796313331716318e-02) (590, -3.66203587823319201555e-02) (591, 1.30802292132944752989e-01) (592, 1.08737441416723756848e-01) (593, 2.25852087839177817497e-01) (594, -7.38616202977760011317e-02) (595, -2.10488906151292787250e-01) (596, 1.72257967708402820461e-02) (597, 2.19250542961342581583e-01) (598, 5.54561736875202188068e-02) (599, -2.60881887313713645149e-02) (600, -5.54033508831209609014e-01) (601, 2.37604673528532400750e-01) (602, 4.07072936055880407746e-01) (603, -1.06233919808195714785e-01) (604, -5.42876046789825539296e-02) (605, -4.76527457191455672270e-01) (606, -7.21554868997746762238e-02) (607, -3.74877926836399866239e-01) (608, 3.65565772485252210577e-02) (609, -2.49136495972328786408e-01) (610, -8.34206182055332728931e-02) (611, -1.16702288681412219562e-01) (612, 2.03936823254152133078e-01) (613, 2.48479891323186596885e-01) (614, 6.48476790055286522740e-02) (615, -1.57368263955082687833e-01) (616, -3.02865941232533686378e-01) (617, -1.19124088145333775768e-01) (618, -1.43608054724801731394e-01) (619, 1.27138182586440495747e-01) (620, -1.74349203904153662870e-02) (621, 2.99132385443798332059e-01) (622, 5.60915256257930816552e-01) (623, 5.08361972274253726134e-01) (624, 5.69130732145454287796e-01) (625, -1.24826401581391646656e-01) (626, -9.47909175293899092241e-03) (627, -5.70922266951114698585e-01) (628, -3.30844968853176712997e-01) (629, -7.46742780271809902803e-02) (630, -9.47690633685106254003e-02) (631, -1.32843239103156152137e-01) (632, 1.75334716967044557112e-01) (633, -1.46192074329296595181e-01) (634, 3.91941178271466017513e-01) (635, 5.01263960201219105350e-01) (636, 1.26333263766329945144e-01) (637, -1.05066951721133339248e+00) (638, -3.25777134764981657344e-01) (639, 2.36612088099665274221e-01) (640, 2.16212130482468650738e-01) (641, -5.33598676996935195049e-01) (642, 3.76071540932620462794e-01) (643, 1.85272148480057186060e-01) (644, -4.73001226775372138333e-02) (645, 2.19538032410701050567e-01) (646, 1.77731319335778265023e-01) (647, -1.01131898746847095905e-01) (648, 3.53372659057478444300e-01) (649, 3.31996792767069615060e-01) (650, 7.23136542895980727330e-02) (651, -2.76774208696544343766e-01) (652, 5.13914595343715530085e-01) (653, -5.91968238390988887865e-01) (654, 9.67850272819238272026e-02) (655, 2.85308781959425328267e-01) (656, -1.86043694203927190145e-01) (657, -1.10372007836627566979e-01) (658, 5.40770128488960888369e-01) (659, -3.13311851329963420021e-01) (660, 2.09317672164921392275e-01) (661, 1.98803164299894113975e-01) (662, -3.46303082682909435519e-01) (663, -2.59759643051370392453e-01) (664, 1.83202565692430152655e-01) (665, 2.16350998314052966887e-02) (666, 4.02115949833630678678e-02) (667, 2.57329412585799055524e-01) (668, 2.42169359207632245434e-01) (669, 7.97382335127340829972e-02) (670, -4.40517819308703983960e-01) (671, -1.23679953742698578445e-01) (672, -2.28841056385898911074e-01) (673, 1.02826236299183360057e-01) (674, 3.11678345026393632811e-01) (675, 1.38816023028721063914e-01) (676, 3.21199357018594422453e-01) (677, -1.67263084069343898053e-01) (678, -1.40514866028459278757e-01) (679, -2.41778013373427302923e-01) (680, 2.46805997304977015050e-01) (681, 5.54589223930078978331e-02) (682, 7.06154223992642049446e-01) (683, -3.11370371651240429589e-01) (684, -8.28077790012360925864e-02) (685, 1.48287229546293586324e-01) (686, 1.96472688376230303353e-01) (687, -2.84283769149675014098e-01) (688, 3.30028205725519732661e-02) (689, -1.52253186852879338758e-02) (690, 2.02825508787653763232e-01) (691, 3.93358591863187945226e-01) (692, -3.50068379181898634012e-02) (693, 2.32939612485548008802e-01) (694, -3.39691815476621528092e-02) (695, -5.86889061861219571425e-02) (696, -7.08558918747476951250e-02) (697, -2.85972125717748770768e-01) (698, -1.52453226144302955714e-01) (699, -1.07795281330855821644e-01) (700, 6.29763197705393240611e-01) (701, -9.28326432367837378612e-02) (702, -1.54732815136432666492e-01) (703, 2.30990685138611429039e-01) (704, 3.39753731946828674282e-01) (705, -3.17123804231639494500e-01) (706, -6.64275742142183683869e-02) (707, -2.91590095287076023212e-01) (708, 2.72751409451207071921e-01) (709, 6.51484910729273059005e-01) (710, -3.23515040956182609033e-01) (711, 1.38953838380430017008e-01) (712, 1.85919630709612593300e-01) (713, 3.23072308137215824519e-02) (714, 1.63642802268606779581e-01) (715, -1.19888653917952642258e-02) (716, -2.71003678238555534286e-01) (717, 3.96761538406852409810e-01) (718, 4.22313071561054367842e-02) (719, 1.04392551054888080286e-01) (720, -2.89681456499893352774e-01) (721, 9.78764083076773261372e-02) (722, -1.72504713211658694538e-01) (723, -8.62555308149298843867e-02) (724, 2.06125104597068259382e-01) (725, 1.57565859680640740770e-01) (726, -4.45853229722467547802e-01) (727, -5.76118514946439619351e-01) (728, 6.09410261577296163971e-02) (729, -2.78512380161237693699e-01) (730, -3.15745731328280321293e-01) (731, -6.65545657494989312264e-02) (732, 3.37796991373169319672e-02) (733, 1.89401285751183076633e-02) (734, -3.84627118995117145417e-01) (735, -6.36752786840859424933e-02) (736, 2.77473907468807234888e-01) (737, 1.40375330230663702968e-01) (738, -1.28758541158942557692e-01) (739, -3.25309762065448926371e-01) (740, -3.94446923503899371521e-01) (741, 6.21452382443103523713e-01) (742, 5.68643987816348950304e-01) (743, -9.30479017948736691901e-02) (744, -1.60039571295686300356e-01) (745, 4.81476454188261959732e-01) (746, 7.29188658688523227980e-01) (747, 5.61612065880939051454e-02) (748, -7.29185891444410066997e-02) (749, -1.22180817661229040860e-01) (750, -7.70059950038612384127e-02) (751, 5.85064535628633919373e-01) (752, -6.42661381823839361616e-01) (753, 1.10360635166120865658e-01) (754, 1.44249346740230079134e-02) (755, 2.29858683488865206401e-01) (756, -1.76860077495263279257e-01) (757, 1.80975053487038045619e-01) (758, 1.65708443944060979103e-01) (759, -1.20501839531533330718e-01) (760, 1.36998772908757504574e-01) (761, -3.68185372003974276112e-01) (762, -1.15893770020872241555e-01) (763, -1.39025314107721585655e-02) (764, -2.86076689491847058200e-01) (765, -3.25910832691311103115e-01) (766, 1.53683981381095485785e-01) (767, 2.67859850697604651160e-01) (768, -1.18531601028880578808e-01) (769, 1.71955445452932426109e-01) (770, -5.22415072991178411344e-02) (771, 3.13614471498533164961e-01) (772, -3.15356573659408778720e-01) (773, -2.28540524657038113254e-01) (774, -9.51780969048530295362e-02) (775, 6.19343335278250917142e-01) (776, 6.63824081508941343799e-01) (777, 2.19237200593202535837e-01) (778, -6.01398512460835310556e-01) (779, 1.33165597236532089187e-02) (780, 2.43408030865986280133e-01) (0, 1.00073504061353055206e-01) (1, 1.49872853252519311340e-01) (2, 2.63112455559917080006e-01) (3, 1.89950628781106502230e-02) (4, -1.81605367376559377612e-02) (5, -3.28300922413184009807e-02) (6, -2.16415870587458342156e-01) (7, -1.08377360663838989696e-01) (8, -9.65579163029696985188e-02) (9, 6.34461261313449959021e-02) (10, -2.91624394888146509786e-01) (11, 1.97659346254393630815e-01) (12, 2.04196910622669869362e-03) (13, -1.43063113501672889427e-01) (14, -4.38588436140972481869e-01) (15, 6.40860294645989703177e-01) (16, -2.55772958967350028114e-01) (17, -4.04002516181705184639e-01) (18, 1.10333342548370128000e-01) (19, 4.66376846581783854884e-01) (20, 8.85332079166765845146e-02) (21, 3.18396306639809889560e-01) (22, -4.66501459022695352807e-01) (23, -3.53613281441777727032e-01) (24, -1.63530814933809276468e-01) (25, 1.06818981689557279680e+00) (26, 3.13025848656971680817e-02) (27, -3.35286727313541033091e-01) (28, 4.88386344859666365892e-01) (29, -3.09317040860541514480e-01) (30, 1.00659101728226563210e-01) (31, 8.77985360206581522124e-02) (32, -2.09623913610337830882e-02) (33, -3.38198009275870514756e-01) (34, 1.36895526970200881456e-01) (35, 1.48881449888407485505e-01) (36, -2.53587677930712851460e-01) (37, 3.23543431752768284593e-01) (38, -4.01688946706934904562e-02) (39, 7.75135960213000768659e-02) (40, -1.69680777102678342905e-01) (41, -1.75225970580628054307e-01) (42, 7.25632805945467806996e-02) (43, 2.45234098944628664540e-01) (44, 1.87290385708665546582e-01) (45, 2.62307907520350713781e-01) (46, 1.32548158220022610498e-01) (47, 5.02283176188933033757e-01) (48, -4.83456088348786727771e-01) (49, -2.49777182437128708603e-01) (50, 1.18653047471468126028e-01) (51, 2.45159191547481003504e-01) (52, 1.00713422894819659703e-01) (53, -3.66623492645547444102e-01) (54, -2.70767447589359555593e-01) (55, 1.99465201403124847701e-01) (56, 2.15218250722632120642e-01) (57, 7.60614083306700994314e-02) (58, 2.94393400034191066172e-01) (59, 4.17912733943744618692e-01) (60, 1.26816973124248277838e-01) (61, -1.24938348179933919613e-01) (62, 5.26182099591263163774e-01) (63, 1.45415291019663328598e-01) (64, 5.27014143236192098008e-02) (65, 1.68874183149233719758e-01) (66, -2.90810360475636020539e-01) (67, 2.03975864789143368494e-01) (68, 1.81502603729140517264e-02) (69, -4.54251742449469225749e-02) (70, 9.65124457017427356265e-02) (71, 7.12950813433821245502e-02) (72, 2.25391539487243414142e-01) (73, -3.42581783218545932179e-01) (74, -1.23760181142515884867e-01) (75, 1.88419154302412711344e-01) (76, 5.34960558678726161297e-01) (77, 3.47564157187157551920e-01) (78, 4.25760108802618122970e-02) (79, -8.84158760231059347168e-03) (80, 1.03823253066155953006e-02) (81, -3.49146324374802252688e-01) (82, 2.33612842311561569320e-01) (83, 2.46171645541588907102e-01) (84, -3.07352302519266276648e-02) (85, 1.56661537255019210624e-02) (86, -2.14040986254666609767e-01) (87, 2.66572494488805378232e-01) (88, 2.74898358869792691639e-01) (89, -1.17843315767100928482e-01) (90, 1.98503702883348689956e-02) (91, 1.26359269770409760048e-01) (92, -1.54518998827454373535e-02) (93, 1.00525012549897374559e-01) (94, -5.19647654438728789916e-02) (95, 2.18991590099561428406e-01) (96, -1.06227098150018725575e-01) (97, -2.17646079187217178497e-01) (98, -2.43475382946231472259e-01) (99, 1.75475808673732608378e-01) (100, -1.85088957257814323842e-01) (101, -1.42973976186876711170e-01) (102, -7.80903030655577645724e-01) (103, -1.67859471347719613199e-01) (104, 4.17755272492639440074e-01) (105, -2.49446309163761648087e-01) (106, 1.38059725141461087095e-01) (107, -1.58687464789131399412e-01) (108, -1.65169044933459435720e-01) (109, -7.98311199781465419267e-02) (110, -2.19062180830461528114e-01) (111, -3.29401313970869247250e-01) (112, 1.52962844428033040156e-01) (113, 1.36230836764239832126e-01) (114, -2.61141618148916399011e-01) (115, 3.71042713442284510794e-01) (116, 9.81104179003896847977e-02) (117, 4.35459781935971346201e-01) (118, 1.46167109036760445306e-01) (119, 4.62355829048374744605e-01) (120, -8.82153323973413894254e-02) (121, 1.24527652136838598573e-01) (122, -1.67109755426207068352e-01) (123, -3.05512297029588764108e-01) (124, -3.72586455828020218783e-02) (125, -9.85413459434522770453e-02) (126, -2.65469861349096558634e-01) (127, -2.01196813777258301514e-02) (128, -2.48123253177761418642e-02) (129, 2.79434047800586511656e-02) (130, 2.24683262030530850328e-02) (131, 1.31190712652547086803e-01) (132, 7.10470417799712733453e-02) (133, -1.53870278484815492526e-01) (134, -1.75474516858630830152e-01) (135, 3.45450585613329808066e-01) (136, -4.41100975552215709974e-02) (137, -4.60349334329188952797e-01) (138, -2.93373388966377601772e-01) (139, -1.01387381720488570225e-01) (140, -1.64219836392635071265e-01) (141, -2.05463076081577628029e-01) (142, -1.68226029461972736989e-01) (143, 1.81304293401863658719e-01) (144, -1.44642773994748424782e-01) (145, 5.84502202576693052904e-01) (146, -5.06819786605533645352e-02) (147, 2.99957919098502723276e-01) (148, -1.43700631985772212668e-02) (149, 8.42080695766025955074e-02) (150, -1.78865617437704849113e-01) (151, 6.85936731027586343856e-01) (152, 5.34629771101608142203e-01) (153, 3.89101968048812085765e-01) (154, -1.29750785632997328589e-01) (155, -2.40210669825876133032e-01) (156, -6.73224662761761294405e-01) (157, 1.05930346678903081203e-01) (158, 4.70366087934672882920e-01) (159, -3.59016787164462281012e-01) (160, -1.02294719802017847199e-01) (161, 2.58308095981301250044e-02) (162, 1.10053430998722931444e-01) (163, -4.86000963413791731149e-01) (164, -5.61296219465154053174e-02) (165, -7.36232638621976270832e-02) (166, -5.02266022214675866842e-01) (167, 6.68149973313762399196e-03) (168, 1.52673514260792425601e-01) (169, 1.15435659023829274850e-03) (170, 6.34631371695877022354e-01) (171, 4.35841436893536049446e-01) (172, 5.09691726010739684649e-02) (173, 2.86002782390455068118e-01) (174, 7.74367269433297145120e-01) (175, 1.18289351624063412971e-01) (176, -3.71627894594178553866e-01) (177, 1.46954769643205862550e-01) (178, 7.47915508534355705228e-02) (179, 3.00537238247335636299e-01) (180, 1.03240628760335087510e-01) (181, 3.81093033108257428498e-01) (182, 4.60071692579562749326e-02) (183, -1.21501986305000392319e-01) (184, 4.41291094511724324434e-01) (185, 2.58434647261876308810e-02) (186, 1.25900713458204527306e-01) (187, -1.11890286580479780820e-01) (188, 6.88938383965766037997e-02) (189, -1.04292001629321381961e-01) (190, 3.71528313414698996286e-01) (191, -2.77196083303291873623e-01) (192, -2.27491457541965855227e-02) (193, 1.78295972916948847198e-01) (194, -1.33494721321959497473e-01) (195, -1.42863430960809500991e-01) (196, 1.34406671567818714053e-01) (197, 2.21196552802343265887e-01) (198, -7.30442262894544780405e-02) (199, -8.66818612622023559888e-02) (200, -2.70631460941699986122e-01) (201, -1.35717602715666130209e-01) (202, -1.46469851010253448997e-01) (203, -3.32401840807855231130e-01) (204, -9.93396066266570149095e-02) (205, -2.67436362166584340461e-01) (206, -1.29166747158739131374e-01) (207, -7.07212829889317107224e-02) (208, -5.90094332404954083349e-02) (209, 1.95687743076579961921e-01) (210, 7.46840360664034197402e-02) (211, 1.11703393987020824230e-01) (212, 1.65656084725130686719e-01) (213, -8.44249407302579135681e-02) (214, 5.17521188671237641898e-01) (215, -1.27230968041409153724e-01) (216, 5.93587211032567917124e-03) (217, -4.11549432966316075522e-02) (218, 2.32046623960425774102e-01) (219, -2.99548288573536158896e-01) (220, -1.52066748183370237246e-01) (221, -3.37652650738789125717e-02) (222, -2.97029604413265924112e-01) (223, 3.30778094281334811289e-01) (224, 2.65795758960093664314e-01) (225, 8.94941453056657398868e-02) (226, 5.44742756118749005267e-01) (227, 9.30631545754599526221e-02) (228, -3.78513423662002190806e-02) (229, 3.59800564715274495686e-01) (230, 4.70338504141018035054e-02) (231, 1.84296568948724703851e-01) (232, -8.33599996717270252944e-02) (233, -3.51400176790124363357e-01) (234, 4.50006036274224960336e-02) (235, 4.48096672984671484663e-01) (236, -6.87355798051944466565e-01) (237, 1.09010097466932673327e-01) (238, 2.04937255284084463014e-01) (239, -3.36819492947116883030e-01) (240, -1.78087091864453095358e-02) (241, -5.66724359594481252866e-02) (242, -1.51813669564865721950e-01) (243, -1.03706994433383659082e-01) (244, 1.51648216784420919456e-01) (245, -3.45480244288335902603e-01) (246, -9.26813457662394590830e-02) (247, -2.77335132000927908624e-01) (248, 9.33998900235048917784e-02) (249, 9.43352580315766353625e-03) (250, -9.10621546739660697733e-02) (251, -8.18194729259074104988e-02) (252, -1.76575483908315594705e-01) (253, -1.96951393730540019744e-01) (254, 2.22618861356356639858e-02) (255, 7.21674358516479097503e-01) (256, -1.58443616312821361491e-01) (257, -1.11961936842611547993e-01) (258, 1.22497076681825745048e-01) (259, 2.95332993817026198680e-02) (260, 3.22972810881034189112e-01) (261, 3.56575607596275712119e-01) (262, 1.44634168138663504743e-01) (263, -7.74413135102740013416e-02) (264, -4.27503591375889113735e-01) (265, 5.57225233796614788373e-02) (266, -3.82691986044364051978e-01) (267, -1.32202450381337321961e-01) (268, -3.90206687009228503360e-01) (269, -2.21658590146740802629e-01) (270, 2.13466995792408326116e-01) (271, -2.08157447292932784588e-01) (272, -4.64378207814956756039e-01) (273, 5.70864533129056161975e-01) (274, -2.31730419926922365237e-01) (275, 1.93333178631785507218e-01) (276, 4.23292517679802859920e-01) (277, 1.06437090700849820712e-01) (278, -2.32736970405551718555e-01) (279, 8.07905073458700107025e-02) (280, -4.01089331038639140825e-01) (281, 1.92904962544579255956e-01) (282, 2.58182030009471263909e-01) (283, -7.64132009395815159358e-01) (284, 9.36622372093512921276e-03) (285, 1.60741135535019119551e-01) (286, -7.57520052716434688644e-02) (287, -2.74467574798190616647e-01) (288, -8.78275475180852194246e-02) (289, -1.46048122296559307332e-01) (290, 4.92672070661327177188e-02) (291, -5.48244032588688784413e-02) (292, 9.78559869022069261923e-02) (293, 2.09423000765212335983e-01) (294, -6.73517267873463554295e-02) (295, -3.31824046380449544369e-01) (296, 1.96354952103458324508e-01) (297, -2.62412753002675358527e-01) (298, 2.15986394186651969873e-01) (299, -2.07426107078844512710e-01) (300, 2.76041122630365176605e-01) (301, -2.08221650387184653574e-01) (302, -4.79014904856903817043e-03) (303, 6.03567599176134672589e-02) (304, -4.46460934186639291088e-01) (305, -3.25545467722151149470e-01) (306, -5.64620465071804175650e-02) (307, 4.40286646530678671407e-01) (308, 5.42958070497441047664e-01) (309, 2.43386931624606395186e-01) (310, 4.15182138373613618398e-01) (311, 6.26701386428828999264e-01) (312, -3.23349400172331501863e-03) (313, -2.06366809911629006669e-01) (314, -4.01995864133700198106e-01) (315, 3.61939831192618133304e-01) (316, -2.58673517955585963168e-01) (317, -4.07442903629584574077e-03) (318, -1.72102823335962384910e-01) (319, 9.41248065592546340197e-02) (320, 1.61894990165089291967e-01) (321, -4.61029132538954944387e-01) (322, 6.19946512629130030980e-01) (323, 3.05544907348832550653e-01) (324, 6.57326245056120278543e-02) (325, 1.09072836517525514899e-01) (326, 7.25122848189150626119e-01) (327, -8.31197336114023882514e-02) (328, -2.15691114376889842008e-01) (329, 3.15693547263272034087e-01) (330, 1.31471566963143101509e-02) (331, 3.31122511583884004960e-01) (332, -2.28039551221238645518e-01) (333, -6.88591504498349715746e-01) (334, -6.19348036235257762283e-02) (335, -2.51773285010059133526e-01) (336, 1.66573073271354205049e-01) (337, 2.25216940176356211767e-01) (338, -6.03883952519058339603e-02) (339, 3.13832353985885381675e-01) (340, 5.73470053500832355198e-01) (341, 2.63929057791796983778e-01) (342, 3.87218319785071540817e-01) (343, 1.90081978684545294112e-01) (344, -4.31285171676951128994e-03) (345, 4.28536737288833069481e-01) (346, 2.12057494464420903668e-01) (347, -2.19458352773616555131e-01) (348, 2.78324631162761404468e-01) (349, 4.61503481151519123760e-01) (350, -5.11658522085303268945e-01) (351, -1.00201851609682379002e-02) (352, -1.75514028188929971375e-01) (353, 4.56111444914118323996e-03) (354, 3.04588410885459279220e-02) (355, -2.86673872282004582601e-01) (356, -1.47455900199172929010e-01) (357, -2.98052888602650167815e-01) (358, -3.15182184840473236798e-02) (359, -5.31731672245416620015e-01) (360, 4.02830802714640390239e-01) (361, -8.38978776717970789467e-03) (362, -2.74274377593347572224e-02) (363, -4.05300602940063703361e-01) (364, 3.46025130991765184074e-01) (365, 1.73843343528324589808e-01) (366, -5.94980258263373765204e-02) (367, 7.56738489816687065481e-02) (368, 3.38522154061384028534e-01) (369, -4.34581774243440743799e-03) (370, -2.06840867207927714411e-01) (371, -8.19406376196064323292e-02) (372, 6.48752383218817035848e-02) (373, -6.34999287486175956197e-02) (374, -1.17531401596090434580e-01) (375, -2.68462556287447640102e-01) (376, 1.12715997985513086133e-01) (377, -1.87493029727068410972e-02) (378, 3.01253123785175824789e-01) (379, -3.33795801054576762867e-02) (380, -1.57949360889777262740e-01) (381, 3.50065481855204641004e-01) (382, -2.83878546801785563991e-02) (383, 1.46879645542305481420e-01) (384, 1.73795189569521613127e-01) (385, -1.86396567257426093445e-01) (386, -4.36221494715036239853e-01) (387, 1.99844480027022763924e-01) (388, -3.63621013118797298258e-01) (389, 3.11590162159899763950e-01) (390, 2.35837546897493949283e-02) (391, 5.44877497681329647783e-01) (392, 2.47669442031475187105e-02) (393, 4.15665701406116472327e-01) (394, -1.01003131408739746377e-01) (395, -1.16337003661491522610e-01) (396, 1.15349124041931663798e-02) (397, 1.61392353120223319696e-01) (398, -3.47880727075758552913e-02) (399, 3.49328206906411697918e-01) (400, -1.53814148577618242664e-01) (401, 3.15319537765333599011e-02) (402, -3.29123913036481474670e-02) (403, 7.09261357177217999226e-02) (404, -2.46843847079292855184e-01) (405, 9.54861181071238324103e-02) (406, 5.74059490286700155326e-02) (407, -1.10133972869718751997e-01) (408, 7.40333659464169901998e-02) (409, -1.44082756383869525774e-01) (410, 1.80658099638880992321e-01) (411, 5.70444985504231616424e-01) (412, 2.01790383495448408246e-02) (413, 3.08197864153448748692e-02) (414, 3.77826656571110752747e-01) (415, -1.96380342630804893833e-01) (416, -1.46539475653053499066e-02) (417, 4.51370409424949714516e-01) (418, 2.06630746558540717706e-01) (419, 1.47285417752642238537e-02) (420, -6.39419964191356021699e-02) (421, 4.28084346325462161698e-02) (422, 2.10951753388077450913e-01) (423, -2.59484364385230321937e-02) (424, -5.23011781130901520775e-01) (425, -2.11329441119620570211e-01) (426, -1.98485670604347241852e-02) (427, -3.14078385312881680491e-01) (428, -4.66717531033724986056e-01) (429, 2.27798983077737660086e-01) (430, 4.49636901058512006291e-01) (431, -2.54438129484085728826e-01) (432, -7.57597934305496711893e-01) (433, 3.70576595139010200874e-01) (434, -2.22771794043740534175e-01) (435, -1.62410821341528760486e-01) (436, 1.58818508053586604500e-01) (437, 5.42189830474739675736e-01) (438, -2.92221475024365962003e-01) (439, 6.20219743680678059494e-02) (440, 1.53680736471420942291e-01) (441, 3.74096313746973774261e-01) (442, 6.51961219898778421289e-02) (443, 2.29235113545682572811e-01) (444, 5.40070082505211490620e-01) (445, -7.60155506368142136475e-02) (446, -1.36784393412643451304e-01) (447, 1.22112980017295438828e-01) (448, 4.27377522772215551194e-02) (449, 2.75673139204671346913e-01) (450, -7.73871906571166334743e-02) (451, -4.65142649093894036683e-02) (452, 1.19572494374832444253e-01) (453, -2.38750540902391616971e-01) (454, -5.13087524739505584925e-01) (455, 1.63118378395205793074e-01) (456, -1.49165740169483584943e-01) (457, -1.62348363561604008831e-01) (458, -8.87106938468023020761e-02) (459, 3.08233672177107120849e-01) (460, -1.63832965590016671475e-01) (461, -1.54794481962868851754e-01) (462, -1.54356929939988896106e-01) (463, 2.47600003677667546143e-01) (464, 1.40928775122749427862e-01) (465, 1.12249075505287343457e-01) (466, 2.30449472421586115667e-01) (467, 1.60423011063503456741e-01) (468, -2.61420838360110929788e-01) (469, -1.53354159913553916850e-01) (470, -1.15127607914616833518e-01) (471, -3.90748848096712508848e-01) (472, -2.76147473759829065187e-01) (473, 8.36795857538220888561e-02) (474, 4.79971850152424939218e-01) (475, 4.64525005670202578711e-02) (476, -3.47529160903591483045e-01) (477, 1.10789081297313324326e-01) (478, 4.90491953159812366092e-01) (479, 5.31852082111199386816e-01) (480, -3.26667010911737776269e-01) (481, -3.39634691541166100492e-01) (482, -1.79363504570447390707e-01) (483, -1.57716269473043957383e-01) (484, 1.21335716137455001951e-01) (485, 6.57772171280334161381e-02) (486, -9.37014658652022408569e-02) (487, -1.89777622474517876361e-01) (488, 2.90469029753598229071e-01) (489, -1.43649141905623362048e-01) (490, 2.86989227709995242677e-01) (491, 1.95951920741930185610e-01) (492, 3.04665118894333952770e-01) (493, -5.25112457750328776029e-01) (494, -7.05003598034435324804e-02) (495, 4.97935774653331053585e-01) (496, 1.26397886681958976363e-01) (497, 2.07407465524524964318e-01) (498, 7.76334793539750073199e-02) (499, -1.79189431842062929512e-01) (500, -2.67306899909777878621e-02) (501, -7.02294244698316999509e-02) (502, 1.74124767505908051302e-01) (503, -2.72289744034777014825e-01) (504, 2.84665816435542562424e-01) (505, -1.26452095350016779918e-01) (506, -3.11925025862759164319e-01) (507, -2.76818293515853575126e-01) (508, -1.15145144866364526615e-01) (509, 2.54334308285065147093e-01) (510, -6.75076413714534029342e-02) (511, -4.71859214801226070635e-02) (512, 3.63493832945362416176e-01) (513, -6.30664484659798074695e-02) (514, -3.17539110965620485771e-01) (515, 5.85188972834830956060e-01) (516, -3.49108069017571798209e-01) (517, 1.81878112726055959913e-02) (518, 9.46003228692413739020e-02) (519, 8.72452427039976524670e-02) (520, 1.02000500483067454982e-01) (521, 1.59263815176550610486e-01) (522, 3.37925144862421034109e-01) (523, -7.79416261812227229022e-01) (524, -7.74666768740703559626e-02) (525, 2.10840590645977668527e-02) (526, 1.03168141978566108019e-01) (527, -7.91936796487421323931e-01) (528, -7.58067163681052508251e-02) (529, 4.62041505071989488940e-01) (530, 2.23391275030181885031e-01) (531, -1.72531322644849688386e-01) (532, 5.84003536496887298846e-01) (533, -9.43184756089616022079e-02) (534, -1.51440257279886331121e-01) (535, 3.42316311199911682550e-01) (536, 4.67422624821874840850e-02) (537, -1.67385276034217489460e-01) (538, 5.77261085047420380301e-02) (539, -3.61782182001520902226e-01) (540, -1.30166743915792304520e-01) (541, 1.58136730468244612879e-01) (542, -2.55220830274022592032e-01) (543, -1.25802275530803114867e-01) (544, 3.50424825486335078661e-01) (545, -3.39941427692304953823e-01) (546, 2.04026404083168522163e-02) (547, 4.75771625688164861989e-02) (548, 5.32026001797831771256e-01) (549, 2.17377583656636584608e-02) (550, -8.07065510699161853259e-02) (551, -6.90111387518650559736e-02) (552, 3.17535841912565189316e-02) (553, 2.57611830059530921844e-01) (554, 3.71064595400838297123e-03) (555, -1.18160507090699556931e-01) (556, 2.11593922857009508753e-01) (557, -3.81626140051708820367e-02) (558, 6.69244496452343629045e-01) (559, -2.60643980892514781633e-01) (560, -6.37003543398033562906e-03) (561, 5.26423178812857939235e-01) (562, -5.30504806421768643210e-02) (563, -2.32662217572431440082e-01) (564, -5.05687870719013110588e-01) (565, 4.04897076523260332492e-02) (566, -1.11475028348666072020e-01) (567, -1.89236169737649236045e-02) (568, -1.91686035173709752588e-02) (569, 2.10538589480650545349e-01) (570, 1.63141760260266888150e-01) (571, 5.47248781200842526751e-01) (572, 1.12718892411069693260e-01) (573, -1.14466983475121839020e-01) (574, 4.48827225402743598681e-02) (575, 5.60155522974639056427e-03) (576, 1.04777717103484626499e-02) (577, -6.00365744536604517556e-03) (578, 3.58675403386082614077e-01) (579, 5.28385336331065602611e-02) (580, 9.78607043903476775393e-02) (581, 1.80557206045984325327e-01) (582, 4.34972066118469891105e-01) (583, -8.97570499308834451879e-02) (584, -2.94101317585347445116e-02) (585, -4.15078816968276642640e-01) (586, 1.53034509865224599423e-01) (587, 8.92814946217658084171e-02) (588, -3.37880962652916894129e-01) (589, -1.37571437477462282795e-01) (590, 4.50463745514576074935e-01) (591, -9.49312220454586047635e-02) (592, -9.07931776284637802321e-03) (593, 4.77594250234248049458e-02) (594, -1.03719365365875310081e-01) (595, 2.92100731836297033972e-01) (596, 1.78303946935354867831e-01) (597, -1.01115335164862443773e-01) (598, -4.00411632290655766786e-02) (599, -1.84701701130158157937e-01) (600, -1.12126365365692634568e-01) (601, -5.68508753469912808676e-01) (602, 5.06906561996254764746e-02) (603, -1.19133709661221290355e-01) (604, -5.62150720501701714471e-02) (605, 7.84948154146223320282e-02) (606, -1.30660344413511181338e-01) (607, 4.57183849034225486818e-01) (608, 3.51677460785566775581e-01) (609, 1.99352327672800422320e-01) (610, -3.10311706095072359357e-01) (611, 1.97942322991940367061e-01) (612, -2.48702121476104820452e-01) (613, 2.20680336616673244965e-01) (614, 8.05591788039979050939e-02) (615, -1.66536402995698884499e-01) (616, -5.20144912761435929127e-01) (617, 5.95710390147106971792e-02) (618, -1.08797232338420493680e-01) (619, -2.61932921890300485224e-01) (620, 2.90398735263972862519e-01) (621, 4.14058315494483575314e-01) (622, 3.27540051578028984514e-02) (623, -3.31883492071492147701e-01) (624, 2.36170134047137159072e-01) (625, 8.23752075370176584102e-02) (626, 2.49190624850917051558e-02) (627, 1.26508808718767511159e-02) (628, 2.42078572714382822539e-01) (629, -2.74913929774074639045e-03) (630, -2.03151646279001646400e-01) (631, -7.66303538576960513451e-02) (632, -2.05042270978559704186e-01) (633, 3.79762675236273550272e-01) (634, 2.14260429007253699885e-01) (635, -1.76237168703849311768e-01) (636, -3.59894139368829912851e-01) (637, 7.50640066242019843301e-02) (638, -7.11570244548843516830e-02) (639, -4.79255750294586904681e-02) (640, 5.68164296868058471546e-01) (641, -1.53730648048298224051e-01) (642, 2.68667299904833956070e-01) (643, 6.40816887897873582736e-02) (644, 7.20420768299327857198e-02) (645, -1.53654085130810053039e-01) (646, 7.82946087632296339187e-02) (647, 4.47118573702537325243e-01) (648, -6.58822073133115582166e-01) (649, 1.99202637543331534387e-01) (650, -5.22984964184238856899e-02) (651, 1.23869683928761117886e-01) (652, -6.57977080383462142876e-01) (653, 2.20765408865764789503e-01) (654, 1.81552863293966165736e-01) (655, 3.22827578859801678224e-01) (656, 3.73107898357013245683e-02) (657, -4.76997933089981229760e-01) (658, -1.07777009766452644413e-01) (659, -7.01175743564413367359e-02) (660, -1.14072956943557748954e-01) (661, -1.81186042622373727484e-01) (662, 2.04991733338718756796e-01) (663, -1.00731773034956575974e-01) (664, -1.45316645794466375863e-01) (665, -1.16023241349650640952e-01) (666, 9.21634420516109498234e-02) (667, -2.01772529370497943901e-01) (668, 6.30829640343933406577e-02) (669, -2.77610568058636542066e-01) (670, 4.44157148240879248724e-02) (671, 5.76391482121617948486e-01) (672, 2.11872567594773825173e-01) (673, 2.62476496855265140073e-01) (674, -1.88950133812113535425e-01) (675, -1.40908218151155218562e-02) (676, -3.80162169897160506782e-02) (677, -6.39412666644323807175e-02) (678, -1.30744540659700564378e-01) (679, -2.79502763973833834310e-01) (680, -8.62221643973765383695e-02) (681, -2.76334206034752755121e-03) (682, -1.13484178162887083818e-01) (683, 6.92056088671495484022e-02) (684, -1.76177311386386425962e-01) (685, 7.01695085300219345559e-02) (686, -6.31940996620623529623e-02) (687, 1.56258022829259102249e-01) (688, 5.21298593490786998927e-01) (689, 2.01897310249615824507e-01) (690, 1.69296062792393370300e-01) (691, -4.86802154931038677521e-01) (692, 5.64395862550992388762e-01) (693, -8.86908470148381339326e-02) (694, 8.82450655664862443350e-02) (695, 2.44282343614844188462e-01) (696, 5.12088836499307253902e-01) (697, 5.05320720180544163957e-02) (698, 2.30595218489822256780e-01) (699, 6.86909279859675009350e-02) (700, -4.26578307751015906035e-01) (701, 3.43061977692915853755e-01) (702, 1.27991489212921166763e-01) (703, -2.93296893746958498017e-02) (704, 1.76648776773298404885e-01) (705, -1.83479763536289725012e-01) (706, 1.81800328105953479252e-01) (707, 3.61828028229186859921e-01) (708, -1.88730464584079327128e-01) (709, 5.68197111847050378985e-02) (710, 7.35553557328879947796e-01) (711, -2.93045545808051310921e-01) (712, -2.10121303192354363931e-01) (713, 1.17510991801766856435e-01) (714, 1.44454822788886466656e-01) (715, -3.91449258497862939699e-01) (716, 3.21504127712131049233e-01) (717, -5.05876442998969721998e-01) (718, -4.88253524351917461699e-02) (719, -3.51028024244193048720e-01) (720, 5.45580562147089387359e-01) (721, -2.11024296250411552700e-01) (722, -2.81036614958907360329e-01) (723, -1.16676915519336760196e-01) (724, 8.26142696677433507890e-02) (725, -7.15746290887611380516e-02) (726, -2.99712580996808919398e-01) (727, 2.26059489431892718381e-01) (728, 2.70251297307947002668e-01) (729, -3.35994523294047331419e-01) (730, -3.29551917400843663586e-01) (731, -2.63935025267116561698e-02) (732, 1.79125035054146786173e-01) (733, 3.65392867332590548513e-02) (734, 2.73280830682129438625e-01) (735, 4.11704762124453393923e-01) (736, -8.78559189354403413663e-02) (737, 3.65744662347039450889e-01) (738, -1.15794352829323571319e-01) (739, 3.84168845822692006653e-01) (740, 9.49246613379865350479e-02) (741, -3.70085711842142728312e-02) (742, 2.37491589304642111355e-03) (743, -2.22083213354387132288e-01) (744, 6.84919945299904964209e-01) (745, 1.56373835186766202421e-01) (746, -5.91317830402028898895e-01) (747, -1.04544284129191158983e-01) (748, -2.82351803152905179994e-02) (749, 6.49725547578943601890e-02) (750, 6.65495648730898142764e-02) (751, -1.62439414165692713743e-01) (752, 2.68763638214143563143e-01) (753, -3.47563815369223594320e-01) (754, -9.59374645409129811480e-02) (755, 4.33461822738669511068e-01) (756, -8.07469960065046454822e-02) (757, 1.09109326238739437476e-01) (758, -4.70263857481695926599e-02) (759, 2.11405836614765890724e-01) (760, -1.93784246117242459073e-01) (761, 3.16570728374789556181e-01) (762, -6.64611170607800894050e-02) (763, 2.34822288178224203303e-01) (764, 4.87273884587960115500e-02) (765, 3.04991076077565814728e-01) (766, 3.44407995398393118602e-01) (767, -2.04181070611496567890e-01) (768, -2.79869752671204896632e-01) (769, -3.55645419798672424161e-01) (770, -4.54516821794462427819e-02) (771, -5.47463225986924081901e-02) (772, 3.61172118404358810650e-01) (773, 3.21797400636453956313e-01) (774, 3.38177096097921556228e-02) (775, 3.69418049801018111289e-01) (776, -2.30416737948185901264e-01) (777, 7.63970793342753640154e-02) (778, -3.91312915696335084093e-01) (779, -1.02925081290078421214e-01) (780, 1.83057563836151848680e-01) (0, 1.37007758625684650244e-01) (1, 2.74155435181741902184e-01) (2, 3.05002790439903914699e-01) (3, 1.09008327586677500332e-01) (4, 2.90848345983886202859e-01) (5, 3.56755935315131098018e-02) (6, -1.80650846842446949347e-01) (7, 3.46735832791196685321e-01) (8, -1.28365047437872248359e-01) (9, -2.08925102065333545553e-01) (10, -3.34982254737566209624e-01) (11, -1.44663990751603438456e-01) (12, -5.10945626697624014079e-02) (13, 3.27794314583788271023e-01) (14, -1.52202860335233641775e-01) (15, 3.06433492155952280633e-01) (16, -1.70380408252144809056e-02) (17, -2.69872471466934660267e-01) (18, -4.82731772575548889748e-01) (19, -2.20678501123966003261e-01) (20, -1.07887623083680397884e-02) (21, 1.22719621976797366170e-01) (22, 1.50873326435740973128e-01) (23, -3.98649511247418986137e-01) (24, 9.70416993530070770557e-02) (25, -3.25230843817129244844e-01) (26, -1.99366290703620996361e-01) (27, -3.83239578958360048444e-03) (28, 2.38427692404565960693e-01) (29, 4.43913260783366653284e-02) (30, -1.17256280838195961480e-01) (31, -5.15100784349230289560e-02) (32, -2.06872828593445204359e-02) (33, -3.32006578609462133650e-03) (34, -1.14781470961787895879e-01) (35, 1.06055834371440060870e-01) (36, -1.54919093257046946999e-01) (37, -1.81289600858140637074e-01) (38, 2.36158231996401707375e-01) (39, -6.83836090762238862917e-02) (40, 2.57038384499505057068e-01) (41, 1.57879728494093068969e-01) (42, -3.46446638501385351105e-03) (43, -1.97947887874811545572e-01) (44, -3.93943782223601046688e-01) (45, -1.33935140175375517330e-02) (46, 1.50684964591245418308e-01) (47, -1.48828272717731312919e-02) (48, -1.78182766459735214548e-01) (49, -5.26286335013444045439e-02) (50, -1.66512321004058244656e-01) (51, 6.46476731121728320772e-01) (52, -9.74118451961623194046e-02) (53, -4.26999438616228133014e-01) (54, -1.28636563859526625864e-01) (55, 8.42773751815022453826e-02) (56, -3.37657877089368174683e-01) (57, -9.07235911596356303654e-02) (58, 9.35535550218251632515e-02) (59, -2.87161201591166238833e-02) (60, 5.75689967034533234269e-01) (61, -2.18646901017614664342e-02) (62, 2.63154581675904108984e-01) (63, 3.65055499677889694343e-01) (64, -4.98327257086742664294e-02) (65, -4.09932179026190127158e-02) (66, 2.54515707867979112944e-01) (67, -1.91314454503700215326e-01) (68, -6.86703458591156334911e-01) (69, -1.31250091951311070870e-01) (70, 2.50153115424930239108e-01) (71, -2.54968406701006289339e-01) (72, 2.02000146567386629215e-01) (73, -2.14114416406345035859e-02) (74, -1.51648380447672953553e-01) (75, 2.71719306110363545415e-01) (76, 2.48326285181341893660e-01) (77, 8.76387883165651165873e-02) (78, 1.79099794352051491786e-02) (79, -6.92966180487898264495e-01) (80, 5.53803917403588585877e-01) (81, -2.42256436864751512061e-01) (82, -1.31641607364426788118e-01) (83, -5.70305081569684318987e-02) (84, 2.39492194570484623339e-02) (85, 1.50499711176619241360e-02) (86, -1.49379335598177880734e-02) (87, 2.50194126177266995548e-01) (88, 2.42315831299604683702e-01) (89, -3.21392380713850372986e-02) (90, -1.50881907103888823762e-01) (91, 1.92591142401469184176e-01) (92, -2.20461017410822246454e-01) (93, 3.09303353796229855976e-02) (94, -5.90781500984452548342e-02) (95, 3.32744843203945872556e-01) (96, -3.23078797769188325040e-02) (97, 1.01092311585393890283e-01) (98, -2.20321199925852889701e-01) (99, 1.49832932523536022096e-01) (100, 2.43442675080150182365e-02) (101, -2.16469478095932588158e-01) (102, -1.82575744527878947032e-01) (103, -7.48657560012712802733e-02) (104, 2.05096422949750861742e-01) (105, -2.31135020618177505769e-01) (106, 4.35702504581115312998e-01) (107, -3.43127104558755779973e-01) (108, -1.52743235545610311910e-01) (109, -1.24857537446283334281e-02) (110, 2.44079825563504743124e-01) (111, -2.44367269383280599770e-01) (112, 1.03298409909488311809e-01) (113, 7.31030787759155351035e-03) (114, 2.60774619404491425634e-01) (115, -1.56833749084134804752e-01) (116, 6.35052176342191798675e-02) (117, -1.26884426999046562301e-01) (118, -2.52981687062376114916e-01) (119, 2.92916865888924959904e-01) (120, -1.24822413692652400830e-01) (121, -1.69640432300671800681e-01) (122, -4.01874852125400028324e-01) (123, 1.66728160038049549874e-01) (124, 2.30772891544385433393e-01) (125, -3.97691962434712775742e-02) (126, -1.88938406611420001147e-01) (127, -7.09856657740538712215e-03) (128, 3.40535881756972080847e-01) (129, 2.26461749191278677307e-01) (130, 5.67931193939316056318e-02) (131, 1.28465073930059014984e-01) (132, -4.06425775683043166708e-01) (133, -2.10961478579250183429e-01) (134, -5.91305808538760413473e-02) (135, 1.29486058992175800952e-01) (136, 7.62310197760316526905e-02) (137, -3.58355536743884706130e-01) (138, -1.25699637084021931255e-01) (139, -1.20994476183007335091e-01) (140, -8.08246009713682045383e-02) (141, 2.02172567912061812434e-01) (142, -1.53536041074628010206e-01) (143, 2.58685805398535972888e-01) (144, -9.64283940606562167686e-02) (145, 4.17250733678255381065e-01) (146, 9.03273012910380951324e-02) (147, -4.16873127818243247034e-02) (148, 2.76052618308374408951e-01) (149, 1.57822998220886939746e-01) (150, -9.95819635550714704619e-02) (151, -2.34181063865033123328e-01) (152, -6.22248193283710046564e-02) (153, 2.50687980854574221645e-01) (154, 4.40570929017578161169e-01) (155, -4.60611436550641961674e-02) (156, -2.01775412347380334044e-01) (157, -2.71224432051925690851e-03) (158, 1.53358579950695211869e-01) (159, 2.02541789745301098469e-01) (160, 1.70603271133781236868e-01) (161, 1.45260472152538150370e-02) (162, -2.36180135185463296876e-01) (163, 1.77249976659274111057e-01) (164, 1.82599666023057299880e-01) (165, 2.03980417239400135809e-01) (166, -2.16351979819344279743e-02) (167, -2.15477871426907968688e-01) (168, -8.88049311715073119711e-02) (169, -8.13984592482661500901e-02) (170, 2.97352832266664202088e-01) (171, -1.01281471013304230633e-01) (172, 1.89417617452898617847e-01) (173, -2.34632438831204215290e-01) (174, 9.88768927306516554054e-01) (175, -3.19323742490055465654e-03) (176, -2.00714745757853169073e-01) (177, 1.03969251558724648521e-01) (178, -6.64989030091578808834e-02) (179, 6.00355409050208566057e-01) (180, -1.07397651621588555160e-01) (181, 3.82073180098409792560e-01) (182, 3.75038947910650705131e-02) (183, -7.28786529842937902401e-01) (184, -2.90790507166958145380e-01) (185, -3.36543998816240752525e-01) (186, 1.93391244389574501472e-01) (187, -1.86440015348917770277e-01) (188, 6.24053478226862384792e-03) (189, -4.01752720368977467302e-01) (190, 2.23777221224359584850e-01) (191, -1.24702785803990204294e-01) (192, -4.33781781458789372774e-02) (193, -3.40703360768853102947e-01) (194, 3.63964087767248839489e-02) (195, -1.46370120678727316799e-01) (196, 7.85427549012140818752e-02) (197, 2.81993476004785470490e-01) (198, -1.87079644755715757132e-02) (199, -1.84279161452295725532e-01) (200, -3.21851615888707698332e-01) (201, 1.76397982035403216861e-01) (202, -3.75179295188035472064e-02) (203, -3.30709840686982448066e-01) (204, -4.84321353337922935745e-02) (205, 3.94787272939309472064e-02) (206, -2.34612324442041525474e-01) (207, -4.85940794597792685705e-02) (208, 1.44562929227201708571e-01) (209, -1.00783289952970603331e-01) (210, -6.91746796249270191892e-03) (211, -1.65896654808550675364e-01) (212, -3.19030468992992144450e-01) (213, 6.56193783971574517988e-02) (214, 4.96839859850971066191e-01) (215, -3.07663956959525364265e-01) (216, -1.44776803935352083030e-01) (217, -5.99514290671029695390e-02) (218, -1.73907624343921957122e-01) (219, 2.29512182140528819829e-01) (220, -1.08297827352282938218e-01) (221, -6.27493938997791128598e-02) (222, -3.04465386089660339231e-01) (223, 2.64416279598592041111e-01) (224, 1.13395178433191870515e-01) (225, -1.60148069314665658647e-01) (226, 8.86780581012267810070e-02) (227, -8.05824492617246007642e-02) (228, 1.44151647595011755953e-01) (229, 6.27463432624205275784e-03) (230, 2.83686567736716910293e-01) (231, 8.86238817451473065434e-02) (232, -1.61740444492758372874e-01) (233, 1.02308589795664331423e-01) (234, -7.85357577321791067160e-02) (235, 4.38438870040596062605e-01) (236, -2.55392865511385014354e-01) (237, -2.31267598675702318323e-01) (238, -3.54254028284287508788e-02) (239, 1.42579611487117924318e-01) (240, 2.15826154177280529756e-02) (241, -3.20229793483415459132e-01) (242, -3.07952563004569163096e-02) (243, -5.93879036414921568365e-02) (244, 8.27218831718744135317e-02) (245, -6.51492050028558700170e-02) (246, 6.14502474546354884866e-02) (247, -1.03443466915663459527e-01) (248, 1.58694612687503233683e-01) (249, -2.45983214171010822202e-01) (250, -7.81108629422018196919e-02) (251, 2.48922682908049613948e-01) (252, 5.37645907244578502571e-01) (253, -1.37895946707528416209e-01) (254, -1.56923804753590245831e-01) (255, 6.75355127675958066824e-01) (256, -1.29361662772566582413e-01) (257, -1.10037385011743107932e-01) (258, -7.36888118891209781269e-02) (259, -2.35779872908854742919e-01) (260, -2.85383830815458372498e-01) (261, -2.29189556506261493674e-01) (262, -3.91129124300930497427e-01) (263, 2.90072032349988517819e-01) (264, 5.00046407157056019277e-02) (265, -4.08391446372739080894e-02) (266, 6.58044279288293731955e-02) (267, -6.89625308094405642390e-02) (268, -1.62329977208837350489e-01) (269, 1.51960532132003584005e-01) (270, 1.02280914647037216025e-02) (271, -4.04294088654649053094e-01) (272, -8.79136661835609733995e-02) (273, 7.80489568216666262934e-01) (274, 2.00273035315324587913e-01) (275, -6.05653290122747239854e-02) (276, 6.86612338914767139642e-01) (277, 2.05465340330773710287e-01) (278, 5.78710035710170156431e-02) (279, 2.85456217513155197096e-01) (280, -3.60640567682229485139e-03) (281, -1.69759873939518302066e-01) (282, 2.77453100338402036673e-01) (283, -3.64675293983056314495e-01) (284, 1.02574756417920964768e-01) (285, -1.64308972137070463670e-01) (286, 8.48170584599235166667e-02) (287, 4.15384388550109860672e-03) (288, 6.20695794564245437175e-02) (289, -1.56059946577149888380e-01) (290, 3.00593512183036704055e-01) (291, -4.74201045545033283979e-01) (292, 2.04733203422027831841e-04) (293, 7.28616596026872703762e-02) (294, -1.58653719693944456059e-01) (295, -1.77181431611595163744e-01) (296, -1.04813181668120772305e-01) (297, -7.62624537151407877467e-02) (298, 4.60524959097910191463e-01) (299, -4.54949892143313855408e-02) (300, 2.34951857153129661793e-01) (301, 1.48075861735954272813e-01) (302, 4.78293778051343126956e-02) (303, -2.73631195502092250393e-01) (304, -3.22444125175549545226e-01) (305, -7.02446276439418482163e-02) (306, -7.77975097715483399075e-02) (307, -3.30238653580690488809e-01) (308, 3.94773028332974118548e-01) (309, -4.32449092615342645107e-02) (310, -2.60289507186401758432e-01) (311, 4.31393631270170441194e-01) (312, 7.54808841061931495853e-02) (313, -2.15959068286287664273e-01) (314, -2.58838599551469539239e-01) (315, 3.18255814758676869314e-01) (316, -1.22187391286352142750e-01) (317, 1.96834991825148297728e-03) (318, -5.22830150849109775990e-01) (319, -1.33267042259452239694e-01) (320, 6.76118545682512062100e-01) (321, 6.19629488706934794529e-02) (322, -4.28529874458505322110e-01) (323, 2.11728651037147636016e-01) (324, 1.24564223934101311886e-01) (325, -7.34109121982932369063e-04) (326, 2.79757296026664714628e-01) (327, 2.02141317309738444141e-01) (328, -2.01215944328817203379e-01) (329, 1.14897358844488109431e-01) (330, 3.17485128670731281408e-02) (331, 1.17577918182283761017e-01) (332, -2.78190709664961288716e-01) (333, -2.54232896624111914807e-01) (334, -2.21796920726926583001e-01) (335, 1.37550109525018393608e-01) (336, -3.11982673890371597913e-01) (337, -2.21435018304801944922e-01) (338, 9.80440470098561944745e-02) (339, 3.51049329904074891573e-01) (340, 1.63418416610316419302e-01) (341, 2.74325733530744797495e-01) (342, -2.01117088566433371843e-01) (343, 5.98101670386367301191e-01) (344, -6.83860871886623755689e-02) (345, -1.62758622212118592154e-01) (346, -1.29522222839210444413e-03) (347, -1.06771337330232848895e-01) (348, -1.35009281485952120638e-01) (349, 4.38895114395690177922e-01) (350, -1.44805329942200411431e-01) (351, -4.72605281421243292317e-02) (352, -7.49034316707450961020e-03) (353, -2.76419604748017362639e-02) (354, -6.38150961334272570635e-02) (355, -7.43583989881560492030e-02) (356, -3.75348218663503208070e-02) (357, -2.50000175578683481170e-01) (358, -3.58982234023246596366e-02) (359, 5.82167525287346721008e-01) (360, -1.43708834670267210365e-01) (361, -2.64186939040063240025e-01) (362, -2.21595667834025400467e-01) (363, -1.96119074173895818758e-01) (364, -3.24828070850406491754e-01) (365, 7.78016178864372021096e-01) (366, 4.28690743935120521790e-01) (367, 1.89021007117367911832e-01) (368, 4.39320005926038370525e-01) (369, 7.15426113872618951728e-02) (370, -1.51239674138833796180e-01) (371, 2.70775952181823487130e-01) (372, -1.49146186906016969820e-01) (373, 2.33396500497206532687e-01) (374, -2.48684247831907345727e-01) (375, 7.98356819563765252035e-02) (376, 2.21576437371410001065e-01) (377, 2.92296005684743009922e-01) (378, -1.96675504949050949932e-01) (379, -7.68216992148273991603e-02) (380, -2.35821351131972722914e-01) (381, 1.48414718673562956441e-01) (382, -5.84231267805120690895e-01) (383, 7.84925403575682939517e-02) (384, -4.35543230722994084703e-02) (385, 2.22382755918101686354e-02) (386, -1.50642115055014957914e-01) (387, -5.01790539621974840401e-01) (388, -1.81499558202318417299e-01) (389, 4.40355351990963261866e-01) (390, 6.58198254677627159204e-02) (391, -2.75411802408124684050e-01) (392, 4.00308973662705736007e-01) (393, -1.31993509688815346959e-01) (394, -9.24394021495634071739e-02) (395, -2.75771102844528825937e-01) (396, 4.62856300553028190969e-02) (397, 1.46692659838151745477e-01) (398, -2.44974590367130762303e-01) (399, 3.84150398292640915532e-01) (400, -1.36027775025531816322e-01) (401, 2.79048023446883008969e-01) (402, 5.76999373291946712761e-02) (403, 8.04600491070754514356e-02) (404, -1.90859636054903331059e-01) (405, -2.90099810669706248412e-01) (406, 2.11066072226555184743e-02) (407, -1.34291622306478425353e-01) (408, 1.84342881916507939088e-01) (409, -1.34586922477307469048e-01) (410, 2.50948510562145690739e-02) (411, -2.47848345017121690637e-01) (412, 1.60736094080056002124e-03) (413, -2.79234175621340396933e-01) (414, 2.98809260696320078132e-01) (415, 4.31925721200152046286e-02) (416, 1.35792800682320718986e-01) (417, -1.36738005565097853200e-01) (418, -3.77468666108176087448e-01) (419, 7.73180943750082644295e-02) (420, 1.48057995255674007540e-01) (421, -9.80988164149048103013e-02) (422, -1.29501264484389505549e-01) (423, 8.42412526695691665779e-02) (424, -1.62412023811030370446e-01) (425, -1.28982958018716176163e-01) (426, 3.42114399541003588734e-01) (427, -2.78969947407551634166e-02) (428, -8.85935098061113590617e-02) (429, 4.11549320578299890339e-02) (430, -4.80781436088494121273e-02) (431, -2.60847785439882851044e-01) (432, -1.28275874434272990632e-01) (433, 2.92056120392267470898e-01) (434, 6.41032563601246219154e-02) (435, 1.87180922439359104237e-01) (436, -2.34539764783527282521e-01) (437, 