FANN_FLO_2.1
num_layers=4
learning_rate=0.700000
connection_rate=1.000000
network_type=0
learning_momentum=0.000000
training_algorithm=2
train_error_function=1
train_stop_function=0
cascade_output_change_fraction=0.010000
quickprop_decay=-0.000100
quickprop_mu=1.750000
rprop_increase_factor=1.200000
rprop_decrease_factor=0.500000
rprop_delta_min=0.000000
rprop_delta_max=50.000000
rprop_delta_zero=0.100000
cascade_output_stagnation_epochs=12
cascade_candidate_change_fraction=0.010000
cascade_candidate_stagnation_epochs=12
cascade_max_out_epochs=150
cascade_max_cand_epochs=150
cascade_num_candidate_groups=2
bit_fail_limit=3.49999999999999977796e-01
cascade_candidate_limit=1.00000000000000000000e+03
cascade_weight_multiplier=4.00000000000000022204e-01
cascade_activation_functions_count=10
cascade_activation_functions=3 5 7 8 10 11 14 15 16 17 
cascade_activation_steepnesses_count=4
cascade_activation_steepnesses=2.50000000000000000000e-01 5.00000000000000000000e-01 7.50000000000000000000e-01 1.00000000000000000000e+00 
layer_sizes=19 129 129 7 
scale_included=0
neurons (num_inputs, activation_function, activation_steepness)=(0, 0, 0.00000000000000000000e+00) (0, 0, 0.00000000000000000000e+00) (0, 0, 0.00000000000000000000e+00) (0, 0, 0.00000000000000000000e+00) (0, 0, 0.00000000000000000000e+00) (0, 0, 0.00000000000000000000e+00) (0, 0, 0.00000000000000000000e+00) (0, 0, 0.00000000000000000000e+00) (0, 0, 0.00000000000000000000e+00) (0, 0, 0.00000000000000000000e+00) (0, 0, 0.00000000000000000000e+00) (0, 0, 0.00000000000000000000e+00) (0, 0, 0.00000000000000000000e+00) (0, 0, 0.00000000000000000000e+00) (0, 0, 0.00000000000000000000e+00) (0, 0, 0.00000000000000000000e+00) (0, 0, 0.00000000000000000000e+00) (0, 0, 0.00000000000000000000e+00) (0, 0, 0.00000000000000000000e+00) (19, 5, 5.00000000000000000000e-01) (19, 5, 5.00000000000000000000e-01) (19, 5, 5.00000000000000000000e-01) (19, 5, 5.00000000000000000000e-01) (19, 5, 5.00000000000000000000e-01) (19, 5, 5.00000000000000000000e-01) (19, 5, 5.00000000000000000000e-01) (19, 5, 5.00000000000000000000e-01) (19, 5, 5.00000000000000000000e-01) (19, 5, 5.00000000000000000000e-01) (19, 5, 5.00000000000000000000e-01) (19, 5, 5.00000000000000000000e-01) (19, 5, 5.00000000000000000000e-01) (19, 5, 5.00000000000000000000e-01) (19, 5, 5.00000000000000000000e-01) (19, 5, 5.00000000000000000000e-01) (19, 5, 5.00000000000000000000e-01) (19, 5, 5.00000000000000000000e-01) (19, 5, 5.00000000000000000000e-01) (19, 5, 5.00000000000000000000e-01) (19, 5, 5.00000000000000000000e-01) (19, 5, 5.00000000000000000000e-01) (19, 5, 5.00000000000000000000e-01) (19, 5, 5.00000000000000000000e-01) (19, 5, 5.00000000000000000000e-01) (19, 5, 5.00000000000000000000e-01) (19, 5, 5.00000000000000000000e-01) (19, 5, 5.00000000000000000000e-01) (19, 5, 5.00000000000000000000e-01) (19, 5, 5.00000000000000000000e-01) (19, 5, 5.00000000000000000000e-01) (19, 5, 5.00000000000000000000e-01) (19, 5, 5.00000000000000000000e-01) (19, 5, 5.00000000000000000000e-01) (19, 5, 5.00000000000000000000e-01) (19, 5, 5.00000000000000000000e-01) (19, 5, 5.00000000000000000000e-01) (19, 5, 5.00000000000000000000e-01) (19, 5, 5.00000000000000000000e-01) (19, 5, 5.00000000000000000000e-01) (19, 5, 5.00000000000000000000e-01) (19, 5, 5.00000000000000000000e-01) (19, 5, 5.00000000000000000000e-01) (19, 5, 5.00000000000000000000e-01) (19, 5, 5.00000000000000000000e-01) (19, 5, 5.00000000000000000000e-01) (19, 5, 5.00000000000000000000e-01) (19, 5, 5.00000000000000000000e-01) (19, 5, 5.00000000000000000000e-01) (19, 5, 5.00000000000000000000e-01) (19, 5, 5.00000000000000000000e-01) (19, 5, 5.00000000000000000000e-01) (19, 5, 5.00000000000000000000e-01) (19, 5, 5.00000000000000000000e-01) (19, 5, 5.00000000000000000000e-01) (19, 5, 5.00000000000000000000e-01) (19, 5, 5.00000000000000000000e-01) (19, 5, 5.00000000000000000000e-01) (19, 5, 5.00000000000000000000e-01) (19, 5, 5.00000000000000000000e-01) (19, 5, 5.00000000000000000000e-01) (19, 5, 5.00000000000000000000e-01) (19, 5, 5.00000000000000000000e-01) (19, 5, 5.00000000000000000000e-01) (19, 5, 5.00000000000000000000e-01) (19, 5, 5.00000000000000000000e-01) (19, 5, 5.00000000000000000000e-01) (19, 5, 5.00000000000000000000e-01) (19, 5, 5.00000000000000000000e-01) (19, 5, 5.00000000000000000000e-01) (19, 5, 5.00000000000000000000e-01) (19, 5, 5.00000000000000000000e-01) (19, 5, 5.00000000000000000000e-01) (19, 5, 5.00000000000000000000e-01) (19, 5, 5.00000000000000000000e-01) (19, 5, 5.00000000000000000000e-01) (19, 5, 5.00000000000000000000e-01) (19, 5, 5.00000000000000000000e-01) (19, 5, 5.00000000000000000000e-01) (19, 5, 5.00000000000000000000e-01) (19, 5, 5.00000000000000000000e-01) (19, 5, 5.00000000000000000000e-01) (19, 5, 5.00000000000000000000e-01) (19, 5, 5.00000000000000000000e-01) (19, 5, 5.00000000000000000000e-01) (19, 5, 5.00000000000000000000e-01) (19, 5, 5.00000000000000000000e-01) (19, 5, 5.00000000000000000000e-01) (19, 5, 5.00000000000000000000e-01) (19, 5, 5.00000000000000000000e-01) (19, 5, 5.00000000000000000000e-01) (19, 5, 5.00000000000000000000e-01) (19, 5, 5.00000000000000000000e-01) (19, 5, 5.00000000000000000000e-01) (19, 5, 5.00000000000000000000e-01) (19, 5, 5.00000000000000000000e-01) (19, 5, 5.00000000000000000000e-01) (19, 5, 5.00000000000000000000e-01) (19, 5, 5.00000000000000000000e-01) (19, 5, 5.00000000000000000000e-01) (19, 5, 5.00000000000000000000e-01) (19, 5, 5.00000000000000000000e-01) (19, 5, 5.00000000000000000000e-01) (19, 5, 5.00000000000000000000e-01) (19, 5, 5.00000000000000000000e-01) (19, 5, 5.00000000000000000000e-01) (19, 5, 5.00000000000000000000e-01) (19, 5, 5.00000000000000000000e-01) (19, 5, 5.00000000000000000000e-01) (19, 5, 5.00000000000000000000e-01) (19, 5, 5.00000000000000000000e-01) (19, 5, 5.00000000000000000000e-01) (19, 5, 5.00000000000000000000e-01) (19, 5, 5.00000000000000000000e-01) (19, 5, 5.00000000000000000000e-01) (19, 5, 5.00000000000000000000e-01) (19, 5, 5.00000000000000000000e-01) (19, 5, 5.00000000000000000000e-01) (19, 5, 5.00000000000000000000e-01) (19, 5, 5.00000000000000000000e-01) (19, 5, 5.00000000000000000000e-01) (19, 5, 5.00000000000000000000e-01) (19, 5, 5.00000000000000000000e-01) (19, 5, 5.00000000000000000000e-01) (19, 5, 5.00000000000000000000e-01) (19, 5, 5.00000000000000000000e-01) (19, 5, 5.00000000000000000000e-01) (19, 5, 5.00000000000000000000e-01) (0, 5, 0.00000000000000000000e+00) (129, 5, 5.00000000000000000000e-01) (129, 5, 5.00000000000000000000e-01) (129, 5, 5.00000000000000000000e-01) (129, 5, 5.00000000000000000000e-01) (129, 5, 5.00000000000000000000e-01) (129, 5, 5.00000000000000000000e-01) (129, 5, 5.00000000000000000000e-01) (129, 5, 5.00000000000000000000e-01) (129, 5, 5.00000000000000000000e-01) (129, 5, 5.00000000000000000000e-01) (129, 5, 5.00000000000000000000e-01) (129, 5, 5.00000000000000000000e-01) (129, 5, 5.00000000000000000000e-01) (129, 5, 5.00000000000000000000e-01) (129, 5, 5.00000000000000000000e-01) (129, 5, 5.00000000000000000000e-01) (129, 5, 5.00000000000000000000e-01) (129, 5, 5.00000000000000000000e-01) (129, 5, 5.00000000000000000000e-01) (129, 5, 5.00000000000000000000e-01) (129, 5, 5.00000000000000000000e-01) (129, 5, 5.00000000000000000000e-01) (129, 5, 5.00000000000000000000e-01) (129, 5, 5.00000000000000000000e-01) (129, 5, 5.00000000000000000000e-01) (129, 5, 5.00000000000000000000e-01) (129, 5, 5.00000000000000000000e-01) (129, 5, 5.00000000000000000000e-01) (129, 5, 5.00000000000000000000e-01) (129, 5, 5.00000000000000000000e-01) (129, 5, 5.00000000000000000000e-01) (129, 5, 5.00000000000000000000e-01) (129, 5, 5.00000000000000000000e-01) (129, 5, 5.00000000000000000000e-01) (129, 5, 5.00000000000000000000e-01) (129, 5, 5.00000000000000000000e-01) (129, 5, 5.00000000000000000000e-01) (129, 5, 5.00000000000000000000e-01) (129, 5, 5.00000000000000000000e-01) (129, 5, 5.00000000000000000000e-01) (129, 5, 5.00000000000000000000e-01) (129, 5, 5.00000000000000000000e-01) (129, 5, 5.00000000000000000000e-01) (129, 5, 5.00000000000000000000e-01) (129, 5, 5.00000000000000000000e-01) (129, 5, 5.00000000000000000000e-01) (129, 5, 5.00000000000000000000e-01) (129, 5, 5.00000000000000000000e-01) (129, 5, 5.00000000000000000000e-01) (129, 5, 5.00000000000000000000e-01) (129, 5, 5.00000000000000000000e-01) (129, 5, 5.00000000000000000000e-01) (129, 5, 5.00000000000000000000e-01) (129, 5, 5.00000000000000000000e-01) (129, 5, 5.00000000000000000000e-01) (129, 5, 5.00000000000000000000e-01) (129, 5, 5.00000000000000000000e-01) (129, 5, 5.00000000000000000000e-01) (129, 5, 5.00000000000000000000e-01) (129, 5, 5.00000000000000000000e-01) (129, 5, 5.00000000000000000000e-01) (129, 5, 5.00000000000000000000e-01) (129, 5, 5.00000000000000000000e-01) (129, 5, 5.00000000000000000000e-01) (129, 5, 5.00000000000000000000e-01) (129, 5, 5.00000000000000000000e-01) (129, 5, 5.00000000000000000000e-01) (129, 5, 5.00000000000000000000e-01) (129, 5, 5.00000000000000000000e-01) (129, 5, 5.00000000000000000000e-01) (129, 5, 5.00000000000000000000e-01) (129, 5, 5.00000000000000000000e-01) (129, 5, 5.00000000000000000000e-01) (129, 5, 5.00000000000000000000e-01) (129, 5, 5.00000000000000000000e-01) (129, 5, 5.00000000000000000000e-01) (129, 5, 5.00000000000000000000e-01) (129, 5, 5.00000000000000000000e-01) (129, 5, 5.00000000000000000000e-01) (129, 5, 5.00000000000000000000e-01) (129, 5, 5.00000000000000000000e-01) (129, 5, 5.00000000000000000000e-01) (129, 5, 5.00000000000000000000e-01) (129, 5, 5.00000000000000000000e-01) (129, 5, 5.00000000000000000000e-01) (129, 5, 5.00000000000000000000e-01) (129, 5, 5.00000000000000000000e-01) (129, 5, 5.00000000000000000000e-01) (129, 5, 5.00000000000000000000e-01) (129, 5, 5.00000000000000000000e-01) (129, 5, 5.00000000000000000000e-01) (129, 5, 5.00000000000000000000e-01) (129, 5, 5.00000000000000000000e-01) (129, 5, 5.00000000000000000000e-01) (129, 5, 5.00000000000000000000e-01) (129, 5, 5.00000000000000000000e-01) (129, 5, 5.00000000000000000000e-01) (129, 5, 5.00000000000000000000e-01) (129, 5, 5.00000000000000000000e-01) (129, 5, 5.00000000000000000000e-01) (129, 5, 5.00000000000000000000e-01) (129, 5, 5.00000000000000000000e-01) (129, 5, 5.00000000000000000000e-01) (129, 5, 5.00000000000000000000e-01) (129, 5, 5.00000000000000000000e-01) (129, 5, 5.00000000000000000000e-01) (129, 5, 5.00000000000000000000e-01) (129, 5, 5.00000000000000000000e-01) (129, 5, 5.00000000000000000000e-01) (129, 5, 5.00000000000000000000e-01) (129, 5, 5.00000000000000000000e-01) (129, 5, 5.00000000000000000000e-01) (129, 5, 5.00000000000000000000e-01) (129, 5, 5.00000000000000000000e-01) (129, 5, 5.00000000000000000000e-01) (129, 5, 5.00000000000000000000e-01) (129, 5, 5.00000000000000000000e-01) (129, 5, 5.00000000000000000000e-01) (129, 5, 5.00000000000000000000e-01) (129, 5, 5.00000000000000000000e-01) (129, 5, 5.00000000000000000000e-01) (129, 5, 5.00000000000000000000e-01) (129, 5, 5.00000000000000000000e-01) (129, 5, 5.00000000000000000000e-01) (129, 5, 5.00000000000000000000e-01) (129, 5, 5.00000000000000000000e-01) (129, 5, 5.00000000000000000000e-01) (129, 5, 5.00000000000000000000e-01) (0, 5, 0.00000000000000000000e+00) (129, 5, 5.00000000000000000000e-01) (129, 5, 5.00000000000000000000e-01) (129, 5, 5.00000000000000000000e-01) (129, 5, 5.00000000000000000000e-01) (129, 5, 5.00000000000000000000e-01) (129, 5, 5.00000000000000000000e-01) (0, 5, 0.00000000000000000000e+00) 
connections (connected_to_neuron, weight)=(0, -1.78001842022309730851e-01) (1, -1.19176291644783841073e-01) (2, -7.36655988869963033322e-03) (3, 5.27640407802442007457e-02) (4, -1.22263498129790947055e-02) (5, 1.02955661126562264540e-01) (6, 1.26478276008870543778e-01) (7, 1.09370891272122350291e-01) (8, 5.06299748544484801843e-03) (9, -1.80668457593106675067e-03) (10, -5.72254181423216129465e-02) (11, -1.67829769199376310773e-01) (12, 4.94400413439672267724e-02) (13, -2.90035213124723804251e-03) (14, 1.26757439424684207468e-02) (15, -7.20995702252200526550e-02) (16, 2.13258938321184803033e-02) (17, -8.87204313522763771127e-02) (18, 1.58272000328566198046e-02) (0, 2.62204171984886824642e-01) (1, 2.74132040669704812874e-01) (2, 2.76483731287859191283e-01) (3, 2.62640503446014195177e-01) (4, 4.19441310400057165708e-01) (5, 4.32665227893676007653e-01) (6, 2.87868154677992427182e-01) (7, 3.01432816196851971480e-01) (8, 2.85360506389787549342e-01) (9, 2.88059531423168257991e-01) (10, 4.17564752199042210634e-01) (11, 3.53805581449456729715e-01) (12, 3.68455541960843790950e-01) (13, 3.28435462558877455663e-01) (14, 4.48451994301407030896e-01) (15, 3.02204963057199960108e-01) (16, 4.05078046413392067748e-01) (17, 4.22966956151881678938e-01) (18, 3.07886013077011189143e-01) (0, 3.22084571803863295436e-01) (1, 1.97978646765312626954e-01) (2, 2.43018451148669129003e-01) (3, 2.77118136447473906170e-01) (4, 1.22668581551178124123e+00) (5, 5.66876537300378680051e-01) (6, 3.08940851844995478803e-01) (7, 3.09146551334213370854e-01) (8, 3.08097208615555451239e-01) (9, 2.39143243919536674369e-01) (10, 4.50315133889160265634e-02) (11, 2.57747447114931582668e-01) (12, 1.81061314170056164574e-01) (13, 2.01147789984807007224e-01) (14, 2.12966504491345826056e-01) (15, 9.17984747871989554824e+01) (16, 1.30814596047812731205e-01) (17, 9.97428674934492720539e-01) (18, 2.91698785766494439464e-01) (0, 5.17430257306326080169e-01) (1, 5.50199947780792175678e-01) (2, 4.72294878689875408107e-01) (3, 4.22577919985305028305e-01) (4, 4.63285052823195153682e-01) (5, 5.75706244837172365081e-01) (6, 5.17990274987610299640e-01) (7, 4.42958056306487713005e-01) (8, 4.45610974811670279561e-01) (9, 4.58733467239380798830e-01) (10, 4.47020558705316095605e-01) (11, 5.04029947833496860810e-01) (12, 6.03799022781655758685e-01) (13, 4.56104209480679700928e-01) (14, 4.47402992826115786240e-01) (15, 4.80371618781189058112e-01) (16, 4.23925542183515136063e-01) (17, 5.13930893192987126028e-01) (18, 5.14171886728017946133e-01) (0, 1.50000000000000000000e+03) (1, 2.21474736298531871270e+00) (2, 4.18351319105774055451e-01) (3, 4.34639369505162354024e-01) (4, 2.24042959909693850662e+00) (5, 5.57533742294955780849e-01) (6, 5.84399691325453218838e+00) (7, 5.50574918842848926026e-01) (8, 5.40348814126089815879e-01) (9, 7.45331160881404775065e-02) (10, 5.73339909291467497710e-01) (11, 4.70231121499115944928e-01) (12, 5.49469346402361114023e-01) (13, 4.77959157209036089586e-01) (14, 4.95075925617848855431e-01) (15, 2.12056890039873158216e+00) (16, 4.78346425356867610557e-01) (17, 2.93070848789381059873e+01) (18, 4.77335120969660853252e-01) (0, 1.28259063981542031918e+00) (1, 2.75876454075187960147e-01) (2, 3.18412553220061622650e-01) (3, 3.44823534024847222490e-01) (4, 1.40223631216680860234e+03) (5, 3.53281689263527043376e-01) (6, 3.59829654763032302789e-01) (7, 2.42503611158007670312e-01) (8, 2.18585145941591452168e-01) (9, 2.66695942893843518373e-01) (10, 3.41400611418013866238e-01) (11, 3.23826010486781667996e-01) (12, 2.72942196468463849079e-01) (13, 2.27796218135139172389e-01) (14, 3.01386193021739356990e-01) (15, 3.43102989779409783822e-01) (16, 6.07276745439487175560e-01) (17, 5.81282702316585297986e-01) (18, 3.32479548305564476252e-01) (0, 1.34869019220925812075e-01) (1, 1.55725379775439071173e-01) (2, -1.16899612895298141146e-01) (3, 2.50285889195874355906e-01) (4, 3.08758523728775546857e-01) (5, 2.64873296579397565775e-01) (6, 1.08288721327764764224e-01) (7, 2.20804725463756262860e-01) (8, 1.24442176342029892089e-01) (9, 1.35799170356893927902e+00) (10, 9.37474612608572982486e-02) (11, -1.00956106374551701776e+00) (12, 1.84684716516537034137e-01) (13, 1.92148868667055855441e-01) (14, 1.02386077252752130673e-01) (15, 1.67203785628116469164e-01) (16, -2.32593200750144737943e-02) (17, 1.39168204622224789269e-01) (18, 1.91788930513905025999e-01) (0, 5.48710147347390431172e-01) (1, 4.30373278393819946874e-01) (2, 5.75666957534959555787e-01) (3, 4.91494791178247902863e-01) (4, 4.78419374992960166892e-01) (5, 5.34086622427945023617e-01) (6, 4.81250069859273099659e-01) (7, 5.80954261012950223808e-01) (8, 5.20590452058452335393e-01) (9, 5.04447371178482817378e-01) (10, 3.80153241672382402605e-01) (11, 4.57485053323336776643e-01) (12, 4.92374033915198572320e-01) (13, 8.35357125865680338883e-01) (14, 3.87494946725013666988e-01) (15, 5.85271720296651198900e-01) (16, 3.85895016858001593807e-01) (17, 3.97860926904317013797e-01) (18, 5.83118951765579707214e-01) (0, 1.35907667874952758913e-01) (1, 1.65169471528997718890e-01) (2, 2.67869736496647248281e-01) (3, 1.58900541578714804558e-01) (4, 9.84424908957662603282e-02) (5, 1.62744008436972453779e-01) (6, 1.08707988611106351473e-01) (7, 1.54215443627138626415e-01) (8, 9.62924873267433367729e-02) (9, 2.02768673394825960088e-01) (10, 1.01513473537475723552e-01) (11, 2.39002278945789126130e-01) (12, 1.90853084965474484314e-01) (13, 2.49035917633212117162e-01) (14, 2.33536304468107802634e-01) (15, 2.69232646047146972901e-01) (16, 1.28595687305386979782e-01) (17, 2.77441501761823028360e-01) (18, 1.97599403651460309161e-01) (0, 9.13166349224944218221e-02) (1, 1.84100651576366458606e-01) (2, 5.41308356509461949257e-02) (3, 1.16182699639952757842e-01) (4, 2.45847081489148799882e-01) (5, 1.72498113591035895364e-01) (6, 2.41478061172766322873e-01) (7, 1.07511394655567860124e-01) (8, 1.23150245332294364098e-01) (9, 1.26256887321089528164e-01) (10, 1.17867715045572515886e-01) (11, 6.06024242280388120152e-02) (12, 1.19366006426525089745e-01) (13, 2.00631218632691676884e-01) (14, 1.07838567521936407045e-01) (15, 2.24585023809603684386e-01) (16, 1.98096534227667153694e-01) (17, 1.66502909256237674462e-01) (18, 2.21438733182628022522e-01) (0, 8.53853988743767500225e-01) (1, 3.69799700988363067022e-01) (2, 3.25214647107672449877e-01) (3, 2.38878767335149566620e-01) (4, 3.30847100984468955875e-01) (5, 4.13006672771941585331e-01) (6, 4.48356712939454060685e-01) (7, 2.47461013246612959726e-01) (8, 3.96209169447697351352e-01) (9, 2.32318344269724225137e-01) (10, 2.53782467686741508572e-01) (11, 3.01366044404933586254e-01) (12, 2.61315108814339669419e-01) (13, 3.34752591631683193985e-01) (14, 3.35254460915875185378e-01) (15, 2.82527736845369970009e-01) (16, 3.49467218791780276366e-01) (17, 2.89218791050681989230e-01) (18, 3.25461557738561224618e-01) (0, 5.55785696986351829274e-01) (1, 4.87852333029446472157e-01) (2, 3.27776741938364979401e-01) (3, 3.84380133237614607378e-01) (4, 1.78771619664875425215e-01) (5, 2.02682631116912065350e-01) (6, 3.71594762930773370169e-01) (7, 3.83052060431732677159e-01) (8, 3.47278197097448226849e-01) (9, -3.50530254240142857824e+00) (10, 5.22610307165194964973e-01) (11, 5.27448497499336865779e-01) (12, 3.63182147625010942615e-01) (13, 2.56189373803573761101e-01) (14, 2.65333244932427270157e-01) (15, 3.42893468912928101044e-01) (16, 3.25023520386499176205e-01) (17, 4.28227035743884820729e-01) (18, 5.35220817809937909892e-01) (0, 3.95569687910839795641e-01) (1, 3.99978376019907211347e-01) (2, 3.42032300126043020683e-01) (3, 3.76222697685846263482e-01) (4, 5.13497906867275810683e-01) (5, 3.65214703396230189192e-01) (6, 5.26094171644851726910e-01) (7, 4.05039181833245220954e-01) (8, 4.84971643698291987601e-01) (9, 4.40000729286362746162e-01) (10, 4.65706703584099657167e-01) (11, 3.92528366947981710577e-01) (12, 4.45667976749652861024e-01) (13, 3.92721985283896846131e-01) (14, 3.38277235098204454022e-01) (15, 5.02510288544938732436e-01) (16, 6.33454946456664003129e-01) (17, 3.85195835177311651787e-01) (18, 5.23466023985054484946e-01) (0, -1.59696527112066916088e-01) (1, -2.45381867170719275562e-01) (2, -4.91948971856120076396e-01) (3, -2.91446450251167665790e-01) (4, -2.18485730377431436322e-01) (5, -1.48022482741772209991e-01) (6, -3.47883288007153346211e-02) (7, -1.83235051751927530139e-01) (8, -1.25906446975475316830e-01) (9, -1.16922131019870687019e-01) (10, -4.42626398180409941219e-01) (11, -2.20348845421585809445e-01) (12, -2.52440263928654984316e-01) (13, -1.64425005413136898769e-01) (14, -2.53370849606376458141e-01) (15, 1.60098409125828999855e+00) (16, -3.73642802086022740582e-01) (17, -1.96696975758657577327e-01) (18, -2.44601936150116550106e-01) (0, 4.63782088023487124029e-02) (1, 4.74401268456471139623e-02) (2, 1.00938907817614512141e-01) (3, -7.55896841059076757263e-02) (4, -9.22838725411196658666e-02) (5, 2.04988785743075996315e-02) (6, 2.98545199802037336534e-02) (7, -5.65841611914328218580e-02) (8, -7.10524790554675628185e-02) (9, 1.02456523685544156899e-01) (10, -1.10695453185991887768e-02) (11, -3.10181888782414261208e-02) (12, -1.14386923540531855112e-03) (13, 4.11371417680985035359e-02) (14, -6.80671869197629342274e-02) (15, 7.99249001942935188847e-02) (16, 1.53176882039833983651e-01) (17, 8.50944065844134872600e-02) (18, 8.18432548627012063092e-02) (0, 4.32077122137270175362e-01) (1, 4.86677452664016241268e-01) (2, 5.76052930761564052631e-01) (3, 4.51451537784311962564e-01) (4, 4.40024210598542464545e-01) (5, 5.18719712152015288709e-01) (6, 4.60876815029145736613e-01) (7, 3.81929186489501026891e-01) (8, 4.87319474304580446677e-01) (9, 4.62500830668440887639e-01) (10, 4.77665701714880097661e-01) (11, 4.83515494996498651492e-01) (12, 3.95823440058265307862e-01) (13, 4.08950766266990395348e-01) (14, 5.51066466271473376359e-01) (15, 4.98346656591995507135e-01) (16, 3.67228658766585003281e-01) (17, 4.44841692091178131374e-01) (18, 3.36946558534028661747e-01) (0, 3.05704870480497825636e-01) (1, 3.55807615245780251012e-01) (2, 4.23587283354327770457e-01) (3, 3.53947455723352510937e-01) (4, 4.23334071951529833377e-01) (5, 2.95081292028293695751e-01) (6, 2.82072237104001644070e-01) (7, 2.58983217434974821725e-01) (8, 2.84007527905016043945e-01) (9, 4.09493885168725424428e-01) (10, 2.59102940937850967362e-01) (11, 2.53607722037473115595e-01) (12, 2.65648853557772068879e-01) (13, 3.84463205933591956054e-01) (14, 4.28329713013083979156e-01) (15, 3.04197384047551366848e-01) (16, 2.90301020921893360160e-01) (17, 4.12336790368050432054e-01) (18, 4.33234372357929220509e-01) (0, -2.92147815208309742652e-02) (1, -2.22808441529080858423e-01) (2, -6.14042466244854701074e-01) (3, -1.29605740599115643041e-01) (4, -2.45315329393155090454e-01) (5, -2.98215105488650933374e-01) (6, -7.23934030456189064884e-02) (7, -1.19995758322870640922e-01) (8, -1.57640291622182932008e-01) (9, -5.69338797761051229607e-01) (10, -7.35440577796530714494e-01) (11, -3.04966221165379192115e-01) (12, -2.02511107590689215519e-01) (13, -1.98453941681023204868e-01) (14, -5.37392371130426593773e-01) (15, 7.36248024830997438439e-02) (16, -3.13388494760313662812e-01) (17, 8.38474222971609534083e-02) (18, -2.91027246390486160621e-01) (0, 1.86756491635216848035e-01) (1, 1.81842812447846502444e-01) (2, 2.60543974968022562511e-01) (3, 1.65051031968193040456e-01) (4, 9.89754259239501582579e-02) (5, 1.65786093402821382847e-01) (6, 1.25670115765124712492e-01) (7, 7.76406401584074784550e-02) (8, 1.56104379194738740466e-01) (9, 1.62041481391759639719e-01) (10, 3.80303957499660227892e-01) (11, 2.52283593311912635038e-01) (12, 1.65116028893517202691e-01) (13, 1.01060321882921549941e-01) (14, 1.27599439076953369288e-01) (15, 3.06644895283796292684e-01) (16, 1.17982135690186173971e-01) (17, 2.08535269191937322475e-01) (18, 1.84553141594586217478e-01) (0, -4.16837230402664557505e-02) (1, -8.82681272075922507270e-02) (2, -1.30904929623523513804e-01) (3, -7.82627164918482387534e-02) (4, -1.85183557538917714647e-01) (5, 1.49675162716312610406e-02) (6, -1.72020242270128659312e-01) (7, -7.19511139538137611815e-02) (8, -1.00481733308682083528e-01) (9, -1.30965045382087197368e-01) (10, -1.18836261256280537046e-01) (11, -8.20255101155579202654e-02) (12, -1.94558819028259027961e-01) (13, -9.43729284526677453249e-02) (14, -7.74298621911020806818e-02) (15, -9.40504544060315889054e-02) (16, -7.05443307393529145388e-02) (17, -6.55773753267361592112e-02) (18, -2.24666222656403458124e-01) (0, 7.50587692344411583356e-02) (1, -3.64284518995485417925e-01) (2, 1.72388603716003785404e-01) (3, 2.13272052314925686378e-01) (4, -2.19808497609003283824e-01) (5, -8.65234966985000547579e-02) (6, 9.80202404539363830738e-02) (7, 2.09523914351640444531e-01) (8, 1.39001144834303813624e-01) (9, 2.56293385129400419498e-01) (10, -4.42166015337968731913e-01) (11, 7.77693730461885002203e-02) (12, 2.03254377795064694601e-01) (13, -3.82847253061811831909e-01) (14, -2.81143597559193547664e-01) (15, -4.87854942837987470838e-01) (16, -1.92037012784978533553e-01) (17, 2.99539216804907137970e-01) (18, -2.86455686551334076650e-01) (0, 7.52240676684494229132e-03) (1, 1.12023395229815005136e-02) (2, 4.57236303820066913861e-02) (3, -7.76054113715636401105e-02) (4, -8.76272121465235427629e-03) (5, 9.48489772037990619413e-02) (6, 7.52041587358395768881e-02) (7, -2.62737762746512865109e-02) (8, 5.16281738222074543243e-02) (9, 6.39270230964028990384e-02) (10, -4.99411440350624874496e-02) (11, 9.55410833791727615028e-02) (12, 8.34307505150646139258e-02) (13, 5.38044179589835525057e-02) (14, 3.35992169181546090906e-02) (15, 5.56561675155775731350e-02) (16, 4.92492506639469612706e-02) (17, -2.84282028455248164667e-03) (18, 9.47586133774327848966e-02) (0, 5.14787427956839405141e-01) (1, 5.65129760942187031603e-01) (2, 3.83155242260055872716e-01) (3, 3.68412717146643642341e-01) (4, 1.30097541507974767683e+00) (5, 9.62179279755624450310e-01) (6, 7.37628399644274956870e-01) (7, 2.44475121334518696870e+00) (8, 3.85745347639294688946e-01) (9, 3.15379757783242731239e-01) (10, 3.75412488907795216520e-01) (11, 3.74011884228388769014e-01) (12, 5.43489534351541125901e-01) (13, 5.16539015476749630018e-01) (14, 4.48964448149438533076e-01) (15, 7.80654280421377078092e-01) (16, 3.10136438396740155010e-01) (17, 4.88616751174407670799e-01) (18, 3.79661552988828587818e-01) (0, 2.63812982055284361849e-01) (1, 3.40639287412097535590e-01) (2, 5.00060229544765810772e-01) (3, 3.87218034058957716326e-01) (4, 5.10102845058086118435e-01) (5, 4.20406839815040955788e-01) (6, 2.02586785945673281129e-01) (7, 4.16799062984568535750e-01) (8, 3.66917112548155233132e-01) (9, 3.78407545888978680271e-01) (10, 4.83533434209922563518e-01) (11, 2.28317715512402791278e-01) (12, 3.56735463015378673202e-01) (13, 4.32804816658279079000e-01) (14, 4.38101609932653235369e-01) (15, 2.57332216618741838055e-01) (16, 4.43058561308825760161e-01) (17, 4.01835132692426266754e-01) (18, 4.67639316853747821767e-01) (0, -9.19728988238854433535e-02) (1, -4.46356310236368375444e-02) (2, -3.75915786971236509650e-02) (3, -4.17603116014359232455e-02) (4, -3.26741593157399978775e-02) (5, -1.51603289896893367317e-01) (6, -6.41106190997141611732e-02) (7, -1.19860123933353296399e-01) (8, -5.15375480233186550327e-02) (9, -8.96622197455168717939e-02) (10, -2.26706177507408797311e-02) (11, -5.63602441083332688851e-04) (12, -1.81505057156804455731e-01) (13, -1.01247170853582032363e-02) (14, -1.90503162747006089123e-03) (15, -1.04112215614485817405e-01) (16, -1.04095018861477105893e-02) (17, -8.46877640846290385968e-02) (18, -9.65231309981743751392e-02) (0, 2.28271567670011563678e+01) (1, 4.78440809615699458313e-01) (2, 2.94881420522363713044e-01) (3, 3.65387675078420237629e-01) (4, 4.10243047538284777431e+00) (5, 4.44169451596250541847e-01) (6, 4.41094669203990452644e+00) (7, 3.88182081028807968170e-01) (8, 4.39547266956355597856e-01) (9, 4.03651683663214910780e-01) (10, 3.34593118452700732934e-01) (11, 7.40807967749165241500e-01) (12, 7.00756427166287831909e-01) (13, 3.90526959950059981974e-01) (14, 3.21751161588394896107e-01) (15, 5.46361289490799317825e-01) (16, 3.65851515294930318412e-01) (17, 1.04925567772374783715e+00) (18, 3.65418821441457597476e-01) (0, 2.61455705880778821459e-01) (1, 1.93307458888730965274e-01) (2, 7.96827446957947826967e-02) (3, 2.08198852611336887586e-01) (4, 8.48403661789531721160e-02) (5, 1.53400070819960265833e-01) (6, 1.91108710445681284629e-01) (7, 2.59169002123867842080e-01) (8, 1.62844812641249392371e-01) (9, 1.59755109051872290493e-01) (10, 1.92230203064393201373e-01) (11, 7.31691829005298027822e-02) (12, 2.54563031102659320659e-01) (13, 1.31203035656773103756e-01) (14, 8.22022848098399316896e-02) (15, 1.00550499637404047726e-01) (16, 1.56658192955645841904e-01) (17, 1.97667691965280972743e-01) (18, 8.43980626698085656390e-02) (0, 1.96563644514644392247e-01) (1, 3.80951573188029135597e-01) (2, 3.31841738152493126446e-01) (3, 1.91008488340897897295e-01) (4, 2.12737052850020091910e-01) (5, 2.98013039812425717390e-01) (6, 3.56427219717567800306e-01) (7, 2.73496297486956363443e-01) (8, 2.38282467220897159477e-01) (9, 2.83436520546992698488e-01) (10, 3.29497549441247650215e-01) (11, 2.96571193983432568331e-01) (12, 2.74510771118095964205e-01) (13, 3.64323657139294931895e-01) (14, 2.77012541000883794062e-01) (15, 4.08479855989635709523e-01) (16, 3.88021807569553567330e-01) (17, 3.13794914461241802872e-01) (18, 3.46541387934866829124e-01) (0, 1.50000000000000000000e+03) (1, 4.78980911580714541209e-01) (2, 4.28825699681668948138e-01) (3, 5.12734736621224040931e-01) (4, 7.38174281688095106801e+02) (5, 4.91425842187150907492e-01) (6, 7.82919084576029988831e-01) (7, 4.28142876737962529976e-01) (8, 4.96638869830358042901e-01) (9, 4.43909694050772130058e-01) (10, 4.80878673779961351986e-01) (11, 5.89577212672951489481e-01) (12, 4.64911082468034531079e-01) (13, 4.16637373822434764481e-01) (14, 6.13680504581795238650e-01) (15, 1.33268411472831749265e+00) (16, 3.03541494654585131130e-01) (17, 5.04355480072385176094e-01) (18, 4.47920703453314084097e-01) (0, 4.61891785853788094940e-01) (1, 4.64877029694038601537e-01) (2, 4.48492625623799823220e-01) (3, 3.81012148587596133353e-01) (4, 3.38865601857389009410e-01) (5, 4.99231598867885595361e-01) (6, 3.54076939751259145428e-01) (7, 4.32703247402917656750e-01) (8, 5.05871392118549478845e-01) (9, 4.94915945439723836685e-01) (10, 5.34860388086794591445e-01) (11, 4.37007777525105889360e-01) (12, 4.94253981272725018137e-01) (13, 3.35586771765553237845e-01) (14, 4.74833413840178519827e-01) (15, 3.64102223486112486217e-01) (16, 3.55369444074972229419e-01) (17, 5.00518889463036797949e-01) (18, 5.27389212060275891503e-01) (0, 9.75112029317662809547e+00) (1, 3.82339839001833492471e-01) (2, 5.14588692685037707442e-01) (3, 6.89900812600093504834e-01) (4, 1.57147418506774005920e+01) (5, 4.42690710299702416819e-01) (6, 1.22233446855402316800e+00) (7, 4.72803550918072801323e-01) (8, 6.65209352711511048284e-01) (9, 5.05147825573743491923e-01) (10, 4.80276969491826022374e-01) (11, 5.25169408179657737357e-01) (12, 4.20509800968549618538e-01) (13, 4.65079449874808759091e-01) (14, 5.92240584609890707846e-01) (15, 7.25825364686236595979e-01) (16, 4.72452996462691177104e-01) (17, 7.66509654318603761425e+00) (18, 4.75013725637923767131e-01) (0, 1.07810746071384966349e-01) (1, 3.66208198712424215504e-01) (2, 1.79752055864872334334e-01) (3, 8.83551084416792642529e-02) (4, 1.58098626636091227349e-01) (5, 1.97102276973686540984e-01) (6, 9.37763486822662528652e-02) (7, 7.98545079451408040816e-02) (8, 1.43773263365787801193e-01) (9, 9.10997203978905351063e-02) (10, 2.67550800678230504825e-01) (11, 2.25980292114746128540e-01) (12, 2.24110723172942977177e-01) (13, 6.85166981272882918974e-02) (14, 1.64964202336380677538e-01) (15, 2.23689605392122931038e-01) (16, 2.03076255257222976214e-01) (17, 3.14442043391436998334e-01) (18, 1.46272802246356109501e-01) (0, 4.33897699433018035897e-01) (1, 1.13933408873037322895e-01) (2, 2.90147831427882696431e-01) (3, 4.94481694243018410351e-01) (4, 5.29646340825186912049e-01) (5, 6.09829728351249116258e+01) (6, 5.92821708610547393192e-01) (7, 4.96814235710272944502e-01) (8, 4.56724952368160685978e-01) (9, 5.28189260730409060329e-01) (10, 5.23244009617717664717e-01) (11, 5.48241369637762820943e-01) (12, 5.54780657485956951724e-01) (13, 5.75863449410915273496e-01) (14, -7.22437189755023467796e+00) (15, 7.42647759232135884488e-01) (16, 3.26881257538315872502e-01) (17, 5.45599909538735161618e-01) (18, 5.97573686196979481089e-01) (0, 1.11831754534910454701e-01) (1, 1.71394895817815695604e-01) (2, 9.31831067726352907377e-02) (3, 8.36672368096009061444e-02) (4, 1.25921979709320785989e-01) (5, 2.42615782019969056238e-01) (6, 1.01785692883080966520e-01) (7, 2.13020643914394208762e-01) (8, 1.13335748685043896655e-01) (9, 2.24999525389739163383e-01) (10, 1.80743587921967596710e-01) (11, 2.87065761865916979634e-01) (12, 7.73425385026695749735e-02) (13, 2.45395789414267845308e-01) (14, 2.42614350444696341702e-01) (15, 1.23697888738766539896e-01) (16, 9.77765958914112859324e-02) (17, 2.46415341366625406661e-01) (18, 1.16282578912890885436e-01) (0, 5.31257047409016580630e-01) (1, 3.30423465623732759422e-01) (2, 3.73585662763544934517e-01) (3, 2.61307097125108800384e-01) (4, 3.07002333230581958556e-01) (5, 2.99455509517163931399e-01) (6, 4.03395029762559531594e-01) (7, 1.92463682432915089704e-01) (8, 2.75969216852492094105e-01) (9, 1.68964600247162921587e-01) (10, 3.23273962203740550247e-01) (11, 4.61545907692373080788e-01) (12, 2.81906155530362856343e-01) (13, 3.18976339070995595915e-01) (14, 3.01229768008238807386e-01) (15, 2.90084918372073230497e-01) (16, 2.02801979029501894258e-01) (17, 1.88530455017840686827e-01) (18, 3.37125559875654623454e-01) (0, 1.99246066478310162040e+01) (1, 3.98147108019696049919e-01) (2, 4.18186376526214043103e-01) (3, 4.10356288806236868538e-01) (4, 5.92554857097183358405e+01) (5, 5.01039849427502681500e-01) (6, 1.69036379989707596927e+00) (7, 5.08583622789953282428e-01) (8, 3.40883404992847471870e-01) (9, 4.28480080460233503370e-01) (10, 3.92285446482710964400e-01) (11, 4.49173646958785754979e-01) (12, 3.74243219829985818148e-01) (13, 3.32567437614518179867e-01) (14, 3.85315922389562304229e-01) (15, 7.05750933822050119382e-01) (16, 4.47859575936676690411e-01) (17, 8.41605622674138631467e-01) (18, 4.80375761748622953640e-01) (0, 4.73648925581539981255e-01) (1, 3.89240691833798779786e-01) (2, 5.17394049924914334326e-01) (3, 3.80985597196096426043e-01) (4, 4.66705238683158774027e-01) (5, 3.95828510282921375296e-01) (6, 3.40108001894715683555e-01) (7, 3.76471007066205121117e-01) (8, 5.12703369424951427291e-01) (9, 3.26543336449120591425e-01) (10, 3.89779056967749337748e-01) (11, 4.66462615727909923891e-01) (12, 5.11271816103933796072e-01) (13, 4.27029975773859926669e-01) (14, 3.93521234601425851096e-01) (15, 3.68363022533526263125e-01) (16, 4.28402090852555039735e-01) (17, 5.20545877718616045726e-01) (18, 4.41972447361922426978e-01) (0, 3.75101762392561877135e-01) (1, 2.07667460206496456987e-01) (2, 2.03034244188775692130e-01) (3, 3.19750586694487026751e-01) (4, 3.04779570957246670471e-01) (5, 2.48418930297045786881e-01) (6, 3.64134619158781813741e-01) (7, 3.06692193213624120229e-01) (8, 3.72961393927376316793e-01) (9, 2.47592161692448992083e-01) (10, 2.88170907770795903247e-01) (11, 3.19606494298170062951e-01) (12, 3.85870627110996011755e-01) (13, 2.85949128888911940916e-01) (14, 3.15475391333968180341e-01) (15, 2.23684834907453555797e-01) (16, 2.63428158367688569630e-01) (17, 4.06122621363831148855e-01) (18, 2.43049848965562059755e-01) (0, 3.41094430003428122911e-02) (1, 8.05987634396678614968e-02) (2, -5.70682953154148311925e-02) (3, 6.65861278940267781179e-02) (4, 6.02896934106993999392e-03) (5, -7.04718277454519648195e-02) (6, -4.84566445923889227432e-02) (7, 5.77932203913887193591e-02) (8, -3.67039973863119012298e-02) (9, 1.65871251255581483863e-02) (10, 7.22198686730094879804e-02) (11, 8.95309438438534194171e-02) (12, -1.04829577160431175464e-01) (13, 6.58442185813908342773e-02) (14, -1.04508928181778398825e-01) (15, 6.06265200103026230538e-02) (16, -6.82672306072657913978e-02) (17, -1.94163072375666337366e-02) (18, -2.83365870933846124291e-02) (0, 1.54605788657185855284e-01) (1, 7.86279990225669835058e-03) (2, 9.05193618163868535254e-02) (3, 3.47688785086057022822e-02) (4, 1.67146632495751151781e-01) (5, 1.10026097752054075052e-01) (6, 1.54343051933738067971e-01) (7, 7.59271153523745911951e-02) (8, 1.01648175268844731534e-01) (9, -4.92971652907198340521e-02) (10, 1.62537508974774369541e-01) (11, 8.16630019413809304929e-02) (12, 2.06994308298786670874e-02) (13, -4.03232146504998723024e-02) (14, 7.90782354044065882714e-02) (15, -6.23873520433028683208e-01) (16, 2.74506555875204838468e-01) (17, 9.04122477371541583002e-02) (18, 1.62096071022021975816e-01) (0, -4.48629775578528802726e-02) (1, -6.28286462779700100034e-03) (2, -7.83642408113065097597e-02) (3, -8.45656218130655668030e-02) (4, -1.27220259734811911440e-02) (5, -6.35016571098976773113e-02) (6, -1.02349697426631969233e-01) (7, -7.93656672329582854597e-03) (8, -9.51354213197262710278e-02) (9, -7.62026355034381291942e-02) (10, -1.42577079102118309262e-01) (11, -7.18395301842186893154e-03) (12, -8.74897016576729746884e-02) (13, -1.22772722802892739202e-01) (14, -4.33454405846374485334e-02) (15, -8.40747962704082724139e-02) (16, -1.26682596815700043713e-01) (17, -1.12205659550593708773e-01) (18, -1.20933081861625296716e-01) (0, 1.96311400305394845311e-01) (1, 1.08140765183013326522e-01) (2, 1.61635000330124317669e-01) (3, 2.54232818816188643751e-01) (4, 1.16093193228607061140e-01) (5, 7.35148833292051523403e-02) (6, 1.10809806595976667598e-01) (7, 1.89388944924053698182e-01) (8, 1.69890049725321290452e-01) (9, 6.54567977520323363017e-02) (10, 1.09994958214247665063e-01) (11, 1.24268948288077607511e-01) (12, 2.15991204293582123031e-01) (13, 7.66568322364526294477e-02) (14, 2.49214307477700708349e-01) (15, 1.17703464470311658374e-01) (16, 6.94751743801447219084e-02) (17, 1.84814979410233559687e-01) (18, 2.13299318674177063038e-01) (0, 1.63984884059992297445e+00) (1, -2.72837576992705277412e-01) (2, -3.20981618133150070626e-01) (3, -2.91769085461385579983e-01) (4, -2.61398683574407708630e-01) (5, -1.41413180636729751694e-01) (6, -2.00188667514865720198e-01) (7, -2.23572554475376022998e-01) (8, -2.15980786496489329807e-01) (9, -2.78086832812116324654e-01) (10, -3.16153687619932899366e-01) (11, -3.15476158022396646619e-01) (12, -3.08284746322076308456e-01) (13, -2.70584099592898585929e-01) (14, -2.45027455234973656761e-01) (15, -2.26288316206762984972e-01) (16, -2.28832748646065370357e-01) (17, -3.20413783586128320113e-01) (18, -2.13751993599733930429e-01) (0, -9.12899607014070468836e-02) (1, -1.57757530346698038315e-01) (2, -3.26118615423989302582e-02) (3, -7.73750647445726330576e-02) (4, -9.67166162568192516735e-02) (5, -9.12942930662584140045e-02) (6, -4.42760728991599405990e-02) (7, -1.19171949324122242175e-01) (8, -2.04565801630351533358e-02) (9, -1.23624460509171932299e-01) (10, 2.21659809013689847179e-02) (11, -6.81076169302684275575e-02) (12, -5.00661377908926952252e-02) (13, -1.56679211080405972334e-01) (14, -1.69283287308928970250e-01) (15, -2.50880452152251569309e-02) (16, -1.20533354120335126081e-01) (17, -7.29426536859780730478e-04) (18, -1.08276951424297718241e-01) (0, -5.42693189389641880704e-02) (1, -1.75602286470411747543e-02) (2, -3.24602157490581286203e-02) (3, -1.21161052947993006998e-03) (4, -3.76023408221910215854e-02) (5, 1.79745536140536836534e-02) (6, 7.12375480623373136257e-02) (7, 9.71717708195721230346e-02) (8, 1.07745173091945325994e-01) (9, 4.71491807444093455337e-02) (10, -4.66429612526480033563e-02) (11, 3.44734257282479431006e-02) (12, 1.09484247551968713608e-01) (13, -4.74976426872226256681e-02) (14, -2.26671127602786764976e-02) (15, -1.59176586006231739201e-02) (16, 5.05154766660179527227e-02) (17, 7.51239211481847246610e-02) (18, -9.17638676104912121012e-02) (0, 9.16032197472054221521e-02) (1, 3.02646156292531109955e-01) (2, 2.12564345511174396242e-01) (3, 1.68437652449202640570e-01) (4, 1.13465287369724388000e-01) (5, 2.20146202356974768355e-01) (6, 1.04807619153202385975e-01) (7, 1.19670171122568169686e-01) (8, 9.28795072046140757216e-02) (9, 1.56068297670983568981e-01) (10, 2.13377325557400160383e-01) (11, 2.63890204286026608393e-01) (12, 2.89960575173192125487e-01) (13, 1.83800931562778185890e-01) (14, 2.07298154784570420883e-01) (15, 3.53187651196002427856e-01) (16, 2.59412718490403981786e-01) (17, 2.03270896619726026966e-01) (18, 3.17563894315911199318e-01) (0, 2.65361356303220663477e-01) (1, 1.55973015748788523815e-01) (2, 1.53373121356415009764e-01) (3, 2.87684758765857584439e-01) (4, 2.82130154951196976398e-01) (5, 1.11922750576156249114e-01) (6, 1.91229942363887239765e-01) (7, 1.49121327710136947209e-01) (8, 1.88977380484636942048e-01) (9, 1.82415288110401085930e-01) (10, 3.27035563322300992795e-01) (11, 1.97728976253319976841e-01) (12, 1.28467821381568370054e-01) (13, 2.12142713547572359101e-01) (14, 1.49705010859130793754e-01) (15, 1.10760511596271177259e-01) (16, 2.97031744556628785059e-01) (17, 2.07264476469882330534e-01) (18, 1.60855280777550790905e-01) (0, 3.50047681933553622713e-01) (1, 4.10988617751623985797e-01) (2, 4.38091553185638304946e-01) (3, 3.63669599783990271646e-01) (4, 3.12019968056824303915e-01) (5, 3.41050833311552059612e-01) (6, 4.97398257997668791219e-01) (7, 4.34379993462776670121e-01) (8, 3.66384679512401501000e-01) (9, 4.32341044402745677822e-01) (10, 4.99787362140618307560e-01) (11, 3.00882526601637112496e-01) (12, 3.91602252765567648840e-01) (13, 3.06603087753046454900e-01) (14, 3.73394813352170007459e-01) (15, 3.67736854343358177122e-01) (16, 4.75208991950596959519e-01) (17, 3.61964098488164076617e-01) (18, 4.17566281094507774085e-01) (0, -9.16292376829852400766e-02) (1, 3.78516140724281177632e-02) (2, 2.61000546622865061547e-03) (3, -1.22665461822519777924e-01) (4, -1.08576970150947846316e-01) (5, -4.27366159395630093587e-02) (6, 3.75454902792910841236e-02) (7, -7.02499177817221265308e-02) (8, 2.08585467335237681463e-02) (9, 5.54429801703446509253e-02) (10, -4.03583332895353537328e-04) (11, 6.73811206749855284848e-02) (12, 1.72501653702040215477e-02) (13, -7.03801363906937371695e-02) (14, 1.53188411497912208015e-02) (15, 8.14531852542605266931e-02) (16, -5.52142713115421832071e-02) (17, 9.67460409902848317287e-02) (18, 5.56834329300514088712e-02) (0, 4.10298424653312981958e-02) (1, 5.31897440539479404720e-02) (2, 1.52925846115946284520e-01) (3, 1.87688686737453980236e-01) (4, 5.54414129328523880291e-02) (5, 3.74887700093562217796e-02) (6, 1.93143260004129957430e-02) (7, 1.10113980843526013120e-01) (8, 1.18966514998649394719e-01) (9, 1.80815387602107802145e-01) (10, 1.97619432610278672469e-01) (11, 4.31382619548214760186e-02) (12, 2.03804563029259838691e-01) (13, 1.11156085625603251454e-01) (14, 1.81778812086060781450e-01) (15, 4.25737942256516877469e-04) (16, 1.67588247185762762026e-01) (17, 7.89406785223112084093e-02) (18, 1.51998372892311051086e-01) (0, -8.39151492855985808861e-02) (1, -8.82508059410184175775e-02) (2, -3.15750883702150819676e-02) (3, 8.06003771256023626712e-02) (4, 1.20846971550006232476e-01) (5, 1.00512262748958289271e-01) (6, -5.56307782605035827661e-02) (7, 2.98927453539483307943e-02) (8, 1.09908342746581969007e-01) (9, -1.74364671375669723352e-02) (10, -9.17029494001875278286e-03) (11, 8.09923770618253130449e-02) (12, 2.23208710519099719216e-02) (13, 5.78706727048195757046e-02) (14, 2.42260417443442080399e-02) (15, 4.97701429889181069799e-03) (16, 1.01832690926686689203e-01) (17, 7.01287768903534891596e-02) (18, 1.03846895485172809742e-02) (0, 2.12739064006899430970e-01) (1, 9.72798424460165900296e-02) (2, 9.15722086766521808920e-02) (3, -4.61376007274961641436e-01) (4, 1.21420154405752336868e-01) (5, 2.12175763483333015835e-02) (6, -3.34079094715706681473e-01) (7, 5.76956320149031101630e-02) (8, 7.74284376425770359820e-02) (9, -3.65180712016408837162e-01) (10, -3.73499364315246495938e-01) (11, -2.90250925542620552555e-02) (12, 1.38777074063017979988e-01) (13, 1.63387493604239125711e-01) (14, 5.05530925084137355840e-02) (15, 1.23279764082890000432e-01) (16, -3.62467451233399184929e-01) (17, -5.62630069920253661486e-01) (18, 1.53897191487609413807e-01) (0, 1.58636392094476235570e+02) (1, 2.04022496057531060876e-01) (2, 1.51158995746166702201e-01) (3, 2.92388611966882816517e-01) (4, 3.04075263886569011618e+01) (5, 2.62076713467982502781e-01) (6, 6.58047622402721965607e-01) (7, 3.09634543151590391208e-01) (8, 1.60126318572145959207e-01) (9, 1.39609507807320454287e-01) (10, 2.40700305608798181822e-01) (11, 4.02042796093884213793e-01) (12, 3.00711986476482118213e-01) (13, 1.21063218518173157379e-01) (14, 2.73167118398359887177e-01) (15, 1.99177787746301598881e-01) (16, 2.47067572335839980013e-01) (17, 5.08934404158702875520e+01) (18, 1.51205608190180779138e-01) (0, -1.22264178093802813874e-01) (1, -2.07967338012835095684e-01) (2, -2.00467741813830757636e-01) (3, -2.17825858226207647039e-01) (4, -1.90059326264648081883e-01) (5, -2.81297337767609956227e-01) (6, -2.60302674736959782642e-01) (7, -3.11159909505535126062e-01) (8, -1.40376414423513423690e-01) (9, -3.43416370612999566347e-01) (10, -2.39142517293183004545e-01) (11, -2.04495256120683394085e-01) (12, -2.69920358177162256208e-01) (13, -1.75709809264729122091e-01) (14, -1.57933016535758530274e-01) (15, -3.05949808143421597695e-01) (16, -2.66923295858243481149e-01) (17, -1.98993843278519461082e-01) (18, -1.85058879892074201745e-01) (0, 2.57623688147315677011e-01) (1, 2.95707436028504522252e-01) (2, 1.14237023986986624413e-01) (3, 1.74331242895903126833e-01) (4, 1.18387365914696257585e-01) (5, 1.76829470803764043918e-01) (6, 1.85359203577266651308e-01) (7, 1.09839578671724225067e-01) (8, 1.30874547479282538065e-01) (9, 9.26179567480222981635e-02) (10, 1.91471440452010976951e-01) (11, 2.37687208516954934234e-01) (12, 1.72424461919122168352e-01) (13, 1.04363833596615745991e-01) (14, 8.69454844032126195064e-02) (15, 1.81847602443628408864e-01) (16, 6.59709477785406922523e-02) (17, 2.48264276651802395790e-01) (18, 2.53489234655797868179e-01) (0, 1.03848281404012227069e-01) (1, 2.61286567722389617696e-01) (2, 8.03973544588302141412e-02) (3, 1.85105047643280701264e-01) (4, 9.13477322104592898144e-02) (5, 2.34372115958190407881e-01) (6, 1.56661373822835403580e-01) (7, 2.57101988168543349467e-01) (8, 1.95755620177970796059e-01) (9, 1.64078952956886930936e-01) (10, 1.79871898340109692693e-01) (11, 2.46774118591055219296e-01) (12, 2.55403971217765368706e-01) (13, 8.86698380798474211639e-02) (14, 2.09416207845151192135e-01) (15, 7.10409264793074868294e-02) (16, 1.55535023295155588885e-01) (17, 3.26442673356644452731e-01) (18, 2.01460536642034976351e-01) (0, 3.85770965938719428978e-02) (1, -6.66070052076655344520e-02) (2, 9.42982875308090301436e-02) (3, -3.23835314649897135220e-02) (4, 4.02567980192256244520e-02) (5, 7.23311228461820665547e-02) (6, 3.14593710133778264870e-02) (7, 1.29909380803707695529e-02) (8, 9.76214137369867951399e-02) (9, -3.69578343209039858475e-02) (10, -6.77579996936420597686e-02) (11, 2.00004149803092688698e-02) (12, 3.70181656759854607608e-02) (13, 2.93262978066521082590e-03) (14, 5.86512537466975843875e-03) (15, -4.67514698938229431024e-02) (16, 2.49946546125353365186e-02) (17, 7.24337358106610790243e-02) (18, 3.46527685341426056054e-02) (0, 7.19407265178971186970e+01) (1, 7.31805965139484371207e-01) (2, 5.34684410266947240942e-01) (3, 5.14062417098894441914e-01) (4, 7.25319655098059956622e-01) (5, 6.20354170483332190145e-01) (6, 9.44215214506164524089e-01) (7, 1.10066080278909095291e+00) (8, 6.40759958930466333449e-01) (9, -5.01965510114354085403e-01) (10, 6.83741687702480338551e-01) (11, 5.65470767724885914340e-01) (12, 6.04468430049765470535e-01) (13, 6.53193692671202419398e-01) (14, 5.31568521712984964900e-01) (15, 6.09269406695876147850e-01) (16, 5.43891643241642741557e-01) (17, 5.98605808273084294413e-01) (18, 5.13474123511058366809e-01) (0, 1.97782805504716163725e+00) (1, 6.25295604731345266991e-01) (2, 5.99171372983641870036e-01) (3, 5.24440155844939526197e-01) (4, 1.50000000000000000000e+03) (5, 6.38600923213541227241e-01) (6, 2.30632782006980230349e+00) (7, 6.41258959679979589907e-01) (8, 5.85112287638203887319e-01) (9, 5.97159581303164710420e-01) (10, 6.20450506843185922712e-01) (11, 5.27285263422212602258e-01) (12, 5.13410690213907727752e-01) (13, 5.25969440205573124381e-01) (14, 5.29620778040592488090e-01) (15, 5.38183456260958092976e-01) (16, 5.37422868065494108158e-01) (17, 1.43948420169425794768e+00) (18, 5.80795574505419298639e-01) (0, 1.05278868223511623547e-01) (1, 1.28038207023298093723e-02) (2, -9.07457433934498319816e-02) (3, -4.86757521105844262466e-02) (4, 7.24952622028030013723e-02) (5, 4.60955589096386821046e-03) (6, 9.00759793573431277736e-02) (7, 7.44544976069921732309e-02) (8, 8.27201199442899604009e-02) (9, 5.43197635212288587603e-02) (10, -9.84798586849710277935e-02) (11, 6.84626141826275985691e-02) (12, -8.27374283074564786933e-02) (13, 6.07957073999141825449e-03) (14, 2.47218969954672010067e-03) (15, -5.02746027349628352154e-02) (16, 2.18135064687266615191e-02) (17, 3.44672858853638380827e-02) (18, 7.89021851690187014938e-02) (0, 6.68003396979922725585e-01) (1, 3.68665087545831382521e-01) (2, 4.01996885460494501885e-01) (3, 3.51764203707299438761e-01) (4, 4.20120433244150881524e-01) (5, 3.98544009899812867737e-01) (6, 4.03390494335311655671e-01) (7, 4.47214147444739473780e-01) (8, 5.15201574132720718779e-01) (9, 4.23260801031599631639e-01) (10, 4.18457157700385884436e-01) (11, 5.16142006122031760107e-01) (12, 3.95393229127259826505e-01) (13, 4.85837893794689168470e-01) (14, 5.27001499304707188287e-01) (15, 4.50422742437254164383e-01) (16, 4.66152179835207514103e-01) (17, 4.60180884813132795585e-01) (18, 4.49100461176636434057e-01) (0, -1.34189897160011978317e-01) (1, -2.98584101392674494679e-01) (2, -1.66532471511877777637e-01) (3, -2.01072253559049951566e-01) (4, -1.44365834150576938244e-01) (5, -1.49420517039042327623e-01) (6, -2.90112187999087611789e-01) (7, -1.77019910032619076645e-01) (8, -3.01197612116677948535e-01) (9, -1.53215096182720694751e-01) (10, -2.90618208983486447927e-01) (11, -1.78817423434511374447e-01) (12, -2.38090241576855099481e-01) (13, -2.69964189505016272097e-01) (14, -2.51872065014019819174e-01) (15, -2.35217780679471244465e-01) (16, -2.24943070561981234290e-01) (17, -1.95864383301019462369e-01) (18, -1.77237579619963725452e-01) (0, 1.39117915563469068729e+02) (1, 3.84546449794924471988e-01) (2, 3.68887091457305915654e-01) (3, 3.87988329342498161623e-01) (4, 3.50798211259331360612e-01) (5, 4.24195975788832668751e-01) (6, -7.39968958375871593836e-02) (7, 5.53844096913099770418e-01) (8, 3.47514290181909324406e-01) (9, 3.42427024322494888420e-01) (10, 3.92976606240221293387e-01) (11, 4.59139528343263547683e-01) (12, -7.09304822275025614875e-02) (13, 3.59665119430760016339e-01) (14, 4.15038143377270740686e-01) (15, 5.02563851932969929415e-01) (16, 3.68359967102305785325e-01) (17, 3.74860798884272039544e-01) (18, 3.49757703651297102709e-01) (0, 5.99087559299480403752e+02) (1, 4.88878374259401615731e-01) (2, 4.28307301717820720910e-01) (3, 5.78131537599340772360e-01) (4, 4.89485812663609576312e-01) (5, 4.14422793306534920088e-01) (6, 3.71495789205608273331e-01) (7, 4.46473807265654554222e-01) (8, 5.88700338602312411851e-01) (9, 5.23826615854638077963e-01) (10, 5.95014653519021829986e-01) (11, 4.52501192762400306080e-01) (12, 4.45406375055519387907e-01) (13, 4.39363286562826638182e-01) (14, 5.57211256224551032545e-01) (15, 5.46157129894333848164e-01) (16, 4.84954943151296669068e-01) (17, 4.49514783732290867935e-01) (18, 5.82684444432967185712e-01) (0, -1.11918532508222506872e-01) (1, -1.39749847075111593986e-01) (2, -6.78265705557539316795e-02) (3, -1.06578782843360267418e-01) (4, -1.20221101243849354256e-02) (5, -2.76370206540121968186e-02) (6, -3.86127269301610037688e-02) (7, -1.37577669546807501710e-01) (8, -4.69304900675028141555e-02) (9, -1.45786282335429617785e-01) (10, -1.12399880856761474890e-01) (11, -3.42496969873989226540e-02) (12, -7.37830229149065153216e-02) (13, -5.66731322596849135254e-02) (14, -3.67563626719498021123e-02) (15, -1.28573366050138082617e-01) (16, 2.37087965242465843752e-02) (17, -1.46029878059966838899e-01) (18, -1.01528530643214695561e-01) (0, 8.31657764242553998457e-01) (1, 5.54898198309162649089e-01) (2, 3.58439383874915085126e-01) (3, 4.96571763908471408566e-01) (4, 5.13482270644510574442e-01) (5, 4.58814628462340001747e-01) (6, 3.84346631651390158169e-01) (7, 4.05706877915445296434e-01) (8, 4.19989294726645534528e-01) (9, 4.14132697966276552837e-01) (10, 4.55502909099602226739e-01) (11, 3.92505874342058524995e-01) (12, 5.05385332437603307376e-01) (13, 4.74243809032619589861e-01) (14, 4.89548245973887297122e-01) (15, 3.76213145227943801530e-01) (16, 4.88291292892273021131e-01) (17, 4.47971051820436005908e-01) (18, 5.06221386226134995034e-01) (0, 5.46858780378408765310e-02) (1, -5.37758434051516867602e-02) (2, 4.20610530303701657395e-02) (3, -6.86324175778939699066e-02) (4, 8.70463305345766519272e-02) (5, -5.99202598693516705342e-02) (6, 6.43594735825466501833e-02) (7, 3.46196989108876057584e-02) (8, -6.73030129786840285167e-03) (9, 2.66394233092458777856e-02) (10, 5.36778480817606401532e-02) (11, 6.67822005961227066484e-02) (12, -8.26733604189607146351e-02) (13, 5.95919493039066064388e-02) (14, 1.04453283396695295604e-01) (15, 8.88099489738469888289e-02) (16, -4.65490885189485253948e-02) (17, 2.65004890629192140124e-04) (18, -6.32572703349676690454e-02) (0, -8.15427987298112805226e-02) (1, -5.24847438141571448478e-02) (2, -9.07571176475665819527e-02) (3, -1.50603843191867339119e-02) (4, -2.29038735709706613164e-02) (5, -1.66628736615814676547e-01) (6, -5.95276673147074886217e-02) (7, -8.81420911915856697405e-02) (8, -1.21746696178524030363e-01) (9, -2.01830312320594229547e-01) (10, 6.88984368672938309042e-03) (11, -1.74652697050041050275e-01) (12, -3.14283432811556379116e-02) (13, -1.81442719371005922735e-01) (14, -4.85923610982315554163e-02) (15, -2.74902973959771090851e-02) (16, -2.34975608909388476719e-03) (17, -6.21544727079495346045e-02) (18, -7.21941130928592383897e-02) (0, 6.62681597263137356357e-01) (1, 2.51762109922851640142e-01) (2, 2.93984481713680856352e-01) (3, 2.90052447034040983276e-01) (4, 2.28561916163190261386e+02) (5, 3.66688460782767233770e-01) (6, 8.02921444873417322619e-01) (7, 3.40605699999788902321e-01) (8, 3.74027982496486277597e-01) (9, 2.61196995353703831366e-01) (10, 2.41912370123265552113e-01) (11, 3.89969088279812248210e-01) (12, 3.76207709319639982404e-01) (13, 3.95271193049383851026e-01) (14, 2.69632569163257840295e-01) (15, 7.56901430706588107533e-01) (16, 4.04566213302913757488e-01) (17, 2.87468753689455613909e+00) (18, 2.82904823327635168706e-01) (0, -3.37907185743014482071e-01) (1, 4.76342266887923082574e-01) (2, 3.78149618212962279618e-01) (3, -1.90890350450051093922e-01) (4, 4.34409371368872990193e-02) (5, -1.66756819777116122028e-01) (6, 3.98514310880891176048e-01) (7, 1.32364422774197298960e-01) (8, 5.06483546388632674407e-02) (9, 3.60744247281344410094e-01) (10, -1.89953904853328903179e+00) (11, 4.97109834049467624872e-01) (12, -4.01708599406554438954e-03) (13, 1.13101579838921306731e+01) (14, 3.95451058447728320822e-02) (15, 6.33774713658059041244e-01) (16, -1.12168417055137650817e-01) (17, 1.23168714192427297682e+00) (18, 1.47228589026105732146e-02) (0, -2.12973370231530935437e-02) (1, -2.26398675561931606026e-01) (2, -3.59414635848244679028e-01) (3, -4.62771601186887926449e-02) (4, 1.01987198863303030194e+00) (5, -1.07030359162969934683e-01) (6, -9.28076307078902346115e-02) (7, -1.16039345797718157494e-01) (8, -6.68479092491286869260e-02) (9, -1.84986251440909604815e-01) (10, -2.69507850562866857480e-01) (11, -2.76476498538423876017e-01) (12, -1.77780377332266759094e-01) (13, -4.29871736114122646177e-02) (14, -3.23659560986165606433e-01) (15, -9.81945299759490464186e-02) (16, -5.45773647396511907282e-01) (17, -1.34547615099064293842e-01) (18, -1.02360966884883955452e-01) (0, 4.12665017227318831061e+00) (1, 5.06444469355003756839e-01) (2, 5.76714364861961370501e-01) (3, 5.71426130690400269074e-01) (4, 4.41771765615436406982e-01) (5, 4.93007502462778635088e-01) (6, 4.38131681503227843333e-01) (7, 3.42180644448733584095e-01) (8, 4.75427906966373381437e-01) (9, 4.59241871842040683127e-01) (10, 5.43907778839924804792e-01) (11, 4.26440149188778150346e-01) (12, 4.34859864683847241462e-01) (13, 5.21505748696877491355e-01) (14, 5.95551005216653273067e-01) (15, 5.90014486463430576357e-01) (16, 4.69703644307227163868e-01) (17, 4.62326932524783795753e-01) (18, 5.17793681279986373056e-01) (0, 4.61064734653292396249e-01) (1, 3.83638287347387196835e-01) (2, 4.84021219267142366327e-01) (3, 3.80997918696069359790e-01) (4, 4.00942020164203050125e-01) (5, 5.24453438166543106647e-01) (6, 3.89059761941631165882e-01) (7, 4.67033500082061181491e-01) (8, 4.15560936253664414686e-01) (9, 3.07371365636834037449e-01) (10, 3.60723289664158619505e-01) (11, 3.43206031642733722098e-01) (12, 4.65297294360974333927e-01) (13, 4.16406147428247719322e-01) (14, 4.99805963872471892273e-01) (15, 4.14742764881337988569e-01) (16, 4.60143478969542052415e-01) (17, 3.91767671311306631132e-01) (18, 4.51212387071906417813e-01) (0, 1.50000000000000000000e+03) (1, 2.96853335294905740227e+00) (2, 6.86900581727837300505e-01) (3, 5.74675809481593913297e-01) (4, 1.69471702866303388646e+01) (5, 6.88185073464481544825e-01) (6, 1.77581592950394795416e+00) (7, 1.05110655967515431719e+00) (8, 1.36640492084723708111e+00) (9, 5.94414553357870634187e-01) (10, 8.39599991021728442320e-01) (11, 7.80485660168643402557e-01) (12, 5.74148710152148744612e-01) (13, -8.70209983855254720631e-01) (14, 5.91162519040604905740e-01) (15, 6.75464592428521082290e-01) (16, 1.28506543619889135321e+00) (17, 7.44149522530535345588e-01) (18, 7.04334316669000592981e-01) (0, -2.45891115655136804560e-03) (1, -8.57306960094732367628e-02) (2, -4.02509052846709777795e-02) (3, -8.84067878574983784246e-03) (4, -7.91559097695483521173e-02) (5, -1.30420023484991820517e-01) (6, -1.02255324488145366013e-01) (7, -1.17493420188257868819e-01) (8, -2.58068522534958440240e-02) (9, -3.58702581570063960825e-02) (10, -5.71963319265634470567e-02) (11, -1.20085959065670946910e-01) (12, -8.28316050019392707826e-02) (13, -1.57735739701038574223e-01) (14, -1.28794912530690475183e-01) (15, -6.16953155243561215948e-02) (16, -1.62209062231308334678e-02) (17, -1.50559128787216001122e-01) (18, -9.49409131015262891529e-02) (0, 4.01314409137316829401e+02) (1, 4.64983660718559232983e-01) (2, 5.20042116217287908597e-01) (3, 4.50968255689057573310e-01) (4, 9.23101112173875693045e-01) (5, 5.27920138456622445311e-01) (6, 5.73192843254784034634e-01) (7, 7.06083433367626245314e-01) (8, 4.31497595320740723324e-01) (9, 4.07349318519349301582e-01) (10, 6.38131994653410306029e-01) (11, 5.69430234015320446694e-01) (12, 5.03496445034732675872e-01) (13, 3.75366494654638616080e-01) (14, 4.99686324120579006269e-01) (15, 4.80255860950564106293e-01) (16, 5.27971648302565377264e-01) (17, 7.86042772038203940710e-01) (18, 5.78829491275636875969e-01) (0, 2.42582560109349698596e-01) (1, 3.07280568136865106510e-01) (2, 3.10863052265993866641e-01) (3, 1.52443529748396339185e-01) (4, 1.85941497565548119475e-01) (5, 2.08986812794427129214e-01) (6, 2.07669891901273634405e-01) (7, 2.41701774381856776541e-01) (8, 1.62688552670470193418e-01) (9, 1.65735784551147236066e-01) (10, 3.05886264446955324914e-01) (11, 2.60945240355703211854e-01) (12, 2.55580207590930141848e-01) (13, 3.13402995179655530222e-01) (14, 1.79264189529221656949e-01) (15, 2.89410758691900027451e-01) (16, 2.51047805702957038676e-01) (17, 3.06896753666492105861e-01) (18, 3.47204460785714097426e-01) (0, -1.68457886181981181251e-02) (1, 1.00676134335423161925e-01) (2, 3.28693665452082159351e-02) (3, -2.81321120332744846471e-02) (4, 4.27295076135019019636e-02) (5, 1.47575427963921146368e-01) (6, 4.57242128548643322894e-02) (7, -1.80759277548955092640e-02) (8, -1.22281430454718384460e-02) (9, 7.31759409031214197450e-02) (10, 1.52403287231139911162e-01) (11, -5.41161208051485972947e-02) (12, 1.67500178899443186165e-01) (13, 1.04617137421032915801e-01) (14, 1.06732896547036548718e-01) (15, -3.52693459021288444055e-02) (16, 1.01913250366538657432e-01) (17, 8.84102887519128133320e-03) (18, -2.13828389289153417141e-02) (0, 9.40765353990580255328e-02) (1, 1.25829526855997186896e-01) (2, 1.32809698011441934540e-01) (3, 2.94387655147427207414e-01) (4, 2.19571530610560283758e-01) (5, 4.03792971787723828925e+01) (6, 2.44991335104137175627e-01) (7, 2.52332799682924713291e-01) (8, 1.88750063156660929931e-01) (9, 1.27159485571386454694e-01) (10, 1.39134099993367427173e-01) (11, 1.81820919359668958792e-01) (12, 1.62138872065231171016e-01) (13, 1.75422552898003569766e-01) (14, 8.14030139109690187293e-02) (15, 8.74913790728830065291e+00) (16, -9.23646523064102442646e-01) (17, 9.58767009356658816976e-01) (18, 1.09589775692865959433e-01) (0, -2.91286568263628177500e-02) (1, -1.27506833968209967040e-02) (2, 8.82729484172434242240e-02) (3, -6.39417036458384546727e-02) (4, 4.13620440033347653436e-03) (5, 6.20562334648834534878e-02) (6, 8.56045871948544895291e-02) (7, -7.10161087643612978781e-03) (8, 7.72830675476459810769e-02) (9, 4.74406957534191583981e-02) (10, 4.47918872688410560357e-02) (11, -7.09874319500735789790e-02) (12, 1.11156776992391598258e-01) (13, 6.53092622366754083085e-02) (14, 6.44844927311994439018e-03) (15, 9.51034975447627162204e-02) (16, 4.00761711929904992924e-02) (17, -3.80617854301667293826e-02) (18, 7.94268690336889515713e-02) (0, 4.62086206507139718447e-01) (1, 5.13115310776361410738e-01) (2, 3.47202555057437578512e-01) (3, 3.30301121334093505943e-01) (4, 4.13372648199382186629e-01) (5, 4.34211875456933182882e-01) (6, 4.38847337508779467008e-01) (7, 4.33697343924678457849e-01) (8, 3.63614504675284222479e-01) (9, 4.28210456192845312362e-01) (10, 4.39544422227664599578e-01) (11, 4.01880007060712862721e-01) (12, 4.80799227311614396640e-01) (13, 4.76012296142245605601e-01) (14, 3.59133260043636381997e-01) (15, 4.87667559187716703750e-01) (16, 3.74944147098564439791e-01) (17, 5.10618027053195810971e-01) (18, 4.54538637210365914498e-01) (0, -1.51919475951126203839e-01) (1, -1.49351701942390391320e-01) (2, -2.32131847419804415722e-01) (3, -9.40346775281753616271e-02) (4, -1.38364221053627861613e-01) (5, -2.46195755375438918300e-01) (6, -1.35258080672569308556e-01) (7, -2.80729284426173453237e-01) (8, -2.53401204751660225067e-01) (9, -4.28694527694962912445e-01) (10, -2.12513926891892857007e-01) (11, -9.83742144917153088501e-02) (12, -1.69364529736346913769e-01) (13, -2.71322733053444287155e-01) (14, -8.51138578519658600685e-02) (15, -1.72387692358330263387e-01) (16, -1.88376048893399233863e-01) (17, -1.87820857824805037550e-01) (18, -2.69684722922410302637e-01) (0, -1.21549999274613712563e-01) (1, -2.18864425574503945748e-01) (2, -2.14067794386838650134e-01) (3, -2.67482819566724205895e-01) (4, -1.43165992873204445113e-01) (5, -2.97538778829999128739e-01) (6, -2.95513355060856797163e-01) (7, -3.19958973969885762667e-01) (8, -3.18474807971826479047e-01) (9, -2.86862678750996802357e-01) (10, -1.49663636062910887503e-01) (11, -2.04993753285179297619e-01) (12, -1.78024173498967042129e-01) (13, -2.30510368991160480290e-01) (14, -1.35440565404286866746e-01) (15, -1.89360283379590682573e-01) (16, -2.38058109356425934289e-01) (17, -2.57590602744943553137e-01) (18, -2.44627822771191161255e-01) (0, -1.70701177140731935600e-01) (1, -1.24412003209013050098e-02) (2, -7.02901204758061004529e-02) (3, 2.66824424520484375367e-02) (4, -2.12396184528620204923e-02) (5, -5.55745700527742192421e-02) (6, -7.50478662206613689190e-02) (7, -2.30954719094275812141e-01) (8, 7.39261961351288798827e-02) (9, -7.08586180357668876661e-02) (10, -3.38719616692696734450e-01) (11, -1.30921208499946845061e-01) (12, -7.09221220660585793816e-02) (13, -1.07643683017112669342e-02) (14, 5.52459999290238253783e-03) (15, 2.04820559169214183592e-01) (16, -1.94941923193109878376e-02) (17, 8.28198410349369057437e-02) (18, -1.43182334165579877583e-01) (0, 2.12954478300584504336e-01) (1, 4.08789102652184141440e-02) (2, 5.52231282834472411714e-02) (3, 1.40180585618486203137e-01) (4, 1.75290890737398825650e+01) (5, 2.71816380253261735689e+00) (6, 2.32925024138945585550e-01) (7, 2.09943320450907855435e-01) (8, 1.79311458969022341492e-01) (9, 7.71234913415694972594e-02) (10, 1.39620862981841759032e-01) (11, 9.21154573217200511870e-02) (12, 1.27120898229004353208e-01) (13, 1.51548901044004785676e-01) (14, -4.47217560536227187740e-01) (15, 5.18206578992664756989e-01) (16, -5.06500908078747258401e-01) (17, 8.01055490168247730232e-01) (18, 2.00602624174251287226e-01) (0, 1.34578335949855965037e-01) (1, 1.40623633475117443270e-01) (2, 1.35664206026141209716e-01) (3, 8.91933073244541574365e-02) (4, 1.33565783088820583258e-01) (5, -5.49362601850103202117e-02) (6, -4.09541568252827850594e-02) (7, 3.63633863499162740540e-02) (8, 6.55598486182857320692e-02) (9, 3.32360957491091846272e-02) (10, 2.09171540296836377948e-02) (11, 2.30628502260084907588e-03) (12, 1.27431876022740114829e-01) (13, 5.69075159582855226448e-03) (14, 2.20589746460760904867e-02) (15, -1.23692101059304174898e-02) (16, -3.54507746597278738943e-02) (17, -2.44598997948224511356e-02) (18, -2.24095866154628842182e-02) (0, 6.99400894265235911762e-02) (1, 6.21806695981713258847e-02) (2, 3.40013277187754328623e-02) (3, 2.70744474192050645078e-02) (4, -9.84202848828957116423e-02) (5, 3.40090548982746598838e-02) (6, -1.07006312903886596777e-01) (7, 7.56314065113117828254e-02) (8, -4.62783296393948738456e-03) (9, 3.09873646138069322453e-02) (10, -9.84935213453483615620e-02) (11, -2.86205716527404285809e-02) (12, 3.94464880597533151807e-02) (13, -9.76602189104441992251e-02) (14, -2.85651176022515655706e-02) (15, -9.88663412541198743932e-02) (16, 8.55801630054893874844e-02) (17, -1.51821494176129379722e-02) (18, 5.55414684699666576922e-03) (0, -1.01438785239497519103e-02) (1, -9.88005851912626409383e-02) (2, -1.25121981945911148193e-01) (3, 4.79521238321774165292e-02) (4, -5.66989477313257703162e-02) (5, 7.30234317359807066916e-02) (6, -9.19255046393953750838e-02) (7, 2.05430074365586801122e-02) (8, -7.31615870881597574193e-02) (9, -7.62814731183017458171e-02) (10, 6.55726037245311782486e-02) (11, -4.35754623692481690700e-02) (12, 8.13573576213018484493e-02) (13, 2.41284497985687768074e-02) (14, 3.69629289469782310040e-02) (15, 4.55828043045260547506e-02) (16, 2.92831085599158796873e-02) (17, -4.01198055216577115223e-02) (18, 4.40438816200239280363e-02) (0, 5.40214456342390514365e-02) (1, -1.40614070220811598899e-01) (2, -4.88273663584446016017e-01) (3, -1.52453979500053460328e-02) (4, -1.59619734492276905968e-02) (5, -1.32339257717388747437e-01) (6, 1.96859781877584655296e-01) (7, 1.19479963417773206447e-02) (8, -1.17819580672401336141e-01) (9, -6.37154145904901408892e-02) (10, -2.26003220810823302056e-01) (11, -1.61649735136261130108e-01) (12, -1.07262592500091069603e-01) (13, -2.75518774768689668486e-02) (14, -7.43094865049280461911e-01) (15, 2.40873982545903114749e-01) (16, -1.09938603436213911541e-02) (17, -3.09637114208324813747e-02) (18, -1.53819576187835788117e-01) (0, 5.89997228640035120684e-01) (1, 5.77708621566598856667e-01) (2, 5.31402385439733393468e-01) (3, 5.20648430744596879549e-01) (4, 6.56706683379346345397e-01) (5, 5.19011598073179314383e-01) (6, 4.81983962500015294950e-01) (7, 5.99748348075722637063e-01) (8, 4.67514133429871081571e-01) (9, 6.19122466591144782200e-01) (10, 5.04119531470633486236e-01) (11, 6.33051698341857482788e-01) (12, 5.78140662426826934528e-01) (13, 5.14953130963296201728e-01) (14, 5.45346143642241432126e-01) (15, 5.18013258893800010441e-01) (16, 6.51577741193472337322e-01) (17, 5.90635112613683510574e-01) (18, 4.92275230014417031210e-01) (0, 8.99722609112587994040e-03) (1, -1.21122432395980444975e-01) (2, -3.46646880454201450003e-03) (3, -1.33566231662667095348e-01) (4, -5.64068142495894875310e-02) (5, -2.15941748805003330691e-01) (6, -2.74363480963150663250e-02) (7, 2.98858635021697445142e-03) (8, -1.77819183928491247881e-01) (9, -9.58458469857308426043e-02) (10, -1.28284688871385360587e-01) (11, -1.65247369059776771927e-01) (12, -1.80749716724218134623e-01) (13, 4.16421545719525110218e-01) (14, -8.76915561454094105720e-02) (15, -1.30892009977015610911e-01) (16, -2.56633892426372384188e-02) (17, -3.87861143550978573757e-02) (18, -9.97571510803562100378e-02) (0, 2.44310067260306240655e+01) (1, 5.19235377548992294017e-01) (2, 3.86570298739503326324e-01) (3, 4.71846471495923014405e-01) (4, 1.54975011755223679444e+00) (5, 5.21580563568656341289e-01) (6, 5.46873969905365964195e-01) (7, 4.35551685137132327252e-01) (8, 4.30015386706728564015e-01) (9, 7.87460628462060108212e-01) (10, 4.77411201383310557222e-01) (11, 4.15745720929513951081e-01) (12, 4.85661439743296452498e-01) (13, 3.21061851419219168591e-01) (14, 4.28037320807043597526e-01) (15, 7.54748833827367127114e-01) (16, 4.65180023945774623328e-01) (17, 4.57862425651473115007e-01) (18, 5.06299644656508451845e-01) (0, -5.11965553483977986460e-01) (1, 3.42559013004998455521e-02) (2, -3.21389479848854450750e-02) (3, 1.49847073139884406912e-01) (4, 8.78889768846507907218e-02) (5, 5.30358606837719112614e-02) (6, -7.76016769661302174832e-01) (7, -2.33832169135186791753e-02) (8, 1.22204058870029177997e-01) (9, 8.17839353998257995171e-02) (10, -1.14513220445421379234e-01) (11, -8.58622465612332241847e-01) (12, 1.45788313028240440472e-01) (13, 1.23186831923780590325e-01) (14, 5.04931354721233627281e-02) (15, 1.30638707146193244757e-01) (16, -1.68907690043717997191e-03) (17, 6.79210566037180274446e-02) (18, 5.88823610636863559176e-02) (0, 6.23782050752047845243e-01) (1, 1.21325347677992336770e+01) (2, 5.61797513523319413942e-01) (3, 1.55046303780423455621e+00) (4, 7.32878063812347213535e-01) (5, 1.32215262328845106765e+00) (6, 1.07119420726078740103e+00) (7, 5.83009405413901782289e-01) (8, 5.64231964555523712868e-01) (9, 6.77107799563076095950e-01) (10, 5.91618019827500507546e-01) (11, 5.18208317147493824351e-01) (12, 6.17390924393253825997e-01) (13, 1.26079392092331743491e+00) (14, 5.94105306327820992252e-01) (15, 3.05728687431949719411e+00) (16, -1.07966106402247827845e+01) (17, 6.97406676041174566905e-01) (18, 7.56030051943242686896e-01) (0, 3.86049727046995361235e-01) (1, 3.82412306036860050185e-01) (2, 4.49388574120608841334e-01) (3, 3.33160436875777565824e-01) (4, 4.36867814197473669502e-01) (5, 4.13578302114750384622e-01) (6, 4.78971451062692843426e-01) (7, 3.41249867117439487085e-01) (8, 3.15142724949351915598e-01) (9, 2.85406647802386004287e-01) (10, 4.20919671308828569067e-01) (11, 4.09094770751437464273e-01) (12, 4.15055794152199397651e-01) (13, 3.18033602338278320598e-01) (14, 4.61474526687094321886e-01) (15, 3.92154150395916778482e-01) (16, 5.02426092160605519688e-01) (17, 4.96922437847833631253e-01) (18, 3.51143713491771036761e-01) (0, -8.77544372614796064358e-02) (1, 1.08815549496310212674e-01) (2, 1.31096471713627482636e-01) (3, -2.65249381451567248225e-02) (4, 1.26641690531838092132e-02) (5, -1.16644359530905690481e-02) (6, -6.68131001433450028015e-02) (7, 1.29323309378577167017e-01) (8, 2.60542407784838843388e-02) (9, 6.29323678445580236840e-02) (10, -1.66256544594106520085e-02) (11, 2.43858892634555915468e-02) (12, 1.26613915884624672614e-01) (13, 1.06207043390513095060e-01) (14, 8.92222774135887075619e-02) (15, -3.94249881616250547056e-02) (16, 4.85620803305329487576e-02) (17, 5.83915970925170113581e-02) (18, 8.58201061262567482801e-02) (0, 3.55626066090666381747e-01) (1, 3.03540595795955048253e-01) (2, 2.17279153533038338342e-01) (3, 2.48621619166916302257e-01) (4, 2.18401837793064740323e-01) (5, 2.75138279974774191405e-01) (6, 2.83202053260933506174e-01) (7, 3.65766550313380289783e-01) (8, 3.45494053534431355690e-01) (9, 2.19007278775666613946e-01) (10, 3.39459713339361257578e-01) (11, 1.93680233852746186418e-01) (12, 2.89076828331844337683e-01) (13, 2.70679746714067193114e-01) (14, 3.87451736355410081281e-01) (15, 3.57121284925983273340e-01) (16, 2.03709668911173619188e-01) (17, 2.17856094380628695362e-01) (18, 3.93196192279936462821e-01) (0, 8.65928712045245380091e-02) (1, 1.79736906849815337994e-02) (2, 3.10061149549101383593e-02) (3, -4.34647673218237634574e-02) (4, 8.80987967791074105817e-02) (5, -2.38668535915272893300e-02) (6, -3.99097953926310713979e-02) (7, 6.65920951512778136472e-02) (8, 4.60824250859962897264e-02) (9, 1.37619189471782071149e-02) (10, -1.54439508606689958337e-02) (11, 7.59742221587627903495e-03) (12, -3.86683444123497865874e-02) (13, 7.10982292691405143303e-02) (14, 2.11832931037766840354e-02) (15, 1.69000146162785955251e-02) (16, 1.03458978878441978932e-01) (17, 9.80127818407002249224e-02) (18, 9.37672956348967329143e-02) (0, 6.07994127379275911549e-02) (1, 3.83593426499100192961e-02) (2, -4.76579502725128292817e-02) (3, -1.86032399707607952466e-02) (4, 5.29763199763409534104e-02) (5, -6.47933731318809692790e-03) (6, 7.51111048056889163416e-02) (7, 2.60462796966881501848e-02) (8, 7.38862850593064151433e-04) (9, 6.73867371648262103445e-02) (10, 3.92935950305737663468e-02) (11, -9.71681881526457666420e-03) (12, 3.08859796440335981904e-02) (13, -6.80096105753695556739e-02) (14, 1.01599654337252209846e-01) (15, 6.66710626333173184133e-02) (16, 1.11281349890166192385e-01) (17, -3.51881875995169943194e-02) (18, 7.13426143430838655135e-02) (0, -2.69055025632348801534e-02) (1, -4.49134882724233144846e-02) (2, -1.33864107399189136149e-01) (3, 4.45627571522372377226e-04) (4, -1.63374014276847306926e-01) (5, -1.24811539720376271645e-01) (6, -3.48785087710582891729e-02) (7, -6.90278671607001542698e-02) (8, -1.49794844296917868676e-02) (9, -1.65919249948874081291e-01) (10, -7.47464088412159999297e-02) (11, -4.86576865472152439440e-02) (12, -1.26542657504466388163e-01) (13, -1.53356188258481712650e-01) (14, 6.09580855129253623009e-03) (15, -6.05428088283834139882e-02) (16, -9.57495907004144233832e-03) (17, -7.37929246921717740815e-02) (18, -9.52090472581964275545e-02) (0, 4.95957178327886660796e-01) (1, 4.13249576481190261656e-01) (2, 4.56392852719886388257e-01) (3, 3.99339638511194583437e-01) (4, 4.89651426512120513390e-01) (5, -2.78977857399259221438e+00) (6, 4.50389503422258752341e-01) (7, 5.65511806565791919077e-01) (8, 5.32966403105666119977e-01) (9, 4.14533306044172711324e-01) (10, 5.40143887101085962144e-01) (11, 5.22800413230563143507e-01) (12, 3.83713204376023409026e-01) (13, 4.76868282092731798905e-01) (14, 5.80461443252565434392e-01) (15, 5.78504732729490322996e-01) (16, 6.04004551753387186608e-01) (17, 4.65411898578910576685e-01) (18, 5.40406954284085139228e-01) (0, 1.50000000000000000000e+03) (1, 4.20037913530387108096e-01) (2, 4.05809618437322550122e-01) (3, 5.04819805587088610288e-01) (4, 1.04921586669024634375e+02) (5, 4.85951140502957512624e-01) (6, 3.50050133708119082243e+00) (7, 5.59911168360362365704e-01) (8, 5.42062250878523887998e-01) (9, 8.44942656881726317231e-01) (10, 8.24981028462902110654e-01) (11, 5.58483039776879963689e-01) (12, 4.35603093690628828671e-01) (13, 4.58552603449172035965e-01) (14, 4.04656465690153843706e-01) (15, 4.74133163607879160040e-01) (16, 2.26082388751255247694e-01) (17, 4.86290994765297968083e-01) (18, 5.31838545258944472849e-01) (0, 6.12095918111464354361e-01) (1, -6.07853221263240164896e-02) (2, -1.14407399650131927360e-01) (3, 5.50209195845740017816e-02) (4, 9.47364929650976606013e+00) (5, -4.98860449912816826534e-03) (6, 7.89889405728985555255e-02) (7, -1.95421793805456989190e-02) (8, -1.14601417691369000806e-02) (9, 4.79962174730623539198e-02) (10, -1.56245005106193067534e-02) (11, -4.52633290616681616125e-01) (12, 7.88094537479094858767e-02) (13, 1.09866811712845069415e-01) (14, -1.17159134127911190859e+00) (15, 1.19602572134057520969e+01) (16, -1.59367992562243154797e-01) (17, 1.18274381632586508828e-01) (18, 4.86229839556151510749e-02) (0, 3.20201407316830777283e-01) (1, 2.10039927518391733585e-01) (2, 2.72132062451028944317e-01) (3, 2.15679642463489390503e-01) (4, 1.67044988010635275799e-01) (5, 3.25901081117477897653e-01) (6, 3.32430297258303253383e-01) (7, 1.90996208441491122088e-01) (8, 2.52746468169684046501e-01) (9, 1.60081561328219740270e-01) (10, 2.32671906008568352142e-01) (11, 2.31776934476444318456e-01) (12, 2.82590412640339849748e-01) (13, 1.57714814258874291841e-01) (14, 2.61804752001902285574e-01) (15, 3.57322391978054765271e-01) (16, 2.50112365334841046938e-01) (17, 2.54160936773666523703e-01) (18, 3.37272857517370960867e-01) (0, -1.75580607098860641546e-01) (1, -2.11116928460660630007e-01) (2, -2.67757750386894421979e-01) (3, -2.88290115728549289908e-01) (4, -2.33274911665637435521e-01) (5, -2.97919264718387921675e-01) (6, -2.97784637017681041993e-01) (7, -1.64422518743799206398e-01) (8, -2.04904989374880414088e-01) (9, -3.04570978693278204830e-01) (10, -2.32822724255210444788e-01) (11, -3.18710651310505632683e-01) (12, -1.71400273189097118731e-01) (13, -1.99007746370891663856e-01) (14, -1.81216894360095776007e-01) (15, -1.67995498519020319828e-01) (16, -1.45081301430100617633e-01) (17, -1.60007865034212659605e-01) (18, -1.89025007910818720891e-01) (0, 5.61729662549820818462e-01) (1, 4.10226271175820389470e-01) (2, 3.43151961352502199443e-01) (3, 4.07411976198003178418e-01) (4, 2.86630529996975136342e-01) (5, 2.52439754911337188581e-01) (6, 4.19762697152425701130e-01) (7, 5.71860535371699785223e-01) (8, 4.64042540563151695299e-01) (9, -9.83419361549838985659e-03) (10, -2.39422955027700007022e-03) (11, 4.19277825177209573226e-01) (12, 2.49378997643887212465e-01) (13, 1.83347198368478958574e-01) (14, 3.04078622451124824799e-01) (15, 4.71683836852564319919e-01) (16, 4.88872003192955428830e-01) (17, 5.04005064331195309912e-02) (18, 4.90934466061839158701e-01) (0, 3.68487023951824588242e-01) (1, 4.08482334106401445695e-01) (2, 4.32642531656940387830e-01) (3, 4.49161450944974782740e-01) (4, 4.50177937341727452125e-01) (5, 3.27671898134491990096e-01) (6, 3.94875423065296049518e-01) (7, 4.02537462450728744656e-01) (8, 5.10549505545067949797e-01) (9, 5.20295629026645389814e-01) (10, 3.47732498012150448297e-01) (11, 4.60086191700564028917e-01) (12, 5.13324048190926252033e-01) (13, 3.69937012568234135923e-01) (14, 4.22952239352895442703e-01) (15, 3.32649467002198384602e-01) (16, 4.82822921429450657715e-01) (17, 4.84736565886841663797e-01) (18, 3.78802574649695633635e-01) (0, -1.37313167975895211725e-01) (1, -2.56095008463012585587e-01) (2, -1.08601711770147310587e-01) (3, -2.67625136608968861029e-01) (4, -2.06564193974792920105e-01) (5, -2.59487999791831736029e-01) (6, -2.55648723927923648969e-01) (7, -9.17057183578851714545e-02) (8, -1.48631173424473878031e-01) (9, -2.06319414505754666900e-01) (10, -1.47262461436969444017e-01) (11, -2.27835318821870053130e-01) (12, -1.36737852339889498499e-01) (13, -1.03308904277270588445e-01) (14, -1.40377306957136405163e-01) (15, -2.33600554427970313887e-01) (16, -1.79288888531785317593e-01) (17, -1.52767434539411439687e-01) (18, -1.75099570571764950877e-01) (0, 4.56273464622117541634e-01) (1, -1.06671212414050489703e-01) (2, -1.97517537299806728024e-01) (3, -4.18828895110443244487e-02) (4, -3.14813644966932398850e-02) (5, -8.48079173746899839248e-02) (6, 4.95697872842412409246e-04) (7, -6.95332699305366286335e-02) (8, -1.60193088506238257018e-01) (9, -2.80304983453038350505e-02) (10, -1.47101464953485805420e-01) (11, -4.37890217246705848453e-01) (12, -9.76160443822664536384e-02) (13, -1.45476088439178558032e-01) (14, -1.65838464272972607727e-01) (15, -1.06251856057062069039e-01) (16, -1.09872205554992705134e-02) (17, -2.32605264314381769697e-02) (18, -1.41296097356151867386e-01) (0, 3.75072191543484756426e-01) (1, 2.41632729408755603240e-01) (2, 4.24756922497504241232e-01) (3, 2.67321289172205212026e-01) (4, 2.85822010227671952087e-01) (5, 3.32205461565749093911e-01) (6, 2.69410885995675863924e-01) (7, 2.26663336963394301815e-01) (8, 4.01779515203834258763e-01) (9, 2.37023411673076195294e-01) (10, 3.60874722304169781584e-01) (11, 3.03003648032982964011e-01) (12, 3.13108095165194222353e-01) (13, 2.70454666825625356097e-01) (14, 3.94304780556275935588e-01) (15, 2.67307483107071974793e-01) (16, 3.22423900810182906262e-01) (17, 2.52750619749500748945e-01) (18, 2.70330922223125547088e-01) (0, -7.47629774549934261740e-02) (1, 5.46164682941406437466e-02) (2, 1.05184184662137164556e-01) (3, -1.13021883315353149912e-01) (4, -7.61205972774514766366e-02) (5, -4.57744948182045169327e-02) (6, 1.28845497857438900935e-01) (7, 4.19869778585083182343e-03) (8, 1.30968390014087124329e-02) (9, 1.17196766996867395884e-03) (10, 8.66165008721088425236e-02) (11, 1.00625226236260065238e-01) (12, -3.35235460410098287665e-02) (13, 9.59903098807696614214e-02) (14, 1.14196435699152151755e-01) (15, 2.35029996217782990997e-02) (16, -3.63950040130755977930e-02) (17, 2.53314787796072166115e-02) (18, 7.35248548242147109688e-02) (0, -3.91432372007044157569e-02) (1, 3.84740843485849130790e-03) (2, 4.52226254414708327828e-03) (3, 1.10157379044478656582e-01) (4, 8.47186364129507707421e-02) (5, 5.29553358617079680815e-02) (6, -2.30657826281964531412e-02) (7, 6.55117741379237228383e-02) (8, -3.97970135405661742944e-02) (9, 4.41211494322694339210e-02) (10, 1.77922967540660698083e-01) (11, -2.88862499154523590106e-02) (12, 6.46495202753486347680e-02) (13, -1.05023304548031246736e-02) (14, 1.57782187972596410486e-01) (15, -9.49138234131956248785e-02) (16, 1.84602196906037303858e-02) (17, 2.43293116981286340617e-02) (18, 8.03951059465614625843e-02) (0, 2.37082788111455528002e-01) (1, 9.17084036246003930781e-02) (2, 1.52068665058929020084e-01) (3, 1.89917527363360122417e-01) (4, 8.31115260008371686817e-02) (5, 1.93483874729143190407e-01) (6, 1.82893966981021505180e-01) (7, 7.99398338161155103121e-02) (8, 1.19403940107496012168e-01) (9, 2.25044999519909111330e-01) (10, 2.27398396138306757575e-01) (11, 7.63355354563507171317e-02) (12, 8.88814983171897082803e-02) (13, 1.14057261963149109141e-01) (14, 1.71136272608843509335e-01) (15, 7.09336870748595166303e-02) (16, 1.11274377915934030714e-01) (17, 1.38785882043469727121e-01) (18, 1.31169800944204523185e-01) (0, -3.81786754739493194855e-02) (1, 3.71497781875255034256e-02) (2, -5.99215453037581224915e-02) (3, 1.13295151239754740558e-01) (4, -7.61122914460177490970e-02) (5, 8.12848770992019437065e-02) (6, 8.59347919994308271155e-04) (7, 5.39068453207362970059e-03) (8, 1.17020732058100984663e-01) (9, 8.55752991406461133161e-02) (10, 1.11491248381811999812e-01) (11, 7.67480095352337937653e-02) (12, 5.78656765751572113587e-02) (13, -6.87812202491116242431e-02) (14, -2.05284894787611180145e-02) (15, -1.30757110666327464737e-02) (16, -3.03031863367652955221e-02) (17, 1.12779579699882476218e-01) (18, 1.17387498173519455591e-01) (0, -3.43943349970309078523e-02) (1, -4.14794183845923480902e-02) (2, 7.52907713390714716795e-02) (3, -1.22134395989966837437e-01) (4, -1.56382031180112568425e-02) (5, 9.59954763412175504644e-02) (6, -2.26609253092801034291e-02) (7, 7.09164424238529489397e-02) (8, -8.03341215697701976906e-02) (9, 4.20000171065894115086e-02) (10, -3.83563230322752288237e-02) (11, 1.61516519753038649554e-02) (12, 1.68511432030184794828e-02) (13, 9.06254979889336009791e-02) (14, 4.67325964135457960769e-03) (15, 3.20908185190432598821e-02) (16, 2.78782708675778291563e-02) (17, -1.09198273477407029053e-01) (18, 9.28148741636333346472e-02) (0, 5.41703361394940574591e-01) (1, 1.44909747773163943840e+00) (2, 6.43916576982668686924e-01) (3, 5.12261107235994050946e-01) (4, 4.59880748932282534813e-01) (5, 5.96247216545883751415e-01) (6, 5.74826273550689048619e-01) (7, 5.84143323498898969781e-01) (8, 6.60758440015560610803e-01) (9, 3.57209448739847168497e-01) (10, 5.24336068701164448314e-01) (11, 6.60414811722100814073e-01) (12, 6.28045480983310477896e-01) (13, 6.17032649474474670370e-01) (14, 6.26471523360084492360e-01) (15, 6.57697204070174845647e-01) (16, 4.40159949250245430274e-01) (17, 6.49036002458989402797e-01) (18, 4.99318847187048220349e-01) (0, 1.50000000000000000000e+03) (1, 7.09484054914691353311e-01) (2, 6.34162119853426964333e-01) (3, 5.40909562567844393044e-01) (4, 1.49886951083112385241e+00) (5, 5.86075969544121999633e-01) (6, 7.43707862355733495541e-01) (7, 6.45065709684717214500e-01) (8, 6.82902368504157641915e-01) (9, 4.44416090578969080749e-01) (10, 7.88955868592704057107e-01) (11, 6.86678028816056995609e-01) (12, 5.70297560997945929273e-01) (13, 5.37978095387776633629e-01) (14, 6.40682708372727671708e-01) (15, 5.97809849866143494523e-01) (16, 5.68669359248162531451e-01) (17, 8.72471035504168712649e-01) (18, 6.59332175981387158537e-01) (0, 5.76046292672462503792e-02) (1, -1.32992598137648992962e-01) (2, -5.59683018984960117814e-02) (3, -7.81550232742512229756e-02) (4, -6.42067584540330915654e-02) (5, 6.09757488035775965796e-02) (6, 4.76796500404139192431e-02) (7, 8.77567403856273631213e-02) (8, 6.07043055300732284363e-02) (9, 7.49458474919702521966e-02) (10, 8.94608896191742726522e-03) (11, -2.31493498380140813597e-02) (12, 6.31449179357500712390e-03) (13, -4.21943329142708059565e-02) (14, -1.38594613916758722938e-02) (15, 2.93447710573185749361e-01) (16, -6.02617213052990437216e-03) (17, 2.20451738938323670014e-02) (18, 9.86776477348947356205e-02) (0, -7.54359944965087153568e-02) (1, 1.50412058680082713624e-02) (2, 9.62614184039224662914e-02) (3, -4.83504706805231929123e-02) (4, 4.95569858188434769763e-02) (5, -6.52025587864300121277e-02) (6, -2.54754542251847291776e-03) (7, -2.29247751972922325647e-02) (8, 5.11407039293343690378e-02) (9, 1.20191566901979060566e-01) (10, -2.02409586149292081148e-02) (11, 8.81592761872753566399e-03) (12, 3.27459731535972436989e-02) (13, 7.66465537923317202784e-02) (14, 6.37702121541615513101e-02) (15, 3.63907564812072231719e-02) (16, -9.07870204534815261610e-02) (17, 8.75099384685248532501e-02) (18, -1.93213304693534287937e-02) (0, 1.50000000000000000000e+03) (1, 7.71831534658370177482e-01) (2, 4.19046390511049027250e-01) (3, 4.73918193926111175340e-01) (4, 1.19413558947020481682e+00) (5, 5.47455101869098514911e-01) (6, 9.17441487988815418397e-01) (7, 5.97723275197985404183e-01) (8, 5.12870975964925923662e-01) (9, 3.99496770495515018951e-01) (10, 7.89763617504121051560e-01) (11, 4.96576359451870119610e-01) (12, 4.47479362112553236130e-01) (13, 4.87432952869582325484e-01) (14, 4.89212064628328113791e-01) (15, 5.89561041152130260734e-01) (16, 4.16720738900789089421e-01) (17, 5.58800037564939788837e-01) (18, 5.92856103609471496441e-01) (0, 2.12013281732189834417e-01) (1, 1.65436595798349156405e-01) (2, 2.21004598153335174437e-01) (3, 1.35108320008736931817e-01) (4, 8.11302963238613450425e-02) (5, 1.30682743118554017814e-01) (6, 1.29585275754200979215e-01) (7, 2.41195809540496353129e-01) (8, 7.94279916436634314536e-02) (9, 1.23257460893202108743e-01) (10, 2.05604196145236728377e-01) (11, 1.57601058515455527687e-01) (12, 9.73702361423261636419e-02) (13, 7.29538145934724852060e-02) (14, 1.81047893101846490982e-01) (15, 1.49249755498303215973e-01) (16, 1.38666043403731731321e-01) (17, 9.77535796112259242063e-02) (18, 6.91603170031636904636e-02) (0, 5.80203465206681912036e+01) (1, 6.46433150204603568234e-01) (2, 4.83017871485862726466e-01) (3, 6.64803376265276302348e-01) (4, 5.33668721216284280828e-01) (5, 5.16726750133915557761e-01) (6, 6.00236808614897587866e-01) (7, 7.20822834284846836184e-01) (8, 6.14967164490856310621e-01) (9, 5.08070188211797946209e-01) (10, 5.37522965999343460552e-01) (11, 6.37616188148961149373e-01) (12, 5.40277839494156419953e-01) (13, 5.89522140499998736907e-01) (14, 5.43043511205130946529e-01) (15, 6.13793081804719031780e-01) (16, 6.28062637633010401039e-01) (17, 6.38135828381304115453e-01) (18, 7.10643773922289723188e-01) (0, 5.25736716792954555943e-02) (1, 8.48732937774916706974e-02) (2, -3.20194638223522121123e-02) (3, 7.04020969394477530434e-02) (4, -1.48209559945331522529e-02) (5, 1.43109088193650712401e-02) (6, 5.45225257359799927309e-03) (7, 1.00478980526629776970e-01) (8, -1.10194792762116286489e-01) (9, 2.90901561593111986082e-02) (10, -8.83772114709983069858e-02) (11, -6.77652853081546630021e-02) (12, 1.34497870322076662486e-01) (13, 9.54736108503306674100e-02) (14, -7.49629670322681102013e-02) (15, 1.79643532566049368704e-01) (16, 6.85402292610347990687e-02) (17, 1.07770475189873714099e-03) (18, -1.45638116946848646116e-02) (0, 1.69130466940516869384e-03) (1, 7.55352594726468318242e-02) (2, 5.94759803844962936514e-02) (3, -7.00406177213091368783e-03) (4, -2.93620136724883178114e-02) (5, -1.04724271618547998264e-01) (6, -1.43809493587734704700e-01) (7, 3.81512135319939235320e-03) (8, 5.51667318663217193242e-02) (9, 8.25985927451599183380e-02) (10, -1.70321889339295137744e-02) (11, 5.85992939519084446442e-02) (12, 1.50917829497302629499e-02) (13, -7.32066106916577502561e-02) (14, -2.70270321185549465548e-02) (15, 5.43262496198784333723e-02) (16, -5.85436261233510391033e-02) (17, 3.11367519298769677982e-02) (18, -6.68484129710695956783e-02) (0, 5.34871313115587443399e-01) (1, 6.17997677723624239121e-01) (2, 4.78642042605018303014e-01) (3, 5.18323002318692216406e-01) (4, 6.25275519209620322947e-01) (5, 4.64456166607673692770e-01) (6, 4.76849188510770183314e-01) (7, 6.49288602373894851993e-01) (8, 6.53746092719045157615e-01) (9, 6.13925974979642408158e-01) (10, 5.29286545781746609052e-01) (11, 5.18223271677668129165e-01) (12, 4.98456207859002242699e-01) (13, 4.85956541132499086899e-01) (14, 5.06875141681807250826e-01) (15, 5.83921300005491916707e-01) (16, 5.82081643139620519278e-01) (17, 5.38663721643378834436e-01) (18, 6.22122784393384642421e-01) (0, 4.85211382036331517753e-01) (1, 4.72863614282603872407e-01) (2, 5.51718649544449157851e-01) (3, 5.28488377966321642987e-01) (4, 4.22092334852962713931e-01) (5, 3.75520485699842254679e-01) (6, 4.95766439470890718511e-01) (7, 3.80885219216347603588e-01) (8, 4.29085686919886577506e-01) (9, 4.31077532043171951504e-01) (10, 6.11189907908718299545e-01) (11, 4.11012795309982525982e-01) (12, 4.29997129236987185585e-01) (13, 5.33926117257688903628e-01) (14, 4.97884084552026429105e-01) (15, 5.50150731494776112918e-01) (16, 5.00429773011989653675e-01) (17, 4.95332183035825823758e-01) (18, 5.67234056605775194271e-01) (0, -5.93891967886690519407e-02) (1, -2.36057060282211621238e-02) (2, 1.67097548971008071084e-02) (3, 2.34273681137454579948e-02) (4, 2.11462638937730956767e-02) (5, 1.15994786444685166193e-01) (6, 4.65154553114019569948e-02) (7, 7.51752565090574864648e-02) (8, -2.91593719099991939558e-03) (9, -2.14337345151353435291e-02) (10, -4.82332559436099705952e-02) (11, -4.81204153998758890620e-02) (12, 1.62418333704061612632e-02) (13, 4.78901649446599429749e-03) (14, 8.67737469134303579521e-02) (15, -5.00046294143939099031e-02) (16, -5.89842224909299314706e-03) (17, -1.41389648878311152691e-01) (18, -1.08458295904181531433e-01) (0, 1.16972924752141264892e-02) (1, -3.12775820497528181385e-02) (2, -4.39203501513898211805e-02) (3, 2.28089853335194658879e-02) (4, 4.48522311256862385442e-02) (5, -1.05734055905662722302e-02) (6, -3.77472660200267040587e-02) (7, 9.83211708530065814360e-02) (8, -4.15937207496907199178e-02) (9, 7.14683451536968217255e-02) (10, 9.92254730447887367539e-02) (11, -6.85291459786879220140e-02) (12, -9.47490050383188314731e-02) (13, 7.30542044699837300747e-02) (14, 6.44813510132383888029e-02) (15, 4.10633200809224496730e-02) (16, 2.63413252706796371938e-02) (17, 4.54000627339830528650e-02) (18, -2.35233647499454761112e-03) (19, 4.94944013774566010655e-02) (20, 3.01022019223724346393e-01) (21, 4.79887674656298113263e-01) (22, 4.10669476203438021944e-01) (23, 3.55213458978112628373e-01) (24, 4.05877388842783459744e-01) (25, -2.31547059978974872907e-01) (26, -1.24121700883709246144e-01) (27, 4.54635406934223884612e-01) (28, -1.40015172082140704202e-01) (29, 4.06289644467647814707e-01) (30, 4.26201695029114258073e-01) (31, 3.52517491358005585766e-01) (32, -8.25380913480044386965e-02) (33, 2.16406998171490283500e-01) (34, 4.44019686312794203964e-01) (35, 3.40551106648436019420e-01) (36, -1.16215513395587943801e-01) (37, 5.52137328826420969996e-01) (38, -3.80203111597733692251e-02) (39, 2.06586996534117028901e+00) (40, 2.47917568284571593340e-01) (41, 4.58601138703513488970e-01) (42, 3.12478464955487145183e-01) (43, 6.26110145450391314403e-02) (44, 4.32643410511933113050e-01) (45, 6.93018669920666519069e-01) (46, 4.35527337799600067214e-01) (47, 3.13667031645555927089e-01) (48, 3.64124184283501906023e-01) (49, 3.31816928117945941779e-01) (50, 6.51285454015190778954e-01) (51, -8.26830588670802169027e-02) (52, 7.24898562595945428200e-01) (53, 3.29165658760576573805e-01) (54, 4.90669640873636625500e-01) (55, 3.68018250965871374092e-01) (56, 3.75757842729328994658e-01) (57, 1.42762979986334973687e-03) (58, 3.18776647541426871868e-01) (59, 5.11197292024458405102e-02) (60, 6.74202352953711003813e-01) (61, 5.60644139918591369320e-02) (62, -1.05206333416721087293e-01) (63, 1.66705555454165016416e-01) (64, 4.69099009621845031148e-01) (65, 3.33950995907615066915e-01) (66, 4.56036649568896446105e-01) (67, 2.98583644188351489401e-02) (68, 2.80203408982928059423e-01) (69, -1.83368126910923801010e-01) (70, 5.50824357489538396493e-01) (71, 4.76456964803562255106e-01) (72, 3.15641703541445772796e-02) (73, 5.74530177946067088790e-01) (74, 6.85055692474602628828e-01) (75, -2.27794417774680006683e-02) (76, 2.81799533383813805010e-01) (77, 3.87793758816150524460e-01) (78, 1.47231387823533815817e-01) (79, 3.66094492307495689154e-01) (80, -2.20266204405080087692e-02) (81, 3.08615136525532907097e-01) (82, 4.71582245095081953323e-01) (83, -1.28413351369686901116e-01) (84, 3.87919998941094967826e-01) (85, 2.54571844856720630457e-01) (86, 5.73175930188839360957e-02) (87, 4.53880187295798487312e-01) (88, 2.50603345213251671453e-01) (89, -2.05390353397374214595e-01) (90, 3.98027586599377813936e-01) (91, 4.38788404492388428579e-01) (92, 4.71276105297273151251e-01) (93, 1.20379245382839315109e-02) (94, 3.24305515417811218715e-01) (95, 4.60545886579066032773e-01) (96, 1.59957006816970254137e-01) (97, 5.00512939626884145738e-01) (98, 7.89323027223267220664e-02) (99, 3.96263558798757797863e-01) (100, 6.35671232435798150284e-01) (101, -6.86098108568022752030e-02) (102, -9.87466614525077807096e-02) (103, -9.90466787513867713555e-02) (104, 1.76805538994938088448e-01) (105, 1.70051454272523439037e-01) (106, 1.88760854151388934863e-01) (107, -1.23394615338501226209e-01) (108, 3.93185391798670180741e-01) (109, 1.43048822588044150655e-02) (110, 4.93206326769358049944e-01) (111, -3.30089890997576573817e-01) (112, -2.02545014917736090898e-02) (113, 4.84959343524387853641e-01) (114, 1.49393068153607699866e-01) (115, 3.52571691352423610688e-01) (116, 2.09691829866051865361e-01) (117, -1.02360908460508756579e-01) (118, 6.38604679890648618823e-02) (119, 4.45162009533201008527e-01) (120, 3.78979595781086031625e-01) (121, -8.31158834032372229039e-02) (122, 4.34089614700342685261e-01) (123, -1.29940773407071163970e-01) (124, 3.19918177172339779357e-01) (125, 7.01557518861528395249e-01) (126, 4.81498739042490742079e-01) (127, -1.56591344415875112495e-02) (128, 4.69281187030364144164e-01) (129, -2.97718552883743520221e-02) (130, -1.92392971839750459573e-02) (131, 6.87790768242463546045e-01) (132, 1.89135795002786238905e-01) (133, 3.87074547016271267030e-02) (134, 3.83954858325766590355e-01) (135, 2.84152073334460852916e-01) (136, 9.63872055279959699670e-02) (137, -5.84691231645780781778e-02) (138, 3.81295478781517760414e-01) (139, 6.37182566908460867872e-01) (140, 3.45396695002391618257e-01) (141, -9.97218660386869765189e-02) (142, 4.02438786628632819142e-02) (143, 3.10048387413720261119e-01) (144, 3.39865834365548458162e-01) (145, -2.44105293717205995563e+01) (146, 2.26575769596456227939e-01) (147, -1.80347516112466410565e-01) (19, -7.82851404887888596695e-02) (20, 3.71135241195012677284e-01) (21, 4.52571217406489201274e-01) (22, 3.19506794032974050790e-01) (23, 4.76190169446442046475e-01) (24, 7.13823228181578950391e-01) (25, -8.97663329704272705545e-02) (26, -2.43591259381414099172e-01) (27, 3.45631422155450673817e-01) (28, -4.84208562745992859844e-02) (29, 4.40557882539677425626e-01) (30, 3.38974906392111641207e-01) (31, 4.75296746316880680538e-01) (32, -3.46281504395489381221e-01) (33, 1.64341690960153774537e-01) (34, 4.16316834235860355751e-01) (35, 5.00688722081731873992e-01) (36, -2.94489534302311062319e-01) (37, 7.25729398272703885020e-01) (38, -7.72380413250624425769e-02) (39, -3.83915980708943518906e-02) (40, 1.55034103301436871486e-02) (41, 3.64248812249662212714e-01) (42, 6.96471290256479580449e-01) (43, -1.87750570711581576955e-01) (44, 2.82013649529799181881e-01) (45, 7.26690452403512154866e-01) (46, 4.35147127219623786054e-01) (47, 3.37145035236673107359e-01) (48, 4.94593935466140444124e-01) (49, 4.42970422761823634517e-01) (50, 4.14345649496033086034e-01) (51, -2.05426679037533060912e-01) (52, 4.16126499590304510523e-01) (53, 4.54437305838098659638e-01) (54, 2.87478052663108107900e-01) (55, 3.45444871038540324282e-01) (56, 3.21385531936747403936e-01) (57, 3.99004286934778407137e-01) (58, 4.16561360883396736288e-01) (59, -1.01311513846618905799e-01) (60, 7.90574494161900953593e-01) (61, -9.25704451050721882632e-02) (62, -4.06298969355999226027e-02) (63, 1.35876268413547517111e-02) (64, 3.86191943479586352606e-01) (65, 3.41456061512560526960e-01) (66, 4.76743858824210720027e-01) (67, 4.10305381710863448230e-02) (68, 5.03687081441506423474e-01) (69, -7.08158053404180087842e-02) (70, 4.31719425920731147972e-01) (71, 2.82637198780663401187e-01) (72, -1.56043171036220618131e-01) (73, 7.02603666541859350758e-01) (74, 3.78332579210518049617e-01) (75, -8.11145621922902820833e-02) (76, 5.07829211762653276452e-01) (77, 3.34064565759001230738e-01) (78, -5.87185261620249907000e-02) (79, 4.91137669190253756124e-01) (80, -2.00441229624249483976e-01) (81, 3.37276824833525556979e-01) (82, 3.34295889774321841603e-01) (83, -2.24400406134547036885e-01) (84, 7.85518371675516413610e-01) (85, 3.67354825128181350369e-02) (86, -9.43704830099021535483e-02) (87, 2.90528709511518767883e-01) (88, 2.95260654938302946615e-01) (89, -2.89462132554300533016e-01) (90, 5.04533484173735669032e-01) (91, 3.29614663000296570505e-01) (92, 3.26812112538370225234e-01) (93, -1.12181901972550956970e-01) (94, 3.37540137110176774460e-01) (95, 7.38678634389250854397e-01) (96, -9.74766205403191504653e-02) (97, -1.65001519118641221118e-01) (98, 1.17134537107086281194e-01) (99, 3.57998523880937502550e-01) (100, 5.25607321363449897511e-01) (101, -9.86063735300553578789e-02) (102, -1.99569104235197719577e-01) (103, -1.24629655997521168742e-01) (104, 4.23005413675541785956e-01) (105, 2.11040473126278882443e-01) (106, 1.08130034273863306904e-01) (107, -3.76504705681388107674e-01) (108, 3.14787451671295237521e-01) (109, -2.62018988946298714282e-01) (110, 7.99039157950050649148e-01) (111, -1.89443069807764874479e-01) (112, -1.99352958487018949718e-01) (113, 2.85089516256225472546e-01) (114, 2.48346930562173620616e-02) (115, 2.94767027109001988894e-01) (116, 4.14306610831479543711e-02) (117, -8.28866783412019192401e-02) (118, -2.56980489809598922069e-01) (119, 3.92163071285801134724e-01) (120, 3.66434842027916041207e-01) (121, -2.28871435134801515243e-01) (122, 3.78621921953517570625e-01) (123, -3.08640473743052312638e-01) (124, 5.02262991694225169326e-01) (125, 4.04876584005383954867e-01) (126, 7.17234294688865792189e-01) (127, -1.82028184496521472369e-01) (128, 7.65420017639925176489e-01) (129, -4.04012079417493327749e-02) (130, -5.88022471430412474458e-02) (131, 7.66772492126044813432e-01) (132, 2.92127453348311090509e-02) (133, -2.50291790959351334589e-02) (134, 3.25638016409666664064e-01) (135, 3.44479712289687711735e-01) (136, -6.03703454305477074660e-02) (137, -1.06016637215021539142e-01) (138, 3.47291484987282073060e-01) (139, 7.10666834275009540178e-01) (140, 4.75011902575790345704e-01) (141, -2.29307728767384755297e-01) (142, 1.20333509777009461938e-02) (143, 3.21220611438880532251e-01) (144, 3.35629827401904667905e-01) (145, -2.65938726796383591022e+01) (146, 1.10830390584615315341e-01) (147, -1.87492841911578417280e-01) (19, 8.26113569841622985557e-01) (20, -1.27355233862842698311e-01) (21, 1.26449900238701007371e-01) (22, -6.56390466879833434088e-02) (23, -1.07641766395810967172e-01) 