FANN_FLO_2.1
num_layers=4
learning_rate=0.700000
connection_rate=1.000000
network_type=0
learning_momentum=0.000000
training_algorithm=2
train_error_function=1
train_stop_function=0
cascade_output_change_fraction=0.010000
quickprop_decay=-0.000100
quickprop_mu=1.750000
rprop_increase_factor=1.200000
rprop_decrease_factor=0.500000
rprop_delta_min=0.000000
rprop_delta_max=50.000000
rprop_delta_zero=0.100000
cascade_output_stagnation_epochs=12
cascade_candidate_change_fraction=0.010000
cascade_candidate_stagnation_epochs=12
cascade_max_out_epochs=150
cascade_max_cand_epochs=150
cascade_num_candidate_groups=2
bit_fail_limit=3.49999999999999977796e-01
cascade_candidate_limit=1.00000000000000000000e+03
cascade_weight_multiplier=4.00000000000000022204e-01
cascade_activation_functions_count=10
cascade_activation_functions=3 5 7 8 10 11 14 15 16 17 
cascade_activation_steepnesses_count=4
cascade_activation_steepnesses=2.50000000000000000000e-01 5.00000000000000000000e-01 7.50000000000000000000e-01 1.00000000000000000000e+00 
layer_sizes=19 65 65 7 
scale_included=0
neurons (num_inputs, activation_function, activation_steepness)=(0, 0, 0.00000000000000000000e+00) (0, 0, 0.00000000000000000000e+00) (0, 0, 0.00000000000000000000e+00) (0, 0, 0.00000000000000000000e+00) (0, 0, 0.00000000000000000000e+00) (0, 0, 0.00000000000000000000e+00) (0, 0, 0.00000000000000000000e+00) (0, 0, 0.00000000000000000000e+00) (0, 0, 0.00000000000000000000e+00) (0, 0, 0.00000000000000000000e+00) (0, 0, 0.00000000000000000000e+00) (0, 0, 0.00000000000000000000e+00) (0, 0, 0.00000000000000000000e+00) (0, 0, 0.00000000000000000000e+00) (0, 0, 0.00000000000000000000e+00) (0, 0, 0.00000000000000000000e+00) (0, 0, 0.00000000000000000000e+00) (0, 0, 0.00000000000000000000e+00) (0, 0, 0.00000000000000000000e+00) (19, 5, 5.00000000000000000000e-01) (19, 5, 5.00000000000000000000e-01) (19, 5, 5.00000000000000000000e-01) (19, 5, 5.00000000000000000000e-01) (19, 5, 5.00000000000000000000e-01) (19, 5, 5.00000000000000000000e-01) (19, 5, 5.00000000000000000000e-01) (19, 5, 5.00000000000000000000e-01) (19, 5, 5.00000000000000000000e-01) (19, 5, 5.00000000000000000000e-01) (19, 5, 5.00000000000000000000e-01) (19, 5, 5.00000000000000000000e-01) (19, 5, 5.00000000000000000000e-01) (19, 5, 5.00000000000000000000e-01) (19, 5, 5.00000000000000000000e-01) (19, 5, 5.00000000000000000000e-01) (19, 5, 5.00000000000000000000e-01) (19, 5, 5.00000000000000000000e-01) (19, 5, 5.00000000000000000000e-01) (19, 5, 5.00000000000000000000e-01) (19, 5, 5.00000000000000000000e-01) (19, 5, 5.00000000000000000000e-01) (19, 5, 5.00000000000000000000e-01) (19, 5, 5.00000000000000000000e-01) (19, 5, 5.00000000000000000000e-01) (19, 5, 5.00000000000000000000e-01) (19, 5, 5.00000000000000000000e-01) (19, 5, 5.00000000000000000000e-01) (19, 5, 5.00000000000000000000e-01) (19, 5, 5.00000000000000000000e-01) (19, 5, 5.00000000000000000000e-01) (19, 5, 5.00000000000000000000e-01) (19, 5, 5.00000000000000000000e-01) (19, 5, 5.00000000000000000000e-01) (19, 5, 5.00000000000000000000e-01) (19, 5, 5.00000000000000000000e-01) (19, 5, 5.00000000000000000000e-01) (19, 5, 5.00000000000000000000e-01) (19, 5, 5.00000000000000000000e-01) (19, 5, 5.00000000000000000000e-01) (19, 5, 5.00000000000000000000e-01) (19, 5, 5.00000000000000000000e-01) (19, 5, 5.00000000000000000000e-01) (19, 5, 5.00000000000000000000e-01) (19, 5, 5.00000000000000000000e-01) (19, 5, 5.00000000000000000000e-01) (19, 5, 5.00000000000000000000e-01) (19, 5, 5.00000000000000000000e-01) (19, 5, 5.00000000000000000000e-01) (19, 5, 5.00000000000000000000e-01) (19, 5, 5.00000000000000000000e-01) (19, 5, 5.00000000000000000000e-01) (19, 5, 5.00000000000000000000e-01) (19, 5, 5.00000000000000000000e-01) (19, 5, 5.00000000000000000000e-01) (19, 5, 5.00000000000000000000e-01) (19, 5, 5.00000000000000000000e-01) (19, 5, 5.00000000000000000000e-01) (19, 5, 5.00000000000000000000e-01) (19, 5, 5.00000000000000000000e-01) (19, 5, 5.00000000000000000000e-01) (19, 5, 5.00000000000000000000e-01) (19, 5, 5.00000000000000000000e-01) (19, 5, 5.00000000000000000000e-01) (0, 5, 0.00000000000000000000e+00) (65, 5, 5.00000000000000000000e-01) (65, 5, 5.00000000000000000000e-01) (65, 5, 5.00000000000000000000e-01) (65, 5, 5.00000000000000000000e-01) (65, 5, 5.00000000000000000000e-01) (65, 5, 5.00000000000000000000e-01) (65, 5, 5.00000000000000000000e-01) (65, 5, 5.00000000000000000000e-01) (65, 5, 5.00000000000000000000e-01) (65, 5, 5.00000000000000000000e-01) (65, 5, 5.00000000000000000000e-01) (65, 5, 5.00000000000000000000e-01) (65, 5, 5.00000000000000000000e-01) (65, 5, 5.00000000000000000000e-01) (65, 5, 5.00000000000000000000e-01) (65, 5, 5.00000000000000000000e-01) (65, 5, 5.00000000000000000000e-01) (65, 5, 5.00000000000000000000e-01) (65, 5, 5.00000000000000000000e-01) (65, 5, 5.00000000000000000000e-01) (65, 5, 5.00000000000000000000e-01) (65, 5, 5.00000000000000000000e-01) (65, 5, 5.00000000000000000000e-01) (65, 5, 5.00000000000000000000e-01) (65, 5, 5.00000000000000000000e-01) (65, 5, 5.00000000000000000000e-01) (65, 5, 5.00000000000000000000e-01) (65, 5, 5.00000000000000000000e-01) (65, 5, 5.00000000000000000000e-01) (65, 5, 5.00000000000000000000e-01) (65, 5, 5.00000000000000000000e-01) (65, 5, 5.00000000000000000000e-01) (65, 5, 5.00000000000000000000e-01) (65, 5, 5.00000000000000000000e-01) (65, 5, 5.00000000000000000000e-01) (65, 5, 5.00000000000000000000e-01) (65, 5, 5.00000000000000000000e-01) (65, 5, 5.00000000000000000000e-01) (65, 5, 5.00000000000000000000e-01) (65, 5, 5.00000000000000000000e-01) (65, 5, 5.00000000000000000000e-01) (65, 5, 5.00000000000000000000e-01) (65, 5, 5.00000000000000000000e-01) (65, 5, 5.00000000000000000000e-01) (65, 5, 5.00000000000000000000e-01) (65, 5, 5.00000000000000000000e-01) (65, 5, 5.00000000000000000000e-01) (65, 5, 5.00000000000000000000e-01) (65, 5, 5.00000000000000000000e-01) (65, 5, 5.00000000000000000000e-01) (65, 5, 5.00000000000000000000e-01) (65, 5, 5.00000000000000000000e-01) (65, 5, 5.00000000000000000000e-01) (65, 5, 5.00000000000000000000e-01) (65, 5, 5.00000000000000000000e-01) (65, 5, 5.00000000000000000000e-01) (65, 5, 5.00000000000000000000e-01) (65, 5, 5.00000000000000000000e-01) (65, 5, 5.00000000000000000000e-01) (65, 5, 5.00000000000000000000e-01) (65, 5, 5.00000000000000000000e-01) (65, 5, 5.00000000000000000000e-01) (65, 5, 5.00000000000000000000e-01) (65, 5, 5.00000000000000000000e-01) (0, 5, 0.00000000000000000000e+00) (65, 5, 5.00000000000000000000e-01) (65, 5, 5.00000000000000000000e-01) (65, 5, 5.00000000000000000000e-01) (65, 5, 5.00000000000000000000e-01) (65, 5, 5.00000000000000000000e-01) (65, 5, 5.00000000000000000000e-01) (0, 5, 0.00000000000000000000e+00) 
connections (connected_to_neuron, weight)=(0, 2.15623243868415082058e-01) (1, 1.45808853528160642377e+00) (2, 7.21152324751050954887e-01) (3, 5.84910935003737253446e-01) (4, 3.58902304899217594603e-01) (5, 5.01882278460240582874e-01) (6, -2.44386350381758266082e-01) (7, -1.21007261110899877465e+00) (8, -9.75304248612468560609e-01) (9, -2.10995665096431916918e-01) (10, -1.39894320202595778824e+00) (11, 1.43011911860312423972e-01) (12, -2.29765562255044353268e-01) (13, -8.70628471463532616070e-02) (14, -2.37719906644787815075e-01) (15, 8.46481444147699213509e-01) (16, -1.53779076491640520619e-01) (17, -4.21898390926896960096e-01) (18, 1.91055826739226719546e-01) (0, -6.31770434551013115865e-01) (1, 1.73710223216901349375e+00) (2, -1.08556712905046565121e-01) (3, 1.13259757266920368934e+00) (4, 6.43798750343766768012e-01) (5, 2.99181865240265132400e-01) (6, -9.65187539841469765989e-01) (7, -1.59196289520855138733e+00) (8, -4.30303750490870218215e-01) (9, 7.95783678892935331106e-01) (10, -1.21337039559868475891e+00) (11, 7.86785477186974002706e-01) (12, -1.09191473596219124076e+00) (13, -2.67103540066278288823e-02) (14, -2.94019573605912687420e-01) (15, 5.20254273006020007131e-01) (16, -2.35582290817922812565e-01) (17, -2.27757631169729413134e-01) (18, 2.84961719765888799039e-02) (0, -6.52136090098565657236e-01) (1, -1.08988231342507257970e+00) (2, -1.92836212113850824501e-01) (3, -5.13743531731893354753e-01) (4, 2.33269140565599997217e-01) (5, -8.19988063791677657122e-01) (6, 4.51634978610836068658e-01) (7, 1.27270639061629275979e+00) (8, 8.55474786861256331072e-01) (9, 1.99764971782288636160e-01) (10, 1.11478223405336218654e+00) (11, -1.54923608158037184879e-01) (12, 3.89851904094916046351e-01) (13, -2.21508193556914256828e-01) (14, 1.20243324431659553975e-01) (15, -1.22478342304742238156e+00) (16, 5.50304107334917746996e-01) (17, -1.53341759820867062913e-01) (18, 5.96015996894881591728e-02) (0, -1.56543675821168348783e-01) (1, 2.64727062079590957921e-01) (2, -4.80126678522351912903e-01) (3, 5.16218996488339132434e-01) (4, -3.39233937474242186472e-01) (5, 1.75247708833758369940e-01) (6, 4.55200293190255039777e-02) (7, 2.25318507470546103288e-01) (8, 3.30449533088821523208e-01) (9, -1.40143447119714659177e-01) (10, 4.22949429774707064134e-01) (11, 4.05715093092752498993e-03) (12, 2.86027010221880095830e-01) (13, 1.05923222962570950934e-01) (14, 5.58557315540754828476e-01) (15, -2.37448315274061405589e-02) (16, -1.63426940232786532814e-01) (17, -6.54985230784525418457e-01) (18, 1.30240069863720581145e-01) (0, -7.94853787601084438297e-02) (1, 1.76036530214733444311e+00) (2, 4.59147954089238252706e-01) (3, 8.19540271942334808131e-01) (4, 6.46343698616403283808e-01) (5, 2.49783344971385212752e-01) (6, 3.15363922568317245343e-01) (7, -1.23523274928397053252e+00) (8, -2.79396754927079882247e-01) (9, -5.79690025381383700065e-01) (10, -2.33016627356980587926e-01) (11, -9.49841798124763658784e-02) (12, -8.14056285198644924428e-01) (13, 8.01912808997216064455e-01) (14, 2.50670978077053574484e-01) (15, 4.43086949029526167010e-01) (16, -3.63308436245224852801e-01) (17, -6.59601070247735066232e-02) (18, 1.68124523514544876868e-01) (0, -9.41421453317678735839e-02) (1, 2.89712663507402212737e-01) (2, -7.89784445106734067643e-01) (3, -2.05969028057778003049e-01) (4, 5.03955605411933293958e-01) (5, -2.12757427124695031040e+00) (6, -3.35186829625688409440e-01) (7, 4.52191720201013447333e-01) (8, 1.13185944862613352413e-01) (9, -8.10614487093249458383e-01) (10, 2.67386621411278224691e-01) (11, 1.47988661897019257996e-01) (12, 3.24751202961698570704e-01) (13, 3.00981514068295985531e-01) (14, 5.37405155895373520814e-02) (15, -1.20828803378424187720e+00) (16, -9.04466231369736917145e-01) (17, 9.44629506418753095431e-01) (18, 2.15927688694432462491e-01) (0, -1.14398872942121671015e-01) (1, -2.02600487772466619774e+00) (2, -3.08405287729414223641e-01) (3, -3.31015956222838803047e-01) (4, 1.30348517893822457570e-01) (5, 1.61857149820310713961e-02) (6, 1.11571789728043979650e+00) (7, 9.42036312499806571807e-01) (8, 5.89115242486894619134e-01) (9, 6.83806398748337818105e-03) (10, 1.61079684515543464229e+00) (11, 4.76531665156387618243e-01) (12, 1.03598260245567308502e+00) (13, -4.53544994427379499768e-02) (14, 4.83610210944607210592e-01) (15, -6.66293071922312130084e-01) (16, 5.93462369313621174172e-01) (17, -1.81395303483978587167e-01) (18, 8.99364531770467656724e-02) (0, 4.00054090675266427191e-01) (1, -1.99169574468579746451e+00) (2, -9.66419231591954197569e-01) (3, -9.58591507782154517159e-01) (4, -1.16675819166695893259e+00) (5, -7.11842275534844914908e-01) (6, 9.98185717568776942343e-01) (7, 2.09596622775298246921e+00) (8, 8.85984457897539101623e-01) (9, 6.95308714121163684574e-01) (10, 1.20249873682885843884e+00) (11, -4.98178657772521460423e-01) (12, 4.45150657151375195308e-01) (13, -1.33271821444716220828e-01) (14, -5.73408614273481109791e-01) (15, -1.30525101426350231826e+00) (16, 3.35050892271818834267e-01) (17, 1.49632620358287304896e+00) (18, 6.90879709460832103218e-02) (0, -2.56684372892111323239e-01) (1, -2.10398583581926335029e+00) (2, 5.75735720217335489313e-02) (3, -2.38970720688740534410e-01) (4, 4.36111768319411119421e-01) (5, -6.48247296546182183441e-02) (6, 5.46528623428171211884e-01) (7, 1.67320667067446549048e+00) (8, 1.40783426406921474694e+00) (9, -1.05329823981086867501e-01) (10, 8.29904223304611776690e-01) (11, -6.80748819369855762140e-03) (12, 5.84522639995439075022e-01) (13, 4.68223379300989117624e-01) (14, 3.65323666344822606256e-01) (15, -5.65345249949190664651e-01) (16, 8.83708631278889711336e-02) (17, 6.92187170841184973291e-01) (18, 1.06867095160764410955e-01) (0, 4.34337420019425934914e-01) (1, 1.24654471399684463329e+00) (2, -1.82131041386249858949e-01) (3, 4.82460355095595372354e-01) (4, -7.79756619195841327308e-02) (5, 3.48425886400152845512e-02) (6, 5.82117231375134047688e-01) (7, -7.38205806731024538614e-01) (8, -3.31901028776201145742e-01) (9, -2.85959698868649747627e-01) (10, 3.02751714859639475819e-01) (11, 5.98229515168179071249e-03) (12, 2.01379244178842259361e-01) (13, 4.34595983758185422374e-01) (14, 7.20995628056583792720e-01) (15, 8.35586347286811470525e-01) (16, -5.01165796710926869650e-01) (17, 1.89957450558274620889e-01) (18, 1.23330286176853057278e-01) (0, 6.18758417268592708638e-01) (1, 1.39711061703359257224e-01) (2, -1.33804163317601254590e-01) (3, 8.87066264733038956081e-01) (4, -3.45572116159548248238e-01) (5, 1.10717472234555525112e+00) (6, 9.57272875103745840564e-02) (7, -8.08612572775651794466e-01) (8, -4.09560193965977314967e-01) (9, -6.89732646563145923579e-01) (10, 3.46772776072568678085e-01) (11, -5.11776658461081779272e-01) (12, 1.40821407603188036850e-01) (13, -1.25796679985444692651e-01) (14, -2.69147959449312745850e-01) (15, 6.78372488618241842318e-01) (16, 1.00386850498331092751e+00) (17, -1.60430644921214460297e+00) (18, 6.98484828046927741507e-02) (0, 5.43824454652029776192e-01) (1, 2.93185034032408420313e-01) (2, -5.40155980310835226454e-02) (3, 5.94873849994200676328e-01) (4, -9.62198584764448971995e-01) (5, 9.37831575475454870539e-03) (6, 1.98979534381807154908e-01) (7, -4.63592338862397257415e-01) (8, -4.02911577541321341833e-01) (9, -4.72790557421197465970e-01) (10, 6.75944180296912833228e-01) (11, -4.82874014643368321131e-01) (12, 3.41481693799856433902e-01) (13, 4.74923815956516726100e-01) (14, 1.66126107377939619125e-01) (15, 3.47940311571244886846e-01) (16, -2.67838709918478634631e-01) (17, -6.93357459795470809638e-01) (18, 4.29085913731686863226e-02) (0, 1.19348115959563894073e+00) (1, 5.41248858373923669163e-01) (2, 3.42339490547443503488e-01) (3, 1.13209632432204276853e+00) (4, 1.76320746041875475729e-01) (5, -1.71897639065560547955e-01) (6, 4.80012500557126464695e-01) (7, -2.15034757865749159844e-01) (8, -2.50162201362015612638e-01) (9, 1.20527813274051709413e-03) (10, 8.14372812196450301947e-01) (11, -1.19944959854647814623e+00) (12, 7.56049248354716263432e-02) (13, 1.46482278984729624716e-01) (14, -2.62904668045660927511e-01) (15, 5.32086665802562253091e-01) (16, 7.90143431836571541460e-01) (17, -3.25978950330446104466e-01) (18, 1.00120978236881569279e-01) (0, 2.22826780211297481582e-01) (1, 8.85183868658657280193e-01) (2, -5.81113091060634467944e-01) (3, 3.58318841058256176701e-01) (4, 3.85574625800102349649e-02) (5, -1.28486836262690251598e-01) (6, -7.12919142367606339938e-01) (7, 6.63784971186391459241e-01) (8, 3.38387318955231386486e-03) (9, 3.92018958611933199254e-01) (10, -2.02391671718210264252e-01) (11, 9.30091552044074676431e-01) (12, 1.30342002087574904134e-01) (13, 6.48551512130220442209e-02) (14, -2.48660234842376537401e-01) (15, -8.84090605480703783936e-02) (16, 4.27680566078813051423e-01) (17, 7.32876983440695906058e-02) (18, 2.11778901021936194482e-02) (0, 1.37860105486739353831e-01) (1, 1.57689410924093209587e+00) (2, 6.35110286398497758675e-01) (3, -9.54644257384596461868e-02) (4, 9.95049010244385745416e-01) (5, -7.88805474131158534945e-01) (6, -5.82541546818423294773e-01) (7, -6.42635571709696096221e-01) (8, -4.11816974729789619936e-01) (9, 5.75636539760191467963e-01) (10, -3.25012931685535133575e-01) (11, -7.90326011455896093594e-01) (12, -1.16786475983765969389e+00) (13, -7.57300892062100716728e-01) (14, -4.98545011460944431647e-01) (15, 5.84494343864697049606e-02) (16, 3.26354189871671529488e-01) (17, 6.70719314038086822372e-01) (18, 1.16716861981448927210e-01) (0, 5.16023025139765723068e-01) (1, -2.12406417503061817342e+00) (2, -5.10475620218322712063e-01) (3, -5.52768233297378230873e-01) (4, -1.04354684513602125051e+00) (5, -1.50509166451549103449e-01) (6, 7.37169415873149991292e-01) (7, 1.71252534610100770607e+00) (8, 8.67124909855741310416e-01) (9, 1.93603403809423479931e-01) (10, 1.55814928491433102309e+00) (11, -5.32407352178039361412e-01) (12, 1.08810639812396736659e+00) (13, -1.37313262534752289490e-03) (14, 4.02754373240407193002e-01) (15, -1.41934211044848157535e-01) (16, 6.61988155539575351405e-01) (17, 8.74227415092041826306e-01) (18, 8.21665336423659936615e-02) (0, 1.71394578731978303177e-01) (1, 1.24237052823055704742e+00) (2, 3.81113721476295241875e-01) (3, 2.25323443842285781047e-01) (4, -1.26156802298977299692e-02) (5, 2.51493139965337619834e-01) (6, -2.23670503190846303720e-01) (7, -9.16944335133728971599e-01) (8, -3.91351141345441799757e-01) (9, -8.51405128704229852143e-02) (10, -7.60637855213084135286e-01) (11, -5.58353110491789372816e-02) (12, -1.88886442669184362320e-01) (13, -1.16899521094985664460e-01) (14, 1.40191716453628989481e-01) (15, 4.31862746003518538362e-01) (16, 8.10296553967699700882e-02) (17, 2.43072025828465654307e-01) (18, 1.54798781967841303508e-01) (0, -3.76041126162714844927e-01) (1, -4.62298888934861484934e-01) (2, -5.54722806872564033753e-01) (3, -2.62857813464330458686e-01) (4, 3.85463053324352711293e-01) (5, -6.30804321832685421789e-01) (6, -1.35964824008119045118e-01) (7, 1.06902715239711021411e+00) (8, 9.48414824598150518753e-01) (9, 2.52152681100994424668e-01) (10, 3.19836238546645001968e-01) (11, 2.24518456884471029333e-02) (12, -8.25892418469237332701e-02) (13, 3.10625753879142596503e-01) (14, 2.51060587575093363544e-01) (15, -1.15292102391975359588e+00) (16, 1.31999407148701064507e-01) (17, 5.09396375116179189746e-01) (18, 6.25244492183574251953e-02) (0, 5.14880068109125205167e-02) (1, -1.14577744773817169488e+00) (2, -1.55544001423842337406e-01) (3, 4.92387971478778552203e-01) (4, 1.08359322776062638738e+00) (5, -4.26096357190032026807e-01) (6, -1.30815748801980269445e-01) (7, 1.48249732303871750716e+00) (8, 8.31817461242966738055e-01) (9, 1.35268276797275754930e+00) (10, 1.92421084646528461892e-01) (11, 8.69600516297524106513e-01) (12, -8.13871125954422347526e-02) (13, 1.79469944710564238699e-01) (14, -6.75385846894729080514e-02) (15, -6.72108637225159344375e-01) (16, 3.55370155765410755677e-01) (17, 7.79302746571088222893e-01) (18, 1.87816217234316740203e-01) (0, 1.33727233599391204244e+00) (1, 6.57375573609847774215e-01) (2, 3.76697019567703683673e-01) (3, 1.51242229505812342261e-01) (4, -7.15845706800940506653e-01) (5, 3.02736463087627416524e-01) (6, 1.40143796328810021912e-01) (7, -1.36860381649616957844e+00) (8, -5.76940259691951395915e-01) (9, -1.77001594018239727379e-01) (10, 2.34219756039917403889e-01) (11, -9.00103531098462417148e-01) (12, -4.53334607363294228577e-01) (13, 1.21279532351198371387e-02) (14, 1.69198066707224786809e-01) (15, 1.34764317344561290746e+00) (16, 1.38475168631117917517e-01) (17, -4.13184438919710461668e-01) (18, 5.79210515876206824548e-02) (0, -7.20551454378212219432e-01) (1, -1.14286142201666929274e+00) (2, -6.25369751756124636621e-01) (3, -4.31329562376827513326e-01) (4, -1.12583346002943673891e-01) (5, -1.23365692791351166946e+00) (6, 2.48568301407794511881e-01) (7, 1.41669355330686452810e+00) (8, 1.13427152255380869761e+00) (9, 4.42622222757984351560e-01) (10, 1.20076068287597337303e+00) (11, -1.28017012298400678638e-01) (12, 3.52771077228248713942e-02) (13, 2.66241930908839630199e-01) (14, -3.32118195201345500767e-02) (15, -9.85699079084977558551e-01) (16, 8.28535797551316899323e-02) (17, 9.41405866932415347215e-01) (18, 4.08698080500205368493e-02) (0, 6.29543274490857007741e-01) (1, -2.88587446114780765694e-01) (2, -5.45989473505983924362e-02) (3, 9.55404064666803831685e-01) (4, 4.74158715220315218897e-01) (5, 1.29405562826798692377e+00) (6, -1.59190473943625065978e-01) (7, 2.78596078140807557055e-01) (8, -2.50971827069921715747e-01) (9, 2.97276340943358530211e-01) (10, -1.12962117320810101484e-01) (11, 1.67469020124350886913e-01) (12, 1.05873872936999152694e-01) (13, 2.95906730389004168913e-01) (14, 5.08488546027273002892e-01) (15, 3.89636711504090516023e-01) (16, 3.04154214828212365873e-01) (17, -1.31678091072674652295e+00) (18, 1.30266167416024203352e-01) (0, 2.46901594831648280026e-01) (1, -6.89994492944125070721e-01) (2, -4.00452277815394497296e-01) (3, 3.46988651354970811802e-01) (4, -7.29855590275599430683e-01) (5, -4.14073686595795686927e-01) (6, 1.59273889638927135248e-01) (7, 1.24521332920237726150e+00) (8, 4.74799444683359050945e-01) (9, -8.11323078752730242336e-01) (10, 6.35100046981327159834e-01) (11, -7.56551719214042406314e-01) (12, 2.12205146435318903197e-01) (13, -2.32697554938339046249e-01) (14, 1.42334015799174901096e-01) (15, 5.95705885650062716419e-02) (16, 6.85913190579703346828e-01) (17, -3.57880477082030801217e-01) (18, 1.98159700924864179417e-01) (0, -1.01504583780045076757e+00) (1, 4.76647928045047575285e-01) (2, 6.28489873759111361551e-01) (3, -8.55127666760537197277e-01) (4, 2.17447574479000260705e-01) (5, 8.39690072038977053381e-01) (6, 4.57625307063580510913e-03) (7, -6.80686642184955781332e-01) (8, 4.16351214815398718017e-01) (9, 4.02420301943730740479e-01) (10, -3.64706321747455430859e-01) (11, 1.09332672997961655170e+00) (12, -4.59861377939714599528e-01) (13, 1.92987400577283363390e-01) (14, 3.51279731414291862546e-01) (15, 3.62083097623981942093e-01) (16, -4.67667957361984965026e-01) (17, 3.57504508107854168664e-01) (18, 1.19799783459271724784e-01) (0, 2.84934541654314033021e-01) (1, -1.03991072462003897314e-01) (2, -5.83169411488465128102e-01) (3, 5.18622889452593494042e-01) (4, -6.47962728306757385077e-01) (5, -1.49986256084374380837e-01) (6, 4.56467358534221878674e-01) (7, 3.39456144823513439324e-01) (8, 2.72797791452080495844e-01) (9, 1.68360164016501973050e-01) (10, 9.97051370970127415205e-01) (11, 3.55368310725068914380e-01) (12, 5.81650526872241724341e-01) (13, 1.99215200621094212785e-01) (14, 7.01183088401569953874e-01) (15, -3.05730655403170792361e-01) (16, 2.84251972619544879262e-01) (17, 1.16868683389389105276e-01) (18, 7.36760799223090540044e-02) (0, -4.20540889226309944071e-01) (1, -8.85073329382672691068e-01) (2, 9.24028295258030873960e-01) (3, -2.07324471454912395707e-01) (4, 9.03923408717456633443e-02) (5, 3.27735642783370417774e-01) (6, 7.81363199572316147190e-01) (7, 1.37042794928031486101e+00) (8, 2.98853397665762465785e-01) (9, 2.44821120551713011793e-01) (10, -8.64017355101454942456e-01) (11, 1.22539349859266843978e-01) (12, 1.09419312654910760862e+00) (13, -3.81819403794921519157e-01) (14, -3.24707220307605848308e-01) (15, 1.05149609734910076675e+00) (16, 4.60757425396576603127e-01) (17, 2.07479785226578533619e-01) (18, 1.65691971585517322518e-01) (0, 2.26854558088826208095e-01) (1, 6.93866902967333554209e-01) (2, 8.92818953761063793806e-01) (3, -3.94325390123496932748e-02) (4, 3.17607636690324102169e-01) (5, 1.04052563706492784412e+00) (6, 3.05778078664843633305e-01) (7, -9.72726877753699037399e-01) (8, -6.92814237581935055132e-01) (9, -8.46959963860479336795e-01) (10, -1.12697601199478469880e+00) (11, -3.52006896532667423738e-01) (12, -1.30161598293136449023e-01) (13, 3.68627155485720336969e-01) (14, -1.82486348349652494072e-01) (15, 8.37724464506039323552e-01) (16, -2.06964658071357332503e-01) (17, -6.89369535746117700903e-01) (18, 6.15817462867414983085e-02) (0, -3.12591011508253913131e-01) (1, 2.95439041444750138954e-01) (2, -6.61965028771146379860e-01) (3, 3.59185577376727960264e-01) (4, 8.18448666220860432396e-01) (5, -6.01809826966183236685e-01) (6, 3.18464714401936077603e-01) (7, -3.15397786496185716931e-01) (8, 4.06559154232071062740e-01) (9, -2.72896321229915694850e-02) (10, 2.27825298879702431432e-01) (11, 4.22754478628020013975e-01) (12, -5.43877983576346313299e-02) (13, 7.98076777920660673793e-01) (14, 5.44112705979772126597e-01) (15, -1.01788303939999358327e+00) (16, -9.15307458631201553700e-01) (17, 9.29506872270129180791e-01) (18, 1.59935011286186701263e-01) (0, -8.74790150480624917328e-01) (1, -1.36963000654947997248e+00) (2, 3.97214210137023737701e-01) (3, -7.13962700240588055145e-01) (4, 2.40407414700326421686e-01) (5, 1.20854557049071931196e+00) (6, 2.96679273137140708805e-01) (7, 9.38896001787028144925e-01) (8, 7.15828412894383370180e-01) (9, 1.43641774622787776750e+00) (10, 3.84714313798625362484e-01) (11, 8.67596505330109235565e-01) (12, -1.66087471144648224364e-01) (13, 1.46877887301344878246e-02) (14, 4.42472253062588416483e-01) (15, -2.52580916381999254217e-01) (16, 7.33332276235988289592e-01) (17, 5.26666775193237901576e-01) (18, 5.81417108977730009989e-02) (0, 4.44992075261719521873e-02) (1, -1.27993514560577237305e+00) (2, 2.21399491273959914128e-01) (3, -1.11066584122942191293e+00) (4, -3.58352651548059841780e-01) (5, 4.94768559068097579789e-01) (6, 5.38333617246264717338e-01) (7, 3.61689929863774489727e-02) (8, 1.45250368684171599076e-01) (9, -2.80552893659234081625e-01) (10, 5.75299380896099402105e-02) (11, -1.05962469721826479940e+00) (12, -3.29799038207161110403e-01) (13, -9.25264488743174351448e-03) (14, 1.63861500072977145370e-01) (15, 4.55753260596895415357e-01) (16, 2.17983964423430764956e-01) (17, 3.20434014812847001163e-01) (18, 1.48793666080707487342e-01) (0, -6.18834210126199879554e-01) (1, -7.77984730124927081896e-01) (2, 1.00694955995039095442e-01) (3, 1.53905161465013540223e-01) (4, 9.64019110054998518144e-01) (5, -7.87166456448770590626e-01) (6, -8.86241795833774270719e-01) (7, 1.32888766547459513667e+00) (8, 1.22878989472990229892e+00) (9, 1.10620913771783424551e+00) (10, 2.77297652962365193119e-01) (11, 9.40073893252605485849e-01) (12, -3.23512542020997995174e-01) (13, 4.51688568335741003068e-01) (14, -2.20355631525095185808e-01) (15, -8.27365483327345385689e-01) (16, 4.49033633196292081280e-01) (17, 1.15938629182336616630e+00) (18, 2.06380082146135679366e-01) (0, 1.83828564083985901423e-01) (1, 2.41323303649275322513e+00) (2, 9.39403791052666026218e-01) (3, 6.20302016541978584740e-01) (4, 1.23566555166652425335e+00) (5, 9.31704640857551336097e-01) (6, 2.27724630008913242474e-01) (7, -1.02947944392589940676e+00) (8, 2.21606305874916365006e-01) (9, -1.07476919409202759104e-01) (10, -7.14082540739099491667e-01) (11, 2.00298790456068298571e-01) (12, -9.66618882655721767261e-02) (13, 1.00383470592031320834e+00) (14, 9.99468473934357559685e-01) (15, 1.37977780021088292095e+00) (16, -4.09087827577081508679e-02) (17, 2.98055166949464545034e-01) (18, 1.83389906196784802095e-01) (0, 9.22911238716420112560e-01) (1, 3.36800107720709007708e-01) (2, 2.85263366590083555785e-01) (3, 6.51427389870309569986e-01) (4, -2.65218121810374296565e-01) (5, 1.39330786935614692190e+00) (6, 1.21696521957676759285e-01) (7, -3.89154437055106550147e-01) (8, -2.55832004622456421483e-01) (9, 8.31621928540071941871e-02) (10, -5.41350527563520977914e-01) (11, 5.44229743880121019650e-01) (12, 2.41555485376739459413e-01) (13, 6.16528921132337925926e-01) (14, -8.22472533862275700933e-03) (15, 6.25073174712516332896e-01) (16, -1.07802469030936209915e-01) (17, -2.17312999273450047077e-01) (18, 7.15932395380337732727e-02) (0, -5.06816997655651690913e-01) (1, -1.47949551252707311999e-01) (2, 1.32618227806492394727e+00) (3, -8.10250333253576204839e-01) (4, 1.51749602270090155898e+00) (5, -4.43167868089740846216e-01) (6, 6.23880634630413211106e-01) (7, 1.20369174649739663074e+00) (8, 8.43821318232620076749e-01) (9, 8.09287413187400606063e-01) (10, -5.07255687873779170793e-01) (11, -1.39624131600852019464e-02) (12, 3.82919756411245204575e-01) (13, -1.77596082160952795093e-01) (14, 2.15836329666131976346e-01) (15, 6.59242934290901749783e-01) (16, 1.06104971187141483568e+00) (17, 1.04303778629155807778e+00) (18, 1.78810170538258123019e-01) (0, 1.87447222770583232787e-01) (1, -8.48364622807798451909e-01) (2, 3.48781208093083661126e-01) (3, 1.88252326634100297653e-01) (4, -4.51615914537113027905e-01) (5, 3.16495101748950069531e-02) (6, 9.05341480050845581751e-01) (7, 8.71453354483038289402e-01) (8, 1.02721140944487698832e+00) (9, -4.55245380726996939913e-01) (10, 1.42091946251459555484e+00) (11, -7.45711592564433756181e-01) (12, 1.01596320486966140706e+00) (13, 7.39588816921090130840e-01) (14, 1.76550273965773024676e-01) (15, 1.56405571487412076159e-01) (16, 2.69844657971231804972e-01) (17, -3.55413915863148077712e-01) (18, 5.77060143264783581563e-02) (0, -2.21763760614718807851e-01) (1, -1.62385058083289957054e+00) (2, 3.15875370685985923380e-01) (3, -7.08591970772145529622e-01) (4, 2.75863190033085792230e-01) (5, -1.30532347120787672878e+00) (6, -2.23267595715413824653e-01) (7, 1.50636834989497114812e+00) (8, 6.86500482817330337504e-01) (9, 1.00393859252976147545e+00) (10, 3.67942105405123454087e-01) (11, -8.47985236896788285854e-02) (12, 1.15425108860679859202e-01) (13, 3.37750275958419221567e-01) (14, -5.27340626665290690411e-01) (15, -1.40813445443614670971e+00) (16, -2.17339969819793144001e-01) (17, 1.66332131703914720688e+00) (18, 2.01775409084332613130e-01) (0, -2.80011489612789099546e-01) (1, -9.40538398266845376838e-01) (2, -1.01176773467283681596e-01) (3, -7.51199016931630270122e-01) (4, 1.57552886780834705549e-01) (5, -1.13404931704770994827e+00) (6, -1.24095375164675197910e-01) (7, 1.28788434958169073496e+00) (8, 9.69744937568992382282e-01) (9, 1.59812561673900316306e-01) (10, 9.47618351439341588538e-01) (11, 2.36988738639602597447e-02) (12, 1.18086126906606567188e-01) (13, -2.92553101406204940638e-01) (14, 1.77310110107819218772e-01) (15, -8.34273047756332153391e-01) (16, 1.08860630079751607990e-01) (17, 9.34973060750599271884e-01) (18, 1.56815512830207615114e-01) (0, -3.41546141578530415561e-01) (1, -1.83954365000697039889e+00) (2, -3.78727099224947516554e-02) (3, -7.09486994545666993517e-01) (4, 5.06667472389057405024e-02) (5, -1.09488617140087596269e+00) (6, -2.34175198982723931085e-01) (7, 6.80343114271082738398e-01) (8, 5.74770131571272102633e-01) (9, 1.24904383785171546606e-01) (10, 1.32821195225751398361e+00) (11, -4.31231884686944066942e-01) (12, 3.76530015593613265334e-01) (13, -8.43604483744974542603e-01) (14, -3.05383591071558824215e-02) (15, -5.19864148673093717790e-02) (16, 7.20272176919719897548e-01) (17, 2.79206763338980951117e-02) (18, 1.65003231750658035937e-01) (0, 2.38411585824260696675e-01) (1, 1.11077437320680344479e-02) (2, -3.07206556674690323128e-01) (3, -2.13622591543653317370e-01) (4, 3.67361095564673112435e-01) (5, 3.50774612264633384173e-02) (6, -6.26299212883754674586e-03) (7, 7.95326077815310839014e-01) (8, -1.91338314678460297280e-01) (9, 1.11271235264537110554e-01) (10, -3.92646591313085213670e-01) (11, 7.01196201698346177622e-01) (12, 1.11470612082877645888e-01) (13, 1.29295798171263021104e-01) (14, -8.76080855324403162676e-02) (15, -3.89824035343043995283e-01) (16, -1.35287982351927849045e-01) (17, 4.39100832593087186950e-01) (18, 4.13952788312420272288e-02) (0, 5.98891422889242575067e-01) (1, 7.34104908376872145048e-01) (2, 9.13465052836052060492e-01) (3, -4.85143281533237935577e-01) (4, 1.27964540574096474757e+00) (5, 3.13900063161999476335e-01) (6, -6.68040724233190386094e-01) (7, 1.07089093515998268202e+00) (8, -1.38837728857114761638e-01) (9, 1.83549123549548109935e+00) (10, -9.75165688331048441384e-01) (11, 7.94350574123134478555e-01) (12, -8.03608621377775111938e-01) (13, -1.07742666347607207733e-01) (14, -7.81443168295168799631e-01) (15, 7.76545106134690216182e-02) (16, 9.41067080796603394610e-01) (17, 2.76553860936919138069e-01) (18, 1.59741654644169894794e-01) (0, 8.64495259440051122546e-01) (1, -2.03380995063626279773e+00) (2, -3.19285543072501232231e-01) (3, 2.54294409779584618114e-01) (4, -6.83694313717189416924e-02) (5, -2.74975232847622208521e-01) (6, -1.41202023061219694711e+00) (7, 1.28683993895959170040e+00) (8, -1.40189737504130884638e-01) (9, 1.27033097858096399868e+00) (10, 1.00644121450597445744e+00) (11, 7.23157258608600805871e-01) (12, -4.31128630049036121186e-01) (13, -7.20938846910529562706e-01) (14, -4.79621631648604163090e-01) (15, -3.90345544240089270538e-01) (16, 7.87190779516324656839e-01) (17, 5.30511203593783342569e-01) (18, 1.26210194929332886193e-01) (0, 8.42797225589923537648e-01) (1, 9.78711426634153447424e-01) (2, -8.75344336597619232521e-01) (3, 9.37515186901453634327e-01) (4, -3.25350193431705680958e-01) (5, -4.43630763019218776755e-02) (6, 5.35196085706318575026e-02) (7, -4.27287282794703071609e-01) (8, -7.14368830213716332622e-01) (9, -9.48661561150711429846e-01) (10, -5.66335398180616567121e-02) (11, -4.31812552108740699275e-01) (12, -3.47630576275587133139e-01) (13, 5.50237888728480450951e-01) (14, 3.22085073427261781021e-01) (15, -4.79823944533889545916e-01) (16, -4.52280599079605827306e-01) (17, 3.03198049272421638056e-02) (18, 3.60171288721810173294e-02) (0, 3.53977451345258209425e-01) (1, 2.77128205019156359512e-01) (2, 1.80897734360012774069e-01) (3, 1.48536669535864696012e-01) (4, 5.48537975551641077132e-01) (5, 7.53894621406321685519e-01) (6, 2.48421661324171594298e-02) (7, -4.47531357726472123204e-01) (8, -3.24198176829615825056e-01) (9, 1.35502400814478562996e-01) (10, -8.28517272201799936937e-01) (11, 5.95340206622428480543e-01) (12, -1.78949924703279694693e-01) (13, 2.88429263336267838191e-03) (14, -3.46306928406352854122e-01) (15, 3.84937721019880108031e-01) (16, 1.55078283657386351013e-01) (17, 1.44495220546903169190e-01) (18, 1.80102731052988851435e-01) (0, -1.96672493993050478966e-01) (1, -2.95398508357797240365e-01) (2, -4.53501717439456220049e-01) (3, 4.37500390508281211677e-01) (4, 8.74912701902614942107e-01) (5, 8.48657556385130407151e-01) (6, -1.26715065794047232473e+00) (7, 9.79280043332068916850e-02) (8, -2.60767522412270302823e-01) (9, 4.79001746531045546895e-01) (10, -6.78370777237950584038e-01) (11, 1.45865405723543672956e+00) (12, -5.30400456104493378540e-01) (13, -7.81566680701431093503e-01) (14, -3.70755973217401169073e-01) (15, -1.07381577373181857915e+00) (16, 5.81492847258654022014e-01) (17, -4.61102708365536462232e-01) (18, 5.49917365051954265542e-02) (0, -5.83663660410909335141e-01) (1, -5.50639440204552799152e-01) (2, 9.52001040815318333443e-01) (3, -5.17612333690547044007e-01) (4, 5.11764094311244255309e-01) (5, -2.18031111568289304170e-01) (6, 4.22809696732250606122e-01) (7, 3.79250850853890542069e-01) (8, 8.07390227105108326811e-01) (9, 2.55941636334381050766e-01) (10, 2.95567386510675461642e-02) (11, -1.62122141743671011049e-01) (12, 3.26811858551347977908e-01) (13, 1.85255368190459429600e-01) (14, -9.51230885257093317087e-02) (15, 2.73058669887210170302e-01) (16, 3.29703915527477797731e-01) (17, 5.39871413770266928012e-01) (18, 3.57793282303675574951e-02) (0, 5.78878477542267566580e-03) (1, -9.88863522413288675850e-01) (2, 3.75296976398261650232e-01) (3, -1.22957096136748056381e+00) (4, -5.22309754480763110962e-02) (5, -1.73465051923647750609e-03) (6, 4.39117498338330525254e-01) (7, 2.27516479181384179142e-01) (8, 9.29557017452014133774e-01) (9, -4.94231497632225291738e-01) (10, 2.91615603178626003888e-01) (11, -6.38493679244400702544e-03) (12, 9.96491030490638585171e-01) (13, -6.52509420593332500893e-01) (14, 6.29181958694383092201e-02) (15, 4.95839067601821337217e-01) (16, 2.55669159980735583027e-01) (17, 8.41996820371419402163e-02) (18, 1.90657766188673249985e-01) (0, 7.01509159959542299978e-02) (1, -5.77804812642409570955e-01) (2, 6.69916645127483278976e-01) (3, 2.94426869431380910935e-02) (4, -4.83874299657054085522e-01) (5, -1.36145578481579043739e-01) (6, 7.40013096050259999714e-01) (7, 1.39950530388136695770e+00) (8, 2.10336364022864236167e-01) (9, -1.94160036606268460169e-01) (10, -1.23590684418090152041e-01) (11, -3.97430369581124431910e-01) (12, 2.79427875490785238011e-01) (13, 5.07723162407816341890e-01) (14, 2.62013100581543617595e-02) (15, 2.14917401338419605805e-02) (16, 3.82000554521953750164e-02) (17, -1.30009394090903040997e+00) (18, 2.10672012820272286371e-02) (0, -6.41080389582441068086e-01) (1, -1.41623214530637020481e+00) (2, 7.55540939353596785466e-01) (3, -8.24944390346972533656e-01) (4, -2.76654402303206148339e-01) (5, 6.57382378308635217934e-01) (6, 8.91495256161850213594e-01) (7, 5.20972985632591534255e-01) (8, 6.42876264751374937312e-01) (9, 7.05742350186843836468e-01) (10, 5.36128877467852427152e-01) (11, -7.66761704297284907295e-02) (12, 3.31813772041593679774e-01) (13, 8.91237156522367568456e-02) (14, 6.80611834387293890281e-01) (15, -1.55794633287747674721e-01) (16, 6.22461840781832975722e-01) (17, 4.38611019235604471245e-01) (18, 6.62013318962356156483e-02) (0, 9.38131814993542145764e-01) (1, 1.76051818871359677665e-01) (2, -8.29733244369036393451e-02) (3, -7.88314254676364400964e-03) (4, -1.57745459736798498973e+00) (5, 5.29524356743000135239e-01) (6, 6.95750708118708316441e-01) (7, -5.77875398299281917147e-01) (8, -2.55420824274859126213e-01) (9, -4.51888947316141098565e-03) (10, 8.09892718274464296080e-01) (11, -6.57391153039306508354e-01) (12, -8.60594619505659352843e-02) (13, 3.66008144441136856750e-02) (14, 2.71548755312085554614e-01) (15, 9.70876070694158710417e-01) (16, 4.34693182521325105494e-01) (17, -6.47329189075154798338e-02) (18, 2.12286930827639164221e-01) (0, 6.96578769345650994360e-01) (1, 1.53903276642954278675e-01) (2, -7.83932891810724674642e-02) (3, 7.50994116410192313893e-01) (4, -7.64775654502122592682e-01) (5, 5.51284951535792183686e-02) (6, 1.13449510333244885096e+00) (7, -1.85072083946932530729e-01) (8, -1.86510252522718023016e-02) (9, -7.91272717812260828474e-01) (10, 5.52880850723632022437e-01) (11, -5.62156008777574767166e-01) (12, 4.02108021110024749234e-01) (13, 6.93846329979504239382e-01) (14, 7.36510760375967521441e-01) (15, 1.05611887417931393784e+00) (16, -4.83434252759073701533e-01) (17, 1.24104083663407999127e-01) (18, 1.89001396254148107401e-01) (0, 1.18834182069188676323e+00) (1, 1.47427506933927965349e+00) (2, -3.10219744518406170819e-01) (3, 4.04152702025326160395e-01) (4, -4.53236358181923315591e-01) (5, 9.82368687433938680975e-01) (6, 4.01880218456228621715e-01) (7, -1.23742449404859705675e-01) (8, 1.46252680022688597017e-01) (9, 7.91265301272464083304e-01) (10, 6.66082741549793855285e-01) (11, 3.48540669330032359952e-01) (12, -7.06048288862797135401e-01) (13, 9.25263764910124741903e-01) (14, 5.17833853016858025597e-03) (15, -2.43546320257133075415e-01) (16, -5.88140082017017506999e-01) (17, -3.44995846614932266672e-01) (18, 5.94639351620393080688e-02) (0, -3.44368450881992971269e-01) (1, -8.50625201630333060976e-01) (2, -1.62510855347365090751e-01) (3, -2.79755566754595841328e-01) (4, 3.13857996458754007207e-01) (5, 5.87442182327159057031e-01) (6, 3.84863495560952395547e-01) (7, 7.09004892520892160412e-01) (8, 6.05635947315195322105e-01) (9, 8.24787322407783407563e-01) (10, 6.49783925835537568005e-02) (11, 4.23828236072884889651e-01) (12, -5.39553047782479588967e-01) (13, -5.44441649094049018309e-02) (14, -7.47631934531705621971e-02) (15, -6.38544644581276021889e-01) (16, 3.56858806638767900310e-01) (17, 3.91474059882149338918e-01) (18, 9.71067482441842211305e-02) (0, 3.52599999261596908084e-01) (1, -1.68140705542856672139e+00) (2, -1.34326953058341413971e-01) (3, -5.06491622113848460884e-01) (4, -1.10591247740242482056e-01) (5, 5.93341015935083815336e-01) (6, 7.57218076624512348438e-01) (7, 1.92424330088372785852e+00) (8, 8.88384342581181485343e-01) (9, 2.65626779091615639050e-01) (10, 1.53257490875236124239e+00) (11, -4.02092252564133778581e-02) (12, 1.12938959041017383811e+00) (13, 2.73403427204169768849e-01) (14, 8.70958156965246588221e-01) (15, -6.39025664786499247860e-01) (16, 6.22115515960896203751e-01) (17, -1.96571696917621163703e-01) (18, 4.63047191009951231155e-02) (0, 6.13097709818161140660e-03) (1, 6.17921656045324896311e-02) (2, -2.62159719963866000292e-01) (3, 1.62859808835420172279e-01) (4, -5.59417843966799388511e-01) (5, 5.07942933282550024288e-01) (6, -1.11643452696520956158e-01) (7, 3.39761973239034842376e-01) (8, 4.70010287977758622890e-01) (9, 4.92875857604419209679e-01) (10, 7.60821441359030514739e-01) (11, 6.92641654083274160847e-01) (12, 4.91071965579344626995e-01) (13, 4.34168922664785017496e-01) (14, 4.64799666278763567995e-01) (15, -7.25123706813790680492e-01) (16, 8.43863627174566977018e-02) (17, 4.18479970397994671671e-01) (18, 1.98157194011577497683e-01) (0, 1.98625866430563624565e-01) (1, 1.01119023554053111269e+00) (2, 1.05072397249156956889e+00) (3, -2.71102575830577008364e-01) (4, 1.00689638930049540910e+00) (5, -3.76532104763121155955e-01) (6, 9.23218627528442498109e-02) (7, 2.62871041858681708803e-01) (8, 3.40913053696682705196e-02) (9, 1.89726704019668457324e-01) (10, -7.94821234638778073567e-01) (11, -2.33295711393368410125e-01) (12, -4.35512198109251569278e-01) (13, -1.49853460103573032924e-01) (14, -2.40278800796503377857e-01) (15, 7.43296828882069271494e-01) (16, 7.31262381932531790873e-01) (17, 1.12095348730964339268e+00) (18, 3.80394727722704745210e-02) (0, -2.97179478899399107661e-01) (1, 5.52347145257541805030e-01) (2, -2.27379561851705991327e-01) (3, 4.93759416458560196350e-01) (4, 4.05142338608512675435e-01) (5, -3.97466646773751874910e-01) (6, -2.19095941828492957182e-02) (7, 3.80077887435974648422e-01) (8, 2.71701428376577291957e-02) (9, 3.45523563450694515264e-01) (10, 1.73004742836906894032e-01) (11, 3.05142863575892819838e-01) (12, -1.54747572838798752581e-01) (13, 3.14322873155946591606e-01) (14, 1.58449546277613873002e-01) (15, -7.15315467009251082509e-01) (16, -1.64083243663260935907e-01) (17, 2.67233327845207369045e-01) (18, 1.96035365738555844572e-01) (0, 7.18574461221827331947e-01) (1, 1.72373545184935722530e-01) (2, -4.48600573556863502223e-02) (3, 6.74526830225208651193e-01) (4, -4.38383879211669547082e-01) (5, 8.95215844237777669257e-01) (6, 2.07709453182951142569e-01) (7, 4.55597628468393689438e-01) (8, 2.52939730205054558176e-01) (9, -3.68224727041461141752e-01) (10, 1.24657599418962802829e-01) (11, -2.99409203009001145812e-01) (12, 4.59132931669276100894e-01) (13, 3.60643261493482747415e-01) (14, 4.47020320954535477220e-01) (15, 4.66395609249339482272e-01) (16, 2.10772591747522219929e-01) (17, -9.19560509865551933828e-01) (18, 1.06336291182629091856e-01) (0, -4.76209200562112466848e-01) (1, -6.91987763329854788097e-01) (2, 4.76586653610089450162e-01) (3, -1.20562174285024026332e+00) (4, -2.31942012346552983715e-01) (5, 4.10179664159683876612e-01) (6, 8.27020843212823875135e-01) (7, 1.56014571612823060853e-02) (8, 7.39035489327448780195e-01) (9, -7.36651705632139497393e-02) (10, 4.06042884049993835216e-02) (11, -3.16429852931881028244e-01) (12, 3.41318631646224779352e-01) (13, 2.59816634881173680327e-01) (14, 4.83993675729765981952e-01) (15, 1.87656979163932341459e-01) (16, -8.16956500473138558238e-02) (17, 2.31013405253790632399e-01) (18, 1.22966206529873514630e-01) (0, 1.26545911139777356169e+00) (1, 1.77435146837425827826e+00) (2, 1.40444701171636099346e+00) (3, 9.71099207445636491975e-01) (4, 7.86708091879165571925e-01) (5, 1.83057710451222765968e+00) (6, 1.12572628460555490548e+00) (7, -1.00460900605004410657e+00) (8, -3.38082788568136283214e-01) (9, -2.85035878178436230534e-02) (10, -8.01436981725876407268e-01) (11, 5.11404790601537317940e-01) (12, 6.73371673385857683058e-01) (13, 5.80336788073424370005e-01) (14, 3.14400804358292651486e-01) (15, 2.01155940202561467345e+00) (16, 9.49161605408582187415e-01) (17, -7.46142674439025377353e-02) (18, 8.00610603267496584445e-02) (0, 6.53774518057986142594e-01) (1, -1.33489843985839895524e+00) (2, -4.01448755482604835443e-01) (3, -1.71689825956386488137e-01) (4, -3.75458033604293694996e-01) (5, -5.46659646279785804701e-01) (6, 5.28380378943944961634e-01) (7, 1.89435868278347951943e+00) (8, 7.55157431927702904595e-01) (9, 2.56966685648855053259e-02) (10, 1.74198684020257155147e+00) (11, -5.69734976733025366702e-02) (12, 1.46190094256140223905e+00) (13, -1.78900105489742444753e-01) (14, 1.44954398156139196985e-01) (15, 6.98365640018933364619e-02) (16, 1.14084569805220095717e-01) (17, 4.00691093595540670513e-01) (18, 1.24354832344069382577e-01) (0, 5.05029630330286360973e-01) (1, -4.70626940288082606934e-01) (2, 1.82844776660892521791e-01) (3, 4.75868577390164831931e-02) (4, -4.28868352941852881699e-01) (5, 8.45728299284538187486e-01) (6, 5.17435963075596694338e-01) (7, 3.94073211681432999942e-01) (8, 1.04226452418205203787e-01) (9, 1.13286933573954015642e-01) (10, 3.13172965836893468783e-01) (11, -2.53813015987679468921e-01) (12, 2.94935525923723851349e-01) (13, -5.66488697439290755931e-03) (14, 2.03938199155055843725e-01) (15, 8.24449962241116773853e-01) (16, 4.33752679771378102380e-01) (17, -1.00098277204967667231e-01) (18, 1.25449702574805865840e-01) (0, 2.31074619342523795984e-02) (1, -5.02458740054360419869e-01) (2, -2.06684238234902006859e-01) (3, -1.07859332883013525617e-01) (4, -5.23354007410187338500e-01) (5, -9.30182523218894496964e-01) (6, 2.97235701623235065716e-02) (7, 1.05997419882994670104e+00) (8, 6.83738943305882251877e-01) (9, 1.24155801367679813341e-02) (10, 5.18857389135669255786e-01) (11, -7.08726005814231951874e-01) (12, 1.21019044569936534694e-01) (13, -1.55910103450150494542e-01) (14, 4.70099066262865544763e-02) (15, -6.32622721975780510917e-01) (16, 8.25160386534770917688e-02) (17, 9.74360618280754930964e-01) (18, 2.02216848444855240574e-01) (0, 3.22203799000661816887e-02) (1, 8.39963014338381386281e-01) (2, 5.76278630131313196472e-01) (3, -5.87603406029237884667e-01) (4, 4.14994688316596027633e-01) (5, 8.06478955468949099128e-01) (6, -6.19142403497518811761e-01) (7, -5.39558759557617673153e-01) (8, -1.01693730411913457745e-01) (9, 7.62958025188452904075e-01) (10, -7.78822779053193192667e-01) (11, 5.73425478563085677663e-01) (12, -3.96858412558392492642e-01) (13, -1.72574334619934488533e-01) (14, -5.26203982246997270522e-01) (15, 1.43186977330821418875e-01) (16, 4.23900353130874263385e-01) (17, -1.50010464877080529345e-01) (18, 2.04355950597401331281e-01) (0, 1.48165166750288873621e-01) (1, 8.15496890684425324025e-01) (2, 6.53574879866224200953e-01) (3, 6.63952622672780767843e-01) (4, 2.29119892636922617424e-01) (5, 8.99762539017545437403e-01) (6, 1.59468632835793072688e-01) (7, -3.41883548948486548635e-01) (8, -4.79241446454047648196e-01) (9, -6.93842396660470761560e-01) (10, -1.02352045522518309006e+00) (11, -1.29695786401326673687e-01) (12, 2.43179943182805002877e-01) (13, 3.44212245950814788031e-01) (14, 2.24300388091947938696e-01) (15, 1.20286135086110368420e+00) (16, 2.57253598091360335953e-01) (17, -1.91058394621493154997e-01) (18, 1.95718242615748438951e-01) (19, 9.79955208004439359826e-02) (20, 1.65265720175920421964e-02) (21, 5.35687615044385528895e-02) (22, -7.44059808411199063993e-02) (23, 2.25110504339193079337e-02) (24, -1.24196897515932158651e-02) (25, 4.70612578473286330416e-02) (26, 2.83499201780503584658e-01) (27, 2.74696268511109620292e-01) (28, 2.24431591795135998435e-01) (29, 5.65439843216981874452e-03) (30, 2.00485642181243484128e-01) (31, 7.03659301890299238025e-02) (32, 5.98520111509324090338e-02) (33, 2.25454529500564493372e-01) (34, 3.22644344597504018068e-01) (35, 7.23680550065787520087e-02) (36, 1.20589526987561299065e-01) (37, 2.21269102491560065715e-01) (38, -8.90055541874527622603e-02) (39, 8.51256126322241790660e-02) (40, 1.48535158253230048508e-01) (41, 1.94997289750770547156e-02) (42, 2.57926297324879816308e-01) (43, 9.19414461148246875410e-02) (44, 2.71721559637024712153e-01) (45, 3.31559981562882355455e-01) (46, 1.41417054068330466654e-01) (47, 7.57424819324821196886e-02) (48, 3.48548509272882500731e-01) (49, 1.14587875318343579423e-01) (50, 1.51452181735486773873e-01) (51, 3.54168471953139746278e-02) (52, 2.65740002071663594663e-01) (53, 6.65969927936176098182e-02) (54, 3.89386636172757760743e-01) (55, 2.56284774218193733830e-01) (56, 9.58003215424883119988e-02) (57, 2.39295071745591281243e-01) (58, 4.81101359725856825289e-01) (59, 1.41110884845403961041e-01) (60, -1.19101550603297273723e-01) (61, 3.28667019139878502365e-01) (62, 3.63253729984726381197e-01) (63, 1.04727601443579856899e-01) (64, 1.57791869081316094015e-01) (65, 6.60153466945818112599e-02) (66, 3.12170772985989830595e-01) (67, 1.25527631569895464780e-01) (68, 1.68719055851114407840e-01) (69, 2.16993717043608480566e-01) (70, 1.81274741473044426199e-01) (71, 2.69765419256916216817e-01) (72, 1.31003920062041340211e-01) (73, -2.94797283512010233064e-02) (74, 1.76235148534123919895e-01) (75, 3.32343275090267592509e-02) (76, 3.18182614267965013788e-01) (77, -1.36551487573286778332e-02) (78, -7.53310565589052905100e-02) (79, 1.62106621948044982151e-01) (80, 2.68995904754544407078e-02) (81, 2.81684518905374159381e-01) (82, 1.25655445687847450165e-01) (83, 1.22571743958212367454e-01) (19, 1.17006442523106782283e-01) (20, 2.83795392787554945357e-01) (21, 1.52018873756429528932e-01) (22, 3.39489587545728110918e-01) (23, 5.95520421346967601672e-02) (24, 4.72648097419686719078e-02) (25, -1.35224436968624961430e-01) (26, 3.71683997405697130745e-01) (27, 2.19499735025935560628e-01) (28, -8.90250263212827297465e-03) (29, 1.99574979940726482397e-01) (30, 1.53954800311451006634e-01) (31, 2.53554034507653125452e-01) (32, 6.07206180652920257668e-02) (33, 1.71352211738693027687e-01) (34, -1.45160910747870297577e-01) (35, 8.85769793403897165440e-02) (36, 1.08844447840497737801e-01) (37, 5.70536377510383607703e-02) (38, 1.50596546073834297585e-01) (39, 8.10499959094076460886e-02) (40, -1.80051830874237428493e-02) (41, 2.26009523979808057970e-01) (42, 4.98102317615328610279e-02) (43, 2.56818818428589723535e-01) (44, 2.93151091237253136335e-01) (45, 1.38255237231180633239e-01) (46, 1.80832100479184992858e-01) (47, 2.44209008220503287490e-01) (48, -4.58031615555592186428e-02) (49, 1.41346862596232913933e-01) (50, 2.05730202049558219546e-01) (51, 2.68405061666822764010e-01) (52, -8.64750238427028639077e-02) (53, 3.61842974781641291138e-01) (54, -1.01858937441909963573e-01) (55, 1.37144297918284446824e-01) (56, 8.91937677399798067857e-02) (57, 7.63309232327868125711e-02) (58, -3.72684285090781608485e-02) (59, 1.28664395082048077512e-01) (60, 3.70738358997120376337e-01) (61, 5.22167305372042700462e-03) (62, 6.46744794682277690523e-02) (63, 5.70723512138237992763e-02) (64, -2.05535501405547660347e-02) (65, 2.03069346879282824903e-01) (66, 9.57781462020489415821e-02) (67, 2.64793145526039608306e-01) (68, 9.45874092500752911006e-02) (69, 1.28945156116862247320e-01) (70, 1.02907286520995164270e-01) (71, -3.20535080673411687524e-02) (72, 6.32171752013009208282e-02) (73, 1.45080575473814088472e-01) (74, -4.54965738072139747050e-02) (75, 3.41280682426917669758e-02) (76, -2.45374552334311712976e-01) (77, 1.84932187981465906423e-01) (78, 1.76611384473130378359e-01) (79, 2.75827152391664554010e-01) (80, 1.76959831574760362294e-01) (81, -1.66352854766886049109e-02) (82, -6.78485588174897180647e-02) (83, 4.15145969915070023326e-02) (19, 5.45473844098085081100e-01) (20, 2.27571625596831195182e-01) (21, -4.28407007262346928300e-02) (22, -5.70324838884744278467e-02) (23, 8.59062989058016757138e-02) (24, -1.40470258128782055085e-01) (25, 1.69441370445310685033e-01) (26, -1.99691746840908790350e-01) (27, -7.18693997632786629737e-02) (28, 1.33035615425253606059e-01) (29, 2.66107892818077396146e-01) (30, 5.66855777228643248344e-02) (31, 1.85109612424357750093e-01) (32, 1.88576965108869315513e-01) (33, 5.56516081507874987855e-02) (34, -1.72474462962694141677e-01) (35, 2.36734172411051158047e-01) (36, 3.64762365398816207351e-02) (37, -4.56928428679046483296e-02) (38, 1.97643023232822512281e-01) (39, -1.62514834769123484026e-01) (40, 1.44389197528969837059e-01) (41, -3.55306801447243802983e-02) (42, 1.39725091734600542770e-01) (43, 6.45549921409759863700e-02) (44, -5.87755988327001155369e-02) (45, 1.82787496183111686232e-01) (46, 1.28811270520355070079e-01) (47, 5.13293542562687915565e-02) (48, 1.06206073551270721578e-01) (49, -1.43465307579161982510e-02) (50, 1.90697443767543328708e-01) (51, 1.41485823952211903221e-01) (52, 4.75002562936013977835e-02) (53, -1.65123775405065786881e-01) (54, -5.19551492781281654132e-02) (55, -3.43060137552796406979e-02) (56, 5.52253835326234343572e-03) (57, 1.22180172928269006882e-01) (58, 2.79592906713035882493e-01) (59, 1.01414570924544242270e-01) (60, 2.31420034298721377652e-01) (61, 2.30007803902369245552e-01) (62, 1.92151358527205440296e-01) (63, 2.96410551017854545508e-02) (64, 1.87449372302627204068e-01) (65, -6.45599638217788096561e-02) (66, -5.34782182505058600874e-02) (67, 9.03912045649560708105e-02) (68, -5.73645190517341196923e-03) (69, 2.77407565667370348272e-01) (70, 1.48596041589243055281e-01) (71, -6.62151520391739967231e-02) (72, 3.86608227850805119541e-01) (73, 7.21900642673665715598e-02) (74, 6.06174967210716536536e-02) (75, 3.64489535144243842479e-02) (76, 1.44801536404699782157e-01) (77, 5.10768516703160813108e-01) (78, 5.91268823768896500948e-03) (79, 5.05765426932182210473e-02) (80, 3.62466591005954491544e-02) (81, 2.58099625231253071433e-01) (82, 3.15134360883117969898e-01) (83, 1.46828491254885951101e-01) (19, 2.36383521529078238776e-01) (20, 6.76591128513562706237e-02) (21, 7.31693176194124494938e-02) (22, -1.86147995193686133231e-01) (23, 2.41110471142708726600e-01) (24, -1.07245257387474229871e-01) (25, 9.51549909597234760961e-02) (26, 1.75376652545640776548e-01) (27, 3.46605805839017011571e-02) (28, 4.30714222618851644286e-02) (29, 3.63674056813060864179e-01) (30, 2.64109190039147678775e-01) (31, 4.88663734215183775955e-01) (32, 1.40497035977124012929e-01) (33, 3.32535667210348662159e-01) (34, -1.25515257492613746537e-01) (35, 2.58533154852817581570e-01) (36, -1.34541845050532959949e-01) (37, 8.56820088789581046917e-03) (38, 3.40784593391000423246e-01) (39, 2.64975639742160429257e-02) (40, 1.27778886638310523738e-01) (41, 2.20269680139325074730e-01) (42, 2.31050744809565139493e-02) (43, 1.07940192662414960467e-01) (44, -8.21306354087175949363e-02) (45, 3.52262644993986906439e-01) (46, 2.19448422761199524178e-03) (47, -4.39855977854249347025e-02) (48, -8.01477357561868608560e-02) (49, -1.37747985747409484869e-01) (50, 2.84938368236682615375e-01) (51, 5.86485954484770727335e-02) (52, 1.06871596326631054796e-01) (53, 1.55053682519519064886e-01) (54, -1.18364817313096476470e-01) (55, 1.64112366207604110091e-02) (56, 1.49671219777518932359e-01) (57, 7.96873705428266521089e-02) (58, 6.65510149230831848932e-02) (59, 1.66009459957735472369e-01) (60, 3.26816962997024229587e-01) (61, -5.03818818890506003871e-02) (62, 1.27284206292503643265e-02) (63, 1.17779826570644494121e-01) (64, 1.62376731264285090184e-01) (65, 1.22448708702781391966e-01) (66, 1.62393945589194427237e-02) (67, 3.06063098930766219752e-01) (68, 1.23063604976169763128e-01) (69, 3.63891805024777859057e-01) (70, -1.05209546417648680539e-01) (71, 5.76538194404114523461e-02) (72, 9.39052883622564504851e-02) (73, 2.01502964928434696867e-01) (74, 2.31497702086892270801e-01) (75, 5.75103761612053981933e-02) (76, 1.29051332292019954595e-01) (77, 3.61973795364200379154e-01) (78, -3.09807781510806068415e-02) (79, 8.02135146973158297268e-02) (80, 1.49309292936581378131e-01) (81, 2.26960617210387738396e-02) (82, -5.60631064728440986489e-02) (83, 2.38305089658031210575e-01) (19, 2.59493092100789524146e-01) (20, 3.20603863523876042585e-01) (21, 1.44500279828066069410e-01) (22, 2.37566555210710905754e-03) (23, 1.70355673149310354875e-01) (24, -4.32074177627402300494e-02) (25, 2.85726052954900167080e-01) (26, 3.36510344098129576818e-02) (27, 8.18819984506425346815e-02) (28, 8.25260313751078333766e-02) (29, 2.51222383399167803475e-01) (30, 1.23006464148532113079e-01) (31, 1.88574839074781286374e-02) (32, 1.08183050199592137308e-01) (33, -1.08845344785350239825e-01) (34, -5.49744567571144870932e-03) (35, 5.79994071030913091458e-02) (36, 8.43994961120789477516e-02) (37, -2.11580907136558749038e-02) (38, 1.78593962596168082113e-01) (39, 1.12364434385972558617e-01) (40, 1.16490610711795811172e-01) (41, 1.33302524320238896527e-01) (42, 1.74990823266029549288e-01) (43, 8.52212021807607911228e-02) (44, 3.27423849368654873437e-03) (45, -1.13424703627064971112e-02) (46, -4.16412886742912602411e-02) (47, 1.24856479201422579384e-01) (48, 2.03879902055078110479e-01) (49, 2.38650137976360615655e-01) (50, 1.69250527800186484351e-01) (51, 4.94965597949106744791e-02) (52, 1.03505193363443298571e-01) (53, 4.73334789327547744708e-02) (54, -1.49832663037424762553e-01) (55, 4.28000871631449564259e-02) (56, 5.95985255131383853677e-02) (57, 1.56392787487336371033e-02) (58, 3.02021267895424383454e-01) (59, 1.13061362480058186231e-01) (60, 2.41808519824341344728e-01) (61, 6.82500032427771352594e-02) (62, 1.60796997210659819988e-01) (63, 1.33011009466609819718e-01) (64, 6.82625051408249639007e-02) (65, 1.81625080003251920813e-01) (66, 7.49345551694412526089e-02) (67, 1.24705337979459054965e-01) (68, 5.44143586506790344348e-02) (69, 1.32777232372527559390e-01) (70, 2.48188988450455005896e-01) (71, -2.00756285015765867374e-01) (72, 1.64735523333444155991e-01) (73, 1.66913363770785916351e-01) (74, 9.48751643498895735895e-02) (75, 2.13090882317431867810e-01) (76, 1.47694965987952842035e-01) (77, 2.69500382849742703417e-01) (78, -2.67263967801507074107e-02) (79, 1.25336157297184336290e-01) (80, 5.49940778203185792750e-02) (81, 1.88704049553257258154e-01) (82, 2.42346399016987346098e-01) (83, 2.88332264760069734155e-02) (19, 6.32933376143715586970e-02) (20, 9.63773483235849659501e-02) (21, 2.33305100186401714879e-02) (22, 2.65951423380248686001e-01) (23, 2.03774896935845356571e-01) (24, 2.32524656225562870171e-01) (25, 1.23217167472184849220e-01) (26, 2.69561914010573389078e-01) (27, 2.25772076227170270801e-01) (28, 8.93171636268182134177e-02) (29, 1.78616310874275735499e-01) (30, 1.42912377296654652392e-01) (31, 1.47918739044280267425e-01) (32, 1.30141337977516757807e-01) (33, 3.52652801338166066447e-02) (34, 1.92607152943236714648e-01) (35, 8.27749652361481624840e-02) (36, 1.56932505544865402713e-01) (37, 1.68076599256434700003e-01) (38, 2.49757815096613294825e-01) (39, 1.54279356806867357088e-01) (40, 1.35572696233724643289e-01) (41, 2.26841760400149639043e-01) (42, 2.22185571432921835644e-01) (43, 1.35440444561874706597e-01) (44, 1.72251232039277446528e-02) (45, -7.64198299634202826702e-03) (46, 6.48586796461297354632e-02) (47, 2.11628877968960266154e-01) (48, 2.07413356609085580695e-01) (49, 1.27670931733362885696e-01) (50, 4.93616805484837495310e-02) (51, 1.95849463779467491964e-01) (52, -2.01035261962128564139e-01) (53, 1.75048222048510226934e-01) (54, -8.16132341716205578219e-02) (55, 1.55139723581238286876e-01) (56, 8.55212816637681977339e-02) (57, 5.90354407015340962306e-02) (58, -1.09448816422923450586e-01) (59, 1.19784105578140828707e-01) (60, 3.35928087685017695563e-01) (61, -9.89372615680911560165e-02) (62, 9.08073509672829431993e-02) (63, 1.39378623353330149959e-01) (64, 8.39987668812585824840e-02) (65, 3.06162986704708095509e-01) (66, 1.91676096153662128829e-01) (67, 7.90709705972464926838e-02) (68, 1.87545438334255548662e-01) (69, 6.22634322567143239091e-02) (70, 8.26444006091724137075e-02) (71, 1.06081658803498762866e-01) (72, 2.28695260812443790233e-01) (73, 1.32393059006110147546e-01) (74, 3.80361430604288508484e-02) (75, 2.75967277254692389121e-01) (76, 5.78905845041843350463e-02) (77, 1.92039905222698564780e-01) (78, 3.06568670797695896901e-01) (79, 8.79319795287605426859e-02) (80, 2.05619035842507180689e-01) (81, 1.02693403517186754303e-01) (82, 1.70004670716947248188e-02) (83, 1.63277104776595571867e-01) (19, 2.42598978498313772034e-01) (20, 1.73045300656351264124e-01) (21, 7.43661507425133205818e-02) (22, -3.07161844907782866088e-02) (23, 3.20279432912192685290e-01) (24, -8.97137267465479837369e-02) (25, 1.26722607633546813233e-01) (26, 2.36192497720617983203e-01) (27, -6.04456351598933738778e-04) (28, 1.39314078149194858769e-01) (29, 1.94051616843509744381e-01) (30, 6.49690013293284795992e-02) (31, 1.67787058213421463870e-01) (32, 4.13203120889275632432e-01) (33, 6.83820171389071251866e-05) (34, 1.97690359294871387252e-01) (35, 1.70517531848426412422e-01) (36, 6.70862530061593631547e-02) (37, -3.20186653654804809221e-02) (38, 7.40977883890493460584e-02) (39, -7.76879033391631446115e-02) (40, 8.99212887006749089780e-02) (41, 5.80349717936521902750e-02) (42, 3.50027010580631015024e-01) (43, 1.43884341787507946675e-01) (44, 9.19056121306391915482e-02) (45, 2.05703694129094644127e-01) (46, 1.77612221021717309188e-01) (47, 3.54342628811796900301e-01) (48, 2.36644538798640502453e-01) (49, 4.09479401437468359948e-02) (50, 7.27758636800301395020e-02) (51, 1.27481996501098732155e-01) (52, 2.16489105430682976516e-01) (53, -1.23856386645402716251e-01) (54, 3.46976047442438095825e-01) (55, 4.83754396767152039516e-02) (56, 2.30043860406149158759e-02) (57, 1.40229372711124455897e-01) (58, 3.05762879140708931924e-01) (59, 2.35958782249748866278e-01) (60, 1.41458777912368161012e-01) (61, 2.73561844713391622008e-01) (62, 2.02333479468340848850e-01) (63, 4.54456940498305511644e-02) (64, -3.73805464037498258456e-02) (65, 5.91783345574891581076e-02) (66, 6.04056473453445652577e-02) (67, 1.86940690225442740502e-01) (68, 5.10945704718646365183e-02) (69, 1.72044896586407231043e-01) (70, 2.62674529590155414471e-01) (71, -1.98993358718303481325e-02) (72, 3.77202905187101200646e-02) (73, 9.59102704584701148960e-02) (74, 1.40261955626328704838e-01) (75, 9.40684296972546241111e-02) (76, 7.64121418504175864417e-02) (77, 2.38319073678965959173e-01) (78, 1.17922330737914082821e-01) (79, 2.30005194159949577504e-01) (80, 1.16919062616080260408e-01) (81, 7.29401413897624306681e-02) (82, 2.24729514710887784412e-01) (83, 2.00737710244376449387e-01) (19, 8.78652671111063432452e-02) (20, 1.27556674293949567911e-01) (21, 1.47218779413616829288e-01) (22, 1.53109154387717050216e-01) (23, 1.29759609952655730059e-01) (24, 2.19233885595622651765e-01) (25, 8.78080578804035782881e-03) (26, 3.71712577346804295964e-01) (27, 2.47715236422607093525e-01) (28, 1.80255012489057564462e-01) (29, 2.20727677697127366852e-01) (30, 1.74087186198270182924e-01) (31, 2.36210142569977271654e-01) (32, 3.42902065094193853056e-02) (33, 7.29577286297948823801e-02) (34, 9.89759275191352816403e-02) (35, 1.28556894644136027184e-01) (36, 1.82064652816436300942e-01) (37, 6.52993045319552184447e-02) (38, 2.80330391401822365260e-01) (39, -6.02325976859200695745e-02) (40, -2.25483249716424138942e-02) (41, 6.36188761559988991134e-02) (42, 1.81964592844078232314e-01) (43, 1.76225795867358397961e-01) (44, 2.78935069046121197900e-01) (45, 1.81868301428732837000e-01) (46, 1.31285348680039382074e-01) (47, 1.03850899072187349836e-01) (48, 1.66231818335123571195e-01) (49, 2.02801626617852170931e-01) (50, 5.10353150641357222739e-02) (51, 2.14572397452049978828e-02) (52, 9.01665919028786788658e-02) (53, 2.15013466022436733338e-01) (54, 1.19905839419875134833e-01) (55, 1.15171664334165743671e-01) (56, 1.64628849477441940863e-01) (57, 1.80708620145779319532e-01) (58, 3.08020501475226748944e-01) (59, 2.50074764875830579669e-02) (60, -7.37208702625923584240e-02) (61, 2.05600630583942373120e-01) (62, 1.43981557075628652242e-03) (63, 2.43456620315885469141e-01) (64, 1.16644159372481612258e-01) (65, 1.16920135576793940424e-01) (66, -9.69832028067404983140e-03) (67, 1.41317841268148169931e-02) (68, 1.98549196221046914124e-01) (69, 5.74345706262290867095e-02) (70, 5.17203567257502050403e-02) (71, -3.65943310437963076343e-02) (72, 4.23525855773328185894e-02) (73, 1.30142431858049162363e-01) (74, 7.45441437243567206483e-02) (75, 7.58034205024626372982e-02) (76, 1.18295865570800365352e-01) (77, 2.69754771078693167397e-01) (78, 5.57158905877108701077e-02) (79, 1.75001400713912819151e-01) (80, -1.25778470641590423007e-01) (81, 2.17707648125065100775e-01) (82, 3.01694387816434317351e-01) (83, -5.53402400407557171214e-03) (19, 1.29123234401555486706e-01) (20, -3.68965628207254259241e-02) (21, 2.38210556413708751666e-01) (22, 8.36019811302096682581e-03) (23, 2.53397567838125281625e-01) (24, -1.93456594730370690094e-03) (25, 1.87890623214313351452e-01) (26, 5.83472772541351325515e-01) (27, 2.16946094111792026071e-01) (28, -5.79414766118204194179e-02) (29, 2.94990119672607464807e-01) (30, 2.11536368289040738189e-01) (31, 2.18287152037206333421e-01) (32, 1.29396040472246065534e-02) (33, -1.64438939910418968626e-01) (34, 3.41219527841606584673e-01) (35, -6.16905222460805979789e-02) (36, 2.31542622331529418522e-01) (37, 1.83695203523803751722e-01) (38, -3.65077199984260580834e-02) (39, 1.35003679970288115175e-01) (40, 3.84608666221601558366e-01) (41, 2.85199290952396933285e-01) (42, 1.00437266148560994106e-01) (43, 8.91781021437625803783e-02) (44, 4.89819072578724090672e-02) (45, 6.88231709595172325145e-02) (46, -2.28783893102113833340e-02) (47, 2.04949393007658381416e-01) (48, 3.14341088105172250522e-01) (49, 2.61653714260424385962e-01) (50, -1.48861416324971018721e-01) (51, 1.13966528015091259074e-01) (52, -9.97122074585884698994e-02) (53, 2.69766896132220712623e-01) (54, 2.49251232398983640914e-01) (55, 2.37372116976903801966e-01) (56, 1.41309322360178069022e-01) (57, 1.56595460007056874741e-01) (58, 4.37172257348119430720e-01) (59, 2.27308008967834623837e-01) (60, -6.72452971534817645072e-03) (61, 3.78254818222120703375e-03) (62, 2.71603621680844953268e-01) (63, 1.24064937947577627608e-01) (64, 3.93319763932511723414e-02) (65, 5.08950754433457053238e-01) (66, 3.04356994571530203864e-01) (67, 3.03881979705310778517e-01) (68, 5.05616094140830529824e-02) (69, 2.20575544369050136062e-01) (70, 1.47279788102547826156e-01) (71, 1.96126442771955067368e-01) (72, 5.89768460519041679002e-02) (73, 1.62136745483266619949e-01) (74, 2.09333001467695734021e-01) (75, 2.15912799797078003294e-01) (76, 2.18403641623112126924e-01) (77, 1.64900619087005928520e-01) (78, 1.07860079170671863125e-01) (79, 3.27788275226998493395e-01) (80, 1.82822212495073077587e-01) (81, 2.54153345209898962054e-01) (82, -1.67714902506194141196e-02) (83, 4.65608499627395144849e-02) (19, 2.98854619390582776361e-01) (20, 1.52046793631105903177e-01) (21, -1.44970615111641054629e-01) (22, -2.12781408195431509522e-01) (23, 1.19731080034328696282e-01) (24, -1.81929580043437344461e-01) (25, 1.36290907327804355909e-01) (26, 1.24552683631801358599e-01) (27, 5.80477397964476865555e-02) (28, 2.09015517949816709287e-01) (29, -3.71107547104442547781e-02) (30, 6.18647444103897561907e-02) (31, 1.08647278041207745458e-01) (32, 6.27717418034351160028e-02) (33, 2.53444979734663511373e-01) (34, -2.41986920093792690079e-02) (35, 2.54131562181109771359e-01) (36, 2.03817880358864583767e-02) (37, 1.38316198300084292061e-01) (38, 7.51830099199324308756e-02) (39, -6.61085008386042005668e-03) (40, 7.10844320070374291465e-02) (41, -1.57711497813112777600e-02) (42, 3.09781275355948126915e-01) (43, -1.82182494075589229698e-02) (44, 1.64300020096737914299e-01) (45, 3.07156042332342282819e-01) (46, 1.33100667939632044678e-01) (47, 1.89331315664915122987e-01) (48, 1.55240867926210029948e-01) (49, 1.99833945664061596315e-02) (50, 1.79338117296554105939e-01) (51, 1.81963930976904109116e-01) (52, 2.89703009778538467245e-01) (53, -1.47949034368000831297e-01) (54, 3.47317640835364649377e-01) (55, 5.73434829578530202987e-02) (56, 6.10619147066402759294e-02) (57, 1.21349218182550136480e-01) (58, 3.86194902737836909257e-01) (59, 1.75851591712036153803e-01) (60, 1.96117923170247704379e-02) (61, 3.79558184210247229196e-01) (62, 1.43596496426887210163e-01) (63, -2.92959438006520078712e-02) (64, 2.93411715672135642308e-01) (65, 2.74755523242467436518e-01) (66, 9.29671826228396364078e-02) (67, 8.38168690671081129118e-02) (68, 7.25679017012555160893e-02) (69, 2.50876569730346665743e-01) (70, 1.88582689513518919622e-01) (71, 2.07113660267780830271e-01) (72, 2.49969482754949762215e-01) (73, 1.17284890568503538666e-01) (74, 1.38438854846578390800e-01) (75, 4.30966593840028944218e-02) (76, 2.42716271160627439230e-01) (77, 3.28290050410612210818e-01) (78, 5.85854199911378728527e-02) (79, 1.00342008888430339608e-02) (80, 2.09498221104676890514e-01) (81, 2.95063233889293008438e-01) (82, 1.49391529203955542027e-01) (83, 1.67948667130142226256e-01) (19, 4.78356556006633626410e-01) (20, 4.35648283836947758374e-01) (21, -8.53804271482563048590e-02) (22, -1.81514576488332024518e-01) (23, 2.91785376685880781800e-01) (24, -2.15581967789004291802e-01) (25, 2.20081613751940463608e-01) (26, -3.67488431982010976817e-02) (27, -4.66134819993593574328e-02) (28, -3.18510611993758074867e-02) (29, 2.15984587094097901794e-01) (30, 9.82994314991373629997e-02) (31, 2.41962484960254797794e-01) (32, 2.03758779841467674299e-01) (33, 1.19902502757987430848e-01) (34, 1.96807335789021264905e-02) (35, 2.49403763630108188387e-01) (36, -1.63950168132197260373e-02) (37, -2.08965903899370197827e-02) (38, 1.05564795262602720283e-01) (39, -1.70487694887314855663e-01) (40, 3.24906453077908885518e-01) (41, 9.61456859553615761360e-02) (42, 3.15079084571814438398e-01) (43, 1.00071225465901844642e-01) (44, -5.40785021183578518134e-02) (45, 1.31418263835358817282e-01) (46, -9.81731847169301230505e-02) (47, 2.69614293328020171447e-02) (48, 2.28462671746850753962e-02) (49, 1.03367415724090749851e-02) (50, 1.91926665446193800424e-01) (51, 1.89415677235593660210e-01) (52, -1.46432980118736622011e-01) (53, -1.52246472477554517511e-01) (54, -5.07407962013498026188e-02) (55, 7.10488738954453968866e-03) (56, -6.76127626687424154728e-02) (57, 1.04104706091703885784e-01) (58, 3.02194723920321650645e-01) (59, 1.65821929368261733462e-01) (60, 9.45808122216647007008e-02) (61, 1.64667237902836244290e-01) (62, 4.07841787581608050672e-01) (63, 1.22482171423621194473e-01) (64, 1.04342486317233335003e-01) (65, 2.26512684172113343273e-01) (66, 3.22979944963619758358e-02) (67, 1.11195250453579017047e-01) (68, -1.03445373751873237467e-01) (69, 2.00970819451391891075e-01) (70, 8.21149000194310724199e-02) (71, -9.31145066038479018999e-02) (72, 2.58616163518195385507e-01) (73, 1.99651507156732938020e-01) (74, 1.70216939144085088742e-01) (75, 1.78454534327091768331e-01) (76, 6.38963843130002373538e-02) (77, 4.80910799692784496351e-01) (78, 4.64945776528365439795e-02) (79, -3.56208906013009696245e-02) (80, -3.16163228224957681967e-02) (81, 3.70877414081403289359e-01) (82, 4.12261825148548394226e-02) (83, 1.70603836572305461727e-01) (19, 1.40550989168311074584e-01) (20, 4.70542387129157413383e-01) (21, 3.73768823820906370692e-01) (22, 2.37638905501729863490e-02) (23, 9.61907394634510665155e-02) (24, 2.21801101431705449674e-01) (25, 1.39138337341708467898e-01) (26, 2.18422557825175361890e-01) (27, 1.93557656833745761471e-01) (28, 5.75081543263863195770e-02) (29, 1.35077500663608962572e-01) (30, 8.69259786815539947646e-02) (31, 1.68449901335329443874e-01) (32, -4.61405699146953951484e-02) (33, -6.84085116059061082439e-02) (34, 6.09583191475888477862e-02) (35, 1.53043567063353813662e-01) (36, 2.54111534620931278639e-01) (37, 2.07708693072424177561e-01) (38, 1.49444544544932583774e-02) (39, 2.42556283479015366567e-01) (40, 8.98221346419036947850e-03) (41, -7.62867790735697326454e-02) (42, 1.56971467130999603468e-01) (43, 2.30728268663081464984e-01) (44, 7.27678207591688497313e-02) (45, 8.48718096498759511093e-02) (46, 2.23700338372657958619e-02) (47, 1.60574619174534638510e-01) (48, -1.08677876894500868854e-01) (49, 1.53826046251635040196e-01) (50, 8.39684000502183280901e-03) (51, 6.71634780453415347612e-02) (52, 1.89716196246561163985e-01) (53, -1.63657739176773509016e-02) (54, 2.58558218077153678660e-02) (55, 4.82755773147729438932e-02) (56, -2.27308688040691597720e-02) (57, -4.00440451750520010066e-02) (58, 4.60652363500402284302e-01) (59, 2.10636546172666638821e-01) (60, 3.20416704884214920135e-02) (61, 1.33306114509699397130e-01) (62, 6.50549161934267927698e-02) (63, 1.31956902271254505887e-01) (64, 1.08010898581705150345e-01) (65, 2.49306789210662238521e-01) (66, 8.23192708372335324452e-02) (67, -1.64497860238579374226e-02) (68, -5.90812085806070030891e-02) (69, 4.21438377121638313438e-02) (70, 2.10931055262408517770e-01) (71, -1.40714092908240662183e-01) (72, 9.67640066215574301545e-02) (73, 1.28953896395220257709e-03) (74, 1.12537267990371087079e-01) (75, 3.17738553610977858543e-01) (76, 4.14120132769762033798e-02) (77, 1.71330842164690577700e-02) (78, 1.36095538756104028622e-01) (79, 1.13928666112472071203e-01) (80, 1.46678394375072795874e-01) (81, 1.43818347812128155550e-01) (82, 1.75426717045550656371e-01) (83, 1.53439790977591000720e-01) (19, 1.27736021900839935572e-01) (20, -1.73101100634124649424e-01) (21, -7.61248950133213142522e-02) (22, -4.41145273365765033802e-02) (23, 1.99155456758026760955e-01) (24, -7.43164426638825981186e-02) (25, 1.18953820069930674141e-01) (26, 3.16671501077836481386e-03) (27, -1.07242746240004405145e-02) (28, 1.47349840467192849669e-01) (29, 1.79925356822155130265e-01) (30, 3.08854951417145195958e-01) (31, 2.63735363718560489321e-01) (32, 1.33738269988637248353e-01) (33, 3.64746195769797276753e-01) (34, 2.42223851813739010641e-02) (35, 1.79061389031144546635e-01) (36, 2.48572207001676315219e-02) (37, 2.21537688675843558173e-03) (38, 3.77613683580367953674e-01) (39, -8.69555005085539400866e-02) (40, 3.30698328315423839552e-01) (41, 1.43801996865437237139e-01) (42, 8.67168121118755408361e-03) (43, 1.47352346740208056675e-01) (44, -8.87958236019056323940e-02) (45, 2.35115708789599114903e-01) (46, 6.31093268367582671541e-02) (47, 2.93461839654144129863e-02) (48, 2.31998800522397297108e-01) (49, -9.81294177164707681627e-02) (50, -4.09126959865454553622e-02) (51, 1.60348635817196882858e-01) (52, -2.80318975210279486276e-01) (53, 3.28678583437688187630e-02) (54, 1.68148491053396964556e-01) (55, 2.86185828707571643381e-02) (56, 2.12550381278130584572e-01) (57, 1.90467294007680587598e-01) (58, -1.28094648892438378596e-02) (59, 3.28463560629172590666e-01) (60, 8.56722784825778016504e-03) (61, 2.50311898951460359841e-02) (62, 2.34364143580071182527e-01) (63, 7.36723547590093091886e-02) (64, 2.39557171648475897285e-01) (65, 6.06429342777402846654e-02) (66, -2.00621054558901001919e-02) (67, 1.23579980767146588305e-01) (68, 2.23880385389431613152e-01) (69, 2.50411122516265960414e-01) (70, -8.90154533584077145569e-02) (71, 4.78206549446267170644e-01) (72, 3.98672712558241215675e-01) (73, 4.52268319429517395847e-02) (74, 2.13707108518380456408e-02) (75, 1.55701940644728586971e-01) (76, 3.23500130237678096279e-01) (77, 3.80061197964246977321e-01) (78, 6.46594109654529958231e-02) (79, 1.45898968671448747703e-01) (80, 9.64906966831211299063e-02) (81, 1.26366705348319369184e-01) (82, 4.88794272917447980564e-02) (83, 2.69732897980332897436e-01) (19, 1.61523148782371589460e-01) (20, -9.41724467868589043551e-02) (21, 4.22324220169334324515e-02) (22, 1.51492340619048204697e-01) (23, -1.51983672724327945058e-01) (24, 1.26097926903866092152e-01) (25, 1.33748975836256500660e-01) (26, 2.90587358920688876296e-01) (27, 1.28287388944630320609e-01) (28, 1.30072654425928913025e-01) (29, -9.91122370651158768329e-02) (30, 7.96369623048817643074e-02) (31, 4.86595350535582310547e-02) (32, -1.86421539187747953292e-01) (33, 3.71848680968989764306e-01) (34, 2.16761483985870917479e-01) (35, 5.92577296219132451660e-02) (36, 2.45801813449931433331e-01) (37, 7.50432028214589597059e-02) (38, 1.59991549002047206418e-01) (39, 2.04973888133156534330e-01) (40, 1.00137301589996285944e-01) (41, 4.85018020595084919933e-02) (42, -1.32295274176772947872e-01) (43, 7.88028005541818732382e-03) (44, 3.76660269016479809512e-01) (45, 8.21324605081640568560e-02) (46, 1.81510110582780381794e-01) (47, 1.37009075465706481323e-01) (48, 2.01691628436445002936e-01) (49, 1.45239724112211865403e-01) (50, 6.60145343734906686617e-02) (51, 3.77547127569607537945e-02) (52, 4.34720647892605088769e-02) (53, 1.28822781925945040182e-01) (54, 3.97487172350801720722e-01) (55, 1.23816469165728693103e-01) (56, 2.36958971275388924349e-01) (57, 1.21319143608008994661e-01) (58, 2.53995126345946009572e-01) (59, 1.23822169179521671123e-01) (60, 3.70466834551358842331e-02) (61, 8.86358925271127084944e-02) (62, 9.71911617949065137489e-02) (63, 7.25667179302847131783e-02) (64, 6.93339849590030588011e-02) (65, 2.50469567596182884905e-01) (66, 1.77877369339530494452e-01) (67, 3.31770080959510466068e-02) (68, 2.56387367786270359282e-01) (69, 8.56721096286065797454e-02) (70, 2.05529725595467144261e-01) (71, 2.85075035267999266075e-01) (72, 3.98156668356852816437e-01) (73, 2.02475605034957317763e-01) (74, 1.93225823836900317820e-01) (75, 1.77482553174646368044e-01) (76, 2.72291632223911617139e-01) (77, -1.33388543137559378859e-01) (78, 2.30883340984534057849e-01) (79, 5.70506158300186499988e-02) (80, 2.41555512505330249873e-01) (81, 9.62816990528033989083e-02) (82, 1.50431766921845594398e-01) (83, 1.73024905411509111186e-01) (19, 9.09969925941828822191e-02) (20, 2.15723507977637146693e-01) (21, 1.53057393860487389592e-01) (22, 1.76085940273904451026e-01) (23, 1.08571834232301628331e-01) (24, -3.04283563390854161490e-02) (25, -2.27961589189059066207e-02) (26, 2.77660203243103309578e-02) (27, 1.12961172889848554535e-01) (28, 1.69027150480440452318e-01) (29, 1.06121748539578744652e-01) (30, 6.87159995208082574614e-02) (31, 1.99472478819929327498e-01) (32, 1.84586350712722613299e-01) (33, 3.50864316524594432867e-01) (34, 2.87671126209699951071e-02) (35, 1.52933522283104111894e-01) (36, 9.21845046033352155668e-02) (37, 1.30958574317663334341e-01) (38, 7.05085575537407749369e-02) (39, 8.17719239281879117787e-02) (40, 5.58034900000002886955e-02) (41, 2.15452174641699301105e-02) (42, 9.24892253334714253832e-02) (43, 1.09353082750954969105e-01) (44, 3.12094350579945667423e-01) (45, 1.52557191762699634330e-01) (46, 1.12791044886630248412e-01) (47, 2.45564721554573789364e-01) (48, -1.39989632448501433171e-01) (49, 8.52051588483412614128e-02) (50, 1.01231131018245407160e-01) (51, 1.18723386868930885774e-01) (52, -3.21893023239861464369e-02) (53, 7.66306380042044155143e-02) (54, -9.18849084146011740870e-03) (55, 6.40572772500691001163e-02) (56, 2.30170629529368175881e-02) (57, 1.68997686437082544897e-01) (58, 1.20024727101537470597e-01) (59, 3.23068648985054274192e-02) (60, 1.67069704537103236319e-01) (61, 3.06896465923251260399e-01) (62, 1.75382197675577444773e-01) (63, 1.23257644443884956109e-01) (64, 1.23890532023132285411e-01) (65, 7.41249888953364743926e-02) (66, 1.23113625622767897116e-01) (67, 1.49100735222230468269e-01) (68, 7.30326213348639341483e-02) (69, 1.40555668098264169297e-01) (70, 1.35812034511412105253e-01) (71, -1.46454531504734974945e-02) (72, 2.20741992891001770349e-02) (73, -2.43023017760837234391e-02) (74, 1.18226488977118501800e-01) (75, 1.63194948921617150051e-01) (76, -5.41508356044564098664e-02) (77, -7.54109735340408038340e-03) (78, 7.79756674613864553258e-02) (79, 1.28609725771701655095e-01) (80, 1.88981047715909122875e-01) (81, 8.11670139351654551518e-02) (82, 6.94275006950373640979e-02) (83, 2.28188539767236381328e-01) (19, 2.95180205560762187744e-01) (20, 1.33307131932610872793e-01) (21, 6.97922578279070171536e-02) (22, 1.59840036397449758443e-02) (23, 1.20242552011337017204e-01) (24, 9.31256551421870970575e-02) (25, 2.10227566528638359911e-01) (26, -6.06382663409867350701e-02) (27, 1.71788269804046794809e-01) (28, 2.79026068340713362392e-02) (29, 1.31729787189216712706e-01) (30, 2.20391028780012321331e-02) (31, 1.45977079436482165553e-01) (32, 2.75748570211560961596e-01) (33, 4.99161147915286596000e-02) (34, 2.47089069356346002770e-02) (35, 1.41592719237142256050e-01) (36, 8.65298175788835888245e-02) (37, 1.76903597394987177616e-01) (38, 1.89441233699414346425e-01) (39, 8.37662640556297299899e-02) (40, 1.95199701333472586118e-01) (41, 1.77403545191466172071e-01) (42, 1.85790629630079751067e-01) (43, 8.13412949874907920123e-02) (44, -2.29756633180402958239e-02) (45, 7.39048334320910049744e-02) (46, -1.56849052464655136507e-02) (47, 2.51581554873687274210e-01) (48, 1.16692437954406577627e-01) (49, 1.75463756478777432868e-01) (50, 2.08782193259737319790e-01) (51, 1.06048221258369879116e-01) (52, 1.17709785444451181524e-01) (53, 7.01622683704111738123e-03) (54, 1.52241846350657239473e-01) (55, 1.07175785413836627269e-01) (56, 1.18995328931315272336e-01) (57, 1.66370713671570941150e-01) (58, 3.16524060524617123491e-01) (59, 1.20962675958802223786e-01) (60, 1.25678951709805086789e-01) (61, 8.37490670085570543257e-02) (62, 2.70986200684114220127e-01) (63, 1.14990445553254258537e-01) (64, 8.97713904546700580678e-02) (65, 1.85272742438815446464e-01) (66, 6.63036395204400219594e-02) (67, 1.06732287535175426885e-01) (68, 5.45130300357136721168e-02) (69, 1.56034210260614064625e-01) (70, 1.20225471769421013435e-01) (71, 2.49158289511193786758e-02) (72, 1.24873796715083459907e-01) (73, 2.47084467247775663168e-01) (74, 1.65637801322225358680e-01) (75, 1.09199317307915017006e-01) (76, 1.95237902685941294711e-01) (77, 2.41879562310298779071e-01) (78, 3.91794978919416947427e-02) (79, -2.45439736510221218069e-02) (80, 2.68567604671578474829e-02) (81, 2.54751392651986374727e-01) (82, 1.07429394558680918470e-01) (83, 8.78123856430124694050e-02) (19, 7.79118414359178668160e-02) (20, 3.91388432389059903738e-01) (21, 2.91900318286300253234e-01) (22, 1.97384006181203608410e-01) (23, 1.24370942933301600886e-01) (24, 2.17339900183113443610e-01) (25, -3.55764286677509589119e-02) (26, 5.46581745086739262396e-02) (27, 8.90680756415481444943e-02) (28, 2.80149865482676785344e-01) (29, 2.17781033413336266857e-01) (30, -3.54304056919731991115e-02) (31, 9.48170197518761470601e-02) (32, -3.66148553015124278431e-02) (33, 4.00364827834257142047e-01) (34, -7.73044250634165597269e-02) (35, -2.64323529176891391934e-02) (36, 1.25868510020652080161e-01) (37, 2.89285156330152837256e-01) (38, -1.45895549098439325508e-01) (39, 1.01704783706252105402e-01) (40, -1.14338068271973736234e-01) (41, 1.28806921959364134578e-01) (42, 1.99449899119662849012e-01) (43, -5.08773922604527917279e-02) (44, 4.76730886668491005143e-01) (45, 1.88834951865181954744e-01) (46, 1.00742920629889209927e-01) (47, 1.31538297824728200869e-01) (48, -1.73066354185338333593e-02) (49, 2.37069195888325007227e-01) (50, 1.17640133897315563027e-02) (51, 9.31442415491215147672e-02) (52, 2.93598050963093104571e-01) (53, 6.12231866887353246010e-02) (54, 2.58034639986618630214e-01) (55, 1.95931767349729890615e-01) (56, -1.81827323046702682419e-02) (57, 1.50356407098763911190e-01) (58, 5.25728790131494427840e-01) (59, -8.92081475128188583490e-02) (60, 3.92369691478384324812e-02) (61, 2.69173296016865126745e-01) (62, 1.79035275103457014456e-01) (63, 2.25674674236864880594e-01) (64, 1.07667053861124017988e-01) (65, 1.55547219762853961011e-01) (66, 2.01755510424725226226e-01) (67, -9.17320253326936452254e-02) (68, 1.13508343302028746891e-01) (69, 2.70450830407027165148e-02) (70, 1.43827698545670568109e-01) (71, 5.78044410526980592668e-02) (72, 1.01231970334012447155e-01) (73, 9.14646616159187075823e-02) (74, 1.59534568899734857661e-01) (75, 2.00879587704787115898e-02) (76, -2.40629171471113123548e-01) (77, -2.32735698200295937355e-02) (78, 1.32645210253568651693e-01) (79, 2.15480557175767140077e-01) (80, 1.34633599972781847764e-01) (81, 1.43410289307438959527e-01) (82, 1.07759940720488625598e-01) (83, 1.00813888980381807792e-01) (19, 1.14667564330473384371e-01) (20, 1.45305595153022187871e-01) (21, 8.72194807109107489440e-02) (22, 2.23632042837612843300e-01) (23, -3.03912705310447894824e-02) (24, 1.96547738110686709412e-01) (25, 1.70984222439689526052e-01) (26, 3.10154025517270087731e-02) (27, 2.28821227809705207701e-01) (28, -5.20434506606986257982e-02) (29, -8.43266200402781329615e-03) (30, -3.18524816723358417114e-02) (31, 3.41910294051098045953e-02) (32, 5.10723829381948268846e-03) (33, 2.84193549465403816345e-01) (34, 1.20702389344058302889e-01) (35, 8.37701402145995394077e-02) (36, 1.75722774086093214141e-01) (37, 3.40866377423994726392e-01) (38, -1.00472179817475359975e-01) (39, 2.22142424211458244798e-01) (40, 2.12624308368330128260e-01) (41, 7.90505458274222971848e-02) (42, 1.25205967841254400819e-01) (43, 1.57586208135254507434e-01) (44, 1.90339573018805441329e-01) (45, -4.35574199027674302531e-02) (46, 1.33187589884562862519e-01) (47, 1.23954488989074615435e-01) (48, 2.23568305906942044192e-01) (49, 2.43224358377050531299e-01) (50, 1.52764777543682589434e-02) (51, 1.18750976006565603371e-01) (52, 1.00487734507439460674e-01) (53, 3.74153244089420883300e-02) (54, 2.65995438586755783561e-01) (55, 2.17984206969951299637e-01) (56, 1.20305920382016956482e-01) (57, 1.82867126575689264989e-01) (58, 2.71932185521680858109e-01) (59, 3.02363478522330531018e-01) (60, 1.38441171602601942325e-01) (61, 9.64989206987927200521e-02) (62, 2.90004667558609929845e-01) (63, 1.52824121001504859008e-01) (64, 1.36108641226158316728e-01) (65, 2.25849099412415377230e-01) (66, 2.76116417380782075419e-01) (67, -9.36701653733802430679e-02) (68, -4.40327475907780208075e-02) (69, 1.38028002911504132921e-02) (70, 7.65954427612214883148e-02) (71, 3.73351617591672069185e-01) (72, 2.52056781971024990163e-01) (73, 1.74079884342913354667e-01) (74, 2.20152605063194173329e-01) (75, 1.37891609743071769101e-01) (76, 2.00919715221774930480e-01) (77, -9.34183995141535383766e-03) (78, 2.19346269390954029532e-01) (79, 1.23303043165074718845e-01) (80, 1.05396206985411355905e-01) (81, 2.74067110551110826311e-01) (82, 3.28583986209586287330e-02) (83, 1.05731595253735904949e-02) (19, 1.44452030913379270149e-01) (20, 1.80321455760218990472e-01) (21, 8.00378246880226462689e-02) (22, 2.14952351670047558940e-01) (23, 4.87409358060093000908e-02) (24, 1.62544799175954518544e-01) (25, 1.07508089499760248198e-01) (26, 1.61594614719460960561e-01) (27, 1.13306769892127373600e-02) (28, 1.65281848068858483458e-01) (29, -8.45163023714174677092e-02) (30, 1.08736492582527335959e-01) (31, 1.53948653673051549795e-01) (32, 1.52678973596626660347e-01) (33, 1.46201318797136325944e-01) (34, 1.04024409672093962054e-01) (35, 1.44487507353427108159e-01) (36, 1.98159165396995795572e-01) (37, 2.15948711354068845214e-01) (38, 7.21813360282565624759e-02) (39, 1.86786910152943186336e-01) (40, 8.14591725303153157967e-02) (41, 1.06575137852632090274e-02) (42, 6.10423594624460857938e-02) (43, 1.23667590930769691338e-01) (44, 2.99659539273452568686e-01) (45, 7.29942455612019591715e-02) (46, 1.56473844030191239218e-01) (47, 3.03973410410917493918e-02) (48, 7.36296378859091771307e-02) (49, 1.95402652155942019307e-01) (50, 7.88411931755326755855e-02) (51, -6.51643364458904528203e-02) (52, 9.93446742692668943731e-02) (53, 6.91613698140596810937e-02) (54, -1.77775521756677878926e-02) (55, 8.61028417904616261147e-02) (56, 2.35761893620047457976e-01) (57, 7.23492841915550632947e-02) (58, -1.33872234482484808726e-01) (59, -5.28531983158797569189e-03) (60, 9.25896127495060422552e-02) (61, 7.97451264226685663239e-02) (62, 8.23558532908486851110e-02) (63, 1.98316334293730162086e-01) (64, 1.29073000871942428214e-01) (65, 1.46876699394468596127e-01) (66, 8.24931381120282691821e-02) (67, -1.87285662501948946268e-02) (68, -2.27176781213012657368e-02) (69, 2.05217317937538140660e-02) (70, -3.04194417888439816444e-04) (71, 9.84471671217864302550e-02) (72, 1.63564934456798011242e-01) (73, 9.68261616033592037445e-02) (74, -1.70376329099625190011e-03) (75, 8.68168897839035336172e-02) (76, 1.05264411858633666341e-01) (77, 2.05423193820392813169e-01) (78, 2.47514593766627877258e-01) (79, 9.08638740943107231507e-02) (80, 1.95945042642081401763e-01) (81, 8.59728069474124945160e-02) (82, 9.78111042924744572558e-02) (83, 1.77871756438867267835e-01) (19, 2.05753814897220110858e-01) (20, 3.11652405343732841203e-01) (21, 8.17182544314069975178e-02) (22, 7.50444207511861000048e-02) (23, 2.31905256949145516243e-01) (24, 1.71983713261110365833e-01) (25, 1.42311769998690024197e-01) (26, 2.48297769315369842857e-02) (27, 1.40974941568575345974e-01) (28, 1.32203934535558315089e-01) (29, 8.78934686531515074748e-02) (30, 1.01962514333633430530e-01) (31, 1.01229854237669780748e-01) (32, 2.34831661492748200448e-01) (33, 3.64116680906525769235e-02) (34, 8.55111314567384983576e-02) (35, 6.67715890467515255091e-02) (36, 8.51425392270423186947e-02) (37, 1.95401441598915981412e-01) (38, 1.01197014210938282530e-01) (39, 2.36740450031213689464e-02) (40, 1.84075251198443035072e-01) (41, 1.43376778615419170348e-01) (42, 2.53079092335935951219e-01) (43, 1.16901397862828548835e-01) (44, -1.26167142452268399300e-02) (45, 9.87593191823830374165e-02) (46, 5.31823742403607496732e-02) (47, -5.24564711735253652591e-02) (48, -4.68633665880271166326e-02) (49, 2.53493051828716786655e-03) (50, 2.10704841847408369526e-01) (51, 6.36987294723009994657e-02) (52, 1.75554319096422134505e-01) (53, 8.17551286246096103882e-02) (54, -3.03832448701226831567e-01) (55, 1.39393948344201434875e-01) (56, 1.00044019982846399408e-01) (57, 9.54117413817859860714e-02) (58, -7.64744319509874648233e-03) (59, 5.39724924741446371312e-02) (60, 5.34874236919405665613e-02) (61, 1.39077320076763433221e-01) (62, 1.31969225388415767330e-01) (63, 1.98246916948087215093e-01) (64, 3.55389129344954729506e-02) (65, 3.53642269429779720902e-02) (66, 7.05695053519710679968e-02) (67, 9.01786841594662824662e-02) (68, 1.28575760596344040865e-02) (69, -1.76686738977289981012e-02) (70, -1.07156316268293416716e-02) (71, -1.25192877998743373746e-01) (72, 5.38740660755032269025e-02) (73, 1.13845286905500414631e-01) (74, 1.13435487508228807774e-01) (75, 8.57788231242046644853e-02) (76, 1.48656666092877060015e-01) (77, 1.56277713004143448128e-01) (78, -4.96600779859196206356e-02) (79, 6.61459711230735908361e-02) (80, 7.11309706469775981930e-03) (81, 1.60265328079647745296e-01) (82, -2.26085417804868238356e-02) (83, 1.93995940823327550628e-01) (19, -1.35111462072455834615e-01) (20, -1.95371834451710579827e-01) (21, 9.61483104163394219910e-02) (22, 3.09076033743181377567e-01) (23, -4.93096375700314559776e-02) (24, 7.76101965837910218182e-02) (25, 3.95003991370230511659e-02) (26, 3.65919442197966349184e-01) (27, 1.72317374189754457525e-01) (28, 1.49654396929801258853e-01) (29, -8.16959610115373102701e-02) (30, 2.65427069903167167642e-01) (31, 1.79631495676028651864e-02) (32, 2.28388795734694560746e-01) (33, -8.34793864134642515928e-02) (34, 3.52391843101286683648e-01) (35, 2.42041255300975421960e-02) (36, 2.13146379389146101158e-01) (37, 2.21846920264399921630e-01) (38, 1.17308738338074938778e-01) (39, 2.01805720009454431230e-01) (40, 9.37671990945940780904e-02) (41, 1.51855386011233300936e-01) (42, 1.68761388415457402878e-01) (43, 1.97553391602888150924e-01) (44, 1.58628671315215796778e-01) (45, 8.20953777047749716500e-02) (46, 2.88585342189288995840e-01) (47, 8.27661177421202820526e-02) (48, 2.50455768370568987446e-01) (49, 2.08147784314523298654e-01) (50, 8.73944300133061569014e-03) (51, 2.23412832752423351490e-01) (52, 4.24805165421284769423e-02) (53, 3.00601235848979353449e-01) (54, 3.60560561234586685053e-01) (55, 2.09387825212730666058e-01) (56, 8.67477663428551371005e-02) (57, 1.40874389626545554188e-01) (58, -1.88633074750153784116e-01) (59, 1.63209018809087724744e-01) (60, 2.07756511972602447846e-01) (61, 8.33794545640661050045e-02) (62, 1.23341275542449890779e-01) (63, 1.28430179192791982246e-01) (64, 3.85955769225423406255e-02) (65, -3.01033120337909354536e-02) (66, 2.83304938275973139383e-01) (67, 1.18659006437519115584e-01) (68, 1.12933786937582963938e-01) (69, 2.24722083165805497362e-01) (70, 2.67888911432131171519e-01) (71, 4.37480355527575359709e-01) (72, 8.90792255516418135519e-02) (73, 8.49425710826390290009e-03) (74, 2.32246762507674620046e-02) (75, 1.75296895710918221312e-01) (76, 3.62402526935601265734e-01) (77, -1.45454717714339820667e-01) (78, 1.96629008764529933373e-01) (79, 1.85675016253121688559e-01) (80, 1.45441694023739492847e-01) (81, 1.45909030469285216913e-01) (82, 1.14014644691905933649e-01) (83, 5.27059977727592499086e-03) (19, 2.56490739197624217915e-01) (20, 1.29289051351092171283e-01) (21, -2.49679969090736142423e-02) (22, 3.68399803562495242737e-02) (23, 9.96200896900634180753e-03) (24, -2.62460313163451919305e-01) (25, -2.55897830212633292657e-02) (26, 1.03782274686517309026e-01) (27, 9.76793846614006644469e-02) (28, 1.46292553658056295740e-01) (29, -1.05476339200598817625e-01) (30, 5.06993628583678190846e-02) (31, 1.25058190017397152793e-01) (32, 1.91855628791880616912e-01) (33, 2.94246327426944231931e-01) (34, -1.82047400899111588846e-02) (35, 2.55293815572791293889e-01) (36, -1.00824310178887571743e-01) (37, 3.42550171607134412710e-02) (38, 3.36084510694154570132e-02) (39, 1.22690119215005055686e-01) (40, -3.93621171582498041719e-02) (41, 1.14219669503520901421e-01) (42, 2.69866472830238679492e-01) (43, 8.42162184456349827144e-02) (44, 8.54566542298837716896e-02) (45, 3.21096770135044118355e-01) (46, 1.26179035488090257600e-01) (47, 1.02553098882855020513e-01) (48, 8.94354497061955466819e-03) (49, -3.87372810202347983566e-02) (50, 3.96535535235273017829e-01) (51, 1.19374009468414879476e-01) (52, 3.85483395696507857853e-01) (53, 1.06287805323286799197e-01) (54, 2.78784135381823672262e-01) (55, 1.08337294779503351405e-01) (56, -2.11139903562663489023e-02) (57, 1.06366501431136628586e-01) (58, 3.09754812480729557755e-01) (59, 1.57758756414564188519e-01) (60, 1.04590440673674914263e-01) (61, 2.63588810353240554640e-01) (62, 1.79887646755570645984e-01) (63, 9.86187628054606413297e-02) (64, 6.12098577604786725503e-02) (65, 4.88377974157075678274e-02) (66, 1.84284004961551589608e-01) (67, 1.58676134136068264224e-01) (68, 7.57300841691007919909e-02) (69, 3.07489558121158135240e-01) (70, 2.62745128042718212313e-01) (71, 6.36554043563389848615e-02) (72, -1.90451299102550042353e-02) (73, 6.26109596802588430631e-02) (74, 1.26569346701968316049e-01) (75, -8.28120152052270463994e-02) (76, 2.17827025004211194403e-01) (77, 2.23811757617554119015e-01) (78, -9.76803254583271385325e-02) (79, 7.65994199542784914847e-02) (80, 1.92941109897696527753e-01) (81, 1.63104324121177257645e-01) (82, 9.36281919757852021391e-02) (83, 2.69369444232827714991e-01) (19, 4.31931848220226816126e-02) (20, 2.18024694547662656330e-01) (21, 2.23072544968062114190e-01) (22, 4.68098174136156841563e-01) (23, -9.03586794636308254791e-02) (24, 2.83733208899688227334e-01) (25, 7.94645208156594118343e-02) (26, 1.13929940368246690463e-01) (27, 1.27076138705146834962e-01) (28, -8.55493583800695511776e-03) (29, -1.15352673301998609467e-01) (30, -1.17635826949693711452e-01) (31, 1.99997821662712627067e-01) (32, 1.21670155057981427271e-02) (33, 2.00397624682715380651e-01) (34, 9.27511164594494175173e-02) (35, -7.07529874969070604607e-03) (36, 2.23232683982670210288e-01) (37, 3.41543245379008819640e-01) (38, 5.33259847773632778001e-02) (39, 3.25901041948634395684e-01) (40, -6.76045118258167265779e-03) (41, 2.64979434150579284957e-02) (42, -2.18952870460455972790e-02) (43, 2.47735771884107086604e-01) (44, 4.04541675145425494442e-01) (45, 4.64988567411986214450e-02) (46, 2.10601660334454987566e-01) (47, 1.45864585994807421931e-01) (48, 1.72624686643970043365e-01) (49, 2.06285000297165066474e-01) (50, 1.58842261252475441813e-01) (51, -3.41332517435577464937e-02) (52, 4.97214317480586531772e-01) (53, 6.54335164971014404678e-02) (54, 2.15903971979666875480e-01) (55, 3.20331236575605637906e-01) (56, 2.15153629270200347223e-01) (57, 1.21486820381201898744e-01) (58, 1.84518717045105529184e-01) (59, -8.83743571410468831129e-02) (60, 2.00686811432473410921e-01) (61, 2.13228665022183405675e-01) (62, 8.54269179224507180237e-02) (63, 3.24978900145990401427e-01) (64, 6.34107389378985031314e-02) (65, 1.21534401488998008989e-01) (66, 2.64641981857218655527e-01) (67, -1.06427391642999580323e-01) (68, -5.29600407122065020005e-02) (69, -1.88822921538435051225e-01) (70, 4.09388457678522277305e-02) (71, 1.15007134614889441893e-01) (72, 2.13425682772753477767e-01) (73, 1.34863843918262643617e-01) (74, 1.15762558941532728296e-01) (75, -1.32276581304739404565e-02) (76, 9.60960138615278569585e-03) (77, -3.39084894944537140749e-03) (78, 1.83520626741623615885e-01) (79, 4.42984262592933802916e-02) (80, 3.04233218783347192371e-01) (81, 4.78106434117586132082e-02) (82, 3.19700497303226915946e-02) (83, 1.03282051844273498054e-01) (19, -1.79592931893130913767e-01) (20, 7.16729515964789898330e-02) (21, -3.22869483525104472577e-02) (22, 1.50710223699885847992e-01) (23, 1.51002706289301014131e-02) (24, 1.44590425169927094817e-01) (25, 1.68456708892236878272e-01) (26, 2.55126675589485374385e-01) (27, 1.16009642662329506835e-01) (28, 8.40849844690518821722e-02) (29, -1.78391196212515146247e-01) (30, 6.96592477249611263801e-02) (31, 2.23328580990258096506e-01) (32, 4.39434273190002916420e-02) (33, 3.55974930414338475160e-01) (34, 2.67086021817438623582e-01) (35, 1.42092951248266236020e-01) (36, 1.11201837545446269306e-01) (37, 1.53748000152172353827e-01) (38, -1.92462970828423618475e-01) (39, 2.78137455772366648521e-01) (40, 6.70887494177530574468e-02) (41, 2.82793200906797798089e-02) (42, 6.69605236404852977028e-02) (43, 4.46921345408762132889e-02) (44, 2.00983603882076478087e-01) (45, 1.99104571439753380568e-01) (46, 1.29056122092939207224e-01) (47, 2.87150652947473772336e-01) (48, 1.86855418554887686700e-01) (49, 1.48677923777433967922e-01) (50, 6.97617133337805062077e-02) (51, 9.18085900040150892920e-02) (52, 2.67565343283403367369e-01) (53, 1.82598462914538683943e-01) (54, 4.84949224132101897045e-01) (55, 2.24571586163491765387e-01) (56, 9.21679667882440017967e-02) (57, 1.35730738503318043575e-01) (58, 3.04092607722349805854e-01) (59, 2.11288109198469020722e-01) (60, 1.57034591849788462969e-01) (61, 1.18462417785711149332e-01) (62, 3.02086458136640922945e-01) (63, 1.54329147239870012598e-02) (64, 9.80008881591083319540e-02) (65, 2.11004013317047323106e-01) (66, 2.18380668681587897240e-01) (67, 1.32660560560414475528e-01) (68, 9.30522072340728423345e-02) (69, 2.84103754029655541924e-01) (70, 1.08992543856788276502e-01) (71, 2.12622525241371485016e-01) (72, 7.64903650347896479911e-02) (73, 1.53114782253419484670e-01) (74, 1.49144433887089228330e-01) (75, 3.15733573185442983888e-02) (76, 1.08797834680749563874e-01) (77, -2.38405179083904184001e-01) (78, 2.09006863103696927109e-01) (79, 1.05205056967903415321e-01) (80, 3.12520469328394501218e-01) (81, 1.83530897520670366330e-01) (82, -7.21693451856619816454e-03) (83, 1.07368625898908859329e-01) (19, 9.47896732801920965938e-02) (20, 1.47276125540920788115e-02) (21, 9.54246765354893888844e-02) (22, 4.09049195442908242182e-01) (23, 5.48433256053432183208e-03) (24, 2.07034864651676586700e-01) (25, 1.19592161475638392165e-01) (26, 1.49264614166115000549e-01) (27, 1.22432794594546340283e-01) (28, 1.05229533932949315123e-01) (29, 7.30498106651170098225e-03) (30, 5.10734181516190322014e-02) (31, 2.05331178385731560887e-01) (32, 3.65210719056377197678e-02) (33, 1.92589189229739859988e-01) (34, 2.32333665362838281965e-01) (35, 1.93804496909815077155e-01) (36, 1.79651087942948400888e-01) (37, 2.83108440482585654863e-02) (38, 3.26483815816369316032e-01) (39, 8.91737575473188076591e-02) (40, 2.01432967966375386926e-01) (41, 4.47681056732998489123e-02) (42, 1.05929232255417282715e-02) (43, 1.65721670545731558644e-01) (44, 1.66917922372460114655e-01) (45, 6.22271668884428127977e-02) (46, 1.78291765926353512617e-01) (47, 3.19644180531351185248e-01) (48, 2.02022639788070557110e-01) (49, 1.74120728661746604349e-01) (50, -7.48344548971194567510e-02) (51, 3.08153671821924712848e-01) (52, -1.33902926745930905827e-01) (53, 6.55700640597104006391e-02) (54, 2.38732128175488195199e-01) (55, 9.78058167420270685444e-02) (56, 1.84190993347123466162e-01) (57, 6.03910838577668002136e-02) (58, 2.29667802875449522659e-03) (59, 1.71754088021175643775e-01) (60, 3.02869655976439111633e-01) (61, -9.32250789682589897645e-03) (62, 1.31883596971898719996e-01) (63, 2.24673444380745546134e-01) (64, 2.71864672886202030089e-02) (65, 