FANN_FLO_2.1
num_layers=4
learning_rate=0.700000
connection_rate=1.000000
network_type=0
learning_momentum=0.000000
training_algorithm=2
train_error_function=1
train_stop_function=0
cascade_output_change_fraction=0.010000
quickprop_decay=-0.000100
quickprop_mu=1.750000
rprop_increase_factor=1.200000
rprop_decrease_factor=0.500000
rprop_delta_min=0.000000
rprop_delta_max=50.000000
rprop_delta_zero=0.100000
cascade_output_stagnation_epochs=12
cascade_candidate_change_fraction=0.010000
cascade_candidate_stagnation_epochs=12
cascade_max_out_epochs=150
cascade_max_cand_epochs=150
cascade_num_candidate_groups=2
bit_fail_limit=3.49999999999999977796e-01
cascade_candidate_limit=1.00000000000000000000e+03
cascade_weight_multiplier=4.00000000000000022204e-01
cascade_activation_functions_count=10
cascade_activation_functions=3 5 7 8 10 11 14 15 16 17 
cascade_activation_steepnesses_count=4
cascade_activation_steepnesses=2.50000000000000000000e-01 5.00000000000000000000e-01 7.50000000000000000000e-01 1.00000000000000000000e+00 
layer_sizes=19 129 129 7 
scale_included=0
neurons (num_inputs, activation_function, activation_steepness)=(0, 0, 0.00000000000000000000e+00) (0, 0, 0.00000000000000000000e+00) (0, 0, 0.00000000000000000000e+00) (0, 0, 0.00000000000000000000e+00) (0, 0, 0.00000000000000000000e+00) (0, 0, 0.00000000000000000000e+00) (0, 0, 0.00000000000000000000e+00) (0, 0, 0.00000000000000000000e+00) (0, 0, 0.00000000000000000000e+00) (0, 0, 0.00000000000000000000e+00) (0, 0, 0.00000000000000000000e+00) (0, 0, 0.00000000000000000000e+00) (0, 0, 0.00000000000000000000e+00) (0, 0, 0.00000000000000000000e+00) (0, 0, 0.00000000000000000000e+00) (0, 0, 0.00000000000000000000e+00) (0, 0, 0.00000000000000000000e+00) (0, 0, 0.00000000000000000000e+00) (0, 0, 0.00000000000000000000e+00) (19, 5, 5.00000000000000000000e-01) (19, 5, 5.00000000000000000000e-01) (19, 5, 5.00000000000000000000e-01) (19, 5, 5.00000000000000000000e-01) (19, 5, 5.00000000000000000000e-01) (19, 5, 5.00000000000000000000e-01) (19, 5, 5.00000000000000000000e-01) (19, 5, 5.00000000000000000000e-01) (19, 5, 5.00000000000000000000e-01) (19, 5, 5.00000000000000000000e-01) (19, 5, 5.00000000000000000000e-01) (19, 5, 5.00000000000000000000e-01) (19, 5, 5.00000000000000000000e-01) (19, 5, 5.00000000000000000000e-01) (19, 5, 5.00000000000000000000e-01) (19, 5, 5.00000000000000000000e-01) (19, 5, 5.00000000000000000000e-01) (19, 5, 5.00000000000000000000e-01) (19, 5, 5.00000000000000000000e-01) (19, 5, 5.00000000000000000000e-01) (19, 5, 5.00000000000000000000e-01) (19, 5, 5.00000000000000000000e-01) (19, 5, 5.00000000000000000000e-01) (19, 5, 5.00000000000000000000e-01) (19, 5, 5.00000000000000000000e-01) (19, 5, 5.00000000000000000000e-01) (19, 5, 5.00000000000000000000e-01) (19, 5, 5.00000000000000000000e-01) (19, 5, 5.00000000000000000000e-01) (19, 5, 5.00000000000000000000e-01) (19, 5, 5.00000000000000000000e-01) (19, 5, 5.00000000000000000000e-01) (19, 5, 5.00000000000000000000e-01) (19, 5, 5.00000000000000000000e-01) (19, 5, 5.00000000000000000000e-01) (19, 5, 5.00000000000000000000e-01) (19, 5, 5.00000000000000000000e-01) (19, 5, 5.00000000000000000000e-01) (19, 5, 5.00000000000000000000e-01) (19, 5, 5.00000000000000000000e-01) (19, 5, 5.00000000000000000000e-01) (19, 5, 5.00000000000000000000e-01) (19, 5, 5.00000000000000000000e-01) (19, 5, 5.00000000000000000000e-01) (19, 5, 5.00000000000000000000e-01) (19, 5, 5.00000000000000000000e-01) (19, 5, 5.00000000000000000000e-01) (19, 5, 5.00000000000000000000e-01) (19, 5, 5.00000000000000000000e-01) (19, 5, 5.00000000000000000000e-01) (19, 5, 5.00000000000000000000e-01) (19, 5, 5.00000000000000000000e-01) (19, 5, 5.00000000000000000000e-01) (19, 5, 5.00000000000000000000e-01) (19, 5, 5.00000000000000000000e-01) (19, 5, 5.00000000000000000000e-01) (19, 5, 5.00000000000000000000e-01) (19, 5, 5.00000000000000000000e-01) (19, 5, 5.00000000000000000000e-01) (19, 5, 5.00000000000000000000e-01) (19, 5, 5.00000000000000000000e-01) (19, 5, 5.00000000000000000000e-01) (19, 5, 5.00000000000000000000e-01) (19, 5, 5.00000000000000000000e-01) (19, 5, 5.00000000000000000000e-01) (19, 5, 5.00000000000000000000e-01) (19, 5, 5.00000000000000000000e-01) (19, 5, 5.00000000000000000000e-01) (19, 5, 5.00000000000000000000e-01) (19, 5, 5.00000000000000000000e-01) (19, 5, 5.00000000000000000000e-01) (19, 5, 5.00000000000000000000e-01) (19, 5, 5.00000000000000000000e-01) (19, 5, 5.00000000000000000000e-01) (19, 5, 5.00000000000000000000e-01) (19, 5, 5.00000000000000000000e-01) (19, 5, 5.00000000000000000000e-01) (19, 5, 5.00000000000000000000e-01) (19, 5, 5.00000000000000000000e-01) (19, 5, 5.00000000000000000000e-01) (19, 5, 5.00000000000000000000e-01) (19, 5, 5.00000000000000000000e-01) (19, 5, 5.00000000000000000000e-01) (19, 5, 5.00000000000000000000e-01) (19, 5, 5.00000000000000000000e-01) (19, 5, 5.00000000000000000000e-01) (19, 5, 5.00000000000000000000e-01) (19, 5, 5.00000000000000000000e-01) (19, 5, 5.00000000000000000000e-01) (19, 5, 5.00000000000000000000e-01) (19, 5, 5.00000000000000000000e-01) (19, 5, 5.00000000000000000000e-01) (19, 5, 5.00000000000000000000e-01) (19, 5, 5.00000000000000000000e-01) (19, 5, 5.00000000000000000000e-01) (19, 5, 5.00000000000000000000e-01) (19, 5, 5.00000000000000000000e-01) (19, 5, 5.00000000000000000000e-01) (19, 5, 5.00000000000000000000e-01) (19, 5, 5.00000000000000000000e-01) (19, 5, 5.00000000000000000000e-01) (19, 5, 5.00000000000000000000e-01) (19, 5, 5.00000000000000000000e-01) (19, 5, 5.00000000000000000000e-01) (19, 5, 5.00000000000000000000e-01) (19, 5, 5.00000000000000000000e-01) (19, 5, 5.00000000000000000000e-01) (19, 5, 5.00000000000000000000e-01) (19, 5, 5.00000000000000000000e-01) (19, 5, 5.00000000000000000000e-01) (19, 5, 5.00000000000000000000e-01) (19, 5, 5.00000000000000000000e-01) (19, 5, 5.00000000000000000000e-01) (19, 5, 5.00000000000000000000e-01) (19, 5, 5.00000000000000000000e-01) (19, 5, 5.00000000000000000000e-01) (19, 5, 5.00000000000000000000e-01) (19, 5, 5.00000000000000000000e-01) (19, 5, 5.00000000000000000000e-01) (19, 5, 5.00000000000000000000e-01) (19, 5, 5.00000000000000000000e-01) (19, 5, 5.00000000000000000000e-01) (19, 5, 5.00000000000000000000e-01) (19, 5, 5.00000000000000000000e-01) (19, 5, 5.00000000000000000000e-01) (19, 5, 5.00000000000000000000e-01) (19, 5, 5.00000000000000000000e-01) (19, 5, 5.00000000000000000000e-01) (0, 5, 0.00000000000000000000e+00) (129, 5, 5.00000000000000000000e-01) (129, 5, 5.00000000000000000000e-01) (129, 5, 5.00000000000000000000e-01) (129, 5, 5.00000000000000000000e-01) (129, 5, 5.00000000000000000000e-01) (129, 5, 5.00000000000000000000e-01) (129, 5, 5.00000000000000000000e-01) (129, 5, 5.00000000000000000000e-01) (129, 5, 5.00000000000000000000e-01) (129, 5, 5.00000000000000000000e-01) (129, 5, 5.00000000000000000000e-01) (129, 5, 5.00000000000000000000e-01) (129, 5, 5.00000000000000000000e-01) (129, 5, 5.00000000000000000000e-01) (129, 5, 5.00000000000000000000e-01) (129, 5, 5.00000000000000000000e-01) (129, 5, 5.00000000000000000000e-01) (129, 5, 5.00000000000000000000e-01) (129, 5, 5.00000000000000000000e-01) (129, 5, 5.00000000000000000000e-01) (129, 5, 5.00000000000000000000e-01) (129, 5, 5.00000000000000000000e-01) (129, 5, 5.00000000000000000000e-01) (129, 5, 5.00000000000000000000e-01) (129, 5, 5.00000000000000000000e-01) (129, 5, 5.00000000000000000000e-01) (129, 5, 5.00000000000000000000e-01) (129, 5, 5.00000000000000000000e-01) (129, 5, 5.00000000000000000000e-01) (129, 5, 5.00000000000000000000e-01) (129, 5, 5.00000000000000000000e-01) (129, 5, 5.00000000000000000000e-01) (129, 5, 5.00000000000000000000e-01) (129, 5, 5.00000000000000000000e-01) (129, 5, 5.00000000000000000000e-01) (129, 5, 5.00000000000000000000e-01) (129, 5, 5.00000000000000000000e-01) (129, 5, 5.00000000000000000000e-01) (129, 5, 5.00000000000000000000e-01) (129, 5, 5.00000000000000000000e-01) (129, 5, 5.00000000000000000000e-01) (129, 5, 5.00000000000000000000e-01) (129, 5, 5.00000000000000000000e-01) (129, 5, 5.00000000000000000000e-01) (129, 5, 5.00000000000000000000e-01) (129, 5, 5.00000000000000000000e-01) (129, 5, 5.00000000000000000000e-01) (129, 5, 5.00000000000000000000e-01) (129, 5, 5.00000000000000000000e-01) (129, 5, 5.00000000000000000000e-01) (129, 5, 5.00000000000000000000e-01) (129, 5, 5.00000000000000000000e-01) (129, 5, 5.00000000000000000000e-01) (129, 5, 5.00000000000000000000e-01) (129, 5, 5.00000000000000000000e-01) (129, 5, 5.00000000000000000000e-01) (129, 5, 5.00000000000000000000e-01) (129, 5, 5.00000000000000000000e-01) (129, 5, 5.00000000000000000000e-01) (129, 5, 5.00000000000000000000e-01) (129, 5, 5.00000000000000000000e-01) (129, 5, 5.00000000000000000000e-01) (129, 5, 5.00000000000000000000e-01) (129, 5, 5.00000000000000000000e-01) (129, 5, 5.00000000000000000000e-01) (129, 5, 5.00000000000000000000e-01) (129, 5, 5.00000000000000000000e-01) (129, 5, 5.00000000000000000000e-01) (129, 5, 5.00000000000000000000e-01) (129, 5, 5.00000000000000000000e-01) (129, 5, 5.00000000000000000000e-01) (129, 5, 5.00000000000000000000e-01) (129, 5, 5.00000000000000000000e-01) (129, 5, 5.00000000000000000000e-01) (129, 5, 5.00000000000000000000e-01) (129, 5, 5.00000000000000000000e-01) (129, 5, 5.00000000000000000000e-01) (129, 5, 5.00000000000000000000e-01) (129, 5, 5.00000000000000000000e-01) (129, 5, 5.00000000000000000000e-01) (129, 5, 5.00000000000000000000e-01) (129, 5, 5.00000000000000000000e-01) (129, 5, 5.00000000000000000000e-01) (129, 5, 5.00000000000000000000e-01) (129, 5, 5.00000000000000000000e-01) (129, 5, 5.00000000000000000000e-01) (129, 5, 5.00000000000000000000e-01) (129, 5, 5.00000000000000000000e-01) (129, 5, 5.00000000000000000000e-01) (129, 5, 5.00000000000000000000e-01) (129, 5, 5.00000000000000000000e-01) (129, 5, 5.00000000000000000000e-01) (129, 5, 5.00000000000000000000e-01) (129, 5, 5.00000000000000000000e-01) (129, 5, 5.00000000000000000000e-01) (129, 5, 5.00000000000000000000e-01) (129, 5, 5.00000000000000000000e-01) (129, 5, 5.00000000000000000000e-01) (129, 5, 5.00000000000000000000e-01) (129, 5, 5.00000000000000000000e-01) (129, 5, 5.00000000000000000000e-01) (129, 5, 5.00000000000000000000e-01) (129, 5, 5.00000000000000000000e-01) (129, 5, 5.00000000000000000000e-01) (129, 5, 5.00000000000000000000e-01) (129, 5, 5.00000000000000000000e-01) (129, 5, 5.00000000000000000000e-01) (129, 5, 5.00000000000000000000e-01) (129, 5, 5.00000000000000000000e-01) (129, 5, 5.00000000000000000000e-01) (129, 5, 5.00000000000000000000e-01) (129, 5, 5.00000000000000000000e-01) (129, 5, 5.00000000000000000000e-01) (129, 5, 5.00000000000000000000e-01) (129, 5, 5.00000000000000000000e-01) (129, 5, 5.00000000000000000000e-01) (129, 5, 5.00000000000000000000e-01) (129, 5, 5.00000000000000000000e-01) (129, 5, 5.00000000000000000000e-01) (129, 5, 5.00000000000000000000e-01) (129, 5, 5.00000000000000000000e-01) (129, 5, 5.00000000000000000000e-01) (129, 5, 5.00000000000000000000e-01) (129, 5, 5.00000000000000000000e-01) (129, 5, 5.00000000000000000000e-01) (129, 5, 5.00000000000000000000e-01) (129, 5, 5.00000000000000000000e-01) (129, 5, 5.00000000000000000000e-01) (0, 5, 0.00000000000000000000e+00) (129, 5, 5.00000000000000000000e-01) (129, 5, 5.00000000000000000000e-01) (129, 5, 5.00000000000000000000e-01) (129, 5, 5.00000000000000000000e-01) (129, 5, 5.00000000000000000000e-01) (129, 5, 5.00000000000000000000e-01) (0, 5, 0.00000000000000000000e+00) 
connections (connected_to_neuron, weight)=(0, 4.29346211280340526173e+01) (1, 2.26521190835952485054e-01) (2, 9.31831233668330427555e-02) (3, 1.48854026673462794861e+03) (4, -2.06876755303923083318e+01) (5, 1.49993495412028778446e+03) (6, -6.47856712900806569477e-02) (7, 6.11579393297859597034e-01) (8, -9.16362201699046585723e-01) (9, 1.49999636131928468785e+03) (10, -1.36346764695430167080e-01) (11, 4.87825341771650156097e-01) (12, 1.48507800303613908000e+03) (13, 4.44902750301489569029e-01) (14, -3.44351754377387742068e-02) (15, -2.18397543561377140975e+01) (16, -5.10840744810426520411e-03) (17, 1.49988148105301183932e+03) (18, 5.86086962776742811942e-02) (0, 5.89682837436077689208e-02) (1, -9.25715515355192003488e-02) (2, -1.85842275584438776370e+00) (3, -7.74297813121705869044e-01) (4, -1.50000000000000000000e+03) (5, 1.06729496516752000446e+01) (6, -4.88560506007811401474e+00) (7, 1.95870111092576321132e-02) (8, 8.77842589281124752176e+00) (9, -2.25636966778621570029e+02) (10, -3.02613847047724648931e+00) (11, -1.69846480989815723506e-01) (12, 1.32478711065742604802e+01) (13, -4.38375094952777999424e+02) (14, -2.93192704767754319661e+00) (15, -1.50000000000000000000e+03) (16, -6.56745863338303093037e-01) (17, -5.13089928283652962904e+00) (18, -1.19624220390271290837e-01) (0, 9.38170207237745103157e+02) (1, 1.49999882737540019662e+03) (2, -1.03986890317294796660e+03) (3, -1.48140551898393823649e+03) (4, 1.49999720686488626598e+03) (5, 1.49948325832429463844e+03) (6, -1.72504691640275353848e+02) (7, 1.49866240799527190575e+03) (8, 1.44411343632324724240e+03) (9, -7.19676561132967322010e+02) (10, -1.49999457105604892604e+03) (11, -1.21322618567236872877e+03) (12, 1.49999994004989684981e+03) (13, 1.49996061740627555992e+03) (14, 1.35171563428207468860e+03) (15, -1.49933135285513185408e+03) (16, 5.38754520991410679187e+00) (17, 1.48966726877568589771e+03) (18, 8.50636174093675645480e-01) (0, -3.96604097718379478010e+02) (1, -9.97171287561731332971e+02) (2, -2.16678289934013196261e-01) (3, -5.51862124051431010230e+02) (4, 1.50000000000000000000e+03) (5, 3.98565164984359512346e+02) (6, 1.49999959134520872794e+03) (7, -1.53082172772568831931e+01) (8, 3.87279366663793041425e+02) (9, 1.49840089732078172347e+03) (10, -1.10073559104345508786e+03) (11, 1.82498630665438299481e+00) (12, -7.58474161606683651371e+02) (13, 1.49999960584999371349e+03) (14, 4.48693477055061074044e-01) (15, -1.06696634462680367506e+03) (16, -2.07792546506463580158e+01) (17, 4.99226843051812263496e+00) (18, 4.01050871735776082172e-01) (0, 1.49493374973734398736e+03) (1, -1.22639050846500012426e+02) (2, -2.13287586042948440479e+00) (3, -1.47517728867588994035e+03) (4, -1.49480570884775556806e+03) (5, -1.42900554140910458045e+03) (6, 1.49999998799999661969e+03) (7, 1.49988266999817074066e+03) (8, 1.49931035779971148258e+03) (9, -2.67357263013045439948e+02) (10, -1.48784791453775392256e+03) (11, -1.45332411581565520464e+03) (12, 1.49894850513469509679e+03) (13, 1.49999998799999661969e+03) (14, 1.49999615125568493568e+03) (15, -5.26617117899012399107e+01) (16, 1.49999998799999661969e+03) (17, 1.21866397039088019483e+03) (18, 8.48187856367681791703e-01) (0, 1.33568442892527309596e+03) (1, 2.15812506953182964287e-01) (2, -7.31946066576678866511e+00) (3, -7.82346848198076372682e+02) (4, 1.50000000000000000000e+03) (5, 1.50000000000000000000e+03) (6, -2.57828423894477737122e+02) (7, 1.20375649858981176976e+02) (8, -8.14443421672466797645e+02) (9, 1.38943264472116902652e+03) (10, -1.48200054821141657158e+03) (11, -9.39805159565715030112e+02) (12, 1.49965856951941714215e+03) (13, 1.50000000000000000000e+03) (14, -1.28554783392866273095e-01) (15, -5.22286003170825665620e+02) (16, 5.32340585357165085867e+00) (17, 1.50000000000000000000e+03) (18, 3.56281401350666604433e-01) (0, 1.06272273311838927334e+00) (1, -1.46619837170281152794e+03) (2, 2.03836441500219649470e+01) (3, 1.44981198897976937268e+00) (4, 1.50000000000000000000e+03) (5, 2.83824756115551899427e+01) (6, 1.49999956319996317688e+03) (7, 3.24350290866371215870e+00) (8, 4.33100506369637905379e+00) (9, 4.11404355730702718574e+02) (10, 1.49999956319996317688e+03) (11, 1.49999406599887356606e+03) (12, 1.49994310163702448335e+03) (13, 1.49999980799998957082e+03) (14, 1.50000000000000000000e+03) (15, 1.49999956319996317688e+03) (16, 4.06640403702927366592e-01) (17, 1.50000000000000000000e+03) (18, 5.36024065752703671173e-01) (0, 3.98307267174613732763e-01) (1, 1.16068214998269447769e+00) (2, 1.49999975779198075543e+03) (3, 7.60237311026381121337e+02) (4, 1.49997599645865011553e+03) (5, -8.36250578387271445990e+01) (6, 1.49994706736007128711e+03) (7, 4.32222873651115691018e+01) (8, 1.50000000000000000000e+03) (9, 1.49999937119995274770e+03) (10, 1.49996809601998529615e+03) (11, 1.49918409831270446375e+03) (12, -1.10313222378405018098e+00) (13, 1.49999973599998384088e+03) (14, 1.49999975779198075543e+03) (15, 1.49999320955506914288e+03) (16, -1.45841162141273321140e+03) (17, -4.69425735308213774033e+01) (18, 6.81972811635711995137e-01) (0, 1.49999955599997679201e+03) (1, 1.48434900047520409316e+03) (2, 1.74020974267726252771e-01) (3, 1.49965369137134121047e+03) (4, 3.61692123782823273359e+02) (5, 1.49999929124729942487e+03) (6, -1.06989421522610061999e+00) (7, 1.49999133083841866210e+03) (8, -1.48494481077399177593e+03) (9, 1.49998516809473790090e+03) (10, -1.49999977396214012515e+03) (11, 1.49999988959998290738e+03) (12, -9.07842871577914856118e+00) (13, -1.48711558342100829577e+03) (14, 1.71171111127492087123e-01) (15, -1.42138673665393486800e+01) (16, -9.78225184292375793405e+00) (17, 1.49847895317489201261e+03) (18, 7.54567605795628204568e-01) (0, 1.36146905430870469900e+03) (1, -3.29903540791896987550e-01) (2, -4.54178513390475373512e+01) (3, -1.49999991042045508038e+03) (4, -1.50000000000000000000e+03) (5, 2.58905388997274258145e+02) (6, -1.49142652867910669556e+03) (7, 2.19614018231476126886e+00) (8, -1.48092932669311699101e+03) (9, -2.97058547643273470840e+02) (10, -1.45666593391973992766e+03) (11, 3.44511894736552370944e+00) (12, 6.17924692221015181559e+00) (13, -1.50000000000000000000e+03) (14, -1.49999991042045508038e+03) (15, -1.49999028354208098790e+03) (16, -1.14746987104253950207e+01) (17, -9.79876226312148190800e+00) (18, -2.74165690295605890547e-01) (0, 2.40794366069842530331e-01) (1, 1.89474231953438071452e-01) (2, 3.24014266686633092829e-02) (3, 3.73459859162135338062e-02) (4, 1.55948336581354207730e-01) (5, 2.60415192596280098414e-01) (6, 3.28392051648437766076e-01) (7, -3.74643290712154478084e-02) (8, -3.11426955706591124251e-01) (9, 3.01813385204755015023e-02) (10, 2.30272921522810036787e-01) (11, -1.18099150574437622430e-02) (12, -3.37050174749096986826e-01) (13, 1.30679135407990892892e-01) (14, -1.87570174961995350671e-01) (15, 1.11939161302957534971e+00) (16, -6.08545117967350224220e-01) (17, -2.55510565199357983501e-02) (18, 2.46517896513563858352e-02) (0, 6.45107977830319185841e+01) (1, -3.32001062225863874389e+00) (2, -4.18479431745288732447e-01) (3, -8.90261721439891218211e+00) (4, -8.46921685334963399328e+02) (5, 1.49988544100641729528e+03) (6, -6.56568794840550822300e+01) (7, 1.03096255434430776887e+01) (8, -1.69875004820367714320e-01) (9, 4.96651733664801753321e+00) (10, -2.90264274380033633349e+01) (11, -1.69508229346909295998e+01) (12, 1.49999975297276932906e+03) (13, 1.45751059053928065623e+03) (14, 2.47611334087293688544e-01) (15, -1.49999412920020199635e+03) (16, 3.51523618370877977135e-01) (17, 1.49999315684143539329e+03) (18, 1.81382146353191497923e-01) (0, 1.32477671895908520128e+03) (1, 1.49999859599987826186e+03) (2, -3.33104417959782267644e+02) (3, -7.26867604948704304491e+00) (4, 1.50000000000000000000e+03) (5, 1.50000000000000000000e+03) (6, -9.98263754455114053599e+02) (7, 6.72593032414542335573e+01) (8, -1.46166436962479588146e+03) (9, -2.22989933547226598876e+02) (10, -1.49165304605371989055e+03) (11, -1.49766715211543942132e+03) (12, 1.45337569321371529441e+03) (13, 1.49999584904641324101e+03) (14, 1.49959200456147300429e+03) (15, 1.12449303314173736368e+01) (16, 5.31084060770144574803e+01) (17, 1.50000000000000000000e+03) (18, 4.53796602411629290685e+00) (0, 3.81764349835871041883e-01) (1, -8.11453209427681843025e-01) (2, 3.10944863544437066771e-01) (3, 2.47627693083746130975e-01) (4, -3.44938155462843898391e+00) (5, 1.49989191782825287191e+03) (6, 8.39766738746147850536e-02) (7, 4.86138195118780286341e-02) (8, 1.99557373379017954917e+00) (9, 8.31463916834644822806e-01) (10, 1.68298409806251603182e-01) (11, 1.82850280982342960900e-01) (12, 1.49999974799998722119e+03) (13, 1.06229179255436201856e+03) (14, 2.87597419327110970233e-01) (15, 4.19611059854664070201e-01) (16, -3.78477505429077598631e-01) (17, 6.08121838438902662105e-01) (18, 5.91977208549023595219e-02) (0, 1.11458652794384215667e+03) (1, 1.49999939692079033193e+03) (2, -8.21243344792182661251e+00) (3, -6.22908758786409521235e+02) (4, 1.07171131570916145392e+03) (5, 1.49998824742711508407e+03) (6, -1.16362606295199748274e+03) (7, 1.49998963447301730412e+03) (8, -1.43433749990429078025e+03) (9, -7.89430267119007034182e+00) (10, -1.49973560909090906534e+03) (11, 1.06254780651848363959e+03) (12, 2.54547048930888863971e-01) (13, 1.49999891882872907445e+03) (14, 1.48757036476428356764e+03) (15, -1.46819586504090352719e+03) (16, 6.23260606501339907481e+02) (17, -2.24600891588915985153e+01) (18, 7.36828928887169443129e-01) (0, 7.21903584839677869844e-01) (1, -4.53928890553868258362e-02) (2, -5.57034840804020547900e-01) (3, 4.74631804671267587548e-01) (4, -1.62993298139555631288e+00) (5, 9.00617823884020674008e-01) (6, -3.17461903256259558859e-01) (7, 1.29268725200592904390e-01) (8, -2.41362113399003108682e+00) (9, -2.43292361718088727685e+01) (10, 4.89419444984357132622e-01) (11, 1.38281270047900739506e+00) (12, 3.25063207480076643563e+00) (13, 7.35606808366670028576e-01) (14, -2.47684507370171808072e-01) (15, 3.25643561363187561408e-01) (16, -3.11427617130735212569e+00) (17, 1.09478450107769531563e+00) (18, 1.42283722843675308062e-02) (0, 4.19352127845380839855e-01) (1, -6.25031073535094128246e-01) (2, 2.91595735351453333450e-01) (3, 1.39601038574939911863e-01) (4, -7.31214473549935650709e+00) (5, 2.40186280163910339525e+02) (6, 9.89671836701224438837e-02) (7, 1.54406096426178557346e-01) (8, 4.76211529515660536571e-01) (9, 2.95951572396772100149e+00) (10, 1.24443366322002535451e-01) (11, 7.63670269902527593109e-02) (12, 1.50000000000000000000e+03) (13, 9.85587373629257854191e+02) (14, 2.24580582874017165018e-01) (15, -8.57772590675244916980e-01) (16, -7.41286424037636143547e-02) (17, 7.23682708538672447851e-01) (18, -4.83909072225469361062e-02) (0, 1.24416904828470137545e+03) (1, 1.49999790555186405072e+03) (2, -6.26037861726569055953e-01) (3, -1.49789261560906766135e+03) (4, 1.48148616994831991178e+03) (5, 1.49995465080000485614e+03) (6, 7.10828480153576947487e+02) (7, 1.49998417431524489984e+03) (8, -1.49600772611043521465e+03) (9, -3.71614945065690491788e+01) (10, -1.49927439207404086119e+03) (11, 7.94228737841550014309e+01) (12, 1.44876240520110377474e+03) (13, 1.49999928732259604658e+03) (14, -1.50000000000000000000e+03) (15, 8.17020428996219294504e+01) (16, 1.49992424252558225817e+03) (17, 1.07638793455145287226e+03) (18, 1.17819359298055115204e+00) (0, -1.49999922479994006608e+03) (1, 1.50000000000000000000e+03) (2, 2.63848639206721302664e-02) (3, 2.53552192532312803408e+00) (4, 1.49984856897879512871e+03) (5, 6.53532937818338268698e+02) (6, 1.50000000000000000000e+03) (7, 1.54005316849583493877e+02) (8, -1.74199987559834479356e+00) (9, 1.70425866174205879133e+02) (10, 6.81726980156996432925e+02) (11, 1.49886019555899656552e+03) (12, -1.49984794539118570356e+03) (13, 1.49373340316865369459e+03) (14, 1.38654335315987964350e+00) (15, 1.49785336768216961900e+03) (16, -6.25595417464026809284e+02) (17, -3.25892954674579584662e+01) (18, 2.31850978964676268657e-01) (0, 5.49747881346668187952e-01) (1, -2.41825086183702211429e+01) (2, 2.59574472352676444142e-01) (3, -1.63762926564215050007e+01) (4, -4.31120647011888920019e+01) (5, 1.49988088238575301148e+03) (6, -2.48924114337650659312e-01) (7, 2.13321281534365941868e-01) (8, 4.39163292815535399871e-01) (9, 1.49999937119995274770e+03) (10, -4.80187851781932739659e-01) (11, 8.68185115275610375107e-02) (12, 1.50000000000000000000e+03) (13, 1.49887424082579468632e+03) (14, 3.91277416678251221960e-01) (15, -1.46281591993637175619e+03) (16, -5.45105145031301654979e-02) (17, 5.47544703812221840167e+01) (18, 8.16987459835683688114e-02) (0, 8.05272293795387554383e+02) (1, 1.79469218259663554349e+00) (2, -8.75519988509828928080e-01) (3, -3.89928317324645901110e+00) (4, 1.40626906448464455934e+03) (5, 1.50000000000000000000e+03) (6, -6.45209853488632120389e+02) (7, 1.49999740194515334224e+03) (8, -2.10952756438635269376e+01) (9, -8.28809202397165378784e+00) (10, -5.70509209660825263200e+02) (11, -1.24773862364964443827e+02) (12, 5.07936476838946604495e-01) (13, 1.49999943119995509733e+03) (14, 1.31292311543818609465e+01) (15, -1.46888674209118789804e+03) (16, 1.50000000000000000000e+03) (17, 1.13482020802055308195e+03) (18, 8.41526095170728849482e-01) (0, -1.17239373455830089843e-01) (1, -4.62525980738152153737e-01) (2, -3.62011146836333119747e-01) (3, -4.02161590235161070517e-01) (4, -1.75041687405969412339e+02) (5, 8.83817724532143134120e-01) (6, -1.57606569003056984357e+00) (7, -3.45428490301768545412e-02) (8, -3.28842385410712785901e-03) (9, -7.14843393986434483267e-01) (10, -1.68743335461507570905e+00) (11, -1.51974082223121781388e-01) (12, 2.08241074208390969380e-01) (13, -9.43819037177369007940e-02) (14, -8.35588755795070525778e-01) (15, -1.48975827883089641546e+03) (16, -3.33091678712293393083e-01) (17, 2.71473937117879982051e-01) (18, -9.93243917773141554717e-02) (0, -5.07667516455671763431e-01) (1, 6.56550868952300636927e-01) (2, 1.49999889858780966279e+03) (3, 5.73008264789373882309e+01) (4, 6.11791241629399884516e+00) (5, -6.46745564866034214901e+02) (6, 1.49999351290465256170e+03) (7, 2.29880664278940656686e+02) (8, 1.49254232387911611113e+03) (9, 3.29518428491978143668e+00) (10, 1.49999975999999060150e+03) (11, 1.49983408240566313907e+03) (12, 7.05999347906708596412e-01) (13, 2.62483175309365378780e+02) (14, 1.49999975999999060150e+03) (15, 1.49999508174517904990e+03) (16, -1.31012761208697156690e+03) (17, -1.78365201892504665615e+00) (18, 8.83064174648664046430e-01) (0, -3.39848496262358512610e+00) (1, 1.50000000000000000000e+03) (2, -5.66626606626295048486e-01) (3, 3.22584739535858489035e+00) (4, 4.01176476684996341504e+00) (5, 4.95069313906591190744e+01) (6, 1.50000000000000000000e+03) (7, -5.65225650109889121708e-01) (8, -1.40699657666755399532e+02) (9, 1.69868087789332089521e+00) (10, -4.82900485423899983317e+00) (11, 1.49986134913167484228e+03) (12, -1.65830425990153912608e+02) (13, -9.75989642185973821142e+02) (14, -2.66435964660174051666e-01) (15, 1.49986802456175109910e+03) (16, 1.14329224761454059656e-01) (17, 4.87840885873757414970e+01) (18, -1.35850746966780372427e-01) (0, -8.87642154080776762948e-02) (1, 1.33765408477956662670e-02) (2, -2.43908785262086758028e-01) (3, -6.85467571238842499071e-02) (4, -2.56420688291760755229e-02) (5, -2.16704820569899037075e-01) (6, -1.15616916163316291177e-01) (7, 8.66162262766511925616e-02) (8, 5.19895800443815822578e-02) (9, -5.89000324491463778109e-02) (10, -1.65436766244391825209e-01) (11, 1.53184311573473591617e-01) (12, 1.75246707981458776926e-01) (13, 1.50358670455990033749e-02) (14, -1.65601877750737175310e-02) (15, 6.52977115360409282596e-02) (16, 1.00619538586264711810e-01) (17, 5.57849826956993873062e-03) (18, -3.45074246831808262304e-02) (0, 4.21788148378212301992e+00) (1, 1.49999980799998957082e+03) (2, 3.01848959996687427054e-01) (3, -5.79838963692894026281e+02) (4, 1.49999894159609084454e+03) (5, 4.06706485957230867712e+00) (6, 1.49999980093435760864e+03) (7, 4.04710465400568153438e-01) (8, -2.61138348569792277942e+00) (9, 6.04077335177585723613e+02) (10, 1.49999922973431148421e+03) (11, 1.49999980799998957082e+03) (12, 1.49999865826171594563e+03) (13, 1.49999980799998957082e+03) (14, 1.49999980093435760864e+03) (15, -7.15922358932143993115e+02) (16, 4.03251356888392933797e+02) (17, 1.49999980799998957082e+03) (18, 5.47861682024747942421e-01) (0, 7.56767864835407311208e-02) (1, -1.49471640275355866834e+03) (2, -1.00448568226081991206e+00) (3, -8.98850833790047487604e-01) (4, -7.93639589971185017703e+01) (5, 3.28880647208933452053e-01) (6, -6.31681139772939603816e-01) (7, 3.41103094845740395513e+00) (8, 1.87842716888163541178e+00) (9, -4.03045106055913322507e+01) (10, -3.38094278513563106792e-01) (11, -5.04551249896680986673e-01) (12, 3.45013496143558828777e+00) (13, -2.54240801511886749253e+00) (14, -2.74873393630638784835e-01) (15, -2.96325018583697863406e-01) (16, -2.11151284635959585190e-01) (17, -5.99770807819043239029e-01) (18, -8.64711448284251060770e-02) (0, 7.47818561618935673252e-01) (1, -1.37024455999338260881e+03) (2, 7.49209500290536789535e-01) (3, -3.43777090134072977889e+02) (4, 1.50000000000000000000e+03) (5, -1.85096956717616700772e+00) (6, 9.04674649696082333605e+00) (7, 5.17486833318771766166e-01) (8, 1.50000000000000000000e+03) (9, 3.48221153674128480748e-01) (10, 5.02994870337630786139e+01) (11, -5.59023230274361253578e+01) (12, 1.49925257026017015960e+03) (13, 1.50000000000000000000e+03) (14, 1.50000000000000000000e+03) (15, 1.49999676529428666072e+03) (16, 8.60520386805757930837e-01) (17, -9.10683463354531681944e+02) (18, 5.97197008671806250923e-01) (0, 5.71549272670069274938e-01) (1, 1.25088818481761065993e-01) (2, 3.01695188123072166597e-01) (3, -1.45909799226694864016e-02) (4, 4.99716441483607533292e-03) (5, 1.32413193265432271861e-01) (6, -2.21309302581775453611e-02) (7, 6.97443988402709491581e-02) (8, 1.65759568747255447985e-01) (9, -1.35590862320997235235e-01) (10, -7.45916538663388140051e-01) (11, 3.18668835510472148176e-01) (12, -1.03985570651897840655e+00) (13, -1.49199593841112171377e-01) (14, 1.40607038984543381011e-01) (15, 9.19065434554247717713e-01) (16, -3.45237536997322569388e-01) (17, 1.00543158647359476277e+00) (18, -5.15860620780055970092e-02) (0, 3.62313464573432164606e-01) (1, 1.50000000000000000000e+03) (2, 9.13210230215931284548e-01) (3, 5.75690315526122844858e+02) (4, 8.33869304602025295026e+02) (5, 4.37437945749909999904e+02) (6, -1.57356616753886328297e+02) (7, 2.04699546434989478882e+01) (8, -2.07563921752179311397e+02) (9, 4.83740032529959705698e+02) (10, -5.57345995691988616016e-01) (11, 9.10562184257836904067e+00) (12, -2.80425161301490390997e+01) (13, 1.02805122341301728994e+01) (14, 4.42678972920635693811e+00) (15, 1.57382590165686071515e+01) (16, -1.35012921614745735610e+01) (17, 2.17136285665556059143e+01) (18, 7.45893197950721620337e-01) (0, 4.51737043901199009088e-01) (1, -1.45044044934149551906e+00) (2, -1.80060707024155330913e+00) (3, -4.57000693254594803072e-01) (4, -1.50000000000000000000e+03) (5, 8.86990865279959450618e+00) (6, -2.80406082342956031184e+00) (7, 6.49261492907408310771e-01) (8, 2.34258738413234024467e-01) (9, -1.35399168938843075694e+02) (10, -1.36109089725621745792e+00) (11, -9.55460838693960745616e+00) (12, 4.46454469803917397552e-01) (13, -1.45325418209173881223e+03) (14, -7.22820413908105940948e+00) (15, -1.47639208955686581248e+03) (16, -7.12236063311530581688e-02) (17, 1.07048773539756103546e+00) (18, -1.44334855842699200101e-01) (0, -3.77297335544517853378e+00) (1, 1.34722487516633376847e-01) (2, 1.49999950319996082726e+03) (3, 8.17221856900782199773e+01) (4, 1.92854199438881090956e+00) (5, -4.69220860299387325654e+01) (6, 1.49999443991179032309e+03) (7, 1.60231561412244793985e+01) (8, 1.50000000000000000000e+03) (9, 9.64891947204560551654e+00) (10, 1.50000000000000000000e+03) (11, 1.49986952467233595598e+03) (12, 8.72620634449996934734e-01) (13, 2.05390020743275627524e+01) (14, 1.50000000000000000000e+03) (15, 1.49999950319996082726e+03) (16, -7.80752093629517105455e+01) (17, -1.69690999569982570172e+00) (18, 7.13752406395501748371e-01) (0, -9.90707740031665728964e+00) (1, 1.49999926778351323264e+03) (2, -8.19516965347689974042e-03) (3, 3.48667852599422900539e+00) (4, 1.49956294051873510398e+03) (5, 1.50000000000000000000e+03) (6, 1.50000000000000000000e+03) (7, 7.24841675264641160936e+00) (8, -1.35060796177805377738e+03) (9, 1.46078381589276818886e+03) (10, 4.32372808948113307448e-01) (11, 1.49983775728874297783e+03) (12, -1.49918288797793616141e+03) (13, 1.49996975468876507875e+03) (14, 1.87927549882818900606e+00) (15, 1.49987319650593008191e+03) (16, -4.35759169393410203952e+01) (17, 9.40995323646563464060e-01) (18, 2.18256245989315089684e-01) (0, 1.49832334273333526653e+03) (1, 5.41052912585466174278e+02) (2, -5.52097725732178012947e+00) (3, -1.49922072208210511235e+03) (4, 1.49999900845429169749e+03) (5, 1.49989733537729807722e+03) (6, -2.50544843520127784586e+01) (7, 1.49999281035697254083e+03) (8, -1.21908551770101869494e+00) (9, -2.31709874978135710322e+00) (10, -9.36017941482362289207e+02) (11, -1.40754508064773881415e+03) (12, 1.49993986490473184858e+03) (13, 1.49999963759997012858e+03) (14, 1.43545126032325561027e+03) (15, -1.48403170571524901789e+03) (16, 6.65417826078808047896e+02) (17, 1.45569363951569016535e+03) (18, 6.41442538570769493766e-01) (0, -1.49999941679995049526e+03) (1, 1.49851085831289219641e+03) (2, 2.86672210088071477418e-01) (3, -2.70924234169451949583e+01) (4, 1.49960607065903514012e+03) (5, 9.20261758509836681696e+02) (6, 1.50000000000000000000e+03) (7, -1.17017534402687056172e+03) (8, -1.93824602483966081934e+01) (9, 1.48798615370759807774e+03) (10, 1.49998464178993344831e+03) (11, 1.39482927359381847054e+03) (12, -1.49993158255195407946e+03) (13, 1.49588239147144076924e+03) (14, 6.66222394827489416969e+00) (15, 1.49954178346894673268e+03) (16, -4.57480366536516214637e+02) (17, 1.79777984232190597425e+01) (18, 1.34342716107083592902e-01) (0, 8.66720038274965531855e+02) (1, 1.49999928374395403807e+03) (2, -3.56975049726621618262e+00) (3, -2.27343874053133731650e+02) (4, 1.49789918792622847832e+03) (5, 1.49926235770340304043e+03) (6, 1.05275938542410494847e+03) (7, 1.49993777168768201591e+03) (8, -4.13428141275686726885e+01) (9, -1.28061359159799872032e+03) (10, -1.45419148480444277993e+03) (11, 5.62838351484512173784e+01) (12, 1.49993242577633418477e+03) (13, 1.49999956559996439864e+03) (14, 4.58028163920610040805e+02) (15, -1.40799629470417994526e+03) (16, 5.80658131159928281306e+00) (17, 1.49908611227636174590e+03) (18, 8.01070048825686775729e-01) (0, 1.49999981999999295113e+03) (1, 1.49999981999999295113e+03) (2, 1.49999585729465411532e+03) (3, 1.49994710880496222671e+03) (4, 1.50000000000000000000e+03) (5, 9.00657651446233330716e+02) (6, 1.49999966399999266287e+03) (7, 8.90176467192967391107e-01) (8, 8.32302959459777169648e-01) (9, 7.07252803761437731644e-01) (10, 1.49998691514427196125e+03) (11, 1.50000000000000000000e+03) (12, 5.47476939966784814651e-01) (13, 1.49999966399999266287e+03) (14, 1.49999981999999295113e+03) (15, 1.49999981999999295113e+03) (16, 1.78549620627076088830e+00) (17, 1.50000000000000000000e+03) (18, 8.41984753423568932362e-01) (0, 3.71541778887820328237e+02) (1, 4.78241988021603514625e+00) (2, 2.07303018841860726695e+01) (3, 4.92542827357064254556e+02) (4, -5.45405722258102741762e+02) (5, -1.49706067470454672730e+03) (6, 1.49999925824197339352e+03) (7, -6.97444930064734184422e-03) (8, -6.48559769244224497697e+01) (9, -4.42727467513216499384e+00) (10, 1.46489344758558377180e+03) (11, 2.77964266018520440582e+01) (12, -1.49999928952355617184e+03) (13, 1.49999925824197339352e+03) (14, -9.84839474493808552324e+02) (15, 1.49995963451268107747e+03) (16, 1.50000000000000000000e+03) (17, 1.50000000000000000000e+03) (18, 5.69896622170572242361e-01) (0, 1.46056626952481587978e+03) (1, 6.50651804828585369478e+01) (2, 8.29066495062048269826e-02) (3, -1.15428007438542726959e+03) (4, 7.87106957912838378633e+00) (5, 1.50000000000000000000e+03) (6, -5.24701742843369878244e+00) (7, 1.49999969971196219376e+03) (8, -1.49865531098443898372e+03) (9, 1.15167728199547098056e-01) (10, -1.42988479150910734461e+03) (11, 1.49148426811981380524e+03) (12, 5.92183556218118911652e-01) (13, 4.29448387957290890427e+02) (14, -4.87040995791950138027e+02) (15, -5.29204728561007073040e+02) (16, 1.50000000000000000000e+03) (17, 5.11130483124196288713e+01) (18, 8.81864954507811438233e-01) (0, 7.98883549142607396476e-01) (1, -3.15721579105757355066e+00) (2, 7.28125518785462721993e-01) (3, -1.04951913850913181037e+00) (4, -1.37465067715280582661e+02) (5, 1.49695864222360887652e+03) (6, 4.21892809680010416606e-01) (7, 1.78784279130892981291e-01) (8, 1.95852910847624812618e+01) (9, 1.49999860079990980921e+03) (10, 4.44659942306164124304e-01) (11, 1.52544969849875866608e+00) (12, 1.49999950319996082726e+03) (13, 4.22409690417023000464e+01) (14, 4.49527828496788073309e-01) (15, 3.48730264753122576327e-01) (16, -5.56906838929337677513e-01) (17, 3.88836435117248679916e+00) (18, 2.72387796849435148694e-01) (0, 1.39216519551849526870e+00) (1, -1.49829845805670356640e+03) (2, 4.76251383436475717037e-01) (3, 1.50000000000000000000e+03) (4, 1.50000000000000000000e+03) (5, 1.43449949585174567801e+03) (6, 1.50000000000000000000e+03) (7, -4.88736540668078534022e-01) (8, 1.49999235129442854486e+03) (9, -4.58521473493661517296e+02) (10, 1.49552172219489392546e+02) (11, -1.44035271398613485871e+03) (12, 1.49999964959997350888e+03) (13, 1.49999387278516223887e+03) (14, 1.50000000000000000000e+03) (15, 1.49999789719571163005e+03) (16, 1.22034149067845709702e-01) (17, 1.18092264453444613537e+03) (18, 3.07271447547908971298e-01) (0, 2.61386496126579714883e-01) (1, -2.57867073238065985796e-02) (2, 1.49858762691127571998e+03) (3, 1.06932598431362233526e+01) (4, 7.74422641700932334885e-01) (5, -1.07699132882362050623e+03) (6, 1.49999183457808226194e+03) (7, 1.28681805060515519479e+00) (8, 1.48820783142803929877e+03) (9, -1.64169478614951458439e+00) (10, 1.50000000000000000000e+03) (11, 1.49987892938562663403e+03) (12, 1.50696551082034668756e-01) (13, 1.21906541714697458367e+00) (14, 1.50000000000000000000e+03) (15, 1.49999217145325474121e+03) (16, -2.02817035442186792693e+01) (17, -6.04522544373057790779e+00) (18, 5.79419893746107583787e-01) (0, 1.48181761696070501966e-01) (1, -2.40532612488948842611e+01) (2, 2.00825283036270313408e-01) (3, -1.35529032857591480443e+00) (4, -2.39448350099319418050e+00) (5, 1.49967715192509717781e+03) (6, 3.67458949444233851089e-01) (7, -4.04975361815455639491e-02) (8, 1.85516504270678765920e+01) (9, 2.12090943650749430560e-01) (10, 2.48756553780355660344e-01) (11, 1.91456179738945381219e-01) (12, 5.19313037128665314413e+02) (13, 5.97515504044142289786e+02) (14, 4.59946502841070248291e-01) (15, 1.42043108702353447370e+03) (16, -1.67587967800882386982e+00) (17, 5.28296578109671358114e-02) (18, -3.66038569620602419544e-03) (0, 1.45826991652815308953e+03) (1, 1.49999586921854574939e+03) (2, 1.31716056763251435768e+03) (3, -1.53477753748873162465e+01) (4, 1.13200101703513132634e+03) (5, 1.49998996643355462766e+03) (6, 5.69662895786546386034e-01) (7, 1.49999232890852408673e+03) (8, -1.49686108697243162169e+03) (9, -2.92830101666069538169e+02) (10, -1.49588210562622020916e+03) (11, -5.45143211419381032101e+02) (12, 1.47683016843394625539e+03) (13, 1.49999836765424106488e+03) (14, 1.49845193106305282527e+03) (15, 1.46705459167136973520e+03) (16, 1.49993711238234959637e+03) (17, 1.49731975487847239492e+03) (18, 8.88781684974928376519e-01) (0, -5.91324085234029128699e-01) (1, -7.53857518538380899642e-01) (2, 2.65258830594453154372e-01) (3, 4.24516830703090042309e-01) (4, -2.63046666366113013336e-01) (5, -8.87977880444856593201e-01) (6, 1.06984900950266026420e-01) (7, 2.98427744957790397340e-01) (8, 3.24447470207993859947e-01) (9, 5.51981303204058026957e-01) (10, -1.95351763672545114536e-01) (11, -5.32367154173113199533e-01) (12, 3.28674432783442216355e-01) (13, 6.62453405953680879437e-02) (14, 6.70321694173216242607e-03) (15, 1.74211283338242067797e-01) (16, -2.85917614712357659457e-01) (17, 9.21859538152382113063e-02) (18, 1.40817845420472709250e-01) (0, 2.51396204818931379155e-01) (1, -9.62755982766260731687e-01) (2, 2.27759915815918728699e-01) (3, 8.34791689642307659369e+01) (4, -6.02307193283685204932e+00) (5, 1.84816920886199476115e+00) (6, 2.22293552823850770750e-01) (7, -1.03489152214402246877e+00) (8, 2.36515296552850990963e+01) (9, 3.03109050677248137440e-01) (10, 1.24386753744342271055e-01) (11, 1.97183417670715011027e-01) (12, 7.23072965088344421503e+00) (13, -2.16379449266808059349e+01) (14, -9.03307099885512776449e-02) (15, 1.89681456141852002872e+01) (16, -1.42613001918655912803e+00) (17, -2.01099974423109312260e-01) (18, -6.26374947151760314012e-02) (0, 8.75136406198660732336e-01) (1, 8.67988322088945385424e-01) (2, 4.19245122970270223117e-01) (3, 1.48372526227785192532e+03) (4, -1.43802680497429969364e+03) (5, 1.49999986912122085414e+03) (6, 1.02719773161601661826e+01) (7, -2.81113059461007264161e+00) (8, 1.49633463523705995613e+03) (9, 1.49999991599999088976e+03) (10, 1.80109926161614197770e-01) (11, 1.50000000000000000000e+03) (12, 1.50000000000000000000e+03) (13, -1.47706582605832250010e+03) (14, 2.95567648823047389450e-02) (15, -5.10930567837896660421e+02) (16, -2.32912311938292276636e+02) (17, 1.59178190363683995656e+01) (18, 2.81228247464591574190e-01) (0, -1.43573251548493741048e+00) (1, 1.78567388661842898046e+02) (2, 4.55370543994862847503e-02) (3, 2.93433596944930847883e+01) (4, 1.49921779047492032078e+03) (5, 3.93009965815556299162e+01) (6, 1.50000000000000000000e+03) (7, 1.37603064940779950120e+03) (8, -2.56784401906399173399e-01) (9, -8.20911013412220924579e+00) (10, 7.21103920185613787908e+02) (11, 1.49987827444479921724e+03) (12, -4.33741694097428819532e+02) (13, -9.74773724774208744748e+02) (14, 1.30900242184490345210e+00) (15, 1.49941882458022223545e+03) (16, -1.30999768524737305597e+02) (17, -4.75306145248459799291e+00) (18, 1.01762781131049709349e-01) (0, 1.49999973599998384088e+03) (1, 1.50000000000000000000e+03) (2, 1.49999967154167461558e+03) (3, 1.49999870037012374269e+03) (4, 1.50000000000000000000e+03) (5, 1.50000000000000000000e+03) (6, 1.50000000000000000000e+03) (7, -2.21179348309987044985e+00) (8, -3.35636063419169783373e+00) (9, 1.49999960584999371349e+03) (10, 1.49999943655173660773e+03) (11, 1.49999930879994917632e+03) (12, -2.41778604278249780180e+01) (13, 1.50000000000000000000e+03) (14, 1.50000000000000000000e+03) (15, 1.49999954712564999681e+03) (16, -1.33620582301969920991e+03) (17, 1.50000000000000000000e+03) (18, 2.51520560836628048751e-01) (0, 4.82648424417016608245e-01) (1, 1.03455787048355787761e+02) (2, 1.49999975999999060150e+03) (3, 1.02064999246929613008e+01) (4, 1.39925279063689714576e+02) (5, -1.30227861370120412410e+00) (6, 1.49999971645433106460e+03) (7, -1.49991385066210227706e+03) (8, 1.49999975999999060150e+03) (9, 1.91812694806978689677e+00) (10, 1.49999909759994898195e+03) (11, 6.87117613410156025111e+01) (12, 1.21257634493975907652e+00) (13, 1.48111561984779740442e+02) (14, 1.49999975999999060150e+03) (15, 1.49999783591784239434e+03) (16, -9.33849462733389201752e-01) (17, -9.01003174481165558518e+00) (18, 3.72541851471172857924e-01) (0, -2.37264663662370804686e-02) (1, -7.60281015834165998513e+01) (2, -1.72318967423322639831e+01) (3, -1.62217935981106592180e+02) (4, -6.20187005439839595056e+02) (5, 3.67703258020917900240e+00) (6, -1.14830041224782259945e+01) (7, 2.66309743861577352675e-01) (8, 6.19953347386714703759e+00) (9, -5.29618342447562966413e+01) (10, -9.45662829122004382043e+02) (11, -8.13827877401241961408e-01) (12, 1.86266975816448177028e+00) (13, -1.50000000000000000000e+03) (14, -1.11700603996008274166e+00) (15, -1.49985393827977077308e+03) (16, -2.72302943587875923015e+00) (17, -7.46102453753492267374e-01) (18, -2.56680583534365625020e-01) (0, 6.59822371900406767775e-02) (1, 1.45640404721350402717e+00) (2, 1.49999264006884254741e+03) (3, -8.12563760797295344673e+02) (4, 1.50000000000000000000e+03) (5, -4.38486240090552882975e+02) (6, 1.49999868376558265481e+03) (7, 1.49996897331307468448e+03) (8, 1.90744178209377679423e+00) (9, 6.24127286280615489744e+00) (10, 4.14261614743552453177e+00) (11, 1.48888622647471788696e+03) (12, -1.49999951759996542933e+03) (13, 1.50000000000000000000e+03) (14, 1.46888695455424726788e+03) (15, 1.49999704443109681051e+03) (16, -7.93129406446205376113e+00) (17, -7.87412228482937166518e+02) (18, 8.14605246261722815149e-01) (0, -8.55939120043030798879e-02) (1, 1.15765300541108562271e+00) (2, 1.30638779533117599385e+02) (3, 1.50000000000000000000e+03) (4, 1.50000000000000000000e+03) (5, -2.32100192262649017039e+02) (6, 1.50000000000000000000e+03) (7, -1.49940073103184909087e+03) (8, 1.50000000000000000000e+03) (9, -3.15093017157466519507e+01) (10, 1.50000000000000000000e+03) (11, 2.86491685143815288939e+02) (12, -5.76506352100486285650e-01) (13, 1.49999998319996507234e+03) (14, 4.02815491935681905034e+02) (15, 1.49999915414393262836e+03) (16, -1.24689239492417073052e+03) (17, -7.04849641728627602788e+01) (18, 8.12915000196107517816e-01) (0, -1.01008044894132550939e-01) (1, 3.21462334639484694776e+01) (2, 1.86703740662618439261e-01) (3, 8.29557006956548370624e+00) (4, 1.49985260545211826866e+03) (5, 1.50000000000000000000e+03) (6, 3.31500134298105777475e+01) (7, 3.61652963221089862600e+01) (8, -1.06052594258802264449e+03) (9, -7.08148189856158865041e+02) (10, -8.32093366939736078791e+00) (11, 1.49996460156737589386e+03) (12, -7.36945115756665547480e+00) (13, -5.52328453426606813537e+01) (14, -8.92434432168491387216e-01) (15, 4.36091169144080623710e+01) (16, -4.75923819619325598751e+01) (17, 1.43096945038296591290e-01) (18, 3.05493474227781114383e-01) (0, 3.46255622346351210616e-01) (1, -7.73290479491661741918e-01) (2, 4.49385765946236304114e-01) (3, -1.12446400473938741271e+01) (4, -3.22533933468502631570e+00) (5, 1.49982004748636973090e+03) (6, 2.66239301387104949914e-02) (7, 3.05995528793555127134e-01) (8, 6.60219856342259658888e-01) (9, 1.49999896079992390696e+03) (10, -6.84750743498884872906e-01) (11, 2.38561178641910454079e-01) (12, 1.49999974799998722119e+03) (13, 3.67057364515202664279e+01) (14, 3.83586276862266539744e-01) (15, -1.49363101207517502189e+03) (16, -3.61048883599528969146e-01) (17, 1.33585122867864379259e+03) (18, 2.00240001851326038240e-01) (0, 7.70576658004724746043e-01) (1, 1.49999975999999060150e+03) (2, -1.23412327975560592863e-01) (3, 2.19612909199242494651e+02) (4, 1.49900208849850810111e+03) (5, 4.80094430662566518109e-01) (6, 1.50000000000000000000e+03) (7, -2.53132514197788616173e+01) (8, 1.90662929307259032541e-01) (9, 1.52408579135390853665e-01) (10, -4.45113154785378661860e-01) (11, 7.73777095244383095185e-01) (12, 4.37044111320785466646e-01) (13, 1.49978305232696811800e+03) (14, -3.10152207886257198777e-02) (15, 2.71995161318379752302e+00) (16, 7.17180742473992882680e-01) (17, 1.10834288839342431920e+00) (18, 2.00214848067424705524e-01) (0, 1.49999983199998177952e+03) (1, 8.70616582568722430224e-01) (2, -8.37384948980588045275e-02) (3, -1.49929174042051272409e+03) (4, 1.67476551556269881438e+00) (5, 1.61925375075208734188e+02) (6, -4.66904185554481045983e+01) (7, 1.49999957999996900071e+03) (8, -1.33727388010898107495e+03) (9, -4.55575531687282975213e+00) (10, -1.46404752397355309768e+03) (11, -3.48812315248590039118e+01) (12, 1.22110760941131823998e+00) (13, 1.46509157812372836815e+03) (14, 1.49999980799998957082e+03) (15, -1.74977151673186511971e+02) (16, 1.49998083811282822353e+03) (17, 2.48917103480141221894e+01) (18, 6.91897773056271092607e-01) (0, -3.74404799574214521840e+01) (1, 1.21492014756948996101e+00) (2, 1.49999949119995744695e+03) (3, 1.49995519917173032809e+03) (4, 1.50000000000000000000e+03) (5, -1.50000000000000000000e+03) (6, 1.49995204129108833513e+03) (7, 6.83949976923889153113e+02) (8, 1.50000000000000000000e+03) (9, 4.06712481413498707639e+01) (10, 1.49999950319996082726e+03) (11, 1.49987983588320776107e+03) (12, 1.84690641713207726049e+00) (13, 1.49999949119995744695e+03) (14, 1.50000000000000000000e+03) (15, 1.49999814743629599434e+03) (16, -3.68581974784713679583e+02) (17, -8.01707273030866218733e+01) (18, 5.03314758610288293106e-01) (0, -2.58851220751295463263e-01) (1, 2.45426965136434738213e+00) (2, 1.49999975999999060150e+03) (3, 8.09844760572929232012e+01) (4, 4.87450154545656744176e+00) (5, -2.31911927693914890369e+02) (6, 1.49999572105428273971e+03) (7, -5.63935459129195564287e+01) (8, 1.49440542724960801024e+03) (9, -4.02852919167659617727e+00) (10, 1.49999975999999060150e+03) (11, 1.49988786998435284659e+03) (12, 4.79999584748853680427e-01) (13, 1.29304722326774196972e+02) (14, 1.49999975999999060150e+03) (15, 1.49999711876216633755e+03) (16, -4.08166690865561605506e+01) (17, -5.78392135223990155879e+00) (18, 5.59049693769929301190e-01) (0, 1.48147078077980245325e+03) (1, 1.49999628839777074063e+03) (2, 4.76753245938580871854e-01) (3, -1.49990117744900203434e+03) (4, 1.50000000000000000000e+03) (5, 1.76268686633182869450e+00) (6, -1.49028904245245189486e+03) (7, 1.49999985359998731838e+03) (8, -8.98195981044668769755e+02) (9, -2.95859826834755557101e+00) (10, -1.49998022358025468748e+03) (11, -1.48066459058902387369e+03) (12, 1.49974478062707203208e+03) (13, 1.49999990400000206137e+03) (14, 1.49986627352278128456e+03) (15, -2.70310748640292652922e+00) (16, 1.49999990400000206137e+03) (17, 1.48945580421190652487e+03) (18, 6.95225342939545742915e-01) (0, -9.56967480855797601735e-03) (1, 8.95197688376705436042e-01) (2, 2.63580775142972026370e-02) (3, 3.00422582614323419037e-01) (4, 5.81285244303152981438e-01) (5, 2.63179365725637992579e-01) (6, 8.63152343795936527471e-02) (7, 5.57442095443880306083e-02) (8, 3.38123042692342890003e-02) (9, 1.42054780563086263667e-01) (10, -1.68557619245927181595e+00) (11, 4.38266069469972152639e-01) (12, 6.08139259441773383230e-02) (13, -1.68861475200273752906e-01) (14, -2.56391699822150154198e-01) (15, 2.24245505351714391473e-01) (16, 1.73714413669028261422e-01) (17, 7.40997977983285482928e-01) (18, 2.11544922064461266009e-01) (0, 3.27527289724824255401e-01) (1, 2.66027755116459395379e-02) (2, 8.00990432825989667753e-02) (3, -5.75054961799666086719e-01) (4, -7.27171146454801487380e+02) (5, 1.45233960284774911997e+03) (6, -9.64883094243623555542e-03) (7, 2.54396564505157185554e-01) (8, 1.09939107765462465438e-01) (9, 1.72646956132188442723e+01) (10, 6.67987046795434497026e-02) (11, 1.41238605209509204830e-01) (12, 1.49999950319996082726e+03) (13, 1.22499980148422923776e+03) (14, 3.99023160988636216295e-01) (15, -1.29691092941081615209e+03) (16, 1.39217708459252437203e-01) (17, 1.28146786033361678392e+02) (18, 6.41422137641221856708e-02) (0, 9.99906231732643050236e+02) (1, 6.97805194061130151795e+01) (2, -8.10476199521334983444e-01) (3, -1.06634167832182583879e+02) (4, 1.49999759618818325180e+03) (5, 1.49999532335064418476e+03) (6, 3.18782405500224342632e+02) (7, 1.49998888994611411363e+03) (8, 8.78393892236203896573e+02) (9, -5.83085231864762909559e-01) (10, -1.49999804711112278710e+03) (11, 1.47079541302208056663e+01) (12, 1.50000000000000000000e+03) (13, 1.49596826350309629561e+03) (14, 1.42840757873744792050e+03) (15, -1.49538756838747030997e+03) (16, 1.49991546363839734113e+03) (17, 1.49810262645425973460e+03) (18, 7.80763523610755738602e-01) (0, 1.50000000000000000000e+03) (1, 1.49999972399998046058e+03) (2, -8.55571998941550759810e+00) (3, -1.49975707129460010947e+03) (4, 1.49754029435187453601e+03) (5, 1.49987276889203963037e+03) (6, -4.87682937837853955898e+02) (7, 1.49999745999559127085e+03) (8, 1.42397552866629575874e+03) (9, -1.37121108913099146775e+03) (10, -1.43050596369778645567e+03) (11, -1.48883130366906198105e+03) (12, 1.50000000000000000000e+03) (13, -1.45116588977679475647e+03) (14, -1.50000000000000000000e+03) (15, -1.23083962292122623694e+03) (16, 1.49984392814384273152e+03) (17, 1.41796902002107913177e+03) (18, 6.62214885785050944023e-01) (0, 5.45675168751124317623e-01) (1, -1.28699772509880672189e+00) (2, 4.23075980730778899996e-01) (3, 2.39256538947113472915e+00) (4, -1.06708606083668132669e+03) (5, 1.49984534311771062676e+03) (6, 2.73561196056376410013e-01) (7, 1.65418261194648918977e-01) (8, 5.22658690009601523130e-01) (9, 1.49999885759993958345e+03) (10, 8.12733111466145269342e-02) (11, 3.47901129823538768360e-01) (12, 1.50000000000000000000e+03) (13, 5.78970420911027304101e+02) (14, 4.78294200791289203512e-01) (15, -2.09237734649806927933e+00) (16, -1.09326304127364615226e+01) (17, 2.21708608854776700881e+00) (18, 2.51844495339311302828e-01) (0, 1.49999956319996317688e+03) (1, -5.11028084619843241398e+02) (2, 1.49999397174231535246e+03) (3, 1.49997113143753699660e+03) (4, 5.58462639742776332241e+01) (5, 9.60690977450418648331e-01) (6, 1.49999986166405278709e+03) (7, 4.30648641735236814565e-01) (8, -1.23793517200741547413e+01) (9, 2.18882238704419393116e+02) (10, 1.49999976112121953520e+03) (11, 1.49999987999999530075e+03) (12, 1.49523685727111819688e+03) (13, 1.49999842353854137400e+03) (14, 1.33668708744578611913e+03) (15, 1.49999945655075816831e+03) (16, -1.20696528647094880604e+00) (17, 1.49999987999999530075e+03) (18, 6.96882670450908681126e-01) (0, -1.06333917176747991107e+03) (1, -1.37398965353201629114e+03) (2, -7.82523410104302911350e+02) (3, 1.17875037971664960423e+03) (4, 2.15642924933247343233e+02) (5, 1.45273705956895514646e+03) (6, -8.35862346721544025030e-01) (7, 1.49976764108469865278e+03) (8, 8.67220437694005113372e+02) (9, -1.12288499372098590356e+03) (10, 5.91990064994582326108e+02) (11, 1.42633397433778100094e+03) (12, 5.98611704344662776123e+00) (13, 1.49999973599998384088e+03) (14, 1.49999964692221828955e+03) (15, 1.15422359348818781655e+03) (16, 2.17158466518000459189e+01) (17, -1.46889952814517914703e+03) (18, 3.60346088604533043576e-01) (0, 4.13556100614104749091e-01) (1, -1.01865228996770329495e+00) (2, 4.15304523241153689117e-01) (3, -1.34858367394417815177e+01) (4, -2.90494476907132437304e+01) (5, 1.49972845392799672481e+03) (6, 2.98210642122867589099e-02) (7, 3.41657199723692905913e-01) (8, 7.73099962328891332497e-01) (9, 1.49999688781885288336e+03) (10, -1.78279424062241798055e+00) (11, 3.30536055333936040768e-01) (12, 1.49999961599997914163e+03) (13, 1.10543383245035944928e-01) (14, 2.31181181579969363682e-01) (15, -9.78637849480812519687e+02) (16, -2.35940269161801524644e-01) (17, 1.49845084424058154582e+03) (18, 2.25946989448247093080e-01) (0, 1.15476464456674410286e+00) (1, 1.50000000000000000000e+03) (2, 8.13735098667562328778e-01) (3, -3.92874061574138266906e+01) (4, 1.50000000000000000000e+03) (5, -4.32687940479181076814e-01) (6, 1.50000000000000000000e+03) (7, -1.43811271452952849081e+00) (8, -2.03075816148871046707e+00) (9, -6.92940297651847913585e+02) (10, 1.49999981779198310505e+03) (11, 1.49999980535037752816e+03) (12, -1.41795128121022884216e+02) (13, 1.49999980559998834906e+03) (14, 2.27213425946477087791e+00) (15, 1.49999980535037752816e+03) (16, -1.84280652955579132835e-01) (17, 1.50000000000000000000e+03) (18, 5.82006574017293276668e-01) (0, -6.17226719861867945127e-01) (1, 1.05866052831203294460e+00) (2, 1.49999988959998290738e+03) (3, 1.14887614894005969290e+03) (4, 1.07321516034774890613e+03) (5, -1.49249997069716391707e+03) (6, 1.50000000000000000000e+03) (7, 7.66844083780581797782e+01) (8, 1.49999903394693956216e+03) (9, -2.38011088318690667620e+02) (10, 2.11528727582188054157e+01) (11, 5.45860447064377183324e+01) (12, 8.47705099088027352883e-02) (13, 1.50000000000000000000e+03) (14, 1.50000000000000000000e+03) (15, 1.49999972774396269415e+03) (16, -2.56681655787397100532e-01) (17, -1.49964703662187775990e+03) (18, 7.41361164612031608989e-01) (0, 8.49202817119702217497e+02) (1, 1.49999753488587884931e+03) (2, -5.06763618608544152977e+00) (3, -2.02645358627787004480e+02) (4, 1.49999683278244469875e+03) (5, 1.47106042102436390451e+03) (6, -1.11546899415732116978e+01) (7, 4.62810240069558915366e+02) (8, -1.49796303649203400710e+03) (9, -1.48491339453643331581e+03) (10, -1.49853419352952937516e+03) (11, 6.62492164804701531011e+01) (12, 1.11115342129260286086e+00) (13, 1.49957482651601776524e+03) (14, -4.49688405829060229735e+02) (15, -2.39986794065732709669e+02) (16, 1.49999929410132335761e+03) (17, 1.49999259849764848695e+03) (18, 6.25167373372115253716e-01) (0, 2.60835048587118201180e-01) (1, -3.41982122641795038831e+00) (2, 3.09446771576648738122e-01) (3, 2.55371099780563395876e-02) (4, -1.92696485119576099709e-01) (5, 1.95392086152387067788e-01) (6, 2.20161028292237798132e-01) (7, 2.47848316597845758080e-01) (8, 1.44911994574869029684e+00) (9, 5.77810888735729277776e-01) (10, 2.49142087780489074333e-01) (11, -1.34362725482428779777e+00) (12, 1.07998919167505924577e+01) (13, 1.18080040102703387461e+00) (14, 3.73646425289705541584e-01) (15, -3.96719544112500877020e-01) (16, 8.55885431983831324043e-03) (17, 1.78932146281686965672e-01) (18, 3.28732269490104811460e-01) (0, 4.70094450615266057358e-01) (1, -1.26748535013474561417e+00) (2, 1.33632774413677268832e-01) (3, 6.04119553779494458667e-02) (4, -1.44458978077574897725e+01) (5, 1.49990304448075585242e+03) (6, 9.87218265546860734849e-02) (7, 5.12185157557197706657e-02) (8, 9.69512132420972339020e-01) (9, 1.26280645368823507546e+00) (10, 3.26056222357312797122e-01) (11, 1.34429953938155960502e-01) (12, 1.50000000000000000000e+03) (13, 1.49791763427681598841e+03) (14, 3.70802331269619200871e-01) (15, 1.47136665532456101246e+00) (16, -2.31909801808921012256e-01) (17, 3.96720548463993516464e+00) (18, 8.54590977312718880210e-02) (0, 2.36179246556119526446e+00) (1, 5.58655925069939218730e+00) (2, 2.70941581694563016214e+00) (3, -1.14677226237402624065e+03) (4, 1.49991850372652424994e+03) (5, 1.49788317955954607896e+03) (6, 1.49968181471468187738e+03) (7, -1.27244863879981062382e+03) (8, 1.50000000000000000000e+03) (9, 1.49999973599998384088e+03) (10, 1.49996833345913728408e+03) (11, 1.49975374622402932800e+03) (12, 1.49999993999999765038e+03) (13, 1.49999973599998384088e+03) (14, 1.49990892328524842014e+03) (15, 5.18616699618579843900e+01) (16, -1.42780792313055894738e+03) (17, 1.25395379174930849331e+03) (18, 6.43926466112297174460e-02) (0, 3.48370478477277978335e-01) (1, -7.87594546054750388464e+00) (2, 3.14191512575054454626e-01) (3, -8.52109284435113023548e-02) (4, -3.40706559121751340058e+01) (5, 2.05397370648744072241e+02) (6, 4.41497995790679012562e-02) (7, 1.40832688953508256002e-01) (8, 7.72879870181547135033e-01) (9, 9.64006372014919454827e-01) (10, -6.95790245027674281175e-02) (11, -7.97013600399357757809e-02) (12, 1.49999974799998722119e+03) (13, 1.05672966913128357191e+03) (14, 2.54049017368965401875e-01) (15, 7.77257462205121996135e+00) (16, -3.36751934687852305661e-01) (17, 2.87816510699148153662e-01) (18, -8.10652714274571334352e-02) (0, -1.54201645907667637264e-02) (1, 1.14251862063618675469e-01) (2, 1.28906730206552105900e-01) (3, -2.18360902194657285902e-01) (4, 1.34248978657665141156e+00) (5, 3.55936904706509293916e-01) (6, -7.55920521664634054160e-02) (7, 1.26536272432018315204e-01) (8, 5.46198210282816884464e-02) (9, -1.62293681606854672816e-01) (10, -3.08389200727521683998e-01) (11, 1.20251344443383312299e-01) (12, -1.89025652763349816254e-01) (13, 1.00692449568028002949e-01) (14, 3.02482806727706554639e-01) (15, -1.14761902803405757556e-01) (16, -2.58693369561102531895e-02) (17, 2.60067132043782289763e-01) (18, 1.09332757176025321955e-01) (0, 1.17210574254288849261e+03) (1, 1.50000000000000000000e+03) (2, 3.72051116592795892757e+02) (3, 1.50000000000000000000e+03) (4, 1.49991535136133438755e+03) (5, 1.50000000000000000000e+03) (6, 1.49049537618422073137e+03) (7, -6.21240515707958067537e+01) (8, -1.49983257504586845243e+03) (9, 1.49999793383211704167e+03) (10, 1.49998211945656089483e+03) (11, 1.50000000000000000000e+03) (12, -1.02921683821215242460e+03) (13, 1.49988896246541025903e+03) (14, 4.23104292251865459207e+01) (15, 1.50000000000000000000e+03) (16, -1.47220694190172866911e+03) (17, 1.49999015848907242798e+03) (18, 4.49942352658686317568e-01) (0, 4.26048218937841227660e-01) (1, 3.67552447438419926939e+00) (2, 1.50000000000000000000e+03) (3, 1.50000000000000000000e+03) (4, 1.50000000000000000000e+03) (5, -1.41647308921943181304e+03) (6, 1.50000000000000000000e+03) (7, -1.48231091348519225903e+03) (8, 1.50000000000000000000e+03) (9, -8.19290993577805792825e+00) (10, 6.96920903015223274224e+01) (11, 1.50000000000000000000e+03) (12, 1.26503618134317596944e-01) (13, 1.50000000000000000000e+03) (14, 6.64545136704422034768e+00) (15, 1.50000000000000000000e+03) (16, -1.91290009397363178323e+02) (17, -2.19848325240236761147e+02) (18, 9.78463591827070988671e-01) (0, 4.73145794956481013926e-01) (1, -1.84890466722556889856e+00) (2, 5.04678018095786606878e-01) (3, -1.94499126311444499038e+01) (4, -5.37251938064185807775e-01) (5, 1.49975051023326477662e+03) (6, -1.36431272486193605475e-01) (7, 9.68083193131395319808e-02) (8, 8.92037582619298663467e-01) (9, 1.49999948159996984032e+03) (10, -1.91680384171746354127e+00) (11, 1.08629050909333890740e-01) (12, 1.49999961599997914163e+03) (13, -1.85361943565954270241e+01) (14, 1.78510527262522172842e-01) (15, -1.48685279855127032533e+03) (16, -7.65528602994867579667e-01) (17, 1.49779327528893099952e+03) (18, 1.42531020990229295720e-01) (0, 2.34045437120543070586e-01) (1, -5.02617246087760616291e+00) (2, 8.52241016854083793808e-02) (3, -2.42825662072526915480e+00) (4, -2.59432968795387930427e+00) (5, 9.87202663734934958484e+02) (6, 1.73144233560569682506e-01) (7, 1.52693056209697558545e-01) (8, 2.08946487314653317480e-01) (9, 1.49996337133034398903e+03) (10, 2.00455586622127164276e+01) (11, -1.99807196770070860659e-01) (12, 1.49999974799998722119e+03) (13, 1.38192892920489384778e+03) (14, 1.74871866708639629451e+01) (15, 6.49951297769556958883e+02) (16, 6.85885302238322096952e-03) (17, -8.12819660977140562297e-02) (18, -4.69213629922278080420e-02) (0, 4.83437669576305517616e-01) (1, -3.70419649154918317890e-01) (2, 2.69482921110908713036e-01) (3, 2.93487933276845469610e-01) (4, -5.62695669654884568445e+02) (5, 7.90163871194398215181e+00) (6, 6.34407108534922742349e-02) (7, 2.66593437089441165355e-01) (8, 2.38813539878540787020e-01) (9, 6.24872665636789648147e+00) (10, 2.31441004577626591177e-01) (11, 2.04905049793160348726e-01) (12, 1.49999974799998722119e+03) (13, 1.48513740718513054162e+03) (14, 2.47746051230586794567e-01) (15, -2.82835580966431043848e+00) (16, -9.20126825526977332181e-02) (17, 1.49971100432450771223e+03) (18, 9.17647826367273961035e-02) (0, 1.10460635082574067101e-02) (1, -1.89608898309509305014e-01) (2, 1.47354937452760181849e-01) (3, 1.99948914753450529558e-01) (4, -4.73379394797019181773e-01) (5, -8.76980638603083451077e-02) (6, 6.72260257000708710828e-02) (7, -2.72237670273612286653e-01) (8, -1.40454440784881090520e-01) (9, -3.74295205068168213014e-01) (10, -1.70241060966984186775e-01) (11, 4.37882137149518790853e-01) (12, 2.23810173088529601459e-01) (13, 6.70270248177770727738e-02) (14, -3.31576139841294692534e-01) (15, -3.10519442750151440646e-02) (16, -4.66706207147048135475e-01) (17, 3.28103701509247835943e-01) (18, -2.59369772146428978488e-01) (0, 1.03280338938945878691e-01) (1, 1.38535403115200239643e-01) (2, -3.21868104850948823920e-03) (3, 1.20682053950611645893e-02) (4, 2.90264837134362602145e-02) (5, -7.89295609088330740732e-02) (6, -1.25182070212070034598e-01) (7, 3.10910770081765618078e-02) (8, -7.16310740514806434075e-04) (9, 7.99574510160675766546e-02) (10, -4.61854579933402512731e-03) (11, -1.90334810432225658150e-02) (12, -4.59160863326395357609e-02) (13, 2.31593214209818145863e-03) (14, -7.91944460762453034119e-02) (15, -7.57944659810252160254e-03) (16, 9.31988676482271155566e-02) (17, -4.71828765596386673353e-02) (18, 7.84749521170005209791e-02) (0, 1.12609265008159487031e-02) (1, -4.93874776362062295476e+00) (2, -2.06721094720312770221e+00) (3, -4.34722653176269457909e-01) (4, -1.50000000000000000000e+03) (5, 9.52148134261538814371e+00) (6, -2.67937411946326342616e+01) (7, 9.59321578015012499385e-01) (8, -1.51563271219236783693e+00) (9, -2.04786258763945561157e+01) (10, -2.95152238310995329584e+01) (11, -1.91779266022401779536e-03) (12, 3.45297231476705146491e+00) (13, -1.83512950436908624852e+02) (14, -2.84288820516350426715e+00) (15, -1.45647499314275592042e+03) (16, -1.90970415283923351524e+01) (17, 2.23474576112123214655e-02) (18, -1.55327141677189167757e-01) (0, -1.56917920649799533805e+01) (1, 1.49998853952696026681e+03) (2, 3.28129828479535923247e-01) (3, -3.09016401131749375963e+02) (4, 1.49999369588012405075e+03) (5, -1.93891471954226339847e+01) (6, 4.78000585596789651088e-01) (7, -1.68293916815846074542e+02) (8, 8.48039274078804306001e-01) (9, -5.08436546645365261554e+00) (10, -1.48897241255133280902e+03) (11, -1.49985317391447620139e+03) (12, 1.49933316744947569532e+03) (13, 1.49999922948479229490e+03) (14, 1.49940396582627249700e+03) (15, -3.90765649365397180759e+01) (16, 1.03774603902932625488e+02) (17, 5.31541443127316142636e+02) (18, 5.01194394801122045102e-01) (0, -1.84883062000266598091e+01) (1, -1.49134551164238268939e+03) (2, 9.43600987627607801222e-01) (3, -8.87186655432171789037e-01) (4, 1.50000000000000000000e+03) (5, -1.48271625947389566136e+03) (6, 1.49999975999999060150e+03) (7, -1.49175114051822561123e+03) (8, 1.90596923246141358277e+02) (9, -2.56750520562417591464e+02) (10, 1.50000000000000000000e+03) (11, -4.19344433798056837048e+00) (12, -1.45714590210773235412e+03) (13, 1.49970520358286239571e+03) (14, 1.49999975999999060150e+03) (15, 1.49993370247500706682e+03) (16, 1.49909772972524569923e+03) (17, 1.50000000000000000000e+03) (18, 5.06135950313750582197e-01) (0, 6.17787944577180558881e-01) (1, -2.05109370304454117218e+01) (2, 3.49350589141225575940e-01) (3, -8.47879399731043470467e+00) (4, -3.09462317771457362525e+00) (5, 1.49985178260427232999e+03) (6, -3.42355989970295274127e-02) (7, 4.27794692337618520650e-01) (8, 6.96808665228746071385e-01) (9, 8.84556589110657487396e-01) (10, -5.67110512872004646212e-01) (11, 3.52359744836688526526e-01) (12, 1.49999961599997914163e+03) (13, 5.92500489452957481262e+02) (14, 2.11390580878094203054e-01) (15, -1.49870841314973199587e+03) (16, -1.38941332631071468029e+00) (17, 1.49875809864559391826e+03) (18, 1.70704683472143570189e-01) (0, 6.09386427279228648501e-01) (1, -1.06448684432566453850e+00) (2, 3.86197388778318884128e-01) (3, -6.16206976080376378491e+00) (4, -3.67900102983623398245e+01) (5, 1.49987523633322575733e+03) (6, 1.05120526784725679126e-01) (7, -2.56499467377661986844e-02) (8, 1.75176152828683973084e+00) (9, 1.49999937119995274770e+03) (10, -1.76623517694923987120e-01) (11, 3.15930994538891174450e-01) (12, 1.49999974799998722119e+03) (13, 1.72117870986404170708e+02) (14, 3.93199765779731369442e-01) (15, -1.78890020246673380200e+01) (16, -1.18537326887005733944e+00) (17, 2.19771357183736304464e+00) (18, 1.05424830967802668491e-01) (0, -1.29454839926109538384e-01) (1, 1.75680814107171470728e-02) (2, -2.07702839363066264766e-02) (3, 6.79961907924707398276e-02) (4, -4.45762579574070158528e-02) (5, -1.51543206034800898019e-01) (6, 5.53316692806598356413e-02) (7, 2.98281329802407846330e-01) (8, -1.92837240774381309116e-02) (9, 1.25561111762885091458e-01) (10, 1.63199990254584634264e-02) (11, 1.03827711178198181519e-01) (12, -1.96785336305892288866e-01) (13, -9.11275278919529002630e-02) (14, -7.57100564658496483217e-02) (15, -3.06702896455655661667e-02) (16, 4.92587923309897451896e-02) (17, 1.30237161077181001767e-01) (18, 5.41891288946885416045e-02) (0, -1.36295182104182975580e-02) (1, -1.72965718522434835913e-01) (2, -6.83807680046222388093e-01) (3, -1.49997617760225398342e+03) (4, -1.49994461627825307914e+03) (5, 1.25734800516212397170e+00) (6, -1.49999779403503589492e+03) (7, 1.94268375014143792612e+01) (8, -1.49097184726369573582e+03) (9, -4.63644954644395909327e+02) (10, -4.26218239172934831860e-01) (11, -4.46183818745093844882e+02) (12, 9.95375825894853107911e+01) (13, -1.49996781340498523605e+03) (14, -2.64214780503972939130e+01) (15, -1.49995838739871237522e+03) (16, -1.49151141585209848017e+03) (17, 1.49978882072299006722e+03) (18, -1.22635739183400593877e-01) (0, 7.71870838746361753735e-01) (1, 1.50000000000000000000e+03) (2, 4.66831933643913288279e-01) (3, 1.78510148368430243693e+00) (4, 9.91042096674108563548e+01) (5, 1.50000000000000000000e+03) (6, 1.50000000000000000000e+03) (7, 8.00949941239250562397e-01) (8, -1.48833152193954811082e+03) (9, 1.50000000000000000000e+03) (10, -6.19703539071076470179e+00) (11, 3.23459225718545040351e+00) (12, -3.36365863809947929219e-01) (13, -8.22708509095728146576e+00) (14, 1.50000000000000000000e+03) (15, 1.49999956319996317688e+03) (16, 3.38179853965593968379e-01) (17, 1.43421289784090703279e+02) (18, 7.59150858152935814616e-01) (0, 1.50686157801106224152e-01) (1, -5.83353572849677703971e-01) (2, -1.15232134483777448608e+00) (3, -3.21455262603424718471e-01) (4, -1.59761060797437739467e+01) (5, 1.31635309709012400248e+01) (6, -3.55967483533940010076e+00) (7, -7.10872852918531805688e-02) (8, 2.52047213350407361965e-01) (9, -2.76195444719512543941e+01) (10, -1.18217564369038319327e+00) (11, 6.19261893489363779430e-01) (12, 4.86987690610000523161e-01) (13, -1.32031791773809992208e+00) (14, -7.17816526361484519292e-01) (15, -1.48378023294791971942e+00) (16, -3.52562097040258259906e-01) (17, 7.93052487061193522866e-02) (18, -3.69859402853019722870e-03) (0, 4.91122107303290034164e-01) (1, -1.18509730331591467412e+00) (2, 5.25967760760228886241e-01) (3, -1.04250534401885719404e+01) (4, -4.84090913932244293338e-01) (5, 1.49971699499355713670e+03) (6, 1.05617439492861606154e-01) (7, 3.11800262713597287068e-01) (8, 7.77640738624790772704e-01) (9, 1.49999795519984218117e+03) (10, -3.77380574038380600665e-01) (11, 1.74306432951921191910e-01) (12, 1.49999961599997914163e+03) (13, 5.35109485270300069715e+02) (14, 4.57908026661392020262e-01) (15, -1.16210559651308471985e+03) (16, -2.77927550428043013131e-01) (17, 1.25869457169347356285e+03) (18, 1.52920107351370015980e-01) (0, 5.42651188319659305570e-01) (1, 4.83251686228474350293e-02) (2, 3.72334655228614808120e-01) (3, 1.57541442996461833470e-01) (4, -2.05781388070879811547e-01) (5, 1.49987344695722481447e+03) (6, 1.73757316923098870109e-01) (7, 3.14147802355456251533e-01) (8, 6.76067191472550454989e-01) (9, 1.49999903759994663233e+03) (10, -2.03736421779656784459e-01) (11, 4.49956934824295828879e-01) (12, 1.49999986799999192044e+03) (13, 2.66099668002111933163e+00) (14, 4.53266947754218940680e-01) (15, -1.47553173350262113672e+03) (16, -1.30594621336976163262e-01) (17, 6.97288833825524250187e+01) (18, 1.80957170887995538733e-01) (0, 1.32875424808940761068e+03) (1, 1.49999782051182410214e+03) (2, 3.61295131876905817325e-01) (3, 1.49999854477426083577e+03) (4, 1.49996041386278875507e+03) (5, 1.16577318859285196595e+03) (6, 1.49346968464990413850e+03) (7, 1.60391599989345351451e-01) (8, 7.61256099097901284267e+00) (9, 9.87549956215877529075e+01) (10, -1.11857400990221663051e+02) (11, 1.49999673236515855024e+03) (12, 1.50000000000000000000e+03) (13, 1.49987580537085591459e+03) (14, 1.49999091170916312876e+03) (15, -6.94886032894794880121e+02) (16, 1.92361030993575866432e+02) (17, 1.49990705878381550065e+03) (18, 2.42115836129142336652e-01) (0, -5.19981009516872649812e-01) (1, 3.00082098492587767691e-01) (2, -1.61865879907879539612e-01) (3, -3.77978281362985057967e-02) (4, 2.23321985892924013140e-01) (5, 1.33525002822333732633e-01) (6, 4.66446661401206247310e-02) (7, -1.59170756372375349352e-01) (8, -3.66968908487163125720e-01) (9, -2.17344732057877909615e-01) (10, -7.93251383565495432615e-02) (11, 1.01002026845967457502e-01) (12, -9.88245924379632240120e-02) (13, 4.64733748410708413790e-01) (14, 2.91862267859642997292e-02) (15, 1.12085625296333230017e-01) (16, -6.83951629082854561936e-01) (17, 7.66379687228877504168e-02) (18, 6.40833840079389066569e-02) (0, 4.47329994442274489486e-02) (1, -1.24188911618770103651e+00) (2, -1.51110716756985059561e+01) (3, -9.62100398427496394937e-01) (4, -1.49818113640830318900e+02) (5, 1.65063245098280226841e+01) (6, -1.81035469479302939533e+01) (7, -9.27168262311350854787e-02) (8, -2.85412064641155183153e+00) (9, -4.22767760737235164470e+02) (10, -1.55646706442216640198e+02) (11, 1.90962526633498774764e+00) (12, 2.25315990872093863118e+00) (13, -8.80781049241047497844e+01) (14, -1.88797451132168947474e+00) (15, -1.48995265061708187204e+03) (16, -1.41975226283576283492e+00) (17, 2.44068281041008278143e-01) (18, -1.73526417321595294307e-01) (0, -1.11929282590759839877e+03) (1, -1.58521685782321952729e+02) (2, 1.49988636248653142502e+03) (3, -1.50000000000000000000e+03) (4, 1.49978058380671473060e+03) (5, -1.50000000000000000000e+03) (6, 1.49778081955708194073e+03) (7, -9.98724846728166504306e+00) (8, 1.50000000000000000000e+03) (9, 1.49997449000237043037e+03) (10, 4.83100836316861403930e+00) (11, -2.35561830224155812630e+02) (12, -1.49810328104134691785e+03) (13, 1.49999964692221828955e+03) (14, 1.49999973599998384088e+03) (15, 1.49999956319996317688e+03) (16, 1.49741689729610789072e+03) (17, -3.78587400547193453804e+02) (18, 6.42006067814849923359e-01) (0, -4.28256504958507908110e-02) (1, -1.57203732633717174760e-01) (2, -8.64615584770750678079e-02) (3, -3.04106200055670738980e-01) (4, 1.31445317313362924905e-01) (5, 7.68863139689146025957e-03) (6, -1.03520856800217424948e-02) (7, -4.00744423805463670374e-02) (8, -2.41603966114540547050e-01) (9, 1.65362016852816373635e-01) (10, -5.05195964445083727651e-03) (11, 2.30858473171249078959e-01) (12, -5.14118427666182126190e-02) (13, 1.37796162634323832857e-02) (14, -1.32367407272285658726e-01) (15, 1.16402702280178724226e-01) (16, -5.42262824002182133865e-02) (17, 8.01197880134965900734e-02) (18, 1.23995632429429430976e-01) (0, 1.49999980535037752816e+03) (1, 1.49999980535037752816e+03) (2, 1.22782895988721363345e+00) (3, -1.66551882511556659239e+00) (4, 1.50000000000000000000e+03) (5, -6.04952569113099869469e+01) (6, 1.50000000000000000000e+03) (7, 5.13546029009524289677e+01) (8, 2.26216505673779728625e+01) (9, -5.51534460852889196758e+00) (10, -1.40323391712121565433e+03) (11, 1.49999980535037752816e+03) (12, 3.62772515796011607581e-01) (13, 1.49999981779198310505e+03) (14, 6.05279673035398913666e-03) (15, 1.49999931715883690231e+03) (16, 5.65113006752443330916e-02) (17, 1.50000000000000000000e+03) (18, 9.46343236343350158180e-01) (0, 4.42452101832525979130e-01) (1, -9.89434554698825330377e+00) (2, 6.83329190052028745406e-01) (3, -5.06804726791730217883e+02) (4, -3.00188788457545929766e-01) (5, 1.49972868690718223661e+03) (6, 8.95874907058426955819e-02) (7, 2.12325949672275332558e-01) (8, 8.72585585645446926151e+00) (9, 7.06769573384359887314e+02) (10, -1.01038399493616082303e+00) (11, 3.21497676367211493442e-01) (12, 1.49999961599997914163e+03) (13, 1.09992925539494841303e+01) (14, 5.59422127832109539192e-01) (15, -1.47646617874654089064e+03) (16, -4.85027136099399569513e-01) (17, 1.46871719239703907078e+03) (18, 1.96088362163539975391e-01) (0, 3.35577543162774882823e-01) (1, -2.13656799205614156278e+00) (2, 1.35537546659515256708e-01) (3, 6.97351697372287776533e-02) (4, -2.73970636150443134227e+01) (5, 1.49864188573961428119e+03) (6, -1.98736153141657392873e-02) (7, 1.95423038016345834711e-01) (8, 3.82464515131023363725e-01) (9, 4.46722124920068175413e+00) (10, 1.04960135057473702425e-01) (11, 1.89176120022471472293e-01) (12, 1.49999974799998722119e+03) (13, 9.99384286839518267698e+02) (14, 1.56008457381172149780e+00) (15, 2.13614248589960702418e+01) (16, -2.32687445184089736205e-01) (17, 1.16238475242663071019e-02) (18, -4.99245837882860352130e-02) (0, 1.47013232108138686272e+03) (1, 1.49999206480019824994e+03) (2, -2.44642484394883563681e+00) (3, -5.78716841521963090145e+01) (4, 1.32985833327555610595e+03) (5, 1.49999694884529276351e+03) (6, -8.14968819873020038358e+02) (7, 1.49998696641806827756e+03) (8, -1.49935562935146731434e+03) (9, -5.03804058583790492776e+00) (10, -1.49989029798105957525e+03) (11, 6.34356301903977453094e+01) (12, 1.50000000000000000000e+03) (13, 1.49959756323214628537e+03) (14, -1.49999977709738254816e+03) (15, -1.49989085163747381557e+03) (16, 1.49998384553884989145e+03) (17, 1.49967493673023159317e+03) (18, 8.36995199541145651345e-01) (0, 1.72654691063486875890e+00) (1, -1.29298602615447411068e+00) (2, 6.89674915832520269987e+01) (3, 1.49997796499686955940e+03) (4, 1.50000000000000000000e+03) (5, 6.44264730100879461361e+01) (6, 1.49999563999780002632e+03) (7, -1.49754384454303499297e+03) (8, 5.43780905678021255767e+01) (9, 1.06340344978041684953e+03) (10, 1.49993124350228390540e+03) (11, 1.49999750321653209539e+03) (12, 1.49906447608060011589e+03) (13, 1.50000000000000000000e+03) (14, 1.49999964959997350888e+03) (15, 1.49998457536254636580e+03) (16, -1.41505328002728765568e+03) (17, 1.49999420660581722586e+03) (18, 3.26445329894992253283e-01) (0, 3.66313410468547484555e-01) (1, 1.64007072814343402012e-01) (2, -1.60400806666776613030e-01) (3, 8.05101043005968797228e-02) (4, -1.90511022580635180912e-01) (5, -7.24041528284026514317e-02) (6, -1.39019345153055029485e-01) (7, 4.38533110615396737320e-01) (8, -2.27979579425683018257e-02) (9, 2.59210429556081201063e-01) (10, 8.46251432128050373738e-02) (11, 3.66856717234573664888e-02) (12, -1.40907877488480215433e-01) (13, -2.99133071020906693427e-01) (14, 2.75568536675517179735e-02) (15, 2.58051185465457633139e-01) (16, -8.47289702591254474673e-03) (17, -2.05833741471646014531e-01) (18, -2.42810201169075152994e-02) (0, -1.42141379063275646866e-01) (1, -1.50000000000000000000e+03) (2, -2.21103102505746740292e+01) (3, -3.02879189052617903144e+00) (4, -1.50000000000000000000e+03) (5, 3.84445381533333332413e+01) (6, -3.35507031724032245279e+01) (7, 4.61982155345331779728e+00) (8, -1.06709971131500550717e-02) (9, -1.01011716800175094022e+02) (10, -1.88606297862714944458e+00) (11, -2.32415728879950345132e+00) (12, 1.61000141606527424898e-01) (13, -7.42483525519911040647e+02) (14, -2.31365189588788799924e+00) (15, -1.47208587287052364445e+03) (16, -3.56460200156320683451e-01) (17, -1.55583697163929168816e+00) (18, -1.43822069061283974722e-01) (0, 1.02597054409689331100e-01) (1, 1.50000000000000000000e+03) (2, 3.04956677498758423894e+01) (3, 4.89463975496474915872e+02) (4, 1.49774479150257729998e+03) (5, -1.21379473660680901048e+02) (6, 1.50000000000000000000e+03) (7, -1.29825360533631828730e+03) (8, 1.55662842361189790452e+00) (9, -3.52656925068291382530e+00) (10, 1.17972123682659102428e+02) (11, 1.50000000000000000000e+03) (12, -3.30163944059761252370e-02) (13, 1.50000000000000000000e+03) (14, -2.81469376842232072988e+01) (15, 1.50000000000000000000e+03) (16, -1.40542746806658215064e+03) (17, -4.91684179873156779195e+02) (18, 8.00924500078571854900e-01) (0, -1.19061136991013313491e+02) (1, 1.49999117904905165233e+03) (2, -1.77315357064463802184e-01) (3, 6.68356804297683915195e+00) (4, 1.49911430185412905303e+03) (5, 9.02828920836332144972e+02) (6, 1.50000000000000000000e+03) (7, 1.74939357361976362881e+02) (8, -9.88858563794461464802e-01) (9, -5.36002489368457190722e+02) (10, -4.65456439925386433742e+01) (11, 1.49984131714384943734e+03) (12, -1.48708255756373341683e+03) (13, 1.50000000000000000000e+03) (14, 1.01007459693175527526e+00) (15, 1.48852337663400430756e+03) (16, -9.57659786958012205105e+02) (17, -8.95814424976151940427e+02) (18, 1.13816711237531995038e-01) (0, 5.95125526931485349103e-01) (1, -3.92255910657330897351e-01) (2, 1.49999975999999060150e+03) (3, 3.29193323554333339143e-01) (4, 1.49999975999999060150e+03) (5, -1.43766526862871478443e+03) (6, 1.49997100060667116850e+03) (7, 1.02943045354952090520e+02) (8, 1.50000000000000000000e+03) (9, 6.30908339710800736277e-01) (10, 1.49999975999999060150e+03) (11, 7.74321946598205812506e+00) (12, 3.61527379874107268609e-01) (13, 1.49999975999999060150e+03) (14, 1.49999975999999060150e+03) (15, 1.49999846140795966676e+03) (16, -6.34525429707151218395e+01) (17, -5.57365996233188980113e+02) (18, 5.54269361646906877361e-01) (0, -2.62497149580004872860e+02) (1, -1.49999982084091016077e+03) (2, -5.01992463364947472115e+00) (3, -1.49999150629324117290e+03) (4, -1.49215973834887086014e+03) (5, 2.66201094268033784829e+02) (6, -1.49999991042045508038e+03) (7, 6.38074698963033926091e-01) (8, 3.85071264089525868712e+01) (9, -1.49334850482413526152e+03) (10, -1.49139896079759614622e+03) (11, -1.48960729154198475044e+03) (12, 1.15571112781194451635e+00) (13, -1.49998989252711066911e+03) (14, -1.49351790939238958345e+03) (15, -1.49999722311920140783e+03) (16, 6.08957449453442656306e+00) (17, -1.49999070220007615717e+03) (18, -2.05911712566667320923e-01) (0, 6.71546706169658733643e+01) (1, -1.49767207257818813559e+03) (2, 1.75587651959971964288e+01) (3, -1.48151490708994720080e+03) (4, 1.50000000000000000000e+03) (5, 1.04947103628321178803e+03) (6, 1.50000000000000000000e+03) (7, 1.49989345119252470795e+03) (8, -4.96274882982970524381e+01) (9, -8.04947098626474371486e+02) (10, -7.81671048251951674501e+01) (11, -1.49978014676995348964e+03) (12, 1.49318129768104904542e+03) (13, 1.46049579361099836206e+03) (14, 1.44585606375226575437e+03) (15, 1.22824985726760701255e+03) (16, 1.78929506973588159369e+00) (17, 1.49489632900678134320e+03) (18, 7.46242783258207920127e-01) (0, 5.64870722594596808008e-01) (1, -1.86417368998815780046e+00) (2, 4.93097774750684614276e-01) (3, -1.60694730018305236285e+01) (4, -3.17288222315012413688e+00) (5, 1.49977293953605635579e+03) (6, 6.89022955633163125544e-02) (7, 3.08524866836959843486e-01) (8, 5.34241906242802100380e-01) (9, 1.49999910479993536683e+03) (10, -1.21175155901967435135e+00) (11, 2.77869491340133500934e-01) (12, 1.49999961599997914163e+03) (13, 7.04897535260791983092e+02) (14, 2.50910355514441463232e-01) (15, -1.44851812840418710948e+03) (16, -7.34333315048007584380e-01) (17, 1.49826076675870513100e+03) (18, 1.03555501590451806693e-01) (0, 3.10390112740425890003e-02) (1, 5.11132796614579242023e-03) (2, -8.23578483411494671751e-02) (3, 2.13852958695568834413e-02) (4, 1.75095800305147902831e-01) (5, -7.65485326723116671355e-02) (6, 9.99117768317975690762e-02) (7, 5.71527670495532574835e-02) (8, -6.77501700091482500499e-02) (9, -7.77165525726153105790e-02) (10, -1.08808850602837181576e-01) (11, -1.00642301718401508404e-01) (12, 6.05482607535001993160e-02) (13, -6.53273334980983694242e-02) (14, 1.43479513428439592326e-01) (15, 5.46301528550663717532e-01) (16, 3.03232822621410658126e-01) (17, -8.65407798535908351356e-02) (18, -1.88970355565708653112e-02) (0, 6.17937295453911614174e-02) (1, -2.54962889202353215623e-01) (2, 2.47894170247171613530e-01) (3, -1.76970231617883999586e-01) (4, 2.97448203853876491642e-01) (5, -1.31976889423316812167e-01) (6, -2.21857656021954841030e-01) (7, 1.41232599336679559565e-01) (8, 5.27862478403855694964e-01) (9, -2.26125005970845505132e-01) (10, -1.20085026262845256939e-01) (11, 1.02199284500916240392e-01) (12, 9.41770232965109532763e-01) (13, 2.14462802719042555655e-01) (14, -5.21946088680870362575e-02) (15, -9.85527621984722823623e-02) (16, 2.35975807546896537703e-01) (17, -1.70702720125720713851e-01) (18, 8.52713715787149252601e-03) (0, -1.96111448840040614172e-01) (1, 1.08331331107175323630e-02) (2, -4.73044002373339336764e-02) (3, 1.52255225234329896744e-02) (4, 2.86700588528557981371e-02) (5, 6.64573417297164847906e-02) (6, 1.01866989692570006354e-01) (7, -3.65319063253576326034e-02) (8, 1.20588628292199753766e-01) (9, -2.07835913220677168112e-02) (10, -1.00090439327184289875e-02) (11, 2.73172442509025149848e-02) (12, -1.12034558561488709061e-01) (13, -1.19384771382583146360e-01) (14, -6.10255824600812197406e-04) (15, 5.35245993430041866468e-02) (16, -6.98306606522549749849e-02) (17, -1.48653589793471419683e-02) (18, -1.40354311823274957582e-01) (0, 7.21518284022104126052e+02) (1, 1.49999928374395403807e+03) (2, -5.04853530190868848848e+00) (3, -6.05516534668279632569e+02) (4, 1.49999715564877692486e+03) (5, 1.49995219440192522597e+03) (6, -3.13547056210146877220e+01) (7, 1.49998959369635235817e+03) (8, -5.08976265717430862878e+02) (9, -1.96930641608286793875e+00) (10, -1.49164351333827107737e+03) (11, 7.49333253140302559814e+01) (12, 2.89642439266219184901e+01) (13, 1.49980830759122886775e+03) (14, 3.89050154064494506656e+02) (15, -1.49993732787715839549e+03) (16, 4.07311429307318064730e+01) (17, 1.49127505291219677019e+03) (18, 6.73779105985113813126e-01) (0, 1.11512345319478345118e+03) (1, -4.14915652827517504875e+01) (2, 1.86035574895737410017e-01) (3, -3.61515216853662195717e+01) (4, 5.57110501865959051315e+00) (5, 1.49830034064170990860e+03) (6, -1.49404779232003488687e+03) (7, 1.49998821750054685253e+03) (8, -1.49874462236538988691e+03) (9, -5.01084966356946495125e+01) (10, -1.49999873649951518928e+03) (11, -4.02506089235728481412e+01) (12, 1.48084832837252042737e+03) (13, 1.49999928719994363746e+03) (14, 9.90237848895941738192e+02) (15, -7.72572544704545407512e+01) (16, 1.49999029670113714019e+03) (17, 1.44629847653669389729e+03) (18, 5.50844836375134705442e-01) (0, 1.05185091038628547722e+03) (1, 1.49999831339067895897e+03) (2, -1.07759280122981260241e+00) (3, -4.44716002979444226639e+02) (4, 1.50000000000000000000e+03) (5, 1.49763676901864960200e+03) (6, -1.49604226037127796189e+03) (7, 2.24481197348287064841e+00) (8, 5.31837433916449953131e+00) (9, 2.91331687975904962684e+00) (10, -6.78682698068490367405e+02) (11, -1.46595511613407620644e+03) (12, 1.50000000000000000000e+03) (13, 1.49984284007824294349e+03) (14, 1.49982461221862558887e+03) (15, -1.48069019007042402336e+03) (16, 1.49996723327753966259e+03) (17, 1.49560300408496073032e+03) (18, 1.04988670136668327260e+00) (0, 5.05387210854578050601e-01) (1, -3.80519368214345490742e+02) (2, 2.48176679415333556467e-01) (3, -2.05051165532757011079e+02) (4, -8.70153603627790346309e+01) (5, 1.49987103078836344139e+03) (6, -6.85166043281026260203e-01) (7, 3.67955283043195691128e-01) (8, 2.35067075425209076611e-01) (9, 1.49999937119995274770e+03) (10, -3.56813134384735330951e-01) (11, 1.09697685571454484066e-01) (12, 1.49999974799998722119e+03) (13, 1.49938819897987673357e+03) (14, 2.04262657708960432279e-01) (15, -1.96928857886925101184e+02) (16, -2.65148558198495809535e-01) (17, 6.02154126439097669987e+00) (18, 1.92458352510411018210e-01) (0, 3.02032589063807810348e-01) (1, -1.02090409956148195358e-01) (2, -2.38269526249803326179e-01) (3, -1.99750856457999226290e-01) (4, -7.30304032089388877047e-02) (5, -3.77891148071056226510e-01) (6, -9.70764825930433700174e-02) (7, 1.04944762546203777115e-02) (8, 1.14641517744604265472e-01) (9, 1.16254809810216221122e-02) (10, -1.19265285730655645757e-01) (11, -2.04058071613174185632e-01) (12, 1.84484942183424760476e-01) (13, -1.27990175439506220778e-01) (14, 1.35269209479815022412e-01) (15, 1.95472705481688130424e-01) (16, -3.79104400149605225145e-01) (17, 1.31586252497424310848e-01) (18, -1.70603314608230305360e-01) (0, 1.49717739351880254617e+03) (1, 1.49917948252542805676e+03) (2, 4.63488720138052627817e+01) (3, -1.26251586987430096087e+03) (4, 1.49981217505154654646e+03) (5, 8.07402508667683527221e+00) (6, -3.75203995953348634629e+00) (7, 1.49998378213173577933e+03) (8, -1.23370304990080717289e+03) (9, -8.43463360784210713916e+00) (10, -1.48821632520386765464e+03) (11, -1.49962263392265208495e+03) (12, 1.49542524199980971389e+03) (13, 9.56909194422263681190e+02) (14, 5.93431997461017772366e+02) (15, 1.12125311288692932976e+03) (16, 1.49999472314920876670e+03) (17, 1.47135338148726395957e+03) (18, 7.08665807081711007775e-01) (0, 1.60958152098588658241e+00) (1, 1.49999278121683005338e+03) (2, 4.09167239871301324783e-01) (3, 1.49983243817956008570e+03) (4, -7.97771976999199328162e-01) (5, 1.49992862424769009522e+03) (6, -1.48021257514561483504e+02) (7, 5.09133573235940328772e-01) (8, -3.63589747337950086603e+02) (9, 1.49999974559997144752e+03) (10, -2.88442670332276293266e+02) (11, 1.49999958338212672970e+03) (12, 1.49999993999999765038e+03) (13, -1.36091133612434941824e+03) (14, -6.56713690804150207470e-01) (15, -1.68892192498094182440e+01) (16, -1.48447736045937222116e+03) (17, 1.49989240780655245544e+03) (18, 3.14022947905144789171e-01) (0, 1.06687343521185297845e+02) (1, -1.49023335563775253831e+03) (2, 1.48971409146656969824e+03) (3, -1.30238082344358690534e+03) (4, 1.50000000000000000000e+03) (5, 1.49927479389603649906e+03) (6, 1.35528916819026312623e+03) (7, 1.49905943938874543164e+03) (8, 1.50000000000000000000e+03) (9, -1.49278717892823488000e+03) (10, -1.39122577608295659957e+03) (11, -1.80283993541461342147e+02) (12, 1.48914329000369980349e+03) (13, 1.49999932291192772027e+03) (14, 1.49999919625963252656e+03) (15, 1.49999794370720564984e+03) (16, 3.96228805904375676050e+01) (17, 1.45173552740187528798e+03) (18, 9.18694013005870169231e-01) (0, 1.60774086133118998543e-01) (1, -2.49533934864545281496e-01) (2, -7.70932716972919512832e-02) (3, -7.02771637434913970521e-02) (4, -1.14624130002215843249e-01) (5, 2.06073575475334037910e-02) (6, -1.16482748552815873477e-01) (7, 5.98012517528593440241e-03) (8, -3.21272694038622005919e-02) (9, -4.16654854746857511438e-02) (10, -1.01835159633015356895e-01) (11, -1.77606959020995436305e-01) (12, -9.55392953656120230699e-02) (13, 1.52300316307915045710e-01) (14, 1.93289503472977491905e-01) (15, 7.86242344754587013655e-02) (16, -7.29974740164736485282e-02) (17, 1.78310781958886666043e-01) (18, -1.61473763637961342798e-01) (0, -5.78801843313396340018e-03) (1, -1.68597768269610384095e+02) (2, 1.49999892719992953971e+03) (3, 1.49966222520620294745e+03) (4, -1.49466965060525694753e+03) (5, -8.20936406060911167515e+02) (6, 1.49953327724138671329e+03) (7, 1.49999892719992953971e+03) (8, 1.49999670668896942516e+03) (9, 1.49999993999999765038e+03) (10, 1.49838308363722558170e+03) (11, 1.49968310849734939438e+03) (12, 2.05779460789901520457e+01) (13, -1.49719282901061183111e+03) (14, 2.25299664037304182784e+02) (15, 4.41709532414617513041e+02) (16, -4.51005971053302978646e+00) (17, -1.49998147018682766429e+03) (18, 4.30724737247785371963e-01) (0, -4.06320390605611481138e-02) (1, -2.33885788580034237327e+01) (2, -2.41111106484069415146e+00) (3, -6.59611522124067928274e-01) (4, -2.04247121312763908918e+02) (5, 5.54047604544896721279e+00) (6, -4.29197812903949760255e+00) (7, 2.88775146771017461600e-02) (8, 3.37137300938518791327e-01) (9, -1.42299734608440786587e+02) (10, -1.96807989212527933987e+00) (11, -1.61477913641030285108e-01) (12, 1.88233108454435860146e+00) (13, 3.09971512886097988471e+00) (14, -2.63138376644768579027e-01) (15, -2.67378537043514219462e+00) (16, -7.39277566200860936085e-01) (17, 1.38885472563459816397e-01) (18, -2.01806258193683862867e-01) (0, 2.28312065358271754079e-01) (1, -1.33896461319050968086e+03) (2, 6.86186332672367704788e+00) (3, 1.50000000000000000000e+03) (4, 1.50000000000000000000e+03) (5, 9.72996865473977663896e+02) (6, 1.50000000000000000000e+03) (7, -7.50855776178024825640e+02) (8, 1.50000000000000000000e+03) (9, -1.77746925133806939812e+02) (10, 1.15036981949195187269e+01) (11, -2.73230269527631094206e+02) (12, 1.49975116421600614558e+03) (13, 1.50000000000000000000e+03) (14, 1.50000000000000000000e+03) (15, 1.49999980467833984221e+03) (16, -4.29734559220486119102e+02) (17, -1.49465540635244110490e+03) (18, 3.42245235647984258343e-01) (0, 1.99420746754534349066e+02) (1, 5.94293404785804280088e-01) (2, -2.71913790928764642629e+00) (3, -8.47516514666646902931e-01) (4, -1.49745436446588860235e+03) (5, 8.61094468832011461501e-01) (6, -1.49994250370049644516e+03) (7, 1.32717415140033114795e+01) (8, -1.49834833891368703007e+03) (9, -1.36255885323051688829e+03) (10, -4.67726950361306990089e+01) (11, 6.52127546019741455297e+00) (12, -8.20544639070809694203e+02) (13, -1.49957882290856628060e+03) (14, -1.49405898293133441257e+03) (15, -1.49208980622403350935e+03) (16, 7.06933111708928407779e+00) (17, 2.75703554525045302359e-01) (18, 8.96209008850810950886e-02) (19, 3.16987439020313732652e-01) (20, 8.07041762592720868241e-01) (21, 1.04022625127708739923e-01) (22, -4.09385421939229221522e+00) (23, 1.04680942554359501795e-01) (24, 4.39821771718084952862e-01) (25, 1.46191979154818046949e-01) (26, -1.21447163104542281420e-02) (27, 1.46945568138299148542e-01) (28, 7.21070320522097740756e-01) (29, 1.32100094807736279101e+00) (30, 4.91124169402933130613e-01) (31, -2.83123232508910860350e-02) (32, 5.12009101818903245018e-01) (33, 2.48954462144578364535e-01) (34, 6.90664665843133018797e-01) (35, 5.24503080725231662917e-01) (36, 1.85276970385138989306e-01) (37, 5.63143440566346464848e-01) (38, 4.50776083896641810433e-01) (39, -4.75690447758415624335e-01) (40, 7.93505301353046199608e-01) (41, 4.47805220763102113102e-02) (42, 6.40182511929147102236e-01) (43, 4.12161049304028692664e-01) (44, 1.53654040936946428841e-01) (45, 7.87771145418803109273e-01) (46, 3.01790677374358766449e-02) (47, 7.38707747899053357443e-01) (48, 7.76056506792403233419e-01) (49, 7.84850962600570301042e-01) (50, 1.02525170711020033321e-01) (51, 5.92309496909421695499e-01) (52, 7.25261381490672207839e-02) (53, 7.76554338071582250791e-01) (54, 2.34360856294519026566e-01) (55, 8.91692055703008634726e-02) (56, 7.69547486190982343857e-01) (57, 9.50483624282130457050e-02) (58, 4.26990115044807716504e-01) (59, 9.13999878530393078391e-02) (60, -4.68798113495502155601e-02) (61, 4.25752147899594146629e-01) (62, 1.51918747641897500245e-01) (63, 5.51248408279901180862e+00) (64, 4.32022190227963287512e-01) (65, 5.38325575305692805017e-01) (66, 6.76253039944114564541e-01) (67, 4.69237064844092444105e+00) (68, -3.80307729006340716760e-02) (69, 6.42414349190377764742e-01) (70, 1.20521616893112595847e-01) (71, -5.12307859923876590669e-02) (72, 4.76260977077457126061e-01) (73, 5.86236645256074218047e-01) (74, 4.58455532577968671859e-01) (75, 1.77210795333851922617e-01) (76, 3.93911957097540302297e-02) (77, 1.03240242276382062497e-02) (78, 8.18575753719355397875e-02) (79, 2.60397666462129118159e+00) (80, 2.85841193759772516092e-01) (81, 1.28478920383162581453e-01) (82, 2.19116123747113283882e-01) (83, 4.71157241892535882943e-01) (84, -1.20729156312663038486e-01) (85, -2.82277825355518441341e+00) (86, 5.95655161580042391556e-01) (87, 7.41303270745847453504e-01) (88, 1.88693186394674056183e-01) (89, 2.39614067012858422689e-01) (90, 4.48960924228733848640e-01) (91, 3.62495011090691043876e-01) (92, 4.74483751234281991849e-01) (93, 4.78499912894798373753e-01) (94, 5.12581008430678219945e-01) (95, 2.29217333288099034405e+00) (96, 2.47813296697371142352e-02) (97, 6.42356019626129870481e-01) (98, 5.47484707759628985713e-01) (99, 5.12521362863319951408e-01) (100, 3.37199743060921097726e-01) (101, 4.33277079172179724331e-01) (102, 5.89036190841193074696e-01) (103, 1.47863965994220331046e-01) (104, 5.38430403567883783533e-02) (105, 4.98208476973394653875e-01) (106, 5.74752063324977302550e-01) (107, -1.18774337801661680203e+01) (108, 2.70584514633166572928e-01) (109, 7.38196493739910475362e-01) (110, 6.64792115957835716422e-01) (111, 5.48555306596681280240e-01) (112, 6.07513272169658002930e-01) (113, 2.61241730123392912333e+00) (114, 2.31629225809964395255e-01) (115, 7.69361962790807929480e-01) (116, -6.11652878223660212420e-01) (117, 1.40888513311266033723e-01) (118, 4.53507467091800398062e-01) (119, 6.22059800369218818261e-01) (120, 5.07575861942675787830e-01) (121, 2.17133630007727812528e-01) (122, 1.57583681122154845022e-01) (123, 4.46622112046359931448e-01) (124, 6.78822646669758444915e-01) (125, 1.03652280279090971971e-01) (126, 1.01122883959274934007e+00) (127, -7.22059090955072813145e-02) (128, 7.22592446599080617808e-01) (129, 2.33380306761192757303e-01) (130, 6.08375040373819842010e-01) (131, 7.32664930741110276280e-01) (132, 2.11484831341303192165e-01) (133, 5.67251116885035266968e-01) (134, 1.47928740402058167547e-01) (135, 2.22008467758296357264e-01) (136, 1.31933183646492591112e-01) (137, 4.72969045391161524439e-01) (138, 1.02137091287802750372e+00) (139, 1.45872287237492986867e-01) (140, 5.80876360966255500529e-01) (141, 1.86685449723845812986e-02) (142, 5.29136923008641901767e-01) (143, 1.02177826897451429211e+00) (144, 7.07120964231384707688e-01) (145, -3.02954590067419961275e-02) (146, 6.86446328118668902540e-01) (147, 6.17042827586391395833e-01) (19, 1.17767718815574817803e+00) (20, 4.39639918734938461853e-01) (21, 1.05633644870990917042e+00) (22, 2.42883058087602993202e-01) (23, 9.72225449472395086836e-01) (24, 6.75273086082419204956e-01) (25, 1.24798124546200694951e+00) (26, 7.77561172390597077353e-01) (27, 5.40356171045218713900e-01) (28, 8.13954963039488998966e-01) (29, 4.34345508234549648741e-01) (30, 8.00574658918856929546e-01) (31, 1.18896974949102141039e+00) (32, 4.91180128043815222849e-01) (33, 1.06481888686808923161e+00) (34, 3.30407791373347814456e+00) (35, 4.54937784577196968616e-01) (36, 9.32851071045409874216e-01) (37, 5.89770955914754146932e-01) (38, 6.48480851558369125742e-02) (39, 2.17801755768506311028e+00) (40, 5.77815600552270991486e-01) (41, 7.05590263299762154858e-01) (42, 4.22199099986415360419e-01) (43, 7.29565945429934581412e-01) (44, 1.06856163398266290621e+00) (45, 4.27661193927014904315e-01) (46, 1.16547000774626163810e+00) (47, 3.74160216357610375670e-01) (48, 1.05865648665162487285e-01) (49, 4.26042343110766053016e-01) (50, 6.98895653575163477988e-01) (51, 4.66111354660393162330e-01) (52, 1.07262081507776074751e+00) (53, 6.13944689817795818954e-01) (54, 9.36521078835588105527e-01) (55, 9.74235789196267631951e-01) (56, 4.91456593607149161418e-01) (57, 1.17899019722095865781e+00) (58, 4.57877166878168997965e-02) (59, 1.05233265180210411316e+00) (60, 7.17100306327484338098e-01) (61, 7.10833061725476555992e-01) (62, 9.62099496845739698969e-01) (63, 1.40253344408378266550e+00) (64, 6.27643500965957334969e-01) (65, 1.56150242173770686938e-01) (66, 6.32485119294637243570e-01) (67, 7.27872956014364724808e+00) (68, 7.73544315963176631890e-01) (69, 4.99477230279702810734e-01) (70, 9.58437871173694944105e-01) (71, 7.92695154989344397123e-01) (72, 1.04833303650140208241e+00) (73, -1.13951185580246791562e-01) (74, 8.08647620876542849722e-01) (75, 1.40486320398051067748e+00) (76, 8.32110989290689162523e-01) (77, 7.14119520567438770264e-01) (78, 1.05747058181867892301e+00) (79, 1.76560713550406200856e-01) (80, 5.30997826674424300286e-01) (81, 9.63387215634091020888e-01) (82, 1.01685401327714952657e+00) (83, -2.79394170104612406258e-02) (84, 5.97926856700490283458e+00) (85, 1.42853804076286650115e+00) (86, -1.98668043415399980800e-01) (87, 1.03839039890670692401e+00) (88, 6.26901948329339542276e-01) (89, 1.09822900713773785597e+00) (90, 7.48852157946708757441e-02) (91, 5.34371393536572591998e-01) (92, 8.35266074072038705589e-02) (93, 5.01271942499829648021e-01) (94, 5.76412624950797924939e-01) (95, 5.14840614307237598446e-01) (96, 7.36841592901435915586e-01) (97, -2.44320772623459997464e-01) (98, 3.85283315867894049500e-01) (99, 2.50156257268167425689e-01) (100, 5.57567968795433244189e-01) (101, 1.59547688836274415003e+00) (102, 5.18817275932640487035e-01) (103, 9.16974496749991874189e-01) (104, 1.16085013449763407856e+00) (105, -2.13740074461427655150e-02) (106, 1.13114319006343611029e-01) (107, 4.62152370433761916502e+01) (108, 5.33360316216183627525e-01) (109, -2.27992736687613502256e-02) (110, 3.85735932490930855110e-01) (111, -7.69266842487371926840e-02) (112, -2.07752792074366060548e-01) (113, 1.44860946430442694144e+00) (114, 6.08496589598732984250e-01) (115, 4.53938531172188852736e-01) (116, 1.12727067757772947409e+00) (117, 9.69330331818864854299e-01) (118, 8.79954091019993334122e-01) (119, -1.14761881745200244875e-01) (120, 4.23124465075715716633e-01) (121, 9.32208986519257210013e-01) (122, 1.05584808492102832922e+00) (123, -7.76866260197758562445e-02) (124, 5.59835638489503573112e-01) (125, 7.05792352822207091911e-01) (126, 6.24130797982246465772e-01) (127, 8.28391478386768742581e-01) (128, 5.57347860683034657114e-01) (129, 1.18396799095077809305e+00) (130, -6.02755379798775511868e-02) (131, 6.96756232911413309061e-01) (132, 9.34693442522540940409e-01) (133, 1.47737342597285742363e-01) (134, 1.10041070064365653636e+00) (135, 1.02461911273462646932e+00) (136, 1.06177937410397360551e+00) (137, 9.23076551197894029643e-02) (138, 1.00681701114581301226e+00) (139, 9.39440869007822532133e-01) (140, 7.54613298417762395909e-02) (141, 9.11399306723779778494e-01) (142, 6.46774555659125338636e-01) (143, 2.07700531980372016250e+00) (144, 5.36508336034657196123e-01) (145, 1.29752040881377261883e+00) (146, 