FANN_FLO_2.1
num_layers=4
learning_rate=0.700000
connection_rate=1.000000
network_type=0
learning_momentum=0.000000
training_algorithm=2
train_error_function=1
train_stop_function=0
cascade_output_change_fraction=0.010000
quickprop_decay=-0.000100
quickprop_mu=1.750000
rprop_increase_factor=1.200000
rprop_decrease_factor=0.500000
rprop_delta_min=0.000000
rprop_delta_max=50.000000
rprop_delta_zero=0.100000
cascade_output_stagnation_epochs=12
cascade_candidate_change_fraction=0.010000
cascade_candidate_stagnation_epochs=12
cascade_max_out_epochs=150
cascade_max_cand_epochs=150
cascade_num_candidate_groups=2
bit_fail_limit=3.49999999999999977796e-01
cascade_candidate_limit=1.00000000000000000000e+03
cascade_weight_multiplier=4.00000000000000022204e-01
cascade_activation_functions_count=10
cascade_activation_functions=3 5 7 8 10 11 14 15 16 17 
cascade_activation_steepnesses_count=4
cascade_activation_steepnesses=2.50000000000000000000e-01 5.00000000000000000000e-01 7.50000000000000000000e-01 1.00000000000000000000e+00 
layer_sizes=19 129 129 7 
scale_included=0
neurons (num_inputs, activation_function, activation_steepness)=(0, 0, 0.00000000000000000000e+00) (0, 0, 0.00000000000000000000e+00) (0, 0, 0.00000000000000000000e+00) (0, 0, 0.00000000000000000000e+00) (0, 0, 0.00000000000000000000e+00) (0, 0, 0.00000000000000000000e+00) (0, 0, 0.00000000000000000000e+00) (0, 0, 0.00000000000000000000e+00) (0, 0, 0.00000000000000000000e+00) (0, 0, 0.00000000000000000000e+00) (0, 0, 0.00000000000000000000e+00) (0, 0, 0.00000000000000000000e+00) (0, 0, 0.00000000000000000000e+00) (0, 0, 0.00000000000000000000e+00) (0, 0, 0.00000000000000000000e+00) (0, 0, 0.00000000000000000000e+00) (0, 0, 0.00000000000000000000e+00) (0, 0, 0.00000000000000000000e+00) (0, 0, 0.00000000000000000000e+00) (19, 5, 5.00000000000000000000e-01) (19, 5, 5.00000000000000000000e-01) (19, 5, 5.00000000000000000000e-01) (19, 5, 5.00000000000000000000e-01) (19, 5, 5.00000000000000000000e-01) (19, 5, 5.00000000000000000000e-01) (19, 5, 5.00000000000000000000e-01) (19, 5, 5.00000000000000000000e-01) (19, 5, 5.00000000000000000000e-01) (19, 5, 5.00000000000000000000e-01) (19, 5, 5.00000000000000000000e-01) (19, 5, 5.00000000000000000000e-01) (19, 5, 5.00000000000000000000e-01) (19, 5, 5.00000000000000000000e-01) (19, 5, 5.00000000000000000000e-01) (19, 5, 5.00000000000000000000e-01) (19, 5, 5.00000000000000000000e-01) (19, 5, 5.00000000000000000000e-01) (19, 5, 5.00000000000000000000e-01) (19, 5, 5.00000000000000000000e-01) (19, 5, 5.00000000000000000000e-01) (19, 5, 5.00000000000000000000e-01) (19, 5, 5.00000000000000000000e-01) (19, 5, 5.00000000000000000000e-01) (19, 5, 5.00000000000000000000e-01) (19, 5, 5.00000000000000000000e-01) (19, 5, 5.00000000000000000000e-01) (19, 5, 5.00000000000000000000e-01) (19, 5, 5.00000000000000000000e-01) (19, 5, 5.00000000000000000000e-01) (19, 5, 5.00000000000000000000e-01) (19, 5, 5.00000000000000000000e-01) (19, 5, 5.00000000000000000000e-01) (19, 5, 5.00000000000000000000e-01) (19, 5, 5.00000000000000000000e-01) (19, 5, 5.00000000000000000000e-01) (19, 5, 5.00000000000000000000e-01) (19, 5, 5.00000000000000000000e-01) (19, 5, 5.00000000000000000000e-01) (19, 5, 5.00000000000000000000e-01) (19, 5, 5.00000000000000000000e-01) (19, 5, 5.00000000000000000000e-01) (19, 5, 5.00000000000000000000e-01) (19, 5, 5.00000000000000000000e-01) (19, 5, 5.00000000000000000000e-01) (19, 5, 5.00000000000000000000e-01) (19, 5, 5.00000000000000000000e-01) (19, 5, 5.00000000000000000000e-01) (19, 5, 5.00000000000000000000e-01) (19, 5, 5.00000000000000000000e-01) (19, 5, 5.00000000000000000000e-01) (19, 5, 5.00000000000000000000e-01) (19, 5, 5.00000000000000000000e-01) (19, 5, 5.00000000000000000000e-01) (19, 5, 5.00000000000000000000e-01) (19, 5, 5.00000000000000000000e-01) (19, 5, 5.00000000000000000000e-01) (19, 5, 5.00000000000000000000e-01) (19, 5, 5.00000000000000000000e-01) (19, 5, 5.00000000000000000000e-01) (19, 5, 5.00000000000000000000e-01) (19, 5, 5.00000000000000000000e-01) (19, 5, 5.00000000000000000000e-01) (19, 5, 5.00000000000000000000e-01) (19, 5, 5.00000000000000000000e-01) (19, 5, 5.00000000000000000000e-01) (19, 5, 5.00000000000000000000e-01) (19, 5, 5.00000000000000000000e-01) (19, 5, 5.00000000000000000000e-01) (19, 5, 5.00000000000000000000e-01) (19, 5, 5.00000000000000000000e-01) (19, 5, 5.00000000000000000000e-01) (19, 5, 5.00000000000000000000e-01) (19, 5, 5.00000000000000000000e-01) (19, 5, 5.00000000000000000000e-01) (19, 5, 5.00000000000000000000e-01) (19, 5, 5.00000000000000000000e-01) (19, 5, 5.00000000000000000000e-01) (19, 5, 5.00000000000000000000e-01) (19, 5, 5.00000000000000000000e-01) (19, 5, 5.00000000000000000000e-01) (19, 5, 5.00000000000000000000e-01) (19, 5, 5.00000000000000000000e-01) (19, 5, 5.00000000000000000000e-01) (19, 5, 5.00000000000000000000e-01) (19, 5, 5.00000000000000000000e-01) (19, 5, 5.00000000000000000000e-01) (19, 5, 5.00000000000000000000e-01) (19, 5, 5.00000000000000000000e-01) (19, 5, 5.00000000000000000000e-01) (19, 5, 5.00000000000000000000e-01) (19, 5, 5.00000000000000000000e-01) (19, 5, 5.00000000000000000000e-01) (19, 5, 5.00000000000000000000e-01) (19, 5, 5.00000000000000000000e-01) (19, 5, 5.00000000000000000000e-01) (19, 5, 5.00000000000000000000e-01) (19, 5, 5.00000000000000000000e-01) (19, 5, 5.00000000000000000000e-01) (19, 5, 5.00000000000000000000e-01) (19, 5, 5.00000000000000000000e-01) (19, 5, 5.00000000000000000000e-01) (19, 5, 5.00000000000000000000e-01) (19, 5, 5.00000000000000000000e-01) (19, 5, 5.00000000000000000000e-01) (19, 5, 5.00000000000000000000e-01) (19, 5, 5.00000000000000000000e-01) (19, 5, 5.00000000000000000000e-01) (19, 5, 5.00000000000000000000e-01) (19, 5, 5.00000000000000000000e-01) (19, 5, 5.00000000000000000000e-01) (19, 5, 5.00000000000000000000e-01) (19, 5, 5.00000000000000000000e-01) (19, 5, 5.00000000000000000000e-01) (19, 5, 5.00000000000000000000e-01) (19, 5, 5.00000000000000000000e-01) (19, 5, 5.00000000000000000000e-01) (19, 5, 5.00000000000000000000e-01) (19, 5, 5.00000000000000000000e-01) (19, 5, 5.00000000000000000000e-01) (19, 5, 5.00000000000000000000e-01) (19, 5, 5.00000000000000000000e-01) (19, 5, 5.00000000000000000000e-01) (19, 5, 5.00000000000000000000e-01) (19, 5, 5.00000000000000000000e-01) (19, 5, 5.00000000000000000000e-01) (19, 5, 5.00000000000000000000e-01) (19, 5, 5.00000000000000000000e-01) (0, 5, 0.00000000000000000000e+00) (129, 5, 5.00000000000000000000e-01) (129, 5, 5.00000000000000000000e-01) (129, 5, 5.00000000000000000000e-01) (129, 5, 5.00000000000000000000e-01) (129, 5, 5.00000000000000000000e-01) (129, 5, 5.00000000000000000000e-01) (129, 5, 5.00000000000000000000e-01) (129, 5, 5.00000000000000000000e-01) (129, 5, 5.00000000000000000000e-01) (129, 5, 5.00000000000000000000e-01) (129, 5, 5.00000000000000000000e-01) (129, 5, 5.00000000000000000000e-01) (129, 5, 5.00000000000000000000e-01) (129, 5, 5.00000000000000000000e-01) (129, 5, 5.00000000000000000000e-01) (129, 5, 5.00000000000000000000e-01) (129, 5, 5.00000000000000000000e-01) (129, 5, 5.00000000000000000000e-01) (129, 5, 5.00000000000000000000e-01) (129, 5, 5.00000000000000000000e-01) (129, 5, 5.00000000000000000000e-01) (129, 5, 5.00000000000000000000e-01) (129, 5, 5.00000000000000000000e-01) (129, 5, 5.00000000000000000000e-01) (129, 5, 5.00000000000000000000e-01) (129, 5, 5.00000000000000000000e-01) (129, 5, 5.00000000000000000000e-01) (129, 5, 5.00000000000000000000e-01) (129, 5, 5.00000000000000000000e-01) (129, 5, 5.00000000000000000000e-01) (129, 5, 5.00000000000000000000e-01) (129, 5, 5.00000000000000000000e-01) (129, 5, 5.00000000000000000000e-01) (129, 5, 5.00000000000000000000e-01) (129, 5, 5.00000000000000000000e-01) (129, 5, 5.00000000000000000000e-01) (129, 5, 5.00000000000000000000e-01) (129, 5, 5.00000000000000000000e-01) (129, 5, 5.00000000000000000000e-01) (129, 5, 5.00000000000000000000e-01) (129, 5, 5.00000000000000000000e-01) (129, 5, 5.00000000000000000000e-01) (129, 5, 5.00000000000000000000e-01) (129, 5, 5.00000000000000000000e-01) (129, 5, 5.00000000000000000000e-01) (129, 5, 5.00000000000000000000e-01) (129, 5, 5.00000000000000000000e-01) (129, 5, 5.00000000000000000000e-01) (129, 5, 5.00000000000000000000e-01) (129, 5, 5.00000000000000000000e-01) (129, 5, 5.00000000000000000000e-01) (129, 5, 5.00000000000000000000e-01) (129, 5, 5.00000000000000000000e-01) (129, 5, 5.00000000000000000000e-01) (129, 5, 5.00000000000000000000e-01) (129, 5, 5.00000000000000000000e-01) (129, 5, 5.00000000000000000000e-01) (129, 5, 5.00000000000000000000e-01) (129, 5, 5.00000000000000000000e-01) (129, 5, 5.00000000000000000000e-01) (129, 5, 5.00000000000000000000e-01) (129, 5, 5.00000000000000000000e-01) (129, 5, 5.00000000000000000000e-01) (129, 5, 5.00000000000000000000e-01) (129, 5, 5.00000000000000000000e-01) (129, 5, 5.00000000000000000000e-01) (129, 5, 5.00000000000000000000e-01) (129, 5, 5.00000000000000000000e-01) (129, 5, 5.00000000000000000000e-01) (129, 5, 5.00000000000000000000e-01) (129, 5, 5.00000000000000000000e-01) (129, 5, 5.00000000000000000000e-01) (129, 5, 5.00000000000000000000e-01) (129, 5, 5.00000000000000000000e-01) (129, 5, 5.00000000000000000000e-01) (129, 5, 5.00000000000000000000e-01) (129, 5, 5.00000000000000000000e-01) (129, 5, 5.00000000000000000000e-01) (129, 5, 5.00000000000000000000e-01) (129, 5, 5.00000000000000000000e-01) (129, 5, 5.00000000000000000000e-01) (129, 5, 5.00000000000000000000e-01) (129, 5, 5.00000000000000000000e-01) (129, 5, 5.00000000000000000000e-01) (129, 5, 5.00000000000000000000e-01) (129, 5, 5.00000000000000000000e-01) (129, 5, 5.00000000000000000000e-01) (129, 5, 5.00000000000000000000e-01) (129, 5, 5.00000000000000000000e-01) (129, 5, 5.00000000000000000000e-01) (129, 5, 5.00000000000000000000e-01) (129, 5, 5.00000000000000000000e-01) (129, 5, 5.00000000000000000000e-01) (129, 5, 5.00000000000000000000e-01) (129, 5, 5.00000000000000000000e-01) (129, 5, 5.00000000000000000000e-01) (129, 5, 5.00000000000000000000e-01) (129, 5, 5.00000000000000000000e-01) (129, 5, 5.00000000000000000000e-01) (129, 5, 5.00000000000000000000e-01) (129, 5, 5.00000000000000000000e-01) (129, 5, 5.00000000000000000000e-01) (129, 5, 5.00000000000000000000e-01) (129, 5, 5.00000000000000000000e-01) (129, 5, 5.00000000000000000000e-01) (129, 5, 5.00000000000000000000e-01) (129, 5, 5.00000000000000000000e-01) (129, 5, 5.00000000000000000000e-01) (129, 5, 5.00000000000000000000e-01) (129, 5, 5.00000000000000000000e-01) (129, 5, 5.00000000000000000000e-01) (129, 5, 5.00000000000000000000e-01) (129, 5, 5.00000000000000000000e-01) (129, 5, 5.00000000000000000000e-01) (129, 5, 5.00000000000000000000e-01) (129, 5, 5.00000000000000000000e-01) (129, 5, 5.00000000000000000000e-01) (129, 5, 5.00000000000000000000e-01) (129, 5, 5.00000000000000000000e-01) (129, 5, 5.00000000000000000000e-01) (129, 5, 5.00000000000000000000e-01) (129, 5, 5.00000000000000000000e-01) (129, 5, 5.00000000000000000000e-01) (129, 5, 5.00000000000000000000e-01) (129, 5, 5.00000000000000000000e-01) (129, 5, 5.00000000000000000000e-01) (129, 5, 5.00000000000000000000e-01) (129, 5, 5.00000000000000000000e-01) (0, 5, 0.00000000000000000000e+00) (129, 5, 5.00000000000000000000e-01) (129, 5, 5.00000000000000000000e-01) (129, 5, 5.00000000000000000000e-01) (129, 5, 5.00000000000000000000e-01) (129, 5, 5.00000000000000000000e-01) (129, 5, 5.00000000000000000000e-01) (0, 5, 0.00000000000000000000e+00) 
connections (connected_to_neuron, weight)=(0, 1.98200594787124234619e-01) (1, 4.46208818883973151737e-02) (2, 2.18554020320851111192e-01) (3, 2.05065738385966006563e-01) (4, 9.20260410437536147121e-02) (5, 8.30818788654074380506e-02) (6, 1.22662106703569417920e-01) (7, 7.83334097623025193968e-02) (8, 6.00184835977359970594e-02) (9, 3.15303523988808079292e-02) (10, 2.01083812808916323478e-01) (11, 8.24800591090064233457e-02) (12, 1.58506080006320659859e-01) (13, 5.80739053160267831855e-02) (14, 1.78025518053572334720e-01) (15, 1.81813380681597969168e-01) (16, 1.26905801571414150741e-01) (17, 1.55301603218358980074e-01) (18, 2.17232380156123533466e-01) (0, 1.17320015102154409647e-01) (1, 2.51434307045973748362e-01) (2, 1.53392704831866871773e-01) (3, 2.49157428098254724036e-01) (4, 1.16319015334806222239e-01) (5, 1.46019244502218120685e-01) (6, 1.49348570484838349959e-01) (7, 1.82122813662648291855e-01) (8, 1.11483388560209464857e-01) (9, 2.14457474997633901204e-01) (10, 1.01033849254270974294e-01) (11, 9.17753863735236152799e-02) (12, 1.92452819900448324208e-01) (13, 1.29527292556168960314e-01) (14, 8.91016317370261351494e-02) (15, 1.75559446684603492894e-01) (16, 1.86386616057699738835e-01) (17, 1.52291060778993403435e-01) (18, 7.69937784308242362252e-02) (0, 1.73115505405407349437e-01) (1, 1.09890728653490116207e-01) (2, 5.89604532455336588503e-03) (3, 1.54516135285696021295e-01) (4, 1.73327059708599767740e-01) (5, 1.44718945289346367922e-01) (6, -6.45369043240623038726e-03) (7, 1.31669394833544506351e-01) (8, 1.07488595029947703319e-01) (9, 1.00768931097480210490e-01) (10, 6.72878150301434857505e-02) (11, 1.05037792164311333254e-01) (12, 1.50490131391843751096e-01) (13, 5.23659215352410903344e-02) (14, -9.22437932412533898030e-03) (15, 1.44351986494350825740e-01) (16, 1.01086122155388660748e-01) (17, 6.37061121744417480084e-02) (18, 2.06118009953058095585e-02) (0, 4.95533645025044849897e-02) (1, 1.36100052735771109846e-01) (2, 1.95457761131509727415e-01) (3, 8.33301307882036157437e-02) (4, 1.54786686105643528366e-01) (5, 1.14821825048074838138e-01) (6, 1.37492741853802752372e-01) (7, 1.70068228287688499867e-01) (8, 2.17292518822159358427e-01) (9, 6.39982109413956556931e-02) (10, 5.10243948002996328128e-02) (11, 2.27421332046889648759e-02) (12, 4.91539097497631638500e-02) (13, 1.72955319930114342908e-01) (14, 4.06783750055670079160e-02) (15, 2.15710241418651554879e-01) (16, 1.58322573041674269367e-01) (17, 1.97437516678105690060e-01) (18, 2.12967443892056879085e-02) (0, 1.49606064205223099339e-01) (1, 1.68623286123720073082e-01) (2, 1.84802886278098266182e-01) (3, 2.19809544783577143212e-01) (4, 8.57012716909916760777e-02) (5, 1.50041769719937878591e-01) (6, 9.91718606849718714580e-02) (7, 8.75571220524400395391e-02) (8, 1.06433949617248960196e-01) (9, 2.10544317506051903433e-01) (10, 1.60180319222030631554e-01) (11, 1.39085946995747194999e-01) (12, 2.39494644732979433677e-01) (13, 8.01529303910701318436e-02) (14, 1.12151966458461330167e-01) (15, 1.01263454384003845354e-01) (16, 2.11226646250766314505e-01) (17, 2.08245308487675306885e-01) (18, 2.16364457549243160983e-01) (0, 1.60656994587160206756e-01) (1, 1.98767650230755876795e-01) (2, 2.60679488449110929871e-01) (3, 1.76913585097964343174e-01) (4, 2.07958900521701239850e-01) (5, 9.28587738241499205394e-02) (6, 1.47978904901322205756e-01) (7, 2.28954095485740471982e-01) (8, 8.71319705966727420243e-02) (9, 8.48644332968677972406e-02) (10, 2.06708429235218538178e-01) (11, 8.87455349443506402718e-02) (12, 1.68569485879520697402e-01) (13, 1.06700109971507986484e-01) (14, 2.02213529936298819223e-01) (15, 1.28890404296406330120e-01) (16, 1.19307358983896646953e-01) (17, 8.01212406950202737921e-02) (18, 1.54018815141324594276e-01) (0, -1.35562055420104243808e-01) (1, -1.11763072915283881437e-01) (2, -1.31046574913373153892e-01) (3, 4.17801280241030664753e-03) (4, -4.57658788300555549600e-02) (5, -1.10597245953367624705e-02) (6, -3.55746416860941924720e-02) (7, -3.99410672820966171359e-03) (8, -1.82885026195216293665e-01) (9, -4.88660578257867420082e-02) (10, -6.70836925069166895019e-02) (11, 9.91606887333496000991e-03) (12, -5.40608947116545928563e-03) (13, -1.79380774361147826701e-01) (14, -4.66014718903252009308e-02) (15, -8.37880773689487490241e-02) (16, 5.01476377299375167956e-03) (17, 1.99853808060971027682e-02) (18, 3.79189064046458676471e-02) (0, 2.39780468530041590558e-01) (1, 3.11974266724774795811e-01) (2, 1.27640252043286328565e-01) (3, 1.76108700428412479067e-01) (4, 1.29384907495875417505e-01) (5, 2.24473472313322264249e-01) (6, 2.10674754418936238665e-01) (7, 2.61218243075558687050e-01) (8, 3.22432923108202873497e-01) (9, 2.99051159901307150868e-01) (10, 2.70004592484428818100e-01) (11, 2.06071540912679845858e-01) (12, 1.23796614530021720224e-01) (13, 3.13090835529563904505e-01) (14, 1.87560950316031593843e-01) (15, 3.22273184054808370380e-01) (16, 2.21219572657027963025e-01) (17, 1.78167370483672760084e-01) (18, 2.47006052510665208288e-01) (0, 1.15409444225456944699e-01) (1, 1.40283157441250860842e-01) (2, -3.65118324155610962656e-01) (3, -2.59221926387703360817e-01) (4, 1.04093842272105413516e-01) (5, 8.55676847339758434030e-02) (6, 2.15954715667703300852e-01) (7, -2.03238475941672352976e-01) (8, 2.00956373347405042873e-01) (9, 1.74864095398216762289e-01) (10, 2.32083817959072347126e-01) (11, 1.92769895709570537878e-01) (12, 9.99437049050038578413e-02) (13, 2.14164562592095431004e-01) (14, -2.55733005427293269562e-01) (15, 1.46158886128764542445e-01) (16, 2.28848613951816270973e-01) (17, 9.93345449087382481590e-02) (18, 2.41178087482011582754e-01) (0, 1.83692695915587567157e-01) (1, 2.81631006705475417373e-01) (2, 1.92496451557372161290e-01) (3, 1.31400097842513358115e-01) (4, 1.24046722346492832578e-01) (5, 1.97373889992764367518e-01) (6, 1.25571754204083230189e-01) (7, 1.89310484992121275116e-01) (8, 1.55991248682778221868e-01) (9, 2.23539442261173365578e-01) (10, 2.44225970875856235320e-01) (11, 2.79745416593505602521e-01) (12, 2.67074931135397597437e-01) (13, 1.21300586809994004334e-01) (14, 1.04195431336689778301e-01) (15, 2.06086760377708871905e-01) (16, 1.57853182143042641838e-01) (17, 1.32616224246736191805e-01) (18, 1.57763849341328032949e-01) (0, 5.57769027237176653888e-02) (1, 1.80888831493841384379e-01) (2, 1.79097368780818139156e-01) (3, 2.03194707635010150815e-02) (4, 1.13713808818371606146e-01) (5, 1.14998237665330030333e-02) (6, 1.69359599680185352044e-01) (7, 5.18818506089172640228e-02) (8, 9.61791097523242849432e-02) (9, 1.26945732053892867963e-01) (10, 9.12714801128473168790e-02) (11, 6.98159473150468251612e-02) (12, 3.08953802632955833174e-02) (13, 8.05374575238952256084e-02) (14, 1.80382807318943877428e-01) (15, 7.51099699690844918587e-02) (16, 1.29381201334275025561e-01) (17, 8.84250246100980047403e-02) (18, 1.16605970941906805782e-01) (0, 1.73900664619722145066e-01) (1, 3.01367297268527456477e-01) (2, 1.95561749367201775929e-01) (3, 1.34662356037441477419e-01) (4, 2.93315726084852346212e-01) (5, 1.79172401044462359376e-01) (6, 1.68165957957354783581e-01) (7, 3.14046880943637529704e-01) (8, 2.97462176625222840531e-01) (9, 2.38222155210316699492e-01) (10, 1.58866117320060729057e-01) (11, 1.71761746508413970513e-01) (12, 2.98940923739445307827e-01) (13, 1.44696811639080824552e-01) (14, 1.60980496385013716054e-01) (15, 3.24202260308357192997e-01) (16, 2.63352486262863338951e-01) (17, 1.82601704320692781458e-01) (18, 3.03683241177456431092e-01) (0, 1.75044066428710620720e-01) (1, 1.45304746638715065465e-01) (2, 9.93394496443374547257e-02) (3, 7.12574093667365376925e-02) (4, 2.67767598808407863986e-02) (5, 1.40356213983646865850e-01) (6, 1.65637482625465459751e-01) (7, 1.72809482955662736814e-02) (8, 2.93087967073326766121e-02) (9, 1.00599998772550228154e-01) (10, 1.17362041812975465005e-01) (11, 1.56036151725253369182e-01) (12, 1.41408723433851662987e-01) (13, 8.56373962359821133683e-02) (14, 1.85059581538021405978e-02) (15, 1.42979139512872388540e-01) (16, 4.58611793821815175165e-02) (17, 6.45864193329760555295e-02) (18, 1.78053157511806475766e-01) (0, 1.85477764652373477983e-01) (1, 1.87618300284753347640e-01) (2, 2.42242807420176925470e-01) (3, 2.11251942014013371907e-01) (4, 2.26288106834746538532e-01) (5, 2.08091788220969270418e-01) (6, 2.23254604066172951393e-01) (7, 2.54574453632838926254e-01) (8, 2.16037079091770889416e-01) (9, 1.53515147390383327464e-01) (10, 3.03686427623611698845e-01) (11, 1.86628377330574357629e-01) (12, 3.40599410202286401184e-01) (13, 2.61429158036786291053e-01) (14, 2.81173049950139086750e-01) (15, 2.23897013065115363384e-01) (16, 3.00246114393951823995e-01) (17, 2.33569457429878363230e-01) (18, 2.01574689093541009610e-01) (0, 1.16368852594385840948e-01) (1, 6.17200440420788629114e-02) (2, 1.01016477864091236416e-01) (3, 4.57710879034538067889e-02) (4, 2.97963892634246600710e-02) (5, 5.85819613266480507252e-02) (6, -5.24347558318590187265e-02) (7, 6.03425438004193057107e-02) (8, 1.36012943356128637729e-02) (9, 5.46661993351488934012e-03) (10, -6.30308434636445008570e-02) (11, 3.69464525037955376918e-03) (12, 4.02063670781285312228e-02) (13, -1.79174274351612747291e-02) (14, 9.48016448844295478438e-02) (15, 1.08953424835871823251e-01) (16, 5.76326618918254693358e-02) (17, -4.00092445026028545318e-02) (18, -1.89277819574467480457e-02) (0, 1.53664224279263628148e-01) (1, 1.96533406197157256567e-01) (2, 1.76044477074635774549e-01) (3, 3.10729201020860212878e-01) (4, 2.19307568866252078355e-01) (5, 1.70579340065842577356e-01) (6, 2.26093811846566961066e-01) (7, 1.53461374675776807130e-01) (8, 2.87861049662068047006e-01) (9, 2.19724619791396597046e-01) (10, 2.40011590852140799246e-01) (11, 3.42416497502094796523e-01) (12, 1.61868696845736181888e-01) (13, 1.68865494068332566702e-01) (14, 2.68253502896604933969e-01) (15, 3.14222887758624669363e-01) (16, 2.64841048556567371097e-01) (17, 1.89852756864753280386e-01) (18, 2.83446792741206654576e-01) (0, 2.15130111348273617144e-01) (1, 2.88886216081508828690e-01) (2, 1.74743364947131413212e-01) (3, 2.17880642737940166676e-01) (4, 1.55041247322220937521e-01) (5, 2.81128897250070231006e-01) (6, 2.62423604366475993199e-01) (7, 3.16022057431460889898e-01) (8, 2.52144917704775317624e-01) (9, 1.86235428502879635237e-01) (10, 3.37677621249556414451e-01) (11, 2.99396300972138929009e-01) (12, 2.17602465111740001058e-01) (13, 2.12311627167577537945e-01) (14, 1.53143587489271620905e-01) (15, 2.06034475575097103528e-01) (16, 3.09322008456558716905e-01) (17, 2.00471042955176287359e-01) (18, 3.08876402821726292469e-01) (0, 2.15426062829996572967e-01) (1, 1.99616137600746340608e-01) (2, 3.98850646163925875998e-02) (3, 1.33140463031502120916e-01) (4, 1.78376809738046593345e-01) (5, 7.81734755841835410317e-02) (6, 1.78425671221889320384e-01) (7, 1.24333122077148555684e-01) (8, 2.61535587814714400035e-02) (9, 1.17427853001744533779e-01) (10, 1.90933994341963952923e-01) (11, 1.86348466922740207963e-01) (12, 1.88125702386178289549e-01) (13, 1.32870355283218249953e-01) (14, 2.16987971277171426410e-01) (15, 5.67979119721967601331e-02) (16, 1.40892361351924788604e-01) (17, 1.50769223015487729977e-01) (18, 1.75117655652840292779e-01) (0, 8.26020268372686661262e-02) (1, 2.86017487741460421646e-02) (2, 1.86712293911827781345e-01) (3, 7.65169208208206080846e-02) (4, 1.80978808492770676386e-01) (5, 5.72955147898212419078e-02) (6, 1.38950580138641033301e-01) (7, 1.87103154728527953932e-01) (8, 1.16310749111404085343e-01) (9, 1.01253344361453209710e-01) (10, 4.05549534499576730395e-02) (11, 7.81679076993836707832e-02) (12, 9.47202955896389447998e-02) (13, 1.82119794488931688314e-02) (14, 9.60938636941976870309e-02) (15, 5.90164701933013676610e-03) (16, 1.74629680658493408041e-01) (17, 1.52636632027942142908e-01) (18, 1.62696610990780504702e-01) (0, 2.04963319266165677757e-01) (1, 2.87706090887851317905e-01) (2, 1.89995058020265339405e-01) (3, 1.73938202006318765047e-01) (4, 2.55010826776462640186e-01) (5, 1.56490050082640219653e-01) (6, 2.86132546875500382022e-01) (7, 2.50994383381358099339e-01) (8, 2.34648171785564713110e-01) (9, 2.45798135688246238706e-01) (10, 1.79178199236639912328e-01) (11, 1.87806715929726392167e-01) (12, 2.93658665202821744789e-01) (13, 2.14397085402252107755e-01) (14, 1.38822812609094237146e-01) (15, 2.13383234693723305986e-01) (16, 2.01038331376722001487e-01) (17, 2.02735464790381514355e-01) (18, 3.17592317602803542176e-01) (0, 1.37628425849637275880e-01) (1, 6.85331536461728507703e-02) (2, 1.72591106132168270459e-01) (3, 1.72065003100680291581e-01) (4, 1.52363501807488033180e-01) (5, 7.47277010141397246556e-02) (6, 2.13732605999640584704e-01) (7, 2.58378310573405656214e-01) (8, 8.62917884954013114651e-02) (9, 1.92270862422332211583e-01) (10, 2.09590386025728270258e-01) (11, 2.54650839948113216771e-01) (12, 7.66908527553635255281e-02) (13, 1.83840142037764220362e-01) (14, 1.12553154613388634031e-01) (15, 1.28331867091279194781e-01) (16, 1.03346169149815217403e-01) (17, 1.52878314153409855525e-01) (18, 9.12125263866095103982e-02) (0, 1.93166632656071618479e-01) (1, 1.74494880982972916383e-01) (2, 1.19949266728170050866e-01) (3, 5.00476412420761268551e-02) (4, 1.98645774528136948023e-01) (5, 9.03560444439540366712e-02) (6, 1.38916913464339486506e-01) (7, 2.12895470886777044006e-01) (8, 1.39444004765483908770e-01) (9, 2.16063908253492586997e-01) (10, 9.23790480969886584894e-02) (11, -3.95635401953231435890e-01) (12, 8.72553963410350463814e-02) (13, 9.31963629860367986923e-02) (14, 3.56800987346667097810e-02) (15, 2.03385377438568770714e-01) (16, 1.81398858684845176725e-01) (17, 3.73190467451552793099e-02) (18, 1.44668679441957048759e-01) (0, 2.01778736478937681387e-01) (1, 8.61344723040253640312e-02) (2, 1.16301661912994666603e-01) (3, 1.47121222295602427366e-01) (4, 6.76965563613875220828e-02) (5, 1.22612320311742781231e-01) (6, 7.56657912444867741808e-02) (7, 1.31086437993912646727e-01) (8, 1.76101572681869766868e-01) (9, 1.17376954686926229798e-01) (10, 2.09506749566261030182e-01) (11, 1.94225346064828163772e-01) (12, 8.85844757411869687669e-02) (13, 1.67874188982502364764e-01) (14, 9.35367328417034404886e-02) (15, 1.16673008361684524270e-01) (16, 1.31353242895052069183e-01) (17, 1.65164294173664405463e-01) (18, 2.35906741784496332137e-01) (0, 1.45738521749478461276e-01) (1, 9.52838116912853722029e-02) (2, 2.42646162790126102005e-01) (3, 2.18434389804939316226e-01) (4, 2.10024518425506151464e-01) (5, 1.10218376109401078322e-01) (6, 9.25870218499793146139e-02) (7, 2.26021437118645113218e-01) (8, 7.56035864573898708230e-01) (9, 2.52026771913245906109e-01) (10, 2.43657303822272658378e-01) (11, 2.22103329864794502013e-01) (12, 1.98509935303303658438e-01) (13, 2.74496206110782570153e-01) (14, 2.65466989470649616933e-01) (15, 9.03355845100261845015e-02) (16, 8.68971893832900799115e-02) (17, 1.14990553798509004269e-01) (18, 9.29126227508617758000e-02) (0, 6.08868575793719973843e-02) (1, 2.44305952015424043822e-01) (2, 5.22381107104226555249e-02) (3, 1.14401813459239540260e-01) (4, 1.67196403813869770572e-01) (5, 1.80752987521002411730e-01) (6, 2.09187249438090777653e-01) (7, 7.90876501296793599227e-02) (8, 2.26091104596536918159e-01) (9, 1.69394056080857502433e-01) (10, 2.84182345279604342547e-01) (11, 1.90662952207783092939e-01) (12, 1.45343732133230540970e-01) (13, 2.98412021991605824756e-01) (14, 1.52254977038392996791e-01) (15, 2.82723987052018232990e-01) (16, 2.27382402550728113244e-01) (17, 1.81419218168510226752e-01) (18, 2.94256873922713657610e-01) (0, 1.89044037579780943581e-01) (1, 2.11619441666123508927e-01) (2, 2.81923843746367197571e-01) (3, 1.51647203535669738983e-01) (4, 1.50110825620877796904e-01) (5, 2.00334338019689583987e-01) (6, 1.46043968616470842825e-01) (7, 1.35478374154678227193e-01) (8, 2.50019725335056341997e-01) (9, 1.92290960805101524000e-01) (10, 1.68460096044368623502e-01) (11, 2.61878213106634116780e-01) (12, 2.18436321061780458486e-01) (13, 3.08117893281980304021e-01) (14, 2.78420129564829144098e-01) (15, 2.67639220598297311593e-01) (16, 1.69711442315138627546e-01) (17, 1.54524959234654923890e-01) (18, 1.30819677471052359108e-01) (0, 1.53168756928390131788e-01) (1, 1.73720436145485518376e-01) (2, 2.04583398128614285527e-01) (3, 1.31748247520415306955e-01) (4, 5.87805335725571226346e-02) (5, 4.43242754811333516951e-02) (6, 1.24557414731309601397e-01) (7, 1.05432658810470952782e-01) (8, 2.18530030164990340946e-01) (9, 4.34215819336443153986e-02) (10, 1.81249025178501915745e-01) (11, 2.07184049306992523753e-01) (12, 1.13083812503836311780e-01) (13, 7.02428749159826615323e-02) (14, 1.69726082970406394468e-01) (15, 1.39518447801420891752e-01) (16, 9.83849142375968765961e-02) (17, 4.68085334099258565388e-02) (18, 1.65225912385635775870e-01) (0, 1.10611403792337192886e-01) (1, 1.33172436360419949031e-01) (2, 1.93861050806174967098e-01) (3, 1.56774312166302609572e-01) (4, 3.13948241022596122307e-02) (5, 8.87170830097779722356e-02) (6, 1.41311916590105474123e-01) (7, 1.87517766089817877750e-01) (8, 1.90113501933838524582e-01) (9, 1.85184495108763863547e-01) (10, 2.18790840724534946249e-01) (11, 1.97681294898085280209e-01) (12, 1.18981119725017805977e-01) (13, 1.67636784700527619041e-01) (14, 1.80945033412519773464e-01) (15, 2.61832763539476855164e-02) (16, 2.07045188941180763331e-01) (17, 2.05257727574118115088e-01) (18, 1.31368561846485459865e-01) (0, 9.08471374278482235454e-02) (1, 2.05072428076119167573e-01) (2, 1.29173842577250758135e-01) (3, 2.32360766706820043304e-02) (4, 1.93212746348982750133e-01) (5, 4.68711166282584426601e-02) (6, 9.84208173920755741149e-02) (7, 1.14078743383721051274e-01) (8, 1.64758857086108045920e-01) (9, 1.72259643718419203084e-01) (10, 1.65829142599057816065e-01) (11, 1.08025657869933136568e-01) (12, 6.38273164766274825332e-02) (13, 7.67140661727917644308e-02) (14, 5.59420032149895787854e-02) (15, 1.95727139546801764958e-01) (16, 8.61497816534727706150e-02) (17, 1.49600952123310648734e-01) (18, 1.18323726380785754220e-01) (0, 1.01417889852142770191e-01) (1, 1.70380176733683191825e-01) (2, 1.32885576190457543877e-01) (3, 9.82496190679991027173e-02) (4, 1.49017740597639586353e-01) (5, 2.32944547312072008927e-01) (6, 2.48591267664046960961e-01) (7, 1.11630392566317140912e-01) (8, 2.40084095612122933039e-01) (9, 2.32251884657055485128e-01) (10, 9.29466416342276113838e-02) (11, 1.49821947134804817070e-01) (12, 1.02893772200593883182e-01) (13, 7.87685167555716714283e-02) (14, 8.35398622588672812306e-02) (15, 1.31071714676686740253e-01) (16, 2.50022154482975822454e-01) (17, 1.09178061915053817299e-01) (18, 2.07861824818323298603e-01) (0, 2.42575458570239321787e-01) (1, 3.28425888918761288426e-01) (2, 2.34610435380977477848e-01) (3, 1.86445489660618635153e-01) (4, 2.17407815754565358901e-01) (5, 2.76876433700658008963e-01) (6, 2.41926638861338499931e-01) (7, 2.78291684868098132544e-01) (8, 2.70394815621295914188e-01) (9, 3.23280686579205056574e-01) (10, 2.06261926667605288710e-01) (11, 1.66759430400270969308e-01) (12, 3.36523442062280853104e-01) (13, 3.05699732718553718325e-01) (14, 2.12032048547780793690e-01) (15, 1.80267870503778626645e-01) (16, 1.83377309374859215341e-01) (17, 1.72285630247468873888e-01) (18, 3.38935411756209281631e-01) (0, 1.66197470702189528668e-02) (1, 1.33583980617135056335e-01) (2, 9.31262682516406647970e-02) (3, 3.91861943478311394728e-02) (4, 9.28803020475263071964e-03) (5, 1.22931287541715672518e-01) (6, 4.38368164433154544612e-02) (7, 2.11660714879043226899e-02) (8, -2.53637900758356231445e-02) (9, 1.67328908486718171134e-02) (10, 5.72553803993069779232e-02) (11, 1.09409281738836530740e-01) (12, 1.16724222723764592402e-01) (13, 3.80306737993848092971e-02) (14, 3.67629966105378815783e-03) (15, -4.74690045160485324383e-02) (16, 1.08817038765067514161e-01) (17, 1.33533492108197371362e-01) (18, 5.14556561299601283865e-02) (0, 4.39807674464347042598e-01) (1, 4.39394494781210454004e-01) (2, 4.10202529854014452670e-01) (3, 4.99448150249937439238e-01) (4, 4.42299710520001887470e-01) (5, 3.99706727682548723646e-01) (6, 4.58128638734744575434e-01) (7, 5.07710308185767678069e-01) (8, 4.16120383524847758938e-01) (9, 4.94486706856089475171e-01) (10, 5.32976697179722291864e-01) (11, 4.08036551047310458440e-01) (12, 3.69784202024499630834e-01) (13, 5.25238425895048433034e-01) (14, 3.60869709053578568980e-01) (15, 4.67648147357622001596e-01) (16, 3.94233345761296372078e-01) (17, 3.43507886256789463086e-01) (18, 3.71191853555564887923e-01) (0, 2.67555596141211327055e-01) (1, 1.77607453039755447399e-01) (2, 2.45147389139551918902e-01) (3, 1.83488724545577241987e-01) (4, 1.53001660843574083248e-01) (5, 2.21578501524811732892e-01) (6, 2.81226291079821777430e-01) (7, 2.16384853146355360387e-01) (8, 2.37833652781807347587e-01) (9, 2.49750219506384457668e-01) (10, 2.09625234916047953337e-01) (11, 1.50061951843631774528e-01) (12, 1.49944378938797973078e-01) (13, 3.09406217645557202189e-01) (14, 2.19585216375575931202e-01) (15, 3.09779017137034207163e-01) (16, 2.12092413133625590227e-01) (17, 2.79678432006423394185e-01) (18, 2.28294140839845227653e-01) (0, -8.13170632400085913183e-02) (1, -1.05320969121263027790e-01) (2, 2.89881034722071606602e-01) (3, 2.70386330198944757619e-01) (4, -3.68979300325215295309e-02) (5, -4.72135499611341866166e-02) (6, 2.68182274078364257797e-01) (7, 3.54869511276824978196e-01) (8, -1.19178917635445663636e-01) (9, 3.22802107787959424723e-01) (10, -1.17473588255559199117e-02) (11, -8.76005761315820502544e-02) (12, -1.12290786387416630099e-01) (13, 4.03279398563247903908e-01) (14, 3.91720147705553356499e-01) (15, -6.18940017071278672511e-02) (16, 5.36325720704668648664e-02) (17, -8.70585682711598057848e-02) (18, 2.55796893811975345479e-01) (0, 8.63442236323931910924e-02) (1, 1.67185885915510673572e-01) (2, 1.50041438756177591962e-01) (3, 1.62961518599080368297e-01) (4, 1.83006144521292740679e-01) (5, 1.66893877736554896440e-01) (6, 1.36915864716873753038e-01) (7, 6.94994180513479470340e-02) (8, 1.43580951934936112968e-01) (9, 2.15916337985210843309e-01) (10, 2.16085910099350547720e-01) (11, 3.87831498361285026411e-02) (12, 6.30136014271501232464e-02) (13, 3.69033391731166948713e-02) (14, 8.88585426348412754649e-02) (15, 1.02834598009479208369e-01) (16, 1.30695667382826008485e-01) (17, 1.69104625406352238048e-01) (18, 1.29559409523317625723e-01) (0, -3.81977402291765189002e-02) (1, 9.90244095698652321280e-02) (2, 1.30874529982732690225e-01) (3, 7.94983722638837736474e-02) (4, 1.37854324514492199150e-01) (5, -5.39566265591386040601e-02) (6, 3.96517115451740648213e-02) (7, 9.07979690660230404076e-02) (8, 6.02057320892569833998e-03) (9, 1.51554822037331463069e-02) (10, 1.31199033527508501784e-01) (11, 1.97205523756119362189e-02) (12, 8.51290284720008227914e-02) (13, 7.44550481627606897117e-02) (14, -4.43327606325172596247e-02) (15, 2.04590042958895414194e-02) (16, 3.63596990951941118064e-02) (17, 1.02877937062509972055e-01) (18, -5.67198827515434655933e-02) (0, 2.76698841125111560935e-01) (1, 2.19574538575834310450e-01) (2, 3.32312107792287925179e-01) (3, 2.70825639715783550443e-01) (4, 2.38674508370435078941e-01) (5, 1.75642526197677950606e-01) (6, 2.88045798847372525042e-01) (7, 3.07849871056880830533e-01) (8, 2.59433396246392666828e-01) (9, 1.96782354628387612383e-01) (10, 2.57271313441473137296e-01) (11, 1.69309622747950305754e-01) (12, 2.18291507040938526085e-01) (13, 2.14973471016397355005e-01) (14, 1.59891042392178217568e-01) (15, 1.56467627309881229802e-01) (16, 2.12534685285517055409e-01) (17, 1.65641308474767046111e-01) (18, 2.55826231496782741104e-01) (0, 1.51215650068581508592e-01) (1, 2.26162453294855791963e-01) (2, 1.26436979260981352535e-01) (3, 1.41092431601148982079e-01) (4, 3.11178329569648193242e-01) (5, 2.71272900467841804328e-01) (6, 2.77066687348123119605e-01) (7, 1.27507155528160831537e-01) (8, 1.97431163467304299219e-01) (9, 2.13537213889436999770e-01) (10, 2.89137288302863393330e-01) (11, 2.00418173357488210717e-01) (12, 3.16740177364635611124e-01) (13, 1.76574580869579611520e-01) (14, 1.59234400519630947546e-01) (15, 2.94877811926390731578e-01) (16, 2.82157149374726134994e-01) (17, 2.01784986758888118530e-01) (18, 2.09427730050485871871e-01) (0, 3.85490509988766716365e-01) (1, 2.56304082190941251440e-01) (2, 4.01693577216265473862e-01) (3, 3.09272090120087606024e-01) (4, 2.92919555351970228863e-01) (5, 2.86893141318551092578e-01) (6, 3.91551411642695856852e-01) (7, 3.19718657878859946475e-01) (8, 3.27103802077976679730e-01) (9, 2.87829127397525086351e-01) (10, 3.51870236023706872697e-01) (11, 4.49838093616338752234e-01) (12, 2.99912616387738251156e-01) (13, 2.56133289132558894519e-01) (14, 4.36188214962549392073e-01) (15, 3.35542833726449107878e-01) (16, 4.45014431031803880945e-01) (17, 3.84209227850221213263e-01) (18, 2.72522660086437273907e-01) (0, 1.85402188574216197914e-01) (1, 1.54117055454020157601e-01) (2, 5.85365381123688979792e-02) (3, 1.52242286226444367703e-01) (4, -9.12059655328622750914e-03) (5, 5.20248278968344704531e-02) (6, 5.56497960898613003300e-03) (7, 2.68619193664068195426e-02) (8, 1.48450668743188851639e-01) (9, 1.29674095688300405893e-01) (10, 1.05395021618489376225e-01) (11, 3.46265112135045460828e-02) (12, 9.81334342965584222052e-02) (13, 1.10269577085179398823e-01) (14, 1.92889170492612921359e-02) (15, 1.74056661773678345018e-01) (16, 2.04238628211288797409e-01) (17, 5.43547412720618364212e-02) (18, 9.57000892591078483607e-02) (0, 5.32524582421793762910e-02) (1, 1.46879557860153830973e-01) (2, 1.48866231157688294617e-01) (3, 1.53777167550694982001e-01) (4, 1.27971358076617081068e-01) (5, 1.96951530449675976664e-01) (6, 1.57999139578443387188e-01) (7, 1.12332252963183665262e-01) (8, 6.15561421121263996348e-02) (9, 1.48910322047345861085e-01) (10, 4.47981607464819769904e-02) (11, 8.22514851028130489219e-02) (12, 1.48628632604573179821e-01) (13, 2.10871412574634625736e-01) (14, 1.55104148271557440442e-01) (15, 1.10635183653926938430e-01) (16, 2.13791012404540875513e-01) (17, 2.19169172551584329200e-01) (18, 1.30516288226156351726e-01) (0, 5.26931252670401611971e-02) (1, 2.14456183486339685418e-01) (2, 1.07026726012890982531e-01) (3, 1.70128343268721976544e-01) (4, 9.59190367982786229462e-02) (5, 2.17200356692641843859e-01) (6, 9.24381137568615618427e-02) (7, 1.27248150323864661626e-01) (8, 1.82301167313447171070e-01) (9, 5.29247420266710788539e-02) (10, 1.93643087979118860842e-01) (11, 9.00414499755153724392e-02) (12, 8.71334722149537665992e-02) (13, 1.18151133043526854194e-01) (14, 2.19863953172439147155e-01) (15, 2.15952150660460473475e-01) (16, 2.44917807963403906524e-02) (17, 1.94856372020304285941e-01) (18, 1.54907559204775002737e-01) (0, 3.44733133612117381706e-01) (1, 2.66597539677974948447e-01) (2, 3.14002906704532902538e-01) (3, 3.67488185727960881000e-01) (4, 3.29165844739260082807e-01) (5, 4.40672430687527427740e-01) (6, 3.56400486700784668859e-01) (7, 2.62310881409006824150e-01) (8, 3.52575971446536684528e-01) (9, 3.69183927537224676474e-01) (10, 2.59520942451912595139e-01) (11, 4.61133151051114353880e-01) (12, 3.78966404148976254707e-01) (13, 2.53733250362344342488e-01) (14, 3.25249225521616669443e-01) (15, 3.28850871841790348693e-01) (16, 3.25977942513141327741e-01) (17, 3.20490470612447730936e-01) (18, 3.97614641044302608019e-01) (0, 3.01736854790079944699e-01) (1, 1.54217777466418681787e-01) (2, 3.02920222521264215221e-01) (3, 2.73420831260520136308e-01) (4, 2.25215499481169423301e-01) (5, 1.68094583227539451364e-01) (6, 1.70895950909778382432e-01) (7, 2.24075037981332436665e-01) (8, 2.05406940638495488782e-01) (9, 2.13832560869164550743e-01) (10, 1.96017601470291291665e-01) (11, 3.38355391221691892412e-01) (12, 2.66334439600906858203e-01) (13, 2.11742520982050264067e-01) (14, 1.59172343229215140781e-01) (15, 2.22399243037509436460e-01) (16, 2.89081048718692001920e-01) (17, 1.48972150770294575750e-01) (18, 2.86568474857919031074e-01) (0, 1.16605835790283079989e-01) (1, 4.58104878457053082963e-02) (2, 1.47650437857536670407e-05) (3, 1.25328602802881272638e-01) (4, 3.41647788802591570456e-02) (5, 1.27153852190143690226e-01) (6, 1.21346690505855045461e-01) (7, 1.07586687306125333707e-01) (8, -3.12626332740482352351e-03) (9, -6.94765034002640426147e-03) (10, -2.37501621574097467049e-02) (11, -5.73389423590850155765e-02) (12, -2.27771729560801716730e-02) (13, 5.02695985045718222312e-03) (14, 1.27917826912826715358e-01) (15, 1.23615657389535282817e-01) (16, 1.07945271661223460291e-01) (17, -2.72394774398039586638e-02) (18, -2.31518480234033409426e-02) (0, 1.93915970255797265320e-01) (1, 1.96515721126259756968e-01) (2, 2.33353233984941343948e-01) (3, 2.67636384055685294658e-01) (4, 1.71215286983157077838e-01) (5, 1.53066219723601071312e-01) (6, 1.57081714480232559339e-01) (7, 3.37222781595817144851e-01) (8, 2.52213578161172513603e-01) (9, 3.46678235252563304858e-01) (10, 2.33810708805458011827e-01) (11, 2.15530165438921589294e-01) (12, 2.99223604050765035200e-01) (13, 1.40282783242193231921e-01) (14, 2.33893188503407845058e-01) (15, 2.83229954951837448185e-01) (16, 2.34154454764179842385e-01) (17, 2.21708627284581405448e-01) (18, 2.67427003000468510585e-01) (0, 1.00155255753441058131e-01) (1, 1.82668911887057833221e-01) (2, 2.44818976010313001102e-02) (3, 1.36195986339950947386e-01) (4, 1.90541293511225701129e-01) (5, 6.22692353927623148957e-02) (6, 2.03989306704356360145e-01) (7, 1.78166010085547638075e-01) (8, 4.82648331335640695672e-02) (9, 1.71869555340673912935e-01) (10, 2.10633425287471115483e-01) (11, 8.48198778450204721180e-02) (12, 4.64037155135177403764e-02) (13, 8.19365751954136550816e-02) (14, 1.74467041515628640269e-01) (15, 1.88827531331117987046e-01) (16, 1.33770055075849547688e-01) (17, 2.04281376732424052589e-01) (18, 2.55727387988623523774e-02) (0, 3.30696141377389785099e-01) (1, 2.03971960865644230676e-01) (2, 1.36364561154521168884e-01) (3, 2.42209659532212295829e-01) (4, 2.55846304013135794619e-01) (5, 3.12336280698480628359e-01) (6, 2.59240558174467616848e-01) (7, 1.67442301865908249603e-01) (8, 2.72314348070148037895e-01) (9, 1.71158602221782557562e-01) (10, 2.65899044550551799659e-01) (11, 2.16489463490446565341e-01) (12, 2.48339272583471992739e-01) (13, 2.27540321596911870872e-01) (14, 2.19012252563031528663e-01) (15, 1.63507624082725150361e-01) (16, 1.95107026736153765789e-01) (17, 2.59322379334215202817e-01) (18, 1.44522342415097648782e-01) (0, 4.01810938830484687401e-02) (1, 1.77494653086100351302e-01) (2, 1.83939409784981938722e-01) (3, 2.89394075777686492212e-02) (4, 4.32707998969917989607e-02) (5, 2.08384016676921052236e-01) (6, 8.94723261301748340468e-02) (7, 1.93418804295063279097e-01) (8, 1.77528365079411415417e-01) (9, 2.00643820689946794644e-01) (10, 1.75825069434736414031e-01) (11, 1.81141995256695137462e-01) (12, 1.98887471116314579200e-01) (13, 4.66210873526678587497e-02) (14, 1.85054068533558851994e-01) (15, 1.07365735722243019201e-01) (16, 1.71651379987433766461e-01) (17, 1.64298406293386489718e-01) (18, 3.41538029456887326507e-02) (0, 2.06001741894921291953e-01) (1, 1.05796740004932554591e-01) (2, 7.34809170189284349695e-02) (3, 1.38808843506820239755e-01) (4, 1.89194263536958368066e-01) (5, 1.88728249737111997142e-01) (6, 3.19133442100310860123e-02) (7, 7.51145731613369477264e-02) (8, 2.15213076523561475106e-01) (9, 9.39284309877641138131e-02) (10, 2.01345012537131412556e-01) (11, 2.66434760931386106775e-02) (12, 1.12478817620373594544e-01) (13, 1.56468152827485884604e-01) (14, 1.93815086404274722343e-01) (15, 1.16459735999821858976e-01) (16, 1.78024245371846551178e-01) (17, 1.82187518874560777649e-01) (18, 1.89164262749282968690e-01) (0, 2.76819999277085726508e-01) (1, 2.65662896458287056678e-01) (2, 2.95824485037036677415e-01) (3, 2.32877885681002233520e-01) (4, 2.28158951052352648725e-01) (5, 2.75028773131591297574e-01) (6, 2.59815793085274637786e-01) (7, 1.93529836564151652700e-01) (8, 1.80185751227670498675e-01) (9, 2.26343034878862647830e-01) (10, 3.38145062816010477658e-01) (11, 1.94656374131831455543e-01) (12, 1.93550691857140272356e-01) (13, 2.21982691219132083349e-01) (14, 2.29343209214348392466e-01) (15, 3.31351966776091855227e-01) (16, 1.89217843247411948715e-01) (17, 1.96112347349649468464e-01) (18, 3.20683063608841634196e-01) (0, 1.76408201512939760702e-01) (1, 1.78354391543988466395e-01) (2, 1.79053483070840901981e-01) (3, 1.55794102541392615047e-01) (4, 1.85954139583230315669e-01) (5, 2.69573192069635869661e-01) (6, 1.42669350024211882833e-01) (7, 1.05772309499689604051e-01) (8, 1.68054950305697864410e-01) (9, 2.99800240044849064525e-01) (10, 3.18366926009816031407e-01) (11, 1.35260101453169995223e-01) (12, 2.28535241910951147926e-01) (13, 2.37408368605855846223e-01) (14, 2.82999591966323182923e-01) (15, 3.15409363108611950910e-01) (16, 2.66510273425557331350e-01) (17, 1.58971315885031022619e-01) (18, 2.27190435189967065988e-01) (0, 1.13020865849094626077e-01) (1, 2.27340657430358805691e-01) (2, 2.89679255500482568664e-01) (3, 1.04146684431358452216e-01) (4, 2.58142816993842949547e-01) (5, 1.37226179894049199470e-01) (6, 2.32163416239418302078e-01) (7, 8.84289769953078563791e-02) (8, 3.00607365382916602581e-01) (9, 2.74362018233315740900e-01) (10, 1.37522083091443064751e-01) (11, 2.74271184851143878802e-01) (12, 1.68700605016566584915e-01) (13, 2.35837816426320595609e-01) (14, 3.19217251193391282627e-01) (15, 2.44456049348848319935e-01) (16, 2.38056875893573494096e-01) (17, 2.03660695345237313658e-01) (18, 2.53017982644466510322e-01) (0, 2.01353882566713049407e-01) (1, 1.78546926073499950816e-01) (2, 1.07527695236583537008e-01) (3, 1.86628865637876117933e-01) (4, 1.79649334391012327483e-01) (5, 2.02970997189113960824e-01) (6, 9.08612912960191088096e-02) (7, 1.29472983409622655060e-01) (8, 1.81997012008849129439e-01) (9, 7.40414981820094603160e-02) (10, 2.07474164417561890428e-01) (11, 7.60955043532956787455e-02) (12, 1.08284157631871047478e-01) (13, 1.01638878900207840772e-01) (14, 3.49587454951760662203e-02) (15, 1.29100778597027010530e-01) (16, 2.66897529553978378469e-02) (17, 3.80775086606315732451e-02) (18, 2.94327037076703122709e-02) (0, 6.44304588791181406110e-03) (1, 1.76955908231444553058e-01) (2, 1.42065756128882447751e-01) (3, 6.29109940000709966235e-02) (4, 1.17119673373762653301e-01) (5, 1.77674421187028364066e-01) (6, 1.64641393790930151697e-01) (7, 1.03244981628500917537e-01) (8, 8.80230509201830185750e-02) (9, 1.19233990226366756704e-01) (10, 1.37116831276632794578e-01) (11, 7.94909062599656081327e-03) (12, 9.85447611822090480116e-02) (13, 1.82355356550215785827e-01) (14, 9.35176772410014484072e-02) (15, 6.31305152092144217235e-02) (16, 1.39961579330357355211e-01) (17, 1.85794855090715221868e-01) (18, 1.32032697883654903670e-01) (0, -5.62233777800991985085e-02) (1, -6.68554370097422384633e-02) (2, 8.26921871058682589339e-02) (3, -7.07923249734080523021e-02) (4, -1.04431126979743736649e-02) (5, -3.09827667709393524131e-02) (6, 8.88744539835340310874e-03) (7, 2.55652417562308347312e-03) (8, 7.84348317845599551923e-02) (9, 1.36180897321726036842e-02) (10, 1.86749242146760467687e-02) (11, 8.59084268706516440695e-02) (12, 2.57235761751480884740e-02) (13, 1.29326992781975862526e-03) (14, 4.77636650462370193626e-01) (15, -1.05702992343081739191e-01) (16, -7.59246191235861261903e-02) (17, 1.69734791499608420051e-02) (18, 6.46008419097798963771e-02) (0, 2.88965523229061049815e-01) (1, 1.66641687814057803951e-01) (2, 2.45877780251559957536e-01) (3, 3.20479502798346860271e-01) (4, 1.80253218995118036361e-01) (5, 1.50084978915468209015e-01) (6, 3.08895087201761120443e-01) (7, 2.79831127069550322783e-01) (8, 2.35712907994579168314e-01) (9, 2.71354077421782691193e-01) (10, 1.59625337101186981492e-01) (11, 1.73408043359933261574e-01) (12, 3.07656995613918293753e-01) (13, 2.02528959843143813169e-01) (14, 1.48626523550936112672e-01) (15, 3.67177480147552193213e-01) (16, 3.01447116525369207540e-01) (17, 2.27005026160196493601e-01) (18, 2.64474651912163072343e-01) (0, 8.83047744690241276366e-02) (1, 8.98249917218480881109e-02) (2, 6.23938754123674749197e-02) (3, 2.16424968072959855725e-01) (4, 8.50106849834073030614e-02) (5, 1.97478720967715321022e-01) (6, 1.26667103113679901938e-01) (7, 2.80085718646080859828e-02) (8, 1.98221617530283666930e-01) (9, 1.57516774080618898735e-01) (10, 1.54343320394768640513e-01) (11, 1.72183725840031054410e-01) (12, 1.02776224108246883038e-01) (13, 1.74035156141936320218e-01) (14, 7.39576425186586478011e-02) (15, 7.37188924766645908848e-02) (16, 2.07995325533046698796e-01) (17, 7.66949789026051126362e-02) (18, 3.85101160123609564945e-02) (0, 2.65469550629286843435e-01) (1, 2.73544415867280787946e-01) (2, 2.71070111404600078142e-01) (3, 2.78473436848458766324e-01) (4, 2.83098244565734569189e-01) (5, 2.31707862784771650988e-01) (6, 3.34380945809587604156e-01) (7, 2.85103317234655595502e-01) (8, 2.30914558664867236581e-01) (9, 2.88808818101210340590e-01) (10, 1.64691308789606138951e-01) (11, 1.65204939751248947033e-01) (12, 1.55154480968423574838e-01) (13, 2.32870982252314978611e-01) (14, 1.88804733227204951662e-01) (15, 1.49536337430512616953e-01) (16, 2.95922558614143682565e-01) (17, 1.64324342593109379296e-01) (18, 2.54572733293753405981e-01) (0, 1.76911889225237428658e-01) (1, 2.18526099446620547528e-01) (2, 6.76976436854195978698e-02) (3, 1.09296098111327510960e-01) (4, 1.71582094336595075701e-01) (5, 1.48514759172087812411e-01) (6, 6.14125439065721784315e-02) (7, 2.32926252305547011601e-02) (8, 2.00773186031217160119e-01) (9, 4.50320202741696373749e-02) (10, 7.86448968124767444632e-02) (11, 2.17324193421999517506e-01) (12, 1.66296857585079838060e-01) (13, 2.05279861774854271994e-01) (14, 1.44079798179379631184e-01) (15, 9.57321031007853096018e-02) (16, 1.41756652571473851232e-01) (17, 2.84804168006487952447e-02) (18, 8.55105422402647197266e-02) (0, -1.29946061442836741096e-01) (1, -1.12025908937623236428e-01) (2, -1.82486670814358903359e-01) (3, -1.26491059576518738439e-01) (4, -9.60603276203161604574e-02) (5, -1.74351431099449699635e-01) (6, -2.60244624433127146046e-02) (7, -5.42748356466255729713e-02) (8, -1.68151091087846593641e-01) (9, -7.34379042283105770705e-02) (10, -3.69697343070305786683e-02) (11, -6.05975990476074199975e-02) (12, -1.22168370346356691680e-01) (13, -3.68035026366758874494e-02) (14, -1.82543077023510046109e-02) (15, -3.11481371151351993376e-02) (16, -9.08637636433642509326e-02) (17, -9.14106600160534965571e-02) (18, 4.91005445127395794003e-03) (0, 1.20832540026607759831e-01) (1, 1.00182939037987250863e-01) (2, 4.07624877482671288398e-02) (3, 1.77518328217505849675e-01) (4, 9.82527585378348278233e-02) (5, 1.85388236827788821515e-01) (6, 1.61127078506569765270e-01) (7, 2.20373448095635776633e-01) (8, 6.15375646352825031449e-02) (9, 8.08842182211136212500e-02) (10, 2.71827533173619427520e-02) (11, 1.25376998276856804759e-01) (12, 1.39382236472813392236e-01) (13, 1.17558977745798140524e-01) (14, 1.31334407157034399605e-01) (15, 2.15293310169221790984e-01) (16, 2.09942729820018464393e-01) (17, 1.45098654567246021507e-01) (18, 1.77712924533345695277e-01) (0, 1.92204655344726638155e-01) (1, 2.09801083889492756551e-01) (2, 1.37128537734896138733e-01) (3, 1.40227485085949399313e-01) (4, 1.33635916536709586921e-01) (5, 2.05784404452104330296e-01) (6, 9.36880841791770946347e-02) (7, 1.04451981200190210930e-01) (8, 1.59068699124925716504e-01) (9, 1.89186137234840956456e-01) (10, 2.00202302671131149303e-01) (11, 1.50340567294995619552e-01) (12, 8.98134273771388769170e-02) (13, 8.11346888474755167930e-02) (14, 1.68189249585281697108e-01) (15, 2.45372647066198379395e-01) (16, 1.55674477046230719246e-01) (17, 1.32573071740794384832e-01) (18, 1.82786752253456308281e-01) (0, 3.95072058545596738188e-01) (1, 4.19602720138957330231e-01) (2, 4.83023508136539658775e-01) (3, 4.06435249435423029407e-01) (4, 3.23349008092010670179e-01) (5, 4.00446633007542185378e-01) (6, 4.96223973736739154550e-01) (7, 4.26584760619687919370e-01) (8, 3.94109232946092846728e-01) (9, 4.84207591954946836577e-01) (10, 3.49724303585123019733e-01) (11, 3.49863045877627676372e-01) (12, 4.06032049962825769551e-01) (13, 4.89145193118000420895e-01) (14, 4.16611389255908404206e-01) (15, 4.79002452080203255935e-01) (16, 3.52400912317862247125e-01) (17, 3.49307037724129354483e-01) (18, 4.99601783348861461231e-01) (0, 2.19821316822226164867e-01) (1, 2.69590298435727848680e-01) (2, 2.52154131279143212119e-01) (3, 1.49643422249641944166e-01) (4, 1.48595971557473338631e-01) (5, 2.68878805745763338475e-01) (6, 1.58087148464965715489e-01) (7, 2.46802817157638881840e-01) (8, 2.57997670236043363801e-01) (9, 2.42426734225046264237e-01) (10, 3.07643207240783922440e-01) (11, 1.69449528223117429349e-01) (12, 3.25180656478951835009e-01) (13, 2.09186032378406411292e-01) (14, 3.23319926660000811491e-01) (15, 2.13158220541540682769e-01) (16, 2.14077358077815110837e-01) (17, 2.11448420395619535173e-01) (18, 1.97064055006356458888e-01) (0, 2.86927592952776810975e-01) (1, 2.51823127596986107157e-01) (2, 1.27537118236344809707e-01) (3, 1.24333757265976396766e-01) (4, 2.89368037182922699380e-01) (5, 2.21251031907479411842e-01) (6, 3.01160814092285566979e-01) (7, 1.93661287166907641888e-01) (8, 1.87935344808891541257e-01) (9, 1.41243587138224463429e-01) (10, 2.30650188692478164132e-01) (11, 1.75218988885829624058e-01) (12, 2.14443453171567849358e-01) (13, 1.53619033265958687684e-01) (14, 2.80353878911458576084e-01) (15, 2.17465424539194790432e-01) (16, 1.55593553941416967712e-01) (17, 2.02213440423475249164e-01) (18, 2.28533331750646162561e-01) (0, 1.71733386666640952534e-01) (1, 2.12797152828198499197e-01) (2, 3.80211499829943705420e-02) (3, 1.32839140054237581090e-01) (4, 2.18308466380776472482e-01) (5, 2.16182565208431737291e-01) (6, 1.92646002590018711187e-01) (7, 1.92333220226979711986e-01) (8, 8.23215416093582563750e-02) (9, 5.90646645395886543684e-02) (10, 5.67623964819850973518e-02) (11, 1.32366355362200316392e-01) (12, 4.10288546992849528783e-02) (13, 2.02982672278491899087e-01) (14, 1.54300621891198058711e-01) (15, 5.91203082702833476736e-02) (16, 1.89023783353886282166e-01) (17, 6.99487990179661206502e-02) (18, 5.53177195694884576982e-02) (0, 1.77420294788906973693e-01) (1, 2.54895299655253648741e-01) (2, 2.18294516212352435192e-01) (3, 3.26791894892517753579e-01) (4, 1.24511433760372006163e-01) (5, 3.03367760929864560548e-01) (6, 1.51438507188820070670e-01) (7, 3.23984514547594748546e-01) (8, 2.55634268472972270292e-01) (9, 2.46148106017044315807e-01) (10, 1.95873046607247303097e-01) (11, 1.88444505737281220448e-01) (12, 1.51203484487720252183e-01) (13, 1.87581784847241972436e-01) (14, 1.80266134253325743808e-01) (15, 3.12283213990317720654e-01) (16, 1.83931139626207607041e-01) (17, 1.52998159786421061845e-01) (18, 2.34962335572710290243e-01) (0, 1.16793568802526503969e-01) (1, 1.75848913232218295732e-01) (2, 2.35195663936368981606e-01) (3, 1.53872785242983867171e-01) (4, 8.85320856657908494824e-02) (5, 2.56541338594126200334e-01) (6, 1.37172274499715834972e-01) (7, 2.23149527515461298943e-01) (8, 9.66179158302804402814e-02) (9, 1.04236946251791237628e-01) (10, 2.73415146491899740955e-01) (11, 1.32252455451373457374e-01) (12, 1.59360053463427409071e-01) (13, 2.06013255589650279287e-01) (14, 2.03527730410211604717e-01) (15, 1.39530494493697865277e-01) (16, 2.08227501679619009245e-01) (17, 1.83643603759906126616e-01) (18, 1.67717117082580080556e-01) (0, 1.23687604137141138327e-01) (1, 2.14116881991990165579e-01) (2, 1.84389274049206214334e-01) (3, 1.97263463167117486519e-01) (4, 2.90258020701027012744e-02) (5, 2.12340873936988555615e-01) (6, 6.15933604341894064271e-02) (7, 6.22726950699140496814e-02) (8, 1.48812573688086674517e-01) (9, 1.19996686880408376386e-01) (10, 9.20189702563972422578e-02) (11, 6.05230216806269122332e-02) (12, 1.55601907785081011726e-01) (13, 1.84403607103843125703e-01) (14, 2.14530337719142011332e-01) (15, 2.37344849898771595442e-02) (16, 1.89471416291729366499e-01) (17, 1.87607396948263532854e-01) (18, 7.97184116848714541259e-02) (0, 2.54216796980989534482e-01) (1, 3.25423378561075782311e-01) (2, 2.25551214090693813441e-01) (3, 2.43769873643252865669e-01) (4, 1.74609344925811732496e-01) (5, 3.01446991076216586070e-01) (6, 1.66716640146265665523e-01) (7, 2.94672798858118645260e-01) (8, 1.74348179612874965017e-01) (9, 3.08314838849077399452e-01) (10, 1.94454332788388528641e-01) (11, 2.58601020217550270353e-01) (12, 1.93208357976442562931e-01) (13, 1.87009893550067224366e-01) (14, 2.04196209256980537594e-01) (15, 1.89464249575459292574e-01) (16, 1.94076586998591288369e-01) (17, 1.94577971592158310843e-01) (18, 2.08146961354359977259e-01) (0, 1.09330040814990980813e-01) (1, 1.98731232708973692969e-01) (2, 1.83400335654437113275e-01) (3, 1.79473902552001740585e-01) (4, 3.94870713587806981826e-02) (5, 1.17043131837707314880e-01) (6, 1.41834398044974135944e-01) (7, 3.20582975692441513038e-02) (8, 1.18818508299138092532e-01) (9, 1.06431322167210809515e-01) (10, 1.97706585895929071173e-01) (11, 1.76577811362430808773e-01) (12, 2.16544258462367827933e-01) (13, 1.76508510594757583867e-01) (14, 5.73857097994289744314e-02) (15, 1.10777297675691707712e-01) (16, 2.04098614360187197159e-01) (17, 2.11813459715263469052e-01) (18, 1.33390077229257192348e-01) (0, 1.51752168984559232534e-01) (1, 2.23074216864267114990e-02) (2, 5.09497240096333584014e-02) (3, 1.72684076557075405489e-01) (4, 1.17054227242497588257e-01) (5, 1.23711413881543733084e-01) (6, 3.92472990223782861041e-02) (7, 1.74231195339096034402e-01) (8, 1.42617902973236260200e-01) (9, 8.37176655709129385885e-02) (10, 2.21789925677739946375e-01) (11, 2.03745623074081949611e-01) (12, 1.73675577053999746768e-01) (13, 1.98149645497835563690e-01) (14, 1.68102227694390149448e-01) (15, 1.28519388705456233390e-01) (16, 2.15677608328169873042e-01) (17, 6.28578467454115191737e-02) (18, 5.09816544382940481372e-02) (0, 1.37238026910452670659e-01) (1, 2.73454407617871264602e-01) (2, 2.49830481166457590847e-01) (3, 3.12985504184803142724e-01) (4, 2.30349035958542169844e-01) (5, 2.45481381297383699502e-01) (6, 2.68600656448119035069e-01) (7, 2.65775637136392517412e-01) (8, 1.37214948032078704054e-01) (9, 2.50740159206495394351e-01) (10, 2.55629985249845148587e-01) (11, 2.48645916639757186273e-01) (12, 1.79467463412006866808e-01) (13, 2.57044051585062383047e-01) (14, 3.03471753184432313510e-01) (15, 1.58159156064630129768e-01) (16, 1.51073414048512155716e-01) (17, 2.06618210012541630993e-01) (18, 1.74709994473068064291e-01) (0, 6.08922914274091647835e-02) (1, 8.66734223228916855764e-02) (2, -3.06927734853628493214e-03) (3, 6.07231055033383010366e-02) (4, 7.13753144559769875377e-02) (5, -5.10244105252077098656e-02) (6, 3.72420407705026310086e-02) (7, 1.75184305485562921700e-02) (8, 5.84512501263518141625e-02) (9, 3.12889387748690947499e-02) (10, 5.87455699503965228514e-02) (11, 8.78021973142069089846e-02) (12, 3.54350257269010412986e-02) (13, -8.91965370385155260566e-04) (14, -3.93306788180547038311e-04) (15, 1.53285869730511829789e-02) (16, -1.03634872350495912952e-01) (17, -8.41355792764946902595e-02) (18, -5.02284527878519085342e-02) (0, 1.11197029698628477301e-01) (1, 1.06988030481448555091e-03) (2, 1.48502218061006108218e-01) (3, 3.37350720098206768860e-02) (4, 1.15558103715781776422e-01) (5, -5.12226146563992019989e-03) (6, 1.55981978471594423530e-01) (7, 8.59379139615610992964e-02) (8, 1.82397493825693715608e-02) (9, -2.60365504185462656728e-02) (10, 1.58398430745312790435e-01) (11, 5.98578038972166839859e-02) (12, 1.44856462376693584382e-01) (13, 1.53793667573673215054e-01) (14, 1.66789248009643453763e-01) (15, 1.14301382292368469695e-01) (16, 1.35169700417248683788e-01) (17, 2.44866518967723212352e-02) (18, 6.15441414504696512888e-02) (0, -2.57613299608126754270e-02) (1, -9.48721069158624946693e-02) (2, -8.56163807012789018769e-02) (3, -5.76544935173163367037e-02) (4, -9.77086432016880807039e-02) (5, 5.91799144058218970499e-02) (6, 5.08148104924982871311e-02) (7, 1.61933618136553582334e-02) (8, -1.61302322211594149903e-02) (9, 5.65412076153343420848e-02) (10, 4.14190519173604290715e-02) (11, 4.30025844643207380558e-02) (12, -5.04870106409001893899e-03) (13, 6.97019968243543508457e-02) (14, 1.87178641472740860119e-02) (15, 5.58994355479100965556e-02) (16, 1.24731621620832507785e-02) (17, 4.08086672838135836039e-02) (18, 3.97339276290827672633e-02) (0, 1.46250781474835389595e-01) (1, 1.07527574005205003860e-01) (2, 2.62176537529590747422e-01) (3, 1.31862273842095478749e-01) (4, 1.95237894492232139099e-01) (5, 2.34246061528231575011e-01) (6, 1.13508455025346885470e-01) (7, 1.89240204123822836069e-01) (8, 1.76399957523310474405e-01) (9, 2.75891220044775065112e-01) (10, 2.41579372610405629374e-01) (11, 2.65157163575959642365e-01) (12, 1.65153679125626978719e-01) (13, 2.61731057716440007610e-01) (14, 2.94564574896577557883e-01) (15, 1.11257685274664661068e-01) (16, 2.79046206443516464635e-01) (17, 2.68768278250931857976e-01) (18, 1.88361576978105876856e-01) (0, 1.61539230103946634953e-01) (1, 1.17354553379605486274e-01) (2, 1.18969409341823956217e-01) (3, 1.16398916379765404727e-01) (4, 7.69640813825326897124e-02) (5, 2.34589146332494391523e-01) (6, 1.16119465770330887455e-01) (7, 2.18472700360180210888e-01) (8, 2.05512370922069115275e-01) (9, 2.37971773735182828835e-01) (10, 1.73907366221026760122e-01) (11, 1.54625441373688360391e-01) (12, 8.42643465553025855508e-02) (13, 1.81874524923247765651e-01) (14, 1.10801333844200516898e-01) (15, 1.04879122564055127231e-01) (16, 6.58649185087725741461e-02) (17, 2.39842333943452196143e-01) (18, 1.12784725788922762790e-01) (0, 2.18964000053511548272e-01) (1, 1.80101165814314262414e-01) (2, 1.52534820274381616168e-01) (3, 1.54940517883205647331e-01) (4, 1.39655474702694654132e-01) (5, 2.13890942699533459503e-01) (6, 3.12874018899170436292e-01) (7, 3.28617197798792892716e-01) (8, 3.30811068436129507297e-01) (9, 2.86317370655107650279e-01) (10, 2.91782621269013220378e-01) (11, 2.13569790633523937107e-01) (12, 1.89172577980096318084e-01) (13, 1.55646896659742850488e-01) (14, 2.66088217368145418806e-01) (15, 2.52081219444350301817e-01) (16, 1.75732253343553745939e-01) (17, 2.30387026994081228759e-01) (18, 2.96105056388350551533e-01) (0, 2.60969560962951959218e-03) (1, -1.59535214184178125718e-01) (2, -5.57131357576669053455e-02) (3, -8.77308383784071721401e-02) (4, -6.95554603176881114379e-02) (5, -4.17391229286908291285e-02) (6, -1.76146650161718099081e-01) (7, -2.30020237023188869885e-02) (8, 3.92376517280042594327e-02) (9, -1.34184079467173367206e-01) (10, -4.78053803394295831475e-02) (11, -1.12623312970503583474e-01) (12, -9.00708358352259597090e-02) (13, -1.81163116057665263096e-03) (14, -1.34939249117686094204e-01) (15, -6.92377346806139493118e-02) (16, 3.73642681352430233374e-03) (17, -5.69610182467503792236e-02) (18, -9.22764304971411819523e-02) (0, 3.22375003527088255240e-01) (1, 2.62066134004146078507e-01) (2, 1.82257023972733411821e-01) (3, 2.80050205087275627669e-01) (4, 1.39723209828840067015e-01) (5, 2.37322185224236037460e-01) (6, 2.99784390011553047994e-01) (7, 2.71704010468391932154e-01) (8, 1.54556443130125481522e-01) (9, 1.40669681816645991690e-01) (10, 1.67983617846779509364e-01) (11, 3.16554082883014842320e-01) (12, 1.33250479933982535208e-01) (13, 2.00551015598146614716e-01) (14, 2.50812049539922699015e-01) (15, 2.37622253491120621893e-01) (16, 3.20966660675265524905e-01) (17, 2.00109782296175708893e-01) (18, 2.51446708817341824105e-01) (0, 2.23166635668041624108e-01) (1, 1.24147824958655769723e-01) (2, 2.02119081704024566859e-01) (3, 1.57273580178574096111e-01) (4, 1.65559377206801028315e-01) (5, 1.08518981217322410537e-01) (6, 1.61455005666134743247e-01) (7, 2.17971699040128114033e-01) (8, 2.30318105201884559818e-01) (9, 1.54474426447101964577e-01) (10, 1.51649746106822302938e-01) (11, 1.29078530389687307078e-01) (12, 1.43966756817449470507e-01) (13, 8.64556072073947023959e-02) (14, 1.72411944368920710957e-01) (15, 9.24696109016608369657e-02) (16, 9.13330153603129912820e-02) (17, 8.07199950652142672602e-02) (18, 2.57617469019204292646e-01) (0, 2.64213046477745627794e-01) (1, 2.41214132184684251770e-02) (2, 1.80545100248937911980e-01) (3, 2.99104724366104413047e-01) (4, 6.51779989246107412798e-03) (5, 1.87081396145760719962e-01) (6, 5.42327514928182402576e-02) (7, 1.17860153552701990565e-01) (8, 7.60475587141928310864e-02) (9, -2.14088601865022078174e-02) (10, 3.02521044167260944047e-01) (11, 8.53698628734846920452e-02) (12, -1.98298095819940921325e-03) (13, 4.78047590754828582993e-02) (14, 2.54630219932911960878e-01) (15, 1.73627190746853565795e-01) (16, 2.53289267490460323629e-01) (17, 2.90060448146583327311e-01) (18, 2.96789592104811317252e-01) (0, -1.59015550572209479752e-02) (1, 2.77821521902107473889e-02) (2, -3.95785209819751390703e-02) (3, 6.84911080810295530563e-02) (4, 8.37719295762469479127e-02) (5, 3.28440747674119265520e-02) (6, 8.18579622847730864477e-02) (7, -1.10732119105042374485e-02) (8, 5.22249327585538533625e-02) (9, -9.81439166212962621483e-02) (10, -1.68810813144002901283e-03) (11, 3.82982377294636341936e-02) (12, 6.04662780559701087957e-02) (13, 2.80957455489598342813e-02) (14, 3.08835313813616910150e-02) (15, 5.39681476413630192845e-02) (16, 4.02759859964845964853e-02) (17, 2.36273650088216317922e-02) (18, -8.61366632909872642632e-02) (0, -2.64296438313005518927e-02) (1, -8.05959620182949143530e-02) (2, -3.87984715363000193245e-02) (3, -2.95114544447511312208e-02) (4, -6.60328022498154199038e-02) (5, -3.51190120325680227298e-02) (6, 2.01300038463032952840e-02) (7, 8.68203072221095106809e-02) (8, 6.70141952704820936804e-02) (9, -3.21835834439477552760e-02) (10, 7.12779005879812938007e-02) (11, 5.88882130265124675850e-02) (12, 6.58196549658581486764e-02) (13, 9.13910201862670051876e-03) (14, -6.67855173755358688670e-02) (15, 4.82155535336821483572e-02) (16, 6.81582217480040334495e-03) (17, 7.99633508589028679792e-02) (18, 4.39783063052497091849e-02) (0, 1.19437158647322204386e-02) (1, 2.66032437401564458845e-01) (2, 1.62035498357754048637e-01) (3, 1.27843644941791623193e-01) (4, 2.18235465710954784635e-01) (5, 1.36406566900518694263e-01) (6, 1.83803985419744936314e-01) (7, 4.53807393954393303859e-02) (8, 1.10657261043069485296e-01) (9, -2.22984651547853789111e-02) (10, 3.00555946148091668313e-01) (11, 1.38425391219108906427e-01) (12, 1.10800596152919303417e-01) (13, 2.30312003839877946221e-02) (14, 1.39634281994106303204e-02) (15, 3.03065204221052930667e-01) (16, 6.49571537097453216569e-02) (17, 8.68031717424155996321e-02) (18, 2.37531716677090276590e-01) (0, 1.96625612255692250319e-01) (1, 2.03178540015025610455e-01) (2, 1.37333674549202866544e-01) (3, 1.78414280207047637461e-01) (4, 1.76403261651272069699e-01) (5, 3.17489841105027148505e-01) (6, 3.02844590652042999768e-01) (7, 2.24908952702104869559e-01) (8, 3.20445840939935500113e-01) (9, 2.64400859128069487536e-01) (10, 2.18254115148074745445e-01) (11, 2.78760655854919159324e-01) (12, 2.47980833591369909108e-01) (13, 1.79638394791594657729e-01) (14, 2.11477712901474379503e-01) (15, 2.24585365979273449133e-01) (16, 2.92271008702070123064e-01) (17, 1.60879170134487936572e-01) (18, 2.62382561907046896188e-01) (0, -1.18746585733588455591e-01) (1, 8.76034440543058644246e-03) (2, 2.63259447755336793706e-02) (3, -1.23793494366208248203e-01) (4, -4.71518268937612811120e-02) (5, -4.68125209874260470033e-02) (6, -8.47013529178672203157e-02) (7, -2.75259582324192016156e-02) (8, -4.93501714539523669845e-02) (9, -7.70400273179717900301e-03) (10, -1.28682592993911104617e-01) (11, -1.17421309557573627647e-01) (12, -1.43774081729162062082e-01) (13, -3.74027400468668405620e-02) (14, -1.13738020210730483850e-01) (15, -7.72584885900957918370e-02) (16, 1.67033339340020882402e-02) (17, -1.09101566083451617661e-01) (18, -1.08064286027512418409e-01) (0, 1.86240481046056172154e-01) (1, 3.15568534555173141332e-01) (2, 2.70959333308535998963e-01) (3, 2.82197408616860101471e-01) (4, 2.30673365045297784626e-01) (5, 1.95688279412868038065e-01) (6, 1.38583915828284609528e-01) (7, 3.19853890276369012824e-01) (8, 2.56617823007579182182e-01) (9, 3.08618516700589817781e-01) (10, 1.57481172830686744213e-01) (11, 1.95748497334456095231e-01) (12, 1.34043093850716610316e-01) (13, 3.12443636733542806638e-01) (14, 1.67261081857010163176e-01) (15, 1.56451718981933857178e-01) (16, 2.09462972723496732019e-01) (17, 2.55236702901282641598e-01) (18, 2.05523031325592298035e-01) (0, 3.17283601859847219639e-01) (1, 1.29879918210779016219e-01) (2, 3.22767115267010795687e-01) (3, 1.32832951590289599642e-01) (4, 1.47246750684903948692e-01) (5, 1.24179673284869063199e-01) (6, 2.31173050504655974713e-01) (7, 1.79650070130960737291e-01) (8, 1.81709326726471831481e-01) (9, 1.82664523583256632744e-01) (10, 2.04381949149673058930e-01) (11, 2.59235621117704206906e-01) (12, 2.35813064670892136299e-01) (13, 1.87813237695727885956e-01) (14, 1.56699073796095211808e-01) (15, 1.84918530349099163868e-01) (16, 2.85394662782604946472e-01) (17, 2.19295413250542470252e-01) (18, 1.90410506218963049285e-01) (0, 2.21595688152534914250e-01) (1, 9.22603713516826351437e-02) (2, 1.13004609896939264835e-01) (3, 2.40551041454353353721e-01) (4, 1.54916928820850230419e-01) (5, 1.15709625599868429213e-01) (6, 2.24718928514149596243e-01) (7, 1.87729999373438094512e-01) (8, 1.38053927853208607823e-01) (9, 9.93360965814923807526e-02) (10, 1.08920062406533055266e-01) (11, 2.10485019220380153993e-01) (12, 9.51216725786706018830e-02) (13, 1.19211351687076902439e-01) (14, 2.10000247000353135185e-01) (15, 1.05657436498557036342e-01) (16, 1.42407052984076631930e-01) (17, 2.09174173967783372241e-01) (18, 2.13578602496407338185e-01) (0, 1.49429455850528053462e-01) (1, 2.18255833429745832452e-01) (2, 2.21861597097653601152e-01) (3, 3.15142144426979603500e-02) (4, 1.13835629275787886261e-01) (5, 1.34422774188375671045e-01) (6, 9.60755675384880047929e-02) (7, 1.47282818471945131655e-01) (8, 1.93174039462987223725e-01) (9, 5.53029622663732400856e-02) (10, 4.33263441423174799905e-02) (11, 6.03326581017802759943e-02) (12, 2.07123068354438305549e-01) (13, 6.25673515838409965983e-02) (14, 1.04917757373383574437e-01) (15, 1.77501643292305583133e-01) (16, 1.45121719050546826857e-01) (17, 1.47210228691593447703e-01) (18, 1.32047196390253862575e-01) (0, -7.56579015513917929603e-02) (1, 7.53290791101640516692e-02) (2, 2.28736760697340335557e-02) (3, -3.71180334083418758673e-02) (4, 1.27253423466608690112e-02) (5, 4.49065956447534872509e-02) (6, 9.00456527508389573122e-03) (7, -5.03631666368694191904e-02) (8, 7.74752792327916689485e-02) (9, 8.00767269730104230829e-02) (10, -1.12523886935468386827e-01) (11, 1.79651257453156444621e-02) (12, 7.54707131485985067976e-03) (13, 8.37728379658311678169e-02) (14, 1.78676112411584077366e-02) (15, 1.71021771359791963096e-02) (16, -2.43506443601918774744e-02) (17, -6.96687261722768180761e-02) (18, -1.08781366927343692286e-01) (0, 2.67618206321609375387e-01) (1, 2.71106726068248482520e-01) (2, 2.94123011096799780173e-01) (3, 2.88985441842348256269e-01) (4, 3.12395656209264238612e-01) (5, 2.79684758314058812267e-01) (6, 3.30319876454117256070e-01) (7, 3.95354304961069102919e-01) (8, 4.54977646960432746681e-01) (9, 2.70317457403950522909e-01) (10, 3.20933823328859169077e-01) (11, 3.65065731842007967778e-01) (12, 2.93040199532009437711e-01) (13, 3.11876306917705958810e-01) (14, 2.85922258239461102303e-01) (15, 3.87972756619048175786e-01) (16, 4.39817266351782476530e-01) (17, 4.46442261343129531692e-01) (18, 2.95357962593350453773e-01) (0, -1.23413835806454555422e-01) (1, 1.10496049614213758677e-02) (2, -1.15071632266825846225e-01) (3, -1.20722105654507236294e-01) (4, -3.34080414978986731112e-02) (5, -1.46705575527312052919e-02) (6, -1.21733653581492684559e-01) (7, -1.22686429837737712156e-01) (8, -5.99911526213876902802e-02) (9, -8.50706716608801843948e-03) (10, -5.47779251412856896253e-02) (11, -5.35569024613157043668e-02) (12, -1.46800012569108066784e-02) (13, -5.74623394854693395062e-02) (14, -1.08634179956349011253e-02) (15, 2.28759138611861999324e-02) (16, 3.50378999954366809541e-03) (17, -5.36759046550757800559e-03) (18, -9.86315296675470687404e-02) (0, 1.66604022624692538201e-01) (1, 2.00123220379540500691e-01) (2, 1.22199094601251029291e-01) (3, 2.41208041467076611530e-01) (4, 9.65266587376006623966e-02) (5, 1.63248180995623187739e-01) (6, 9.59935100291370302372e-02) (7, 1.31019390252810508102e-01) (8, 8.25586442238558371187e-02) (9, 8.39834563980689507989e-02) (10, 1.25634331613089483826e-01) (11, 1.26089289721455694027e-01) (12, 1.36825853217547172003e-01) (13, 1.12776370178324786275e-01) (14, 1.65076072434268361633e-01) (15, 1.92359980188972629067e-01) (16, 2.33262947711310147936e-01) (17, 1.26497948485351036085e-01) (18, 4.68825563463127550912e-02) (0, 6.61204274491677401748e-02) (1, 1.99689094731610006228e-01) (2, 1.71473788038811442158e-01) (3, 1.65237121245633916677e-01) (4, 1.00026808320946195008e-01) (5, 1.33050016520733505043e-01) (6, 8.39470114899374397766e-02) (7, 4.29740062737709732632e-02) (8, 1.29906231447569270321e-01) (9, 6.14311025551307759995e-02) (10, 2.13946648443256060013e-01) (11, 2.07530934405954853306e-01) (12, 1.87391829110375995882e-01) (13, 1.71066641090874022035e-01) (14, 8.90867298643941984970e-02) (15, 1.78304992036762893770e-01) (16, 2.46740721987442797325e-02) (17, 2.09579482252405829845e-01) (18, 3.38189990581070909492e-02) (0, 2.37436579969360628262e-01) (1, 1.49720773844110255357e-01) (2, 1.99709369015868554165e-01) (3, 3.20151686839819815678e-01) (4, 2.57378898076434048381e-01) (5, 2.94177583904171313645e-01) (6, 1.90570415801800147060e-01) (7, 1.79535742880971960211e-01) (8, 2.43782132412167978908e-01) (9, 1.81077931832134358947e-01) (10, 2.38953999453967391720e-01) (11, 2.64545841188784824904e-01) (12, 2.01387893997087119580e-01) (13, 2.41322036250950083813e-01) (14, 1.97026146216370379172e-01) (15, 1.68349260378558990281e-01) (16, 2.95538379287681174379e-01) (17, 3.08514844487024653130e-01) (18, 2.30337163246917803194e-01) (0, 2.74355527319219638649e-01) (1, 1.52772786638603469411e-01) (2, 2.06119979486290322290e-01) (3, 2.66259064151604996074e-01) (4, 1.40620538115930698853e-01) (5, 1.71552696994855508050e-01) (6, 2.15366593640668096965e-01) (7, 2.07748159358746214975e-01) (8, 1.32732314053514821595e-01) (9, 2.20639365168357887148e-01) (10, 1.95368530009341206943e-01) (11, 1.44592204490043368947e-01) (12, 1.08896683418079537331e-01) (13, 2.25349924133572382390e-01) (14, 1.95122314673372848626e-01) (15, 8.49847243461761686634e-02) (16, 1.33549560490367258403e-01) (17, 1.42280654343797635653e-01) (18, 1.25978090943937914847e-01) (0, 3.25215359433399187061e-01) (1, 2.95750808609874134281e-02) (2, -4.61883497521548350151e-03) (3, -1.26347803348807602442e-01) (4, 2.98685068363648942302e-01) (5, 4.21209821857424296376e-02) (6, 3.38466235956097205584e-01) (7, -1.81755109579998380687e-02) (8, 4.20545589803889230396e-01) (9, 4.16012294760221501555e-01) (10, -5.76346076342564919703e-02) (11, -6.56930385608739952907e-02) (12, -6.55024303546226094319e-02) (13, 2.75006998394300011812e-02) (14, 5.93728059461324439439e-02) (15, -8.02975041625337837559e-02) (16, -1.25394858888987686951e-01) (17, -5.01286349253958971040e-02) (18, 5.40149545919827098195e-02) (0, 1.35431812288364945146e-02) (1, 1.12357518435405607377e-02) (2, 3.28638949552997969988e-03) (3, -6.96662459134121253568e-02) (4, 7.22160134037759110504e-02) (5, 3.11289379343256088217e-02) (6, 6.95955545755582577483e-02) (7, -1.37158098823673985783e-02) (8, 3.25017194438260853540e-02) (9, -7.79090228935906403684e-02) (10, 4.75107094821463279977e-02) (11, 7.74256754084801240845e-02) (12, 7.50069461644972852732e-03) (13, 5.50011702508149298574e-03) (14, -4.35916809353458917231e-02) (15, 9.56722092982207131251e-03) (16, 6.43795434653715026307e-02) (17, -8.64730278820226572201e-02) (18, -9.40634606464698652672e-02) (0, 3.16939239789374382905e-01) (1, 2.34296524896400293336e-01) (2, 3.17867929901439028040e-01) (3, 3.86764264887763165035e-01) (4, 2.97017815997706213782e-01) (5, 3.79825132372593909924e-01) (6, 3.30217332617440850751e-01) (7, 2.83850251696251665301e-01) (8, 4.26987260942705393330e-01) (9, 3.32282106461098514227e-01) (10, 3.60226552573966407600e-01) (11, 4.08461845287101221746e-01) (12, 2.61040901797118418681e-01) (13, 2.87632615454225026852e-01) (14, 3.26963848982946891919e-01) (15, 3.04114092256327961383e-01) (16, 2.75064242965184335699e-01) (17, 2.73308401024455915884e-01) (18, 2.88925260939069561417e-01) (0, 2.81596029686479454313e-01) (1, 3.26057717071944475062e-01) (2, 2.31263834649141353239e-01) (3, 2.44322353275809200923e-01) (4, 3.18699006680740248854e-01) (5, 1.53980143372774436195e-01) (6, 1.65038084501206383514e-01) (7, 1.38285134873440934689e-01) (8, 2.79778458160185039549e-01) (9, 1.45648718843934182887e-01) (10, 2.19065529057970775906e-01) (11, 3.00930614601130907992e-01) (12, 2.33512521514093907005e-01) (13, 2.27272267211904660522e-01) (14, 1.89723104403123010719e-01) (15, 1.94186996679158480061e-01) (16, 2.95214645997263935850e-01) (17, 1.41488273353310767266e-01) (18, 2.95328892084252447869e-01) (0, 1.51004934271109281241e-01) (1, 1.40415570873610007219e-01) (2, 1.99551035216076921852e-01) (3, 2.84126223425568702474e-01) (4, 3.20817455811669483001e-01) (5, 2.33547453341194283238e-01) (6, 1.44714352227560433262e-01) (7, 2.19721341372210110521e-01) (8, 3.09601585155348135725e-01) (9, 1.91718634843703134019e-01) (10, 2.64969781954492056286e-01) (11, 1.70466882672011627031e-01) (12, 8.75973163160176038211e-01) (13, 2.58951032951088566669e-01) (14, 2.67623300592559287825e-01) (15, 2.51453135002050298663e-01) (16, 2.44558096693175991421e-01) (17, 1.02527742234573304714e+00) (18, 2.83399279544835902556e-01) (0, 1.07974787217011924945e-01) (1, 4.13837099512564116077e-02) (2, 1.01126272289855434483e-01) (3, -6.05162666367023514141e-03) (4, 8.20690484356148552969e-03) (5, 1.54685086529635128574e-03) (6, 8.71132238196407060471e-02) (7, 6.48380692882638276497e-02) (8, 5.76091678708089277583e-02) (9, 4.52186638400670914972e-02) (10, 7.32344026831538430500e-02) (11, 1.82749487971397041319e-02) (12, 6.71489211909402639034e-02) (13, 7.97004156785238448979e-02) (14, 9.03224753122490731094e-02) (15, 1.41659386396714506717e-02) (16, 6.82835465644918981898e-02) (17, -1.02374909622503229567e-02) (18, 2.87901372699550066325e-02) (0, -1.14976080859878829199e-01) (1, -1.03397381336859134349e-01) (2, 2.21397737468045606446e-02) (3, 1.81367311729892753680e-02) (4, -6.70379153003089200968e-02) (5, 2.59638058878102102878e-02) (6, -5.78823823298951697924e-02) (7, 6.62584752970329093902e-02) (8, -6.38069896468502206766e-02) (9, 4.84157150128904645303e-02) (10, 2.16780364584253024129e-02) (11, -1.14515129810840221580e-01) (12, 2.55051754412126338578e-02) (13, -7.16039197091551948837e-02) (14, 5.27618905576018315529e-02) (15, -1.20839561560962482911e-01) (16, -8.08259640673739468419e-03) (17, -8.30204407095184726550e-02) (18, 2.59805549004056487994e-02) (0, 1.77915251057433054793e-01) (1, 2.95373297079610519500e-01) (2, 1.91983785678560503474e-01) (3, 3.10856546382314413712e-01) (4, 1.78943566888830785100e-01) (5, 3.18839599604360479645e-01) (6, 2.51121469735284930103e-01) (7, 3.28972934842807318567e-01) (8, 1.96729690943711565954e-01) (9, 1.80127382731444879438e-01) (10, 1.78442333542052133932e-01) (11, 2.85226720855394078047e-01) (12, 1.93731743601048334025e-01) (13, 2.04421377531356779356e-01) (14, 2.31334965901953681922e-01) (15, 1.41244897119969153865e-01) (16, 2.64728933923733422695e-01) (17, 1.83558515904581498468e-01) (18, 2.11570713227906714859e-01) (0, 2.08545519761052539076e-01) (1, 2.01089979108396904595e-01) (2, 1.41324878204362819334e-01) (3, 1.59819471738900847901e-01) (4, 2.19951107220491409722e-01) (5, 9.32086664439512602165e-02) (6, 2.14594167808353775140e-01) (7, 1.99645397283936515409e-01) (8, 9.63375792561084048904e-02) (9, 1.34872516977374873326e-01) (10, 2.40593430854405515573e-01) (11, 2.46286608436501575081e-01) (12, 1.77285686577766471439e-01) (13, 2.05284926587116001162e-01) (14, 1.02768309770920510116e-01) (15, 1.57460431520048627085e-01) (16, 2.51136553517526117663e-01) (17, 8.85159664366280407588e-02) (18, 2.73079819891424324663e-01) (0, 2.34893429998009828363e-01) (1, 1.42439743496869164474e-01) (2, 1.05700521274830594454e-01) (3, 6.70362116807649011108e-02) (4, 9.45745215067425315514e-02) (5, 1.71774204674170372087e-01) (6, 1.50761781511132647582e-01) (7, 1.89132259736112501303e-01) (8, 1.78911685065545805751e-01) (9, 8.21895027143007828041e-02) (10, 2.39201045310773907637e-01) (11, 2.57390458335031768744e-01) (12, 2.09890157277981770356e-01) (13, 1.65068556587866205332e-01) (14, 1.11829528544799272627e-01) (15, 9.02000830860874847072e-02) (16, 1.02211664131340460027e-01) (17, 1.25651726921556405880e-01) (18, 2.19785382480947893979e-01) (0, 3.42524180624273061335e-02) (1, -4.80254786738055355899e-02) (2, 8.44338448249400408407e-02) (3, -3.73210823475709271152e-03) (4, -8.52031496954409606204e-02) (5, -1.93346065568096546483e-02) (6, -8.43876419137042921292e-02) (7, -6.34889749038042294771e-02) (8, 5.46615485784665913749e-02) (9, 8.32846351259171474579e-02) (10, -5.60271434464601064684e-02) (11, 4.66872305103747317623e-02) (12, 4.68379011825928101564e-02) (13, 1.50724390893071952952e-02) (14, 8.47328784451341632256e-02) (15, 5.57415608228999451268e-02) (16, 3.83067995418155046727e-02) (17, -1.65816728645788689922e-02) (18, -6.50408217142620648232e-02) (0, 9.69589086666188537666e-02) (1, 2.64159819260779034356e-02) (2, 8.07125868428321124881e-02) (3, 6.89028681217209310050e-02) (4, 2.10717687350590848760e-01) (5, 2.19058583052751359999e-01) (6, 1.58606743125885046863e-01) (7, 5.30142013665351602425e-02) (8, 3.55304581673245301054e-02) (9, 1.88844063983444387933e-01) (10, 1.07331037001941492770e-01) (11, 1.83771679673342180905e-01) (12, 1.38951548140686192978e-01) (13, 1.73881723427920464875e-01) (14, 1.84060590593096651268e-01) (15, 4.73194212175553075017e-02) (16, 2.04533642900658479968e-01) (17, 7.93021462489718192979e-02) (18, 7.87868484720300465973e-02) (0, 1.69669042020930693759e-01) (1, 1.63227520839145823217e-01) (2, 1.90695857622023512423e-01) (3, 2.28857515755018503523e-01) (4, 3.25130368436936267873e-01) (5, 1.53764849681972709527e-01) (6, 1.60161045721682132603e-01) (7, 3.25078860989253870528e-01) (8, 3.24722027592288242648e-01) (9, 3.13683462350913211392e-01) (10, 2.23712802324990689407e-01) (11, 1.74896819985209700521e-01) (12, 1.88683259415721310548e-01) (13, 2.29185152399662889211e-01) (14, 2.34910750016341041135e-01) (15, 2.35627018915863600812e-01) (16, 2.17943728148442955606e-01) (17, 2.35301626910637690093e-01) (18, 1.74550579019988799656e-01) (0, 3.56735970117123893375e-02) (1, 3.61872044691953151374e-02) (2, 2.67856290052316918515e-02) (3, 3.84062770552431528848e-02) (4, 9.15153108408610794361e-04) (5, 3.19505173760842309250e-02) (6, 6.20918363215415200496e-02) (7, -3.47074392271224038686e-02) (8, 6.02262106328750670969e-02) (9, 8.35398092018533461323e-02) (10, 2.55509789679526436168e-02) (11, 1.73657456739426258041e-02) (12, 8.82167560974311676381e-02) (13, 2.93877179090729183375e-02) (14, -1.83688484187710734941e-02) (15, -2.07150289206843377099e-02) (16, 3.63547330439337526564e-02) (17, -3.40877320674087347721e-03) (18, 1.00359579068851813982e-02) (0, 2.54297579182259092523e-01) (1, 2.17859120598927147316e-01) (2, 2.15567928636697048184e-01) (3, 1.44918438568596819049e-01) (4, 2.58648523948675435058e-01) (5, 2.70143771416956945952e-01) (6, 2.39996174332798350992e-01) (7, 1.60467331026363568824e-01) (8, 1.71663370623994615549e-01) (9, 3.23832485752647614152e-01) (10, 2.61661541208407566472e-01) (11, 2.12106533008522002426e-01) (12, 2.40999815610404233279e-01) (13, 1.79342478616779432699e-01) (14, 2.22350028249232611888e-01) (15, 2.45815002521706849059e-01) (16, 2.61751367551464553252e-01) (17, 1.51861888702001679441e-01) (18, 2.05468181826801044032e-01) (0, 1.97404832813776548450e-01) (1, 1.98516613961819549106e-01) (2, 3.88389896739516765622e-02) (3, 1.04449544627773505123e-01) (4, 2.15407836008749492551e-01) (5, 2.19919733900686614758e-01) (6, 4.16298373224954915139e-02) (7, 8.99029727390499577844e-02) (8, 9.38506674890053488314e-02) (9, 1.67933177928051097227e-01) (10, 1.84055545496093930780e-01) (11, 1.96750613525194184561e-01) (12, 9.20541948324715142427e-02) (13, 6.84943219714930495723e-02) (14, 8.21419798840525294814e-02) (15, 1.00965312874965754131e-01) (16, 1.94379307239755133585e-01) (17, 2.19193811342588779079e-01) (18, 2.10784927817025208308e-01) (0, 2.21754698307697922788e-01) (1, 5.77652390279304317477e-02) (2, 2.01525470724152083735e-01) (3, 1.50324296670584861557e-01) (4, 1.36779832078031765574e-01) (5, 1.09433343395903437401e-01) (6, 1.96246434050936197080e-01) (7, 2.60379174817436283285e-02) (8, 1.92410224112754581205e-02) (9, 1.22318879374073333222e-01) (10, 4.48078662253246218228e-02) (11, 9.16172642796557884504e-02) (12, 1.00679981246853150756e-01) (13, 2.21036970287558171000e-01) (14, 1.11412525899710707078e-01) (15, 1.80255036685366049065e-01) (16, 2.14814095972504143228e-01) (17, 1.09044747013711376682e-01) (18, 2.02841146047097159455e-01) (0, 9.45923254680007818962e-02) (1, 1.96014456085084887160e-01) (2, 1.63564961299276945272e-01) (3, 5.66887594554161197702e-02) (4, 1.73721338576150186039e-01) (5, 2.33660047510169804896e-01) (6, 1.03552374083337964117e-01) (7, 3.39042068583918013158e-02) (8, 1.15581629444138814233e-01) (9, 7.59725697212822598248e-02) (10, 2.31138909579402002104e-01) (11, 1.04407445659353184664e-01) (12, 7.57681564271693447354e-02) (13, 6.69450370986537784956e-02) (14, 8.39738047816944305213e-02) (15, 2.04133344476175648818e-01) (16, 1.81765760555106958840e-01) (17, 1.71448039649151562358e-01) (18, 1.78749068203308381086e-01) (0, 3.68354753480201399518e-02) (1, 2.26362399392783519847e-02) (2, -6.69848774308668959421e-02) (3, 6.21604137596924039011e-02) (4, -1.04790226722062562725e-01) (5, 1.17359951944076296854e-02) (6, 5.90904929155208549774e-02) (7, -1.53368094439305380217e-02) (8, -2.70526991543552294828e-02) (9, 5.19454772862141880840e-02) (10, 7.20772302262096403735e-02) (11, -4.61706647090689009660e-02) (12, -8.72556771127211416861e-02) (13, 3.42142063421661535294e-02) (14, 8.36008197035041783485e-02) (15, -6.43603946371411050897e-02) (16, -2.57739349395598969783e-02) (17, 8.34673872536055710958e-02) (18, 5.39850246636067350459e-03) (0, 1.11511520647990081123e-01) (1, 1.02430262446670250487e-01) (2, 1.82476392336750087297e-01) (3, 1.08856950360455922988e-01) (4, 1.73044231219319499804e-01) (5, 2.38116168162201581604e-02) (6, 1.39093129911591645298e-01) (7, 2.09486274608947364850e-02) (8, 1.94151484405691743262e-01) (9, 8.70654105066303168892e-02) (10, 1.58603190130209958930e-01) (11, 1.39107072648931739955e-01) (12, 3.97559520425971174573e-02) (13, 9.58155922821731370620e-02) (14, 1.87977264293111512306e-01) (15, 2.14016350094147822514e-01) (16, 1.06240982647526197025e-01) (17, 1.14289421607071686737e-01) (18, 1.88961909197615407496e-01) (0, 1.82134196431703587749e-01) (1, 1.78466745773956658727e-01) (2, 1.31497954744074357913e-01) (3, 1.69427040858228905584e-01) (4, 4.75116951720713151519e-02) (5, 1.59457894718768866671e-01) (6, 1.18940861316638488154e-01) (7, 4.63281289827588635410e-02) (8, 9.67366220118029071506e-03) (9, 7.74308849663101015498e-03) (10, 4.50111304366800843435e-02) (11, 1.24213030640687366324e-01) (12, 9.79349526038057610622e-02) (13, 1.24842832274140669302e-01) (14, 9.37204430575778874024e-02) (15, 1.84193342355051942194e-01) (16, 7.65674038792803629550e-02) (17, 9.84883319130335360692e-02) (18, 1.04882193220145816803e-01) (0, -2.99647190822989635539e-02) (1, -3.42014851894821697575e-02) (2, 6.51063051988008539839e-02) (3, -9.10447119738488769292e-02) (4, 8.58618594055529926745e-02) (5, 8.51790771998702511691e-02) (6, -1.67490285534988257721e-02) (7, 5.41559407700367700933e-02) (8, 7.76755155450951778606e-02) (9, 7.04482260401306653597e-02) (10, -5.05983686570205329347e-02) (11, 4.69542417209506054987e-02) (12, 6.00004661980715198188e-02) (13, -6.96659408658114043256e-02) (14, -1.41297599018699732154e-02) (15, 3.18931890735529507963e-02) (16, -1.47361989872706738991e-02) (17, -5.22061830727163084243e-02) (18, -4.17479059767036711492e-02) (0, 2.71570419750791602898e-01) (1, 2.00561601679324741365e-01) (2, 2.07567821285528864017e-01) (3, 3.21523415992882588554e-01) (4, 1.36430698340223366394e-01) (5, 3.10444639694745394554e-01) (6, 2.52902260102500053840e-01) (7, 2.36047704132746782868e-01) (8, 3.40623234647231654115e-01) (9, 1.74815464591583508147e-01) (10, 1.38523201941424312089e-01) (11, 2.50447290692556112646e-01) (12, 2.17186244004149431319e-01) (13, 2.18015849960966234811e-01) (14, 1.87889091405989638872e-01) (15, 2.79284906187546644318e-01) (16, 2.16617142758908642897e-01) (17, 1.85807601998249305453e-01) (18, 1.37347553956606915904e-01) (0, -1.25094003079950860657e-01) (1, -1.29907788257625528283e-01) (2, 1.44048772691320551426e-02) (3, -6.29529354574819705048e-02) (4, -1.67737932429491448660e-01) (5, -1.28552232335392667417e-02) (6, -1.74032591427454863542e-02) (7, -6.91282560518719918496e-02) (8, -6.12675054310069383545e-02) (9, -1.14921110208963048183e-01) (10, -6.11882203717265850396e-03) (11, 9.72402487177877368485e-03) (12, -1.70126795730602659029e-01) (13, -1.23375496293555167449e-01) (14, -1.10438956044658406763e-01) (15, -1.66421655673427204558e-01) (16, -1.13720900245530928685e-01) (17, -1.23246203930082995348e-01) (18, -4.12501947926610310069e-02) (0, 6.92139375080779023497e-02) (1, -7.61397764268459953385e-02) (2, 4.00484656351599785373e-02) (3, -1.14560051108000993114e-01) (4, 1.06516918811478140255e-02) (5, -6.60171778477283699438e-02) (6, -1.97960857469726379809e-02) (7, 7.52888987803319170711e-02) (8, 4.92891602856889848860e-02) (9, 7.32464267424310921939e-02) (10, -6.21553868015888716370e-02) (11, 6.37075753119250576262e-02) (12, -6.64929440095364948649e-02) (13, -6.70853975099891010336e-03) (14, 6.34670849090404193271e-02) (15, 5.59087559343293127867e-02) (16, 1.09081631277251640127e-02) (17, 3.59664940034844712868e-02) (18, 2.41828747891341955256e-02) (0, -2.54557575032926391989e-02) (1, 2.98440937153577733748e-03) (2, -6.24528146207705622817e-02) (3, -3.80032422873379377437e-02) (4, -6.41584795736576361802e-03) (5, -4.62702781136230187342e-02) (6, 1.22349742030493785494e-02) (7, 6.94545282357261622996e-02) (8, -3.18162131006306178604e-02) (9, 8.85193217999699077936e-02) (10, 1.30608262777456157755e-01) (11, 1.16938839949159795184e-01) (12, 6.82982608809953734008e-02) (13, -2.93612026126716767205e-02) (14, 7.52121055243761271747e-02) (15, 7.36044393946459069022e-02) (16, 9.65061064490240760883e-02) (17, 1.16750746490086931839e-01) (18, -3.56266446862469540746e-02) (0, 2.34915971380833449311e-01) (1, 2.29483618596820398983e-01) (2, 1.01063493877228530171e-01) (3, 8.79761986864278922038e-02) (4, 2.08406808015928785016e-01) (5, 1.50108912717807047033e-01) (6, 1.96483276022844682851e-01) (7, 1.87089507125284909561e-01) (8, 1.21556028428886825354e-01) (9, 1.22607053257753312314e-01) (10, 1.38271615235952799461e-01) (11, 2.60954520305436699079e-01) (12, 1.64957209749005434540e-01) (13, 2.09061938695165622226e-01) (14, 2.66307619679210905161e-01) (15, 1.86543176624200418567e-01) (16, 2.70452004732344652993e-01) (17, 8.68885556503657119354e-02) (18, 2.65629367892259937722e-01) (19, 4.06000095403146465944e-01) (20, -8.42931214799439554319e-01) (21, 4.85210629001982751696e-01) (22, 4.04414269194915243499e-01) (23, -8.63791773299737886127e-01) (24, -8.13356008205639913200e-01) (25, 4.07342561994619711818e-01) (26, -2.52171198045680444721e-01) (27, -4.95166647705443802030e-03) (28, -1.22738436018552832252e-01) (29, 4.18310834448151591669e-01) (30, -2.10229312316814687112e-01) (31, 4.28742427104418177830e-01) (32, -3.20139756833511535117e-01) (33, -5.27244375835758005699e-01) (34, -3.20834570516318307032e-01) (35, -3.92787086683966613077e-01) (36, 4.06834864705526155770e-01) (37, 3.51093628874890706371e-01) (38, -2.86751714537965607388e-01) (39, -7.16760364702485830435e-01) (40, 3.23027557744447080257e-01) (41, -7.06751285219944236360e-01) (42, -1.00762899791691090678e-01) (43, 4.76549621923081700992e-01) (44, -3.01526433545647176704e-01) (45, 4.12490622220744340698e-01) (46, 3.12419671271985166516e-01) (47, 3.74751505146148689018e-01) (48, -7.45772079965788758926e-01) (49, -3.89885170714238504797e-01) (50, 1.92055503251925163699e-01) (51, 3.75194457308815898511e-01) (52, -9.57099827313916129423e-02) (53, -8.11524229454597789690e-01) (54, 4.79203333941847609001e-01) (55, 1.94335074822821807228e-01) (56, -1.41819342664222025618e-01) (57, -2.53264350413647143512e-01) (58, -3.77895713747876282884e-01) (59, 3.83041406952556062748e-01) (60, 3.71630069736789969692e-01) (61, 3.46458602910567681210e-01) (62, -2.96907301960151526199e-01) (63, -2.28806170426303245868e-01) (64, 2.95542595467300661660e-01) (65, -2.11158283887084130548e-01) (66, 4.71870403398082949309e-01) (67, -1.97519455349039807501e-01) (68, 4.76899944168279132928e-01) (69, 3.91702274469270694812e-01) (70, -3.89359215129951474754e-01) (71, -2.08369024689828652441e-01) (72, -1.59248414402481053287e-01) (73, 4.44461513960483722840e-01) (74, 5.15884154289544150096e-01) (75, 1.49833284327754334697e-01) (76, -3.10224422047553460846e-01) (77, 4.78388352823034657124e-01) (78, -3.18616272055502414151e-01) (79, 3.14684206453426040806e-01) (80, -1.89968424877349995050e-01) (81, 3.88422430866496581903e-01) (82, -8.70514935000450851277e-01) (83, 3.63080331638112652204e-01) (84, -3.54181227164338030544e-01) (85, 3.62108024898110447687e-01) (86, 4.69518544523644942856e-01) (87, -2.48297012772268871350e-01) (88, -7.18288849192679101918e-01) (89, 2.98206416478054292529e-01) (90, -2.17447680508958074430e-01) (91, 3.37141857091911745226e-01) (92, 3.64368536059040126762e-01) (93, -1.48891365140597420336e-01) (94, 1.85983561133316321889e-01) (95, 7.15342226682726678444e-02) (96, 1.42454506172949163512e-01) (97, 3.76112178865076030032e-01) (98, -8.25898764946280894428e-01) (99, -1.56862605466931093190e-01) (100, 3.83337258943218017748e-01) (101, -1.72577308921972483180e-01) (102, -7.53625155758474996048e-01) (103, 3.75973109678342853890e-01) (104, -1.42967821725233229513e-01) (105, 1.82761106876428214285e-01) (106, 3.69485404302526854181e-01) (107, -2.70933146355697263008e-01) (108, -1.10522680412121918070e-01) (109, -1.40166308865243782744e-01) (110, -2.36545423231852958157e-01) (111, -7.74774326192937623503e-01) (112, 2.95959675984179437780e-01) (113, 2.31540882513433243783e-01) (114, -3.30773419614387498289e-01) (115, 3.09092945318959255729e-01) (116, 4.75812905374312367091e-01) (117, 3.45328710611542966102e-01) (118, -3.80231461579723706290e-01) (119, -8.66753474701743298336e-02) (120, -8.72858485892529123440e-01) (121, 5.30769420343854114036e-03) (122, -3.88710008314303301358e-01) (123, -8.06893438032667553728e-02) (124, -1.33403333030740312015e-01) (125, 2.24393241562288126012e-01) (126, -3.59782562887629442372e-02) (127, -2.39165842373209813765e-01) (128, -1.69010481430050873985e-01) (129, -8.51166781798987748253e-01) (130, 1.95077078381833329823e-01) (131, 2.96592053241859943125e-01) (132, -1.39943451192927059701e-01) (133, -4.44414891058971583959e-01) (134, -2.05350350111032697864e-01) (135, 4.27347864791669695972e-01) (136, 4.05994792638592116862e-01) (137, -3.73325909565661528955e-01) (138, 2.01504376022277165159e-01) (139, 3.00230818511955488415e-01) (140, 4.49756869936787262443e-01) (141, 1.48438395388500538052e-01) (142, -2.77622940071916290972e-01) (143, -1.96351300039142653842e-02) (144, 2.58835121844405817437e-02) (145, -5.79957164867811680864e-01) (146, -1.94514426508810456262e-01) (147, 3.11876752484939012700e-01) (19, -1.78263538211021838054e-01) (20, 6.24726921696876491552e-01) (21, 1.19999511233635752783e-01) (22, -9.53213777805881484761e-02) (23, 6.40214953899865824027e-01) (24, 5.55667720269190090754e-01) (25, -1.22174689877470279975e-01) (26, 2.51635129635965959505e-01) (27, -3.06369028187300607158e-01) (28, 3.74424855839105785726e-01) (29, -2.30199354889215446196e-01) (30, 4.21604961077217177401e-01) (31, 5.45162859590546527988e-02) (32, 3.59551510312092259536e-01) (33, 3.02375020481009670892e-01) (34, 2.77190975180540366551e-01) (35, 3.89105657280727323943e-01) (36, -2.47746305431351759863e-01) (37, 1.09327770211142205614e-01) (38, 3.14803963609505466081e-01) (39, 6.07429077409155526723e-01) (40, -1.83428024737190581428e-01) (41, 6.37618344007965243136e-01) (42, 3.11637256997653211421e-01) (43, 4.47695710392980866787e-02) (44, 2.63698944422248449104e-01) (45, -2.31239207013516828715e-01) (46, -9.46241915534872385374e-02) (47, -2.21902440087514724043e-01) (48, 6.15202167865180671313e-01) (49, 4.27328276810132801078e-01) (50, -1.22040269775510121231e-02) (51, -3.85088157237700665081e-02) (52, 4.57564593655852835941e-01) (53, 6.02245880983729220404e-01) (54, -2.03479532315258226927e-01) (55, 7.99419806220711265388e-02) (56, 4.48405253927507241318e-01) (57, 2.96222177512190709692e-01) (58, 2.93397230977185341505e-01) (59, -7.05598750846384986657e-02) (60, -1.76282796393804647161e-01) (61, -5.53034672551184561251e-02) (62, 4.32394058788140689398e-01) (63, 4.31335294109770284177e-01) (64, 4.25589718755214896362e-02) (65, 2.67279411971668823256e-01) (66, -1.12236869721645121656e-01) (67, 4.30983915612626333758e-01) (68, -2.41156052497845774241e-01) (69, -2.39738528109152193579e-01) (70, 2.55599484631072959573e-01) (71, 3.51482543156055204925e-01) (72, 3.80694191958688088473e-01) (73, -2.03068917680794880365e-01) (74, 1.16318654000962917738e-01) (75, 1.96282165215775988854e-01) (76, 3.04130654612301931650e-01) (77, -1.05696573024918180628e-01) (78, 3.90623816197381901194e-01) (79, -1.16225040870514079172e-01) (80, 1.98610577949046157586e-01) (81, -2.03781203999816529215e-01) (82, 6.26584961576795107518e-01) (83, -8.30427844523119185194e-02) (84, 3.35303376351008763923e-01) (85, 5.33773778054475872556e-02) (86, -1.54929601119880883120e-01) (87, 3.03775167103893350973e-01) (88, 4.59836363909954803919e-01) (89, -1.03837989159475507783e-01) (90, 3.66738353501493308251e-01) (91, -1.96379895658472636288e-01) (92, -1.11074879296475734214e-01) (93, 3.94454631470232186530e-01) (94, 1.14844464598645917830e-01) (95, 3.24274824739215206115e-02) (96, 1.11390471252047151829e-01) (97, 1.03937099514635256092e-01) (98, 5.83957995336881308113e-01) (99, 4.26338952025625883557e-01) (100, 6.32935785970418079982e-02) (101, 3.31999656912698670741e-01) (102, 5.63140236045533981724e-01) (103, 1.30258803810313836258e-02) (104, 3.22282709398115319033e-01) (105, -5.88352246576145584966e-02) (106, -6.48200654294348033169e-02) (107, 4.01194513841298172618e-01) (108, 2.20470113477162582560e-01) (109, 4.36040559453395870637e-01) (110, 3.33036050088902413346e-01) (111, 6.21830520553856014310e-01) (112, -2.47674107721043340602e-01) (113, 1.10089144332879015908e-01) (114, 4.23974267705552965158e-01) (115, -2.81903105168297314631e-02) (116, 3.40421689672752880718e-01) (117, -1.73260955411340150656e-01) (118, 3.97165396908561563194e-01) (119, 3.57952431585695285410e-01) (120, 5.72567712393687644479e-01) (121, 2.97312041263013103476e-02) (122, 3.72011274941095093638e-01) (123, 4.35959373735050392806e-01) (124, 4.73747140959627055512e-01) (125, 6.22508036012355686628e-02) (126, -4.52992296488708479085e-01) (127, 4.13242102303257641260e-01) (128, 4.26901536713582829830e-01) (129, 6.27705784470188543622e-01) (130, 5.43068363075886947899e-02) (131, -1.16224387640850496117e-01) (132, 4.14519777243153419999e-01) (133, 4.98619370261761174490e-01) (134, 2.97410497467395618099e-01) (135, -2.16416406800823551970e-01) (136, -1.43515686891442811879e-01) (137, 2.54507874169007497489e-01) (138, 7.62232561747102077554e-02) (139, -1.94263492457005859659e-01) (140, -6.66935414879362281626e-02) (141, 3.94153944478842985233e-02) (142, 3.72753562979114716480e-01) (143, 2.52983427050214815246e-01) (144, 2.79919269974726742101e-02) (145, 2.56524539356780212351e-01) (146, 3.55089198006547923647e-01) (147, -9.65512876994910757000e-02) (19, -3.17846279421177158042e-01) (20, 4.68242050560776779111e-01) (21, -8.31931236041852789631e-02) (22, -4.98812069755756370970e-01) (23, 5.47534560050171870138e-01) (24, 5.97466454478185249322e-01) (25, 4.77875897713801386923e-02) (26, 2.38468192619090135764e-01) (27, -7.10036597193559604335e-02) (28, 2.89616703238517216035e-02) (29, -4.68338154652322313787e-01) (30, 9.98615462836038303429e-02) (31, -2.44771402734886601993e-02) (32, 2.51490962800727690940e-01) (33, -1.66913542142343329644e-01) (34, 1.58183050737011138276e-01) 